84 84
18 -0.02905191 -0.14984055 -0.048511166 -0.11910777 -0.0073190043 0.0041644154 0.0487005 0.053314697 0.17547868 0.025963789 -0.013539871 0.22861706 0.12966831 0.055780444 0.002264802 -0.2475797 -0.12187884 -0.045499556 0.009155424 0.0569352 0.0055248956 -0.08391677 0.15263723 0.050895058 0.06398902 -0.00017250537 -0.13007094 -0.0028184573 0.02494219 -0.07388149 0.018979486 0.14585805 -0.14635459 -0.06953558 0.00095115905 -0.09047912 0.080405295 0.026497405 0.049136378 0.06574037 -0.029352328 0.07788649 0.118855804 0.0090229465 -0.118955664 0.26296714 0.07971563 -0.043224916 -0.011054274 -0.04131881 -0.10530449 -0.027007027 0.038847532 -0.08823187 -0.13086802 -0.09196983 0.109672084 -0.027480667 -0.20919812 -0.07660962 0.07298323 -0.11266259 -0.07960984 0.08729291 -0.04914186 0.13564806 -0.023500757 -0.05170943 0.118933804 0.086930856 0.086104244 0.08332699 0.20773348 -0.17692925 0.19291809 -0.080320604 0.07275012 -0.068143606 0.0026529916 -0.00054105476 0.21371715 -0.053330828 -0.14004055 -0.06201311
81 -0.032030676 -0.16781333 -0.033052307 -0.12716022 0.0022396152 -0.0101723615 0.041596934 0.06322424 0.16577709 0.023599053 -0.013293405 0.18947102 0.11471664 0.031798933 0.025130823 -0.1911299 -0.12093528 -0.05449095 0.018858325 0.04937213 0.014285184 -0.073708095 0.13344988 0.05030956 0.07021205 -0.006200775 -0.11716271 0.00027163717 0.007916752 -0.075404145 0.009061584 0.11406887 -0.161401 -0.1000189 -0.016208706 -0.10528223 0.09159337 0.036767166 0.05425924 0.06518434 -0.027526442 0.08512975 0.1307537 0.005301523 -0.12609488 0.271241 0.076586805 -0.029187778 -0.014108098 -0.023395896 -0.10549239 -0.009158874 0.02485962 -0.08648634 -0.1547073 -0.10726172 0.10726852 -0.01929089 -0.22699524 -0.0848562 0.082818225 -0.1245787 -0.0811112 0.12283224 -0.05711467 0.13916662 -0.035517205 -0.052060183 0.12510276 0.07473008 0.08499894 0.093254164 0.20908487 -0.17984301 0.18815419 -0.08568824 0.06709173 -0.07342178 0.0055899043 -0.003920347 0.21280654 -0.04492992 -0.14521874 -0.060919035
38 -0.026469406 -0.16215289 -0.03594115 -0.1105189 -0.029144084 -0.0114979055 0.044608235 0.03551973 0.1393216 0.018355276 -0.016358744 0.17411773 0.08837209 0.028620018 0.0047127833 -0.18067606 -0.10800789 -0.03846825 0.028385576 0.03516642 0.00070479006 -0.0586882 0.11864794 0.03846907 0.05203824 -0.005309314 -0.12011906 -0.025091158 0.009915772 -0.047959078 0.018398391 0.09989427 -0.16264199 -0.074640445 -0.009237005 -0.101788886 0.070676774 0.01427875 0.03282261 0.045776315 -0.03327105 0.06648329 0.12915644 0.022288242 -0.11851892 0.27601957 0.087136 -0.043628152 -0.0048003923 -0.04997573 -0.10143041 -0.026472637 0.014126829 -0.09391595 -0.1502173 -0.09831758 0.13154723 -0.009839423 -0.2322814 -0.09473334 0.079879925 -0.1285848 -0.0874894 0.09465639 -0.047972646 0.15906815 -0.021613643 -0.059078306 0.113700405 0.067468785 0.075517066 0.07862222 0.22243778 -0.18104556 0.21991435 -0.06816374 0.07022011 -0.08961822 0.008211224 -0.016031014 0.26366752 -0.059996594 -0.16914998 -0.070724264
62 -0.03797534 -0.1847246 -0.060654715 -0.15312208 -0.018174384 -0.016707905 0.074565984 0.07839854 0.16389622 0.0011104413 0.0007877119 0.21924756 0.11278412 0.048847686 -0.003254161 -0.24167778 -0.1419873 -0.04394472 0.0050677583 0.043579645 0.005688957 -0.09770593 0.13467214 0.03734937 0.05438913 0.015233232 -0.14392234 0.004443677 0.012642369 -0.08320538 0.015886607 0.11829052 -0.17025797 -0.06685154 0.0024227046 -0.10053925 0.07902724 0.025871167 0.04716351 0.051156603 -0.031485166 0.07311247 0.13099173 0.009731724 -0.13483028 0.27336034 0.10136248 -0.02204876 -0.005666939 -0.060153857 -0.12754971 -0.026824575 0.022343045 -0.08905089 -0.1391408 -0.101426736 0.11210359 0.003406368 -0.20552987 -0.09171904 0.08038723 -0.10267739 -0.08949579 0.072672136 -0.056981847 0.13875571 -0.022241695 -0.05031941 0.111335106 0.07811685 0.03893833 0.069920965 0.20162371 -0.13165797 0.17402099 -0.06266502 0.049354073 -0.09334462 0.0024123173 0.0081145195 0.21549757 -0.039863694 -0.12332851 -0.054233752
82 -0.028592404 -0.12511906 -0.03042655 -0.115673356 3.535015e-05 2.6230395e-05 0.037432663 0.04953112 0.095329404 0.01797431 -0.015994653 0.14635749 0.09580181 0.031169785 0.004532735 -0.15704945 -0.08842665 -0.027542356 0.019353125 0.053363312 -0.01787421 -0.09525071 0.12629202 0.04821774 0.049966883 0.023674197 -0.11839521 0.013517423 0.018736467 -0.12362572 0.015680728 0.14566706 -0.1801056 -0.12091039 -0.0147652235 -0.13186927 0.112528324 0.037830994 0.06263694 0.058557864 -0.024274418 0.07631312 0.15887207 0.020463627 -0.1248812 0.26571545 0.095772244 -0.028659213 -0.015595786 -0.0658265 -0.13294198 -0.017817305 0.0015598743 -0.10893403 -0.13893549 -0.124949515 0.1194585 0.0011101052 -0.2509488 -0.07869292 0.07451066 -0.14409204 -0.07618914 0.10212555 -0.059602335 0.12669985 -0.032665163 -0.0460608 0.110112004 0.081901744 0.06452457 0.09881595 0.24249625 -0.15463452 0.19426525 -0.0946522 0.045049183 -0.08121464 0.022260847 0.017654827 0.25564694 -0.058411215 -0.13773742 -0.052985683
1 -0.034577034 -0.21109542 -0.038812444 -0.14348653 -0.03470126 -0.0065407995 0.071805626 0.049698215 0.20803596 0.022061912 -0.016231969 0.25135726 0.11154104 0.058495514 0.013428469 -0.24895643 -0.13433981 -0.04305461 0.010393838 0.029773 0.021996628 -0.08189657 0.16262664 0.054772325 0.058306135 -0.0026675372 -0.13514946 -0.018203791 0.01027833 -0.029639337 4.925617e-05 0.11059677 -0.13929886 -0.04894354 0.0047998405 -0.093364164 0.061485928 0.021530902 0.027179372 0.03886078 -0.04156595 0.05110568 0.117552444 0.026852144 -0.093866415 0.2775811 0.08027074 -0.042938095 -0.0030883476 -0.013722926 -0.10323799 -0.011634111 0.027497564 -0.090028435 -0.1496325 -0.08527604 0.107550755 -0.015351352 -0.20264566 -0.09939295 0.09511992 -0.12687328 -0.08947122 0.11162168 -0.04359188 0.14039086 -0.009698544 -0.060803995 0.12337416 0.06101418 0.080386385 0.05410464 0.19793399 -0.16359624 0.20355518 -0.074306026 0.061930455 -0.09513637 0.0026280095 -0.030102165 0.19282833 -0.05223506 -0.12093636 -0.06676393
45 -0.02895889 -0.1717868 -0.05097399 -0.11937319 -0.016421715 -0.0021099898 0.05134494 0.036910452 0.1474727 0.027836943 -0.009693866 0.19637172 0.10038728 0.04239217 0.008448957 -0.19633324 -0.10382845 -0.03395658 0.017944943 0.049777858 0.011843074 -0.07008535 0.124694884 0.039029684 0.04557844 -0.0014640605 -0.12035561 -0.013927231 0.01656247 -0.04796837 0.024306905 0.1258906 -0.15932505 -0.050711755 -0.0029010894 -0.08289495 0.07324396 0.037781555 0.045644004 0.059604798 -0.037095763 0.084981054 0.13865206 0.01057646 -0.12030692 0.29141185 0.104175605 -0.052220233 -0.010836553 -0.046416413 -0.10430037 -0.016337661 0.016500158 -0.10161154 -0.14719822 -0.10637052 0.12756126 -0.024993781 -0.21932766 -0.10343307 0.08849175 -0.10587784 -0.10101949 0.09385053 -0.0498986 0.14671026 -0.045007378 -0.070355095 0.13085058 0.08270858 0.09906662 0.087264135 0.20501086 -0.17855635 0.21907258 -0.06689921 0.06494687 -0.07412712 0.0074068652 0.002476216 0.22326276 -0.06253887 -0.14886294 -0.05969577
70 -0.036509678 -0.16495988 -0.05072717 -0.12054159 -0.015617262 -0.0070748776 0.043542523 0.05286083 0.15664177 0.016398264 -0.0070613017 0.21186799 0.09005278 0.039500434 0.016810924 -0.21011911 -0.11906576 -0.049455654 0.02347701 0.04431415 0.0038972255 -0.07964398 0.12679373 0.03896395 0.06009403 0.00085966324 -0.13368207 -0.0071807234 0.007870949 -0.061206087 0.014025891 0.115724415 -0.16783933 -0.064683445 0.012479884 -0.10147657 0.08928792 0.0259138 0.035500947 0.066016376 -0.03888916 0.077861875 0.12589876 0.020414796 -0.12277209 0.26819336 0.087329805 -0.037931476 -0.016904054 -0.052446574 -0.10566929 -0.023084015 0.03511741 -0.08697085 -0.13783112 -0.09183518 0.120379716 -0.0013089858 -0.21651857 -0.101598844 0.07933858 -0.11034216 -0.09937105 0.097741134 -0.05454983 0.13969812 -0.028361259 -0.064966924 0.115945 0.070881784 0.07120515 0.080209926 0.22284877 -0.16821498 0.20959055 -0.073629096 0.06368883 -0.08184904 0.0004298695 -0.0020898648 0.22699417 -0.06071221 -0.15166137 -0.048454713
11 -0.047745086 -0.18949208 -0.05133753 -0.13395143 -0.015396978 -0.019306596 0.05560402 0.043998227 0.17851196 0.0038416346 -0.0044131093 0.21975307 0.13817376 0.042950187 0.01663977 -0.24607626 -0.1484704 -0.049740806 0.013696643 0.049698047 0.015640052 -0.09140575 0.14877318 0.061466273 0.042413678 0.012858926 -0.12925977 0.0011737881 0.012443511 -0.06520717 0.016768795 0.1187972 -0.1485761 -0.07750424 -0.0010988535 -0.07840192 0.07425677 0.04417099 0.051106185 0.05484583 -0.025430698 0.0833031 0.120980985 -0.000255298 -0.10823095 0.25813603 0.075933814 -0.029121004 -0.006657113 -0.046091136 -0.117653534 -0.0053497893 0.011005097 -0.07690587 -0.12319044 -0.095493264 0.106685676 -0.014710788 -0.18594246 -0.08707265 0.0821179 -0.10572668 -0.07492666 0.08468679 -0.061390072 0.13943107 -0.049192242 -0.068366975 0.14131488 0.08671604 0.079352506 0.07744987 0.19084185 -0.1577041 0.2019943 -0.068576895 0.05891291 -0.08629412 0.000566083 0.009054244 0.21431169 -0.030748807 -0.13517998 -0.06810545
32 -0.04896262 -0.13620251 -0.0524323 -0.10200322 -0.0063726273 -0.005870092 0.054068677 0.041488618 0.16081096 0.011520071 -0.009066467 0.21623081 0.12122324 0.032893 0.020779591 -0.20841661 -0.13077754 -0.05904686 0.0070968303 0.050417036 -0.008731029 -0.073113926 0.12796658 0.06933132 0.047127906 0.008194895 -0.12512149 0.014829329 0.01779447 -0.07501023 0.006889079 0.1335557 -0.15704569 -0.0778093 -0.0045400183 -0.11201217 0.09809571 0.043031715 0.050219715 0.067873955 -0.032253433 0.0866169 0.13187994 0.0026396061 -0.12001844 0.25596443 0.0898196 -0.03740788 -0.007846889 -0.04855418 -0.1121984 -0.0057971203 0.012437887 -0.0825007 -0.13954198 -0.1133987 0.10500746 -0.013934525 -0.20173895 -0.09017733 0.07508037 -0.1181127 -0.10171581 0.10714222 -0.058070105 0.13766365 -0.041171905 -0.06484878 0.12936585 0.072756015 0.08649315 0.0877053 0.2099632 -0.16522981 0.21680366 -0.06594536 0.05054296 -0.09339227 0.010082484 0.0036939043 0.22436096 -0.030737823 -0.12758446 -0.05728712
9 -0.038770743 -0.1617618 -0.03859236 -0.12903912 -0.018290421 -0.009695962 0.04003833 0.042012732 0.13990125 0.018793475 -0.004497514 0.18191716 0.102735035 0.030720618 0.010976274 -0.18422067 -0.10305926 -0.027352972 0.014894096 0.038930796 -0.005328596 -0.0797076 0.13811421 0.04232332 0.045542736 0.017773472 -0.1103071 0.0066374415 0.011827677 -0.07047945 0.02295808 0.14105834 -0.14943902 -0.07553809 0.007730745 -0.09212646 0.08747479 0.036800947 0.053286895 0.058964226 -0.045084044 0.07730955 0.1405669 0.02179693 -0.12026053 0.2667749 0.07909605 -0.03834592 -0.02054086 -0.0518325 -0.13542552 -0.015312814 0.02034817 -0.10678542 -0.14501676 -0.11448471 0.116068885 -0.016640851 -0.24218467 -0.09763772 0.09946173 -0.13714877 -0.09532287 0.113995954 -0.053551834 0.1244572 -0.01752281 -0.051564023 0.10997642 0.089232475 0.07583013 0.08592753 0.22328858 -0.15593962 0.19613151 -0.090018675 0.055753585 -0.07004559 -0.0025705842 0.018095573 0.23466852 -0.048922163 -0.14951307 -0.06834311
17 -0.035239995 -0.15623492 -0.030343374 -0.098283835 -0.036458094 -0.025157545 0.06311879 0.04917412 0.17410514 0.023705332 -0.012104315 0.24652186 0.12576276 0.05166723 0.0065886634 -0.23131122 -0.13416393 -0.043783356 0.016920447 0.0522993 -0.0032088696 -0.09170349 0.15229957 0.045161422 0.065955155 0.0043613818 -0.14101005 -0.0003067412 0.022652354 -0.069164366 0.009395901 0.14004005 -0.15399212 -0.076769724 -0.0064436346 -0.10572794 0.10407577 0.029662766 0.04308461 0.061385658 -0.03457625 0.07718533 0.13871545 0.012646522 -0.12527996 0.28097546 0.09564124 -0.043370202 -0.021738922 -0.046705365 -0.12189819 -0.026731437 0.027649865 -0.10848461 -0.14890467 -0.11886273 0.10406525 -0.009954234 -0.21709058 -0.098325826 0.09541499 -0.11728643 -0.08824071 0.088780925 -0.043879718 0.13023445 -0.024715012 -0.045124054 0.09261284 0.06480406 0.058803312 0.05954715 0.17793128 -0.13323253 0.17010428 -0.04927677 0.047042094 -0.0831348 0.009285135 -0.010010001 0.20462355 -0.04921285 -0.109420575 -0.055007614
44 -0.03307159 -0.14344753 -0.05713139 -0.12188429 -0.0176883 -0.0106282635 0.056734204 0.04727186 0.16470641 0.012187835 -0.0035716628 0.20492218 0.09854799 0.034373563 0.011239744 -0.19764075 -0.10950616 -0.042617697 0.017644715 0.042991646 -0.012930064 -0.054164894 0.09660078 0.047730282 0.045323215 0.0040356903 -0.111436866 0.004806741 0.02003981 -0.062655084 0.017289024 0.10862653 -0.15967508 -0.069767155 -0.003795908 -0.09880231 0.07766811 0.024463635 0.049847953 0.067303166 -0.023033919 0.0704607 0.11725663 0.009690337 -0.11060875 0.25372982 0.07048634 -0.043369208 -0.023528002 -0.05792017 -0.10636991 -0.019957365 0.032500762 -0.10510762 -0.14329667 -0.1066499 0.12597978 -0.016177105 -0.22443023 -0.09102678 0.0718988 -0.11647571 -0.102360964 0.08822331 -0.053464644 0.1523954 -0.026076358 -0.06221396 0.124035776 0.0962685 0.09068087 0.08535177 0.22623219 -0.1716368 0.20476325 -0.07441441 0.05501046 -0.08537138 0.008766301 0.009853913 0.26114264 -0.053048085 -0.1728724 -0.07604941
41 -0.03811636 -0.14385623 -0.046659734 -0.10717164 -0.0102736605 -0.013171298 0.056822266 0.047505546 0.13753104 0.0033861715 -0.016229132 0.20434333 0.0969957 0.026052844 0.0030949125 -0.17740522 -0.11967402 -0.03768681 0.013889309 0.056567106 -0.009430208 -0.07865762 0.10176664 0.03837813 0.05107595 0.006653458 -0.1268214 0.008818287 0.016289074 -0.09601356 0.012489374 0.1183204 -0.1774176 -0.08798156 -0.006750325 -0.10452175 0.09742178 0.02707693 0.040532235 0.050061323 -0.020972207 0.06816536 0.13505821 0.0026646066 -0.12089115 0.25575244 0.08829737 -0.028367275 -0.018997822 -0.06155971 -0.11254453 -0.01090433 0.019247321 -0.12003587 -0.13677077 -0.12639269 0.123185374 0.003854587 -0.22988242 -0.10702335 0.07377191 -0.11289722 -0.08628771 0.093321376 -0.06715679 0.1492877 -0.04833405 -0.06446226 0.13593264 0.093857035 0.0739713 0.09088553 0.23495169 -0.15157264 0.20372531 -0.08417856 0.04307471 -0.082017176 0.021510366 0.021052705 0.23508517 -0.059750464 -0.13607645 -0.06951025
22 -0.034013588 -0.1525082 -0.04424193 -0.117326625 -0.011759887 -0.015205116 0.043354545 0.049168624 0.11270974 0.005465204 -0.0028621939 0.14123191 0.08855057 0.032169323 0.008824925 -0.1674648 -0.08702424 -0.024563303 0.023322722 0.03350348 0.006102243 -0.058041133 0.107127465 0.057953883 0.037184633 0.027198987 -0.10954378 0.0024220299 0.019505914 -0.055176873 0.01637685 0.121498466 -0.16196965 -0.065693304 -0.0055884086 -0.10486424 0.07595765 0.031587016 0.051747594 0.055543847 -0.035338763 0.06279664 0.13262528 0.030603638 -0.11594186 0.27285266 0.068236805 -0.027120465 -0.01083478 -0.07448416 -0.133342 -0.02231161 0.010394359 -0.10370849 -0.12347706 -0.11238442 0.12738787 -0.021984253 -0.24751842 -0.104469314 0.09139821 -0.12012465 -0.08481962 0.094441585 -0.060600586 0.1495665 -0.03206498 -0.053049166 0.13100646 0.087978214 0.08747181 0.08191318 0.23072845 -0.1720478 0.21492822 -0.08266327 0.04739066 -0.10005598 0.014595564 0.017027883 0.28011164 -0.061123837 -0.17803198 -0.08385938
46 -0.04052019 -0.16668339 -0.047195725 -0.116290666 -0.015386534 -0.0011471848 0.056939676 0.04254204 0.15642157 0.022551756 -0.011956068 0.20254852 0.1091798 0.026021555 0.012139899 -0.20415296 -0.12852103 -0.046712104 0.013363125 0.051618945 0.0071078297 -0.079614274 0.13259152 0.05107528 0.053058084 -0.003020039 -0.13004903 -0.01609764 0.015665853 -0.06908777 0.013202706 0.11886773 -0.18501593 -0.07785126 -0.0043838876 -0.1059861 0.0788668 0.03301665 0.046829753 0.05650325 -0.03505712 0.07121817 0.12126003 0.011592907 -0.115983635 0.2658057 0.0865174 -0.026744453 -0.006274021 -0.04728912 -0.08362619 -0.005889791 0.010993808 -0.088731915 -0.13962446 -0.09616883 0.12780409 -0.013631408 -0.21515284 -0.10214156 0.07863135 -0.11069562 -0.096203685 0.09938087 -0.050739355 0.14607085 -0.04200418 -0.06750373 0.13704403 0.06747015 0.08494806 0.07557217 0.19929947 -0.16599573 0.21438646 -0.061015107 0.04514887 -0.083587095 0.0071430383 -0.008820167 0.22328913 -0.049197827 -0.14206257 -0.07045785
26 -0.021813536 -0.12151552 -0.023413485 -0.09009085 -0.004469431 -0.014026995 0.043963805 0.051801972 0.14155065 0.012506002 -0.0092073 0.19095378 0.10049025 0.026589585 0.029560607 -0.18717882 -0.118833885 -0.053405333 0.017023271 0.038366243 -0.0027580564 -0.08727682 0.14368494 0.06305858 0.07357089 0.000993543 -0.11799585 0.0061459187 0.006935361 -0.08100715 -0.0014526271 0.12449472 -0.1463188 -0.09163237 -0.0076741767 -0.112432204 0.09511676 0.012977844 0.029198864 0.04323108 -0.04381617 0.066911615 0.1510207 0.013876667 -0.1278877 0.2603665 0.07690661 -0.0254144 -0.019419843 -0.030352725 -0.11175936 0.0041302694 0.012764855 -0.1026432 -0.14448634 -0.12167903 0.10352561 -0.00025646886 -0.2276749 -0.095190704 0.075021654 -0.144868 -0.086549506 0.12227658 -0.06518008 0.13622728 -0.02433067 -0.06140554 0.114780426 0.06360365 0.08499344 0.09341491 0.22627312 -0.16011243 0.22188765 -0.093449876 0.060535662 -0.09333275 0.017382309 -0.00050347176 0.24740624 -0.058099244 -0.1466655 -0.070328765
76 -0.057053465 -0.17450106 -0.05411437 -0.14145371 0.002836567 -0.009798694 0.05621518 0.058901884 0.12726253 0.009232369 -0.009615728 0.18606806 0.09103373 0.016246513 0.016962444 -0.1827879 -0.10042354 -0.036784135 0.01846396 0.049619194 -0.00988212 -0.080217816 0.10907042 0.031939443 0.043732457 0.013522569 -0.11216403 0.012693122 0.012036918 -0.08455355 0.02925307 0.10850547 -0.15575981 -0.065513946 0.010796997 -0.09267287 0.081620745 0.029809894 0.0534038 0.055835642 -0.03545268 0.08462559 0.14066929 0.0074111377 -0.12997675 0.25523937 0.0853901 -0.024244877 -0.008299953 -0.05863534 -0.1241194 -0.017513167 0.022761615 -0.10379823 -0.13972199 -0.11638068 0.12824108 -0.0016458109 -0.22323908 -0.09959256 0.06542639 -0.11346323 -0.09798104 0.09270676 -0.062322572 0.1453653 -0.03769291 -0.06684617 0.123841055 0.091039166 0.07919069 0.0983673 0.24345644 -0.16075578 0.23191139 -0.083419375 0.05012563 -0.08385509 0.0045721554 0.019298458 0.2638255 -0.045825534 -0.16683137 -0.06518097
2 -0.04726472 -0.18881156 -0.03838595 -0.1423813 -0.025511961 -0.023202432 0.07749649 0.07141104 0.18999171 0.012356665 -0.00846495 0.26469532 0.13008885 0.041021682 0.010221864 -0.27593994 -0.13548551 -0.05030045 0.011216069 0.028809976 0.0013667824 -0.09341907 0.1534581 0.035857856 0.054918572 0.0020210687 -0.13426544 0.0050297235 0.014426175 -0.07624979 0.012999441 0.12747581 -0.15721746 -0.06720381 -0.00263166 -0.10558194 0.08513816 0.012567135 0.037908223 0.0409817 -0.038067706 0.07136913 0.14213695 0.024134666 -0.12394991 0.2341534 0.076206066 -0.032126997 -0.003161306 -0.03536795 -0.10640172 -0.021768793 0.029376656 -0.08586245 -0.14965594 -0.09425143 0.101144545 0.0032331217 -0.19149978 -0.077682845 0.062274862 -0.106154755 -0.09534775 0.07826365 -0.062337484 0.13370605 -0.012764943 -0.049823966 0.0827456 0.063743725 0.06092282 0.07299795 0.21558553 -0.14713353 0.19793878 -0.06636462 0.06281516 -0.092767425 0.0050532795 -0.018180378 0.22643311 -0.054132268 -0.13377722 -0.061164007
33 -0.03792767 -0.21151267 -0.03891674 -0.13764758 -0.02741292 -0.023901416 0.068643704 0.0687918 0.18287903 0.01325364 -0.008575926 0.23793769 0.115432836 0.042205434 0.019285658 -0.24764928 -0.15029463 -0.045062732 0.01118725 0.042295247 0.027208922 -0.10162038 0.17215899 0.03057912 0.038816985 -0.0028094705 -0.15086156 -0.014926388 0.017736074 -0.059190117 0.017756656 0.1287708 -0.15297636 -0.054862827 -0.0014921703 -0.09950412 0.08153813 0.032992117 0.032596834 0.045152407 -0.03112669 0.07547203 0.12699403 0.01669456 -0.10774912 0.268608 0.07699892 -0.040244505 -0.0111782085 -0.028062612 -0.113370344 -0.023967784 0.028526682 -0.09045591 -0.15366939 -0.08582632 0.101445965 -0.0029859156 -0.1834948 -0.09256147 0.092597686 -0.11444557 -0.07952261 0.0908194 -0.050234098 0.12764399 -0.028649436 -0.066088535 0.11567655 0.07752554 0.052167963 0.06915774 0.19994898 -0.15008323 0.19314954 -0.06508925 0.05389333 -0.082949676 -0.0034826377 -0.020881353 0.2022924 -0.048554152 -0.12027495 -0.0608611
64 -0.051226724 -0.16428822 -0.05107181 -0.13087958 -0.024649624 -0.013235196 0.07061804 0.06300143 0.16846944 0.008954717 -0.017370202 0.23932077 0.12143817 0.031831358 0.009098897 -0.2202023 -0.13099426 -0.03984756 0.001337186 0.0529443 -0.004249028 -0.07791214 0.11901268 0.04492533 0.04058955 0.02002927 -0.105711795 0.01651116 0.016407654 -0.0767703 0.012289765 0.11063412 -0.15658316 -0.069291376 0.006043398 -0.10318232 0.08371082 0.030723281 0.050437983 0.05670288 -0.02812249 0.07882019 0.13169348 0.00855174 -0.123826675 0.25788787 0.09801502 -0.043593425 -0.00941603 -0.054747727 -0.1181166 -0.014445489 0.013661828 -0.09701786 -0.12252895 -0.1058225 0.10517769 -0.010034169 -0.21492039 -0.09445412 0.066890776 -0.10772445 -0.09684741 0.080789275 -0.059329946 0.12586549 -0.03968137 -0.0694524 0.124131545 0.08759979 0.0683103 0.08663363 0.21764885 -0.15080447 0.22109614 -0.0783691 0.034770045 -0.08211193 0.025083754 0.00897881 0.2161183 -0.046269223 -0.12115377 -0.06304568
20 -0.035069257 -0.15002006 -0.03173994 -0.114586465 -0.0353399 -0.021773068 0.059323482 0.060655575 0.15403387 0.00870865 -0.017228663 0.20171015 0.13710658 0.031640515 0.0059620617 -0.22244509 -0.12342227 -0.03268277 0.01184721 0.03773976 -0.005151518 -0.08570455 0.134974 0.058090143 0.049010675 0.023327509 -0.11040551 0.010663326 0.01736033 -0.06383519 0.014356887 0.111227915 -0.14143343 -0.0671401 0.00041647832 -0.08513477 0.08233481 0.020587102 0.054144725 0.052903917 -0.04621572 0.06578963 0.1322155 0.02226781 -0.12049205 0.25999495 0.08941714 -0.03387278 -0.0048319614 -0.049703818 -0.13213718 -0.020890761 0.014056053 -0.099658705 -0.13904038 -0.10039528 0.10790785 -0.01747503 -0.23561464 -0.079663955 0.08588355 -0.122383125 -0.08138074 0.09828109 -0.05575853 0.14510016 -0.030919138 -0.05097019 0.10237533 0.08022604 0.07127767 0.08012042 0.21841022 -0.16199404 0.21064657 -0.07145999 0.05519794 -0.095521644 0.013578342 0.0060164053 0.24241503 -0.04119377 -0.14845051 -0.064363874
67 -0.03507619 -0.17791815 -0.0440777 -0.14541422 -0.0025378377 -0.005209356 0.053202976 0.043948594 0.13962041 0.019747805 -0.012753421 0.16843522 0.07974938 0.038808852 0.011774768 -0.18217033 -0.100037925 -0.044471804 0.0064495634 0.043223448 0.011022985 -0.08910788 0.13679469 0.03965389 0.053740665 0.015757775 -0.11577022 0.0006315603 0.0171947 -0.09040451 0.01738274 0.12749788 -0.16343965 -0.09130306 -0.007064025 -0.10674821 0.08209536 0.035804197 0.057885148 0.05280689 -0.03610985 0.08663103 0.16099663 0.027256824 -0.12691803 0.29322565 0.09513144 -0.037411254 -0.00926675 -0.056448825 -0.11574776 -0.013890861 0.020517599 -0.09611334 -0.14174153 -0.10679414 0.118410915 -0.012551366 -0.22683305 -0.087744355 0.07508645 -0.11879744 -0.0789819 0.0880378 -0.051912062 0.12311465 -0.017064547 -0.05728331 0.118412785 0.06976481 0.085368864 0.09541671 0.2081983 -0.14826562 0.20220849 -0.0804786 0.060731646 -0.07307629 0.019348629 0.013228099 0.22992134 -0.061212633 -0.13986927 -0.053883154
19 -0.031482086 -0.16432989 -0.025486244 -0.115829185 -0.016570821 -0.008733502 0.04297916 0.046543073 0.12590507 0.022757126 -0.009548082 0.16918994 0.07990276 0.039350998 0.0126874 -0.16259113 -0.098047495 -0.04225379 0.020499986 0.03895347 0.0028625566 -0.07827205 0.12348807 0.04541152 0.060837194 0.0042226464 -0.11666297 0.00040341364 0.009157535 -0.059362452 0.016118066 0.10940564 -0.16999693 -0.09471769 -0.0072716945 -0.11287008 0.09084748 0.03527919 0.050048646 0.051301487 -0.044223513 0.08229791 0.15168904 0.022374643 -0.1300629 0.30609018 0.094277315 -0.042395737 -0.015412284 -0.03901442 -0.12864897 -0.01661956 0.012982756 -0.10843327 -0.14675711 -0.11714419 0.10823315 -0.010792373 -0.2270833 -0.10927258 0.090272136 -0.13690428 -0.08823551 0.11493601 -0.048715167 0.12551092 -0.035255894 -0.050563604 0.11058968 0.06805667 0.06804668 0.08353451 0.21996184 -0.16040018 0.20989275 -0.08871887 0.054245137 -0.08309845 0.0059979395 0.004607078 0.22546966 -0.06008111 -0.14318506 -0.06636317
63 -0.029988388 -0.18690649 -0.035628825 -0.14927645 -0.013318998 -0.0025859848 0.06382749 0.04828235 0.14406669 0.024265768 -0.01596976 0.1849597 0.09467276 0.04131252 0.016490076 -0.19555026 -0.09964789 -0.04585085 0.006657037 0.04544106 0.008782637 -0.05233616 0.096819885 0.037290413 0.03002544 0.000281547 -0.11575523 0.0031459208 0.02559735 -0.04784685 0.028929368 0.09837432 -0.14268732 -0.058752306 -0.015233591 -0.09197784 0.090488836 0.03763454 0.056472808 0.06372439 -0.024456186 0.081827 0.13785964 0.0121740755 -0.10909429 0.29111928 0.08701887 -0.05207944 -0.021154571 -0.041692305 -0.1092811 -0.022700993 0.026179537 -0.08706505 -0.14851348 -0.09654562 0.117330536 -0.020403177 -0.21903786 -0.0913442 0.08088707 -0.12716599 -0.08653461 0.08654075 -0.04633841 0.15015061 -0.032642953 -0.065838024 0.13254419 0.07961582 0.08479803 0.09138387 0.20127814 -0.17499174 0.22537112 -0.066096045 0.06466176 -0.07812716 -0.0054099304 -0.0017463663 0.25396824 -0.05034773 -0.15937781 -0.063999355
16 -0.040502906 -0.15536724 -0.03644946 -0.114908494 -0.025046322 -0.014466908 0.08097387 0.059935812 0.16010961 0.013758045 -0.016821679 0.2207298 0.11425632 0.046785347 0.012321607 -0.23961292 -0.13105431 -0.043313086 -0.003268417 0.033109844 0.008999481 -0.09020028 0.15011136 0.044836864 0.055015266 0.014193961 -0.12531891 0.0012958596 0.025269106 -0.068049744 0.020166824 0.13765095 -0.15182135 -0.055070963 0.007077455 -0.09907981 0.09081532 0.026089624 0.04251781 0.0489692 -0.041749828 0.08142144 0.14547706 0.020119945 -0.1279626 0.27738202 0.09667451 -0.03302798 -0.0094539225 -0.04115301 -0.11282938 -0.025605286 0.03452809 -0.10374623 -0.1422306 -0.105081305 0.11809717 -0.029901817 -0.21965033 -0.105254635 0.08684334 -0.12211371 -0.09480655 0.08136531 -0.04288507 0.12668918 -0.019985728 -0.039642815 0.09161719 0.061012898 0.07011979 0.060033266 0.18167388 -0.13745272 0.20308504 -0.05964232 0.049856886 -0.09208033 0.0017812987 -0.0037387973 0.2301471 -0.05349819 -0.12976936 -0.07143949
65 -0.057480045 -0.14475167 -0.051188797 -0.13811204 -0.0014218618 -0.007179957 0.0439377 0.045528345 0.1513266 -9.655465e-05 0.0142066255 0.1996986 0.13227746 0.054722406 -0.005879075 -0.22253145 -0.104719125 -0.036363784 0.028098995 0.042699356 -0.019667935 -0.073825315 0.11980862 0.06823921 0.054313883 0.010168856 -0.11883371 0.018977856 0.010076689 -0.08093838 0.018609839 0.12647189 -0.16268507 -0.091584995 -0.003522992 -0.112532854 0.0877834 0.037335705 0.051246908 0.07862905 -0.02573177 0.0709492 0.13982113 0.0078093247 -0.113969885 0.23053491 0.075458065 -0.03515263 -0.009017902 -0.0674251 -0.12388383 -0.022374175 0.024099188 -0.10342038 -0.13032757 -0.11051034 0.10661179 -0.017332159 -0.20238201 -0.079865426 0.05661491 -0.09996595 -0.093434185 0.08612277 -0.06295573 0.14442556 -0.023475101 -0.05767921 0.107307285 0.09909609 0.0866605 0.08134188 0.24076638 -0.15348904 0.1803809 -0.09198801 0.05310843 -0.08435683 0.005243357 0.019106837 0.2442504 -0.04253531 -0.15600784 -0.058868993
69 -0.03517185 -0.16420346 -0.044163555 -0.12739268 -0.010400025 0.003928623 0.031073872 0.031143317 0.10923882 0.016740818 -0.002235246 0.16269155 0.08596766 0.031328604 0.009873473 -0.1619809 -0.11358427 -0.030770915 0.024797672 0.045185354 -0.00063300715 -0.08298351 0.12734501 0.03685171 0.04374707 0.008924202 -0.122593746 -0.015173596 0.004804413 -0.08390124 0.0050985957 0.13284111 -0.17855501 -0.096114926 0.0073935864 -0.114393376 0.09909287 0.040139005 0.045306146 0.06572649 -0.027150808 0.07463327 0.14274323 0.019525165 -0.11213477 0.28276038 0.091681615 -0.052711077 -0.001857005 -0.0572103 -0.12700932 -0.025315499 0.0012399788 -0.10348099 -0.1307362 -0.097134165 0.11239387 -0.008211005 -0.21343775 -0.092043154 0.08173166 -0.111983016 -0.06800359 0.09390333 -0.04530673 0.1238032 -0.043995872 -0.077388346 0.12294463 0.07768633 0.07603914 0.08536472 0.24473116 -0.1805873 0.21748242 -0.0967158 0.05167114 -0.0878839 0.009548196 -0.00091021985 0.2430265 -0.05285409 -0.14503713 -0.0468831
25 -0.041270107 -0.15980409 -0.03682396 -0.123019785 -0.015808642 -0.013554208 0.06476187 0.03798736 0.15366013 0.011127573 -0.016334882 0.19819775 0.11003275 0.04695325 0.0027418814 -0.1951711 -0.12394582 -0.041829836 0.01125127 0.053614534 0.008981779 -0.08721267 0.13759097 0.06289315 0.049896803 0.0056442264 -0.12887502 0.0073828134 0.012662113 -0.07125784 0.021376433 0.12926917 -0.17410137 -0.09655169 -0.013496972 -0.109090164 0.093189456 0.055558186 0.055835724 0.05103175 -0.033724766 0.085417226 0.14810875 0.0010782274 -0.12517363 0.3065804 0.10358681 -0.027974946 -0.007900161 -0.050394386 -0.1366047 -0.016329821 0.01715978 -0.1074751 -0.14728016 -0.12628914 0.109581836 -0.02984705 -0.21707456 -0.097054265 0.08553287 -0.11129594 -0.07940305 0.09105442 -0.05241914 0.12729594 -0.034337025 -0.055753805 0.11742725 0.07381545 0.071347274 0.07039557 0.19459036 -0.13141511 0.18775253 -0.0790088 0.03975828 -0.08533781 0.008282915 0.010072998 0.21115507 -0.045445964 -0.120806076 -0.0697514
75 -0.033942174 -0.13137844 -0.04901639 -0.117978446 -0.002652992 -0.0049973275 0.05853531 0.06552109 0.12441297 0.0011788675 -0.01375567 0.18791912 0.08641557 0.029398544 0.012758387 -0.1726682 -0.10437435 -0.04199983 0.01483628 0.05011444 -0.010119426 -0.08832922 0.11112768 0.046028778 0.04452902 0.0017117951 -0.12494499 0.016260024 0.0142985 -0.10555709 0.007849457 0.12635882 -0.15768354 -0.09084406 0.0032187703 -0.11668189 0.104252614 0.021017851 0.03274908 0.046572894 -0.02625401 0.06924249 0.13997896 0.0028138156 -0.12065305 0.26223052 0.10371795 -0.03485073 -0.012354393 -0.048358202 -0.12608548 -0.016007973 0.017079556 -0.11702741 -0.14522915 -0.12839507 0.11369299 0.0046590692 -0.22947173 -0.09752103 0.06469058 -0.13160264 -0.08253134 0.08772102 -0.07085762 0.12941383 -0.033979323 -0.07257365 0.114456534 0.079624176 0.06931016 0.09455557 0.23829153 -0.15378253 0.223432 -0.09509117 0.037506863 -0.08378396 0.023472562 0.0016386011 0.24683382 -0.054450016 -0.1331102 -0.057078563
3 -0.039212916 -0.15166071 -0.04646221 -0.13135622 -0.015419224 -0.019385148 0.09348076 0.07616493 0.177357 -0.0044871992 -0.01316119 0.216205 0.11233185 0.038151465 0.014599234 -0.25181553 -0.1237711 -0.051557954 -0.0076564765 0.040588498 -0.0003931879 -0.09608463 0.13679753 0.057184827 0.04929092 0.00999759 -0.13715908 0.019148909 0.024176046 -0.068133414 0.015762758 0.104332365 -0.14029555 -0.053357434 0.0027523693 -0.09353071 0.0961532 0.030220293 0.05007615 0.048663672 -0.026747655 0.05652165 0.13089003 0.027838295 -0.120617956 0.26525256 0.09432917 -0.020162422 -0.018699512 -0.03697064 -0.11359248 -0.025753964 0.034447376 -0.09729098 -0.14114922 -0.10100094 0.104206525 -0.011197382 -0.20592327 -0.081503466 0.062456794 -0.10690613 -0.07739904 0.093911566 -0.051900107 0.13826366 -0.024641544 -0.050079014 0.11438243 0.06904943 0.066178985 0.07835472 0.20486224 -0.14871044 0.21023752 -0.075536765 0.047330175 -0.09299315 -0.0023462893 0.0074205874 0.24162352 -0.03652022 -0.14759503 -0.06585253
66 -0.028727567 -0.121472694 -0.036433246 -0.10249479 -0.0054841707 -0.011317993 0.03686327 0.029970556 0.13097544 0.011243801 -0.017450612 0.15944211 0.10488906 0.038127646 0.005731418 -0.15734094 -0.11940713 -0.050053332 0.015265028 0.06054288 -0.0027439054 -0.078989536 0.13028269 0.0682613 0.067955665 -0.0018004881 -0.11433663 -0.0011594296 0.007445594 -0.09987362 0.019997695 0.12591897 -0.17121984 -0.11500355 -0.020289494 -0.101014696 0.0925002 0.037660528 0.05784955 0.057197582 -0.03217357 0.08184036 0.1466733 0.0016926732 -0.13669421 0.29374692 0.09430385 -0.03224246 -0.014630937 -0.046905585 -0.11814666 -0.005212053 0.022443777 -0.10241154 -0.13878407 -0.12834577 0.11080213 -0.012975942 -0.23469415 -0.07759663 0.07757455 -0.12489811 -0.0853078 0.10419048 -0.06620686 0.13948767 -0.04279497 -0.06013293 0.13125871 0.09011744 0.09356072 0.09268216 0.22007547 -0.15953352 0.19795829 -0.094695255 0.060450867 -0.079633415 0.016019657 0.017362103 0.20730641 -0.05202631 -0.13292521 -0.067533016
42 -0.049276423 -0.18128622 -0.03186575 -0.12721317 -0.01484358 -0.018974485 0.05293793 0.03187164 0.16174684 0.024301086 0.0030249364 0.19454946 0.095131114 0.050339587 0.0161747 -0.21844575 -0.12536871 -0.046635035 0.020239953 0.041145828 0.02023739 -0.09429942 0.15411365 0.036879178 0.06181863 -0.001352623 -0.14308745 -0.020797089 0.014396368 -0.056371003 0.020519564 0.121007994 -0.17121957 -0.08754291 -0.0021852313 -0.093516104 0.08236734 0.024559105 0.05306182 0.05220848 -0.04196365 0.089760706 0.14365047 0.023892784 -0.11127695 0.3187396 0.09656543 -0.043982327 -0.01141937 -0.037236605 -0.10633134 -0.027738865 0.013233656 -0.08544051 -0.14727637 -0.0923853 0.10777944 -0.0059561 -0.21106769 -0.10140684 0.09473606 -0.093585715 -0.07803855 0.102979764 -0.039668176 0.13774084 -0.046690114 -0.06833987 0.12367068 0.066204585 0.076448426 0.072531514 0.20627317 -0.16604528 0.20227563 -0.06753408 0.06609016 -0.06928881 -0.0020065883 0.0015158819 0.17362425 -0.040064644 -0.12470807 -0.04743161
61 -0.046507437 -0.17138623 -0.052262146 -0.15269302 -0.022317281 -0.014644833 0.049357496 0.059754964 0.14338925 0.0016741205 -0.008734464 0.17197888 0.09952361 0.029932616 0.004427649 -0.1755509 -0.10605274 -0.025722643 0.017167779 0.040207673 -0.011802802 -0.08723348 0.114406876 0.052842848 0.046440896 0.009431636 -0.11642708 0.0068194903 6.4617907e-06 -0.08914418 0.012957407 0.09906541 -0.173661 -0.11420466 0.006206008 -0.1047209 0.09228106 0.02502854 0.050228488 0.046097983 -0.02696136 0.061378047 0.13440785 0.014394074 -0.10595062 0.26218674 0.07788697 -0.027476847 4.8812508e-05 -0.05251955 -0.12860104 -0.014235676 0.01770657 -0.12160991 -0.13883494 -0.11281485 0.11179532 -0.0018654403 -0.24000005 -0.09386783 0.0735159 -0.12517332 -0.06171786 0.107326224 -0.055265572 0.1251005 -0.038195025 -0.070478156 0.11370943 0.089376435 0.059947733 0.08877846 0.24187247 -0.15118746 0.1997309 -0.100006215 0.033576734 -0.07925148 0.013372753 0.025852527 0.22985442 -0.03897554 -0.1422718 -0.057437163
43 -0.04581827 -0.16256072 -0.056472767 -0.13163054 -0.014067611 -0.019305982 0.06600748 0.031154266 0.14279258 0.013433883 -0.0125496825 0.19262877 0.10618073 0.039347887 0.002855574 -0.21000187 -0.1309056 -0.037426054 -0.009082207 0.048053622 0.00048023916 -0.09313524 0.14801958 0.04445268 0.04799787 0.0044843666 -0.12609412 0.0021601443 0.01222719 -0.09417731 0.018176835 0.1452309 -0.16147967 -0.08170231 0.0020489665 -0.083804265 0.079939865 0.043244317 0.060746152 0.05514137 -0.013269988 0.07976388 0.1461034 0.018115032 -0.11725512 0.27389976 0.09261023 -0.048928626 -0.007976297 -0.04806838 -0.1129033 -0.01615106 0.031905077 -0.10687661 -0.1309384 -0.1101886 0.10948458 -0.012844385 -0.19231188 -0.078664355 0.06824482 -0.09227163 -0.067941554 0.0757658 -0.040472347 0.11389895 -0.035582766 -0.07283835 0.14015326 0.11006474 0.09377004 0.08543497 0.24325724 -0.1670189 0.20549309 -0.09535922 0.04897255 -0.08731952 -0.0030278119 0.025537472 0.21909235 -0.04336561 -0.131311 -0.058994625
21 -0.04888604 -0.14243941 -0.05310565 -0.12595798 -0.02550032 -0.010458298 0.05244363 0.03787808 0.13895442 0.013722564 -0.003502397 0.19239607 0.12973322 0.02674075 -0.0054925648 -0.2146176 -0.12181939 -0.037136264 0.020183632 0.03529023 -0.009425319 -0.07855863 0.13376406 0.067315295 0.04161845 0.0100079235 -0.13108721 -0.00057622883 0.015074528 -0.07661601 0.028427817 0.15748414 -0.18221968 -0.074894585 0.0030658469 -0.10707865 0.08833524 0.04008415 0.060272057 0.06791095 -0.039473668 0.080113515 0.12773748 0.0075616105 -0.11859064 0.2393562 0.08586926 -0.04214813 0.0080792345 -0.056220137 -0.11318916 -0.015205476 0.016917633 -0.10913211 -0.1365928 -0.100187704 0.12152562 -0.02498101 -0.21694623 -0.0756413 0.07815146 -0.102492526 -0.103830606 0.09569528 -0.054075126 0.13381307 -0.025422504 -0.058011137 0.09219953 0.0769163 0.087580554 0.07197848 0.21696422 -0.16236384 0.20539874 -0.06700785 0.05624032 -0.08898078 0.0049407207 0.009431618 0.23802565 -0.034200236 -0.14545932 -0.06636425
0 -0.043265913 -0.17532861 -0.04359491 -0.13046947 -0.025120398 -0.020104362 0.05807799 0.043976504 0.13482788 0.016453613 -0.013821158 0.18962699 0.09102661 0.025772935 0.009751072 -0.18771565 -0.10338626 -0.04113783 0.009266622 0.041195497 -0.0063737645 -0.088243075 0.12755345 0.04175293 0.05191535 -0.002145358 -0.11366605 -0.014229019 0.0026532453 -0.09049233 0.01420365 0.118911006 -0.16387455 -0.10317476 0.00016924119 -0.09934926 0.09253771 0.022181075 0.04221348 0.02790532 -0.04241134 0.0646781 0.13102901 0.022459103 -0.114278786 0.26945603 0.07829166 -0.038372856 -0.02145446 -0.04109899 -0.11337067 -0.004191421 0.018256582 -0.12079993 -0.14918107 -0.117732614 0.11822986 0.009030162 -0.23480462 -0.090727985 0.0803428 -0.13300735 -0.08877593 0.11267596 -0.0641407 0.12788637 -0.033998676 -0.06907536 0.13194358 0.09256838 0.07074192 0.093488984 0.23911633 -0.15547447 0.21263355 -0.094619766 0.05092946 -0.069795445 0.016365018 0.012285367 0.21270092 -0.057636235 -0.12518112 -0.06585982
15 -0.040433384 -0.20298767 -0.041337386 -0.14319031 -0.025499323 -0.012114854 0.05853439 0.03558932 0.18292713 0.017845526 -0.00071778474 0.21298933 0.12637147 0.036358774 0.029006116 -0.23334177 -0.13778563 -0.049447466 0.00924887 0.034746032 0.027604245 -0.0641644 0.14102088 0.044301763 0.032778654 0.00061897375 -0.12717763 -0.0098244045 0.026133714 -0.03850422 0.014682225 0.12883872 -0.1480127 -0.06241185 -0.0064549814 -0.090473585 0.07738651 0.0384249 0.06291383 0.06110092 -0.034555547 0.07944239 0.10948315 0.008464819 -0.096035935 0.27472177 0.062056124 -0.049490802 -0.019338654 -0.03800378 -0.109525286 -0.017458573 0.012629102 -0.06491487 -0.13930681 -0.080923215 0.095947936 -0.034703787 -0.18418 -0.079504386 0.10985022 -0.107038364 -0.09064215 0.09911304 -0.041344006 0.14919828 -0.033772852 -0.067407794 0.13920335 0.08117484 0.08555699 0.072781034 0.18583123 -0.18169412 0.20579538 -0.06080997 0.07100815 -0.07527984 -0.020309195 -0.01342292 0.22748785 -0.028905302 -0.15893388 -0.0738804
4 -0.02724602 -0.16693114 -0.026311178 -0.10990836 -0.020041993 -0.026124556 0.0384345 0.047613718 0.14728351 0.015465623 -0.0001641505 0.18179756 0.095021635 0.04138108 0.021795696 -0.20063487 -0.120451145 -0.045971707 0.019839367 0.036936987 0.032947183 -0.07455156 0.13016698 0.026518138 0.053057574 -0.0010012621 -0.13010748 -0.0022503366 0.019616349 -0.0533611 0.01351353 0.119201526 -0.14147902 -0.059721712 -0.003323954 -0.08581119 0.08237175 0.028895818 0.04834071 0.054415293 -0.033234738 0.073206775 0.14469865 0.024348436 -0.11652802 0.28819272 0.07559941 -0.04681602 -0.027337847 -0.043754686 -0.11461443 -0.029823326 0.031148566 -0.085172944 -0.14965856 -0.08999554 0.1113432 -0.013308106 -0.21926765 -0.106774956 0.107874535 -0.12271366 -0.0825585 0.100416414 -0.050127417 0.14994553 -0.031854566 -0.060778398 0.12467522 0.070676535 0.08037054 0.080640085 0.20609492 -0.17222612 0.2052906 -0.06680372 0.082655594 -0.07928162 -0.008569299 -0.0047304495 0.23943953 -0.06277864 -0.15928061 -0.06282256
49 -0.023796389 -0.20244282 -0.050838627 -0.15293162 -0.0063070995 0.0014415252 0.053015184 0.042715628 0.16555573 0.012788625 -0.0014288812 0.19179456 0.09285316 0.04239525 0.016092127 -0.21133344 -0.1382509 -0.053775366 0.0098362975 0.04635355 0.023611574 -0.07435707 0.1490933 0.04774565 0.051171683 0.0011846448 -0.13435285 -0.019825237 0.009651344 -0.053108934 0.017208658 0.10657507 -0.15519583 -0.07200243 0.0017618481 -0.08846019 0.07461783 0.037450388 0.038963698 0.058074012 -0.028520618 0.0700676 0.11366895 0.0237863 -0.108866476 0.27892378 0.07705646 -0.032545812 -0.016398545 -0.03365212 -0.109708205 -0.014576825 0.028754016 -0.07588636 -0.1287786 -0.07915307 0.10383025 -0.015400651 -0.18985303 -0.08619839 0.06983656 -0.1059701 -0.07046335 0.1051984 -0.055883333 0.15015194 -0.024555849 -0.0740227 0.14899546 0.07517226 0.08679338 0.08886219 0.21225652 -0.18901646 0.20778508 -0.09004834 0.06986635 -0.08004716 -0.0083750235 -0.0020632732 0.20319043 -0.049995784 -0.1578358 -0.056326993
8 -0.03097865 -0.1798474 -0.036285453 -0.109783314 -0.020158721 -0.006793451 0.05634619 0.0502939 0.15243524 0.021297764 -0.017799988 0.2006506 0.09036983 0.033282228 0.03564556 -0.20112693 -0.13824095 -0.04553405 0.011073604 0.04945732 0.018522033 -0.084291026 0.14425121 0.029920358 0.058879986 0.00026990328 -0.15051755 -0.0077633597 0.016942022 -0.061162923 0.0035066854 0.1394152 -0.16756898 -0.06477535 -0.001564352 -0.10811823 0.10827982 0.04485331 0.048384026 0.07225084 -0.02516164 0.07617094 0.12865338 0.019376049 -0.1124535 0.29415637 0.08286172 -0.04769477 -0.021897249 -0.031525094 -0.11015534 -0.030737635 0.030476332 -0.08073952 -0.14236987 -0.100685835 0.09333333 -0.01751214 -0.20438573 -0.103225455 0.09881286 -0.121227846 -0.06869439 0.10759588 -0.032947842 0.120488495 -0.031280987 -0.07407543 0.14201996 0.07173628 0.06993992 0.07454056 0.20240809 -0.16768953 0.21204478 -0.077311434 0.05251976 -0.08682408 -0.013281828 -0.007516523 0.22358847 -0.047755085 -0.14067121 -0.05830902
47 -0.034330472 -0.20485589 -0.04101824 -0.13410364 -0.02378941 -0.023353104 0.0627469 0.04785437 0.15180269 0.023761995 -0.0043342067 0.20262906 0.08563945 0.029848583 0.023410786 -0.22831413 -0.123031236 -0.063179664 0.0212125 0.03937899 0.0225368 -0.09477697 0.16319309 0.03376653 0.069951475 -0.017949304 -0.14746268 -0.026050674 0.006995334 -0.05460179 0.014730225 0.12639551 -0.13974072 -0.07129125 -0.004867703 -0.09261808 0.08520791 0.0143466545 0.020411063 0.024851175 -0.03997994 0.078249864 0.1258567 0.03383882 -0.1088326 0.2706472 0.07450202 -0.04037506 -0.011975592 -0.019607438 -0.09546809 -0.019267626 0.0261988 -0.07793492 -0.15311417 -0.08124386 0.10957385 0.002977624 -0.19186133 -0.09566432 0.08163656 -0.12669049 -0.09047126 0.10423167 -0.050513327 0.13882267 -0.028457485 -0.066170074 0.117267616 0.057883512 0.061735626 0.080016874 0.21639521 -0.17138179 0.22017324 -0.070818685 0.07641073 -0.08369872 -0.007990547 -0.025475249 0.21059743 -0.058951296 -0.14433177 -0.051069718
83 -0.052986976 -0.1654602 -0.036074564 -0.12314612 -0.0070728855 -0.00468924 0.057262193 0.038536675 0.13124152 0.024596686 -0.010546633 0.20870976 0.08403195 0.028586252 -0.00050157134 -0.1926176 -0.08547546 -0.027449409 0.007777505 0.032662038 -0.02024112 -0.08143386 0.10160765 0.02084048 0.06607254 0.0032815426 -0.10324318 0.0045155105 0.0009530826 -0.09488762 0.004989566 0.122015126 -0.14875218 -0.08926026 -0.012201842 -0.090786904 0.076820955 0.01703158 0.04347573 0.039475802 -0.03351909 0.07422319 0.1503009 0.024487622 -0.118857615 0.24860196 0.088904545 -0.040001575 -0.005959206 -0.04091261 -0.11190319 -0.016815208 0.01193641 -0.10697939 -0.1486653 -0.121705264 0.11593201 0.0045259674 -0.22908676 -0.085930884 0.0723013 -0.11928348 -0.09620451 0.091867566 -0.053308994 0.13300732 -0.02569321 -0.051161405 0.11707274 0.0900205 0.077753924 0.09160723 0.2542542 -0.1603673 0.20257999 -0.09074005 0.06125167 -0.09170722 0.012469691 0.009159823 0.24726969 -0.061080024 -0.14507309 -0.06085723
68 -0.04335398 -0.17609319 -0.044552043 -0.13653745 -0.0053874124 0.0043923897 0.049141273 0.04296301 0.14522871 0.018395735 -0.0142026795 0.2181287 0.097974315 0.028755592 0.016002417 -0.18960355 -0.12110171 -0.042252395 0.016016638 0.052146353 0.0052423016 -0.070120916 0.12608948 0.026898267 0.03293986 -0.0071449033 -0.1345942 -0.005164015 0.020044936 -0.07103724 0.03317818 0.13071382 -0.17106375 -0.06835248 0.0076497495 -0.09507965 0.09174462 0.043620646 0.0440429 0.06545949 -0.028360108 0.08899574 0.12133911 -0.0009374172 -0.11643316 0.28055838 0.09842867 -0.03898012 -0.022790043 -0.038386233 -0.11305537 -0.030360056 0.024908336 -0.0884618 -0.15015624 -0.10191139 0.1080429 -0.00797543 -0.19759099 -0.0978876 0.0842783 -0.116293415 -0.094357915 0.09738434 -0.053131424 0.13605951 -0.034525514 -0.07675992 0.13829117 0.09176322 0.07361884 0.08398496 0.20952523 -0.16588189 0.20808135 -0.07151731 0.061891716 -0.062478956 -0.012483908 -0.003902334 0.21576995 -0.05055149 -0.13986908 -0.06070296
53 -0.03566722 -0.17498887 -0.05054836 -0.12853374 -0.020933831 -0.015015073 0.055766117 0.04931043 0.14773507 0.01175004 -0.015627572 0.21544819 0.111834966 0.03442518 0.009770183 -0.21528234 -0.11831124 -0.03308316 0.013074594 0.04521717 0.011403168 -0.073362984 0.1183404 0.02946602 0.035786215 -0.009185832 -0.12103591 -0.005098837 0.015782876 -0.061560918 0.015533541 0.1185091 -0.15068041 -0.05696738 -0.0015224047 -0.07468023 0.08033039 0.025030399 0.05245093 0.058569346 -0.032985028 0.080510214 0.12786801 0.003462441 -0.11968812 0.27637935 0.09238176 -0.05695701 -0.019924216 -0.048574697 -0.1118998 -0.030182447 0.023736682 -0.08744262 -0.14924425 -0.10238948 0.10471359 -0.019491624 -0.20539573 -0.08168059 0.09400478 -0.095212765 -0.083093986 0.07666263 -0.051065587 0.13906829 -0.042807657 -0.07084769 0.12115691 0.083046496 0.084070995 0.08605414 0.20365688 -0.17229906 0.21940762 -0.06411572 0.06793917 -0.08202718 0.0030463508 -0.0036638405 0.24710761 -0.048942354 -0.16007666 -0.057961807
54 -0.03326661 -0.17578644 -0.06311385 -0.14148693 -0.024163129 -0.010492248 0.047472116 0.015669726 0.17685057 0.009369296 -0.009083289 0.19884983 0.12597954 0.04265156 0.01083497 -0.22379589 -0.12345168 -0.04894068 0.018980898 0.039800875 0.009153732 -0.06030333 0.13123052 0.073445134 0.036879085 -0.010076091 -0.10589888 -0.014778275 0.0018991269 -0.04110051 0.02130004 0.110094644 -0.14063884 -0.06131311 0.010755366 -0.061933596 0.061902117 0.03510511 0.049776517 0.055714544 -0.029311143 0.07628171 0.11225635 0.009242816 -0.0904943 0.2625561 0.0780244 -0.052811995 -0.004155988 -0.04032034 -0.111504965 -0.010090029 0.030486206 -0.089712165 -0.13298972 -0.088410586 0.11267304 -0.025308235 -0.18856284 -0.07710514 0.07211698 -0.10101057 -0.08328317 0.0894971 -0.0566604 0.14196444 -0.04107461 -0.09866427 0.14791766 0.10082166 0.117351465 0.083216615 0.21730173 -0.18702605 0.22936964 -0.08344298 0.06615355 -0.0780809 -0.00845686 0.006543534 0.21382928 -0.036752064 -0.16017948 -0.06263095
37 -0.039999615 -0.13601498 -0.04464773 -0.11359689 -0.0011650833 -0.0034825688 0.06163778 0.06369709 0.15729114 0.011584237 -0.009856241 0.2010092 0.12038508 0.03868637 0.0062950444 -0.21610662 -0.12258006 -0.052774943 0.010968968 0.047030594 -0.013175318 -0.069174595 0.12489762 0.06673414 0.054145314 0.015108341 -0.109816775 0.020274818 0.0260673 -0.07908165 0.0075487224 0.12285252 -0.15589575 -0.08079267 -0.00512601 -0.11458212 0.090396374 0.032333374 0.050008994 0.06437064 -0.016925974 0.07523914 0.12822302 0.00901698 -0.12798879 0.25471103 0.08049474 -0.027066205 -0.0072327317 -0.051954083 -0.119420975 -0.021724073 0.027005963 -0.09124956 -0.13396583 -0.11486964 0.11865115 -0.02238246 -0.22480576 -0.0830234 0.062400766 -0.12538718 -0.095580205 0.08705133 -0.058684375 0.13808924 -0.024906348 -0.044030838 0.11852799 0.09038242 0.07919336 0.083556004 0.21651953 -0.15991944 0.19580771 -0.08632775 0.044340443 -0.09002385 0.0048164413 0.0056664464 0.23753774 -0.047626223 -0.14527224 -0.068868056
31 -0.03611119 -0.18130884 -0.05801653 -0.13955188 -0.02814525 -0.023404766 0.044589344 0.040142436 0.16483127 0.008040602 -0.005064647 0.23589379 0.14288226 0.039211363 0.0070607723 -0.22183786 -0.1250876 -0.029418495 0.0249156 0.063950405 -0.011651539 -0.077198364 0.099450245 0.048507277 0.034769014 0.013931564 -0.118328236 0.014036484 0.018973501 -0.07634432 0.01502233 0.12871556 -0.14237991 -0.053497408 -0.00019580875 -0.069674276 0.077657245 0.03248815 0.058427054 0.062142644 -0.021903554 0.077187225 0.11512916 -0.006592221 -0.104977794 0.22804722 0.065359265 -0.049195208 -0.013733591 -0.06288536 -0.13163869 -0.01704471 0.021806484 -0.099392936 -0.13335814 -0.10088648 0.115474835 -0.018531004 -0.20134524 -0.09042387 0.084878124 -0.11084973 -0.08632808 0.061959196 -0.06523337 0.14201912 -0.05691055 -0.07498919 0.12388163 0.1064279 0.0684664 0.07597734 0.22077781 -0.17241243 0.20296092 -0.072671495 0.05169193 -0.085554525 0.004278641 0.011553754 0.25163883 -0.047637556 -0.15519977 -0.059766445
10 -0.041944508 -0.16703784 -0.051052447 -0.13413592 -0.019096129 -0.006812641 0.06454636 0.04323006 0.16722693 -0.00034543299 -0.002888401 0.21344642 0.111415416 0.051353242 0.008868719 -0.21643452 -0.104821354 -0.029484907 0.011613346 0.050553255 -0.001372424 -0.076446675 0.112185284 0.053015187 0.03733703 0.013374968 -0.12303639 0.0026160406 0.01742126 -0.07132915 0.023363113 0.10933691 -0.15196157 -0.064602725 0.0012922605 -0.090822645 0.08713821 0.031130394 0.044471893 0.052777655 -0.030716645 0.07508499 0.1342614 0.007749969 -0.100958444 0.2664547 0.088744596 -0.038331386 -0.008467551 -0.0622613 -0.12147853 -0.019562408 0.0270336 -0.10999857 -0.13594696 -0.105300814 0.119596675 -0.021962503 -0.2115614 -0.09845985 0.079229146 -0.11212938 -0.0931409 0.086359 -0.058920797 0.14536466 -0.0374827 -0.06799953 0.11347222 0.08266998 0.07888165 0.07421093 0.21339925 -0.15231642 0.21432634 -0.076138265 0.047346324 -0.08296554 -0.001197527 0.00889276 0.22792073 -0.050357874 -0.14019439 -0.06367137
56 -0.039733525 -0.14250205 -0.047153488 -0.11800856 -0.018903302 -0.004407753 0.041566372 0.040414553 0.13990054 0.023746384 -0.009259316 0.18347548 0.10104822 0.046537437 0.0052937195 -0.18750721 -0.0971604 -0.0327936 0.018798439 0.046968162 -0.013755567 -0.070821084 0.115538016 0.06597837 0.06241404 0.00691449 -0.102804676 0.001126777 -0.0013331609 -0.06568732 0.0045944396 0.11153486 -0.14936335 -0.0942093 -0.0019142681 -0.093812205 0.09649578 0.034422915 0.056833863 0.073232725 -0.030087302 0.06556792 0.13659105 0.029347798 -0.10929748 0.28210545 0.09036309 -0.043297883 -0.017261501 -0.05395689 -0.11368913 -0.023471521 0.018421242 -0.09779017 -0.12634565 -0.10690217 0.10908006 -0.007954021 -0.23983778 -0.078715764 0.08215911 -0.12132223 -0.07658191 0.113188334 -0.04169977 0.13587762 -0.032804415 -0.060693074 0.12753507 0.08161281 0.0956978 0.08144122 0.24473998 -0.1732665 0.20575319 -0.09007605 0.05859471 -0.08232688 0.007977256 0.018638136 0.23417442 -0.04134598 -0.15112276 -0.045060262
50 -0.052304458 -0.16483542 -0.05822207 -0.12858331 -0.01917315 -0.00781811 0.07026878 0.05217612 0.14574204 0.008543918 -0.018100748 0.18019368 0.10197396 0.023667363 -0.00048452825 -0.18918328 -0.106094636 -0.027105859 0.014274121 0.0369427 0.0023867886 -0.07749814 0.13315201 0.045876257 0.026853196 0.008638821 -0.1267255 -0.0041259234 0.01260528 -0.067730516 0.03788905 0.12560989 -0.18367383 -0.07592191 0.009764859 -0.09963261 0.06617708 0.040438987 0.04108888 0.047654532 -0.018624397 0.08159548 0.11878805 -0.0001783143 -0.103270344 0.2592882 0.09039142 -0.038490325 0.010250669 -0.047871344 -0.11641206 -0.02233687 0.02620449 -0.10614731 -0.15588477 -0.10956208 0.13595988 -0.014620427 -0.22364856 -0.09770538 0.084879085 -0.11819651 -0.097081795 0.090321474 -0.052460335 0.13360766 -0.036360353 -0.07039947 0.1247035 0.1033041 0.07462974 0.0860751 0.23510417 -0.16010295 0.21441141 -0.0854179 0.048486676 -0.0776747 -0.0008593747 0.009715772 0.21736445 -0.030182512 -0.13690162 -0.07088686
52 -0.042761527 -0.13713557 -0.053843487 -0.10762849 -0.028604569 -0.012450915 0.06979012 0.04836847 0.1670728 0.00864649 -0.0138081405 0.23278539 0.113198124 0.04356542 -0.009490236 -0.21165691 -0.120070666 -0.038590007 0.010889843 0.04571051 -0.012193912 -0.085921764 0.12641 0.053182386 0.057027645 0.0048202258 -0.13844767 0.0028043895 0.014353428 -0.07453486 0.014562585 0.13582985 -0.15054953 -0.072740674 0.011655856 -0.096483365 0.080318354 0.030042592 0.03820555 0.05426442 -0.023024065 0.07191114 0.11512023 0.00091930706 -0.117681 0.2527004 0.09647987 -0.0404626 -0.009127451 -0.048903964 -0.11238914 -0.02365816 0.031018483 -0.11593361 -0.13613604 -0.107989974 0.12669161 -0.02234836 -0.221554 -0.09975909 0.08035618 -0.116380185 -0.10299312 0.08715183 -0.065031365 0.14277795 -0.029864486 -0.05157461 0.104665086 0.09176531 0.07172206 0.07858514 0.21821894 -0.15474272 0.19504984 -0.07652411 0.050400138 -0.0865076 0.012476358 -0.0008220272 0.23240924 -0.053100273 -0.12846759 -0.0667597
39 -0.049895953 -0.15835553 -0.051876843 -0.13883051 -0.005831948 -0.0050744223 0.05691072 0.051757805 0.1406965 0.01781274 -0.011513496 0.19663352 0.09898982 0.027600903 0.0004541834 -0.19078308 -0.108102605 -0.03166295 0.007522641 0.057837706 -0.0131556615 -0.07496776 0.1116935 0.039506473 0.04843963 0.008376577 -0.12147603 0.013713074 0.009262475 -0.0893443 0.028483743 0.11195414 -0.17558037 -0.09803317 0.0024330595 -0.10087623 0.10087062 0.03266071 0.0535606 0.05849625 -0.026936341 0.08881148 0.13437977 0.00037843562 -0.12534681 0.27997077 0.098446414 -0.03608987 -0.015026084 -0.054038502 -0.122537926 -0.01466551 0.025713062 -0.11637174 -0.14542207 -0.11858582 0.11676062 -0.00291768 -0.22634007 -0.089453526 0.068234995 -0.103403 -0.09806871 0.092351325 -0.05796196 0.13582282 -0.027405242 -0.049758244 0.118604906 0.085786186 0.07152705 0.09612644 0.20841521 -0.14548063 0.19567037 -0.070985556 0.05189429 -0.063977905 0.021061962 0.023760058 0.23256491 -0.04161418 -0.13930295 -0.06186554
51 -0.026971146 -0.1428691 -0.05808892 -0.10666678 -0.026289308 -0.0009173812 0.0633213 0.02963957 0.17253639 0.01741265 -0.017962499 0.22556467 0.117701605 0.042496838 0.012759142 -0.21739195 -0.1322587 -0.039581634 0.0015858536 0.05664112 -0.002694036 -0.06909899 0.116518065 0.0419804 0.045649588 -0.018672178 -0.12810972 -0.0077738417 0.019762982 -0.05671696 0.00950284 0.116489194 -0.15795735 -0.07122073 -0.008835085 -0.08644515 0.09721195 0.035942167 0.041824494 0.06838027 -0.012654335 0.06943338 0.11654254 -0.005402229 -0.095180675 0.2869316 0.09768204 -0.063222535 -0.015316833 -0.032790884 -0.10004968 -0.025129635 0.035557274 -0.10914508 -0.15239908 -0.11107775 0.10230685 -0.023034861 -0.1841818 -0.08305387 0.090324484 -0.10253798 -0.084788 0.09202582 -0.040507436 0.14146602 -0.048799735 -0.07697571 0.14190672 0.09451061 0.094248496 0.07708588 0.21788006 -0.17938118 0.22128658 -0.07793818 0.05281349 -0.073167235 -0.0054712635 -0.008361696 0.21229212 -0.038471166 -0.13285129 -0.062841974
24 -0.032697182 -0.16605704 -0.043602552 -0.12422857 -0.023177026 -0.018767828 0.0574337 0.043243617 0.15981406 0.009847456 -0.0012168401 0.19206922 0.11845362 0.036581375 0.014095705 -0.21351579 -0.12069077 -0.041606586 0.012529272 0.03161146 0.015457104 -0.07521055 0.13044725 0.06833678 0.045264695 -0.001553028 -0.11552778 -0.004919313 0.0097237425 -0.052643314 0.0083685275 0.12253074 -0.15543419 -0.07435273 0.0016910637 -0.085066654 0.088899635 0.031048177 0.052342705 0.047541145 -0.03237845 0.07373151 0.12747467 0.019010829 -0.10529352 0.2831471 0.08313321 -0.045240115 -0.006169129 -0.04259199 -0.115149915 -0.01806529 0.014285757 -0.09694065 -0.12746893 -0.09465698 0.105039865 -0.02413972 -0.20670582 -0.083903715 0.08950267 -0.10678682 -0.06651427 0.095556386 -0.055467177 0.13849899 -0.04138898 -0.07366012 0.1236164 0.08286493 0.09564811 0.07918037 0.2170849 -0.17673427 0.21847184 -0.08541983 0.058098447 -0.09049433 -0.010388985 0.006093871 0.23407376 -0.035850946 -0.15736054 -0.05704466
40 -0.038307194 -0.18937898 -0.048704617 -0.12911092 -0.030606657 -0.021861527 0.050408352 0.03299548 0.134735 0.01128769 -0.00031468002 0.1747544 0.08451966 0.03028689 0.0037753526 -0.19445495 -0.12264065 -0.025134686 0.013332289 0.030901521 0.024531553 -0.09398929 0.15902355 0.034407638 0.049705006 0.0022511513 -0.13213527 -0.02503575 -0.004969104 -0.074125335 0.017909974 0.135982 -0.17026125 -0.075606555 0.0165477 -0.085120305 0.068978645 0.039763354 0.04052317 0.030503776 -0.032894935 0.075092115 0.13601251 0.024456903 -0.10876963 0.27759874 0.08104888 -0.047748554 -0.006374435 -0.039655283 -0.12655309 -0.01975175 0.023835873 -0.11916508 -0.13636035 -0.11022838 0.11899893 -0.012940706 -0.21011564 -0.10483895 0.10397276 -0.10612506 -0.07557668 0.09882777 -0.050400335 0.11707032 -0.032549985 -0.0694422 0.121517524 0.09505043 0.06347484 0.07440164 0.23146366 -0.15692659 0.19889906 -0.10535966 0.05243679 -0.07842457 -0.0055148248 0.016433366 0.20561811 -0.059284154 -0.13575454 -0.071582586
58 -0.04192196 -0.1750445 -0.04955914 -0.13230082 -0.019312255 -0.0036484413 0.042166524 0.035661813 0.17624989 0.01708201 -0.003980359 0.22439109 0.12859236 0.04821214 0.024499629 -0.22334993 -0.13007209 -0.034391236 0.01567151 0.060680684 0.002060788 -0.083664894 0.11925155 0.027534511 0.039020363 0.0020920653 -0.13903776 0.0028652023 0.017912643 -0.056603123 0.022397347 0.11464005 -0.16250588 -0.060438022 0.0015610348 -0.08035646 0.07548254 0.045965508 0.052576054 0.07799789 -0.030742813 0.078784235 0.118865184 -0.007842031 -0.11035521 0.28501803 0.0873121 -0.041191228 -0.017679192 -0.05407897 -0.11881636 -0.026180731 0.026753508 -0.0837318 -0.1462736 -0.094883636 0.10568292 -0.0144193405 -0.1813126 -0.1002635 0.09589216 -0.10377348 -0.08398926 0.08372765 -0.048163597 0.14401431 -0.03953227 -0.07914299 0.14778501 0.10058636 0.07594447 0.072122216 0.20009814 -0.16597904 0.20250471 -0.065626614 0.045266725 -0.06672842 -0.010204253 -0.0004442938 0.22017609 -0.035467744 -0.14243698 -0.058328528
7 -0.020136671 -0.1611395 -0.048048887 -0.10560515 -0.04081674 -0.012345383 0.07509778 0.059898764 0.15592535 0.01928131 -0.024686376 0.19333282 0.08422924 0.013583476 0.018582903 -0.20351818 -0.11273385 -0.055804998 -0.0016848275 0.031111257 0.0168483 -0.088449106 0.1531721 0.045298673 0.059593007 -0.01311818 -0.12900305 -0.019849928 0.012231909 -0.036619995 0.019620432 0.11648181 -0.14350477 -0.067918316 -0.013001242 -0.09450358 0.081025735 0.012195224 0.0375559 0.020258693 -0.046617907 0.074181706 0.12175877 0.037329204 -0.122881055 0.28873575 0.08849427 -0.04966175 -0.009062221 -0.023511548 -0.105456084 -0.014137479 0.024361055 -0.08849852 -0.15808548 -0.08642913 0.116661854 -0.018942507 -0.22734477 -0.08198299 0.095830806 -0.13954385 -0.08859533 0.120355405 -0.04116648 0.14363408 -0.036677793 -0.05200143 0.11716806 0.05161422 0.07389301 0.09147027 0.20716406 -0.1801542 0.2358489 -0.067051806 0.071381845 -0.086425245 0.0043175546 -0.010264945 0.22567785 -0.050660733 -0.15275282 -0.05892122
48 -0.03461954 -0.16561468 -0.029781206 -0.115292184 -0.01966056 -0.010641635 0.057063516 0.032120097 0.18331228 0.01293166 -0.014697928 0.23049746 0.12310886 0.05233562 0.019726604 -0.23860605 -0.13854751 -0.049662024 0.00621248 0.054026406 0.01694118 -0.07226944 0.12798731 0.035855014 0.049380135 0.006314385 -0.13945432 -0.0022998354 0.017448526 -0.060561318 0.01982797 0.1141167 -0.15447992 -0.05428244 -0.004906125 -0.09043642 0.07588784 0.030393269 0.045919374 0.06827973 -0.033064067 0.080974005 0.13807702 0.0013613246 -0.11465784 0.29294786 0.09460145 -0.041135512 -0.029577836 -0.04486881 -0.10710756 -0.014840454 0.030429445 -0.08488548 -0.1540186 -0.09695433 0.10962271 -0.011040347 -0.20829922 -0.10878298 0.09441661 -0.1126414 -0.09332919 0.09337877 -0.055937458 0.15021665 -0.024676027 -0.06525844 0.13680848 0.0789915 0.078537315 0.070254974 0.16954647 -0.14402208 0.1970672 -0.049784437 0.058811482 -0.07369904 -0.0026184672 -0.006351023 0.21442148 -0.04142541 -0.12570266 -0.06830539
57 -0.023532446 -0.15495054 -0.05508299 -0.12608643 -0.0018998365 0.0038458449 0.06505123 0.05688047 0.19747084 0.0060466393 -0.018591085 0.22988275 0.12627624 0.043530982 0.022527952 -0.25315523 -0.14228213 -0.054019257 -0.007911274 0.05084951 0.0029695586 -0.0893121 0.14756057 0.053813588 0.04849086 0.010080034 -0.14463133 0.004104188 0.021279069 -0.07925711 0.0050413576 0.12116508 -0.15823145 -0.06944952 -0.0023451627 -0.091227464 0.0672829 0.020234982 0.031317707 0.055445418 -0.019102352 0.0579953 0.107729845 0.012408689 -0.097159736 0.24846315 0.07985706 -0.024929125 -0.0043099388 -0.02586523 -0.09481584 -0.011655368 0.020614821 -0.07589751 -0.12856707 -0.08680865 0.10349854 -0.0040320056 -0.18778436 -0.08664717 0.06109619 -0.10341529 -0.08844021 0.09381718 -0.052090645 0.13918559 -0.034282465 -0.072746255 0.14404163 0.077072755 0.08649108 0.08904351 0.21566965 -0.17928995 0.22644071 -0.08110786 0.054973606 -0.087500155 0.0074793864 -0.0068135476 0.225212 -0.039518993 -0.13648355 -0.061144665
80 -0.046541415 -0.19396038 -0.057549633 -0.14480811 -0.010896081 -0.019633273 0.090130046 0.0804548 0.14391926 0.0115180565 -0.02536643 0.20986421 0.10746001 0.029377533 0.0038938497 -0.20400716 -0.108627684 -0.03154349 0.011238652 0.049621798 0.006161905 -0.104152076 0.12837973 0.044260055 0.04537898 0.0041787736 -0.12689106 0.00899889 0.01789749 -0.10261537 0.0249713 0.1345935 -0.16221243 -0.08239762 -0.012295923 -0.0945615 0.09565769 0.036287393 0.050370134 0.028103584 -0.022175683 0.07214779 0.12656584 0.010191735 -0.11315412 0.25887644 0.09450599 -0.025345901 -0.0010697563 -0.044176083 -0.120855175 -0.025288267 0.019139176 -0.11979033 -0.15510745 -0.12900093 0.12083988 -0.010306743 -0.23098719 -0.08710436 0.08127771 -0.11114087 -0.08170033 0.086883225 -0.05928408 0.12688641 -0.052082963 -0.051757213 0.11504164 0.082139015 0.058882136 0.086266436 0.22972716 -0.1439493 0.19055384 -0.08583356 0.040665045 -0.085548975 0.0059014736 0.009462351 0.20573421 -0.049409807 -0.11828212 -0.05566055
74 -0.06030632 -0.14695726 -0.064247645 -0.13232416 -0.018122206 -0.0016555657 0.052238856 0.051342998 0.12359043 -0.0069967606 0.0036253647 0.19621317 0.098483 0.04118741 -0.005207147 -0.19082448 -0.07963681 -0.012041464 0.028483627 0.038567133 -0.018271541 -0.07845513 0.093519434 0.052499443 0.025351513 0.023962528 -0.11846822 0.014703764 0.023120854 -0.084472775 0.024626829 0.13972269 -0.16166475 -0.055730943 0.01857327 -0.100258455 0.083210565 0.02470597 0.043715395 0.070083946 -0.032011397 0.068507805 0.119493306 0.012485697 -0.09700997 0.23814225 0.08462845 -0.050811104 -0.009191329 -0.08357337 -0.12943028 -0.0281535 0.023642115 -0.12299833 -0.13556549 -0.11095964 0.12953807 -0.013817577 -0.22663671 -0.09782343 0.06913887 -0.098385744 -0.09256807 0.06743634 -0.06019979 0.13245514 -0.03508668 -0.074233495 0.113614194 0.10030173 0.08261174 0.07769072 0.25037244 -0.16047853 0.22101913 -0.09041153 0.04296039 -0.08929035 0.015085841 0.017003017 0.25840515 -0.052586954 -0.1581651 -0.055077437
55 -0.025359329 -0.17014366 -0.04223251 -0.12896872 -0.011969897 -0.019431762 0.062790595 0.043675303 0.15289445 0.0150033 -0.019606607 0.18008588 0.08576223 0.036103334 -0.0035169427 -0.19072817 -0.12540345 -0.03767865 -0.0007984765 0.045213636 0.016268853 -0.1048978 0.15844803 0.04191158 0.067181855 -0.00070118817 -0.13507324 -0.015283362 -0.0020449618 -0.10282895 0.014356445 0.12923661 -0.1659105 -0.11756905 -0.0028379953 -0.10236909 0.088378616 0.030084793 0.031924166 0.019133689 -0.020026844 0.07253721 0.15153465 0.02149396 -0.11472132 0.2782581 0.08694579 -0.030538436 -0.0040746448 -0.037553564 -0.118279204 -0.003955956 0.036603957 -0.124108985 -0.14968528 -0.11448661 0.11917126 -0.0011482899 -0.23485757 -0.092291296 0.077042684 -0.122866936 -0.06644379 0.102982536 -0.055983562 0.118528225 -0.023765415 -0.06418697 0.122569524 0.07682248 0.069974005 0.09928038 0.22437412 -0.13741873 0.19349131 -0.09818022 0.0559957 -0.07298407 0.019198334 0.022417331 0.18571438 -0.06285036 -0.10640137 -0.06086955
77 -0.029652944 -0.15709844 -0.030398881 -0.12182659 -0.010460593 -0.0128215 0.03867057 0.06261652 0.12563288 0.021037957 -0.0142367035 0.19231728 0.088984214 0.034351073 0.013625971 -0.1730331 -0.08142723 -0.02966072 0.037815273 0.058689483 -0.019373951 -0.085836016 0.11070841 0.035614647 0.060694493 0.0010687293 -0.118530296 0.0069054286 0.0022709111 -0.10402173 0.008085838 0.11817155 -0.15520322 -0.09535804 -0.016558457 -0.11300813 0.11146309 0.026866075 0.037457358 0.044482045 -0.025438717 0.074679226 0.15905924 0.019196222 -0.113327615 0.24355952 0.08129615 -0.025387643 -0.017836172 -0.046549562 -0.1259914 -0.023563033 0.021557227 -0.12217031 -0.15946178 -0.1266258 0.1253819 0.009173199 -0.2463377 -0.09023581 0.072369024 -0.14218743 -0.08159434 0.10923518 -0.061039273 0.13106309 -0.03928601 -0.051548462 0.100458294 0.08256503 0.05893061 0.09174617 0.2498051 -0.15013458 0.19732656 -0.0962437 0.04953161 -0.07662608 3.725642e-05 0.009816151 0.23844066 -0.066166565 -0.1376841 -0.051064692
71 -0.031551436 -0.16103794 -0.054186475 -0.12774779 -0.023831148 -0.015164647 0.04271563 0.027976643 0.15109657 0.011164601 -0.019548904 0.20607595 0.101867154 0.029450808 0.01149422 -0.19012722 -0.12196246 -0.034296174 0.018155394 0.053662416 -0.015621532 -0.07303018 0.110169135 0.044281226 0.044684984 -0.00056171475 -0.117635734 -0.004192151 -0.0015984908 -0.0880776 0.004911041 0.11347078 -0.17739114 -0.09891738 0.0024483367 -0.097570024 0.08005962 0.02049913 0.05602982 0.046550307 -0.022787448 0.07171833 0.1427725 0.010639553 -0.10806476 0.26479214 0.080817774 -0.05070382 -0.007970991 -0.05405265 -0.12094916 -0.012241321 0.015090653 -0.11615711 -0.13269338 -0.11272663 0.12189838 0.0013806119 -0.21123166 -0.08942269 0.06720972 -0.11073174 -0.07100909 0.08865392 -0.058340885 0.14159554 -0.035622265 -0.081598334 0.12148685 0.0977241 0.08087741 0.091910765 0.24544892 -0.16706501 0.21428983 -0.09420006 0.03602213 -0.08672024 0.0050096908 0.017476592 0.24635893 -0.053474262 -0.14915456 -0.061010323
13 -0.040379137 -0.16810632 -0.04594815 -0.1460945 -0.018490683 -0.021882601 0.06476173 0.058538593 0.14241458 0.0032214227 -0.005414691 0.17776902 0.11092546 0.040295716 0.0013417255 -0.20906298 -0.109511405 -0.03257007 0.011460531 0.031506363 0.0073137865 -0.08975042 0.13001326 0.057329077 0.03412377 0.017576877 -0.11255993 0.009931521 0.016848851 -0.07920724 0.01754207 0.12595801 -0.17278133 -0.07215859 0.0033791305 -0.11337919 0.090961196 0.04114066 0.04701415 0.052297667 -0.036754582 0.057766747 0.13924292 0.034866937 -0.117143 0.25828773 0.0811229 -0.03167625 -0.0039620455 -0.053517517 -0.1266991 -0.016002428 0.029662918 -0.111898795 -0.13198018 -0.10653503 0.11478545 -0.016921338 -0.21069485 -0.09012147 0.07051073 -0.0998913 -0.08728662 0.085319415 -0.05696007 0.12867248 -0.03048602 -0.060690947 0.11850974 0.08546778 0.06890891 0.07310089 0.24378105 -0.16123153 0.20804398 -0.103726245 0.038255822 -0.09517938 0.0016288226 0.011006011 0.23447965 -0.056777265 -0.14575511 -0.0640797
23 -0.034960434 -0.19816503 -0.049594387 -0.122960836 -0.04016777 -0.019948492 0.06303871 0.055754934 0.14864403 0.027019748 -0.02915532 0.20238878 0.08081295 0.015476957 0.00558011 -0.17977841 -0.12217253 -0.03691922 0.022226542 0.041293256 0.013455548 -0.08625423 0.14028473 0.021487668 0.04765923 -0.0073671993 -0.118513 -0.024504231 0.0017059348 -0.049350645 0.035880044 0.1139554 -0.16165511 -0.05214861 0.006021328 -0.076911345 0.07436406 0.029386593 0.04038378 0.035085578 -0.038371257 0.08160089 0.13464373 0.020860348 -0.123451464 0.26345804 0.09324839 -0.038011335 -0.009365726 -0.032383453 -0.098960005 -0.017877957 0.036527846 -0.10795966 -0.1561279 -0.104584426 0.12677826 -0.0050522275 -0.219829 -0.10216263 0.09625205 -0.12160497 -0.099643864 0.10578859 -0.04685559 0.13076644 -0.030228404 -0.055376127 0.108056515 0.077993885 0.06651395 0.08406592 0.2243566 -0.15967384 0.21595518 -0.071054466 0.0742752 -0.073891625 0.0084538525 0.009329852 0.22753319 -0.06884064 -0.14273404 -0.07532825
27 -0.022868419 -0.18644793 -0.041973528 -0.12140508 -0.021988709 -0.015266666 0.048853166 0.04453279 0.11900229 0.029453754 -0.0069968286 0.17679237 0.060049497 0.020542318 0.0196202 -0.17342241 -0.093398415 -0.04601245 0.020416386 0.023718005 0.0075957174 -0.08456639 0.13081858 0.026078366 0.056569066 -0.01955162 -0.1442736 -0.01642623 0.0068562203 -0.047026742 0.019310666 0.10826565 -0.15750094 -0.079272926 0.00043115058 -0.09637143 0.09206134 0.028443689 0.036860343 0.024337811 -0.04820407 0.080376156 0.12590067 0.028233273 -0.11057424 0.2858454 0.08245735 -0.04762046 -0.019447058 -0.026287097 -0.12147249 -0.013727358 0.013372538 -0.10557358 -0.17111135 -0.10714727 0.12580049 0.0052545476 -0.21576425 -0.099406905 0.09762463 -0.12725712 -0.09558709 0.12621717 -0.037990168 0.13433744 -0.048912372 -0.06032526 0.12321183 0.07355015 0.0464132 0.09197591 0.23582101 -0.18717387 0.21307482 -0.08780117 0.0712944 -0.08531152 -0.011502359 0.0063022366 0.21726906 -0.05550206 -0.15365496 -0.049133256
6 -0.033409182 -0.19080748 -0.031842697 -0.1262042 -0.01601939 -0.013036737 0.050422143 0.059594676 0.14100641 0.017153058 -0.0022656808 0.18177809 0.08223393 0.03588345 0.02570871 -0.19479726 -0.10268622 -0.04955047 0.028439695 0.028181504 0.016354214 -0.07800112 0.1136019 0.037239853 0.045824826 -0.0021023336 -0.10410781 -0.0027389263 0.01708878 -0.042588804 0.012889581 0.08580952 -0.12751962 -0.052141074 0.0012511768 -0.08157514 0.0810904 0.033878144 0.03634425 0.037656482 -0.04241653 0.073520966 0.13371027 0.022152385 -0.11294964 0.2748989 0.08454763 -0.0443537 -0.014973174 -0.038632564 -0.12399446 -0.017676143 0.013770758 -0.09436302 -0.14243533 -0.1058716 0.11026143 -0.011545796 -0.22376493 -0.11050584 0.100532986 -0.13097548 -0.08432512 0.10573685 -0.061613135 0.13501272 -0.046829917 -0.07099885 0.13058409 0.06811651 0.08585834 0.0880813 0.23218328 -0.17970455 0.24412625 -0.09128938 0.07495309 -0.087600484 -0.0008653591 -0.004954231 0.24997726 -0.058501136 -0.1654587 -0.067280434
34 -0.04067891 -0.20873049 -0.03655723 -0.13465367 -0.02750327 -0.014072421 0.051395368 0.035933822 0.13932727 0.029803118 -0.020113755 0.20861223 0.087945096 0.029695554 0.0079317 -0.19515185 -0.102334246 -0.0332989 0.025136195 0.04061143 0.01193668 -0.09002224 0.15654202 0.012333052 0.051334526 -0.021696717 -0.12745929 -0.03445808 0.0091488175 -0.06477097 0.03248182 0.13322401 -0.1796828 -0.07724728 0.0012207845 -0.085484974 0.080539085 0.027994717 0.036216408 0.04223948 -0.05321128 0.08146742 0.13391612 0.023393132 -0.12215194 0.28895578 0.10067001 -0.05993777 -0.008772098 -0.025906842 -0.10161336 -0.020815434 0.018340211 -0.096647836 -0.16355588 -0.10708105 0.11285129 -0.0031651175 -0.20196408 -0.087945655 0.08744492 -0.10239215 -0.10179902 0.10846809 -0.046928596 0.1250657 -0.040106237 -0.07624138 0.12582529 0.07682988 0.068394855 0.08127636 0.22086059 -0.17470819 0.2204009 -0.08517006 0.07097613 -0.061961647 0.011727661 -0.00719975 0.20505299 -0.06755098 -0.13586107 -0.065742254
12 -0.033503942 -0.19911668 -0.015757991 -0.114842884 -0.018572234 -0.016801829 0.027578814 0.031727817 0.1140272 0.040637925 -0.0011213257 0.1756351 0.05727743 0.028438028 0.032307588 -0.14167282 -0.10330937 -0.041402437 0.025527671 0.024210284 0.029300282 -0.05549652 0.12469442 0.013612985 0.05071916 -0.015845846 -0.097267985 -0.0064466433 0.00900506 -0.048673086 0.028431388 0.10864854 -0.15547068 -0.061979912 0.0034253872 -0.08159625 0.08700889 0.041268725 0.053176105 0.050910085 -0.04738051 0.103524216 0.16333218 0.009080519 -0.13919939 0.32627723 0.090751246 -0.05273416 -0.042999957 -0.035295725 -0.12569207 -0.008349317 0.023797853 -0.09592537 -0.16553092 -0.11117671 0.10971031 -0.0037338585 -0.22203101 -0.10270282 0.1104191 -0.1359862 -0.09136708 0.12562524 -0.054479126 0.13883105 -0.02562053 -0.067441136 0.13846476 0.08344336 0.082934484 0.097598836 0.20444095 -0.15641773 0.2079668 -0.076493286 0.090551384 -0.06533229 -0.007131242 0.015119703 0.22643067 -0.06229759 -0.16507992 -0.0716772
36 -0.021411857 -0.09302312 -0.028477676 -0.09237852 0.00085526414 -0.019586949 0.041967615 0.058501128 0.11537137 0.0111056585 -0.024273638 0.15694857 0.0757169 0.037722312 0.00642817 -0.1406124 -0.07021501 -0.03515923 0.019039074 0.03457647 -0.036004107 -0.056025498 0.07937734 0.051516477 0.06573421 0.0058411295 -0.08641423 0.011465662 0.001274032 -0.12033392 0.0007418619 0.11501128 -0.14482339 -0.11155292 -0.015840802 -0.11269269 0.088465616 -0.0026053686 0.03593903 0.03818591 -0.0247206 0.055821262 0.16668174 0.019804662 -0.12497954 0.2510182 0.08845235 -0.037816234 -0.023119442 -0.059004664 -0.1228685 -0.013114764 0.02308985 -0.1408784 -0.14806707 -0.14394474 0.1227405 0.010205114 -0.29214332 -0.08417533 0.062327653 -0.15386887 -0.08776291 0.10634102 -0.08550974 0.13565785 -0.021976214 -0.058780104 0.10829948 0.09552489 0.088770896 0.10841498 0.2854151 -0.1565664 0.20870158 -0.11826358 0.057806473 -0.08110423 0.044999506 0.024797847 0.26979488 -0.079147264 -0.14316753 -0.078287415
60 -0.039133035 -0.13341431 -0.06366929 -0.11985865 -0.019997256 -0.0066346675 0.087784134 0.083560735 0.14122224 0.0034492107 -0.037102174 0.19864856 0.12351671 0.025037026 -0.0051203053 -0.19250044 -0.110254236 -0.037480284 -0.0076580085 0.04388914 -0.027964193 -0.069434956 0.08496988 0.04613815 0.024432594 0.03149378 -0.1076979 0.038105488 0.037501544 -0.08210024 0.01644714 0.13112144 -0.15882172 -0.06230288 -0.0051154457 -0.11787651 0.10031192 0.044561904 0.064051054 0.0738532 -0.015232977 0.06420088 0.114756994 -0.0018715865 -0.1243416 0.2319083 0.0779496 -0.039090816 -0.0052722893 -0.06236004 -0.12149913 -0.026622681 0.029431516 -0.11796619 -0.14418483 -0.12630488 0.13758744 -0.027731627 -0.2525115 -0.09082742 0.08427907 -0.13428417 -0.11364135 0.070459515 -0.052957322 0.12893625 -0.026699137 -0.03898041 0.11354933 0.11139222 0.05245755 0.08804554 0.22136119 -0.14800575 0.21340331 -0.071527325 0.025745008 -0.09115162 0.018094553 0.021857534 0.28231433 -0.029645834 -0.14437635 -0.07901454
5 -0.031133046 -0.17487782 -0.056055307 -0.12976922 -0.011388666 -0.0137477545 0.07086057 0.045227293 0.20442116 0.0033111835 -0.00064063544 0.24022336 0.12293787 0.0407637 0.03255219 -0.2573351 -0.1600358 -0.0661677 0.0044885185 0.037927765 0.012157594 -0.067606986 0.13633814 0.066289425 0.048211507 -0.003889401 -0.14596558 -0.007567882 0.0165142 -0.054998577 0.011989559 0.12202558 -0.15764146 -0.041429106 0.015183758 -0.10137113 0.07797247 0.03183566 0.033623178 0.06516003 -0.020404637 0.056649618 0.109156534 0.00987742 -0.10311764 0.23528002 0.06849253 -0.03476473 -0.016064715 -0.03274487 -0.09650185 -0.007904238 0.037635 -0.08784171 -0.13143033 -0.07974752 0.108946875 -0.017641772 -0.17041613 -0.097219035 0.069727935 -0.10584274 -0.08397933 0.0981726 -0.05470846 0.14661886 -0.014695578 -0.070361115 0.12701085 0.069144905 0.080538794 0.07297425 0.19280097 -0.17507696 0.21541834 -0.069069445 0.056540463 -0.09572891 -0.018523457 -0.016411336 0.24110426 -0.035562616 -0.15709855 -0.07149638
30 -0.027550934 -0.19654131 -0.07322631 -0.13960499 -0.02304787 -0.009442709 0.05590474 0.0376224 0.18450005 0.021389805 -0.013212177 0.23517697 0.1259446 0.052206412 -0.0047811004 -0.2399861 -0.12654388 -0.047153376 0.01013178 0.07037401 0.010677727 -0.09560634 0.13938636 0.0486135 0.05943661 0.005346333 -0.11438994 0.007204864 0.0080788275 -0.067372575 0.012877146 0.11016689 -0.13107139 -0.07909385 -0.005849652 -0.05267111 0.077010065 0.03727804 0.06306035 0.038428485 -0.019895535 0.084069684 0.116273426 0.016199037 -0.108732924 0.26320842 0.07565354 -0.04136828 -0.011824845 -0.06115479 -0.13265546 -0.011690434 0.03363982 -0.10993895 -0.11460479 -0.08809018 0.10858602 -0.025220806 -0.2174033 -0.08731844 0.080413386 -0.10633383 -0.056524254 0.08340199 -0.045229346 0.13026285 -0.059353117 -0.06430291 0.13900378 0.082414106 0.092780635 0.090811215 0.21359663 -0.1810415 0.19130716 -0.081776135 0.064722106 -0.061243452 -0.004040821 0.0378378 0.17348441 -0.046782818 -0.14038114 -0.04019235
14 -0.04877039 -0.19836423 -0.028288411 -0.13553523 -0.019749813 -0.0046338704 0.037215903 0.025965821 0.12850647 0.02772606 0.0016315222 0.1967244 0.074139446 0.03217886 0.013932484 -0.18828462 -0.09357037 -0.026148768 0.023799926 0.02712011 0.009512525 -0.057779357 0.11706338 0.021488102 0.04366198 0.012096852 -0.12098103 -0.007982255 0.0066979616 -0.029221838 0.029949801 0.116309196 -0.16272472 -0.035673987 0.01519288 -0.097322874 0.075083144 0.0322023 0.036257703 0.057387743 -0.05554495 0.085576646 0.145684 0.035288353 -0.11661176 0.27460352 0.08282256 -0.038727894 -0.015603318 -0.047300596 -0.119741656 -0.027325766 0.018013759 -0.09239015 -0.13746049 -0.09264001 0.11747979 -0.006239998 -0.21524349 -0.124014944 0.0940411 -0.11905822 -0.107125595 0.10528553 -0.049631 0.14652795 -0.017906355 -0.065353505 0.11529837 0.070152655 0.06796677 0.0786249 0.22148603 -0.16690262 0.22891736 -0.069219254 0.0663843 -0.09227613 -0.009999138 -0.0066726343 0.24745017 -0.064879134 -0.16060263 -0.05907613
73 -0.058784958 -0.10639586 -0.04164937 -0.11837901 0.0099295955 -0.018298214 0.07309406 0.06659021 0.09423238 -0.01386568 -0.029817518 0.17128935 0.114303224 0.024438065 -0.008949523 -0.17957912 -0.11673222 -0.040504213 -0.009116407 0.044316307 -0.019746305 -0.10250314 0.12185498 0.046591587 0.046681926 0.014533347 -0.115623444 0.022691581 0.018933147 -0.15308058 0.0027668385 0.1531708 -0.17689838 -0.1373494 -0.010218629 -0.1401512 0.09848119 0.019403819 0.037178475 0.028014965 -0.037201375 0.05161863 0.16124643 0.014791025 -0.13832463 0.24622253 0.09211304 -0.026750105 -0.0045477524 -0.06137261 -0.13118044 -0.0073330514 0.017121926 -0.1314677 -0.13403866 -0.15014613 0.113218464 -0.005619987 -0.2280308 -0.07780418 0.043475036 -0.1197091 -0.076275446 0.07327973 -0.076871485 0.11746874 -0.039295882 -0.05396739 0.10562182 0.10002924 0.08019228 0.103808716 0.25955442 -0.12835686 0.20873316 -0.11633949 0.022824157 -0.08891998 0.047582544 0.025548948 0.2573459 -0.07644871 -0.11335257 -0.081921324
59 -0.044559132 -0.18604961 -0.05301984 -0.13908449 -0.025852246 0.009287653 0.04077935 0.030656131 0.1403287 0.023316195 -0.012997183 0.2215745 0.11236088 0.03544216 -0.0010011698 -0.20291586 -0.106208496 -0.024484282 0.020125829 0.056114625 -0.009271555 -0.07459565 0.11447908 0.043495104 0.0575711 -0.00911406 -0.12605983 -0.0099392785 0.009015418 -0.073601 -0.007887714 0.12579735 -0.15991718 -0.087254494 0.0048853676 -0.08565936 0.08529043 0.0143569065 0.03866558 0.045826808 -0.029749235 0.06453586 0.11171002 0.021124244 -0.079496 0.2516457 0.064458326 -0.0578309 -0.002991326 -0.048616692 -0.107402466 -0.025152955 0.010339771 -0.10663476 -0.11269338 -0.09155958 0.11829519 -0.0035133508 -0.21515574 -0.09374327 0.073268645 -0.11249974 -0.06357262 0.09170858 -0.0439167 0.14082047 -0.04797202 -0.07977273 0.14799923 0.09783145 0.092954084 0.074598014 0.26656684 -0.19776754 0.2218421 -0.09559418 0.048868153 -0.08215932 0.00250271 0.0038783362 0.2347987 -0.055926226 -0.16231436 -0.048969526
79 -0.041517623 -0.16930835 -0.035831023 -0.14694324 0.009279928 -0.025438601 0.06874749 0.08120971 0.08678957 0.029657066 -0.015346198 0.16552037 0.10208442 0.013620556 -0.002915495 -0.18453051 -0.06779881 -0.023097765 0.018128376 0.049510047 -0.01675727 -0.09849218 0.11494905 0.03128487 0.040501516 0.017297601 -0.09824031 0.025239842 0.019380735 -0.12129388 0.004096603 0.15794598 -0.15148827 -0.1079658 -0.03233895 -0.12546493 0.11949089 0.03634721 0.038188864 0.022925178 -0.012101647 0.06986663 0.14827478 0.03159446 -0.12365619 0.23820497 0.068056285 -0.005157294 -0.004480723 -0.06872789 -0.14827757 -0.032929197 0.01787476 -0.12469763 -0.16682394 -0.13561872 0.14227577 -0.008240897 -0.25561073 -0.08176537 0.057201777 -0.1467486 -0.08248285 0.072620735 -0.061807286 0.120519646 -0.03511206 -0.04561876 0.13081282 0.0905946 0.06381645 0.10623858 0.26350284 -0.16473216 0.21107453 -0.08997518 0.04190688 -0.10175164 0.000764327 0.0036223026 0.2827931 -0.06254789 -0.13578708 -0.06837411
29 -0.03722917 -0.20242873 -0.07222316 -0.14938182 -0.018820094 -0.024781812 0.07080628 0.023143947 0.14309014 0.022384342 -0.0024781206 0.20308162 0.08257237 0.025123542 0.0024460396 -0.21734597 -0.12155807 -0.074520454 0.015710412 0.04395964 0.01758403 -0.077872284 0.119615845 0.03259735 0.03730572 -0.013165514 -0.14043234 -0.019074978 0.024673717 -0.04168834 0.04181068 0.11459709 -0.13261794 -0.085535266 -0.019046865 -0.07995384 0.09748277 0.032348607 0.05259857 0.006976249 -0.015154747 0.106834285 0.10149776 0.00044202982 -0.10233407 0.2868847 0.06830287 -0.05381219 -0.025232889 -0.045107126 -0.132978 -0.01762957 0.01354584 -0.09781559 -0.15842651 -0.07642317 0.13718815 -0.0066991127 -0.21468209 -0.088607036 0.09386298 -0.1451868 -0.095223844 0.09903433 -0.060604278 0.1405853 -0.066633455 -0.07265301 0.15275602 0.10100009 0.055416424 0.10971092 0.21416813 -0.19644192 0.23291786 -0.06611127 0.08799854 -0.07208472 -0.0074472907 0.01343543 0.20198044 -0.033433594 -0.14853503 -0.06611775
28 -0.032742478 -0.1949858 -0.043455206 -0.122500956 -0.025487881 -0.00048033535 0.06327853 0.033359922 0.13135453 0.028150281 -0.013781811 0.2020197 0.09144327 0.03257739 0.0028903305 -0.20759138 -0.109701954 -0.064981975 0.014654445 0.050371103 0.008570953 -0.0815358 0.15007204 0.034902737 0.048024617 -0.0069823302 -0.1355514 -0.018113153 0.035195142 -0.047265712 0.029430354 0.13477299 -0.14357609 -0.06737734 -0.012373304 -0.093204275 0.09807266 0.032074913 0.053354762 0.026213633 -0.037585773 0.08905716 0.12159594 0.029484695 -0.12488594 0.270825 0.06227417 -0.053100985 -0.022339212 -0.042968743 -0.122426674 -0.017995214 0.030295981 -0.09753187 -0.12981394 -0.0767481 0.11558067 -0.038447585 -0.22029847 -0.08389255 0.08600553 -0.14369291 -0.07373121 0.10614266 -0.04085619 0.1378583 -0.058317922 -0.05022168 0.12773064 0.06643259 0.0767908 0.106117144 0.20652987 -0.21856973 0.23582318 -0.072838105 0.07997982 -0.067586705 -0.017892519 0.007973138 0.21154281 -0.06664607 -0.15676785 -0.061273
35 -0.047510624 -0.16642125 -0.04389137 -0.13051273 -0.01793439 -0.014267908 0.056286808 0.0545534 0.14798714 0.019435598 -0.015251462 0.21298264 0.10786487 0.041474655 0.007622061 -0.19651055 -0.10165175 -0.029329179 0.023797793 0.051822994 -0.00022826833 -0.09199631 0.12592442 0.057402194 0.06448222 0.017776936 -0.09677594 0.012210565 0.0027669296 -0.09881828 0.008163871 0.12162127 -0.16270974 -0.10658687 -0.0050386633 -0.10525603 0.08321651 0.021838965 0.053850956 0.038125526 -0.041169222 0.07284528 0.14848593 0.0111341635 -0.12597154 0.2544342 0.08448366 -0.029767133 -0.014430517 -0.058326613 -0.12411597 -0.011418732 0.0071232645 -0.111736104 -0.13367182 -0.13487731 0.116007015 -0.006097276 -0.24004352 -0.0917734 0.07389314 -0.13355221 -0.08548843 0.09774398 -0.07153427 0.114580765 -0.03773829 -0.05117986 0.117896415 0.084376685 0.0736472 0.087236345 0.2394796 -0.14703849 0.19858526 -0.10671136 0.050404273 -0.07637949 0.025107365 0.016699696 0.22196406 -0.0671988 -0.12875181 -0.07219395
72 -0.041085333 -0.1066995 -0.02911788 -0.090027995 0.010489747 -0.0066264477 0.03947491 0.056577258 0.108058564 0.0074475314 -0.013419474 0.1654978 0.06153267 0.0031360083 0.021012258 -0.12824579 -0.074219994 -0.034960713 0.01061612 0.03817231 -0.027327368 -0.07080991 0.09595628 0.028002664 0.055326283 0.02229864 -0.08825212 0.029628806 0.008295218 -0.10884606 0.0058255126 0.098782614 -0.16602015 -0.11290563 -0.013993327 -0.1418963 0.10557565 0.016673382 0.04226167 0.038770553 -0.026410619 0.09870272 0.16835326 0.007534145 -0.15220287 0.26686758 0.093844235 -0.02606919 -0.022663629 -0.068058066 -0.140546 0.0032807665 0.016060384 -0.11801304 -0.17400558 -0.15443341 0.11855285 0.013591064 -0.25616077 -0.09519206 0.054732155 -0.15812352 -0.105773695 0.1158251 -0.06604424 0.13431613 -0.025760569 -0.058325626 0.10897486 0.07751775 0.06803122 0.12685055 0.2654476 -0.1539793 0.24085997 -0.10311833 0.04382564 -0.09575439 0.04629973 0.026845029 0.2792859 -0.06984202 -0.15845479 -0.07777852
78 -0.04250156 -0.18355021 -0.0448372 -0.14367045 0.003965797 -0.030354705 0.07754736 0.064286605 0.11161546 0.024659796 -0.030149877 0.18125087 0.1099471 0.00041518136 0.020167308 -0.19724949 -0.09950583 -0.046237122 0.006243728 0.0459336 -0.016176159 -0.08630644 0.114653595 0.049760196 0.0540044 0.010075399 -0.10565326 0.021815153 0.0215074 -0.1197135 0.012777061 0.14213757 -0.1555903 -0.10497193 -0.02910963 -0.11277356 0.104909725 0.032272007 0.055092555 0.038019013 -0.01884453 0.08049302 0.13949889 0.023216916 -0.11235901 0.22279006 0.062107094 -0.017165495 -0.0054457705 -0.038810164 -0.12461742 -0.0069891764 0.009725809 -0.12323391 -0.16413224 -0.13177517 0.13378441 -0.009403905 -0.24990037 -0.07950552 0.06310158 -0.1461593 -0.07407018 0.09201636 -0.052397944 0.12594377 -0.05164238 -0.05311505 0.13537106 0.10605628 0.07513133 0.111814104 0.2729407 -0.18400858 0.22223791 -0.09947325 0.03707449 -0.105364114 0.0014798132 0.01444689 0.26693544 -0.047653645 -0.15582883 -0.056161474
