84 84
81 -0.038905967 -0.16226526 0.06555467 -0.054867305 0.121997565 -0.09570007 0.026471656 0.0049313246 0.044971157 0.0443858 -0.025676303 0.12931132 0.12366327 -0.13594005 0.024613244 -0.119500436 -0.0600395 -0.06923551 0.04485273 0.09573791 0.10012675 -0.0005629953 0.12693377 0.045332734 0.027582675 0.036541864 -0.12778893 -0.07819437 -0.019010838 -0.029117469 0.024315096 0.06777181 -0.17429562 -0.01460489 -0.14264272 -0.14730318 0.054632936 0.04133877 0.04809528 0.13652728 -0.040543146 0.1254983 0.11762604 -0.07173453 -0.1443963 0.16685559 0.003975326 -0.014808897 -0.011736652 0.05005174 0.0154452175 0.14623027 0.019696236 -0.086654074 -0.20472856 -0.079056114 0.09915315 0.081172034 -0.19702826 0.017395655 0.06480934 -0.14216977 -0.10785654 0.17757766 -0.0999833 0.04230879 0.013108389 -0.13196525 0.09664773 0.051353093 0.14654471 0.081118084 0.2104013 -0.09883253 0.23792341 -0.030210903 0.07623113 -0.06371456 0.1273025 0.0009619041 0.13730285 -0.0956395 -0.06945428 -0.17523277
22 -0.022749336 -0.20120667 0.08797729 -0.06930881 0.13341418 -0.12403866 0.034693316 0.0036678493 0.033233076 0.043082222 -0.030159995 0.13833061 0.12133691 -0.13893457 0.026360055 -0.12651311 -0.0762077 -0.07517922 0.049731992 0.109615125 0.11153014 -0.006984678 0.13262363 0.03115202 0.0068927687 0.040904827 -0.11159117 -0.07443578 -0.005657601 -0.009151576 0.021572003 0.04987242 -0.15367028 -0.0151667595 -0.14195755 -0.13893169 0.062636524 0.05020019 0.04236804 0.13452475 -0.0342736 0.09615003 0.0959705 -0.049350843 -0.14987792 0.18695833 -0.002145363 -0.020525124 -0.034251355 0.039937742 0.01166382 0.15570928 0.020396393 -0.07507929 -0.19940038 -0.084996276 0.09488124 0.099500485 -0.20439114 0.029860722 0.07613565 -0.14126778 -0.1065329 0.1694893 -0.09993658 0.033042807 0.011714299 -0.13358024 0.103472926 0.040228024 0.11699729 0.06864311 0.18601263 -0.09616561 0.23266204 -0.02790756 0.07187366 -0.034611486 0.12989731 -0.008518314 0.09712424 -0.090239175 -0.060599644 -0.16622217
63 -0.03341097 -0.19304024 0.078190885 -0.075928815 0.1615985 -0.13700472 0.05906265 0.007410183 0.042975813 0.06592214 -0.039127838 0.1490071 0.14979573 -0.1530688 0.018533623 -0.15525663 -0.06922625 -0.09092854 0.0495073 0.12796883 0.11920464 0.011394761 0.15563792 0.054762375 0.018233377 0.035085224 -0.14852645 -0.060506076 -0.002146139 -0.020703364 0.037517693 0.059100986 -0.17343059 -0.01686711 -0.16597316 -0.15032482 0.066149674 0.061998706 0.05712072 0.14927378 -0.021949362 0.11119818 0.106220506 -0.07338875 -0.14004715 0.16368243 0.0060066027 -0.026442816 -0.02282425 0.04093161 0.0068427045 0.1250217 0.016065488 -0.06613208 -0.18488389 -0.080739416 0.09729972 0.07963127 -0.19475217 0.03578441 0.053179476 -0.12995486 -0.11686761 0.14715679 -0.08099996 0.03918152 -0.004779766 -0.12113024 0.0942027 0.045459118 0.116909035 0.07481591 0.17985246 -0.103364095 0.20241868 -0.031554583 0.07461217 -0.037324358 0.11226927 0.0036142499 0.08940387 -0.0632817 -0.05876819 -0.14547022
12 -0.030223614 -0.15784277 0.05949338 -0.044103403 0.08612512 -0.10635193 0.002873154 0.000881916 0.04182302 0.034766197 -0.022510951 0.12793453 0.12967877 -0.12401981 0.023925882 -0.090329476 -0.062110614 -0.05668237 0.062030282 0.075857125 0.08063695 0.002641486 0.118354514 0.038649566 0.010909434 0.020186072 -0.09755455 -0.06922143 -0.011962273 -0.020776872 0.021363828 0.048147622 -0.17006792 -0.028865797 -0.1449171 -0.11289147 0.056534246 0.05126358 0.04481505 0.14271326 -0.025446482 0.11366819 0.12136088 -0.06658238 -0.1541106 0.18848251 -0.011352583 -0.013294933 -0.023127193 0.036429677 0.0036006223 0.1563248 0.027932204 -0.07681381 -0.2427431 -0.10246341 0.11406288 0.100707605 -0.20892335 0.03727257 0.073733754 -0.1475259 -0.105074435 0.17143714 -0.11223208 0.042647 0.0017475096 -0.14841372 0.118384585 0.06590474 0.1419755 0.07970115 0.20226966 -0.10276372 0.23129705 -0.013569428 0.087556034 -0.0655109 0.13048558 0.008720705 0.12749098 -0.09538633 -0.07443727 -0.17006761
44 -0.01718706 -0.18732437 0.058595452 -0.070484735 0.12436432 -0.13181892 0.043935865 0.004727933 0.06962699 0.049220614 -0.05377168 0.16306023 0.1357857 -0.12910856 0.032493178 -0.1072647 -0.05617944 -0.06453386 0.06009943 0.1177212 0.107648626 -0.0017384355 0.13684264 0.05107792 0.034470297 0.013699102 -0.124939606 -0.07033382 -0.007383349 -0.012133135 0.04692851 0.04843777 -0.14957258 -0.02669299 -0.13308246 -0.11121482 0.03297498 0.05369487 0.036126766 0.12194905 -0.042149786 0.11082722 0.12239567 -0.0651873 -0.14294945 0.16434543 0.010483677 -0.007911949 -0.019668756 0.03152723 0.0017401677 0.1329722 0.016431103 -0.0753554 -0.18804719 -0.09307946 0.13481356 0.09124134 -0.20724663 0.040185966 0.051425725 -0.1327164 -0.09634082 0.16217393 -0.092540264 0.05415533 -0.007141446 -0.13352776 0.115726516 0.069293685 0.14157239 0.059971638 0.21800652 -0.10360358 0.2338794 -0.026669845 0.0708893 -0.056330755 0.14742906 0.014899927 0.10880592 -0.10189587 -0.07869292 -0.16732997
54 -0.029487377 -0.17776497 0.07092005 -0.060372576 0.12083514 -0.10340833 0.029661095 -0.014063502 0.06121855 0.040146336 -0.042938538 0.15239502 0.13710898 -0.14155483 0.03231495 -0.13028708 -0.0744959 -0.08149906 0.05246323 0.10981653 0.106677964 -0.007633072 0.13211004 0.05242092 0.024886359 0.02449627 -0.13677105 -0.08495548 -0.019252477 -0.039110545 0.038928576 0.06784902 -0.15182793 -0.029264985 -0.14843303 -0.13310857 0.048275914 0.05306681 0.05223641 0.14142297 -0.038554817 0.1140706 0.10716632 -0.053553756 -0.13177404 0.18294244 0.003341188 -0.01756792 -0.027517458 0.04658897 0.011722483 0.15593322 0.026783556 -0.084050775 -0.19023949 -0.08657478 0.0989504 0.09801843 -0.20564444 0.03973553 0.0625209 -0.14596625 -0.09951661 0.18633506 -0.08471581 0.044408076 0.0068947235 -0.13940068 0.094732545 0.038581196 0.14698847 0.059374813 0.19544402 -0.08993736 0.23691285 -0.024005925 0.057827413 -0.05458466 0.115095414 0.0039884825 0.095792174 -0.0783813 -0.079842836 -0.14476718
66 -0.019128 -0.19397867 0.07471374 -0.07858672 0.14229831 -0.12600552 0.044457898 0.022574974 0.061791457 0.06219031 -0.043749526 0.15531066 0.15197174 -0.13970424 0.04085365 -0.14681995 -0.07245037 -0.086359486 0.06779393 0.12073586 0.12178814 0.0047866157 0.14384857 0.058016982 0.02984849 0.015886733 -0.14654243 -0.06822075 -0.002418708 -0.019170282 0.045802876 0.05557546 -0.1631112 -0.021258865 -0.16530396 -0.13950953 0.06141698 0.057052415 0.03822104 0.1534986 -0.036163967 0.0973827 0.12498721 -0.0641412 -0.14271279 0.18825465 0.0090793865 -0.01389809 -0.03232465 0.037848376 0.016050033 0.15061834 0.025522321 -0.050972953 -0.19914466 -0.085084155 0.09405886 0.08672918 -0.20909391 0.049142525 0.07029489 -0.12933032 -0.092681706 0.12535147 -0.07458434 0.04224701 -0.0014393836 -0.11414868 0.09883023 0.0411651 0.120409384 0.057102636 0.17857692 -0.094343886 0.22084749 -0.033410776 0.06872732 -0.048340984 0.11373285 0.00044695748 0.089392155 -0.06899194 -0.07604696 -0.12777044
19 -0.029846283 -0.23787126 0.1117214 -0.10026115 0.1399987 -0.14189665 0.036493503 0.0031038772 0.03778235 0.05917701 -0.05257002 0.15996644 0.14206997 -0.15400146 0.007776532 -0.1357823 -0.06596161 -0.0990846 0.071329646 0.1227504 0.12750705 -0.002882639 0.15097912 0.05311557 0.011364833 0.029093524 -0.12688641 -0.054159757 -0.0030349777 -0.008532152 0.035979353 0.06460165 -0.16884328 -0.020916667 -0.14324613 -0.17295162 0.04811463 0.06306973 0.0580176 0.13299586 -0.036149085 0.08847231 0.106597275 -0.051168967 -0.12793945 0.15856871 0.001432907 -0.03146885 -0.028631724 0.049076233 0.014831692 0.1394538 0.014568118 -0.08040736 -0.20202847 -0.0576485 0.08335907 0.09289422 -0.18521114 0.03817943 0.043097895 -0.13477309 -0.0795521 0.14342308 -0.077989265 0.03169836 0.03785173 -0.13671611 0.096542604 0.044773374 0.12982598 0.07472048 0.18507512 -0.08216459 0.22200406 -0.023860969 0.07484223 -0.027125848 0.12261648 -0.0071242945 0.09146838 -0.0749179 -0.05753705 -0.13968502
25 -0.0418836 -0.1967639 0.05335342 -0.06351776 0.13154697 -0.11972135 0.04039698 0.0077431966 0.051268786 0.04536268 -0.0356082 0.15531927 0.1426493 -0.13627383 0.028612172 -0.12807158 -0.073845185 -0.08092257 0.05617021 0.105149016 0.10663082 -0.0011314865 0.14524284 0.05445977 0.020231066 0.018455451 -0.14345564 -0.066064894 -0.016120806 -0.011555579 0.025967978 0.06363731 -0.15000854 -0.029263308 -0.1547001 -0.1315816 0.042021222 0.058839906 0.02296386 0.13270156 -0.028116053 0.10264185 0.098606825 -0.073779725 -0.13268983 0.18990168 0.011967848 -0.017327026 -0.014591319 0.024705729 -0.004198039 0.14417577 0.008423372 -0.054928806 -0.22759636 -0.093906164 0.108742625 0.079184994 -0.20204857 0.043150313 0.0773571 -0.12592082 -0.10326939 0.14965564 -0.07901564 0.03924438 -0.010681126 -0.13720258 0.10336298 0.05711387 0.12378065 0.06641185 0.20110942 -0.10387863 0.21183677 -0.023798546 0.08237909 -0.052897595 0.14091612 0.0037148178 0.1123852 -0.06843218 -0.057731003 -0.151216
18 -0.039367445 -0.19558427 0.073754214 -0.06275556 0.12761776 -0.12899052 0.032452285 0.017869756 0.036629688 0.04071768 -0.03453703 0.12543683 0.14016724 -0.13763058 0.02833427 -0.13401946 -0.06624178 -0.0633473 0.04463095 0.088384755 0.09488887 -0.00019671564 0.124812044 0.026956093 0.009090154 0.037043024 -0.10479731 -0.06341835 -0.0034828028 -0.017704831 0.01977058 0.064692006 -0.14856502 -0.012870102 -0.1338468 -0.13990167 0.06464328 0.03789755 0.030622488 0.13142782 -0.03715759 0.11641003 0.123459764 -0.06723496 -0.15358396 0.18987466 0.0034480358 -0.020234613 -0.018092351 0.04005996 0.0060751643 0.13982081 0.017664703 -0.076016255 -0.23415723 -0.08349028 0.098437354 0.08249399 -0.20340219 0.017125418 0.071108036 -0.13520159 -0.098918304 0.15335539 -0.098838106 0.037239928 0.0015186599 -0.13937248 0.106512025 0.05450777 0.10848349 0.07032003 0.1898699 -0.10081651 0.23268342 -0.015948331 0.080212384 -0.053457752 0.12309372 -0.002881896 0.12914777 -0.07672615 -0.04997588 -0.16830465
75 -0.022276243 -0.20583542 0.07749846 -0.0878693 0.12922254 -0.13208301 0.042165704 0.0050313547 0.051119596 0.057934016 -0.047977176 0.1614886 0.16436052 -0.17253156 0.025187401 -0.16628501 -0.059055805 -0.08274227 0.058813814 0.13033982 0.11903492 -0.002194134 0.16152501 0.04511906 0.013207272 0.024273321 -0.1258676 -0.06447326 -0.001963609 -0.03411605 0.03876934 0.06694367 -0.17364988 -0.022271976 -0.17042185 -0.14994453 0.061522335 0.047003984 0.043030236 0.13352711 -0.034521926 0.10854825 0.116778105 -0.06232512 -0.13194092 0.15925613 0.013065316 -0.015576693 -0.013743915 0.03532852 0.0070579024 0.13827568 0.020244425 -0.08303775 -0.18899679 -0.06465371 0.101952575 0.088346876 -0.21391623 0.048990857 0.040444925 -0.14001833 -0.08692659 0.14592762 -0.086537376 0.041172512 0.015877305 -0.13222697 0.08068368 0.04500755 0.12189855 0.061591946 0.19170205 -0.09842798 0.21395889 -0.02357528 0.065523535 -0.044552676 0.12485331 0.0010489515 0.10611936 -0.07969303 -0.07817618 -0.1310236
70 -0.02267238 -0.21028602 0.07953782 -0.07465562 0.12468206 -0.12627777 0.040881064 0.018270629 0.06048495 0.047811918 -0.052764475 0.1353714 0.13223463 -0.13684532 0.03131291 -0.12123112 -0.045853376 -0.0723022 0.051806226 0.11205878 0.10758443 -0.0020566243 0.14382502 0.0342107 0.037876412 0.026555236 -0.123685166 -0.08433983 -0.0067709563 -0.031709466 0.041042753 0.048382733 -0.17145675 -0.035511814 -0.15407732 -0.14753297 0.064107835 0.047722198 0.0395533 0.13350293 -0.045741037 0.104226336 0.11947175 -0.053882167 -0.14438374 0.1475224 0.004665435 -0.0011365291 -0.016625917 0.03440492 0.015636409 0.13759783 0.03208148 -0.07517883 -0.17842479 -0.071371935 0.10892603 0.08659759 -0.20667064 0.041304156 0.043734998 -0.13818309 -0.09151238 0.15923792 -0.09766696 0.05164348 0.0047995 -0.124365754 0.10174431 0.048355952 0.123397864 0.064403586 0.20307608 -0.09635907 0.22618958 -0.028576188 0.059042156 -0.051038526 0.13077372 0.00048067185 0.11524443 -0.109874345 -0.08174626 -0.16261142
2 -0.025787264 -0.21689758 0.06274579 -0.06261721 0.14243893 -0.14395323 0.04563248 0.01171443 0.042818103 0.04733885 -0.041571084 0.14807639 0.13708669 -0.14623342 0.026765915 -0.12359947 -0.06157874 -0.059147757 0.04184126 0.11390254 0.108578265 -0.006087193 0.13969588 0.043623395 0.015506895 0.024250316 -0.13832219 -0.06780909 -0.012679647 -0.0048889727 0.02774167 0.06334778 -0.15002395 -0.010027345 -0.14896095 -0.123522244 0.052534554 0.03298592 0.027462633 0.11789717 -0.026307898 0.10368702 0.09639896 -0.06021576 -0.13884395 0.17484587 -0.0039674332 -0.017656654 -0.01693088 0.026516685 0.0024978435 0.13441439 0.024168873 -0.070317335 -0.21662836 -0.09718232 0.10938397 0.0959028 -0.19988592 0.022383144 0.06965108 -0.11913991 -0.105238125 0.16419266 -0.08554395 0.04338171 -0.006934997 -0.14978248 0.09973212 0.050529703 0.10774916 0.073622406 0.20171306 -0.10576197 0.21571964 -0.010240399 0.06758408 -0.06763562 0.13997442 0.003606121 0.12185038 -0.0870156 -0.05970905 -0.14094481
82 -0.033733703 -0.15826973 0.063254565 -0.054478455 0.11027435 -0.10210263 0.032786116 -0.012015889 0.035999637 0.06243174 -0.043030247 0.15730634 0.15884654 -0.166858 0.016920138 -0.1438042 -0.07171075 -0.08748043 0.05895252 0.11816895 0.12127485 0.0005418364 0.16245736 0.06636587 0.031033387 0.015822075 -0.15131462 -0.085877016 -0.03213871 -0.041225538 0.03879049 0.0715571 -0.16331387 -0.036455933 -0.16078313 -0.14378932 0.047318634 0.06506399 0.049751915 0.13878563 -0.022139177 0.11973011 0.107597984 -0.06297938 -0.14297776 0.18563165 0.005741497 -0.026743853 -0.016314782 0.047626656 0.01771664 0.14926149 0.017478427 -0.084815465 -0.19976677 -0.08286848 0.105076805 0.07969972 -0.21182893 0.042661745 0.049307797 -0.14375131 -0.081345074 0.16182564 -0.0756029 0.041551396 -0.006477383 -0.14093967 0.094919086 0.035473943 0.13325846 0.05960815 0.18996377 -0.09463513 0.20397799 -0.034400422 0.057087407 -0.054280415 0.118015595 0.0034750733 0.088521734 -0.06358938 -0.06569112 -0.14330958
43 -0.028832149 -0.15401536 0.050280653 -0.0529029 0.117052644 -0.11414328 0.0464887 0.01804482 0.055510987 0.045685995 -0.041770574 0.15627792 0.1553781 -0.15256658 0.039334167 -0.14345525 -0.07167486 -0.07126882 0.053710904 0.11916025 0.10435135 -0.004329691 0.14988182 0.047761045 0.035301495 0.030712707 -0.14640939 -0.07934475 -0.007729048 -0.02908393 0.046058487 0.073295906 -0.15830144 -0.016346926 -0.14097832 -0.12347841 0.051995296 0.044061217 0.042093657 0.13788836 -0.026039021 0.11554747 0.12752946 -0.070364624 -0.15089107 0.17347099 0.017294731 -0.018308686 -0.013565293 0.032534003 0.009701263 0.12509878 0.009183444 -0.07181501 -0.18530117 -0.08223858 0.118325114 0.07438715 -0.20994452 0.015486722 0.05612622 -0.13248153 -0.09376808 0.15322381 -0.08789654 0.055867158 -0.017384645 -0.13447972 0.10363802 0.052305274 0.13212122 0.06712184 0.19734551 -0.10205234 0.22280996 -0.027368644 0.06693069 -0.06841151 0.11063644 0.007375597 0.124949485 -0.07614536 -0.077089585 -0.15967219
1 -0.019102702 -0.21583214 0.08893324 -0.070632465 0.13057941 -0.13895987 0.04016335 -0.00237947 0.053916257 0.033985525 -0.039265815 0.13704512 0.11667533 -0.12838946 0.016652042 -0.12840833 -0.06805996 -0.07849235 0.04131685 0.10580213 0.10609734 -0.012407643 0.12132204 0.005261898 -0.0038703429 0.0446819 -0.112184234 -0.06271232 0.0009552045 -0.005891026 0.0023898091 0.04711932 -0.14505097 -0.010253678 -0.1395458 -0.13360998 0.06628409 0.046149768 0.040608976 0.12463676 -0.035864696 0.08207938 0.104134105 -0.039759405 -0.14543153 0.1933589 0.005381872 -0.019827949 -0.034765363 0.034849707 -0.00376744 0.15323138 0.022914713 -0.06919319 -0.23744152 -0.0950393 0.09312438 0.12522455 -0.21098772 0.027439779 0.083683 -0.11735193 -0.106218845 0.16444802 -0.09411086 0.03728386 0.014758513 -0.13751814 0.08868601 0.029448727 0.093246415 0.0726919 0.18452193 -0.10948058 0.23879081 -0.012410588 0.09351276 -0.041332837 0.1424427 -0.01795855 0.11781986 -0.10076316 -0.0575006 -0.15588066
41 -0.030063272 -0.22218096 0.07023058 -0.07159126 0.15243457 -0.14294063 0.05610183 0.0027366322 0.06932896 0.04191923 -0.045840904 0.17440943 0.15495166 -0.15523742 0.037828047 -0.15172093 -0.072052605 -0.07815258 0.04638971 0.12795718 0.112488694 -0.014433538 0.14985488 0.036421403 0.026144162 0.032278016 -0.15885 -0.084434085 -0.014477124 -0.024785815 0.028771361 0.07314548 -0.14536355 -0.01471006 -0.13983431 -0.11717022 0.057318266 0.035334207 0.028512238 0.13517791 -0.031328466 0.092284225 0.106534466 -0.05730517 -0.13120061 0.17925437 0.019219233 -0.009069977 -0.024819873 0.023964418 0.006386987 0.1343959 0.015747555 -0.06947202 -0.19703318 -0.08422318 0.10129854 0.09681065 -0.19953527 0.022644961 0.06973666 -0.10674605 -0.0928481 0.15806875 -0.06864037 0.04609765 -0.006227982 -0.11997947 0.07936138 0.033917043 0.10154148 0.05493485 0.18487634 -0.095379986 0.21138166 -0.018175922 0.06821969 -0.060006436 0.12666427 0.0024085888 0.11480266 -0.075827196 -0.06495016 -0.118357725
45 -0.0067778393 -0.14890288 0.046915296 -0.05975619 0.0998745 -0.097772844 0.0321918 0.009079377 0.060168542 0.041540064 -0.041720804 0.13175434 0.14871708 -0.14986502 0.031173166 -0.1327215 -0.055247057 -0.062470376 0.044668425 0.12756516 0.10165335 -0.0137965735 0.13627249 0.023039728 0.018903157 0.030276557 -0.12562723 -0.07785003 -0.0057066227 -0.0182174 0.03587997 0.06269075 -0.1655123 -0.021836456 -0.16738886 -0.1306326 0.059423663 0.04944659 0.03945665 0.1406684 -0.038480863 0.109753825 0.12353728 -0.066097915 -0.15284361 0.17236231 0.010805078 -0.0036134587 -0.020545028 0.041018292 0.006108177 0.14951539 0.018733768 -0.08916628 -0.21034938 -0.09461728 0.1212712 0.0971671 -0.21948974 0.033919755 0.06124864 -0.14086011 -0.10068634 0.17088686 -0.09326244 0.046473537 0.003529739 -0.116875514 0.09429931 0.055247214 0.12304952 0.07002897 0.19179673 -0.10009822 0.22955362 -0.021590464 0.061414875 -0.045728303 0.14019711 0.003991675 0.12276701 -0.09786403 -0.07772788 -0.15018024
3 -0.037104417 -0.2062973 0.0837137 -0.068322636 0.14990923 -0.14330226 0.048046112 -0.0034134279 0.044742122 0.04493672 -0.037576977 0.14139411 0.12920853 -0.15310457 0.012868596 -0.13704984 -0.045417573 -0.068563566 0.043808248 0.101168215 0.09436355 -0.0010775614 0.12889959 0.041628994 0.021404631 0.02125658 -0.12781473 -0.066884376 -0.008377513 -0.008553004 0.022757107 0.061410088 -0.16291983 -0.01530549 -0.14362694 -0.1427683 0.055594552 0.045583922 0.0399321 0.13193186 -0.030133793 0.10298079 0.11378102 -0.05571679 -0.14749119 0.16659264 0.013108954 -0.022545123 -0.027492939 0.041841757 0.014322978 0.14132844 0.013633668 -0.088224865 -0.22902101 -0.09923653 0.11585049 0.09789002 -0.21927363 0.035630897 0.05254289 -0.12779017 -0.10393194 0.16863129 -0.08186747 0.03636627 0.013123538 -0.13369867 0.09253629 0.042599816 0.11638627 0.06706427 0.18876788 -0.08974159 0.22051485 -0.026124315 0.06987499 -0.053605705 0.13331167 0.0033445458 0.11191724 -0.079628184 -0.055970076 -0.13933523
11 -0.022607382 -0.15659258 0.060521968 -0.05900666 0.116214454 -0.10780235 0.030243559 0.009418881 0.029971838 0.031825084 -0.027750364 0.10508841 0.109946124 -0.10555926 0.024262095 -0.11726404 -0.05956862 -0.0708397 0.040350173 0.08999988 0.0942287 0.0074573946 0.11581858 0.05178491 0.0058509274 0.023390394 -0.11350577 -0.0576425 -0.011351439 -0.015449573 0.02896408 0.05262782 -0.15440299 -0.027187616 -0.14724763 -0.13582487 0.07623538 0.042992488 0.043219704 0.146974 -0.044041853 0.10611008 0.12296363 -0.055245712 -0.14621083 0.1886354 0.008826006 -0.025346406 -0.037405986 0.04061057 0.018837964 0.15524592 0.01782862 -0.07384102 -0.23370576 -0.109873585 0.10545051 0.10624287 -0.24548405 0.036434107 0.08198409 -0.14546712 -0.12165018 0.17898566 -0.09417945 0.040870804 0.004912267 -0.13872193 0.103736326 0.04181868 0.121142626 0.08247478 0.19229488 -0.109305434 0.24405935 -0.02066736 0.08679437 -0.051099982 0.13027228 0.0043108338 0.123322345 -0.08594784 -0.05800713 -0.15257968
57 -0.027765732 -0.17969927 0.063604265 -0.06095423 0.1449174 -0.12075065 0.04022332 0.013526318 0.047658812 0.04860741 -0.038427368 0.15934014 0.1593274 -0.16729012 0.014671909 -0.16531649 -0.08310368 -0.0824219 0.0441258 0.11172291 0.108007886 -0.012966007 0.15232988 0.046349976 0.018830284 0.043080408 -0.14510262 -0.063468575 -0.012051859 -0.021233492 0.006680833 0.071503736 -0.12929921 -0.019010432 -0.13726628 -0.13518341 0.051304616 0.038207293 0.034596305 0.13935982 -0.028518474 0.105426766 0.10638382 -0.05223357 -0.13374314 0.19195981 0.015120298 -0.018586788 -0.019540587 0.033897866 -0.007601823 0.1361675 0.013674054 -0.07617498 -0.20587285 -0.08697648 0.09439404 0.09111278 -0.20558108 0.025629394 0.0735217 -0.11773927 -0.096172616 0.15665561 -0.074943185 0.048024733 0.0135682 -0.12690435 0.081707545 0.04145444 0.119637966 0.07392248 0.1995111 -0.09626425 0.23103791 -0.025939165 0.067244604 -0.06847601 0.12001008 0.0046952353 0.13544612 -0.072252035 -0.06304227 -0.13663687
69 -0.0364276 -0.15794742 0.06705908 -0.046208937 0.11641601 -0.11392418 0.038637996 0.0131006325 0.045002334 0.038941342 -0.030485822 0.14586958 0.1351121 -0.13595848 0.020081824 -0.12832981 -0.061820485 -0.0672654 0.04355463 0.09361617 0.09916608 0.00879727 0.14707047 0.035207503 0.019567171 0.03546594 -0.13452461 -0.0648207 -0.009379219 -0.020305507 0.012423887 0.06794616 -0.16335467 -0.010667078 -0.13022928 -0.13610229 0.069046095 0.04382121 0.03752813 0.15275796 -0.02019001 0.109973796 0.117168136 -0.066874065 -0.15175003 0.19136828 0.0104034385 -0.023846693 -0.018000854 0.03341734 0.011312202 0.12906946 0.013399607 -0.075268 -0.22426492 -0.08543392 0.10749256 0.08479319 -0.21476446 0.016086498 0.06484535 -0.12033601 -0.10023124 0.14643547 -0.08205661 0.049802214 -0.00074411125 -0.13580611 0.09349623 0.04338907 0.13118497 0.07506342 0.19597203 -0.1086944 0.23667985 -0.018783173 0.08638478 -0.06658843 0.1289423 -0.003866344 0.12895918 -0.0703967 -0.06801104 -0.14446685
62 -0.020526156 -0.18540008 0.07611746 -0.07883986 0.10974991 -0.12659982 0.026266625 0.016127706 0.038147084 0.03708619 -0.03573334 0.12497819 0.13282995 -0.13280235 0.005520942 -0.11895557 -0.05340473 -0.05835061 0.046250675 0.09379343 0.09607624 0.0033516188 0.131966 0.042234574 0.014285202 0.03251735 -0.10954469 -0.06349557 -0.0005656872 -0.019587403 0.025106246 0.049535193 -0.17268929 -0.029784456 -0.15621115 -0.1466538 0.05819704 0.039275862 0.045114297 0.14052275 -0.035746545 0.11229271 0.10974209 -0.06594116 -0.15517063 0.17581046 0.0038457573 -0.011933569 -0.016366955 0.028882867 0.011617407 0.14182529 0.017185401 -0.08084123 -0.20561528 -0.08278859 0.109993525 0.09576908 -0.22085637 0.035245538 0.051575564 -0.14060214 -0.09234803 0.15580599 -0.11076785 0.06375437 0.017517101 -0.14508404 0.09969033 0.045458063 0.120732374 0.072157934 0.20421542 -0.09763071 0.21726346 -0.020844454 0.08004119 -0.06449182 0.13155238 -0.005784001 0.121825464 -0.08850007 -0.06583087 -0.15510651
16 -0.043953948 -0.21453005 0.08421247 -0.07269902 0.14307234 -0.14489527 0.04355254 0.004563881 0.060505968 0.03668141 -0.029082743 0.15437831 0.13707626 -0.14207618 0.027187316 -0.13676764 -0.07539677 -0.07916028 0.04049988 0.08935806 0.10145228 -0.0015711329 0.12832828 0.017857458 0.009924953 0.053147282 -0.11625811 -0.05833732 0.008997682 -0.026037399 0.0031766891 0.06287594 -0.15402208 -0.017098213 -0.12149164 -0.12708479 0.07495053 0.035916667 0.045808803 0.1377041 -0.04346829 0.11031042 0.11470588 -0.052618876 -0.14364491 0.1721438 0.002076575 -0.011614858 -0.038428158 0.022458343 0.005330641 0.1412112 0.03130811 -0.072371475 -0.22593872 -0.08749551 0.10108251 0.100659885 -0.21140955 0.019614708 0.081878476 -0.1360328 -0.118574634 0.17666115 -0.08793562 0.039681025 0.017409766 -0.118007995 0.0856789 0.031412423 0.12612207 0.07711459 0.17654623 -0.1071741 0.21951607 -0.009537541 0.09443889 -0.061629966 0.12183782 0.0045530596 0.1207129 -0.09281855 -0.060880903 -0.14180033
55 -0.032763496 -0.17843717 0.0766972 -0.060318712 0.11086544 -0.11402624 0.034639116 0.00032908111 0.0532225 0.038954295 -0.031043148 0.121974766 0.11283992 -0.13318998 0.017496537 -0.11166446 -0.059121765 -0.061224137 0.03245189 0.085151374 0.09338911 -0.007285142 0.11565279 0.030892383 0.016877625 0.037860736 -0.12050218 -0.072767004 -0.008772961 -0.027300624 0.021922393 0.06165857 -0.14875771 -0.027970925 -0.14000054 -0.14049208 0.05082518 0.040492725 0.045460716 0.13948816 -0.03185011 0.1236741 0.12057907 -0.06210127 -0.13613293 0.18338762 0.007818562 -0.012920324 -0.020683805 0.03706584 0.008139365 0.15363374 0.029883286 -0.083741546 -0.2192922 -0.082448475 0.10518911 0.10036027 -0.2152301 0.03376168 0.06647287 -0.14410274 -0.09317551 0.16184875 -0.08274332 0.046563398 0.023250524 -0.13472372 0.09364151 0.042223416 0.1327728 0.07812359 0.20777851 -0.09151884 0.25473124 -0.014006294 0.07199331 -0.07301318 0.1328301 -0.00045540923 0.14361392 -0.09830542 -0.06549362 -0.16823748
67 -0.012310012 -0.16581996 0.06102789 -0.043383893 0.12163356 -0.12921406 0.04310423 0.0070656138 0.06243506 0.048642084 -0.0410829 0.14175084 0.14275983 -0.14498056 0.034476046 -0.13695343 -0.06161837 -0.071374685 0.037485395 0.1148351 0.11292294 -0.01646447 0.13856865 0.033163242 0.034363076 0.025709594 -0.11927776 -0.07587355 -0.010020931 -0.017057387 0.020118756 0.04835431 -0.13207515 -0.031997427 -0.1423501 -0.11363853 0.055584226 0.043737747 0.039322138 0.13828439 -0.040006824 0.11168659 0.11730769 -0.04895321 -0.13832946 0.1754238 0.012579834 -0.016807396 -0.023508 0.035074238 0.0099682575 0.14398248 0.030692 -0.07772371 -0.20361722 -0.111427076 0.11926065 0.09664922 -0.22179173 0.03379698 0.07875509 -0.13032323 -0.09862104 0.16967124 -0.08992115 0.044259638 -0.0058897375 -0.13622674 0.10986773 0.054459408 0.113999985 0.064233325 0.19529946 -0.09489754 0.21654099 -0.029187992 0.05927974 -0.044780202 0.12729809 0.016126007 0.12676969 -0.09996647 -0.06464849 -0.16259648
26 -0.036982574 -0.1922513 0.08728374 -0.06995192 0.16671365 -0.12870272 0.05858041 0.0017041728 0.018111747 0.045980718 -0.026501724 0.11610383 0.11527989 -0.14304075 0.01495974 -0.13452864 -0.06294896 -0.07626127 0.028908001 0.10808424 0.120493494 0.0015228533 0.13885169 0.056023736 0.009381338 0.043797433 -0.15975726 -0.074329585 -0.01425132 -0.018240822 0.029474583 0.08109119 -0.15826552 -0.019988103 -0.17418651 -0.17717196 0.07818301 0.039340172 0.048616286 0.1427138 -0.035796482 0.1031925 0.088063285 -0.04351582 -0.13910902 0.18411605 -0.012164092 -0.031206287 -0.03687369 0.042455263 0.02154302 0.15096578 0.017502515 -0.07556616 -0.20509887 -0.08154265 0.089120895 0.094181605 -0.22445656 0.029220799 0.07719575 -0.14634138 -0.12485149 0.18998316 -0.06974851 0.026884668 0.008825474 -0.13295962 0.08625218 0.02470037 0.109088026 0.073682964 0.17012754 -0.09735256 0.19668905 -0.034993567 0.053328484 -0.039549083 0.119453155 -0.005609912 0.07993489 -0.06322738 -0.04851443 -0.12287806
46 -0.047155213 -0.1664137 0.05828783 -0.0414611 0.11916408 -0.1015693 0.042886004 0.0096361665 0.030128507 0.050005134 -0.027330287 0.13324577 0.099893935 -0.12448078 0.01829348 -0.12385913 -0.0572992 -0.07505998 0.03868626 0.107858054 0.10660789 0.008642141 0.14988182 0.065226056 0.03291448 0.02338223 -0.15056103 -0.06951642 -0.021575803 -0.01573204 0.028761059 0.07131387 -0.16293329 -0.008635437 -0.13970701 -0.14885803 0.048269298 0.040925216 0.042212866 0.14475398 -0.03881254 0.108946614 0.106558576 -0.050986513 -0.15136041 0.17857493 0.003745358 -0.021518094 -0.035340622 0.033368565 0.018361239 0.14631628 0.025309885 -0.06897866 -0.22487304 -0.09557624 0.09986303 0.09029091 -0.22619754 0.026414396 0.070027016 -0.13968366 -0.1179195 0.15453269 -0.07605687 0.038014095 0.013392946 -0.13280395 0.096153565 0.041655913 0.11242286 0.07259914 0.20561291 -0.09655207 0.23740987 -0.018261585 0.06563882 -0.07076319 0.13275507 -0.0069051166 0.1178993 -0.084262826 -0.063343264 -0.14328484
20 -0.03848078 -0.18791975 0.06910446 -0.050174415 0.11064831 -0.1127543 0.03840141 0.019623619 0.025649866 0.025978768 -0.027812054 0.11928804 0.123299316 -0.13981189 0.016249225 -0.12433024 -0.06607849 -0.0591493 0.02268348 0.08198314 0.08248122 -0.009865462 0.122395776 0.032084517 0.009987933 0.05363433 -0.10374 -0.064645894 0.000103947714 -0.029510448 0.00029047285 0.060593866 -0.14003193 -0.018900272 -0.13306355 -0.1370174 0.070490636 0.024266971 0.041038945 0.13343422 -0.038949195 0.1101129 0.09966809 -0.045920994 -0.15177883 0.19196725 0.0016839062 -0.019202238 -0.020909173 0.017958468 0.005207101 0.15122445 0.022568436 -0.08562112 -0.23270237 -0.08912918 0.09876955 0.092102766 -0.23512097 0.026340399 0.081285246 -0.14104821 -0.10204176 0.17835489 -0.0913316 0.046356235 0.014990255 -0.14484271 0.088669084 0.04039087 0.12084107 0.09183011 0.20655528 -0.105846286 0.23230658 -0.0027285519 0.08324599 -0.08280858 0.14178878 0.00013644915 0.15295419 -0.10461667 -0.060773525 -0.16186835
4 -0.050303448 -0.20044348 0.07253743 -0.05925785 0.15305986 -0.1355049 0.03513348 0.017218314 0.035787456 0.033067543 -0.019434135 0.1437673 0.14349201 -0.1524682 0.013085867 -0.13326506 -0.07454601 -0.08046214 0.044587895 0.09852904 0.09424128 -0.0012491596 0.13214636 0.02866652 0.0110268295 0.049691893 -0.13325396 -0.06265117 -0.0048860204 -0.021280374 0.007642095 0.06270533 -0.15103655 -0.014892922 -0.13395461 -0.13128576 0.06901028 0.055672716 0.040472362 0.1372835 -0.019902162 0.10592524 0.11512265 -0.057458058 -0.14634095 0.1728371 0.0022604354 -0.025512513 -0.027844341 0.024343647 -0.0012648562 0.12492781 0.01336643 -0.059837878 -0.23414195 -0.09161943 0.09633593 0.08698738 -0.19001274 0.016052771 0.07871743 -0.12325109 -0.11499726 0.16122356 -0.08361487 0.0389301 -0.009121904 -0.12617408 0.10006834 0.045029014 0.11907822 0.08926512 0.18907031 -0.111009024 0.23139203 -0.016072176 0.09779326 -0.057144947 0.11380332 0.007273144 0.12909868 -0.07864069 -0.055867743 -0.15971054
31 -0.03566315 -0.18998942 0.06430459 -0.06548644 0.12558885 -0.12027148 0.035811402 -0.0021214697 0.03795857 0.03801281 -0.020508455 0.12570633 0.10928814 -0.11345041 0.016825274 -0.11498088 -0.06947077 -0.069387145 0.039883647 0.1014654 0.08808025 -0.0036201226 0.11570608 0.023180664 0.008656361 0.04522736 -0.12743083 -0.06153487 -0.0071333153 -0.012435374 0.018182466 0.068895265 -0.1630186 -0.017290557 -0.13515937 -0.12493941 0.07288003 0.045683235 0.044594526 0.13304266 -0.040018234 0.10470868 0.10303161 -0.064236544 -0.1483734 0.17816721 0.0031180845 -0.02871757 -0.022580497 0.032312866 0.0017581531 0.15315293 0.024553042 -0.082749 -0.22283356 -0.09964177 0.11329441 0.09375513 -0.22423504 0.02334916 0.078429125 -0.14199662 -0.12753999 0.18236287 -0.087192364 0.031909954 0.0034914005 -0.13260144 0.09347085 0.048367918 0.12918599 0.08179267 0.19226559 -0.10873309 0.22210148 -0.016857471 0.09618459 -0.039426353 0.13494103 0.02287565 0.12036167 -0.096995585 -0.05515223 -0.15458658
38 -0.009388248 -0.15284736 0.07142002 -0.051401835 0.071244024 -0.09674256 0.015737552 0.0084260795 0.04740975 0.029996814 -0.03743218 0.116828375 0.118250296 -0.115052395 0.01070751 -0.1027166 -0.04357645 -0.047036197 0.041485183 0.07951981 0.07197064 -0.0026634934 0.11257442 0.02429043 0.0064669405 0.02426888 -0.083493784 -0.06586961 -0.004423548 -0.019821772 0.018026145 0.034668583 -0.15123667 -0.03403096 -0.14050953 -0.12592246 0.05939686 0.029810311 0.03775125 0.11610052 -0.029745335 0.1002239 0.12076361 -0.050444968 -0.1487339 0.18216558 0.0062729134 -0.021841593 -0.009309859 0.03752788 0.00621342 0.14731532 0.020087488 -0.093820594 -0.22609816 -0.09287594 0.13098648 0.1039549 -0.24187417 0.03594105 0.055206347 -0.15334095 -0.096458904 0.16597146 -0.1149049 0.05735962 0.012044946 -0.16527022 0.1131445 0.06570276 0.13868609 0.08382695 0.22222513 -0.10386696 0.25151342 -0.018948684 0.085985415 -0.0537174 0.14066078 0.007660906 0.14286835 -0.112409785 -0.0698531 -0.1799905
21 -0.050556537 -0.1821688 0.06740376 -0.057780664 0.11270745 -0.10709079 0.02511636 0.012255223 0.032736976 0.03765223 -0.020785814 0.11290811 0.11317675 -0.1371112 0.016250804 -0.123384856 -0.05280257 -0.061382934 0.025497694 0.0762459 0.06824562 -0.007103716 0.09435062 0.008234636 0.0014344127 0.044365425 -0.09583342 -0.041004546 -0.006141794 -0.027673664 0.002149492 0.055892836 -0.13010076 -0.018638099 -0.13786764 -0.13582186 0.076523155 0.041596867 0.041510366 0.131008 -0.03827159 0.12269949 0.09715477 -0.049177185 -0.14610323 0.19324294 -0.005097914 -0.024608342 -0.016728815 0.027503911 0.004229973 0.14721291 0.029993352 -0.07975191 -0.23428199 -0.08502405 0.08576586 0.092174895 -0.21270242 0.025227413 0.07041105 -0.13677531 -0.1111681 0.17748515 -0.07549613 0.03790418 0.0014070143 -0.15731578 0.09003657 0.03315942 0.13083431 0.08713986 0.21432064 -0.11794918 0.26134798 -0.0065692123 0.08127757 -0.07624658 0.14115451 0.010905115 0.15463552 -0.108357 -0.08170573 -0.17612289
71 -0.01411244 -0.17169331 0.08091975 -0.065541625 0.13192435 -0.12110209 0.03341259 0.02242621 0.055090193 0.051603746 -0.037468895 0.14528479 0.15556501 -0.13923906 0.0357233 -0.15046139 -0.068574555 -0.075051665 0.05621149 0.12097682 0.11062684 -0.010047702 0.14168873 0.04250302 0.025460953 0.023543803 -0.12381544 -0.064775534 0.0032109837 -0.009612483 0.024086213 0.052895255 -0.154234 -0.011488133 -0.16312154 -0.14702661 0.06712582 0.032653797 0.039331462 0.1435862 -0.035133936 0.106398396 0.12608066 -0.067858875 -0.12987599 0.17137188 0.0043858862 -0.01306616 -0.018787121 0.046641994 0.011337866 0.1276001 0.029269455 -0.08612995 -0.19133395 -0.083359905 0.097140916 0.07936363 -0.19459836 0.010499707 0.07081657 -0.13126753 -0.094360806 0.15087977 -0.09718406 0.062373213 0.009958817 -0.13227178 0.096300736 0.058585636 0.1251627 0.065632716 0.20276108 -0.09568262 0.24119468 -0.032752406 0.05389963 -0.06065843 0.11413873 -0.0006117526 0.12986962 -0.091362424 -0.07327373 -0.1482522
32 -0.02473894 -0.17890547 0.05650104 -0.06474853 0.117009535 -0.113620445 0.0410276 0.003036201 0.04565518 0.04274731 -0.039739948 0.12791309 0.1364198 -0.14515045 0.028510993 -0.13584395 -0.0635374 -0.07082438 0.02995289 0.11836177 0.11211311 -0.0045057335 0.14846091 0.037025742 0.0077664223 0.049611747 -0.12946802 -0.07062562 -0.005473969 -0.029253567 0.02968043 0.06509604 -0.15512294 -0.017582214 -0.16222906 -0.14709555 0.06728003 0.037312675 0.04248069 0.12945157 -0.053937666 0.1129136 0.108108744 -0.05032155 -0.13613515 0.17095022 0.0015811519 -0.018866852 -0.017721405 0.02630156 0.001746756 0.15323202 0.027156996 -0.088331014 -0.20695762 -0.07452564 0.09657903 0.095630996 -0.21891412 0.037013564 0.06844635 -0.14925392 -0.1105695 0.19341782 -0.086490646 0.033396818 0.012238554 -0.12401315 0.08536473 0.04162145 0.110605314 0.07956613 0.19308676 -0.09985085 0.20293105 -0.012718327 0.0753376 -0.05134329 0.14101548 0.011149186 0.1265186 -0.109209664 -0.062864766 -0.15384501
51 -0.027691726 -0.17747179 0.055933457 -0.059352074 0.13207595 -0.11775889 0.04242243 0.0058707357 0.043687023 0.05227322 -0.03722848 0.14326124 0.14106868 -0.15241626 0.02687205 -0.13175984 -0.0628742 -0.06396447 0.04215936 0.11066232 0.108428866 -0.007806422 0.14329043 0.03820845 0.018693011 0.03284685 -0.13159014 -0.06282773 -0.0046058097 -0.007816739 0.027096903 0.07085415 -0.14895155 -0.008009674 -0.15378015 -0.13555515 0.057893507 0.04524053 0.03066348 0.1432923 -0.033275165 0.10164893 0.1035272 -0.070559055 -0.14845037 0.18639071 0.015135727 -0.019336328 -0.016450455 0.03354214 0.00638687 0.13737817 0.015014075 -0.08248026 -0.20845778 -0.096525095 0.10514778 0.08096652 -0.20196572 0.025400829 0.077273175 -0.13349877 -0.109506145 0.16833204 -0.08388663 0.041818153 0.0014458167 -0.124907784 0.09737964 0.05109751 0.12855786 0.07484048 0.19739999 -0.10427216 0.2309388 -0.030486919 0.07492783 -0.0547796 0.13205115 -0.0042142305 0.122045875 -0.080260694 -0.061437204 -0.15523964
64 -0.014129086 -0.18193622 0.06929005 -0.05785592 0.107748955 -0.12261727 0.044072114 0.022199577 0.044910673 0.03212811 -0.04456567 0.11000155 0.12209585 -0.11526998 0.025876008 -0.105824046 -0.058480285 -0.0665801 0.03418643 0.098673664 0.09127553 -0.010834999 0.11499341 0.012038907 0.022499656 0.023427814 -0.08676876 -0.05655693 0.0062935078 -0.015470236 0.011519792 0.024288123 -0.13349593 -0.03400762 -0.1445966 -0.11888336 0.07093842 0.041281532 0.03593417 0.13494723 -0.03909762 0.09241354 0.12226193 -0.05649541 -0.1415898 0.17321312 0.010472141 -0.009820421 -0.021209028 0.0384936 0.009192814 0.14483832 0.030326912 -0.07353366 -0.21489625 -0.094938025 0.103861816 0.097776726 -0.21744294 0.03339552 0.06909098 -0.13537803 -0.09377537 0.15880919 -0.103198625 0.056469873 -0.0035126903 -0.14785682 0.12358334 0.05477384 0.12838444 0.08081463 0.22316277 -0.12304096 0.26032653 -0.020523869 0.08849012 -0.054037753 0.16048536 0.00020957722 0.1497223 -0.12265027 -0.075152 -0.19645956
49 -0.024204597 -0.17551059 0.061414078 -0.051008463 0.13036679 -0.12124536 0.027136281 0.013929063 0.054944806 0.043283153 -0.032844193 0.15207084 0.15361285 -0.16646291 0.027417375 -0.1483882 -0.07007914 -0.07428815 0.04982448 0.10674191 0.100615546 -0.010738843 0.1478577 0.040695082 0.02246882 0.035782065 -0.13721886 -0.07965016 -0.011940238 -0.0264799 0.020489981 0.06360095 -0.1550903 -0.029358244 -0.1528306 -0.13089728 0.07080732 0.04530098 0.03458321 0.14107227 -0.031328853 0.12190244 0.11780408 -0.052773733 -0.149305 0.19266371 -0.0016107402 -0.018601576 -0.022027764 0.042277027 -0.0015915782 0.14728074 0.028352043 -0.0712686 -0.23394766 -0.09128318 0.10328393 0.093667515 -0.2187403 0.029790863 0.07094771 -0.14196035 -0.09555974 0.16850188 -0.084499925 0.038198266 -0.0047244825 -0.13575603 0.090546176 0.03880653 0.11058015 0.06872873 0.17933048 -0.10002696 0.2078658 -0.021143666 0.07494454 -0.063732095 0.11361324 0.0024053615 0.111789964 -0.07423401 -0.07356315 -0.13419858
61 -0.022902455 -0.15224214 0.061766993 -0.05901886 0.10661361 -0.10820673 0.025817666 0.007245803 0.034023684 0.04358623 -0.04995512 0.123993956 0.14207873 -0.15196232 0.016134225 -0.14520736 -0.048777584 -0.07645781 0.039083354 0.106825 0.091591686 -0.006566881 0.14419095 0.035266556 0.011241381 0.023348128 -0.1021368 -0.050476115 -0.0051985844 -0.024498386 0.018547213 0.049426243 -0.15921669 -0.030873071 -0.15542543 -0.14426929 0.075011216 0.03344285 0.04359166 0.12145425 -0.041640908 0.10036843 0.1249767 -0.048302393 -0.14332293 0.17782953 -0.0039827945 -0.020909302 -0.012297522 0.052432004 0.0049545737 0.13113302 0.024196113 -0.08213026 -0.2132361 -0.08064512 0.094609536 0.09088542 -0.21788743 0.022309864 0.053880643 -0.15197879 -0.091365665 0.1602409 -0.09198968 0.04317773 0.0007494667 -0.15284649 0.10220116 0.055032212 0.12105188 0.09066835 0.19875444 -0.10693535 0.25302544 -0.020351557 0.073434465 -0.05239793 0.13230811 0.005789737 0.14018595 -0.10148284 -0.07825992 -0.16592956
17 -0.039032456 -0.15256761 0.07195944 -0.037854075 0.124031715 -0.12647913 0.042256113 0.018219387 0.047039498 0.04347112 -0.029996824 0.13131426 0.13736501 -0.14504425 0.015795924 -0.13460386 -0.06270242 -0.08001224 0.027781282 0.093634106 0.099673875 -0.0070598517 0.1380844 0.034725215 0.017516153 0.043125883 -0.12475279 -0.06488405 -0.0012463534 -0.00987 0.0131997615 0.06547146 -0.13444269 -0.016194291 -0.13019995 -0.1429473 0.07244434 0.03190136 0.04202057 0.1311976 -0.035566267 0.10297391 0.11043125 -0.037927084 -0.1411238 0.16983233 0.003053082 -0.016480269 -0.029985514 0.04420914 0.010501519 0.13055637 0.029259449 -0.081779934 -0.23044986 -0.0975904 0.101362266 0.09878626 -0.2211188 0.015208842 0.076281525 -0.13496773 -0.10388749 0.16084257 -0.085116535 0.042123202 0.01170224 -0.13783264 0.10563923 0.057774153 0.12122955 0.09027022 0.20034781 -0.09834191 0.25299153 -0.011086154 0.073027626 -0.07432247 0.13241377 0.01028054 0.1405784 -0.090055935 -0.044003293 -0.14608338
10 -0.026873099 -0.21139733 0.08063338 -0.0829302 0.14107735 -0.094568744 0.03717763 0.012948342 0.05737157 0.0411754 -0.03566519 0.16181885 0.12987293 -0.13396724 0.028601926 -0.16452591 -0.079932004 -0.08228954 0.032098096 0.117849134 0.10592464 -0.017077126 0.12891895 0.025669934 0.0021286935 0.055344015 -0.12722632 -0.0666474 0.0024956649 -0.03310465 0.00910845 0.057391133 -0.1231048 -0.0069238255 -0.15402208 -0.13928777 0.07622882 0.02664215 0.034338187 0.12212328 -0.04719603 0.09207778 0.09903481 -0.03468995 -0.120865114 0.19772656 0.010829494 -0.032362144 -0.025422733 0.02337431 0.0014508963 0.14077218 0.03170375 -0.07423013 -0.20846139 -0.073185354 0.08590997 0.09695223 -0.22642843 0.030289568 0.07779532 -0.13010664 -0.11462485 0.16746023 -0.080448136 0.046721958 0.010470368 -0.13945599 0.06962308 0.01948865 0.11791166 0.067392156 0.20140502 -0.10518353 0.2393399 -0.014624041 0.0872953 -0.047244556 0.10591379 0.0010659711 0.11109353 -0.097658105 -0.068923794 -0.13381524
15 -0.0434167 -0.21465217 0.077275634 -0.08225466 0.12729491 -0.10387654 0.02734981 0.008913032 0.048841603 0.03425835 -0.028699512 0.15181567 0.1428671 -0.12974796 0.031130252 -0.1391079 -0.07384362 -0.08479399 0.055074893 0.09499375 0.096789375 -0.00745331 0.11483588 0.031449106 0.0065312395 0.029012578 -0.117446184 -0.052035876 0.0032444722 -0.025063695 0.014491113 0.053367823 -0.14647384 -0.017088952 -0.14070785 -0.13204983 0.06285246 0.049864788 0.0506194 0.1416715 -0.039671388 0.10095104 0.11000674 -0.06172525 -0.13924271 0.19610222 0.0023967444 -0.019215627 -0.02863757 0.028940527 0.0094642835 0.14290743 0.019550422 -0.07079653 -0.22860715 -0.0985527 0.08990997 0.091042966 -0.19811353 0.030980317 0.077789776 -0.12084481 -0.1004382 0.15654539 -0.087093964 0.057224754 0.0055643953 -0.1396779 0.0944319 0.04115872 0.1294924 0.070031464 0.18894295 -0.103345335 0.23753633 -0.008657893 0.090190746 -0.054418985 0.108720005 0.0035024367 0.12289431 -0.08143817 -0.077137515 -0.1529043
47 -0.025316587 -0.13930693 0.04990623 -0.03298648 0.10767346 -0.10282712 0.033128448 0.018105542 0.04325007 0.046633054 -0.0435046 0.11755675 0.13193451 -0.14923358 0.034425132 -0.10681364 -0.047281526 -0.05564682 0.04325961 0.09691392 0.08567956 -0.0016352544 0.13304846 0.043046504 0.031471808 0.026726378 -0.1180559 -0.07086112 -0.019005261 -0.020918185 0.025893837 0.06107266 -0.13300279 -0.017732369 -0.12464347 -0.11933539 0.051695563 0.03523433 0.020042878 0.12363978 -0.036190834 0.114033125 0.12225889 -0.058537193 -0.1416593 0.1732735 -0.00016790557 -0.021319408 -0.010169198 0.050250106 0.009199964 0.15840559 0.0253113 -0.08818608 -0.23536046 -0.09164961 0.10499229 0.08471438 -0.21338417 0.02501786 0.06628902 -0.15120862 -0.100715674 0.1573872 -0.08878686 0.0321006 -0.0036970575 -0.14682108 0.10630594 0.066648506 0.1287645 0.06958308 0.21968754 -0.09754487 0.24991703 -0.030882755 0.058918227 -0.06081634 0.14122967 0.0021558937 0.14084156 -0.104004316 -0.07869634 -0.18439263
13 -0.028991818 -0.21228623 0.09204571 -0.06349595 0.14758435 -0.14873028 0.039223973 0.004550527 0.028307535 0.02549716 -0.03003878 0.113972016 0.11317256 -0.13908486 0.0054452596 -0.108222574 -0.0617723 -0.06264185 0.03423096 0.08045997 0.09286569 0.0004536616 0.10850695 0.030926153 -0.0027086611 0.053191237 -0.12821323 -0.06465786 -0.011519888 -0.004126272 0.002611434 0.0577326 -0.15811042 -0.023605766 -0.12233079 -0.1516937 0.07751817 0.046455774 0.043817624 0.13420497 -0.029832004 0.10124954 0.102017194 -0.036856856 -0.16159332 0.20112216 -0.012601456 -0.020704139 -0.043553904 0.03682226 -0.0023836154 0.15129595 0.023942895 -0.06915316 -0.24617462 -0.0973102 0.096483596 0.110288486 -0.21677554 0.015008898 0.07858519 -0.1255869 -0.11326679 0.17445979 -0.08499935 0.025435273 0.016026651 -0.13557799 0.10161523 0.036556277 0.10352829 0.09238173 0.17162986 -0.103372425 0.2359774 -0.010692631 0.07927249 -0.0674669 0.14013122 -0.0047500012 0.12418391 -0.08773948 -0.05415789 -0.13382657
0 -0.05774675 -0.21712044 0.07288635 -0.069642946 0.14906742 -0.12169227 0.043816086 0.010532192 0.035659585 0.028980887 -0.015301281 0.12336258 0.11002621 -0.12541182 0.020191252 -0.1266198 -0.058413938 -0.08016044 0.025967214 0.09059072 0.08238375 -0.0024233751 0.11929652 0.030435814 0.0061010974 0.05485228 -0.13856022 -0.06742067 -0.011701833 -0.023436517 0.006598089 0.0704431 -0.15011662 -0.009736022 -0.1201154 -0.1386119 0.07497863 0.044155955 0.046137188 0.12938863 -0.040883996 0.099116474 0.09563171 -0.047063023 -0.1407569 0.16888618 -0.0050968663 -0.0156017095 -0.033778585 0.028821597 0.0010877821 0.13534838 0.018444417 -0.07611907 -0.24277195 -0.101744466 0.08405633 0.10152566 -0.20689291 0.019334136 0.082225166 -0.12044391 -0.12236428 0.18325993 -0.08288666 0.03404046 0.008907575 -0.13036877 0.089512445 0.034630325 0.11478644 0.09687431 0.19892158 -0.11302598 0.24712673 -0.011125456 0.09481942 -0.072861575 0.13186038 0.0018940147 0.14287624 -0.0900588 -0.050541177 -0.14343442
7 -0.026828762 -0.17092986 0.048087962 -0.053866453 0.10822231 -0.09080003 0.034087 0.009814786 0.052098516 0.023504985 -0.03075943 0.13370754 0.114075124 -0.124272496 0.022246458 -0.11208019 -0.0754028 -0.07874094 0.030433077 0.10158104 0.10500228 -0.007385576 0.12896037 0.039809313 0.021465315 0.048856143 -0.14766143 -0.06621213 -0.0142679075 -0.020353483 0.008383387 0.06518457 -0.14575548 -0.020303857 -0.12198702 -0.13669224 0.05282598 0.03701363 0.032710217 0.13259946 -0.047757555 0.10244908 0.11069299 -0.046598885 -0.15151563 0.20278065 0.008571245 -0.019221997 -0.029337557 0.023581482 -0.005892658 0.14702341 0.020256951 -0.06310753 -0.22870815 -0.091599025 0.100588866 0.099611804 -0.21068978 0.013697371 0.088066734 -0.13435325 -0.115449555 0.18182215 -0.08397689 0.048760355 0.010275614 -0.13054746 0.099230476 0.035944026 0.12746441 0.095740706 0.1985973 -0.113417536 0.25514844 -0.006150598 0.09304709 -0.07232778 0.13977453 -0.0040052733 0.13826251 -0.09364379 -0.063996695 -0.1462603
52 -0.037480745 -0.17590462 0.06932775 -0.05729298 0.12532212 -0.13318361 0.04812917 0.016315391 0.05600263 0.031971216 -0.023142833 0.124027655 0.12620395 -0.1668318 0.010467441 -0.14047194 -0.055128947 -0.055734992 0.014554095 0.093327835 0.08421851 -0.014703205 0.12687486 -0.0011339724 0.004422925 0.06900353 -0.123940356 -0.06608279 0.0029842858 -0.019350817 -0.00034862015 0.06620858 -0.14141671 -0.008120654 -0.12054373 -0.13265628 0.060072545 0.037651837 0.029254917 0.12724239 -0.019953642 0.11863866 0.10382876 -0.043915134 -0.16513863 0.19866313 0.010141897 -0.007676978 -0.032452803 0.02920075 -0.013379385 0.14383401 0.026532756 -0.08810487 -0.2516588 -0.08687487 0.10451298 0.10694018 -0.22138806 0.02091057 0.06673274 -0.11206343 -0.11293064 0.1494963 -0.09000579 0.032299526 0.019677961 -0.1264472 0.0818108 0.04630821 0.10129337 0.08306739 0.19655302 -0.110327646 0.24355944 -0.0133941285 0.08038065 -0.06816423 0.14935198 -0.019324094 0.14325379 -0.08711661 -0.06695844 -0.13994434
50 -0.037201297 -0.18726596 0.060037088 -0.05207586 0.10564377 -0.10597504 0.029373914 0.013537604 0.04003505 0.039918847 -0.03048247 0.12842982 0.1238697 -0.1325074 0.013931748 -0.11800487 -0.05868105 -0.06140279 0.033627976 0.09150513 0.08694885 -0.0019271966 0.13301049 0.028587848 0.017268443 0.04850829 -0.121313736 -0.06187007 -0.011143366 -0.02358259 0.005567295 0.054869045 -0.14927742 -0.019437866 -0.12703177 -0.1265028 0.062014718 0.042787462 0.037169755 0.13060637 -0.0287492 0.11205444 0.10234655 -0.057967413 -0.15086833 0.1854883 0.0023653375 -0.025776042 -0.018299792 0.0241006 -0.0021244 0.14343317 0.023957778 -0.07969686 -0.2337354 -0.091229886 0.10649857 0.099542856 -0.22264546 0.026729211 0.069417685 -0.13837625 -0.10987249 0.16852282 -0.091602676 0.037166763 0.0017718876 -0.14309792 0.0986145 0.04476301 0.12464647 0.08641231 0.20286594 -0.11105588 0.23478353 -0.008161349 0.09025308 -0.06423442 0.13880143 0.005074364 0.13268723 -0.08661708 -0.06593772 -0.15712461
42 -0.032597978 -0.1266052 0.04430582 -0.05098229 0.13626833 -0.10125017 0.0322566 0.012185276 0.045877952 0.03783211 -0.020939983 0.12912604 0.1215126 -0.12679611 0.0135032525 -0.13703747 -0.07867383 -0.08862334 0.039288413 0.11458873 0.10579256 -0.006741966 0.13629107 0.034677025 0.017800668 0.044023864 -0.14713673 -0.056197114 -0.0094954185 -0.012536835 0.0040777 0.07217248 -0.13271526 -0.01185756 -0.12784967 -0.12769037 0.059316777 0.031042777 0.027278109 0.12588562 -0.040833563 0.10181149 0.1076927 -0.045360528 -0.13226807 0.19296095 0.015658239 -0.025421752 -0.0323689 0.033363886 0.0013881014 0.12682533 0.0145285865 -0.06533635 -0.22359255 -0.096309155 0.10355875 0.09807929 -0.21458821 0.009162242 0.09196094 -0.12974541 -0.13884299 0.18419985 -0.08507014 0.044409063 0.004817673 -0.13942112 0.09981865 0.048095826 0.14564703 0.0953483 0.21700862 -0.12159391 0.2709933 -0.022579903 0.095161736 -0.050069615 0.13270485 0.010165385 0.1286527 -0.08187364 -0.06243891 -0.14159308
56 -0.03928179 -0.16885632 0.05113507 -0.068874255 0.13758631 -0.09581719 0.027371688 0.01485287 0.042394027 0.040596977 -0.031265773 0.15162356 0.13838549 -0.14427495 0.017345587 -0.13396157 -0.082542546 -0.07891687 0.04636709 0.107634015 0.110357866 0.00020225547 0.1414016 0.06851802 0.024360111 0.04234595 -0.15934855 -0.0638601 -0.014352173 -0.026782405 0.023296077 0.06922205 -0.14604881 -0.024905559 -0.14824408 -0.14459896 0.040209692 0.040331457 0.035817966 0.1376559 -0.026240913 0.10366427 0.09883794 -0.053323977 -0.13894683 0.20140688 1.0711345e-05 -0.02379423 -0.023661656 0.020037606 0.006612715 0.13557035 0.013700689 -0.053257678 -0.20709452 -0.07129156 0.0977216 0.083932035 -0.20766321 0.030407818 0.068562105 -0.123543225 -0.103087515 0.15043601 -0.068244785 0.05186975 0.010331355 -0.12055999 0.09597509 0.040777467 0.14289345 0.085173026 0.20483842 -0.109140255 0.2271886 -0.014848204 0.09141701 -0.07836194 0.13048139 0.0017303637 0.12600823 -0.07024974 -0.07337267 -0.1340637
9 -0.03492369 -0.17743963 0.0561358 -0.051017586 0.12125136 -0.101717874 0.04327078 0.0021198064 0.0448117 0.030384848 -0.036870904 0.12532218 0.10962644 -0.1328357 0.010176848 -0.116667025 -0.0583394 -0.068741195 0.023440657 0.09090463 0.084767684 -0.004684796 0.12912437 0.02114911 0.014969497 0.04417446 -0.14291736 -0.08029677 -0.023451328 -0.024782348 0.010698138 0.07358459 -0.14736927 -0.02385259 -0.12387186 -0.13749097 0.06602416 0.046835538 0.02874032 0.121422805 -0.04187772 0.10224788 0.11299895 -0.0416505 -0.15614042 0.18640946 0.012362576 -0.014267588 -0.020731062 0.035595883 -0.003687149 0.15187 0.01352893 -0.07645574 -0.22425912 -0.093648314 0.100750625 0.09876094 -0.21716048 0.028584717 0.069397405 -0.12934226 -0.104233414 0.18862708 -0.0760556 0.034210857 0.006201193 -0.12930721 0.09388015 0.04301444 0.1267764 0.091829665 0.210672 -0.11816722 0.24997345 -0.025689173 0.082310736 -0.06100185 0.13901606 0.00841351 0.13791144 -0.099136636 -0.067508094 -0.1494073
14 -0.04730821 -0.20243433 0.08443015 -0.06736083 0.1283773 -0.10226016 0.020121098 0.0068280855 0.041973285 0.042656112 -0.027695822 0.13748887 0.1250916 -0.14070332 0.024067745 -0.13873354 -0.0733704 -0.082023665 0.034637984 0.09083304 0.099429354 0.0014977405 0.124960065 0.03541924 0.005731144 0.057760924 -0.12312884 -0.057259966 -0.01249013 -0.023001885 -0.0010264533 0.06483458 -0.14506248 -0.008858413 -0.14039339 -0.15093075 0.06379188 0.02957148 0.03663646 0.13841298 -0.04724081 0.104907624 0.099042386 -0.037693657 -0.13931118 0.2127612 -0.0031761732 -0.027662797 -0.03426945 0.030746667 0.00825727 0.15166786 0.030434016 -0.07635289 -0.24531507 -0.090917945 0.081714 0.10734185 -0.22200279 0.019158702 0.08545647 -0.1367154 -0.11733893 0.16036297 -0.08364569 0.037925802 0.02505724 -0.13531727 0.07962757 0.029935813 0.11722966 0.082358204 0.18374413 -0.08685818 0.23639594 0.0005892137 0.07516762 -0.06480068 0.11212608 -0.0077479477 0.12120221 -0.081291854 -0.05231408 -0.12531935
48 -0.04202447 -0.20112443 0.08746435 -0.05995358 0.14238657 -0.1358733 0.0659642 -0.001335744 0.046483845 0.04523051 -0.03938464 0.14201653 0.14851294 -0.13893789 0.034624953 -0.14893949 -0.083624244 -0.08168079 0.042312946 0.116668835 0.11481731 -0.0040859925 0.1362074 0.05702316 0.025874283 0.047942545 -0.14928791 -0.08767058 -0.015051787 -0.025566671 0.04779666 0.07197135 -0.13832535 -0.0059647607 -0.14649437 -0.14943083 0.06112837 0.03634402 0.04891855 0.14259098 -0.052927196 0.10658523 0.14195162 -0.05969055 -0.13342217 0.17549662 0.013743361 -0.037916727 -0.031187618 0.035158984 0.015656015 0.14397682 0.015825797 -0.08418793 -0.19186364 -0.076783866 0.078253336 0.07921422 -0.1998625 0.010799721 0.08488137 -0.14558615 -0.10353019 0.17771883 -0.09042923 0.036216788 0.0015767344 -0.12346004 0.10430415 0.043264516 0.10567325 0.06566164 0.17544502 -0.066868596 0.20667654 -0.026181845 0.055678442 -0.04964141 0.107101254 0.009862253 0.109943666 -0.067605115 -0.025373206 -0.14898117
73 -0.036001068 -0.14798667 0.069507636 -0.05645043 0.116530664 -0.10349575 0.042596467 0.016069803 0.02452268 0.046843432 -0.041930083 0.12557591 0.13042043 -0.13231702 0.024954192 -0.12082217 -0.070625596 -0.07236234 0.04329564 0.09084292 0.094979756 0.000789895 0.13915414 0.049627215 0.011200126 0.032653734 -0.10549565 -0.052354496 -0.0023730558 -0.016270606 0.033501238 0.06566744 -0.16166593 -0.020911241 -0.16063966 -0.1641109 0.06109148 0.04297597 0.038122278 0.14891817 -0.03733942 0.11456287 0.13263103 -0.07685952 -0.15416896 0.18927717 0.009404795 -0.023643479 -0.013286743 0.05567876 0.012579241 0.15179141 0.01743663 -0.08671117 -0.21776447 -0.072339594 0.093329445 0.072980456 -0.21147414 0.027612014 0.064493686 -0.1680233 -0.09323471 0.15023191 -0.09571685 0.04033602 0.01137284 -0.13496454 0.104695275 0.062133435 0.12394784 0.070120454 0.20517486 -0.09461627 0.22892763 -0.04199595 0.07680433 -0.05444004 0.14121492 -0.006318109 0.12254033 -0.08452336 -0.053062327 -0.17754805
37 -0.04107521 -0.21757655 0.09463078 -0.07419367 0.1434216 -0.1370543 0.052185323 0.00673637 0.042781625 0.049958587 -0.038847122 0.14736928 0.13671038 -0.1515071 0.015019578 -0.14067204 -0.054852452 -0.06153635 0.039023608 0.09574992 0.0921843 -0.000674786 0.1451688 0.040675975 0.016338995 0.04201028 -0.11097761 -0.0718261 -0.0021731139 -0.023882395 0.030885749 0.0642504 -0.17301592 -0.014182167 -0.14762662 -0.15440464 0.074799255 0.03498673 0.0495039 0.13261129 -0.03695968 0.11900646 0.13028604 -0.06232199 -0.16043106 0.16160496 0.006851051 -0.023775274 -0.01511589 0.03688434 0.0107881995 0.13961688 0.026521383 -0.08702317 -0.1993843 -0.061529633 0.10062011 0.07792266 -0.21773338 0.031487513 0.04738205 -0.15488365 -0.10231599 0.17387456 -0.09246386 0.038134173 0.015953865 -0.121399894 0.07882215 0.038928103 0.11017345 0.071817815 0.18432114 -0.09160422 0.20750774 -0.035484593 0.07303981 -0.052113563 0.11996216 0.002865098 0.10075219 -0.09492848 -0.06004421 -0.14396112
76 -0.029418916 -0.1843562 0.06231047 -0.069464155 0.15016744 -0.16497916 0.06316817 0.0042801662 0.063517764 0.06627691 -0.055548552 0.16652657 0.17727056 -0.18069534 0.032903712 -0.15238898 -0.04947529 -0.07495167 0.07317775 0.13417228 0.11154757 -0.009759949 0.14906415 0.0470472 0.033029262 -6.929075e-05 -0.13620186 -0.07395856 -0.0075474707 -0.014506849 0.06838339 0.07848215 -0.16390109 -0.02060498 -0.15599716 -0.12643647 0.044348333 0.060617596 0.04826968 0.14006518 -0.025675513 0.10913428 0.12907784 -0.07672879 -0.14289345 0.14165787 0.02381334 -0.008815157 -0.013886319 0.049939796 0.013068125 0.11137365 0.011826926 -0.08501209 -0.17950651 -0.09263568 0.12909435 0.0662182 -0.18776748 0.037326124 0.040316746 -0.12467904 -0.097869426 0.14216566 -0.08100127 0.04092788 -0.013512575 -0.1262528 0.11369529 0.07327288 0.13831428 0.053667955 0.18890181 -0.09345876 0.22585697 -0.0385349 0.042018354 -0.038091812 0.10687461 0.011880198 0.09317333 -0.05400595 -0.06483877 -0.1403738
53 -0.026973933 -0.1880722 0.063500404 -0.07212849 0.13354018 -0.11391484 0.036417246 0.015638461 0.041544344 0.043670285 -0.03682869 0.13891533 0.1394687 -0.16012299 0.020034254 -0.1470991 -0.06654715 -0.07412516 0.04583149 0.1287183 0.122608386 -0.0065781977 0.15253814 0.056807216 0.017570041 0.036572024 -0.14459135 -0.07447434 -0.012155361 -0.022476349 0.035558388 0.07410998 -0.1519467 -0.02030092 -0.15937516 -0.14773713 0.05591619 0.03445637 0.040834144 0.13939919 -0.040518586 0.11045705 0.10119641 -0.049018107 -0.13579832 0.17657071 0.010660126 -0.020077266 -0.024187718 0.02737846 0.008008449 0.1389949 0.024662757 -0.07093301 -0.20505825 -0.08366742 0.09741413 0.086707376 -0.21797967 0.03584834 0.0667591 -0.13514064 -0.10870063 0.16182536 -0.07628161 0.03827181 0.021722447 -0.12779851 0.08293581 0.04000887 0.12733077 0.0759038 0.19652912 -0.0894552 0.23320903 -0.016717447 0.06414233 -0.059878223 0.12299044 -0.0003727128 0.112500496 -0.076975934 -0.06739752 -0.12136206
58 -0.038350288 -0.2365789 0.0858192 -0.08246056 0.14600144 -0.14619595 0.042644445 0.008808398 0.062538214 0.034694128 -0.017084792 0.13082111 0.11699146 -0.12986536 0.022499373 -0.1281705 -0.06698366 -0.07198546 0.024213376 0.09213248 0.09064814 -0.017702954 0.10468406 0.011962115 0.013878613 0.048461545 -0.11832686 -0.06624182 -0.00013765004 -0.0078547355 -0.00048003028 0.04207866 -0.14409418 -0.018040521 -0.12721363 -0.13134798 0.06671038 0.035586655 0.045800615 0.13664934 -0.04529533 0.10122822 0.09963516 -0.04456312 -0.14175534 0.17553554 -0.0039627543 0.0011476605 -0.03967091 0.022092642 0.0008998859 0.1522032 0.050831217 -0.07346516 -0.24127634 -0.10033575 0.09801847 0.106067546 -0.2053056 0.022945676 0.0916918 -0.12723425 -0.12140925 0.17477025 -0.09100292 0.03888802 0.029005043 -0.1284254 0.09603429 0.05112625 0.10482572 0.08834175 0.19179194 -0.10108574 0.23436935 -0.008453156 0.076280236 -0.06541977 0.14221357 4.3624907e-05 0.1346668 -0.107747085 -0.050462276 -0.13771677
5 -0.04560749 -0.15194988 0.047569584 -0.03863885 0.12059304 -0.08210425 0.025867026 0.0053610033 0.043532178 0.040473465 -0.013985606 0.15040123 0.11987656 -0.12302201 0.026895095 -0.13298526 -0.08402076 -0.083568536 0.04817129 0.10120681 0.103039026 -0.0027232417 0.12615938 0.061400168 0.033601046 0.029195465 -0.1430199 -0.08124256 -0.017231863 -0.022359082 0.017982796 0.070685476 -0.14751816 -0.013325055 -0.1459362 -0.13597456 0.055387307 0.04718456 0.040853806 0.14392088 -0.033632547 0.12182793 0.11999605 -0.06549163 -0.16514888 0.20769794 0.005224676 -0.024857966 -0.03167505 0.03421862 0.013474496 0.15583813 0.02439113 -0.077170216 -0.23487177 -0.11229552 0.10627135 0.07855019 -0.22123256 0.012046266 0.090583995 -0.15673958 -0.11224544 0.18532829 -0.10110769 0.049904693 0.0017857506 -0.13969249 0.11002967 0.045028437 0.13118376 0.078221664 0.19316494 -0.097612545 0.23554927 -0.028235752 0.07022703 -0.072304815 0.09204567 0.0028088419 0.11400936 -0.07813968 -0.05839402 -0.159197
24 -0.030272324 -0.18941985 0.082292 -0.05324604 0.1352664 -0.13027921 0.036070835 0.004352194 0.037649676 0.045761853 -0.029909326 0.14352234 0.14092205 -0.14636184 0.016022613 -0.14435902 -0.068960935 -0.07231275 0.043920275 0.087335505 0.0997472 2.7241687e-05 0.13825062 0.05172044 0.015076771 0.03114788 -0.13150413 -0.07311504 -0.016680129 -0.013023663 0.016191874 0.06525664 -0.1510251 -0.017302958 -0.13419645 -0.13539608 0.061389618 0.03954467 0.04015158 0.12950383 -0.028463624 0.10812066 0.11108854 -0.046686724 -0.14552802 0.19545317 0.00088664144 -0.02252772 -0.026213327 0.04099419 0.011519557 0.14546883 0.013669691 -0.07090475 -0.22052944 -0.08808722 0.09709717 0.09539389 -0.21333434 0.024806598 0.07456983 -0.13473791 -0.09943247 0.1658861 -0.08860432 0.038195256 0.0057414346 -0.13901095 0.0983475 0.04918566 0.11523649 0.076442875 0.18607892 -0.09910354 0.22796404 -0.027422037 0.064671494 -0.06476373 0.11221631 0.0019459631 0.11204721 -0.06701839 -0.057430316 -0.13036226
39 -0.03859332 -0.18290028 0.059029013 -0.05775971 0.108224034 -0.0885696 0.031247916 0.006008226 0.03614657 0.032810606 -0.029838169 0.09526123 0.103674166 -0.11763354 0.026380261 -0.101211354 -0.055845056 -0.049395077 0.025491206 0.08264856 0.0780923 0.0019004286 0.116732374 0.030336093 0.011917184 0.038398996 -0.11630167 -0.06367033 -0.021543555 -0.024836892 0.021328654 0.052852537 -0.15366493 -0.024350258 -0.1386143 -0.13078718 0.055468976 0.03939591 0.027546419 0.13568166 -0.037222598 0.114095464 0.1083339 -0.07020863 -0.147536 0.1964318 0.0056353738 -0.010947733 -0.0034223055 0.036539193 0.0062626265 0.1650656 0.027853763 -0.087949924 -0.22959954 -0.08591326 0.095442474 0.09198188 -0.21189177 0.034197375 0.06648092 -0.1398946 -0.10950834 0.17470837 -0.09029604 0.036720883 0.012804506 -0.1402812 0.107914135 0.04476864 0.13962659 0.08308718 0.22750634 -0.110847995 0.25476867 -0.016780417 0.07817479 -0.06901656 0.16084477 -0.0010832823 0.14629267 -0.09627327 -0.070330136 -0.17565583
40 -0.030618059 -0.14583205 0.057457075 -0.047325738 0.114123195 -0.115347534 0.02636021 0.0148568675 0.048984278 0.04355173 -0.032925528 0.13463679 0.1433479 -0.1761115 0.006782777 -0.15292788 -0.05600954 -0.072069556 0.036013383 0.103667796 0.09292517 -0.011181182 0.14477606 0.028182695 0.01811281 0.039484404 -0.11996952 -0.07599747 -0.013556855 -0.031001352 0.015395828 0.06126135 -0.13130483 -0.023412982 -0.13783154 -0.13001224 0.052479874 0.05033755 0.029383171 0.10878265 -0.029509226 0.12540208 0.10723058 -0.03751216 -0.14901625 0.17147295 0.0032863156 -0.023760624 -0.016398 0.0409528 -0.010045631 0.1334628 0.020334708 -0.08420052 -0.22297435 -0.088418595 0.1191261 0.09312261 -0.22346604 0.032545175 0.048970096 -0.13795504 -0.10328543 0.1624203 -0.097823516 0.035805825 -0.0009182573 -0.15436149 0.106775545 0.059047386 0.123463824 0.073623836 0.20577338 -0.108956315 0.23634236 -0.030666323 0.07289684 -0.059744276 0.121095985 0.0035831144 0.12890662 -0.09032658 -0.07535388 -0.17227419
60 -0.018421007 -0.16445331 0.098452345 -0.05058791 0.14736858 -0.15684414 0.06301819 0.020645792 0.066553816 0.07308368 -0.061046924 0.15052724 0.1831519 -0.17332138 0.044675242 -0.161922 -0.05358194 -0.08328261 0.055349216 0.11239792 0.12029786 -0.00787921 0.15286681 0.0567187 0.04467519 0.009453376 -0.110407345 -0.0718586 0.00036670172 -0.0052926503 0.052810326 0.061581127 -0.13773872 -0.019726174 -0.1457913 -0.1568531 0.061426215 0.041137364 0.04734859 0.13934787 -0.03994716 0.110300355 0.16383691 -0.06754873 -0.13113366 0.1403947 0.0086056655 -0.021789627 -0.017171502 0.073391385 0.028676098 0.13029999 0.02696222 -0.09589196 -0.18647394 -0.07576362 0.11114294 0.060308352 -0.19300473 0.01455218 0.05799804 -0.1524239 -0.08531922 0.12647775 -0.09421697 0.042655963 0.0047811675 -0.11167479 0.11592112 0.08389404 0.10156771 0.046925843 0.18368496 -0.047832116 0.22793174 -0.04897851 0.023486568 -0.03306638 0.10725678 0.012552077 0.12630501 -0.080457054 -0.044938464 -0.18833162
23 -0.03702493 -0.16752078 0.04200069 -0.049320858 0.1240129 -0.10814534 0.040728245 0.007694449 0.042334303 0.02465767 -0.029055256 0.107809275 0.10836559 -0.108524464 0.03386099 -0.09695559 -0.050778575 -0.061270755 0.046166554 0.09862435 0.076320365 -0.008444165 0.08993771 0.039449107 0.01603436 0.020338064 -0.12715209 -0.061507005 -0.020782866 -0.0041234926 0.028740503 0.06495718 -0.13463865 -0.01540686 -0.13246879 -0.12439566 0.069443434 0.039102774 0.032779492 0.13810878 -0.05368807 0.10613267 0.12524655 -0.061846122 -0.13650128 0.18336222 0.0014458647 -0.018252656 -0.021741172 0.03699832 0.010649264 0.15809591 0.020354193 -0.0808517 -0.24756142 -0.11705813 0.10758191 0.09396572 -0.2190997 0.015565163 0.09207415 -0.14177649 -0.11926736 0.19469081 -0.07392725 0.03181487 -0.007121815 -0.14164358 0.10968438 0.06527051 0.12708138 0.08266942 0.21210109 -0.10353626 0.24499804 -0.01743303 0.07982398 -0.056773562 0.15627277 0.024636175 0.14933711 -0.10679319 -0.05621305 -0.17083524
83 -0.02194679 -0.14785643 0.06360342 -0.057250638 0.12970278 -0.10245142 0.024418334 0.0040469775 0.04116799 0.057188053 -0.03500272 0.1380126 0.14242665 -0.15804505 0.018984146 -0.13016789 -0.057615705 -0.074132085 0.062223155 0.10952728 0.10465387 -0.000500321 0.1324678 0.04645991 0.02856492 0.015973935 -0.12821853 -0.067830145 -0.016439183 -0.021073513 0.027205551 0.069329694 -0.16263612 -0.020605462 -0.17249712 -0.14465967 0.04849128 0.04890077 0.027079772 0.13907997 -0.025838874 0.114590354 0.1287205 -0.07158143 -0.14920709 0.18215005 0.010276662 -0.027812254 -0.011132323 0.05087423 0.018584922 0.14949283 0.016373726 -0.07863645 -0.22957678 -0.08319613 0.113676675 0.08142176 -0.22464815 0.034944702 0.06025971 -0.15244642 -0.10652281 0.15650818 -0.0846313 0.033815287 0.008429836 -0.13666762 0.095817104 0.05469379 0.13418548 0.06712969 0.19267994 -0.09483484 0.22421598 -0.038406704 0.060921986 -0.046905596 0.11561514 0.0005832939 0.102225356 -0.07597191 -0.06515889 -0.14647421
65 -0.024658028 -0.120127924 0.042156097 -0.034163967 0.10781196 -0.10064099 0.042892143 0.016773917 0.044595394 0.056145977 -0.048738837 0.1359282 0.15688637 -0.14485517 0.029115155 -0.13159844 -0.04422216 -0.068972394 0.0680144 0.10427626 0.098163135 0.0011848084 0.16804573 0.08366918 0.047660906 -0.0064759008 -0.13616519 -0.06348392 -0.03222654 -0.011025857 0.05840018 0.07350549 -0.15162517 -0.028744793 -0.14904124 -0.14114875 0.041323543 0.05431535 0.026596772 0.13281487 -0.035665598 0.12165881 0.14572507 -0.075875714 -0.1461597 0.1682708 0.02358745 -0.025435697 0.0053959326 0.0632598 0.0071834424 0.13307552 0.0034031225 -0.08621062 -0.20084104 -0.094283134 0.11557846 0.06565781 -0.21227019 0.032791805 0.05027694 -0.15233307 -0.0904609 0.15760924 -0.07541123 0.052256398 -0.008862736 -0.14370665 0.111535884 0.07643835 0.13751991 0.06176578 0.22257812 -0.08621123 0.245572 -0.050788186 0.055224888 -0.063472025 0.12434499 0.023374403 0.13162751 -0.072922066 -0.08600242 -0.16558611
8 -0.040540628 -0.14037769 0.05285275 -0.029693456 0.09708712 -0.07303802 0.026012627 0.02103085 0.03378944 0.025697786 -0.023179166 0.10304443 0.09995105 -0.11475927 0.024454469 -0.11117062 -0.061917208 -0.056877688 0.022832353 0.084241584 0.068949066 -0.008426175 0.1097049 0.01434686 0.012067105 0.054384936 -0.111689575 -0.055858 -0.01327148 -0.024780575 -1.5007099e-06 0.06208964 -0.13033745 -0.012469716 -0.13162386 -0.12982367 0.07750024 0.030149003 0.031409543 0.13059142 -0.036426485 0.11884595 0.106715925 -0.05011288 -0.1386894 0.19063278 0.001465208 -0.019016318 -0.012973548 0.03698785 -0.0054991827 0.13356666 0.028230023 -0.081739105 -0.23533554 -0.09432256 0.09433773 0.09054112 -0.2220935 0.008459406 0.07821446 -0.1467017 -0.11465446 0.18581963 -0.09161884 0.0419437 0.0039984356 -0.15305747 0.10337974 0.052977197 0.13484041 0.09259579 0.23105684 -0.117349416 0.27649492 -0.010280134 0.08867041 -0.081727445 0.1415486 0.012918545 0.17134485 -0.11704957 -0.07334522 -0.17944011
78 -0.044341013 -0.1935642 0.074085206 -0.08131679 0.110517696 -0.106083065 0.037180983 0.0034636173 0.03432775 0.021221466 -0.03761724 0.0990134 0.13754892 -0.15490222 0.0325355 -0.1148192 -0.04718682 -0.05288271 0.02920176 0.0899293 0.064021185 -0.0046657743 0.114062026 0.047227506 0.00036122897 0.053613547 -0.10563124 -0.07222532 0.0039461986 -0.047407836 0.037911817 0.08239685 -0.16416082 -0.030160656 -0.1726696 -0.16517478 0.062440723 0.0146121355 0.04728201 0.1276543 -0.041850787 0.113743074 0.1099657 -0.05704606 -0.11732935 0.15148799 -0.010726087 -0.012320638 -0.0027478589 0.028202908 0.011780668 0.15655103 0.005024695 -0.101539515 -0.21497783 -0.057077665 0.09091942 0.077666 -0.20705596 0.03679987 0.04966668 -0.1570507 -0.093844034 0.18009523 -0.07964444 0.03906299 0.015559493 -0.13597326 0.08049963 0.052240122 0.14810765 0.08446311 0.21700777 -0.0950945 0.22936395 -0.0108819725 0.070246585 -0.072024 0.15181044 -0.00015475976 0.14206633 -0.0929344 -0.06524396 -0.15176368
74 -0.04198291 -0.18258548 0.05192418 -0.06718442 0.11622034 -0.09468669 0.028550575 0.014444702 0.028034426 0.041786976 -0.033929143 0.12663476 0.10449274 -0.11056566 0.030465502 -0.10866687 -0.040562455 -0.05324358 0.05874162 0.08161739 0.076458685 0.004818745 0.12600414 0.063606925 0.0154129835 0.021085067 -0.13965614 -0.06754941 -0.01973565 -0.0142766945 0.052932773 0.07874332 -0.17022705 -0.016601242 -0.15374312 -0.15283148 0.045609728 0.041223835 0.030000126 0.14293687 -0.05353446 0.121004686 0.123573005 -0.07100422 -0.14434057 0.1905092 0.0025225095 -0.031835012 -0.0068733683 0.03453072 0.014551054 0.15651783 0.0023221825 -0.07341277 -0.23295154 -0.07554134 0.10614558 0.08942173 -0.22673547 0.03815383 0.068235084 -0.16798581 -0.10524616 0.17438364 -0.08173523 0.039027788 0.0034238368 -0.15204051 0.09000227 0.046057556 0.11883658 0.06435871 0.20846152 -0.09149365 0.22051768 -0.025027003 0.07098802 -0.06256508 0.14120866 0.002378762 0.11371794 -0.08447746 -0.07352077 -0.14908679
30 -0.020345168 -0.18670352 0.07221237 -0.0582971 0.106901616 -0.12744938 0.03610126 -0.007553645 0.049721517 0.05269747 -0.054829974 0.15142536 0.15951972 -0.17300285 0.009839316 -0.15402378 -0.05875105 -0.080057435 0.036496136 0.112107776 0.10067314 -0.015140722 0.15771407 0.02030263 0.012130105 0.03034484 -0.09758027 -0.06985099 -0.014873485 -0.023931282 0.018778948 0.048715938 -0.14209059 -0.033201892 -0.15060738 -0.13218325 0.060634695 0.0461441 0.04063012 0.10679325 -0.037332814 0.109723866 0.119908884 -0.04080052 -0.14332184 0.17642711 0.010887759 -0.02700608 -0.01523029 0.04456619 -0.00030300053 0.14433978 0.026621813 -0.103887364 -0.20961598 -0.07786336 0.09682112 0.09472098 -0.20114967 0.04122823 0.048274957 -0.14352639 -0.08733474 0.17115329 -0.08613402 0.0399904 0.0052411803 -0.14398472 0.09144948 0.04220724 0.12437908 0.07240386 0.20431694 -0.09792723 0.24345125 -0.025703477 0.07022325 -0.04042072 0.12778422 0.010962224 0.11214348 -0.09656784 -0.06935097 -0.15697446
6 -0.029949453 -0.19310786 0.07194236 -0.052418157 0.12728308 -0.12033983 0.03824537 0.012570482 0.05253031 0.042770114 -0.038798638 0.14738065 0.13626495 -0.15051828 0.025146332 -0.13477273 -0.06945739 -0.08263568 0.04747215 0.104276 0.10551917 -0.017267104 0.14179271 0.030984968 0.016438369 0.03447845 -0.11286552 -0.07174191 -0.0092711635 -0.013370184 0.012648447 0.05380426 -0.11955422 -0.01723234 -0.11642459 -0.113928616 0.057556223 0.045493387 0.029484408 0.11366605 -0.041564465 0.104491375 0.117292844 -0.04615023 -0.15291922 0.19721863 0.014466325 -0.020823425 -0.025607008 0.04179536 -0.003938076 0.14519632 0.017678495 -0.07946523 -0.23667245 -0.104133576 0.10215108 0.1017987 -0.21087511 0.026075171 0.07981101 -0.12561968 -0.10675479 0.16606145 -0.0945716 0.03046674 0.0041979365 -0.13872465 0.10175267 0.046929374 0.12393624 0.078543454 0.1921322 -0.091689914 0.25229648 -0.011798705 0.07998911 -0.0495478 0.12211789 0.00042488778 0.115605295 -0.07364563 -0.052213818 -0.13434719
68 -0.034813777 -0.15420084 0.04725205 -0.04471193 0.15830758 -0.11664753 0.0472591 0.0034660762 0.054211542 0.056649048 -0.045253184 0.1706224 0.16215838 -0.17567936 0.033444438 -0.1567092 -0.082550675 -0.079318725 0.04568159 0.12643981 0.11509589 -0.0020840175 0.16630533 0.062488317 0.025150098 0.031699754 -0.16784048 -0.08076387 -0.024597004 -0.023055913 0.036388706 0.08578021 -0.14158775 -0.011642714 -0.14851189 -0.124069676 0.046424344 0.044308957 0.027031418 0.11568971 -0.018787595 0.12729152 0.10907448 -0.06896195 -0.13282235 0.17983037 0.01696552 -0.030767052 -0.017674213 0.044944115 -0.0040566362 0.12515843 0.008661695 -0.07209045 -0.21226422 -0.08975212 0.1101146 0.07503528 -0.19553152 0.024686549 0.07154022 -0.14082712 -0.117910855 0.1697841 -0.06548242 0.03391902 -0.025136065 -0.12965931 0.097339615 0.056017082 0.12314865 0.061358772 0.1897203 -0.09859306 0.21271674 -0.030097984 0.07193376 -0.052459836 0.091270946 0.018691665 0.10144004 -0.05668225 -0.062599525 -0.13680004
77 -0.04106625 -0.20460798 0.08626548 -0.07272166 0.13411677 -0.12584062 0.034992747 0.043960653 0.04582773 0.039778803 -0.043797325 0.13349083 0.1547738 -0.1670714 0.030953813 -0.1476144 -0.047127202 -0.052834153 0.037990183 0.07758713 0.0536952 -0.009654468 0.12242475 0.02212514 0.015692987 0.045953795 -0.10549113 -0.05972736 -0.0018608337 -0.035810515 0.014648367 0.05648755 -0.14175756 -0.027351055 -0.14032878 -0.14616999 0.068488374 0.03132609 0.028079726 0.110755116 -0.03433987 0.1286254 0.1221335 -0.059448943 -0.14918731 0.17083438 -0.0047574416 -3.4156816e-05 0.003365862 0.032831047 -0.0077328193 0.1262365 0.009959599 -0.08031001 -0.20576745 -0.068276525 0.11041485 0.08002994 -0.20457035 0.03162692 0.046137176 -0.14253506 -0.095331274 0.14942224 -0.09735552 0.06156382 0.0007185527 -0.13077934 0.08764634 0.06288701 0.11982861 0.07528055 0.21608111 -0.08872114 0.25332147 -0.018682292 0.058622636 -0.08015628 0.11281385 0.00854498 0.15685166 -0.08735451 -0.08436616 -0.16347939
27 -0.034085985 -0.23782344 0.07722086 -0.06730449 0.14935027 -0.14066371 0.04753203 0.003603595 0.049588263 0.03837261 -0.03439957 0.1517578 0.13065638 -0.13276786 0.027030906 -0.1255166 -0.06548028 -0.075576715 0.04992309 0.10471942 0.11932423 -0.006584109 0.11992453 0.038595747 0.014259761 0.02935969 -0.13303763 -0.07145114 -0.010577948 -0.0068118805 0.02005511 0.049434636 -0.13451993 -0.014131807 -0.11754758 -0.11364689 0.053282544 0.048417363 0.042587176 0.1309957 -0.035446394 0.09483764 0.10148918 -0.049451467 -0.15027627 0.19676623 0.005484918 -0.026206529 -0.037997473 0.029398015 0.013880209 0.15593384 0.02487326 -0.06293945 -0.24072433 -0.11618773 0.107185334 0.10076385 -0.20447147 0.027856212 0.08475001 -0.108486466 -0.11886976 0.1681928 -0.082376204 0.025772661 -0.004941305 -0.13018098 0.10707171 0.045037776 0.111572854 0.08261839 0.17646861 -0.10288891 0.2148683 -0.013919409 0.08741453 -0.05356104 0.13524136 0.0079759415 0.10895326 -0.09098118 -0.04796392 -0.1480111
28 -0.027541287 -0.18181407 0.06835636 -0.04595551 0.1494082 -0.1264743 0.05417764 -0.008404006 0.038643453 0.05744445 -0.04379982 0.17096964 0.15206744 -0.16167833 0.013765973 -0.15534937 -0.07483016 -0.094204895 0.044276908 0.1249209 0.1191549 -0.0027144128 0.16661324 0.03579666 0.02701329 0.024855545 -0.14889397 -0.07401397 -0.015532338 -0.016597176 0.021977648 0.07092381 -0.14962974 -0.01699145 -0.14479937 -0.13155538 0.07749162 0.057001323 0.038650375 0.13306352 -0.025884392 0.09057771 0.11882976 -0.050956365 -0.15359315 0.16794153 0.012429077 -0.036893964 -0.024709221 0.043940846 0.0106073925 0.14269051 0.025964586 -0.08528048 -0.19195727 -0.088654704 0.097630315 0.073245764 -0.20858338 0.02547833 0.065293394 -0.13925658 -0.093580864 0.18182199 -0.0659174 0.03277994 -0.015107081 -0.12183645 0.09171329 0.02686659 0.11818907 0.07573336 0.18046704 -0.11556198 0.2102884 -0.044318102 0.074477926 -0.027047854 0.112297244 0.022155989 0.08800389 -0.08051744 -0.054917216 -0.14353444
33 -0.037495147 -0.25726068 0.09240172 -0.07192339 0.18822287 -0.17993148 0.0699388 0.016229916 0.06755456 0.074470244 -0.04387332 0.16594434 0.14543805 -0.15798326 0.05353003 -0.13093688 -0.073856875 -0.078843884 0.051295914 0.1274983 0.14491394 -0.0022090147 0.14604379 0.052978132 0.031131443 0.016802067 -0.14809161 -0.07587993 -0.013142409 0.0018198634 0.04860292 0.078323856 -0.14944239 -0.0093146255 -0.15957251 -0.14925162 0.052710686 0.048963144 0.029542372 0.14107208 -0.044799116 0.10716444 0.12198965 -0.06520143 -0.12282166 0.15204284 0.002098235 -0.03176058 -0.035643864 0.039951798 0.015611861 0.15440409 0.042279035 -0.05936639 -0.20366774 -0.090669796 0.09329504 0.07471757 -0.16857533 0.032730393 0.08521794 -0.13546853 -0.11800323 0.14139819 -0.06138005 0.011569476 0.003050922 -0.11038748 0.106528305 0.059344582 0.09964901 0.045248955 0.17318375 -0.065785974 0.17649268 -0.026361601 0.045943398 -0.024433386 0.11696953 0.007958973 0.09380887 -0.084822 -0.03275012 -0.15203126
80 -0.038321175 -0.18936557 0.055784523 -0.051997628 0.12979959 -0.10166457 0.06726767 0.023349775 0.03425898 0.040828127 -0.048375025 0.14066264 0.14736944 -0.14426708 0.04020031 -0.13604842 -0.04980409 -0.04588325 0.042987414 0.10389597 0.097600274 0.0033057425 0.1494495 0.066563055 0.034358468 0.033935633 -0.14845206 -0.09407199 -0.0003444383 -0.033619225 0.07038397 0.0890477 -0.16902347 -0.0071086986 -0.15411663 -0.15309021 0.062174845 0.040709052 0.04282046 0.1516471 -0.037876807 0.1068992 0.12363999 -0.06904363 -0.15001039 0.15505554 0.016377117 -0.02812152 -4.8959275e-05 0.0263522 0.028088523 0.13161635 -0.005350937 -0.091127984 -0.16936183 -0.0725765 0.09588775 0.05560899 -0.21908638 0.026181841 0.05485279 -0.14291266 -0.08840576 0.1725 -0.07781323 0.055272203 -0.012166755 -0.13046804 0.10080633 0.040656716 0.13413145 0.07315527 0.21846889 -0.09514861 0.22129834 -0.034550186 0.0629567 -0.07310634 0.13467015 0.0049446058 0.12282277 -0.08513707 -0.076397 -0.17141984
79 -0.06350615 -0.18157454 0.0584081 -0.06721126 0.13421614 -0.103259556 0.019901209 0.026864808 0.026555128 0.046888147 -0.006295659 0.11576526 0.13111287 -0.14693561 0.012961878 -0.11805502 -0.04698219 -0.05548854 0.05268655 0.07589961 0.067219146 -0.010004728 0.10711019 0.03985886 0.016960891 0.032129545 -0.09486423 -0.05668173 -0.0025646666 -0.026996732 0.013866048 0.07723322 -0.14647156 -0.014623789 -0.14971189 -0.13236655 0.04794128 0.038067706 0.029382141 0.11979045 -0.02866812 0.1344201 0.124648355 -0.07774582 -0.16860119 0.18305989 -0.0026477857 -0.013887936 -0.00468825 0.02335261 0.0014327349 0.13732617 0.013622947 -0.07765762 -0.26046684 -0.09228628 0.122219525 0.06357274 -0.21200112 0.022948904 0.067159906 -0.16343752 -0.13194148 0.16330127 -0.112845674 0.032830555 0.0023668746 -0.14615503 0.1207454 0.073998176 0.1478546 0.09171216 0.21331263 -0.10606455 0.23836233 -0.019365648 0.07960383 -0.074664265 0.10731519 -0.00057395425 0.14518306 -0.079117 -0.052137442 -0.18345924
29 -0.046278507 -0.2381766 0.07062076 -0.08114795 0.16554974 -0.14209752 0.03798647 -0.00095983065 0.07203942 0.05658639 -0.03884318 0.17546661 0.14525609 -0.16256775 0.03264673 -0.13109575 -0.08069706 -0.080281034 0.053782813 0.096122175 0.09823472 -0.009805149 0.1128056 0.025770335 -0.002648898 0.028670173 -0.11899064 -0.06249755 0.0051891957 -0.012899573 0.025303876 0.050812397 -0.12810537 -0.025986778 -0.13664427 -0.10209322 0.052316837 0.05833935 0.03866062 0.11362964 -0.01792998 0.10839135 0.088894755 -0.06783594 -0.14845055 0.21954644 -0.0035024397 -0.024029085 -0.029157044 0.032402474 -0.007971635 0.15179539 0.016053163 -0.059569348 -0.25061554 -0.09785006 0.11877371 0.10232846 -0.19398576 0.045305975 0.07733564 -0.1344657 -0.12352107 0.15047984 -0.08082765 0.026794149 -0.021200033 -0.13400456 0.10333495 0.053629294 0.121509686 0.07415724 0.16707723 -0.087944165 0.20950238 0.0013962672 0.087187804 -0.046694346 0.12007613 0.008427576 0.084182724 -0.064958006 -0.054278813 -0.14198822
72 -0.039485563 -0.28812364 0.08706065 -0.111795485 0.16993888 -0.1566954 0.04528784 0.01572697 0.06399377 0.052296624 -0.035114866 0.1728145 0.16209345 -0.19281101 0.02954439 -0.14790864 -0.053598247 -0.05474687 0.03795024 0.10235272 0.08456542 -0.021840759 0.12637268 -0.009652919 0.004451524 0.056239963 -0.09935834 -0.060194492 0.011371729 -0.03652508 0.016919741 0.07164399 -0.14725219 -0.021888694 -0.15853517 -0.13940266 0.06259703 0.042173143 0.026414251 0.12952451 -0.022871586 0.119990416 0.09691541 -0.07057608 -0.13617602 0.15199009 0.008942929 -0.008726563 -0.0089708725 0.0018593807 -0.012564245 0.13906763 0.026682725 -0.082111515 -0.21672319 -0.061224356 0.08958804 0.082939476 -0.17673339 0.04477719 0.046938173 -0.12563346 -0.104732856 0.15746088 -0.06615799 0.0319384 0.017440168 -0.12101981 0.060708582 0.02668109 0.11258608 0.06786662 0.19901922 -0.10598324 0.21244739 -0.014869447 0.07372668 -0.063967794 0.14814791 -0.006037549 0.12907684 -0.09619843 -0.08195265 -0.15032731
59 -0.010218432 -0.16705903 0.06350174 -0.06677717 0.093060665 -0.10665488 0.018916072 0.013066011 0.0564252 0.04594823 -0.06683423 0.14418165 0.16306537 -0.1705733 0.012020127 -0.13747843 -0.015952758 -0.039644487 0.036155578 0.105814874 0.07274168 -0.019961733 0.12879911 0.01342969 0.022484602 0.013310597 -0.10768482 -0.07612109 -0.016867887 -0.04061849 0.038534913 0.074556604 -0.1613738 -0.041103564 -0.15828978 -0.1350847 0.063302636 0.017594624 0.019432418 0.10065731 -0.03389371 0.11963606 0.1111238 -0.05072054 -0.12212832 0.1551549 0.010608025 -0.018134264 0.018874606 0.04579052 0.010109056 0.12436702 0.022603935 -0.117659345 -0.18990833 -0.05431814 0.13169865 0.09436215 -0.21614605 0.026378049 0.009444454 -0.13804896 -0.06787481 0.15954489 -0.08706101 0.052750118 0.004261814 -0.17018527 0.08331931 0.057936147 0.14301741 0.058625445 0.24251533 -0.09799347 0.25713968 -0.015289079 0.04834954 -0.06403476 0.14707059 0.019754052 0.15204413 -0.11714354 -0.09863235 -0.1485809
36 0.021027563 -0.1386513 0.09824025 -0.041159384 0.101900555 -0.19004187 0.11284509 0.006699108 0.055493973 0.10420478 -0.10277092 0.10857756 0.14547825 -0.12775818 0.04174722 -0.13167055 -0.0027471008 -0.061197262 0.06023628 0.12807691 0.11382315 0.003851426 0.18315013 0.0631126 0.06453022 -0.06072977 -0.068284675 -0.10784154 -0.015931195 0.011294427 0.13292736 0.05505801 -0.16320579 -0.024584632 -0.1755726 -0.13576718 0.07291937 0.045990765 0.030289033 0.10800462 -0.06885307 0.117919445 0.22892247 -0.06724155 -0.12600087 0.06295143 0.052851778 -0.03225111 0.008482348 0.12712795 0.043190375 0.15753073 0.043220356 -0.14192617 -0.14730139 -0.078697264 0.1372543 0.057102993 -0.2309268 0.05130967 0.012163202 -0.203854 -0.06625325 0.14444464 -0.12123769 0.03215147 -0.020508258 -0.15068738 0.14675929 0.10114939 0.092441104 -0.00015782617 0.23621361 -0.04804247 0.21192983 -0.10058828 0.0013725274 0.02284881 0.14122738 0.024963114 0.063480094 -0.12487969 -0.023331854 -0.21970016
34 0.014862544 -0.20744498 0.13948949 -0.054295942 0.14306729 -0.24454941 0.13405265 -0.008373712 0.053372215 0.10895314 -0.109194085 0.11427455 0.13772167 -0.107558094 0.05623023 -0.11364124 0.010628685 -0.062109157 0.08401003 0.14608344 0.13753037 0.003133767 0.17137043 0.05538037 0.061285865 -0.08573471 -0.06109004 -0.120408624 -0.014977781 0.042094406 0.1704176 0.0608417 -0.1915257 -0.025258394 -0.1932385 -0.14632599 0.10809462 0.06579387 0.04832598 0.13572668 -0.09760391 0.12205364 0.24986413 -0.06772143 -0.13127144 0.040097896 0.043001145 -0.052492443 -0.015680192 0.14487875 0.07348346 0.18975087 0.06326583 -0.13391596 -0.1609778 -0.11236107 0.14602686 0.0638336 -0.23281065 0.05430445 0.031209374 -0.21935101 -0.102152586 0.1782109 -0.11654826 0.0039567095 -0.026935799 -0.15715669 0.16958173 0.10850626 0.081390835 -0.014077037 0.19001532 -0.019930905 0.17562932 -0.10761403 -0.02225404 0.07926722 0.14416724 0.04775812 0.017535413 -0.13740797 0.00555513 -0.22160721
35 -0.004746699 -0.22287124 0.12632567 -0.073100865 0.14922042 -0.23686807 0.13268755 -0.015541191 0.062826365 0.11439258 -0.09571525 0.13468632 0.15942703 -0.121061094 0.072585866 -0.131627 -0.00029618535 -0.054375235 0.08210361 0.16266549 0.16818973 0.0014838554 0.1715748 0.080144055 0.07397885 -0.05086269 -0.083909206 -0.10102234 -0.01317432 0.02922439 0.16323687 0.070053734 -0.19387065 -0.023660522 -0.1805901 -0.1655554 0.0827631 0.050037477 0.068353415 0.14142562 -0.103682116 0.12436747 0.25875044 -0.09437986 -0.14645976 0.052063 0.02854169 -0.03971774 -0.022367107 0.11604295 0.06520857 0.17021106 0.045623135 -0.14835384 -0.12581569 -0.11218781 0.1534567 0.04848745 -0.21913491 0.037492413 0.03466845 -0.2200077 -0.09196394 0.16930798 -0.1310691 0.010051115 -0.024476364 -0.122123644 0.1674497 0.12417189 0.09638697 0.0031465206 0.20103349 -0.019629331 0.18450624 -0.1189615 -0.019832587 0.06811372 0.13143796 0.04484929 0.03755834 -0.12943846 -0.0012856392 -0.22828586
