84 84
8 -0.08761128 -0.17495328 0.0067822044 -0.10729722 0.06438392 -0.054918777 0.12032914 0.063218996 0.06347712 -0.030538708 -0.005855639 0.17120294 0.0560685 0.013415978 -0.03421743 -0.07653865 -0.15466991 -0.060883306 0.07576034 0.08031816 0.18383938 -0.07112011 0.024610024 0.024950963 0.08923471 0.020364257 -0.10807656 0.0132541135 -0.02229463 -0.048163567 -0.036614325 0.069521874 -0.21405427 -0.06405535 0.028285157 -0.083409935 0.16213125 0.09823965 0.07822374 0.052331544 -0.0854682 0.116058305 0.11241508 -0.03444969 -0.11469803 0.19645913 0.09842947 0.023054969 -0.056838445 0.002542079 -0.061444223 0.01988276 0.13610354 -0.07221581 -0.109421395 -0.14920467 0.03348723 -0.07364711 -0.10594685 -0.19423084 0.115691304 -0.12881462 -0.010300962 0.06412725 -0.13727659 0.076547205 -0.04203701 -0.08309944 0.115923926 -0.012484588 0.17642978 0.016386352 0.14584093 -0.16140667 0.17098764 -0.061655834 0.1504877 -0.11519796 0.0058168024 -0.03001135 0.17725919 -0.1084023 -0.16564551 -0.15242507
53 -0.10040546 -0.20943137 0.00200206 -0.14190544 0.09918543 -0.052391008 0.13846332 0.06523321 0.08014577 -0.052992623 -0.033085857 0.22818333 0.064352274 0.0023955249 -0.058509257 -0.05470877 -0.13053557 -0.038620923 0.05405573 0.066875964 0.14955248 -0.055470873 -0.003476651 0.026161358 0.044370756 0.012527617 -0.063173324 0.007860465 -0.015280194 -0.08144897 -0.036832172 0.06806299 -0.18091816 -0.07369267 0.019385656 -0.052239418 0.127998 0.09347466 0.064632066 0.01922256 -0.05849134 0.14145897 0.11240174 -0.054045785 -0.11211347 0.16769502 0.098223835 0.04289931 -0.037358508 -0.011095129 -0.050895218 0.015035305 0.10131503 -0.060359385 -0.05871547 -0.14675201 0.0613364 -0.07665466 -0.11821301 -0.18064888 0.09947224 -0.11687862 -0.028254611 0.019687278 -0.15271713 0.07651671 -0.06814234 -0.074866906 0.11007308 0.008038205 0.20899019 0.02390961 0.17978688 -0.1577371 0.1978549 -0.06021958 0.15245196 -0.12286666 0.010025161 -0.023949074 0.18348928 -0.11708936 -0.17190938 -0.17066605
22 -0.07439718 -0.16360788 0.002643371 -0.119292125 0.087539546 -0.067512356 0.12030004 0.06750341 0.08987434 -0.05688071 -0.01714533 0.20896372 0.08644297 0.0056119547 -0.048626784 -0.06457986 -0.14829087 -0.05424854 0.07865196 0.09482818 0.1655414 -0.06617673 0.006647287 0.048771713 0.06349141 0.035455212 -0.08026952 -0.00813797 -0.011625393 -0.067228384 -0.039984614 0.058404803 -0.22475316 -0.076282285 0.014324576 -0.08450477 0.138729 0.10393681 0.08288236 0.027952567 -0.060429893 0.13057373 0.11231679 -0.059073176 -0.11303766 0.18462713 0.086368345 0.039811585 -0.03493148 -0.006716693 -0.06271915 0.007335178 0.09273928 -0.08133991 -0.06302301 -0.14325748 0.068318404 -0.07446976 -0.121409476 -0.20272471 0.10786049 -0.13315025 -0.017784996 0.054278255 -0.1613675 0.081191175 -0.070969574 -0.074750505 0.11162115 0.027929649 0.18607715 0.025604984 0.16868402 -0.15816103 0.18683518 -0.06329272 0.13772912 -0.10513316 0.01607295 -0.026051406 0.15665625 -0.1004577 -0.13746701 -0.16664696
67 -0.10100381 -0.18587653 0.008173929 -0.11732643 0.06393903 -0.049166925 0.12409745 0.044214267 0.07360313 -0.045051705 -0.02316008 0.18386486 0.08119099 0.006195056 -0.056335736 -0.06586732 -0.13557976 -0.05095586 0.05058586 0.07238973 0.14419094 -0.07129741 0.0138152195 0.044304382 0.06809287 0.020010008 -0.07443197 0.007837417 -0.015981538 -0.082884386 -0.038068812 0.06759919 -0.19491275 -0.0907303 0.014826066 -0.064887 0.1425555 0.100865155 0.09094326 0.027297447 -0.07433622 0.12735994 0.12127548 -0.040088195 -0.110378265 0.18828937 0.101113416 0.034989644 -0.039449286 -0.005301388 -0.05472328 0.016387409 0.101749115 -0.079879224 -0.07717203 -0.1587427 0.04334184 -0.08159789 -0.12116633 -0.19195132 0.111575566 -0.12932727 -0.022281159 0.04901411 -0.15311274 0.07926188 -0.07495129 -0.072269134 0.11676034 0.006046758 0.18673064 0.029269816 0.17789686 -0.14939232 0.16867577 -0.062599264 0.14824146 -0.10277408 0.0074907355 -0.023451352 0.18120703 -0.11207894 -0.1641305 -0.17372866
4 -0.070546605 -0.14373094 0.0073891645 -0.08556309 0.08486523 -0.046356384 0.121751204 0.066365086 0.07161125 -0.034304924 -0.01293241 0.17729738 0.061795063 0.015163572 -0.046903722 -0.06345938 -0.16409023 -0.07116891 0.07377508 0.0903815 0.18360162 -0.0751847 0.0083082095 0.04013884 0.09379565 0.019670708 -0.09375354 0.010034656 -0.0072048693 -0.07284055 -0.058935776 0.07480662 -0.20315255 -0.07240146 0.014010957 -0.080140635 0.14426632 0.09085567 0.07303407 0.03330489 -0.0894456 0.12007326 0.12759243 -0.03983914 -0.109351866 0.18863176 0.10745262 0.021625241 -0.04913254 -0.0011293017 -0.050128717 0.006665668 0.10670835 -0.06839681 -0.08031251 -0.14784287 0.036035657 -0.07753286 -0.105722144 -0.18762502 0.11678243 -0.12809096 -0.019602306 0.047810853 -0.1297683 0.09193573 -0.06190028 -0.081093915 0.1122472 -0.008307094 0.20093805 0.02498603 0.18243957 -0.18214786 0.18866737 -0.067274116 0.16086765 -0.11192273 0.006825544 -0.03051084 0.16196087 -0.11480797 -0.15686317 -0.14436871
2 -0.10002479 -0.21317323 0.0103395395 -0.14705582 0.06951411 -0.051903863 0.120183975 0.06513019 0.055022646 -0.041051067 -0.025892045 0.20460838 0.07214 -0.0126256095 -0.05132175 -0.04897116 -0.15940034 -0.036321323 0.06699222 0.08466553 0.1617081 -0.06969246 0.010822963 0.009523119 0.05058444 0.01431056 -0.07449644 0.018108528 -0.0027168014 -0.054102227 -0.03460685 0.05123892 -0.20045143 -0.06097248 0.0146845365 -0.062498838 0.13203664 0.08030035 0.061673168 0.019401265 -0.060777064 0.12247663 0.11344859 -0.057345927 -0.1282641 0.18479311 0.092882246 0.048826683 -0.051579606 -0.017218681 -0.056588095 0.007975196 0.11413955 -0.069605656 -0.08844099 -0.14463985 0.055350423 -0.04726348 -0.10994028 -0.16030844 0.0982439 -0.11818273 -0.008216401 0.03849546 -0.17091817 0.088565186 -0.05763361 -0.08113907 0.11064411 0.011084849 0.18510127 0.019545294 0.17764212 -0.145139 0.19697863 -0.04739476 0.15491469 -0.10616566 0.03707558 -0.028697949 0.18613084 -0.12402655 -0.1794466 -0.1777758
1 -0.14347443 -0.2519806 0.011288623 -0.13099249 0.08289577 -0.072942875 0.14536248 0.06881088 0.06396747 -0.040047992 -0.02646443 0.18013391 0.08221953 -9.9784884e-05 -0.054107025 -0.07209862 -0.11617467 -0.044500124 0.05593753 0.06103523 0.13170217 -0.059941173 0.039447255 0.037771057 0.069541536 0.019367605 -0.070302956 0.019534433 -0.017409494 -0.07512444 -0.049723376 0.07476502 -0.18344533 -0.069551535 0.012679906 -0.069537334 0.13719904 0.09899188 0.08089471 0.027237382 -0.07868595 0.11742209 0.12023264 -0.03517628 -0.12542593 0.17543429 0.101693735 0.035672214 -0.040983453 -0.0051015173 -0.06914232 0.03115864 0.109289676 -0.070561185 -0.10729298 -0.1681846 0.034609187 -0.055068493 -0.11655506 -0.15535004 0.10853438 -0.13085292 -0.033374477 0.058729503 -0.1420325 0.07870412 -0.06986664 -0.06820803 0.1236611 0.0010788192 0.19191816 0.02238501 0.1755628 -0.15250805 0.15741216 -0.058195714 0.16070046 -0.1266199 0.018471323 -0.025431508 0.17023942 -0.115055464 -0.15249279 -0.1649996
44 -0.07624099 -0.14911054 0.012262633 -0.11678921 0.08213879 -0.057839103 0.10954345 0.043937877 0.089338936 -0.05545673 -0.00983418 0.21100885 0.061097328 0.015635194 -0.050083447 -0.058830854 -0.17104593 -0.07200726 0.08378319 0.0950273 0.18023092 -0.053041197 -0.024642048 0.04963112 0.071399495 0.017485945 -0.07539593 0.010822505 -0.006809895 -0.0882354 -0.042483468 0.05744353 -0.2231117 -0.072094664 0.022436025 -0.07176666 0.119121894 0.099317364 0.098325945 0.02009739 -0.067375295 0.1339678 0.10331494 -0.057115056 -0.09614521 0.15139425 0.0577137 0.034238506 -0.046022207 0.0076316246 -0.05196663 0.0067251846 0.094116285 -0.066666156 -0.049735434 -0.11699969 0.052985325 -0.08396301 -0.107996896 -0.19151375 0.09042258 -0.13155092 -0.013021027 0.021410614 -0.17111732 0.09269788 -0.07974679 -0.08887317 0.10785688 0.016153648 0.19450963 0.013315256 0.17914362 -0.17974374 0.2010696 -0.061412845 0.15471132 -0.11924312 0.022218557 -0.03215349 0.16034243 -0.113623396 -0.16662951 -0.17865032
54 -0.113120414 -0.20651755 0.017568238 -0.13386074 0.07035499 -0.059575956 0.12589729 0.046880625 0.089045145 -0.058685772 -0.019410513 0.21310946 0.07990576 0.005967704 -0.050717223 -0.05731092 -0.15264916 -0.057584986 0.06310438 0.07022128 0.15465082 -0.06716475 0.0034646797 0.044723436 0.059728302 0.008951654 -0.080252595 0.01780617 -0.016241696 -0.08771798 -0.03860505 0.07010585 -0.18658645 -0.07781874 0.01967502 -0.065689445 0.12406218 0.09829813 0.0928809 0.023449002 -0.07210154 0.13028657 0.121056736 -0.05178969 -0.10458788 0.1779309 0.06599771 0.028747078 -0.044122614 0.0072763786 -0.06644673 0.022403479 0.11739547 -0.07578264 -0.083656184 -0.149896 0.042489313 -0.07624547 -0.10032671 -0.18080088 0.09500935 -0.118318975 -0.031876072 0.028407184 -0.16004872 0.070852175 -0.06622308 -0.08441371 0.11311508 0.023065127 0.19336072 0.019425765 0.17713316 -0.1495625 0.18524343 -0.05763566 0.1422975 -0.10729975 0.011396448 -0.029899245 0.17314848 -0.10382333 -0.16672832 -0.17898001
38 -0.044814076 -0.109633036 0.004388674 -0.09859514 0.065857016 -0.051997494 0.10256461 0.035986923 0.065846 -0.042221583 -0.01848762 0.1808675 0.05299446 -0.0005981877 -0.043788716 -0.04940219 -0.15009966 -0.049925018 0.06589232 0.080225356 0.15074085 -0.048416033 -0.012825646 0.016731262 0.048540626 0.012777702 -0.060469937 0.0068082763 -0.0054025245 -0.06788225 -0.036838282 0.04719753 -0.19911893 -0.07419243 0.015441412 -0.06685323 0.13211063 0.08492748 0.07165627 0.0057321754 -0.06719096 0.13943432 0.123563476 -0.06184753 -0.12332859 0.19772857 0.09699298 0.021591643 -0.038144734 0.0004664397 -0.0630059 0.007831843 0.098732956 -0.08049994 -0.07147039 -0.14981581 0.073368154 -0.086922266 -0.12832978 -0.20244241 0.095290914 -0.13121961 -0.0053020427 0.022656212 -0.16802405 0.091931455 -0.0798517 -0.0885067 0.10614539 0.010730743 0.20083645 0.019508263 0.18366562 -0.18236236 0.20861374 -0.07090874 0.16987944 -0.10654005 0.021170365 -0.029022861 0.183161 -0.11746845 -0.17635173 -0.17951931
81 -0.08851043 -0.18718296 0.011906652 -0.123921864 0.07144168 -0.055597167 0.12824814 0.06203814 0.05653121 -0.038667623 -0.033770513 0.17489551 0.07481218 0.0014586189 -0.03236443 -0.04064638 -0.12516837 -0.037877243 0.049794335 0.06237894 0.14651872 -0.070257254 -0.0002945182 0.017483108 0.061951894 0.0134386225 -0.064069375 0.0126179205 -0.0073706247 -0.07092955 -0.040492218 0.07117713 -0.19288528 -0.07536858 0.010011619 -0.07198198 0.13678226 0.079652384 0.07904032 0.01667467 -0.07171567 0.12421078 0.11412018 -0.058507845 -0.13064727 0.19156581 0.09041911 0.052449495 -0.043877278 -0.0039353105 -0.056088243 0.024976341 0.12377017 -0.07180247 -0.09029696 -0.16058674 0.04513423 -0.07863991 -0.1115253 -0.19327693 0.11133958 -0.13266355 -0.025902756 0.03969884 -0.16191937 0.08582057 -0.07253813 -0.07976882 0.11667229 0.008090913 0.19309625 0.023405448 0.17453323 -0.15034492 0.18138847 -0.05490477 0.14104433 -0.11509 0.03161626 -0.041269302 0.19548064 -0.12278673 -0.16862527 -0.18005358
70 -0.08168379 -0.17885436 -0.005248946 -0.11628986 0.07265969 -0.056406822 0.1102142 0.06456844 0.073879264 -0.028893203 -0.02898328 0.16603154 0.059377328 0.017923145 -0.043606948 -0.04358772 -0.13882676 -0.051705312 0.067484595 0.08021221 0.16743536 -0.066192605 0.0113891065 0.02596615 0.079588816 0.011033336 -0.078794174 0.0021834506 -0.017168267 -0.07309486 -0.04381524 0.07089486 -0.22174406 -0.080767184 0.0166794 -0.07581341 0.1459064 0.095896386 0.07991481 0.037825506 -0.071732424 0.11285667 0.11121521 -0.057136007 -0.11236296 0.18503475 0.100024976 0.041584384 -0.029277112 -0.0025004137 -0.046277598 0.012608851 0.10604616 -0.06588806 -0.075722694 -0.12287726 0.04589294 -0.06526861 -0.111638844 -0.16866319 0.10796723 -0.11818952 -0.01716229 0.05143741 -0.15862502 0.08837132 -0.05911568 -0.08108396 0.12438166 0.0019373958 0.19697043 0.024952205 0.18863659 -0.16798483 0.18580656 -0.0568192 0.15966637 -0.11230967 0.024043856 -0.042504326 0.19850111 -0.110936664 -0.16756953 -0.17837395
19 -0.0846758 -0.20890355 0.007707618 -0.13560212 0.08297127 -0.041560065 0.1356656 0.07339742 0.082223184 -0.042701516 -0.024975559 0.21179187 0.082455404 0.011793252 -0.06510049 -0.06807575 -0.15808739 -0.067819715 0.066288866 0.09234316 0.16989343 -0.08017925 0.009659483 0.047750637 0.08945852 0.019493433 -0.07963541 0.0049846014 -0.01014768 -0.060325995 -0.05007346 0.069028534 -0.20874944 -0.09016755 0.010770382 -0.08353776 0.14040013 0.08928225 0.07043158 0.031371094 -0.079642914 0.12111844 0.1015937 -0.051765025 -0.11264551 0.19294238 0.10413046 0.02724571 -0.041219793 -0.005767553 -0.04383488 0.016038103 0.099608205 -0.07513499 -0.059850115 -0.13638067 0.0280029 -0.07845115 -0.095692314 -0.19519384 0.11400034 -0.13710347 -0.0105253775 0.060288027 -0.14241304 0.077566534 -0.047072906 -0.075579464 0.106021315 -0.0059460606 0.18098731 0.027756354 0.15811425 -0.15574732 0.16801666 -0.07334914 0.14648622 -0.10555703 0.010511063 -0.037085235 0.17065944 -0.115674235 -0.17049602 -0.16849388
82 -0.095522515 -0.21087667 0.02218665 -0.11886181 0.08522533 -0.0613187 0.15062906 0.06199359 0.05460633 -0.05006663 -0.037136037 0.18894877 0.07254474 0.007834203 -0.055893194 -0.041515738 -0.14530936 -0.04579981 0.06482897 0.07172542 0.16455427 -0.06881684 0.008551685 0.044368133 0.06543268 0.008798338 -0.07072663 0.014519276 -0.016045168 -0.08291598 -0.049367476 0.053529818 -0.2098008 -0.0829958 0.015410604 -0.074596986 0.1342111 0.10249016 0.08337962 0.022910733 -0.05745091 0.11750433 0.12886916 -0.043871365 -0.11442727 0.17544633 0.10061156 0.043169502 -0.05378016 -0.0014351674 -0.05394819 0.013173933 0.094253704 -0.064332 -0.07243746 -0.15312125 0.041163813 -0.062355068 -0.11349331 -0.17507686 0.107605815 -0.13361192 -0.018546414 0.03507344 -0.15354408 0.08888111 -0.07636358 -0.07344953 0.123061 -0.0025410624 0.17115332 0.01186997 0.17935285 -0.16200623 0.17065658 -0.051950637 0.15978718 -0.118872374 0.025982214 -0.037381057 0.17354585 -0.116090015 -0.16389488 -0.16741407
63 -0.063261434 -0.15578401 0.009821078 -0.12167622 0.081818156 -0.0456783 0.11967112 0.04890065 0.07128124 -0.048613947 -0.024002813 0.19321755 0.06499724 0.013195885 -0.046770327 -0.049254827 -0.15442319 -0.057507973 0.06434783 0.08246515 0.16540651 -0.06347147 -0.023014354 0.03956614 0.051744953 0.013091588 -0.06233499 0.0058047506 -0.0037780346 -0.07829604 -0.037215136 0.04711096 -0.20403917 -0.07856876 0.009164818 -0.068302974 0.13788056 0.09610524 0.08687669 0.018600909 -0.055775993 0.12823676 0.10602251 -0.06649501 -0.10047808 0.17736769 0.08582592 0.032945655 -0.02703211 -0.0014118055 -0.049054597 0.011410211 0.09507456 -0.06760731 -0.055191215 -0.122176275 0.05656791 -0.08941732 -0.11374993 -0.19236581 0.10880039 -0.14387251 -0.016089512 0.03193446 -0.17967683 0.09423114 -0.077047795 -0.08973297 0.10414452 0.012781099 0.18652676 0.027086182 0.18459551 -0.16941746 0.20760556 -0.061070494 0.14943087 -0.1109849 0.019283433 -0.03517518 0.17248146 -0.1070303 -0.16213198 -0.17815712
61 -0.09509194 -0.19642311 -0.0026295052 -0.13555136 0.06544621 -0.05170596 0.111648984 0.06371652 0.06923697 -0.04139264 -0.03564376 0.17469174 0.06590813 0.004582664 -0.046364494 -0.04381998 -0.12542708 -0.037263982 0.048509408 0.06763995 0.14744847 -0.06145934 0.008342562 0.034327418 0.059603382 0.005742775 -0.057125617 0.00905268 -0.023201728 -0.089249685 -0.035151858 0.06264299 -0.22610423 -0.09661534 0.016659847 -0.06891687 0.15303306 0.09822516 0.09069313 0.02585234 -0.06455672 0.13184197 0.11782539 -0.05988887 -0.11881174 0.17525865 0.09050483 0.048154186 -0.028901178 0.0033370776 -0.049665824 0.02037259 0.10779344 -0.07776926 -0.06941495 -0.13778178 0.041524727 -0.07561618 -0.11340618 -0.18081596 0.093494885 -0.13443525 -0.011269975 0.04871726 -0.16046129 0.08033241 -0.071099006 -0.0738509 0.11055917 0.006848718 0.1816941 0.028921233 0.17980625 -0.15404536 0.1797427 -0.06230318 0.14744978 -0.11509499 0.011667757 -0.036318336 0.19868785 -0.117997944 -0.17730623 -0.18855086
11 -0.09515426 -0.20033532 0.0047473363 -0.12681903 0.08108336 -0.055953406 0.13230829 0.069501325 0.07492403 -0.05438461 -0.022341564 0.19799411 0.06697049 0.0046216133 -0.03699044 -0.058295764 -0.1421766 -0.04277109 0.059042647 0.07096771 0.16820413 -0.06349671 0.010607597 0.030145936 0.04615493 0.012056795 -0.08605977 0.0041201063 -0.022294696 -0.074085064 -0.030843506 0.06296395 -0.20609851 -0.082016245 0.025951786 -0.06802255 0.13508879 0.102589875 0.07087634 0.029544191 -0.060075756 0.12150667 0.113078006 -0.05681862 -0.10676524 0.18193191 0.0964546 0.025318138 -0.04262146 0.0015389323 -0.05694113 0.02016055 0.092141196 -0.07223106 -0.08175371 -0.14664708 0.051548716 -0.06837242 -0.11320317 -0.17508787 0.10570344 -0.12115956 -0.012956491 0.04379594 -0.16357009 0.075809725 -0.07487753 -0.08438341 0.11184261 0.0067110364 0.18737109 0.029378867 0.16768523 -0.15596378 0.1921895 -0.059698105 0.15051554 -0.10823996 0.006566417 -0.031340905 0.1801984 -0.09721013 -0.16528675 -0.16736132
25 -0.11730132 -0.19764717 0.009379438 -0.1471247 0.06610061 -0.06496139 0.120876454 0.044161536 0.09132661 -0.04659081 -0.015842233 0.2139716 0.066347584 0.013765395 -0.048034605 -0.073229015 -0.14701839 -0.06229772 0.073601164 0.07951802 0.17290829 -0.064937025 -0.0010439197 0.02905848 0.056835048 0.017728144 -0.08282478 0.013943474 -0.020719716 -0.07052285 -0.03198487 0.07217799 -0.18327878 -0.07310665 0.019406809 -0.059798304 0.1217378 0.10248202 0.07489688 0.021700764 -0.078823045 0.124398686 0.10200973 -0.05890211 -0.09465346 0.16888788 0.07780407 0.034307398 -0.03918197 -8.7978966e-05 -0.070722215 0.019752925 0.10623414 -0.067553766 -0.080188744 -0.13986087 0.05751801 -0.0666202 -0.10559123 -0.16748361 0.09465137 -0.11144452 -0.019029472 0.019554887 -0.1769607 0.07598822 -0.07175457 -0.08557282 0.104435965 0.016851379 0.19995302 0.015274946 0.18597613 -0.15708593 0.20087878 -0.06944208 0.14646381 -0.11244034 0.019471161 -0.035653044 0.18615879 -0.11472615 -0.15774184 -0.18187013
0 -0.13089086 -0.22229996 0.011794471 -0.13133173 0.05619719 -0.057539776 0.13186368 0.043213926 0.051607687 -0.018017877 -0.018241806 0.17756268 0.06487237 0.0049991943 -0.041058365 -0.054804105 -0.12483458 -0.04253781 0.050572623 0.06461517 0.14569765 -0.06562276 0.02071922 0.022428317 0.07261861 0.0030939858 -0.076501325 0.017494155 -0.021829344 -0.077244096 -0.030527225 0.067070834 -0.17789015 -0.080340095 0.027677774 -0.058919813 0.1366645 0.11054714 0.075136036 0.016004039 -0.08186537 0.13310526 0.13138217 -0.047770474 -0.1249716 0.1932643 0.108317874 0.034112 -0.057542473 -0.008670389 -0.06905956 0.024558745 0.11885964 -0.08234303 -0.094870664 -0.17423962 0.042865433 -0.054062948 -0.11135951 -0.14779098 0.09958847 -0.115963385 -0.018388387 0.033412505 -0.14365657 0.078204736 -0.09122939 -0.08044606 0.12458286 0.0022916377 0.18754822 0.012148789 0.1818889 -0.1442515 0.18505067 -0.054124862 0.15949728 -0.10558622 0.02139247 -0.012706139 0.17623526 -0.11942748 -0.15630548 -0.17713591
52 -0.1252277 -0.21625812 0.022156393 -0.15512969 0.042924967 -0.04814749 0.13297531 0.03694693 0.04402817 -0.03519286 -0.032073118 0.19013768 0.08980383 -0.0034022802 -0.05432996 -0.078843564 -0.16300593 -0.047527783 0.053232864 0.083358735 0.18409298 -0.0767339 0.024031581 0.028663602 0.040229145 0.02199977 -0.08346397 0.03553274 -0.013007527 -0.06708053 -0.0075841243 0.065566465 -0.17304167 -0.07365403 0.014303907 -0.060279623 0.13318092 0.0888485 0.08803838 0.035581373 -0.06031578 0.12802635 0.09718363 -0.039486844 -0.11867203 0.20675077 0.095074974 0.041012757 -0.06437705 -0.018140387 -0.05585335 0.024709769 0.14555994 -0.08465561 -0.10193351 -0.1629309 0.042356774 -0.07545883 -0.11194426 -0.17761607 0.09590974 -0.106326744 -0.02574902 0.03440567 -0.15632036 0.07429192 -0.056248643 -0.06837468 0.115878195 0.011470723 0.17588778 0.025153697 0.1643452 -0.13980202 0.18417265 -0.058456223 0.12932442 -0.0965661 0.016466975 -0.03004836 0.17464466 -0.10531537 -0.16507164 -0.1647381
80 -0.098773696 -0.21117109 0.0069206012 -0.10054081 0.08471358 -0.058396067 0.16198571 0.07153111 0.059509255 -0.05611152 -0.044781942 0.19298425 0.086854234 0.0077835624 -0.043180186 -0.060446423 -0.12118929 -0.035933983 0.045450605 0.055591594 0.123193435 -0.07447024 0.01915887 0.034456316 0.08329534 0.007091511 -0.074941196 0.010476452 -0.0024925761 -0.078603305 -0.050238684 0.071226254 -0.18433276 -0.078696266 0.003047025 -0.06977849 0.1325464 0.08265962 0.07503151 0.014834075 -0.0573742 0.10803479 0.13123655 -0.042159107 -0.12239847 0.18712337 0.1054557 0.034485694 -0.045011804 -0.002813593 -0.05183087 0.01923084 0.10758227 -0.0675713 -0.0962602 -0.1773487 0.03977852 -0.068908945 -0.12283143 -0.17851362 0.116774425 -0.14503773 -0.023571167 0.054970443 -0.12680669 0.078431405 -0.077138446 -0.0703985 0.13512784 0.004922227 0.19817744 0.033407256 0.1837499 -0.1466861 0.17757684 -0.059654776 0.14412798 -0.12522191 0.02621838 -0.021513904 0.17786562 -0.12077493 -0.16818562 -0.17990664
3 -0.11047258 -0.20027317 0.022809995 -0.10597442 0.08062753 -0.06616069 0.12903446 0.066603616 0.06805646 -0.04576769 -0.013741583 0.17096476 0.060038857 0.00021095983 -0.05895192 -0.06504613 -0.13005957 -0.054396983 0.067224644 0.07059311 0.14415614 -0.061158337 0.017171767 0.043712005 0.0855295 0.017126068 -0.07957974 0.009693937 -0.018800596 -0.061746262 -0.047394037 0.06385673 -0.20404173 -0.06372268 0.019818932 -0.076686576 0.14963448 0.10818296 0.07401548 0.033755597 -0.0906915 0.12429872 0.13237534 -0.028449837 -0.13110062 0.19388151 0.108218715 0.035056192 -0.052341923 0.008115903 -0.05532159 0.015276975 0.103847206 -0.06859895 -0.07678779 -0.15692233 0.030170174 -0.060104307 -0.11204187 -0.17215823 0.09569047 -0.11098924 -0.023746828 0.04238647 -0.14223602 0.07037565 -0.060396053 -0.067443274 0.11602949 -0.0058820713 0.19051485 0.012415399 0.16660087 -0.15617424 0.17780024 -0.061880633 0.16230552 -0.12313806 0.0153235495 -0.031054333 0.1770474 -0.116070114 -0.16004165 -0.17439778
62 -0.097392626 -0.22556901 -0.0020683527 -0.15509929 0.09079043 -0.0723841 0.15572505 0.07736868 0.08224669 -0.066390604 -0.03146409 0.22400318 0.090837285 0.01596193 -0.063541465 -0.056645323 -0.14647633 -0.049770944 0.06251443 0.07933736 0.15124734 -0.060497645 0.0024499926 0.046258323 0.060113214 0.018699078 -0.068394095 0.010865337 -0.009407097 -0.08937455 -0.046081066 0.05311676 -0.19529484 -0.09204192 0.0050544147 -0.06244794 0.13200009 0.09695148 0.08622815 0.025105659 -0.058482446 0.12057418 0.11093755 -0.05644786 -0.105069034 0.16444111 0.07952916 0.036325186 -0.033745077 -0.007984725 -0.057758417 0.021093924 0.08528764 -0.053477723 -0.06048883 -0.13408569 0.053843237 -0.07140164 -0.10691871 -0.17423205 0.09985628 -0.1331171 -0.029424079 0.030621892 -0.1685423 0.0802354 -0.07461583 -0.06695905 0.11651235 0.0151186865 0.18284443 0.02624182 0.18174717 -0.14876606 0.16691895 -0.06288908 0.14760643 -0.11031359 0.018863428 -0.029786475 0.16114585 -0.10642989 -0.15180962 -0.16446288
50 -0.12330197 -0.21878271 0.010305884 -0.13179883 0.06831367 -0.058508884 0.14651428 0.04666757 0.061896008 -0.03754207 -0.016924733 0.19254765 0.057147726 0.0057757497 -0.051858317 -0.068622686 -0.12934874 -0.05266266 0.054838788 0.067472905 0.14426655 -0.05884231 0.0037728806 0.030556738 0.07468305 0.0027669242 -0.08346069 0.023012301 -0.016742686 -0.0766866 -0.04046798 0.060272124 -0.19149429 -0.07581376 0.026856814 -0.0637683 0.13430183 0.106448576 0.07631199 0.021382345 -0.06899018 0.12708047 0.11689041 -0.0427799 -0.111495346 0.18181992 0.099752285 0.027790613 -0.056008477 -0.0078749955 -0.060869206 0.023520231 0.115942344 -0.07357531 -0.08733396 -0.15718372 0.04135388 -0.060447138 -0.10641289 -0.16652459 0.09807518 -0.12099797 -0.017539576 0.029876018 -0.15022656 0.07152522 -0.07620667 -0.0808422 0.1266518 -0.0012589257 0.18691044 0.018167665 0.17065996 -0.15391114 0.18483952 -0.06029993 0.15196638 -0.11683467 0.021132976 -0.02783702 0.17171648 -0.11369829 -0.17163186 -0.17349902
18 -0.0909147 -0.18468767 -0.0043197847 -0.13777037 0.054003492 -0.03606694 0.084341 0.052617494 0.06891164 -0.034496155 -0.013114372 0.19146772 0.07184039 0.0026429812 -0.0445645 -0.05482907 -0.14057855 -0.04529607 0.05489757 0.078384295 0.16621704 -0.06171891 0.014360602 0.038397424 0.06080684 0.015139123 -0.077591635 0.012355708 -0.011558276 -0.07104007 -0.02680274 0.059554838 -0.20675631 -0.07444967 0.013915944 -0.06550054 0.1361388 0.09332613 0.0885466 0.041814204 -0.052025594 0.131334 0.09284809 -0.05870259 -0.10859019 0.17499562 0.07062771 0.043307293 -0.032025747 -0.0111621795 -0.045397773 0.00599942 0.115584865 -0.06834274 -0.07845249 -0.124474704 0.053227652 -0.07473605 -0.1096865 -0.17185865 0.096116856 -0.13206112 -0.009341545 0.04700028 -0.17602547 0.08944841 -0.061800506 -0.09052568 0.12564188 0.017644774 0.20147383 0.032337107 0.182294 -0.1605408 0.21420187 -0.056143932 0.15391277 -0.11438041 0.020961074 -0.031359546 0.17918274 -0.104326166 -0.17735098 -0.18908727
66 -0.07876621 -0.17493682 0.016140357 -0.13499697 0.05739787 -0.056303244 0.11049025 0.052043512 0.07786128 -0.055390865 -0.032687802 0.21062791 0.0877938 0.0083303675 -0.04258215 -0.034526203 -0.17131239 -0.04487795 0.075657874 0.098761916 0.17562689 -0.06543897 -0.012895934 0.027141035 0.040702935 0.017771093 -0.06422688 0.010650176 -0.007144944 -0.07603828 -0.029234264 0.050692774 -0.2019854 -0.07089814 0.009931572 -0.06754426 0.120421454 0.103602655 0.08941135 0.026000602 -0.04740859 0.12260669 0.10457186 -0.076291904 -0.10155249 0.1715331 0.062362406 0.03881606 -0.04340356 0.00092481077 -0.05592318 0.010148154 0.0929159 -0.07205707 -0.059759144 -0.11810645 0.052702118 -0.068434894 -0.10606472 -0.1779088 0.1076041 -0.13304554 -0.011091399 0.017428812 -0.18292724 0.08203782 -0.07178857 -0.08014334 0.11515233 0.03767569 0.18966235 0.011294267 0.18959205 -0.15832235 0.20775291 -0.056447502 0.14369163 -0.098047026 0.04045306 -0.042363364 0.18131223 -0.103101194 -0.1651317 -0.18802898
41 -0.09316963 -0.1807991 0.00458771 -0.12830158 0.07301603 -0.052102424 0.13201515 0.05998661 0.09170474 -0.05417404 -0.022406893 0.21975242 0.064970255 0.009406687 -0.050665047 -0.040483356 -0.14423992 -0.05182994 0.05517593 0.07897496 0.16650352 -0.06518485 -0.0025851107 0.03644538 0.06004637 0.0081378175 -0.07800314 0.006005633 -0.013371943 -0.07932146 -0.037838552 0.060270224 -0.18698175 -0.06845206 0.0163564 -0.060003083 0.121537596 0.08978106 0.06754605 0.019119328 -0.064930014 0.11673041 0.10258746 -0.055793166 -0.10243889 0.17529444 0.09093735 0.043520253 -0.041999035 -0.0032531754 -0.047018763 0.01246699 0.09811454 -0.078393884 -0.064308785 -0.1411389 0.052654702 -0.079741485 -0.11562498 -0.19186383 0.09769329 -0.11437817 -0.020930352 0.03887361 -0.16268356 0.0900812 -0.077878214 -0.08504504 0.116836436 0.019127285 0.20136456 0.016802475 0.19158211 -0.16237651 0.19644806 -0.06110975 0.14616442 -0.1064206 0.013660887 -0.025639726 0.1765771 -0.11582299 -0.16634205 -0.17801847
9 -0.10963615 -0.19974455 0.005698178 -0.12763433 0.070318386 -0.054494265 0.12319546 0.06276413 0.08972438 -0.04803524 -0.012594895 0.20763797 0.07813381 0.004810477 -0.048990466 -0.07491319 -0.15322295 -0.06206934 0.057044588 0.073455796 0.17057665 -0.06991238 0.02144064 0.03921416 0.055205908 0.041622084 -0.094848506 -0.0018405744 -0.019852834 -0.07603415 -0.042791862 0.0810003 -0.17825352 -0.083034985 0.023811338 -0.07767977 0.13807152 0.094337344 0.06593783 0.040532622 -0.08552489 0.117692865 0.107285604 -0.02897634 -0.10016743 0.17496702 0.08425681 0.028093517 -0.055271737 -0.01384349 -0.06964521 0.016485078 0.10837516 -0.06415335 -0.081877746 -0.14883295 0.042949725 -0.06831589 -0.10272915 -0.1838824 0.116176136 -0.11941579 -0.030894285 0.036123488 -0.14503956 0.061959147 -0.053449187 -0.0606428 0.10771679 0.014934075 0.190345 0.02075911 0.17934316 -0.15937565 0.17263164 -0.06459312 0.14534068 -0.113841884 -0.005414235 -0.027159104 0.18168859 -0.10350922 -0.14156115 -0.15849575
37 -0.11880934 -0.21412158 0.016141566 -0.14728501 0.06771569 -0.051384196 0.11921936 0.05726804 0.08202934 -0.04679028 -0.027767567 0.20775431 0.07713399 0.0015164426 -0.04773369 -0.05618286 -0.12881394 -0.045842417 0.061666317 0.05829857 0.14936772 -0.06354375 0.0063410127 0.032486316 0.053748656 0.02615169 -0.06864226 0.01034688 -0.002980241 -0.071702674 -0.041038748 0.07019347 -0.20006678 -0.077444896 0.027092904 -0.0789751 0.12102446 0.08191236 0.076102115 0.017302621 -0.06858524 0.12529883 0.11045078 -0.055841543 -0.11214992 0.16763812 0.07530721 0.042820055 -0.04246305 -0.0072064716 -0.057714105 0.012855362 0.107364774 -0.063330166 -0.07576588 -0.14063844 0.06054708 -0.061853334 -0.106443286 -0.16853987 0.08765033 -0.11165259 -0.026888108 0.029831262 -0.16976482 0.0826153 -0.06730414 -0.06986604 0.10570546 0.02709462 0.19927664 0.022479925 0.18248253 -0.15384555 0.19419375 -0.05980272 0.13836801 -0.113869384 0.02650535 -0.028910559 0.17431206 -0.11823898 -0.14935598 -0.16655867
69 -0.06479788 -0.16136296 0.0035278501 -0.11938939 0.057633974 -0.048486788 0.114325285 0.060092412 0.06243924 -0.045603484 -0.020624897 0.19308744 0.072422765 0.007879631 -0.04317434 -0.048354782 -0.1646329 -0.049588006 0.070287645 0.09503409 0.16115718 -0.052590396 0.00030824897 0.019984273 0.036622904 0.015696537 -0.07390887 0.004432187 -0.024575751 -0.058395263 -0.030430194 0.04722726 -0.20566908 -0.07213679 0.021050181 -0.07421788 0.14332506 0.10649142 0.075207956 0.03216456 -0.039854422 0.13011505 0.114161976 -0.072938554 -0.103877984 0.17781751 0.08142005 0.029784054 -0.034376312 -0.008409939 -0.051377274 0.011480397 0.09168121 -0.0783538 -0.07399574 -0.123300225 0.0625363 -0.071748346 -0.117211096 -0.19353168 0.112667575 -0.13545635 -0.008171854 0.028930679 -0.18501909 0.09019608 -0.077710465 -0.09141102 0.11302165 0.016156862 0.18225786 0.02758415 0.17890102 -0.16443709 0.20962937 -0.05248075 0.14455941 -0.104852155 0.020462703 -0.043455638 0.19829643 -0.090326376 -0.17181104 -0.16945697
13 -0.09548277 -0.2230415 0.0013040219 -0.15627836 0.08758949 -0.048179023 0.15442169 0.07456249 0.06680623 -0.043301407 -0.032844137 0.19932136 0.071025096 0.0039251945 -0.045520816 -0.044474896 -0.14246099 -0.042609546 0.03937623 0.06553909 0.16435191 -0.05857231 0.007833427 0.029515345 0.03725629 0.008077648 -0.06386199 0.017239103 -0.01049606 -0.07523438 -0.044679634 0.05969298 -0.18414395 -0.07494919 0.02124963 -0.06891463 0.12863736 0.095386766 0.06465484 0.01014262 -0.06189614 0.12664579 0.11176749 -0.06045355 -0.114601694 0.19827393 0.106403194 0.026533132 -0.039754532 -0.0031355736 -0.05690896 0.028307075 0.0937612 -0.07086412 -0.071403734 -0.14557788 0.04301065 -0.07574572 -0.10122847 -0.16905068 0.1042056 -0.1080033 -0.028311675 0.028389445 -0.14383146 0.08212906 -0.07338357 -0.07989369 0.11453704 0.00856831 0.18712464 0.026145352 0.1735768 -0.16370064 0.19028129 -0.061624333 0.14722316 -0.10215339 0.010354128 -0.021986764 0.1661414 -0.10488046 -0.16300413 -0.16146334
15 -0.1316168 -0.23440507 0.032789152 -0.1401177 0.092863895 -0.049351167 0.15795484 0.048980568 0.06281117 -0.053416315 -0.001290724 0.20186049 0.06884393 0.01802321 -0.050982237 -0.079008654 -0.17444533 -0.079602584 0.070300855 0.078556366 0.18890926 -0.073168576 0.0045813005 0.052370008 0.07838495 0.014944966 -0.10482032 0.023240054 -0.00987348 -0.07588032 -0.048885517 0.07030557 -0.17785801 -0.057786513 0.022155374 -0.06279492 0.11453371 0.09503286 0.081871234 0.032053288 -0.08002975 0.102856316 0.10175668 -0.030595882 -0.08897876 0.16153969 0.06686852 0.009752143 -0.055294756 0.008752211 -0.056526493 0.015247285 0.09944442 -0.058861263 -0.08469949 -0.15098624 0.01900757 -0.06993398 -0.07999837 -0.15089777 0.09771796 -0.10679474 -0.018002825 0.02124797 -0.14474174 0.081425354 -0.07347793 -0.093557455 0.12083171 0.00018992985 0.18721311 0.014424474 0.15888973 -0.17076059 0.1948981 -0.06380813 0.1617105 -0.11540775 0.004460761 -0.034110725 0.1566052 -0.1063765 -0.16171905 -0.16600086
26 -0.09948474 -0.17221084 0.01090324 -0.12235016 0.070685335 -0.04792988 0.11847561 0.043403257 0.074814804 -0.04384466 -0.0048683477 0.19732274 0.075372815 0.0030073936 -0.058934037 -0.0722157 -0.13808519 -0.06585726 0.057613336 0.07385482 0.16065991 -0.0632367 0.012064095 0.04851298 0.06170899 0.020459075 -0.0828199 0.0064278543 -0.016458774 -0.06328641 -0.034329757 0.06729415 -0.17848058 -0.07481207 0.015830372 -0.073312044 0.13731505 0.10055376 0.07497477 0.018339286 -0.08406523 0.13099587 0.10287408 -0.043376986 -0.114271015 0.18998699 0.09305038 0.027688704 -0.046196815 -0.0011080288 -0.055882305 0.02028114 0.10350693 -0.08335952 -0.07140835 -0.15529023 0.049462326 -0.0798166 -0.11486554 -0.19254884 0.10895699 -0.1180616 -0.026699372 0.04212383 -0.14988355 0.078269996 -0.071543075 -0.08473352 0.111989886 0.012031597 0.20276254 0.023792176 0.17313 -0.1673026 0.20287596 -0.07063966 0.14661968 -0.109687686 0.0023749871 -0.016593998 0.15758277 -0.101375796 -0.15409595 -0.1605493
45 -0.10198549 -0.20428021 0.005035152 -0.13601722 0.07247089 -0.05012631 0.1280657 0.055971254 0.0787274 -0.039904483 -0.041091446 0.1934035 0.08005374 0.00073776627 -0.057921123 -0.04732012 -0.12312184 -0.040223185 0.0502294 0.072296046 0.1360685 -0.06881003 -0.0015717332 0.02906835 0.053777356 0.018626178 -0.056712594 0.003295241 -0.005803453 -0.07976001 -0.046930198 0.069834426 -0.19494152 -0.08405955 0.01354408 -0.068078525 0.11722766 0.08490209 0.07725829 0.004229712 -0.07092757 0.13107862 0.12319674 -0.06102966 -0.11859919 0.17482379 0.09190942 0.044666484 -0.031431276 -0.008805426 -0.059023045 0.015285154 0.100393474 -0.07326218 -0.070410796 -0.1516778 0.05727386 -0.06829965 -0.11663879 -0.17844576 0.09595437 -0.12920108 -0.027769186 0.028413197 -0.16637254 0.09045282 -0.080191255 -0.0751317 0.10825397 0.022266187 0.19441156 0.031812813 0.1916484 -0.15285619 0.18457158 -0.04904805 0.14428507 -0.10937424 0.03423755 -0.0327373 0.18179785 -0.122032814 -0.1543173 -0.16414866
76 -0.10117785 -0.20050097 -0.0059454264 -0.1281857 0.08448687 -0.06376304 0.11510923 0.06438931 0.09253966 -0.04979585 -0.02219891 0.20083693 0.06132029 -0.0054709595 -0.035505008 -0.049054094 -0.13396572 -0.03800897 0.070246026 0.07928821 0.14420475 -0.056836452 0.005985685 0.01757091 0.051548082 0.017011667 -0.07701878 -0.0010250686 -0.015276864 -0.07867752 -0.038633883 0.071286745 -0.2187147 -0.064433955 0.029033681 -0.060349163 0.12637955 0.093846776 0.07954516 0.027452601 -0.06474619 0.11549689 0.10637715 -0.054122195 -0.11095787 0.16671701 0.07965423 0.04386893 -0.028221376 0.005472407 -0.060421817 0.012675565 0.09999681 -0.065394305 -0.07844052 -0.13575447 0.062489193 -0.06514679 -0.11377641 -0.17801927 0.10552326 -0.12672532 -0.028629996 0.036461495 -0.16842407 0.07864822 -0.065688185 -0.082397446 0.108830735 0.018028261 0.20598923 0.02180701 0.18416451 -0.16190961 0.19568788 -0.049869694 0.14635946 -0.11144733 0.02084558 -0.03545269 0.18946376 -0.10527328 -0.17449947 -0.18175024
42 -0.094340995 -0.15900356 0.016117614 -0.11080481 0.064101756 -0.05233787 0.1017504 0.03645195 0.06433833 -0.023659702 -0.015772453 0.17524323 0.06821448 -0.0015123453 -0.045448985 -0.05815036 -0.13496071 -0.05447281 0.05655057 0.07093781 0.14025007 -0.0553822 0.0047150687 0.033216823 0.06486242 0.005917194 -0.06414358 0.017743694 -0.017955847 -0.07407109 -0.04411367 0.069777176 -0.19656293 -0.0809437 0.018287731 -0.07526317 0.13552634 0.09068333 0.08202988 0.008267517 -0.08031728 0.15332875 0.12596653 -0.05622515 -0.12461103 0.20361006 0.0953333 0.038352165 -0.053915493 -0.007500073 -0.06521035 0.022705177 0.1273106 -0.08117132 -0.08864702 -0.1670298 0.04896029 -0.07470307 -0.11742151 -0.19525397 0.09839981 -0.118502475 -0.030256052 0.030585919 -0.14417823 0.079204194 -0.073880896 -0.08343695 0.111815326 0.009057442 0.18452078 0.016113471 0.1842167 -0.15896454 0.18985778 -0.054125447 0.15529166 -0.10466361 0.019959414 -0.02749155 0.17751047 -0.11775433 -0.18035473 -0.1813114
32 -0.12341912 -0.22447044 0.014615231 -0.14066787 0.07749816 -0.064607464 0.1447313 0.053889167 0.071145035 -0.04794407 -0.020267518 0.2335834 0.08141838 -0.0054823756 -0.054709285 -0.08010745 -0.15819928 -0.059958935 0.072691455 0.09061518 0.15825863 -0.063944265 0.0039180573 0.022213325 0.05804668 0.015055357 -0.08612534 0.027692322 -0.006458118 -0.067756504 -0.036556594 0.06028783 -0.15470086 -0.05975406 0.012496355 -0.0551114 0.1254459 0.09020443 0.06648322 0.012799507 -0.071873486 0.12245263 0.10054405 -0.046459924 -0.11435431 0.17328574 0.080922805 0.03282784 -0.052548748 -0.013598975 -0.0666032 0.027674848 0.121510714 -0.06485386 -0.10396264 -0.16312492 0.04951353 -0.063104205 -0.10762033 -0.16774125 0.09641873 -0.11731988 -0.028975664 0.031695012 -0.16058582 0.06457014 -0.066342466 -0.07317381 0.1088855 0.004194174 0.18749163 0.020209534 0.1666414 -0.14136343 0.19014035 -0.05231048 0.14251274 -0.10173235 0.023983967 -0.022213161 0.16320617 -0.11174132 -0.15470302 -0.17178184
16 -0.10530068 -0.18223238 0.014331311 -0.10534585 0.07022076 -0.051663473 0.12613611 0.054875053 0.05717962 -0.025968336 -0.009680041 0.1557854 0.060116284 0.014808123 -0.0327673 -0.069477856 -0.1325417 -0.060367405 0.052278515 0.053107105 0.15295325 -0.06418045 0.025723208 0.032795604 0.07204571 0.019709188 -0.08622919 0.009693081 -0.02069538 -0.0676283 -0.041337445 0.078737326 -0.18497336 -0.0772092 0.020895235 -0.06812935 0.15057813 0.103886604 0.074409224 0.033352852 -0.098844826 0.13714533 0.12286063 -0.03870368 -0.121161066 0.20169635 0.10633649 0.030951336 -0.056882057 0.004001643 -0.066090286 0.02273645 0.13056666 -0.073960505 -0.101491 -0.17641434 0.039885603 -0.08321873 -0.11254934 -0.19212724 0.122629754 -0.12908994 -0.034148514 0.036972754 -0.13505939 0.07823161 -0.07007683 -0.079625726 0.11378298 -0.005433249 0.20632753 0.014149841 0.16724879 -0.16758747 0.1903536 -0.061639648 0.15925364 -0.12532815 -0.00062148867 -0.027358433 0.17957659 -0.116175935 -0.16087526 -0.16345501
12 -0.112303674 -0.18770774 -0.0063259276 -0.14274281 0.053299103 -0.056915693 0.09779833 0.04356616 0.08244444 -0.03147659 -0.0038405457 0.20856729 0.05347158 0.008166954 -0.037031744 -0.055743974 -0.13996837 -0.050495148 0.061066344 0.06688187 0.18069878 -0.058631282 0.0012667439 0.016716523 0.050896212 0.009561118 -0.089484066 0.00961585 -0.020302204 -0.07351816 -0.02417722 0.07121731 -0.20692484 -0.0698593 0.034611907 -0.06436083 0.14217204 0.11220069 0.074725874 0.03594017 -0.07905404 0.12569535 0.10039287 -0.056965154 -0.10179141 0.16900195 0.08045965 0.040475626 -0.05209083 -0.008858465 -0.064060085 0.019562194 0.1200095 -0.075993516 -0.08583495 -0.12408921 0.05060874 -0.06330463 -0.09676804 -0.16443032 0.10145652 -0.11085107 -0.014957294 0.033772502 -0.17564544 0.077686496 -0.058722366 -0.08931422 0.11645359 0.022056485 0.2020044 0.01622523 0.1806292 -0.1576741 0.20391247 -0.0541213 0.14957395 -0.10996589 0.017925441 -0.025349753 0.18425852 -0.10737117 -0.16416124 -0.1691878
6 -0.11282792 -0.19880076 0.020219546 -0.111934334 0.065184385 -0.05112354 0.12708132 0.04550751 0.061119672 -0.031929705 -0.0044830013 0.188095 0.069520995 0.0017301694 -0.046651993 -0.07688145 -0.14011177 -0.063687384 0.06714955 0.0705206 0.16060291 -0.07318255 0.011185402 0.04122335 0.08958331 0.015619457 -0.087774135 0.018095208 -0.013538836 -0.058576673 -0.038229015 0.07155859 -0.18820354 -0.06951982 0.023320347 -0.07309598 0.14592853 0.108267054 0.073637046 0.026058475 -0.09773181 0.1395089 0.12497172 -0.046805155 -0.13439468 0.21363182 0.107071064 0.026050363 -0.05531884 -0.002069505 -0.064094946 0.032269254 0.120520875 -0.08272894 -0.08754038 -0.1737853 0.032787517 -0.07436558 -0.0941001 -0.17933208 0.10370288 -0.11168431 -0.024142835 0.044744015 -0.1357726 0.06255873 -0.064759396 -0.07081877 0.10525775 -0.0046314793 0.18253711 0.010830212 0.14954376 -0.14467116 0.17981862 -0.06396814 0.14505818 -0.10162882 0.008278199 -0.020712007 0.15651397 -0.11005485 -0.15535328 -0.17076208
75 -0.098885745 -0.19516066 0.00429231 -0.14205657 0.07054611 -0.053077485 0.15216741 0.046031807 0.07062572 -0.052860335 -0.024787925 0.22959453 0.075847544 0.017425153 -0.06103183 -0.070698634 -0.14535233 -0.056915607 0.062165074 0.09431716 0.16386269 -0.06858952 -0.011451352 0.03130071 0.05345678 0.0038750835 -0.07640007 0.020592868 -0.014217261 -0.07046969 -0.021437716 0.058569025 -0.16540152 -0.071221836 0.017427586 -0.05645592 0.13046141 0.0997595 0.07493067 0.02705553 -0.051476963 0.10862905 0.10109803 -0.05552543 -0.0888991 0.1614042 0.096678704 0.023030097 -0.048507396 -0.011037589 -0.04828581 0.02145798 0.1038299 -0.07754291 -0.07000457 -0.1404642 0.044289283 -0.07592098 -0.111153394 -0.18266645 0.10142825 -0.12857251 -0.00782615 0.030599754 -0.16361167 0.076687686 -0.07519484 -0.08517489 0.1221298 0.004469044 0.19119641 0.019933341 0.18326375 -0.16302717 0.19415864 -0.07284274 0.15282916 -0.10004376 0.016222643 -0.029576095 0.18393476 -0.11081153 -0.16934998 -0.18065628
48 -0.103068106 -0.18279342 0.017242316 -0.1458743 0.058712207 -0.0606561 0.1267271 0.034517974 0.09519456 -0.057585493 -0.026101885 0.25364497 0.09508859 -0.002272011 -0.05541676 -0.07939727 -0.17933516 -0.06484364 0.08286616 0.090578 0.17096151 -0.075617604 -0.024311263 0.030302295 0.047777787 0.017211284 -0.08305517 0.00029989783 -0.009338437 -0.06691847 -0.023497347 0.05070858 -0.18716018 -0.075968124 0.018540641 -0.06472827 0.13111281 0.09388133 0.08810174 0.017061103 -0.057381943 0.12877087 0.1086218 -0.06260785 -0.10099871 0.19696371 0.071919896 0.033490594 -0.053636957 -0.009096297 -0.045924716 0.0001086739 0.104692504 -0.06925929 -0.07122912 -0.11998684 0.065578826 -0.06356352 -0.102565445 -0.18877214 0.09752448 -0.11682303 -0.017614499 0.019613296 -0.16728693 0.06208542 -0.06587286 -0.066529594 0.099726744 0.034396064 0.17393154 0.0049052355 0.16018045 -0.13289647 0.19142182 -0.04962709 0.12873109 -0.10612223 0.024978604 -0.034084715 0.1748249 -0.099125385 -0.1455168 -0.17824237
51 -0.08983876 -0.19724421 -0.011434791 -0.13428293 0.06796047 -0.055609036 0.10417279 0.059980836 0.069674686 -0.032076355 -0.024745012 0.1778844 0.066795684 -0.00073754194 -0.04893042 -0.061381802 -0.1253208 -0.039645657 0.060100682 0.07094426 0.1257434 -0.05861366 0.021783676 0.025654815 0.06881138 0.020361966 -0.06126848 0.0003431004 -0.018319624 -0.05554849 -0.03045931 0.060609993 -0.21104756 -0.08523164 0.02129011 -0.06423475 0.15086095 0.09736288 0.06794561 0.036535 -0.058184545 0.12714803 0.10968929 -0.058290258 -0.11260691 0.17343058 0.10472507 0.032448404 -0.02233937 -0.002106941 -0.050670877 0.015168536 0.101734184 -0.08543238 -0.075322405 -0.13439661 0.060769264 -0.0763622 -0.112116575 -0.18428016 0.10934544 -0.1444499 -0.0033099356 0.071830586 -0.16902655 0.08159683 -0.071516745 -0.07243673 0.11108268 0.00016790141 0.19780438 0.02797459 0.17327008 -0.15939109 0.17515337 -0.079391375 0.16115524 -0.11945851 0.00065240054 -0.025729148 0.19382401 -0.107929744 -0.16847663 -0.18204188
47 -0.08865927 -0.2054795 -0.00050100876 -0.1487138 0.061764296 -0.05065425 0.107627444 0.06846657 0.06745398 -0.046574622 -0.03275691 0.20605004 0.0826028 -0.015106856 -0.034737457 -0.044281546 -0.14253215 -0.037183717 0.057490323 0.0698405 0.14552347 -0.054321513 0.0068263086 0.026843159 0.03921866 0.019512199 -0.048419517 0.016985461 -0.010324069 -0.065894306 -0.039355624 0.053684067 -0.1761713 -0.076696165 0.016617019 -0.06280926 0.117026925 0.077773705 0.06461348 0.022337653 -0.040196847 0.11893799 0.092213474 -0.06188725 -0.10658999 0.16831651 0.05981063 0.03660111 -0.03636193 0.0012348065 -0.0526615 0.015103051 0.09721544 -0.069812045 -0.073466 -0.12956652 0.052882887 -0.06832711 -0.09924548 -0.18239294 0.103486165 -0.13691281 -0.021718856 0.034314465 -0.19550084 0.08261181 -0.064989634 -0.07162026 0.11560863 0.024656322 0.20597275 0.026215445 0.18987712 -0.15410697 0.20068856 -0.07184536 0.14373437 -0.12237312 0.025961943 -0.04796575 0.20638995 -0.11773667 -0.18811895 -0.20063195
24 -0.11286954 -0.23933192 0.029476557 -0.14615557 0.08574734 -0.058073748 0.1386424 0.06534604 0.07926321 -0.05197198 -0.013554753 0.22734655 0.083320394 -0.0048579318 -0.069719955 -0.07357892 -0.14383262 -0.05526904 0.07136087 0.08683556 0.17264228 -0.0620314 0.0054518185 0.053603623 0.06945196 0.023623284 -0.084094144 0.0061511355 -0.012252174 -0.066005126 -0.043562446 0.054799784 -0.2092242 -0.06771327 0.018818501 -0.07508823 0.13629422 0.09101079 0.0809118 0.020840976 -0.058078825 0.11993239 0.1060023 -0.029273048 -0.108156994 0.1626 0.079674035 0.044395898 -0.053222407 -0.015152979 -0.038938694 0.014098811 0.09222291 -0.060492057 -0.058415614 -0.13505441 0.046594292 -0.053555973 -0.110937536 -0.17348829 0.09228277 -0.11064497 -0.01610506 0.040629845 -0.16254053 0.07508487 -0.06734613 -0.07273496 0.11954809 0.004772184 0.18710147 0.024403997 0.16844565 -0.15518485 0.18608376 -0.06050613 0.14561519 -0.11400926 0.018522719 -0.02081235 0.15993658 -0.10650381 -0.15660062 -0.15982644
17 -0.1275075 -0.20423372 0.016480828 -0.12850775 0.0587073 -0.050108958 0.11968598 0.05410229 0.091797456 -0.04191567 -0.02272486 0.22443213 0.098195665 0.017781785 -0.074379094 -0.06501861 -0.14693306 -0.064074844 0.06402578 0.078947686 0.17907825 -0.08106911 0.020085562 0.054468907 0.071170665 0.027978433 -0.079745606 0.00059043965 -0.014789088 -0.075917855 -0.031180054 0.08276424 -0.19894068 -0.09193739 0.016520374 -0.07520139 0.15407513 0.10493079 0.084527865 0.041773397 -0.093494974 0.13531193 0.1118338 -0.036072034 -0.11261814 0.19089398 0.104384795 0.045170587 -0.05677256 -0.011505149 -0.05039465 0.004788563 0.11626051 -0.08248927 -0.06535498 -0.15575252 0.03134683 -0.06737109 -0.109397806 -0.18275285 0.096753925 -0.10926654 -0.02060878 0.032812104 -0.119975716 0.06977361 -0.06325074 -0.064429395 0.099697895 0.01844665 0.18473063 0.008260881 0.16436122 -0.1475382 0.16325529 -0.05164295 0.1296616 -0.10989672 0.003901813 -0.02134908 0.16055366 -0.1148298 -0.13126133 -0.15224858
55 -0.08746326 -0.15644726 0.0037713954 -0.112970024 0.048716553 -0.056871057 0.10108281 0.038089577 0.08877305 -0.041265946 -0.0114510665 0.19112208 0.058882363 0.0081634335 -0.04007109 -0.056294095 -0.15655753 -0.053690292 0.06179959 0.08071323 0.15697436 -0.061480828 -0.0035196703 0.027785838 0.06717417 0.016786579 -0.07704812 0.0008980152 -0.012808363 -0.079353176 -0.035462283 0.058705837 -0.1951227 -0.07859334 0.028480558 -0.06381166 0.12417837 0.10086007 0.08315906 0.026812762 -0.061449535 0.13082296 0.10963394 -0.055704534 -0.09470542 0.17742336 0.07895325 0.03199343 -0.043276813 0.00039503106 -0.055612758 0.013489489 0.10916172 -0.08200701 -0.070717975 -0.12218986 0.056979593 -0.07384071 -0.104900934 -0.1892449 0.10935704 -0.12926687 -0.008426381 0.03200707 -0.16512589 0.07502683 -0.06789992 -0.07999249 0.119973645 0.02256958 0.20299673 0.012621563 0.19370459 -0.16281188 0.20181324 -0.06643357 0.14905529 -0.113586806 0.021577857 -0.03163137 0.18727173 -0.11120666 -0.16863228 -0.1917315
43 -0.08044175 -0.17731003 -0.005325001 -0.14693286 0.069072604 -0.05919717 0.109097265 0.069508955 0.100179516 -0.052471902 -0.018426059 0.22653197 0.075555936 -0.0017641212 -0.046471905 -0.067519814 -0.14526363 -0.040411666 0.05726743 0.079644315 0.1641625 -0.04305745 0.0074828994 0.039164074 0.046410266 0.024740556 -0.07983094 0.0072725406 -0.020388303 -0.06010834 -0.023772819 0.052930444 -0.2215941 -0.06850958 0.028092233 -0.06562953 0.12384691 0.08913132 0.09230184 0.040020883 -0.020912323 0.10824514 0.08835834 -0.049568485 -0.08950199 0.15112121 0.06672735 0.038876817 -0.03929071 -0.005701155 -0.030105941 0.0074728047 0.0841514 -0.059136648 -0.06337565 -0.10237915 0.06678271 -0.06765927 -0.11148868 -0.19077817 0.1013863 -0.11440905 -0.015479494 0.05623405 -0.1906267 0.084662 -0.05523766 -0.07536297 0.12281219 0.021058824 0.20271279 0.036852457 0.18960415 -0.16717091 0.1948758 -0.07924108 0.14876321 -0.11993405 0.0030601767 -0.0343138 0.20404334 -0.098876104 -0.18596831 -0.18968858
46 -0.10304978 -0.20364165 0.009552556 -0.13212903 0.07762008 -0.055210408 0.13645674 0.06522978 0.07462457 -0.04683805 -0.016796263 0.2087261 0.07193596 0.0028701234 -0.047278047 -0.059204675 -0.14296025 -0.048455708 0.053237572 0.08061423 0.14890653 -0.065144874 0.0036040822 0.03653339 0.06724824 0.003160309 -0.07607853 0.008069472 -0.01407074 -0.08187408 -0.045845747 0.06478144 -0.2092247 -0.07581532 0.015955536 -0.07079518 0.1289825 0.09401779 0.08395426 0.026374953 -0.058482252 0.12239689 0.11619949 -0.05851444 -0.11087535 0.1756351 0.07932159 0.03728548 -0.04365897 -0.0036373867 -0.04553187 0.018992526 0.10181702 -0.068830445 -0.07656239 -0.12938268 0.04503552 -0.067034654 -0.1039392 -0.17469372 0.09475345 -0.12212319 -0.021866767 0.035612993 -0.1556273 0.07284015 -0.069122836 -0.08336744 0.119210765 0.01379595 0.17964152 0.021341726 0.18049224 -0.15003552 0.19184966 -0.06089647 0.13562194 -0.11308472 0.019520419 -0.039025273 0.18139145 -0.111958414 -0.17718728 -0.18378228
49 -0.077479266 -0.15139095 0.009587914 -0.10877584 0.060157854 -0.053590756 0.09327472 0.035166632 0.091640495 -0.05551981 -0.01280924 0.2151539 0.057585917 -0.012888751 -0.05035488 -0.052990083 -0.1453292 -0.046377786 0.06622314 0.07658669 0.14367507 -0.061882462 -0.0126093505 0.018909058 0.049158875 0.0131795285 -0.06976752 0.0059602987 -0.006459366 -0.08173937 -0.050783884 0.060896836 -0.19668981 -0.07101478 0.020786798 -0.060266543 0.11499735 0.08765798 0.07537973 0.00983157 -0.06215553 0.13469829 0.116734 -0.055247117 -0.110003315 0.17445216 0.05939585 0.038176067 -0.04252737 0.0038696916 -0.06557396 0.0029901464 0.104294114 -0.06351956 -0.072667785 -0.13518603 0.06761178 -0.060635302 -0.11077869 -0.18434848 0.085459 -0.12029163 -0.02203242 0.011613413 -0.18658137 0.07046068 -0.068585455 -0.08686908 0.11091345 0.023081483 0.2024692 0.01111129 0.19843772 -0.16034262 0.2138681 -0.055731382 0.15531994 -0.11478505 0.03698206 -0.043569293 0.1814791 -0.112549365 -0.17685115 -0.19432439
10 -0.12776731 -0.22967881 0.009031333 -0.1260836 0.079364724 -0.048479367 0.1521103 0.06165902 0.06656775 -0.03771957 -0.009338348 0.18600674 0.0639038 0.0073943455 -0.05464141 -0.068615615 -0.1402286 -0.06147737 0.05841633 0.07224583 0.1654979 -0.07447495 0.02397816 0.041534748 0.06349512 0.019782392 -0.08893134 0.015944943 -0.016445648 -0.07524689 -0.04749828 0.07753978 -0.1480627 -0.063129015 0.0071730893 -0.07236629 0.1469716 0.090176806 0.06070252 0.023936136 -0.100162745 0.12124497 0.11452508 -0.021291194 -0.11396165 0.20397569 0.113963075 0.02109065 -0.051028818 -0.016549712 -0.0706825 0.028333558 0.12699206 -0.07153737 -0.11078211 -0.1702316 0.032600872 -0.08398683 -0.11007548 -0.17127028 0.11352589 -0.1218363 -0.04394134 0.0436259 -0.12328996 0.066651024 -0.06879938 -0.08074089 0.10713606 -0.006495469 0.1990357 0.018761935 0.17789635 -0.16021025 0.17680666 -0.05995814 0.15229201 -0.11260827 -0.015448326 -0.018459238 0.15779623 -0.11616013 -0.14500259 -0.14359601
64 -0.07310937 -0.15398918 0.0023816072 -0.10661777 0.07023518 -0.041817967 0.13410118 0.05779864 0.06878871 -0.04564389 -0.023676455 0.19566056 0.07238449 0.0059124767 -0.033453587 -0.038950756 -0.14143623 -0.04756427 0.045792352 0.05731907 0.15719137 -0.06398432 -0.0062642125 0.022862174 0.06126277 0.0026063516 -0.05908655 0.013149063 0.0038376492 -0.07535708 -0.050548013 0.06476694 -0.18950346 -0.07336645 0.014847118 -0.07024605 0.12918232 0.0914281 0.084185325 0.024666457 -0.054773685 0.11677138 0.09783527 -0.066948414 -0.117403165 0.19695882 0.087084986 0.033530816 -0.04135861 0.006375057 -0.04614703 0.010507946 0.101447046 -0.06801448 -0.07184345 -0.1448867 0.041227642 -0.09024953 -0.10399444 -0.1931066 0.10762576 -0.12670088 -0.02951286 0.03465065 -0.16311276 0.09359076 -0.06992969 -0.0885809 0.1313039 0.02173707 0.21943022 0.029726513 0.19207004 -0.17579436 0.21710087 -0.059423 0.14670561 -0.11136559 0.03264963 -0.04198468 0.17898683 -0.10716212 -0.17241348 -0.19093934
77 -0.068990044 -0.18265812 0.016419813 -0.11727725 0.066226184 -0.04148983 0.11506507 0.062526576 0.03478072 -0.03818906 -0.026510738 0.1729182 0.06541761 -0.0076721576 -0.028679663 -0.021417478 -0.13162553 -0.029701402 0.05153898 0.07314816 0.14589284 -0.062187813 0.0035191318 0.023956068 0.02661958 0.017540338 -0.05722415 0.0215282 -0.009453602 -0.07764167 -0.038378358 0.055439014 -0.18471412 -0.07265857 0.0018973025 -0.08301375 0.1417757 0.10091773 0.07228065 0.010253959 -0.047222283 0.14071776 0.12877344 -0.07311568 -0.135269 0.18497157 0.08647758 0.05201306 -0.038256858 -0.019384272 -0.07312289 0.025947783 0.09926353 -0.07247189 -0.08176374 -0.15833841 0.06292048 -0.07064658 -0.12564278 -0.17279662 0.10777054 -0.13542093 -0.032132585 0.028715976 -0.18948735 0.08932388 -0.0839121 -0.08366467 0.12569022 0.021994254 0.18706153 0.03527564 0.21160404 -0.16632015 0.22543156 -0.05256368 0.14684841 -0.10434029 0.02224195 -0.03351809 0.18926114 -0.097792916 -0.16948569 -0.17639734
5 -0.09089991 -0.18103324 0.0015908823 -0.12907317 0.073403664 -0.06280105 0.124994874 0.05302109 0.073589854 -0.046800386 -0.009117131 0.18440855 0.064019166 0.0051081884 -0.033532314 -0.06557964 -0.14768013 -0.05829554 0.05475734 0.0680104 0.14863479 -0.05043695 0.0047003147 0.03600426 0.056513093 0.021574792 -0.07104565 0.012406283 -0.015563934 -0.07042581 -0.035806455 0.0588951 -0.17380989 -0.06456097 0.018881649 -0.06835145 0.13392687 0.09219256 0.07472936 0.02593863 -0.070544794 0.12922302 0.10553848 -0.04784835 -0.10965167 0.1770652 0.081233844 0.023196971 -0.042877637 0.0018190467 -0.06443458 0.026431138 0.114603125 -0.08143245 -0.08093335 -0.13922937 0.04923811 -0.083165266 -0.10174461 -0.1850711 0.10201089 -0.12335628 -0.014447672 0.040011045 -0.16044986 0.08076171 -0.06849187 -0.07851193 0.11489718 0.0062792925 0.20173934 0.01462429 0.17522478 -0.17928267 0.1875701 -0.07697891 0.16213344 -0.13361506 0.0016283464 -0.029494606 0.18708818 -0.113864414 -0.16865216 -0.17627142
71 -0.07414483 -0.1770171 -0.0018585131 -0.11360129 0.072064705 -0.04902128 0.12961796 0.060851622 0.07918746 -0.046736054 -0.034509342 0.19252513 0.075828984 0.0064554047 -0.032728158 -0.054009672 -0.14723271 -0.05010356 0.0565589 0.07211538 0.13622488 -0.06405961 -0.0024433157 0.022040626 0.055541098 0.015597927 -0.06552518 0.010015908 -0.0014538032 -0.07016121 -0.05144694 0.057197638 -0.17752834 -0.07208012 0.015643474 -0.06511086 0.12276336 0.08626316 0.07370794 0.014767217 -0.063993126 0.11030999 0.1144577 -0.069889136 -0.1049551 0.18800166 0.09546879 0.022177055 -0.034906987 0.0067530246 -0.0666544 0.016766235 0.0986254 -0.08009465 -0.08560346 -0.15008374 0.049116667 -0.07386147 -0.09808634 -0.17887175 0.12307861 -0.13907358 -0.027398176 0.04424643 -0.17042758 0.09273256 -0.07266941 -0.0772439 0.113130786 0.014387216 0.20810059 0.030035635 0.19082478 -0.16175355 0.20526086 -0.06603391 0.15846272 -0.1244768 0.020294558 -0.035247806 0.20516552 -0.11835658 -0.16462922 -0.19455576
21 -0.11267647 -0.16027394 0.016173363 -0.13402665 0.044960104 -0.042725742 0.094750725 0.01189873 0.07367695 -0.030228017 -0.017728105 0.20994264 0.06866101 -0.0030721778 -0.06540066 -0.07473475 -0.13646771 -0.055379912 0.06632211 0.07912546 0.15099484 -0.06438028 -0.007863182 0.044278584 0.05761546 0.014201619 -0.06585027 0.016542934 -0.007892171 -0.07835832 -0.01161153 0.059706785 -0.18844807 -0.08286073 0.011209071 -0.055213332 0.13408098 0.09955498 0.099375375 0.02237793 -0.07631488 0.15456824 0.11316952 -0.04406367 -0.11344858 0.18890859 0.09219004 0.042278472 -0.051899437 -0.018195508 -0.04388413 0.005237452 0.1232279 -0.07912351 -0.06819509 -0.15220681 0.062623285 -0.077785194 -0.12790166 -0.17282586 0.07046727 -0.104928166 -0.010896742 0.036037967 -0.1632167 0.07660077 -0.08429941 -0.08116568 0.10826882 0.0090223625 0.21109152 0.014616529 0.19200724 -0.15064271 0.1981067 -0.07191802 0.15038301 -0.11052827 0.010926151 -0.00944425 0.16014937 -0.12395453 -0.16367054 -0.18729338
68 -0.09158245 -0.17601927 0.018297683 -0.11450222 0.06775851 -0.05523759 0.12883224 0.044024654 0.05543675 -0.055033833 -0.02353234 0.19473895 0.08148451 0.0006599766 -0.04163828 -0.042986564 -0.16783835 -0.051845744 0.06381935 0.09091646 0.16587913 -0.06651485 -0.0017323991 0.029419674 0.04507136 0.009592748 -0.085968375 0.019439273 -0.0100210495 -0.07608012 -0.03668421 0.05533862 -0.18431179 -0.07006181 0.014902295 -0.07420008 0.123189844 0.10171555 0.07723639 0.016036233 -0.063012384 0.12629926 0.11936262 -0.06649039 -0.107404 0.1817231 0.083254285 0.02833042 -0.05604051 -0.0016254318 -0.07509087 0.01708477 0.106548056 -0.07673618 -0.09509904 -0.1507964 0.040434588 -0.07570802 -0.10660869 -0.18254487 0.11417538 -0.13370588 -0.015263696 0.024584392 -0.16524214 0.08624229 -0.07826309 -0.090869844 0.12072961 0.019837238 0.17192756 0.013237082 0.17731152 -0.16150838 0.1956086 -0.03986801 0.15710121 -0.092722304 0.03377623 -0.034227625 0.17705657 -0.097665094 -0.16839948 -0.17183456
23 -0.09000896 -0.14174378 0.0083854785 -0.09627871 0.05710501 -0.026018728 0.101618126 0.034565896 0.06737513 -0.038486443 -0.012926135 0.19267944 0.065698944 -0.011160167 -0.057379615 -0.066036865 -0.13133653 -0.05018041 0.05294076 0.06408819 0.15320739 -0.06715327 -0.0011987998 0.032212246 0.049580097 0.011440484 -0.07819288 0.016604235 -0.01253909 -0.072833836 -0.03867897 0.08358179 -0.17111826 -0.06776564 0.013594466 -0.067536354 0.13906452 0.09823454 0.0743722 0.018817471 -0.0843659 0.1415608 0.10909514 -0.03811325 -0.12656699 0.20521955 0.09136724 0.037687622 -0.05512175 -0.006220425 -0.060571697 0.012838995 0.12180498 -0.07289892 -0.084044665 -0.17101315 0.038435288 -0.08285195 -0.10993409 -0.18795201 0.09408545 -0.11012789 -0.03468465 0.018303538 -0.14686215 0.07515653 -0.067749746 -0.083790876 0.11557993 0.015157976 0.20983832 0.024715602 0.17837301 -0.16377085 0.203997 -0.057655714 0.15489504 -0.11186965 0.015437862 -0.02990781 0.18374851 -0.12086161 -0.17691839 -0.17982855
56 -0.11503154 -0.22174653 0.0050446508 -0.14963433 0.06336038 -0.05697284 0.13288258 0.053448748 0.052036162 -0.033347156 -0.03630607 0.18259244 0.063735805 0.014486061 -0.04253114 -0.051685322 -0.13032399 -0.03827904 0.046908453 0.05685664 0.14598195 -0.0731612 0.006292165 0.03106453 0.074845724 0.002641829 -0.06931423 0.013697307 -0.015926233 -0.06889879 -0.031775255 0.06937156 -0.20159264 -0.08714315 0.02195465 -0.070805974 0.13776076 0.090853214 0.07569786 0.02133839 -0.068113364 0.12707515 0.13091978 -0.051642396 -0.11858693 0.19643173 0.10516679 0.039132603 -0.05072929 -0.0071190423 -0.043368433 0.014520848 0.118032835 -0.078797996 -0.0759493 -0.14592202 0.0447728 -0.058767438 -0.10914312 -0.16058512 0.10321146 -0.120630726 -0.0047093146 0.03878836 -0.12893717 0.07485103 -0.06536907 -0.059314866 0.11618033 -0.0006045908 0.1707611 0.005255278 0.17170277 -0.15067592 0.15687285 -0.060356405 0.15357827 -0.12095687 0.03186598 -0.031027097 0.19818838 -0.124715745 -0.1720464 -0.17863092
31 -0.10620923 -0.21414545 0.03360469 -0.12906416 0.083211206 -0.040403143 0.14913382 0.03100673 0.037139233 -0.041723285 -0.028550943 0.2142651 0.06013201 -0.013296612 -0.04845349 -0.06156413 -0.13588293 -0.042000566 0.051833663 0.059918612 0.14470252 -0.07352413 -0.021314051 0.02454222 0.04698705 0.01274786 -0.059317026 0.04060073 0.002104214 -0.08119409 -0.045560457 0.08060371 -0.16239873 -0.064687975 0.013839203 -0.058726244 0.12115706 0.07934089 0.07429966 0.00027296512 -0.06170378 0.14285786 0.121876724 -0.051073246 -0.12275945 0.18194431 0.08646951 0.025713371 -0.058006242 -0.014638032 -0.062871635 0.027663046 0.1139104 -0.057342857 -0.07743923 -0.1750242 0.048679292 -0.070240185 -0.111753814 -0.16231567 0.085049905 -0.1114491 -0.036034256 0.0016596821 -0.15791567 0.06756545 -0.087796785 -0.08743814 0.112272434 0.0006630803 0.1960295 0.026749223 0.18759018 -0.1563777 0.21474305 -0.060572457 0.15194945 -0.11523031 0.023067985 -0.0235542 0.16976596 -0.12102623 -0.17123052 -0.16725585
58 -0.074057706 -0.16362324 0.00025410665 -0.11947902 0.05962257 -0.041252848 0.11171098 0.052329116 0.07361027 -0.036329605 -0.025300909 0.19549325 0.074476995 0.008591875 -0.04555137 -0.05205367 -0.14243372 -0.050281618 0.05849552 0.062086135 0.1647753 -0.08251151 -6.63722e-05 0.020962099 0.06826083 0.007457471 -0.073965676 0.0041142106 -0.0068798927 -0.057429362 -0.047188886 0.07610143 -0.21061626 -0.08620668 0.016633851 -0.08197475 0.14727323 0.10079011 0.07222386 0.025452435 -0.080273755 0.12916532 0.11446184 -0.05945972 -0.12932214 0.2118683 0.10097768 0.045776352 -0.04214516 -0.006547959 -0.058711223 0.006987068 0.1186146 -0.06747228 -0.07590101 -0.14297585 0.046661284 -0.08135728 -0.10576196 -0.1987228 0.12474068 -0.14781278 -0.018940132 0.028588463 -0.15022294 0.08169237 -0.05077398 -0.08996434 0.1162139 0.019472968 0.18577808 0.014415132 0.1613503 -0.15279053 0.18708909 -0.051709354 0.12913351 -0.10591817 0.030041572 -0.044957325 0.17085113 -0.110388845 -0.15577787 -0.15794736
14 -0.062687956 -0.14875099 0.017454196 -0.11423119 0.066090815 -0.031215228 0.09409982 0.04514164 0.04985078 -0.03172575 -0.026174402 0.170953 0.048007973 -0.009134863 -0.04572385 -0.044005323 -0.1209909 -0.039500844 0.0506115 0.054636635 0.15721153 -0.056926098 -0.006287084 0.03042612 0.054721095 0.015903428 -0.0550365 0.016030036 -0.010906107 -0.059003524 -0.03879586 0.06775488 -0.19627167 -0.07233346 0.022560755 -0.06886834 0.12642297 0.07534102 0.06400243 0.014532763 -0.062275454 0.13430986 0.11169652 -0.043956976 -0.12358198 0.19378226 0.09755406 0.044200853 -0.04654025 -0.0008381423 -0.043815162 0.0059250626 0.10308762 -0.062055554 -0.057620645 -0.15275772 0.05243127 -0.06943109 -0.12022186 -0.20122068 0.09384165 -0.12454559 -0.008116776 0.023371292 -0.17761746 0.094309114 -0.0683082 -0.090113744 0.116779014 -0.0025526835 0.20536292 0.030136064 0.18322964 -0.17051013 0.21814413 -0.07218689 0.16344899 -0.12579894 0.021528348 -0.044396646 0.19377697 -0.12827915 -0.18553671 -0.18292497
57 -0.10106301 -0.19158478 0.0064676497 -0.14742884 0.08264748 -0.05897377 0.13705707 0.04075288 0.08113997 -0.049223453 -0.01659349 0.22858045 0.06309828 0.011638351 -0.04558594 -0.056629375 -0.16586266 -0.061552536 0.06421101 0.08502727 0.17688131 -0.062543735 -0.012604768 0.022437695 0.054773618 0.0046525584 -0.08350769 0.018376673 -0.0036441858 -0.094090156 -0.03557809 0.0632772 -0.19924186 -0.077911004 0.021729847 -0.060112983 0.11866861 0.09448441 0.0791262 0.02190938 -0.057952795 0.12644625 0.104426086 -0.0655212 -0.101976775 0.17308025 0.08020815 0.032941032 -0.0478687 -0.002760404 -0.06300124 0.0213649 0.11172139 -0.07876833 -0.076939695 -0.13895793 0.06080162 -0.071844734 -0.104412444 -0.17710984 0.09163576 -0.114305295 -0.018099211 0.024956547 -0.16195308 0.076019794 -0.070200846 -0.088706166 0.11287892 0.01563596 0.18840832 0.015523211 0.17594759 -0.15743949 0.19948584 -0.056468062 0.14178112 -0.093876116 0.03150098 -0.027202247 0.15646155 -0.09219267 -0.15577775 -0.16014488
36 -0.08656476 -0.19116211 0.0005922543 -0.14936061 0.06789914 -0.052485727 0.10404363 0.06592149 0.089000046 -0.05157613 -0.030072747 0.20924993 0.07091158 0.0055217072 -0.05257157 -0.04108858 -0.15239795 -0.044345025 0.05938113 0.079136096 0.1823331 -0.06533937 0.0019030441 0.053069357 0.05621421 0.021053554 -0.07426414 -0.010471839 -0.022192316 -0.089671426 -0.03201837 0.060266346 -0.24345554 -0.10125256 0.022098614 -0.076758504 0.13736103 0.09420745 0.081839666 0.030689735 -0.056273878 0.13537599 0.12193036 -0.054442436 -0.092065506 0.15715827 0.08110948 0.052551694 -0.038077842 -0.004963339 -0.038644414 -0.0031630546 0.08774371 -0.06728173 -0.034861803 -0.10171012 0.054223523 -0.05611969 -0.10414258 -0.16522937 0.09397989 -0.124520786 0.001634985 0.032905497 -0.17304656 0.07887387 -0.06449871 -0.06587476 0.10973339 0.017867783 0.17982088 0.011770524 0.19440816 -0.15908676 0.17803283 -0.06690013 0.15447286 -0.11708082 0.021211099 -0.04074133 0.18078008 -0.11079899 -0.16363032 -0.17522426
7 -0.07835782 -0.16847192 0.002237431 -0.13455276 0.06201564 -0.048645366 0.10962273 0.06252893 0.088550024 -0.04767753 -0.01737733 0.19800843 0.06825266 -0.00503554 -0.03521471 -0.044527274 -0.16448376 -0.054755017 0.053110465 0.07820325 0.18615228 -0.062400155 0.0053516664 0.041744027 0.04951151 0.008455496 -0.0898073 0.0029520167 -0.016875712 -0.07929268 -0.030270519 0.055798013 -0.21141995 -0.07917777 0.01772698 -0.07405689 0.12675619 0.09079065 0.079770386 0.022379275 -0.0502932 0.12063097 0.10386593 -0.051059835 -0.09711829 0.17979942 0.073573865 0.042079665 -0.03919029 0.0024418298 -0.04958517 0.016522147 0.10431964 -0.0723557 -0.08080215 -0.11676111 0.05694028 -0.07393253 -0.10360117 -0.18697104 0.107519545 -0.11140134 -0.021015512 0.04065213 -0.17571118 0.08541754 -0.06096568 -0.076644115 0.121048644 0.017019583 0.19570482 0.028047869 0.18285142 -0.15886968 0.20701446 -0.05360066 0.13558708 -0.10527836 0.02045088 -0.041740313 0.19122784 -0.091953814 -0.1787319 -0.17659973
83 -0.104051605 -0.19558631 0.022911899 -0.12872824 0.07950393 -0.048155874 0.1201622 0.05655725 0.08475955 -0.05023154 -0.007673702 0.21555799 0.06891467 -0.0076705194 -0.039026532 -0.050457932 -0.15472282 -0.053250287 0.07186809 0.066797845 0.17612849 -0.06432553 -0.009634094 0.045395005 0.04474527 0.016938161 -0.07771512 0.0011179404 -0.022420134 -0.08008816 -0.04254522 0.06598749 -0.20110583 -0.06623577 0.021882886 -0.0709078 0.12534021 0.105593204 0.08434917 0.024292443 -0.04805262 0.12746087 0.10836742 -0.051709943 -0.10479757 0.17348509 0.073110774 0.04734661 -0.04488571 0.005143461 -0.048416827 0.0081662005 0.089064755 -0.061204266 -0.06949098 -0.13332509 0.059837937 -0.06736394 -0.1155597 -0.18631099 0.104649976 -0.1155594 -0.038298555 0.023736317 -0.16188103 0.06363444 -0.06435059 -0.0728608 0.1131029 0.027687948 0.1964944 0.017470099 0.18444934 -0.15800186 0.2056827 -0.05428174 0.13920273 -0.11454745 0.009463514 -0.03974493 0.17356744 -0.098860174 -0.15473467 -0.17945825
30 -0.13205372 -0.25472173 0.009229274 -0.14430217 0.075266145 -0.057622846 0.16043895 0.05463279 0.040198736 -0.041983865 -0.019568736 0.17841546 0.08025636 -0.0029300798 -0.056999158 -0.08864699 -0.14658104 -0.05580103 0.04641712 0.08095518 0.14461094 -0.066508576 0.036724985 0.03326456 0.06591311 0.009237138 -0.07600936 0.027349275 -0.015626298 -0.07356673 -0.044119436 0.050159812 -0.17656678 -0.07661515 -0.0018711735 -0.06221773 0.13226669 0.09324656 0.08812865 0.019520989 -0.0693836 0.12338301 0.11601879 -0.03172601 -0.1296281 0.19536717 0.087882325 0.019381795 -0.045944832 -0.009163118 -0.06383029 0.036435787 0.12902486 -0.07388705 -0.113216504 -0.17053919 0.033338558 -0.071008265 -0.10708819 -0.15980539 0.1048677 -0.13731232 -0.027701922 0.04972009 -0.13118821 0.06998882 -0.06796016 -0.07715579 0.12807314 -0.0056912196 0.17192492 0.031397913 0.16365498 -0.15062043 0.17786758 -0.06264433 0.14711341 -0.10547512 0.018992998 -0.016953748 0.14935811 -0.10844768 -0.17359361 -0.16465986
60 -0.063244164 -0.15848505 -0.00083368574 -0.12752543 0.048606653 -0.034459624 0.079492055 0.051019892 0.07040163 -0.04669013 -0.031997707 0.17817034 0.06709372 0.0010782873 -0.03277056 -0.024246428 -0.16167605 -0.042574022 0.057092607 0.07516441 0.14575605 -0.0653099 -0.010696822 0.0041336073 0.030219818 0.024181524 -0.05574703 0.015876332 0.003930201 -0.06975127 -0.04353461 0.050197564 -0.19113459 -0.06452569 0.015857022 -0.0653381 0.119822964 0.09054348 0.07924684 0.023884406 -0.044025958 0.12856868 0.104562886 -0.08229585 -0.10407423 0.1647108 0.062283453 0.046164054 -0.021714143 0.0008792755 -0.05730048 0.0046340604 0.10563773 -0.07038379 -0.06740009 -0.1090519 0.07367957 -0.07369446 -0.10234755 -0.1854767 0.12200868 -0.1437115 -0.021215042 0.018772827 -0.20925662 0.096093185 -0.058434222 -0.07847944 0.118696086 0.04130034 0.20783597 0.020783648 0.20953949 -0.16896874 0.24344163 -0.053823527 0.15365136 -0.1200845 0.047392644 -0.042334896 0.22346018 -0.10750611 -0.17710367 -0.20588498
39 -0.11450963 -0.22823486 -0.008816541 -0.13225016 0.07350495 -0.04656584 0.1428923 0.09417677 0.060289916 -0.02644961 -0.023462035 0.15698433 0.062422838 0.02402191 -0.036037214 -0.05630495 -0.15325509 -0.04872613 0.04871916 0.077962674 0.17254034 -0.07695647 0.040550545 0.028634686 0.078016624 0.013171314 -0.09533541 0.013144335 -0.027885625 -0.069499016 -0.041486517 0.058501404 -0.19447745 -0.0822817 0.02678236 -0.0700841 0.1467291 0.10484693 0.0567384 0.034034584 -0.09457763 0.11073039 0.11315992 -0.056188438 -0.10093223 0.1896511 0.11480438 0.030219639 -0.0326681 -0.0042896275 -0.060748044 0.036199007 0.11108659 -0.07699409 -0.08785807 -0.13059065 0.021944333 -0.062798075 -0.08077147 -0.14929959 0.11482888 -0.10479242 -0.02229687 0.06053121 -0.13810775 0.07701963 -0.05257689 -0.058938324 0.12178671 -0.0088516595 0.19593298 0.02627835 0.18056345 -0.15674175 0.1815491 -0.058155358 0.15468113 -0.113526314 0.01199858 -0.026025554 0.19863835 -0.116683744 -0.1670194 -0.17350447
65 -0.09557943 -0.20291469 -0.0015955667 -0.1316755 0.08517168 -0.048286743 0.14459354 0.065185934 0.06875982 -0.053468067 -0.026315821 0.19306348 0.07031227 0.0073268623 -0.04991197 -0.05107702 -0.13038097 -0.04213666 0.049314782 0.0706115 0.13553084 -0.06857883 0.006676065 0.030630607 0.066226006 0.015895307 -0.066272855 0.019363536 0.00211694 -0.07208451 -0.047245797 0.056039292 -0.16293705 -0.07215685 0.0030192453 -0.058405902 0.110658996 0.07276153 0.06379834 0.016162353 -0.05588222 0.115391344 0.10814679 -0.05737087 -0.11357565 0.18253596 0.0886951 0.028647572 -0.030467795 -0.0046292148 -0.056770593 0.009620224 0.099305026 -0.06317479 -0.07784911 -0.13992424 0.053731546 -0.07725008 -0.101166695 -0.18236302 0.09737953 -0.13138977 -0.029043656 0.039377686 -0.16786167 0.09249771 -0.074403495 -0.07697562 0.12706323 0.010511136 0.21267422 0.030959671 0.20047177 -0.16528729 0.2026177 -0.07199322 0.16121079 -0.13017298 0.026598917 -0.030450394 0.18601234 -0.1218765 -0.180199 -0.18082826
40 -0.08576255 -0.1730264 0.008946451 -0.1337723 0.08798873 -0.050136812 0.10911703 0.05413269 0.0996299 -0.07471246 -0.0123431645 0.21449465 0.061612878 -0.0019987212 -0.056228753 -0.05702055 -0.14413832 -0.05540102 0.06308471 0.06788864 0.1586345 -0.049847137 -0.01922178 0.049416937 0.034992583 0.025869956 -0.072768666 -0.0019322416 -0.010152 -0.08910296 -0.045685243 0.062056992 -0.19216041 -0.054738976 0.020637592 -0.0665878 0.10729833 0.083783835 0.08511141 0.011048433 -0.054792345 0.11935924 0.099119954 -0.04016992 -0.089924596 0.14341994 0.052051898 0.027098455 -0.026261155 0.00834287 -0.050248455 -0.0016231289 0.07509485 -0.054699425 -0.044678856 -0.11426966 0.065710925 -0.08138763 -0.11550738 -0.19520777 0.091878936 -0.11388124 -0.035477206 0.015946541 -0.18677142 0.08253314 -0.08145619 -0.089433216 0.11061315 0.028893886 0.20889537 0.024573347 0.2030849 -0.18547243 0.2159607 -0.07008214 0.16162112 -0.12712374 0.008516095 -0.03542072 0.18157992 -0.11048294 -0.1643241 -0.18193339
74 -0.09040489 -0.18318734 0.006692108 -0.1425643 0.058072027 -0.034128748 0.08483938 0.050147057 0.06463788 -0.04967591 -0.028023232 0.18647632 0.06022578 -0.006448598 -0.03404071 -0.047055874 -0.11992277 -0.02953321 0.054401226 0.052785207 0.1441916 -0.061914954 0.0006688787 0.042474557 0.034787394 0.03565474 -0.0636541 0.0063464125 -0.0030665437 -0.07449181 -0.021532353 0.07135013 -0.21787925 -0.08727209 0.027334489 -0.07547311 0.1366627 0.08379986 0.087573014 0.0333735 -0.053661164 0.1355946 0.096035026 -0.04693013 -0.10298215 0.17678784 0.0741072 0.05145291 -0.04142774 -0.013109302 -0.0377094 0.0065649915 0.09870901 -0.062419392 -0.06128648 -0.114384644 0.062242858 -0.06356977 -0.10964721 -0.17796455 0.10267739 -0.13106723 -0.0136005655 0.037581433 -0.19145714 0.07884628 -0.055477295 -0.073517725 0.11320468 0.018047057 0.22014742 0.03116959 0.19378328 -0.16493993 0.21433972 -0.070325695 0.14200164 -0.13105565 0.021351632 -0.043592434 0.1901033 -0.11016959 -0.17014672 -0.16872373
20 -0.09925743 -0.1968732 0.0065928386 -0.11196184 0.06693815 -0.048503257 0.14100006 0.07664511 0.058663867 -0.037800405 -0.020713082 0.17149651 0.06085053 0.014007071 -0.041732002 -0.063642725 -0.14152436 -0.054869723 0.05102861 0.06020624 0.1709084 -0.080550715 0.021980686 0.027811311 0.08844197 0.015934972 -0.08941632 0.012009318 -0.017368985 -0.06731755 -0.04651004 0.06962323 -0.17439404 -0.072901696 0.027323693 -0.068224736 0.14350057 0.087097175 0.05208386 0.023239862 -0.10502259 0.10855667 0.11036531 -0.03601397 -0.1095854 0.18906137 0.113854885 0.026749047 -0.055593297 -0.0005948414 -0.06260842 0.024775738 0.118614845 -0.07607942 -0.08883646 -0.15284106 0.015760442 -0.07518716 -0.09059941 -0.17071474 0.11003331 -0.10878977 -0.009685801 0.0496882 -0.14141315 0.07954996 -0.05900684 -0.07387239 0.11623316 -0.010339125 0.20288238 0.024861472 0.17360519 -0.16716121 0.18553881 -0.06887026 0.16283806 -0.12032426 0.008678329 -0.028185485 0.19238782 -0.1360002 -0.17327861 -0.1755093
27 -0.11903538 -0.25472155 0.012562196 -0.12071892 0.091145895 -0.05064212 0.19085242 0.086530484 0.04224418 -0.029109616 -0.026181528 0.16162235 0.04880866 0.027700238 -0.04810541 -0.07224026 -0.10863325 -0.05964019 0.037739728 0.035463158 0.16668099 -0.07751529 0.033653118 0.04734747 0.099037014 -0.0058598663 -0.09517473 0.024921462 -0.029636493 -0.059051577 -0.055615246 0.076972775 -0.17466716 -0.08031137 0.030440107 -0.08133202 0.14702407 0.094167635 0.042524084 0.0075849723 -0.12917398 0.11183223 0.13141207 -0.016806258 -0.1193119 0.21170476 0.15034367 0.014799767 -0.06853377 0.0026950678 -0.05620899 0.045162916 0.11356645 -0.062170114 -0.097065195 -0.18985286 9.16685e-05 -0.06987331 -0.08558509 -0.16552708 0.11232126 -0.09321396 -0.031131957 0.048902765 -0.10740863 0.07819156 -0.06996196 -0.06413905 0.114081986 -0.039861847 0.17349128 0.020708658 0.1487399 -0.16459286 0.14671154 -0.07316026 0.16869056 -0.1305229 -0.013428034 -0.022121433 0.16578579 -0.13921675 -0.16730514 -0.13915668
33 -0.13234103 -0.26144433 0.012595375 -0.13220994 0.08299163 -0.057165314 0.15945804 0.08424273 0.050138243 -0.034858882 -0.00684248 0.18417692 0.07088352 -0.003702704 -0.03574293 -0.080983765 -0.12912016 -0.0521407 0.041164614 0.05980924 0.15795851 -0.07380227 0.03773647 0.027364217 0.07727014 0.014254188 -0.09503504 0.023199104 -0.021776458 -0.056191135 -0.052981693 0.07253197 -0.16656536 -0.059414826 0.013186506 -0.08909064 0.14071038 0.08945653 0.047465876 0.020708168 -0.10771848 0.1183153 0.12516879 -0.032658342 -0.1342139 0.19523694 0.104631 0.017873691 -0.05926937 -0.0136433635 -0.07483001 0.054020982 0.12933742 -0.07569985 -0.11716922 -0.18004748 0.015076038 -0.06272941 -0.08993286 -0.15592095 0.12006925 -0.12044227 -0.030423319 0.057105675 -0.11835967 0.06204597 -0.05362197 -0.06846384 0.11843419 -0.010518857 0.17548785 0.0289529 0.16440713 -0.15490621 0.16988114 -0.06415931 0.14206894 -0.11462038 0.0056493008 -0.020185592 0.18122989 -0.12046758 -0.17083836 -0.15572314
29 -0.08439108 -0.15797961 0.00087679527 -0.14232662 0.06441105 -0.054851625 0.114808075 0.018334024 0.088981576 -0.05454171 -0.020930288 0.2541596 0.07060061 -0.00799338 -0.062360857 -0.059705485 -0.17805238 -0.068897665 0.072985835 0.1091016 0.16535734 -0.060327213 -0.039108016 0.023304276 0.025440782 0.013248946 -0.065686814 0.009680103 0.01090482 -0.08488617 -0.021759322 0.04385212 -0.17665508 -0.08112437 0.008375635 -0.055392344 0.13621098 0.103831604 0.08860349 0.003811724 -0.037407257 0.1422319 0.08975161 -0.07146038 -0.094875015 0.17874439 0.06642156 0.031894553 -0.048515476 -0.013876174 -0.06495859 -0.00010880575 0.09983819 -0.071505405 -0.065116376 -0.12106959 0.07999286 -0.07904263 -0.117623515 -0.19867283 0.0942654 -0.1494253 -0.017204119 0.012529473 -0.20193726 0.07351143 -0.093654364 -0.090827934 0.11166916 0.038058944 0.1795748 0.02122448 0.1809324 -0.1510226 0.22287285 -0.045535825 0.14447424 -0.09090553 0.028207725 -0.023683116 0.15706672 -0.09716098 -0.15092127 -0.18932064
73 -0.07881838 -0.16742647 0.0027900296 -0.1372352 0.06708504 -0.061385594 0.10339846 0.053349677 0.08089677 -0.042124406 -0.04748351 0.20292835 0.06925202 0.01435095 -0.044524036 -0.055239372 -0.1358204 -0.05302178 0.058964547 0.07668583 0.14692323 -0.06973813 -0.016114606 0.01709698 0.06596322 0.027115347 -0.05508033 0.009540103 0.0052624377 -0.083817415 -0.039341412 0.046115674 -0.2176556 -0.10655863 0.016830575 -0.073874794 0.13665894 0.09681324 0.08933649 0.023266876 -0.060297158 0.1278135 0.12939683 -0.072590396 -0.105901904 0.16634646 0.095602825 0.051207796 -0.036723454 -0.0072546923 -0.05300929 0.0032860376 0.096748255 -0.05558452 -0.04734346 -0.11505364 0.065829806 -0.05562273 -0.09633707 -0.16122909 0.09678783 -0.15081032 0.011097186 0.03583632 -0.19994906 0.0872963 -0.07948492 -0.068561405 0.11423065 0.025171991 0.19348204 0.024992175 0.20057464 -0.14896712 0.19613875 -0.08020485 0.15216374 -0.1247662 0.032462712 -0.02932164 0.19682689 -0.1279131 -0.14461133 -0.19496037
35 -0.09995331 -0.17421827 0.01491396 -0.108830355 0.0641293 -0.038575847 0.1366758 0.018671244 0.04782653 -0.025015157 -0.02348957 0.21578385 0.053104304 0.000163817 -0.048874214 -0.06690997 -0.107978664 -0.04373457 0.050762825 0.057209406 0.15092444 -0.073102914 -0.02513061 0.02342089 0.07796515 -0.003728339 -0.056787003 0.037962623 -0.0008855511 -0.08056896 -0.04754004 0.07242024 -0.1738383 -0.07923561 0.020633806 -0.05824987 0.13549525 0.0907293 0.087139614 -0.0006013706 -0.07514358 0.1366858 0.12787494 -0.05589087 -0.13195015 0.1884449 0.104485855 0.032783 -0.06065251 -0.015300152 -0.05502639 0.020389166 0.1139831 -0.0661076 -0.07525105 -0.18324192 0.04989926 -0.07316522 -0.112170264 -0.17265776 0.08510284 -0.12848158 -0.019648904 0.024754975 -0.15676817 0.068791755 -0.08950093 -0.085972145 0.12026388 -0.00053672673 0.19282609 0.027383618 0.1860043 -0.15390883 0.20629041 -0.072950035 0.15212548 -0.10729541 0.020529991 -0.018242886 0.1585008 -0.13537313 -0.16638847 -0.18270996
34 -0.14087133 -0.2595208 0.030819751 -0.11774468 0.11854239 -0.06824901 0.21293162 0.06490138 0.047695145 -0.05042418 -0.031626895 0.21263373 0.08310515 0.023010332 -0.076074004 -0.08685006 -0.14591113 -0.067970715 0.07307711 0.08660359 0.15322332 -0.08278666 0.02221416 0.042179614 0.10880155 0.0053713624 -0.086015254 0.032902695 -0.009329137 -0.06123868 -0.049047206 0.07650126 -0.16103469 -0.059771508 0.014999393 -0.057637982 0.14172141 0.099206075 0.06533043 0.01649153 -0.10192349 0.12857349 0.13496226 -0.03130162 -0.13242787 0.1969285 0.14187035 0.014202923 -0.056445144 -0.0019900075 -0.059982646 0.039430145 0.118718676 -0.06879237 -0.10063948 -0.20948638 0.018282613 -0.07570994 -0.111766286 -0.17775156 0.0991933 -0.11529912 -0.032051243 0.04441004 -0.08946478 0.06835735 -0.07333349 -0.080943555 0.11735931 -0.023952195 0.16265182 0.019479355 0.12606098 -0.13382639 0.15274192 -0.055346377 0.14959916 -0.10032843 0.011049466 0.002935289 0.12010185 -0.12433472 -0.13517594 -0.14146513
72 -0.05664347 -0.16039914 0.012512021 -0.12638839 0.092392325 -0.048176832 0.09871085 0.040081482 0.060489386 -0.042841706 -0.014682663 0.20187245 0.055463884 -0.025971795 -0.044103734 -0.047535807 -0.13484624 -0.042780515 0.07314113 0.08721988 0.14863157 -0.05150492 -0.024628142 0.019299122 0.054065365 0.019268095 -0.056998305 0.018564705 -0.012433413 -0.07119634 -0.048510566 0.055842273 -0.23079105 -0.076637805 0.0098276995 -0.09424627 0.15534686 0.10011466 0.08939717 0.010856566 -0.040807337 0.15059754 0.11310998 -0.068151034 -0.14596683 0.1894934 0.08589864 0.054262497 -0.036612395 -0.01624681 -0.071828976 0.029304614 0.112308696 -0.06127931 -0.07852969 -0.1565878 0.06035435 -0.073702574 -0.13129194 -0.20569919 0.09198991 -0.15461215 -0.0198856 0.043923784 -0.17767258 0.08252197 -0.059984427 -0.10460535 0.11042371 -0.00013746187 0.17463675 0.046207104 0.17226197 -0.15108502 0.20770586 -0.05595305 0.13548842 -0.10083734 0.037217055 -0.029523812 0.15924394 -0.09581698 -0.1622956 -0.16550261
59 -0.050246473 -0.12176477 0.013814453 -0.14471962 0.07332504 -0.041876923 0.08878533 0.017568791 0.07387412 -0.03915869 -0.029873881 0.21986498 0.05854595 -0.011066914 -0.05446137 -0.016344445 -0.14636247 -0.04117976 0.063319296 0.09314126 0.16367392 -0.054067247 -0.047919806 0.02332068 0.042028684 -1.4815396e-05 -0.04357279 0.0039888774 0.008273612 -0.09226822 -0.036179047 0.05471716 -0.24818614 -0.095576644 0.014787172 -0.06984787 0.12588583 0.08592095 0.0904264 -0.012769934 -0.026690044 0.16622153 0.111064255 -0.08767163 -0.10837256 0.17673923 0.075481676 0.057652067 -0.031419925 -0.012413522 -0.039442357 -0.009720569 0.08295423 -0.07687681 -0.022574494 -0.10570815 0.10084697 -0.0656314 -0.13488498 -0.19912995 0.07654073 -0.14290667 0.010978067 0.0075756693 -0.19857858 0.099555284 -0.09399583 -0.10330363 0.117368266 0.03256098 0.2029945 0.010097695 0.20855054 -0.17380151 0.22679408 -0.05626474 0.15155962 -0.101881094 0.05954929 -0.033712972 0.1600023 -0.110879324 -0.17551088 -0.17589697
79 -0.09391739 -0.19035403 0.034258585 -0.102828406 0.10107994 -0.06109357 0.14355502 0.049095582 0.029825954 -0.032145932 -0.028631251 0.16821063 0.06605275 -0.020035282 -0.059414007 -0.05736392 -0.10049019 -0.043858904 0.073968194 0.056155857 0.10400185 -0.066191554 0.0001962754 0.020284254 0.04148646 0.015047942 -0.044149183 0.030337147 -0.0043596914 -0.072239436 -0.04895064 0.08935899 -0.1358874 -0.06960177 -0.010317043 -0.060307156 0.14823666 0.08162182 0.06432319 0.0029773088 -0.055882394 0.13664915 0.13372242 -0.032647412 -0.14019644 0.19641656 0.1043122 0.040043693 -0.0405063 -0.015392393 -0.0807522 0.013959599 0.11691199 -0.04990139 -0.11761435 -0.20515457 0.05626136 -0.07919292 -0.13389117 -0.17557533 0.07609622 -0.12777983 -0.05488046 0.013915316 -0.15493692 0.064880274 -0.09483205 -0.09512386 0.12341586 -0.010374692 0.20010458 0.039406404 0.18902795 -0.16373645 0.1900744 -0.054366242 0.17540096 -0.1208749 -0.005349466 -0.034798935 0.19206469 -0.124411 -0.15549645 -0.183381
28 -0.12658367 -0.24778907 0.019616805 -0.14251581 0.08725389 -0.04899118 0.1537619 0.06362856 0.059900083 -0.045861356 -0.024548706 0.20862725 0.076091096 0.0051651685 -0.067520626 -0.07018541 -0.14907198 -0.06287374 0.07067277 0.08831555 0.1515991 -0.07496474 0.013416464 0.035703167 0.07032099 0.018520935 -0.08149076 0.021711692 -0.0065477383 -0.07455797 -0.049002387 0.0741132 -0.17564388 -0.06802604 0.011452713 -0.0733817 0.14310701 0.09986396 0.07579033 0.024065563 -0.0796157 0.114146166 0.11388114 -0.036891036 -0.12807381 0.17993695 0.09439996 0.032650907 -0.047325093 -0.009470833 -0.06919324 0.026031626 0.111719534 -0.07092256 -0.079477854 -0.16500558 0.027329035 -0.07426385 -0.11351749 -0.16773619 0.09410143 -0.12752418 -0.02170085 0.04788599 -0.14818962 0.073763125 -0.06926345 -0.07248028 0.111047536 -0.009548913 0.1792632 0.035164744 0.16210385 -0.15292892 0.17557637 -0.056881405 0.14806743 -0.10183027 0.010295042 -0.021860631 0.16359955 -0.12159821 -0.15215407 -0.16578874
78 -0.09934954 -0.17865963 0.025214432 -0.10529837 0.07272277 -0.052502356 0.13396437 0.029250517 0.039016526 -0.03964516 -0.032635868 0.1691215 0.06780094 -0.019649576 -0.03720594 -0.052620802 -0.12461316 -0.04940125 0.05188529 0.055070426 0.1295558 -0.0741291 -0.0012133463 0.036405385 0.043836005 0.013946184 -0.060746957 0.027363079 0.00040755552 -0.09350974 -0.034039672 0.091902755 -0.1600055 -0.076992564 -0.0036545082 -0.068447106 0.13825178 0.089640364 0.08348687 0.012283631 -0.06479573 0.14589413 0.12854896 -0.04479888 -0.12188279 0.1858894 0.08550233 0.04128337 -0.0418446 -0.0021128014 -0.069045536 0.025217595 0.11353962 -0.07201888 -0.10091429 -0.17948614 0.053950373 -0.08716604 -0.12672159 -0.17012174 0.08739746 -0.1369848 -0.0336213 0.012395964 -0.1496049 0.06737467 -0.102567635 -0.09139498 0.11552297 0.018895527 0.20355728 0.028163815 0.20908758 -0.16837886 0.20679659 -0.05527772 0.1500239 -0.12110128 0.012772964 -0.028671019 0.19363774 -0.11641173 -0.16723235 -0.17841944
