84 84
63 -0.12125651 -0.20014505 0.027246468 -0.14864904 0.09817806 -0.02988588 0.049743112 0.08476249 0.10966749 -0.0040024687 0.01748846 0.20969051 0.08330709 -0.041190058 0.07341942 -0.16173889 -0.097084336 -0.020411873 0.046781845 0.062362537 0.14052059 -0.0155446185 0.057325114 0.01635597 0.018362012 0.055668443 -0.2110523 -0.040975865 -0.078389645 -0.07474468 0.038407512 0.02030359 -0.13694203 -0.054599695 0.013428676 -0.10045046 0.08255701 0.024807323 0.008571741 0.046230543 -0.14919056 0.08559009 0.1920089 0.019841652 -0.1185148 0.23210219 0.009217798 0.035038963 -0.030414667 -0.023068525 -0.09462531 0.06266139 0.037149698 -0.00036271755 -0.110119544 -0.20486134 0.0008740553 0.028602732 -0.13015166 -0.07503947 0.10442672 -0.049604326 -0.044445932 -0.011998002 -0.121063106 0.15838547 -0.0780274 -0.032651197 0.16723393 0.02854894 0.07521463 0.058614273 0.19687714 -0.16154402 0.22720607 -0.02179789 0.13750641 -0.010185838 0.008618371 -0.048742663 0.16913003 0.0039591943 -0.13914804 -0.10637431
26 -0.10932089 -0.20080514 0.023591358 -0.1335729 0.06404051 -0.028552977 0.043393213 0.048979882 0.09812111 -0.016337242 -0.004562569 0.2010007 0.08764209 -0.052830294 0.051652785 -0.14136538 -0.1005608 -0.007103558 0.051371634 0.0722328 0.12449402 -0.02101756 0.05892692 -0.00038361934 0.010269795 0.038959708 -0.21025895 -0.0525389 -0.07360553 -0.06366 0.030697383 0.033316378 -0.15609382 -0.054358654 0.022221142 -0.11986052 0.09123264 -0.002774246 0.0058247624 0.04513189 -0.15570205 0.059460253 0.19351338 0.029230505 -0.124326 0.24828233 0.009877602 0.030064633 -0.04831806 -0.024849886 -0.08859175 0.0555186 0.04941205 0.00085829716 -0.14651415 -0.20622118 0.00020588758 0.043277957 -0.1595851 -0.08777183 0.12456066 -0.051783424 -0.037733685 0.008342878 -0.11396256 0.16902399 -0.06115051 -0.043809246 0.1759905 0.011366412 0.06497897 0.039639734 0.18035573 -0.17145194 0.21971509 -0.014877288 0.13240607 -0.013608193 -0.00063090236 -0.06431372 0.16366722 0.0055194963 -0.14299652 -0.09285374
9 -0.106632434 -0.19671664 0.020845594 -0.122827485 0.0725654 -0.030668247 0.036878128 0.056667566 0.098758064 -0.0041448995 0.00918293 0.20299375 0.07068711 -0.047270793 0.07657963 -0.16298114 -0.10908902 -0.017345486 0.050049786 0.07930115 0.1360888 -0.0068923654 0.06808956 -0.0030181105 0.010764822 0.057787362 -0.21040337 -0.05648437 -0.07954822 -0.06905352 0.040237803 0.033832196 -0.13509475 -0.046022233 0.02929283 -0.10208193 0.099481344 0.0124513265 -0.0049882047 0.043450784 -0.16635254 0.061909467 0.20069282 0.04051708 -0.12597644 0.241406 0.008822677 0.020692516 -0.05682199 -0.03325862 -0.099129125 0.07047941 0.034944493 0.012036405 -0.13073467 -0.19925262 -0.0117016705 0.050484937 -0.15295863 -0.07955668 0.11133931 -0.06439289 -0.03902916 0.002571302 -0.12024618 0.13449422 -0.07050612 -0.038909197 0.1638009 0.011179966 0.056447078 0.06452888 0.18557465 -0.16597214 0.22597234 -0.024958368 0.12919062 0.0028815195 0.0038521793 -0.055333953 0.15039647 -0.0017105433 -0.1268097 -0.10265414
64 -0.10000864 -0.20669313 0.027278904 -0.13876218 0.076521195 -0.031413157 0.04702653 0.061661363 0.09908656 -0.020953534 -0.009293867 0.18444239 0.08986463 -0.056602765 0.078972995 -0.1398063 -0.110981464 -0.023876093 0.04060147 0.06734034 0.13133119 -0.017572403 0.052691482 -0.005457692 0.015837427 0.04687671 -0.19345115 -0.05641306 -0.06655658 -0.090523906 0.029711423 0.031871434 -0.14714114 -0.07253574 0.012927142 -0.114946425 0.09330915 0.0023692565 0.01052178 0.03653496 -0.16383389 0.07165927 0.20514494 0.022258632 -0.12745672 0.25908887 0.012277955 0.038415443 -0.06695772 -0.020365128 -0.093746774 0.062380206 0.02410735 0.015314317 -0.13938417 -0.19942153 -0.011521303 0.049901165 -0.13714138 -0.072259225 0.11664072 -0.06996973 -0.032739412 -0.0031661694 -0.12170295 0.1625492 -0.07779076 -0.040293172 0.19162022 0.02382047 0.06250878 0.054127228 0.18518972 -0.17916448 0.21426567 -0.0064332117 0.15104018 -0.0026529764 0.022000708 -0.07122543 0.16169061 0.009940188 -0.12508637 -0.09657803
38 -0.16094692 -0.27552313 0.02838127 -0.18065825 0.08913889 -0.03258574 0.047500603 0.071984805 0.12795602 -0.03675066 0.0043965424 0.25200403 0.09501361 -0.060599208 0.07125471 -0.17400564 -0.10912483 -0.011252098 0.049714044 0.06835589 0.12051359 -0.014565768 0.05202641 0.01766164 0.0070741707 0.041790318 -0.20566177 -0.053333696 -0.07266915 -0.075863175 0.026427073 0.02654291 -0.15347305 -0.0518678 0.019254293 -0.13997063 0.07867475 -0.00220286 0.01736158 0.041757293 -0.16901554 0.064462155 0.19874458 0.03432851 -0.12538831 0.25333038 0.0078002024 0.014815967 -0.058498666 -0.016049081 -0.09097129 0.034265496 0.031998146 0.0059838933 -0.14947386 -0.19843423 -0.023779605 0.027527375 -0.1309316 -0.0720768 0.09983945 -0.06348729 -0.03558309 0.001580113 -0.08284564 0.12856442 -0.044180218 -0.026295962 0.14322925 0.0106501635 0.030081116 0.029630223 0.14076696 -0.13410406 0.17031246 -0.015542616 0.12286381 -0.0150368055 0.010629991 -0.06091237 0.12625983 0.0026663174 -0.106991924 -0.093964204
1 -0.11311343 -0.18931401 0.02585126 -0.13141568 0.07399547 -0.042893846 0.039052196 0.05067775 0.09716274 -0.004776823 -0.00014861736 0.21694691 0.073975876 -0.056612827 0.0538974 -0.15650535 -0.09666349 -0.016222142 0.05055165 0.070980504 0.12771748 -0.015416962 0.059920084 0.0011417138 0.021890357 0.048026845 -0.17555615 -0.03323631 -0.06504378 -0.07225414 0.021450138 0.03676718 -0.14469627 -0.049551725 0.019726966 -0.11056662 0.07759194 -0.0020959354 0.0049319193 0.021238087 -0.17915827 0.06937861 0.20893161 0.04840088 -0.12758209 0.21881053 0.0074246735 0.033920117 -0.05090443 -0.031113703 -0.09870027 0.067384586 0.04305972 0.021073233 -0.12978344 -0.17193234 -0.009743421 0.042640664 -0.12936342 -0.073282294 0.09822259 -0.04794406 -0.03414005 0.008980012 -0.13163379 0.15848058 -0.070509255 -0.039497666 0.18969546 0.0049929945 0.05627019 0.04796309 0.21319005 -0.19277449 0.23568408 -0.020483874 0.15826479 -0.014509369 0.022388445 -0.059593033 0.1666494 -0.02563226 -0.15164512 -0.11078688
19 -0.08584536 -0.17195731 0.018531354 -0.121297896 0.058783434 -0.021350475 0.035779554 0.04794242 0.115979895 -0.011132749 0.0023970285 0.21945918 0.07405114 -0.030456433 0.059408143 -0.14266403 -0.10848004 -0.017060073 0.04569641 0.06362865 0.13794166 -0.014509465 0.06018833 0.004871709 0.013921674 0.051057227 -0.20942724 -0.044957206 -0.08403478 -0.0780729 0.032027744 0.031782143 -0.13800737 -0.05705231 0.022058405 -0.0919926 0.062262494 0.009333679 -7.755922e-05 0.03984272 -0.16055986 0.07323555 0.20005506 0.013428173 -0.110295616 0.24864796 0.029850334 0.020398017 -0.039343823 -0.031509437 -0.10276934 0.06486016 0.034479156 0.0028285172 -0.12817186 -0.18463609 -0.0017063073 0.040170815 -0.12574162 -0.07375488 0.112131566 -0.051567927 -0.029233916 0.00240974 -0.13072269 0.17580241 -0.06482005 -0.048370842 0.1755556 0.010412884 0.074688636 0.05088232 0.19924006 -0.17613663 0.23255473 -0.02059988 0.15874411 -0.010841648 0.007344949 -0.056077555 0.16349584 0.0027338124 -0.14021465 -0.11230675
76 -0.13751574 -0.23816532 0.026076725 -0.14984493 0.078071035 -0.041252326 0.0403273 0.065194964 0.093442686 -0.01482027 0.0025210676 0.20283845 0.07348233 -0.053749003 0.06755455 -0.14044277 -0.100196645 -0.014346053 0.06803029 0.077809945 0.12269117 -0.023916535 0.05501477 -0.011139519 0.014650334 0.053981215 -0.21276629 -0.042084385 -0.07741817 -0.08311344 0.037105344 0.031019282 -0.14504495 -0.045287848 0.026611377 -0.11331289 0.0966639 -0.00407966 0.012641455 0.044306725 -0.16913629 0.05662451 0.20085765 0.03366887 -0.12471626 0.22538476 0.008647806 0.03317075 -0.055038065 -0.022077046 -0.09458625 0.054948684 0.03317609 0.0041805315 -0.13366924 -0.19170788 -0.013056884 0.06398462 -0.13466504 -0.06987686 0.09404371 -0.05060991 -0.043301925 0.0066837724 -0.12462067 0.1596961 -0.062643625 -0.033213582 0.1497448 0.0064476905 0.045011796 0.04030042 0.1814288 -0.14995047 0.21391077 -0.002159373 0.13292181 -0.007973545 0.013745826 -0.064782456 0.17625809 0.007906761 -0.14376584 -0.09546055
75 -0.11975418 -0.22117718 0.013194748 -0.15261358 0.07656418 -0.022930752 0.051740754 0.07905752 0.10582915 -0.026250856 0.009062375 0.19149686 0.06980756 -0.03946766 0.056635424 -0.13402247 -0.082641155 -0.014011288 0.051381573 0.06371581 0.124103025 -0.026597248 0.050955817 -0.0061174617 0.015293229 0.048967417 -0.22442305 -0.0479895 -0.089280374 -0.092993654 0.025425514 0.03260411 -0.16644438 -0.058096964 0.024965081 -0.12134747 0.0913278 0.0039648195 0.015639024 0.04851625 -0.16394405 0.070673145 0.2124203 0.025636954 -0.12274598 0.22433716 0.021666102 0.031703476 -0.030961053 -0.030639734 -0.102468595 0.062254403 0.02787236 0.007798928 -0.12492545 -0.19888939 -0.005840013 0.051360913 -0.12923557 -0.07431748 0.099792406 -0.03585719 -0.038319115 -0.0062497114 -0.122872874 0.1700613 -0.06480502 -0.039802317 0.15927905 0.0014789851 0.06980091 0.038242225 0.18467794 -0.1592288 0.21343686 -0.0040807547 0.13473226 -0.01854123 0.02826962 -0.06693433 0.18246983 0.014056392 -0.14637846 -0.080748335
81 -0.11423107 -0.23485842 0.03828413 -0.15936321 0.10276496 -0.0412892 0.051638845 0.09560466 0.08222623 -0.021504357 -0.009679098 0.17157419 0.09752064 -0.056456298 0.079231165 -0.12753578 -0.109220125 -0.027777648 0.05298072 0.0809793 0.12523636 -0.025980953 0.039475013 -0.005002874 0.015517622 0.05060495 -0.1756595 -0.044058695 -0.06164829 -0.08527697 0.030076658 0.025051234 -0.14274588 -0.069335 0.0021632581 -0.1307992 0.09713522 0.01595026 0.012861242 0.039343275 -0.15354688 0.077219106 0.19772097 0.019047901 -0.12384948 0.22904389 0.00027805526 0.05459403 -0.06205494 -0.018186156 -0.09599463 0.068353355 0.034527753 0.003158236 -0.1510978 -0.22101738 -0.018182166 0.04291793 -0.14254497 -0.07962934 0.12618355 -0.06917379 -0.020099072 -0.0014714171 -0.10994736 0.16464236 -0.08893977 -0.032134134 0.16901155 0.017409585 0.055579312 0.049219932 0.17326793 -0.16039313 0.20544125 -0.0007485305 0.14104015 -0.015156362 0.020576151 -0.057642516 0.17784135 0.008181991 -0.12369741 -0.09586194
11 -0.15164568 -0.2797508 0.019997982 -0.17223494 0.08597248 -0.0392513 0.04573961 0.07977052 0.12861657 -0.028933672 -0.0060711293 0.23690668 0.07789716 -0.052332774 0.06953317 -0.16280955 -0.106860876 -0.018613413 0.042465266 0.06329393 0.14687036 -0.012516825 0.06964886 0.007037315 0.0054672034 0.040443394 -0.22534761 -0.054256897 -0.0837527 -0.071619265 0.03448952 0.028853916 -0.11564351 -0.045129206 0.02269831 -0.09513658 0.08600838 0.006795818 0.0005968099 0.0386474 -0.16264445 0.060776107 0.18904418 0.040421516 -0.12206692 0.25394142 0.009498657 0.025690202 -0.06466541 -0.02769697 -0.09778777 0.054915156 0.036803175 0.012198954 -0.14713554 -0.19443034 -0.019203842 0.056712743 -0.13359378 -0.06716863 0.0997193 -0.048206985 -0.031682137 0.0042693536 -0.09712014 0.12327837 -0.051011126 -0.029477336 0.1517115 0.0032850583 0.028920969 0.041068368 0.1528697 -0.14430809 0.18209544 0.0011863788 0.13103962 -0.007940904 0.015981702 -0.067996256 0.12870419 0.009370366 -0.11008859 -0.08718846
70 -0.10108857 -0.18786459 0.012135742 -0.12551774 0.081210196 -0.034194224 0.036842324 0.05288033 0.09320269 -0.0108736195 -0.011051231 0.21202111 0.059095014 -0.041967176 0.046957303 -0.13916071 -0.09048632 -0.016747873 0.04088567 0.07121033 0.11059711 -0.014343755 0.04710766 -0.008698234 0.021925816 0.061777927 -0.17709675 -0.028438058 -0.07100838 -0.07945587 0.029625962 0.034021806 -0.13692735 -0.04827008 0.015311804 -0.09642708 0.0746565 0.007819173 -0.00032843775 0.033771005 -0.16170147 0.070795216 0.20091009 0.035209835 -0.112215996 0.19987798 0.013983079 0.013378435 -0.049870204 -0.03714354 -0.10087868 0.06879992 0.03922478 0.0030261513 -0.10383461 -0.18527585 -0.0051302235 0.043474544 -0.12250115 -0.081701204 0.09249266 -0.04398168 -0.039438542 0.002213369 -0.1254243 0.17368472 -0.083317965 -0.03864818 0.1828212 0.008450131 0.05529721 0.06382506 0.22878565 -0.19741267 0.25862324 -0.025246246 0.1766222 -0.00782436 0.028807983 -0.04391927 0.2103626 -0.018042974 -0.15866551 -0.12983604
67 -0.12670517 -0.2238749 0.026723465 -0.14856507 0.08644563 -0.03897191 0.039496668 0.06502399 0.124503225 -0.016728204 0.0046428004 0.21089114 0.07336441 -0.0609057 0.07827983 -0.15374419 -0.0924194 -0.030354159 0.042559586 0.054593075 0.12020618 -0.022011442 0.056100264 -0.004169852 0.023964278 0.048978027 -0.20370334 -0.052522585 -0.075686336 -0.09220608 0.02775775 0.030123413 -0.14832404 -0.069028884 0.023964336 -0.11043707 0.08407416 0.00447698 0.014016456 0.03997421 -0.17033921 0.076806 0.20940098 0.048974104 -0.1273573 0.24426517 0.009254778 0.04369411 -0.05680783 -0.017390424 -0.090595424 0.06123319 0.026978586 0.017707499 -0.13886999 -0.20500728 -0.0075307884 0.061893802 -0.14060646 -0.07359707 0.10069507 -0.043233845 -0.035872027 -0.003899158 -0.112936206 0.14576335 -0.0640354 -0.029271992 0.17122525 0.012048088 0.05692627 0.0446747 0.17445773 -0.15602264 0.19549102 -0.0054491395 0.13180831 -0.0054182354 0.02162386 -0.061824314 0.15112458 0.012321951 -0.13469215 -0.075655684
2 -0.13769011 -0.23462796 0.0140402345 -0.1397687 0.06627393 -0.030982615 0.03483538 0.05186382 0.098284654 -0.010887979 0.0018961491 0.22855006 0.07849011 -0.06746845 0.060487088 -0.16817713 -0.09167079 -0.009785157 0.058642667 0.0774374 0.12202793 -0.014794069 0.05880403 0.0065674903 0.012508176 0.043364163 -0.20760515 -0.039384156 -0.066599235 -0.054129545 0.031665545 0.03015477 -0.15324974 -0.04295169 0.0229953 -0.109195136 0.087631315 -0.0037204293 0.0118392585 0.026261173 -0.16683304 0.069445886 0.20278253 0.037279174 -0.13237284 0.24184318 -0.0026724539 0.017853355 -0.057283252 -0.034289297 -0.10290126 0.060063045 0.03817267 0.017357241 -0.15683962 -0.21008849 -0.009471882 0.057136603 -0.14508204 -0.07920007 0.101956666 -0.05450872 -0.044491958 0.013454282 -0.11750055 0.12786955 -0.06492241 -0.032600883 0.15792346 0.0022926207 0.036770754 0.05863479 0.18002391 -0.1511105 0.21905984 -0.011879697 0.13184752 0.004530214 0.014515055 -0.05086285 0.13586392 -0.011425473 -0.12884344 -0.099169366
25 -0.16907015 -0.2881225 0.022314472 -0.19034982 0.08791273 -0.03476096 0.048360374 0.056606498 0.12604912 -0.018759629 -0.014868575 0.25633436 0.06869183 -0.057705723 0.074531965 -0.17536 -0.12203397 -0.040770747 0.067789875 0.08844467 0.15046296 -0.0173582 0.066622496 0.0033270142 0.013008423 0.047021236 -0.2015025 -0.045945566 -0.07977976 -0.068759575 0.026658203 0.038035534 -0.1614028 -0.06673258 0.028253421 -0.13074388 0.08534744 0.0038681605 -0.006396297 0.0092350105 -0.13940959 0.07398975 0.15325516 0.029771974 -0.0962707 0.21198367 0.0086146165 0.03917794 -0.05653158 -0.026902203 -0.096529715 0.061889708 0.038190916 0.011489063 -0.1393939 -0.17308392 0.013589315 0.03650767 -0.14671944 -0.07992355 0.09052286 -0.02887396 -0.024777822 0.009896724 -0.12064566 0.14293718 -0.07665613 -0.012870564 0.14806648 -0.003911057 0.049170595 0.038150515 0.16904524 -0.15851651 0.20895207 -0.014043214 0.12863298 0.0059448564 0.02111811 -0.05414897 0.12796056 -0.0018635378 -0.11621365 -0.08949492
69 -0.124988616 -0.23207994 0.01419085 -0.16074958 0.085273094 -0.025106551 0.0659539 0.08579043 0.11738165 -0.030882936 -0.0022598126 0.20942186 0.08311309 -0.035506684 0.06557797 -0.13878171 -0.11792097 -0.012941417 0.03659242 0.07049217 0.14223905 -0.019069456 0.06219031 -0.0049920576 0.010602722 0.04770552 -0.23467056 -0.065990716 -0.09403492 -0.09365484 0.0339827 0.022161359 -0.1501162 -0.058113065 0.014376709 -0.11296444 0.08954636 0.012563703 -0.0017143004 0.05421015 -0.14176852 0.067365356 0.19083701 0.020351546 -0.10910756 0.23444462 0.028962368 0.028224131 -0.029278634 -0.03755379 -0.09194104 0.05041208 0.03827298 -0.0037071058 -0.12120637 -0.19352672 -0.007029774 0.033142563 -0.1268307 -0.07013211 0.11220426 -0.039044682 -0.032415766 -0.006449776 -0.09646617 0.16923389 -0.08214358 -0.03982846 0.17185733 0.00685071 0.06541508 0.03946735 0.17794588 -0.15673716 0.19674563 -0.0004860368 0.13637725 -0.022720816 0.020115381 -0.059642933 0.1736168 0.018000627 -0.118881375 -0.08434557
44 -0.13974375 -0.23898397 0.005312479 -0.16090433 0.07703499 -0.03140409 0.03489737 0.040674288 0.12073243 -0.021005701 -0.007833557 0.24545614 0.06561793 -0.05502648 0.06393862 -0.16493313 -0.11077777 -0.02101372 0.05516907 0.074592575 0.12520692 -0.01532605 0.059684686 0.003960223 0.013223758 0.04849648 -0.21484037 -0.038742416 -0.07307592 -0.07138491 0.03663623 0.04127376 -0.13729273 -0.04973887 0.031069536 -0.095705785 0.07425131 -0.0045647123 0.0042377976 0.01514525 -0.1639873 0.072631106 0.1807709 0.033747256 -0.11173158 0.25128517 0.01129872 0.035049405 -0.06546197 -0.02904657 -0.10416284 0.05496718 0.02545063 0.009772018 -0.14536855 -0.18453053 -0.0017632531 0.061468557 -0.13445786 -0.084206924 0.08958397 -0.049426816 -0.038157202 0.009665887 -0.114576675 0.14399594 -0.06645807 -0.031565987 0.1743033 0.010130772 0.046835896 0.05344584 0.17961048 -0.16616592 0.21955095 -0.005836673 0.13662738 -0.002349951 0.028355725 -0.056164425 0.13818449 0.006264222 -0.11917101 -0.09476499
43 -0.09441534 -0.17392129 0.01071674 -0.13504604 0.101845674 -0.0366525 0.057137635 0.075822726 0.12880525 -0.02564456 0.0036428506 0.23520786 0.086220525 -0.04195683 0.06298316 -0.15302569 -0.11045571 -0.012457856 0.0444021 0.068524994 0.11539306 -0.030646894 0.049445923 -0.0034039598 0.022522395 0.07255009 -0.2277887 -0.036825538 -0.08827956 -0.09721881 0.027445387 0.051958468 -0.15677118 -0.044752974 0.012067113 -0.08973378 0.05470849 -0.002952943 -0.0006466175 0.03883536 -0.15191223 0.063540794 0.21083798 0.014040633 -0.10730171 0.20592962 0.04625651 0.021781107 -0.020406805 -0.025781874 -0.09184503 0.0601387 0.011826378 -0.008373618 -0.09886508 -0.18777625 0.0150767695 0.0386921 -0.1138254 -0.07270409 0.09743475 -0.038207993 -0.037545238 0.00451559 -0.12904906 0.18490386 -0.07469321 -0.040349815 0.17167674 0.027250906 0.08196904 0.058167454 0.20954747 -0.17340569 0.22752309 -0.03410438 0.1574291 -0.015675822 0.027052956 -0.033881094 0.2079864 0.0061212443 -0.13307296 -0.10317717
80 -0.13341813 -0.25839573 0.044054825 -0.17165855 0.11635239 -0.033355456 0.054037727 0.07916165 0.087173335 -0.014886179 -0.015705496 0.19220592 0.078925975 -0.03579459 0.0757671 -0.13239342 -0.10153052 -0.02519147 0.05221076 0.06429381 0.120594054 -0.020190205 0.044473514 -6.5771437e-06 0.013264771 0.046784516 -0.17164072 -0.035893206 -0.07271134 -0.09636889 0.039939184 0.045197077 -0.11783034 -0.0577819 0.009786019 -0.10007437 0.08418026 0.024046607 0.0039302288 0.040260594 -0.15929893 0.07091527 0.21144769 0.022302885 -0.10276112 0.21926135 0.020974223 0.045935538 -0.052098207 -0.015347507 -0.101863146 0.068476185 0.027209744 -0.0036136843 -0.12829913 -0.20899493 -0.016015744 0.041151997 -0.14432727 -0.08139818 0.12115864 -0.07066336 -0.019436164 -0.002175656 -0.11500068 0.17333505 -0.07540986 -0.042777766 0.16383813 0.014027769 0.06634305 0.04689432 0.17553483 -0.15270102 0.19793189 -0.015052002 0.142822 -0.014799859 0.00480583 -0.06574567 0.16470943 0.009363933 -0.12769909 -0.09890607
32 -0.16249192 -0.26060656 0.026331585 -0.18090056 0.092375174 -0.036085546 0.045077506 0.053736087 0.113967665 -0.016654862 -0.0019897046 0.26115572 0.077594966 -0.06991617 0.078973114 -0.17715865 -0.12147218 -0.03588794 0.035618715 0.06910082 0.13137016 -0.0020878534 0.037045036 0.011712959 0.011446444 0.04280085 -0.18777856 -0.043501485 -0.07603905 -0.090454854 0.01647395 0.016311878 -0.09389257 -0.04163749 0.024455005 -0.09648903 0.0724547 0.01742008 0.021409031 0.025416104 -0.1511518 0.07334067 0.19219524 0.0315494 -0.11629841 0.21875925 0.0024168533 0.025920788 -0.06409295 -0.029427528 -0.08418135 0.063938186 0.03552092 0.023486134 -0.12988056 -0.17765096 -0.024351306 0.029519502 -0.1197462 -0.07626092 0.10570213 -0.049888104 -0.029267607 0.008623366 -0.10807594 0.12328558 -0.07323956 -0.030055368 0.1748021 -0.0033348436 0.024942664 0.03871669 0.18060945 -0.16337803 0.2082294 -0.021989688 0.13682742 -0.012846393 0.018997725 -0.054213807 0.14433068 -0.0061237104 -0.10813615 -0.11644529
20 -0.11879778 -0.21359389 0.012481424 -0.13620384 0.07340797 -0.031991147 0.050103735 0.067603275 0.114553764 -0.018787561 0.0026603474 0.24251859 0.07467864 -0.04767348 0.0646702 -0.1535594 -0.10946749 -0.013893984 0.045029268 0.07340254 0.14937611 -0.01774606 0.07393086 -0.0038682802 0.013814655 0.056650937 -0.24088308 -0.05951839 -0.084537 -0.08624552 0.01992205 0.038551334 -0.15093428 -0.049748283 0.02609889 -0.113880344 0.09551282 -0.0044868025 -0.0038262135 0.031673882 -0.17466857 0.05695963 0.1751913 0.04148227 -0.1165465 0.22777043 0.011008938 0.039150465 -0.046284817 -0.044525325 -0.09691454 0.060527865 0.03443441 0.0028275773 -0.12706648 -0.1743353 -0.010067062 0.04885125 -0.13729972 -0.06180238 0.10440768 -0.032368366 -0.033783432 0.0152149005 -0.11173542 0.13984598 -0.05450581 -0.03506405 0.1588621 0.010441907 0.053669702 0.05456063 0.17333674 -0.15362106 0.20218287 0.0064728553 0.12071748 -0.013078308 0.013633217 -0.05829647 0.14683682 -0.0026472851 -0.12817478 -0.07888004
66 -0.09224949 -0.1787438 0.028953934 -0.1208479 0.07081595 -0.034983218 0.03562827 0.06638903 0.102253206 -0.00094369875 0.009818412 0.20011656 0.07658629 -0.04543619 0.08011481 -0.12384747 -0.09827413 -0.0276553 0.04902989 0.052161675 0.12225147 -0.00578747 0.04596205 0.005939422 0.020203626 0.05452214 -0.20641696 -0.03909209 -0.07342694 -0.07186129 0.03431434 0.022854453 -0.118392594 -0.051023677 0.018079134 -0.088918984 0.07814648 0.025782052 0.0075405566 0.044359047 -0.15830338 0.08705397 0.20377703 0.025268031 -0.12528385 0.2439489 0.0065015694 0.030842058 -0.05797755 -0.015396845 -0.10517673 0.06981331 0.03142723 0.020280741 -0.13819122 -0.21585645 -0.007328366 0.053173736 -0.13738963 -0.07789403 0.12124326 -0.051272467 -0.04024941 -0.019788748 -0.1341715 0.17671302 -0.08627587 -0.03278081 0.19328888 0.02337691 0.061585255 0.05033211 0.20361705 -0.18289311 0.2352281 -0.016089305 0.15778291 -0.010423121 0.010916045 -0.05592354 0.16618691 0.015176639 -0.14462134 -0.09743362
24 -0.10831434 -0.196772 0.031452548 -0.122810066 0.06609967 -0.024077412 0.030748293 0.050996695 0.09844735 -0.008356641 -0.0041440427 0.19982809 0.091186054 -0.069843516 0.06748352 -0.15763521 -0.1061231 -0.022543745 0.05453853 0.069884926 0.1317418 -0.0154000465 0.054087266 0.014256819 0.012495987 0.047057692 -0.21348701 -0.05928932 -0.07209633 -0.066754945 0.021084553 0.0302991 -0.16274932 -0.06878399 0.019863512 -0.12463871 0.10114795 0.0058787195 0.013790402 0.030608654 -0.15655854 0.08261535 0.19766255 0.031963136 -0.118166685 0.2500114 -0.0052034673 0.041615088 -0.054205388 -0.026235564 -0.08695255 0.06456501 0.03436878 0.014679276 -0.15036446 -0.19101807 -0.00415116 0.041552797 -0.1588805 -0.08374827 0.119377226 -0.060534578 -0.025100889 0.0062994626 -0.121453404 0.13830881 -0.07377054 -0.031634476 0.17644621 0.013828965 0.05862502 0.050271172 0.17267491 -0.16831373 0.22343192 -0.011465897 0.12956837 -0.008079258 0.009034841 -0.061726972 0.1464883 0.0038364865 -0.12097757 -0.09768411
46 -0.10374883 -0.18495889 0.032226764 -0.115758 0.08842628 -0.02707523 0.038805567 0.06852293 0.096399516 -0.0047898456 0.0061320327 0.2099493 0.06871728 -0.039634354 0.078461476 -0.1453578 -0.096031845 -0.021640884 0.041500214 0.059732724 0.11140281 -0.016386371 0.045600444 -0.0013714683 0.022816041 0.05184713 -0.18082084 -0.04106878 -0.06893805 -0.0846206 0.021735951 0.037022647 -0.1473267 -0.051948786 0.02264256 -0.11356749 0.082173616 0.014526451 0.004093706 0.056274462 -0.15465412 0.076866806 0.20451806 0.021193802 -0.115526356 0.22455515 0.01397171 0.027762432 -0.06309315 -0.028164195 -0.101246394 0.0702462 0.029864931 0.003594786 -0.12993002 -0.21250468 -0.0032113325 0.040089287 -0.15279144 -0.097176984 0.12719287 -0.06295592 -0.036764324 -0.005196152 -0.123144925 0.16997057 -0.083321154 -0.04578764 0.1813579 0.019403975 0.061837245 0.042475626 0.19855745 -0.1724862 0.23534445 -0.016849387 0.1406169 -0.014365677 0.008239191 -0.057099767 0.17338628 0.0032704081 -0.1379678 -0.104593374
22 -0.13222846 -0.26318708 0.023745319 -0.18332301 0.11320187 -0.031720396 0.057328656 0.092093706 0.13257518 -0.029959334 -0.019666577 0.25398487 0.10207256 -0.05412893 0.07705617 -0.1739169 -0.13152632 -0.03488587 0.046244588 0.08124659 0.1552162 -0.025345348 0.07881345 0.012395642 0.008584544 0.05527296 -0.23965839 -0.073945984 -0.0925485 -0.087624125 0.024157232 0.037816428 -0.15696236 -0.06471394 0.0101887565 -0.12890022 0.077484414 0.011701763 -0.0047644856 0.027044076 -0.14410354 0.054049592 0.1649984 0.027439231 -0.105832666 0.23308654 0.01192223 0.05521078 -0.03492852 -0.023454906 -0.08396163 0.05228866 0.02237159 0.002031442 -0.11543913 -0.1773857 -0.0011985756 0.029864667 -0.12844282 -0.07188144 0.11153754 -0.042863116 -0.017441722 0.014989026 -0.08852997 0.13185564 -0.0632169 -0.029621594 0.16218446 0.02542511 0.049067114 0.04340625 0.15145075 -0.15315643 0.18896073 -0.0073081497 0.10759839 -0.010772723 0.01800843 -0.051788904 0.13499224 0.008607169 -0.09080843 -0.08700171
42 -0.13327467 -0.235342 0.032600965 -0.15373895 0.09645218 -0.04354837 0.051628437 0.088597275 0.12898 -0.01081013 -0.0003471471 0.24264458 0.07784909 -0.051542357 0.06773377 -0.14810832 -0.106397584 -0.02169671 0.05818729 0.06751092 0.13211067 -0.0077514304 0.06305332 0.01118521 0.022150109 0.049285002 -0.21259883 -0.045132563 -0.08278944 -0.06686156 0.034146808 0.031726677 -0.12990384 -0.04566013 0.023430804 -0.10269681 0.076707974 0.0111357635 -0.0012334113 0.04357622 -0.1528973 0.07388057 0.19549692 0.046076294 -0.116179526 0.21155563 0.010025311 0.028810682 -0.057476558 -0.023915524 -0.09732517 0.058672972 0.041187573 0.019754259 -0.13458404 -0.21288995 -0.007312582 0.043679416 -0.14584436 -0.08268344 0.10430842 -0.03879805 -0.036174133 -0.014939496 -0.11073877 0.15844876 -0.07057897 -0.032373656 0.17570183 0.010380399 0.05497444 0.049241323 0.17991152 -0.16460685 0.20425391 -0.010852438 0.123111084 -0.006161307 0.0061402395 -0.051827393 0.1363268 0.0070417314 -0.13070253 -0.07539037
37 -0.13502513 -0.22090665 0.023460519 -0.15477487 0.10079873 -0.025784465 0.042649597 0.07229807 0.12917635 -0.021639185 0.0066118403 0.24670562 0.082591206 -0.057436883 0.065714195 -0.17905825 -0.11450925 -0.019862592 0.052332755 0.07411063 0.11785401 -0.024749726 0.05631825 0.012741456 0.025038319 0.06613412 -0.22033471 -0.044461187 -0.07612612 -0.090166256 0.015462972 0.036919083 -0.15681289 -0.046087895 0.030366817 -0.11159487 0.076834865 -0.006144983 0.006579097 0.033464678 -0.15889704 0.07296268 0.20397738 0.032064408 -0.11827352 0.22898996 0.020582903 0.03235676 -0.04354719 -0.02887379 -0.0975282 0.058736674 0.027002618 0.012066206 -0.12234438 -0.18329665 -1.1703596e-06 0.04091861 -0.12456427 -0.07390868 0.08942749 -0.04116406 -0.038109764 0.009638786 -0.10490978 0.13372725 -0.061863247 -0.022305582 0.15242001 0.0073690037 0.052723642 0.04133521 0.17254414 -0.14904118 0.20506015 -0.022056742 0.12869027 -0.008628123 0.026285144 -0.036559038 0.15816014 -0.006442854 -0.11772239 -0.08980478
21 -0.13259298 -0.20573722 0.029361643 -0.13790542 0.07806374 -0.03351874 0.049263198 0.056469884 0.123288214 -0.0039577377 0.00259334 0.25122523 0.085235834 -0.061987102 0.056660213 -0.1608633 -0.11142247 -0.014640307 0.047691587 0.0732067 0.12579924 -0.01989375 0.06079495 0.005695548 0.020029105 0.04956498 -0.2095203 -0.04667162 -0.06997139 -0.05939841 0.027077287 0.035507936 -0.121013395 -0.038258255 0.021436207 -0.09071053 0.07307125 0.0071517476 0.0081119025 0.03873483 -0.14506643 0.071725436 0.18246491 0.026222387 -0.12160673 0.23293194 0.01344045 0.0189675 -0.046756852 -0.027193129 -0.091655865 0.060899377 0.03930334 0.011091957 -0.13457541 -0.1923885 -0.005153623 0.03746428 -0.14786929 -0.08625944 0.11188174 -0.055740107 -0.04006037 0.001567005 -0.108779415 0.14008413 -0.06845144 -0.039509412 0.17776133 0.011421193 0.05670324 0.038512927 0.18572645 -0.1721579 0.217944 -0.02090839 0.13404217 -0.006484139 0.013577623 -0.05013632 0.15295415 -0.00078335963 -0.12572733 -0.10767037
50 -0.13036892 -0.24930884 0.021801353 -0.15546675 0.10012452 -0.036693767 0.050415937 0.07955667 0.123556614 -0.013034547 -0.01012282 0.23857613 0.09108237 -0.05296448 0.066906676 -0.16814959 -0.10152439 -0.0127553 0.050497618 0.08347873 0.14101866 -0.019210324 0.06756996 0.0053294245 0.021083834 0.058235098 -0.22929753 -0.052936714 -0.07773808 -0.084143564 0.029780917 0.039512593 -0.16539745 -0.056799278 0.024196962 -0.10599453 0.07892428 -0.00010193067 -0.00040180143 0.041246697 -0.1447649 0.057063878 0.17742935 0.030463273 -0.10947734 0.22706795 0.010991648 0.03518471 -0.049664136 -0.034643095 -0.087852485 0.055454742 0.03205626 -0.00069574366 -0.12482375 -0.18116555 0.00479948 0.05082882 -0.14206971 -0.07627292 0.10356052 -0.052035462 -0.026988499 0.0030058122 -0.10578366 0.13340564 -0.060092468 -0.03918582 0.16293877 0.02758296 0.057235423 0.061294544 0.16916828 -0.15123317 0.19422518 -0.0066674696 0.11934587 -0.0017562301 0.011573655 -0.054663908 0.13984022 0.00045780232 -0.11880564 -0.081869446
0 -0.15889512 -0.25647357 0.033341058 -0.17618264 0.09799967 -0.024596274 0.047367916 0.07195519 0.10869676 -0.022754842 0.011132989 0.2443178 0.0851177 -0.051917713 0.07931781 -0.18422517 -0.10946619 -0.015156112 0.048451886 0.07317026 0.1332608 -0.015162212 0.049182475 0.027352544 0.0115057975 0.0463109 -0.20806177 -0.049770124 -0.08123717 -0.08204274 0.036642853 0.024506146 -0.1613986 -0.056414563 0.027671615 -0.13912436 0.097688384 0.016686764 0.012636644 0.03619101 -0.16543254 0.072837785 0.18593867 0.030193657 -0.112625636 0.24107803 0.005399656 0.020784015 -0.05864526 -0.022332449 -0.093069114 0.05741685 0.041628506 -0.00035756666 -0.1349719 -0.18651862 -0.023055067 0.029385393 -0.13631427 -0.068715975 0.100900225 -0.06823282 -0.035706554 0.01344073 -0.10274422 0.11735463 -0.0615632 -0.03392039 0.15245976 0.01164841 0.03602622 0.048848253 0.16357745 -0.13345699 0.19572075 -0.025213731 0.12491132 -0.01190055 0.013883113 -0.057792164 0.13238695 -0.013087855 -0.109457694 -0.10250364
41 -0.13757561 -0.21204259 0.035835993 -0.13558581 0.100337125 -0.03292466 0.060649164 0.0719728 0.12416113 -0.027117833 0.016938927 0.25365153 0.08823392 -0.050571214 0.062444586 -0.16265121 -0.12141474 -0.008199172 0.05653169 0.073890254 0.121222116 -0.023517046 0.048431918 -0.0011289469 0.01875964 0.06048607 -0.21059856 -0.036197163 -0.06848272 -0.076570764 0.01693797 0.03909484 -0.16035537 -0.04428411 0.0285345 -0.10727534 0.074882574 0.00082632125 -0.0032036195 0.046745777 -0.124242045 0.06718856 0.17800683 0.011424315 -0.10666476 0.21321644 0.02562809 0.020221032 -0.041351233 -0.030912014 -0.09699337 0.050619353 0.03166488 -0.01212698 -0.112199135 -0.19610053 -0.0017758845 0.04194828 -0.13030593 -0.08996095 0.09934971 -0.04775862 -0.037283484 -0.004285185 -0.10980838 0.16301058 -0.06934217 -0.042540446 0.15578406 0.02365781 0.06883904 0.03550284 0.18732502 -0.1516028 0.20476454 -0.021948589 0.14038616 -0.017521327 0.016081309 -0.035964448 0.17912596 0.00032658628 -0.13716723 -0.103401184
82 -0.11607567 -0.22540511 0.037192978 -0.16229092 0.101486325 -0.038909324 0.054385863 0.07424038 0.091744244 -0.010220654 -0.0133147985 0.1989483 0.09520738 -0.05900663 0.079535045 -0.16165479 -0.120692134 -0.03110124 0.043197833 0.06024001 0.1359618 -0.027090639 0.053728163 -0.012224651 0.010039351 0.04896572 -0.19770995 -0.0452187 -0.07635885 -0.104653224 0.036966234 0.037070315 -0.13139436 -0.06884005 0.0142339 -0.092779815 0.08900827 0.017390264 0.009123123 0.025389863 -0.15714861 0.073357634 0.21359281 0.022722702 -0.11785309 0.20345347 0.024284255 0.0475812 -0.06032702 -0.018665511 -0.08816585 0.08338738 0.022908242 0.014092782 -0.14018396 -0.20057169 -0.00034335197 0.052873056 -0.14066675 -0.06706086 0.10732387 -0.055817995 -0.024119407 -0.009080166 -0.1317809 0.1560981 -0.07925906 -0.031179894 0.16256756 0.009338342 0.051881555 0.041622695 0.17666706 -0.17077935 0.18886146 -0.014711469 0.15038083 -0.008772073 0.021128334 -0.064039126 0.15631612 0.005113461 -0.1054759 -0.07998702
8 -0.14416368 -0.24754135 0.029959226 -0.15707208 0.07382508 -0.03330447 0.042521972 0.05883679 0.09826362 -0.013650352 -0.0044866805 0.22794102 0.07596332 -0.05904075 0.074598834 -0.17224188 -0.11039996 -0.02643595 0.06338639 0.07259595 0.1384721 -0.0090210885 0.06039796 0.008033256 0.01472053 0.052011758 -0.2138071 -0.037325215 -0.076231785 -0.07620616 0.03106329 0.03251883 -0.15761577 -0.057910178 0.029601501 -0.13119906 0.100336485 0.0032039538 0.019349998 0.03590673 -0.16405088 0.07649565 0.18061246 0.041518167 -0.11818315 0.23726344 -0.007697382 0.032195367 -0.07475789 -0.019496659 -0.10243048 0.05659881 0.044837 0.020239031 -0.15129632 -0.19041409 -0.02191219 0.0514434 -0.14702292 -0.07562537 0.08668493 -0.054320052 -0.033140313 0.00496608 -0.10724902 0.12454974 -0.059531193 -0.026229454 0.15458988 0.0025445567 0.030184751 0.040975288 0.16196246 -0.15204862 0.19218278 -0.004865147 0.123975284 -0.0050182934 0.015776945 -0.053875953 0.12431009 -0.003369198 -0.11806148 -0.086159974
3 -0.13322315 -0.25048995 0.03361559 -0.16986303 0.09787582 -0.039733056 0.048799124 0.08183726 0.10729564 -0.018768433 -0.006396047 0.22013205 0.08685864 -0.057369947 0.0806232 -0.16925882 -0.106645964 -0.02746013 0.044439886 0.07025837 0.13628423 -0.010254165 0.06506695 0.016571434 0.0107723065 0.053371258 -0.20415889 -0.05006987 -0.071592376 -0.07439404 0.03351444 0.029054413 -0.1416788 -0.056933444 0.010915946 -0.12586308 0.10113021 0.014729266 0.007376454 0.04057511 -0.17656781 0.06660273 0.20382127 0.040286623 -0.124831654 0.25096348 0.004660579 0.030233111 -0.06882013 -0.019594682 -0.09937885 0.06432228 0.031010889 0.011740693 -0.14270227 -0.20190658 -0.019507337 0.043101672 -0.13999166 -0.062872164 0.108263664 -0.057388086 -0.035148714 0.010475913 -0.10832084 0.13269265 -0.055069163 -0.022123229 0.15294027 0.010499249 0.043125283 0.04694108 0.1630688 -0.14760321 0.19118136 -0.015815688 0.13135327 -0.0030459436 0.019575011 -0.06216079 0.122531384 0.0023739345 -0.10043054 -0.09048346
54 -0.1480549 -0.24289227 0.038545147 -0.1390967 0.0767232 -0.032746598 0.04039373 0.050771423 0.12598942 -0.020392712 0.002263005 0.25119734 0.08482828 -0.04822999 0.06538308 -0.1548363 -0.12860778 -0.013884091 0.060422044 0.070220426 0.13390869 0.0014639426 0.055211492 0.00081647973 0.01014985 0.04737705 -0.21458563 -0.039539315 -0.08106748 -0.07955567 0.032514617 0.04032838 -0.1363336 -0.044441234 0.03778066 -0.09174438 0.07996757 0.014736021 0.0033583494 0.047650833 -0.14745323 0.076835394 0.20806694 0.028391844 -0.113161564 0.23181897 0.0113722235 0.018866565 -0.061678942 -0.035211194 -0.10248165 0.055381514 0.04670562 0.00084266363 -0.14142324 -0.20379993 -0.005868384 0.052608218 -0.1410199 -0.087336235 0.101174876 -0.046537094 -0.030874368 -0.012352417 -0.11048022 0.15167974 -0.064346425 -0.0401709 0.1622906 0.02375492 0.0647005 0.05341782 0.17065667 -0.14993744 0.19318207 -0.00922811 0.12988685 -0.0060889972 0.00652662 -0.04540003 0.13790885 -0.00063529453 -0.12281727 -0.095816925
51 -0.13147835 -0.2348071 0.032248534 -0.15248449 0.08862012 -0.02770609 0.037959956 0.06678815 0.09545317 -0.0015274589 0.005983924 0.19572105 0.07812527 -0.05752853 0.06806764 -0.14244975 -0.09845739 -0.020509273 0.04706646 0.06579174 0.13006389 -0.027138777 0.05323817 -0.0040141027 0.021939242 0.042610742 -0.19225486 -0.04538841 -0.054264892 -0.060559068 0.020661926 0.03286804 -0.15647735 -0.06767015 0.013441215 -0.122796595 0.09314676 0.005027401 -0.004881494 0.034209497 -0.14712715 0.0735435 0.17041111 0.020135902 -0.11727843 0.24306503 0.0007474075 0.04233275 -0.05354448 -0.01815002 -0.096760765 0.05767097 0.042204615 -0.003512742 -0.13067843 -0.2063192 -0.006551484 0.034007676 -0.1322877 -0.08551299 0.11796989 -0.058739733 -0.03370858 -0.0030249613 -0.11289997 0.15235054 -0.07749078 -0.026866103 0.17111194 0.027476886 0.06839434 0.040912997 0.19215098 -0.175994 0.22743848 -0.012028418 0.14482793 -0.004078931 0.0051858854 -0.06646601 0.16861926 -0.006191282 -0.14029731 -0.109247535
45 -0.08954124 -0.18838544 0.024491977 -0.13320701 0.107161075 -0.033844184 0.05632689 0.08995767 0.12298987 -0.00819854 0.012077591 0.21216819 0.09458804 -0.037069608 0.08151625 -0.16665743 -0.10664655 -0.01177044 0.043644004 0.0663734 0.12337092 -0.02412637 0.059813116 0.00033793223 0.020728344 0.073329896 -0.2299988 -0.05139029 -0.08310385 -0.085492946 0.04396487 0.044370383 -0.15502751 -0.04594819 0.016649729 -0.093396686 0.063236415 0.017697535 -0.0037235902 0.045844514 -0.16582112 0.076315485 0.211451 0.021905812 -0.124680206 0.22342932 0.03632236 0.030672733 -0.029734567 -0.01965473 -0.10805675 0.06375918 0.023261499 -0.00074449915 -0.11324105 -0.21287161 0.0023930543 0.031665698 -0.11822519 -0.068314664 0.09564439 -0.044501238 -0.03676658 -0.012354465 -0.12081244 0.17444566 -0.067415446 -0.03873111 0.14912492 0.027439892 0.076009594 0.060794685 0.17761375 -0.16037573 0.19786981 -0.017138772 0.14728776 -0.014107496 0.01828851 -0.045664504 0.17164133 0.0014173838 -0.13355038 -0.08580861
4 -0.1446667 -0.2586647 0.042535737 -0.17015302 0.10636317 -0.04997215 0.04299456 0.084921956 0.10710628 -0.015400897 -0.0006486602 0.2180529 0.09852381 -0.069840446 0.0806409 -0.15979864 -0.1164735 -0.031676434 0.06134949 0.0872022 0.13788716 -0.024304552 0.05540535 -0.006746138 0.019421492 0.06352172 -0.19559081 -0.037683357 -0.06181858 -0.080281734 0.023338895 0.028871322 -0.11938144 -0.056564394 0.011981403 -0.10239032 0.09576866 0.015655564 0.002395862 0.0317765 -0.13555016 0.06516622 0.18360963 0.025101176 -0.10555078 0.20589483 -0.00021976112 0.032376885 -0.059373647 -0.023950651 -0.0872198 0.06325584 0.030448368 0.008993115 -0.13715357 -0.19160514 -0.0032728713 0.05586127 -0.13185184 -0.07672958 0.11394685 -0.06534566 -0.029753512 -0.0012047028 -0.10934153 0.1426625 -0.078518756 -0.024822127 0.15815929 0.017157344 0.05275554 0.051444355 0.17630772 -0.1556048 0.21596287 -0.011719961 0.14205107 0.0031729199 0.022173917 -0.04896404 0.16635995 -0.00010899903 -0.12004452 -0.099374995
33 -0.12002643 -0.2331477 0.020866608 -0.1479214 0.08114254 -0.023432873 0.043253716 0.07385629 0.108623676 -0.016131511 0.0014546803 0.1926253 0.08282038 -0.0421603 0.053788982 -0.14445257 -0.083537705 -0.0049161906 0.033150524 0.06348462 0.12091008 -0.029588597 0.0593346 0.0059797466 0.019670635 0.043470997 -0.2362964 -0.057178803 -0.07920079 -0.07305339 0.03470756 0.038638107 -0.14482257 -0.04725311 0.008807972 -0.10409776 0.07658486 0.0040404447 0.0010734373 0.04418982 -0.1759418 0.062495973 0.21629387 0.025334245 -0.12582713 0.26106393 0.014974118 0.024756817 -0.04655193 -0.027553461 -0.10228156 0.06607821 0.03102024 0.0020598068 -0.13414262 -0.20008838 -0.019651368 0.051901843 -0.12307108 -0.07097044 0.119129434 -0.06751066 -0.03345824 0.0034555327 -0.102889456 0.1415386 -0.059226956 -0.050133053 0.17474215 0.025044173 0.054447338 0.04899619 0.1873435 -0.15214163 0.20440511 -0.014490746 0.13647984 -0.0064177453 0.019513927 -0.06124522 0.15841867 -0.0008425008 -0.11987342 -0.0974526
16 -0.13145457 -0.2529953 0.016312093 -0.18370488 0.0868969 -0.033044968 0.057697177 0.06963223 0.12629478 -0.027584925 -0.0069315666 0.2263395 0.09297126 -0.05031288 0.0866538 -0.16372798 -0.12975645 -0.033700954 0.036628973 0.070196174 0.14572196 -0.030379102 0.06862672 -0.01447418 0.016942786 0.0637268 -0.23640846 -0.053053405 -0.085954264 -0.106729686 0.03335513 0.046619352 -0.14138795 -0.06558643 0.01746702 -0.11757072 0.07547812 0.0029975404 -0.008343433 0.014277106 -0.15737899 0.08176524 0.19093384 0.01797389 -0.12471384 0.23936799 0.021358507 0.04393473 -0.053321395 -0.021155367 -0.103821404 0.05914876 0.038216215 0.017694494 -0.14329617 -0.1859318 -0.000665053 0.03781483 -0.11177832 -0.07213667 0.09747573 -0.0490714 -0.030009244 -0.023532636 -0.08847142 0.1437977 -0.067624636 -0.02018172 0.14481682 0.008015706 0.047601502 0.021289157 0.15779318 -0.15902898 0.17976534 -0.0023300352 0.13822086 -0.021638354 0.020471554 -0.049358748 0.14493698 0.013046611 -0.096525565 -0.06489128
62 -0.095726825 -0.1921701 0.024838319 -0.1297137 0.07362662 -0.029821116 0.044034526 0.07794668 0.10954914 -0.0175509 0.006698313 0.20193128 0.078975976 -0.045088205 0.057851564 -0.12761208 -0.090431295 -0.013351364 0.03933316 0.056293197 0.11149433 -0.016196266 0.045902267 0.00037948435 0.02056605 0.05287279 -0.2032699 -0.04718662 -0.0849033 -0.094666645 0.018023102 0.028565574 -0.13999423 -0.053909477 0.018215055 -0.10146823 0.078325644 0.0093488395 0.013172331 0.05282795 -0.16707155 0.07322372 0.21160078 0.031755153 -0.121977456 0.22425865 0.018137466 0.030667815 -0.047040258 -0.032567695 -0.10693759 0.070828676 0.030697595 0.014480373 -0.13727143 -0.2162711 -0.017592866 0.053777844 -0.13998896 -0.07086391 0.115194514 -0.054133672 -0.036587708 -0.00938888 -0.11891788 0.16635188 -0.06837177 -0.04275321 0.17680945 0.004927862 0.056208123 0.04115362 0.19109808 -0.16412002 0.20455895 9.448643e-05 0.14897369 -0.022281237 0.017532445 -0.05923552 0.18969092 0.0104749715 -0.14080273 -0.093226604
15 -0.11260961 -0.20194063 0.030764064 -0.12707734 0.066856235 -0.025957147 0.030208103 0.040968865 0.0903993 -0.0024142377 -0.007866895 0.19133401 0.06973397 -0.055020005 0.07052129 -0.12698685 -0.10406109 -0.033030782 0.046780292 0.05560494 0.13770698 -0.010498406 0.054481857 -0.0029878593 0.008401117 0.041964542 -0.21017545 -0.040570047 -0.077955015 -0.07396941 0.028622402 0.038369093 -0.12073078 -0.062944256 0.01709875 -0.09807 0.090054266 0.010574541 0.0122799035 0.027288683 -0.17233036 0.061652973 0.19945773 0.03358935 -0.12034795 0.252606 -0.006276685 0.0450016 -0.06440277 -0.018477721 -0.096577995 0.07292141 0.0399801 0.014607172 -0.15474644 -0.20547138 -0.02492439 0.05813361 -0.14555562 -0.07591747 0.124551594 -0.0557342 -0.03042331 0.0039902152 -0.13042471 0.16378993 -0.063640945 -0.03369104 0.18449166 0.020514324 0.05862099 0.05549185 0.19364347 -0.17762747 0.2211227 -0.006128802 0.1550196 0.002299558 0.0016624066 -0.068846285 0.14713807 0.003393102 -0.124601126 -0.10247782
77 -0.115811974 -0.22499155 0.036599096 -0.1460274 0.08885259 -0.028416947 0.04585363 0.07773855 0.08708952 -0.016218405 -0.007859713 0.18482214 0.07191423 -0.04199428 0.066321895 -0.14027408 -0.08249236 -0.023071231 0.060934518 0.079198055 0.10930307 -0.019364662 0.0486795 0.0043903184 0.016610246 0.06339943 -0.19770053 -0.044738047 -0.08844546 -0.09576234 0.017603235 0.031571433 -0.15310135 -0.053591564 0.015853738 -0.13177212 0.1029626 0.013187734 0.016874975 0.04310477 -0.17253397 0.069790706 0.22549362 0.040750146 -0.109289564 0.19271515 0.003091582 0.03367785 -0.0371487 -0.0275342 -0.10314724 0.07574536 0.02708735 0.0048914067 -0.11826292 -0.19258344 -0.011039029 0.047218625 -0.1534225 -0.07722632 0.10804422 -0.061186627 -0.028721502 0.0039444016 -0.12066372 0.1491801 -0.07281977 -0.036289573 0.15988599 -0.0010972115 0.05118812 0.04934525 0.18699458 -0.15919265 0.22554182 -0.019478567 0.12683894 -0.011988001 0.012766791 -0.059218265 0.18305352 0.0049927905 -0.13521525 -0.09248992
53 -0.14625564 -0.24149646 0.027856044 -0.15644722 0.0932376 -0.03856273 0.045437645 0.06698994 0.111086845 -0.0222626 -0.005591948 0.23064955 0.06466788 -0.04982633 0.07249298 -0.14781217 -0.101318546 -0.019160178 0.0506176 0.07706143 0.14568833 -0.013718817 0.057713084 -0.00068193366 0.017493334 0.050167996 -0.19432329 -0.046488766 -0.076297306 -0.084384695 0.031092355 0.024231818 -0.13534285 -0.05702671 0.027677022 -0.10801032 0.08764253 0.007491569 0.0077180075 0.039686278 -0.1559953 0.07980719 0.18793784 0.033751816 -0.10475843 0.2105774 0.008267998 0.025015023 -0.054494448 -0.02365916 -0.08345259 0.052355405 0.042280756 0.019057741 -0.12208595 -0.16980313 -0.005734653 0.038106963 -0.13409352 -0.08284829 0.10103885 -0.04427186 -0.034062 0.0005861221 -0.11799389 0.15317664 -0.069533594 -0.03386382 0.17256619 -0.0011930693 0.050778948 0.044760317 0.18720996 -0.16782941 0.23512688 -0.014086548 0.14431493 -0.010719642 0.017807385 -0.066459306 0.14808764 -0.00015063619 -0.14293309 -0.097274214
52 -0.15739308 -0.25533947 0.025770608 -0.17485002 0.09089543 -0.04459814 0.050377555 0.07408394 0.13571267 -0.030736439 0.010183877 0.25780404 0.09602425 -0.061693102 0.06833877 -0.20004162 -0.10924671 -0.008590754 0.06368405 0.07321993 0.13211325 -0.025605196 0.055020683 0.0041700243 0.010451332 0.055660866 -0.22256492 -0.044317726 -0.068593204 -0.07627972 0.03662721 0.035044078 -0.1599265 -0.049932633 0.03742632 -0.11624005 0.08311197 -0.002170106 0.011842119 0.043460883 -0.14572604 0.077588655 0.18535663 0.03248014 -0.119240046 0.2341692 0.014890602 0.0341184 -0.05808632 -0.03166018 -0.09235973 0.04442848 0.034742825 0.007995798 -0.14445946 -0.1971347 0.0065840553 0.048735347 -0.1406265 -0.07963995 0.08407833 -0.047361072 -0.036688264 -0.0030933116 -0.105769835 0.12889601 -0.052569 -0.029043421 0.13767454 0.013419617 0.042440876 0.03797215 0.14676854 -0.13297875 0.17582594 -0.01141334 0.11212063 -0.013309396 0.019207709 -0.053131443 0.13788171 0.0049435073 -0.11690534 -0.08037333
71 -0.11674046 -0.2135304 0.019289322 -0.1265619 0.06400147 -0.019390792 0.035587266 0.045477156 0.116982214 0.0055653225 0.009657212 0.20894065 0.07142921 -0.036123395 0.06800532 -0.13953885 -0.10164938 -0.016131787 0.04518527 0.056944698 0.1294003 -0.0036112366 0.052317794 0.0054719704 0.008048906 0.04303797 -0.20833068 -0.04422981 -0.081646636 -0.051401883 0.03265512 0.043074485 -0.11932883 -0.037006646 0.021584528 -0.07622373 0.08001139 0.004055022 0.0006472968 0.05014233 -0.15915786 0.0655942 0.19782129 0.018961841 -0.108407855 0.2523768 0.01970421 0.011041399 -0.05182747 -0.027418518 -0.10906871 0.06377132 0.033004418 -0.0033103486 -0.14321718 -0.21750171 -0.011479323 0.04710163 -0.13779308 -0.093746826 0.13111071 -0.051371735 -0.048357338 0.0056344937 -0.1405525 0.18093672 -0.06716762 -0.044531655 0.17347796 0.01857869 0.07369 0.058252834 0.19554998 -0.17335439 0.2206962 -0.016543565 0.14631633 0.004966011 -0.007635595 -0.06457488 0.14669168 0.0011493199 -0.11921517 -0.10910416
57 -0.10215224 -0.18229008 0.008636443 -0.12673672 0.0853766 -0.02459672 0.049140714 0.06958337 0.12483236 -0.032223817 -0.0008967678 0.23604938 0.09940894 -0.055160005 0.056741763 -0.17346692 -0.11837827 -0.007598628 0.047892854 0.08614559 0.12264829 -0.03508694 0.07087009 -0.004873065 0.022353906 0.07517526 -0.27355266 -0.055339333 -0.090806834 -0.104397394 0.022241877 0.05129855 -0.18246916 -0.052759014 0.017865133 -0.12772423 0.06835122 -0.014393171 -0.0046814443 0.04501312 -0.15911397 0.05571788 0.20520686 0.029593697 -0.11843162 0.22174756 0.029310854 0.0260777 -0.034490746 -0.031107465 -0.096647404 0.054909877 0.021122143 -0.004278897 -0.1170918 -0.18072602 -0.0064710504 0.05333089 -0.11459034 -0.06574338 0.08538554 -0.03944973 -0.037645213 0.015471238 -0.08918945 0.140336 -0.05888088 -0.044267252 0.1573575 0.015620109 0.056962386 0.04932988 0.18036227 -0.15435904 0.2042486 -0.015770677 0.12831955 -0.01299845 0.03157901 -0.03445528 0.17803591 0.005343464 -0.12282504 -0.082717285
17 -0.13414383 -0.20155515 0.025764592 -0.110375315 0.06961662 -0.032100037 0.03814468 0.055640765 0.12827879 0.001030161 0.028369201 0.25872248 0.0707981 -0.053432576 0.046667658 -0.16531259 -0.09446056 -0.016303534 0.05727867 0.072247475 0.122872874 -0.015937246 0.06735978 -0.0050781486 0.029070571 0.05691 -0.23714133 -0.041496195 -0.07178164 -0.05577765 0.02018633 0.03659592 -0.13423085 -0.03125256 0.03638761 -0.09581812 0.08447722 -0.0003592267 0.0057089315 0.046102673 -0.16683558 0.06279185 0.18346675 0.047210068 -0.12564336 0.21180218 0.0066388533 0.026172003 -0.05507998 -0.03312209 -0.10123424 0.056054614 0.03598215 0.01809365 -0.1340894 -0.19876862 -0.019267565 0.07411709 -0.13400522 -0.087765254 0.086387545 -0.034095492 -0.052502118 0.0042015538 -0.12267433 0.1446037 -0.053612832 -0.04161801 0.16459435 0.0094341505 0.049310636 0.044312153 0.18993299 -0.1648641 0.21078736 -0.0012194437 0.1261513 -0.010793721 0.011280934 -0.058971383 0.14764574 -0.01094865 -0.14128086 -0.088369675
7 -0.11635441 -0.21931902 0.017067721 -0.1481879 0.071222626 -0.034643766 0.04549781 0.05271066 0.10920133 -0.01631747 -0.008751343 0.22272213 0.076906025 -0.052929103 0.065896004 -0.14720173 -0.093735285 -0.019843604 0.040484972 0.07370352 0.1297391 -0.01696866 0.058361836 0.008269147 0.01599223 0.050748847 -0.20865245 -0.039097413 -0.08452285 -0.07695575 0.034593523 0.041658532 -0.110524096 -0.04788389 0.0061194426 -0.10101625 0.08266687 0.0018463453 0.0012289044 0.027371652 -0.1715108 0.06297778 0.20228393 0.03980823 -0.109468415 0.23564948 0.012775969 0.022466142 -0.048758075 -0.024255779 -0.103780374 0.063728854 0.03982529 0.011297112 -0.13967621 -0.18546255 -0.021056363 0.041685913 -0.12141633 -0.0682448 0.105786666 -0.05819176 -0.031012518 0.011623715 -0.11114847 0.15170494 -0.05954508 -0.030324312 0.17408946 0.00017837172 0.0411173 0.05216281 0.18902932 -0.16719201 0.22701713 -0.018152537 0.1465016 -0.003915841 0.016311483 -0.060945854 0.15512598 -2.1125965e-05 -0.12083619 -0.102643125
65 -0.15098165 -0.25761476 0.032241847 -0.17436387 0.08794613 -0.04137988 0.058806084 0.08211233 0.13220157 -0.03470741 0.0044544577 0.24137728 0.106367715 -0.05723363 0.07193035 -0.17178427 -0.10545988 -0.015183905 0.0594311 0.08231831 0.1272634 -0.024642697 0.05675381 0.012593082 0.024408638 0.061663922 -0.23108858 -0.0480416 -0.08586269 -0.08685625 0.033329707 0.027540453 -0.15610741 -0.057444595 0.016994212 -0.14320444 0.08864038 0.014161936 0.01586343 0.049962748 -0.15888974 0.08138313 0.21221119 0.034034885 -0.11245241 0.20753536 0.0046636965 0.021561803 -0.042445503 -0.020899456 -0.098609686 0.046444498 0.047683325 0.012238028 -0.13446553 -0.17882776 -0.016892044 0.025478644 -0.11312657 -0.0750043 0.0889118 -0.050257944 -0.031351727 -0.0060101296 -0.08890399 0.14221114 -0.058429863 -0.0300363 0.1513069 0.004777356 0.035337843 0.020391876 0.15624124 -0.1405423 0.174767 -0.018690974 0.12277039 -0.027695907 0.016171739 -0.053409733 0.15554069 0.005755197 -0.1307196 -0.09057407
18 -0.12300526 -0.22708449 0.027628057 -0.15180528 0.09457068 -0.031569593 0.046182465 0.06585206 0.100963786 -0.006773689 -0.014453854 0.22609675 0.08845198 -0.04717898 0.06379773 -0.16347569 -0.122688405 -0.02116694 0.048489466 0.09252343 0.14340293 -0.026666094 0.07182754 -0.008699957 0.018761694 0.060267664 -0.2140945 -0.04727826 -0.07768203 -0.08137416 0.025027828 0.04187077 -0.12816118 -0.0434344 0.018736338 -0.1101471 0.0830075 0.0032527428 0.00732864 0.040045917 -0.16470051 0.06335293 0.197131 0.02551079 -0.10657194 0.21672347 0.0048489165 0.028222863 -0.053847525 -0.021959513 -0.099680685 0.05710967 0.042431794 0.017845988 -0.13432948 -0.1814039 -0.017768426 0.039469432 -0.1372272 -0.086439125 0.12174502 -0.06376841 -0.031848386 0.0022609776 -0.09671603 0.13379808 -0.06503171 -0.039685223 0.16797763 0.01590747 0.037141107 0.032103006 0.17819771 -0.16954519 0.2104989 -0.0144486595 0.13980497 0.002422894 0.011543901 -0.051001955 0.1592229 -0.0012078098 -0.12064989 -0.107762344
58 -0.12008966 -0.23032793 0.019938732 -0.17062144 0.109826885 -0.03453345 0.06379424 0.10490401 0.13283128 -0.033502597 -0.005449928 0.23942871 0.11105245 -0.047244772 0.07134937 -0.17253502 -0.11442595 -0.013122599 0.03895416 0.07079859 0.12901123 -0.040841132 0.06289486 0.0033113225 0.024901386 0.060841728 -0.2736637 -0.0642837 -0.101052575 -0.11201941 0.033212565 0.046031114 -0.16537373 -0.056901652 0.008720309 -0.12262958 0.07392427 0.010696089 0.006739516 0.05029163 -0.18999107 0.06789123 0.23739903 0.02871762 -0.13009323 0.23713735 0.031226227 0.050245784 -0.037874598 -0.025855675 -0.097767025 0.056530047 0.029622694 0.006168591 -0.14047591 -0.1994364 -0.009300372 0.036103446 -0.121942535 -0.05958567 0.10885014 -0.04972204 -0.022807658 -0.0014220626 -0.079036295 0.12731323 -0.046530154 -0.035323422 0.14313339 0.022312544 0.042965952 0.02884256 0.13487704 -0.12370904 0.14060447 -0.01014196 0.104332335 -0.027763676 0.025634082 -0.046150167 0.1445663 0.0069446443 -0.0913675 -0.057263896
55 -0.11944706 -0.2130048 0.038219377 -0.13367888 0.07379417 -0.046941236 0.045734957 0.05950468 0.10402305 -0.005406225 0.011021583 0.22111298 0.07724207 -0.04922621 0.057040047 -0.13691394 -0.09799634 -0.0030334578 0.05726321 0.077762604 0.11273737 -0.016352417 0.04799515 0.0018471977 0.025031976 0.053490117 -0.1938709 -0.033585988 -0.05456233 -0.052071683 0.035220377 0.028361475 -0.114346534 -0.037990738 0.025428977 -0.09287685 0.070791505 0.0038778055 0.004068455 0.04040817 -0.12920326 0.074280396 0.18821643 0.017630175 -0.12089761 0.24044788 0.010685835 0.018650938 -0.06874039 -0.029145997 -0.10652669 0.06107376 0.047344573 0.0064397235 -0.15988114 -0.21754184 -0.0023928469 0.05363012 -0.15145108 -0.092019476 0.11479991 -0.07303885 -0.03204053 -0.0041663703 -0.109128386 0.1633068 -0.06869911 -0.043235693 0.17337637 0.010248213 0.050317265 0.04651779 0.19888511 -0.16977341 0.23684564 -0.010916276 0.14891686 -0.013733282 0.011101364 -0.04424432 0.1734411 0.001531601 -0.14546739 -0.11172832
49 -0.12856686 -0.22377548 0.04016185 -0.14656644 0.07481543 -0.030616665 0.03434354 0.05308848 0.097889096 -0.011026199 0.013668066 0.1923682 0.07441207 -0.052386343 0.07968255 -0.13586283 -0.11837698 -0.027539637 0.05342579 0.06302891 0.13016798 -0.015537387 0.044418555 -0.012296569 0.018042343 0.05002834 -0.19781135 -0.046754748 -0.06544639 -0.082880326 0.027945511 0.021583142 -0.12724495 -0.055197623 0.032583456 -0.100736715 0.086959556 0.0142668495 0.0049586957 0.038524587 -0.14480664 0.08200516 0.1953655 0.0149029605 -0.11657442 0.23682308 0.008354655 0.036818072 -0.067940176 -0.019246303 -0.09904845 0.067906074 0.036631327 0.017527591 -0.1534004 -0.19480965 -0.0012035135 0.05741253 -0.14301333 -0.08539877 0.11787111 -0.05352919 -0.033713635 -0.011075913 -0.13120176 0.1659896 -0.08039863 -0.033205107 0.18237458 0.01700196 0.059863426 0.03601952 0.18859226 -0.17149714 0.21964018 -0.0086390795 0.15059677 -0.012049654 0.016288698 -0.06313646 0.15460992 0.015566532 -0.13357799 -0.09318744
10 -0.13598274 -0.2249177 0.018296069 -0.14069672 0.07750153 -0.01882402 0.032570455 0.03811545 0.1099418 -0.012702268 0.0007339215 0.2283841 0.070391156 -0.0496941 0.0673523 -0.17271683 -0.09761847 -0.017218849 0.04295339 0.07118668 0.1300714 -0.0030477378 0.055497527 0.02095518 0.005978116 0.041359093 -0.19818568 -0.04829195 -0.078618936 -0.070690535 0.027925197 0.035067137 -0.14209713 -0.04948091 0.016997548 -0.11224267 0.09309717 0.0011009375 -0.0013711964 0.024259228 -0.17205448 0.06809547 0.19925727 0.04180393 -0.11165172 0.2637784 0.0075062076 0.023428377 -0.058520425 -0.038844563 -0.09073788 0.06771349 0.041332792 -0.0017976811 -0.14371665 -0.18926434 -0.008724701 0.03302144 -0.15420479 -0.084293 0.1087565 -0.061538264 -0.038468573 0.021928778 -0.11221683 0.12763426 -0.06441968 -0.038241077 0.16449663 0.007954248 0.059101634 0.064121254 0.18162681 -0.16112877 0.2232813 -0.019383484 0.13259357 0.0039487826 -0.0027146668 -0.055706985 0.120402135 -0.016592702 -0.10848939 -0.107256666
23 -0.15044105 -0.2480183 0.033537384 -0.16142304 0.096791916 -0.037741143 0.052323766 0.074827984 0.11489187 -0.013317981 0.003243288 0.2301081 0.06980555 -0.0434543 0.060098063 -0.15608709 -0.09629972 -0.0016282456 0.054432992 0.07997025 0.11351125 -0.008170737 0.05256025 0.018148381 0.019139474 0.056248073 -0.20649284 -0.04682886 -0.085548885 -0.063611075 0.041557126 0.024941936 -0.11668057 -0.02606322 0.021959487 -0.09516415 0.08531559 0.015547714 0.00574158 0.050026894 -0.16864955 0.07399785 0.21321654 0.047940195 -0.10936423 0.22256343 0.01064004 0.015984198 -0.05776308 -0.028683932 -0.097596675 0.06006061 0.041512173 0.010472132 -0.12579803 -0.18312825 -0.023997994 0.04521742 -0.13085066 -0.07932159 0.100039154 -0.05177409 -0.046040025 0.008337748 -0.110424064 0.1409737 -0.05978112 -0.037284035 0.1708661 0.0005551719 0.036717683 0.052219503 0.18712465 -0.14940579 0.2061025 -0.02200354 0.13881752 -0.003121328 0.026644591 -0.05803425 0.14836918 -0.004877986 -0.12945136 -0.10557759
56 -0.11421966 -0.20757306 0.014772478 -0.1386994 0.075595535 -0.036957286 0.052459203 0.06763821 0.11249215 -0.017097156 0.0006846885 0.23421776 0.07614124 -0.04476832 0.055037614 -0.16149232 -0.10405579 -0.019391632 0.046189386 0.058804724 0.12287536 -0.023090137 0.06282439 -0.005283677 0.022460232 0.05587757 -0.22497381 -0.041075803 -0.083066635 -0.08093741 0.02867798 0.0436499 -0.15434527 -0.049676627 0.025806785 -0.11254181 0.08131269 0.006168063 0.0057198154 0.041441783 -0.17029801 0.06673464 0.20596509 0.039612725 -0.12592007 0.21326952 0.01866418 0.01775146 -0.04826608 -0.030071184 -0.10760502 0.05987731 0.03639945 0.016956747 -0.12399782 -0.191403 -0.009404336 0.046942532 -0.117445625 -0.0640051 0.09081905 -0.034005955 -0.03715734 -0.005176395 -0.107393466 0.15687355 -0.06486914 -0.03657805 0.15888362 0.002448107 0.04910335 0.037487548 0.18627603 -0.1722626 0.19431764 -0.010407301 0.14936629 -0.015336306 0.025443267 -0.046093497 0.17038809 -0.000102858874 -0.13654597 -0.088472344
13 -0.11970865 -0.23942499 0.024698356 -0.17095135 0.09573877 -0.0344114 0.04799592 0.08431252 0.10879481 -0.025445122 -0.013740977 0.20141141 0.091489665 -0.06444821 0.08634014 -0.16570394 -0.11446631 -0.029583523 0.04610505 0.07758432 0.15474063 -0.028891714 0.061741874 0.0060091917 0.011260699 0.05712376 -0.23876148 -0.06327811 -0.08995933 -0.09949789 0.0321633 0.025479097 -0.16578573 -0.07614184 0.020757178 -0.14475462 0.09181464 0.01291869 0.003955606 0.02724152 -0.16400944 0.06267372 0.19698772 0.04163592 -0.11515365 0.23224553 0.007963194 0.046141814 -0.04635352 -0.016474964 -0.08878828 0.063345626 0.034447074 0.018811345 -0.1307953 -0.18518782 -0.016801702 0.0398132 -0.123963274 -0.062107135 0.10528994 -0.044133905 -0.022138806 -0.00445192 -0.094245404 0.124411084 -0.068844505 -0.026575683 0.1544808 0.0014802754 0.034618422 0.041202087 0.15428306 -0.1449606 0.1952995 -0.01196143 0.11407059 -0.009907479 0.018371224 -0.066789344 0.14197798 0.0052051838 -0.112104654 -0.0719197
12 -0.11057856 -0.19022846 0.018543618 -0.13361453 0.06911225 -0.036154527 0.023205273 0.04206041 0.10023181 0.0010809139 0.008610715 0.22286732 0.0773873 -0.047070812 0.067963295 -0.1621507 -0.11920988 -0.016877241 0.05141737 0.064449094 0.14318036 -0.008277983 0.06913869 -0.00421721 0.009731335 0.046854094 -0.20594878 -0.042382885 -0.08010558 -0.07536053 0.041254167 0.03695934 -0.13321817 -0.051956493 0.02403258 -0.08797424 0.07105046 0.010879184 -0.002574022 0.03565995 -0.15865126 0.058008 0.18992028 0.02340679 -0.12635212 0.25488672 0.012017267 0.03409454 -0.06371367 -0.03033967 -0.09216904 0.07080092 0.03498267 0.00323428 -0.15208806 -0.2061998 -0.008130506 0.052515823 -0.14336911 -0.07550066 0.107135065 -0.05467696 -0.037211545 0.010787019 -0.12520757 0.14427188 -0.059922338 -0.042535532 0.17942366 0.026295569 0.06210734 0.06927975 0.19198537 -0.16864878 0.22318093 -0.02062408 0.15038583 -0.0006459176 0.009895994 -0.05162278 0.148044 -0.0005461775 -0.1236691 -0.11073761
47 -0.13762698 -0.23998182 0.037363056 -0.14959557 0.0894024 -0.043048203 0.03749975 0.07855291 0.10835273 -0.0101889605 0.005220571 0.23163047 0.07577204 -0.05141632 0.08418268 -0.14345464 -0.09651114 -0.022958174 0.055118695 0.07527951 0.1383895 -0.0067228046 0.050294418 0.015711889 0.025173092 0.051800475 -0.18234196 -0.04347279 -0.071450524 -0.07565691 0.02507451 0.01779415 -0.12506336 -0.056202885 0.025578054 -0.11155267 0.091559336 0.01328224 0.0063593243 0.047450397 -0.15224224 0.07930795 0.1858073 0.027902408 -0.10813238 0.21716274 -0.00082521944 0.026033865 -0.064824715 -0.021531481 -0.087033294 0.06278629 0.03913953 0.010138405 -0.13461448 -0.1944324 -0.008920642 0.037429046 -0.14433903 -0.08759436 0.113879934 -0.06988419 -0.03293442 -0.002633494 -0.12505144 0.14986959 -0.07405886 -0.030198893 0.17498638 0.01401408 0.045773048 0.040239204 0.18454054 -0.16294454 0.22296822 -0.017461747 0.13286921 -0.018234689 0.008141842 -0.069311395 0.1486265 -0.007332295 -0.1314236 -0.10866135
31 -0.14579684 -0.24029002 0.032328356 -0.17048302 0.1057465 -0.036665414 0.060730126 0.07014842 0.1223802 -0.016659923 0.0067935684 0.2579273 0.08318206 -0.04724706 0.050922018 -0.17936148 -0.08602624 -0.0026151023 0.052676834 0.07631076 0.10791932 -0.0248206 0.048184123 0.024152169 0.027470777 0.05261723 -0.19041106 -0.032951437 -0.082253605 -0.07676195 0.01934983 0.033939365 -0.16823056 -0.042084284 0.023415348 -0.11820924 0.0690334 -0.002821593 0.016361497 0.03425851 -0.14355576 0.06142227 0.2028731 0.028138496 -0.09792219 0.19332474 0.02010863 0.0034772966 -0.02530213 -0.020512968 -0.088798404 0.057960972 0.03353647 -0.00528672 -0.09704789 -0.17050855 0.002176097 0.020574134 -0.13254935 -0.083308354 0.10135757 -0.05790298 -0.043143958 0.0049027023 -0.112034716 0.14779593 -0.06730938 -0.044500336 0.16626218 0.004920516 0.06151844 0.04252051 0.20061809 -0.16093601 0.23544714 -0.046975188 0.13424003 -0.011283802 0.022242866 -0.041629348 0.17207907 -0.015129037 -0.13720061 -0.11175118
72 -0.13433439 -0.2405198 0.038478833 -0.15426365 0.105777904 -0.042798836 0.053596027 0.0748059 0.11769192 -0.013365065 0.0008092341 0.2594474 0.0737279 -0.051020868 0.0686035 -0.15601145 -0.10006895 -0.003187142 0.04716431 0.07247586 0.122377194 -0.009369032 0.05250173 -0.001259047 0.022507839 0.061921827 -0.20603111 -0.037964284 -0.07141149 -0.07428133 0.032429878 0.030457031 -0.11784881 -0.034737993 0.02742508 -0.09374792 0.076024614 0.0030469857 -0.0006435667 0.04731487 -0.14790097 0.06755488 0.19666407 0.03272538 -0.10623792 0.2037785 0.010304578 0.016670331 -0.06904617 -0.03147381 -0.09332582 0.060711615 0.03886548 0.008407253 -0.119988605 -0.19241826 -0.01849171 0.04934357 -0.13402012 -0.081754975 0.10169015 -0.057998605 -0.039764173 -0.00623144 -0.10318165 0.14976232 -0.06492647 -0.047424853 0.16908307 0.009159009 0.0423127 0.05419993 0.19549718 -0.16625673 0.22055253 -0.018118812 0.13410291 -0.009267868 0.011947864 -0.05096238 0.16326754 -0.0025091937 -0.13521695 -0.099728025
68 -0.14925544 -0.24584329 0.049848344 -0.16489774 0.11246374 -0.0346703 0.061227888 0.07177014 0.11672628 -0.020037496 -0.0047817715 0.26369286 0.09180668 -0.059872296 0.07310562 -0.16838504 -0.11161376 -0.016612476 0.03991673 0.066768296 0.11878066 -0.0072306143 0.04500959 0.013238207 0.009020102 0.040758956 -0.16688713 -0.036808465 -0.0670719 -0.084931366 0.021843733 0.035580195 -0.14025885 -0.05441266 0.023709344 -0.11995684 0.07842113 0.012489735 0.010572592 0.031973474 -0.14611238 0.06666308 0.19831608 0.025757596 -0.10509504 0.20797105 0.020572303 0.022904225 -0.06243126 -0.018627618 -0.097564675 0.067061 0.03497639 0.004255373 -0.12713909 -0.19527376 -0.02035008 0.027322162 -0.14315023 -0.07802889 0.11748862 -0.07330495 -0.025612647 0.0012545376 -0.11232685 0.15799427 -0.0687484 -0.043857068 0.16751745 0.013131818 0.05238148 0.035577457 0.17488445 -0.15615879 0.19600058 -0.02453403 0.12937297 -0.013884598 0.0008282815 -0.050479006 0.1467223 -0.008915164 -0.119183354 -0.10132892
6 -0.11202264 -0.23465538 0.035523266 -0.14418152 0.09790485 -0.03235868 0.04157576 0.089011244 0.100527555 -0.0032798648 -0.0106396405 0.19448395 0.083964504 -0.05900708 0.078285664 -0.11548069 -0.10697087 -0.02619421 0.03749723 0.05261068 0.11785279 -0.0218126 0.055045307 -0.011091213 0.017624723 0.046238054 -0.1869646 -0.055279803 -0.06695513 -0.063271955 0.02980593 0.03586262 -0.12288687 -0.05803638 0.016653683 -0.09553576 0.071949914 0.023000162 -0.014046272 0.036205154 -0.1559247 0.064222865 0.20170052 0.019256579 -0.12796831 0.23407589 0.017147794 0.032463934 -0.061075512 -0.013177275 -0.096436374 0.073115 0.019395484 0.016115079 -0.14147948 -0.22528066 -0.012007472 0.05311503 -0.14193985 -0.08518482 0.15162113 -0.06460018 -0.03151124 -0.0082697505 -0.119475216 0.16084328 -0.07585843 -0.036813837 0.18299492 0.030271877 0.05890053 0.04588716 0.18784168 -0.16983484 0.2191752 -0.012894718 0.15411735 0.0054135383 0.01650893 -0.062545225 0.1557363 0.010418573 -0.12173454 -0.0920556
14 -0.13195635 -0.23557575 0.02662492 -0.15671039 0.109638594 -0.03737217 0.045537394 0.06409435 0.12880568 -0.0020504093 -0.0021571536 0.257002 0.065626234 -0.04472494 0.07464017 -0.15558231 -0.10864399 -0.022082124 0.055739805 0.06919141 0.14248292 -0.0047384985 0.06719243 0.012425048 0.0163555 0.0625298 -0.21703394 -0.0357269 -0.08704078 -0.064641766 0.042969048 0.05204955 -0.118696555 -0.035689976 0.023980003 -0.07610547 0.059828468 0.0038775804 -0.019104699 0.022811992 -0.16622685 0.0705765 0.19012299 0.031232063 -0.11228013 0.24478063 0.024288153 0.039622564 -0.055886455 -0.020127434 -0.108975306 0.06881682 0.023974108 0.005351863 -0.13786194 -0.21257286 0.0030741412 0.0547859 -0.1418884 -0.08483808 0.1034774 -0.048875067 -0.038461357 -0.0059706597 -0.11591486 0.1401672 -0.05415165 -0.02658558 0.14624846 0.020783618 0.061961908 0.066456795 0.17602915 -0.15082988 0.21077646 -0.014726966 0.13210627 0.0025115898 0.0042878436 -0.046906266 0.11885326 0.0012329238 -0.101128064 -0.07985466
61 -0.14180492 -0.25917527 0.0495504 -0.1669339 0.10653368 -0.038700107 0.048817836 0.085947745 0.109251745 -0.010489662 0.0024722565 0.21031639 0.08102469 -0.047940463 0.06873331 -0.14482248 -0.09533858 -0.012377671 0.055905487 0.07272678 0.12433444 -0.018374594 0.042281725 0.0030967772 0.025546629 0.045748618 -0.19968778 -0.046278257 -0.078352675 -0.0877316 0.02115733 0.023894554 -0.16005729 -0.061166916 0.023932438 -0.11637469 0.089212745 0.00165915 0.009607758 0.054106694 -0.13899004 0.05413788 0.2020258 0.02674373 -0.10388093 0.2123667 0.0013391745 0.031216677 -0.04986688 -0.025845729 -0.08534017 0.06618665 0.037338935 -0.00078738877 -0.11837494 -0.20176806 -0.01778587 0.048213065 -0.15172446 -0.0951474 0.10831899 -0.059366677 -0.022814235 -0.0018941339 -0.105039336 0.13887596 -0.06723224 -0.050593983 0.15822147 0.017842188 0.053103104 0.04772536 0.17342292 -0.1445252 0.1995066 -0.009530041 0.11782974 -0.00440358 0.006516858 -0.058390785 0.16688095 -0.00034079544 -0.13097782 -0.09434526
48 -0.12922727 -0.24312422 0.027039463 -0.16155905 0.075347394 -0.02631301 0.042621475 0.058361433 0.09986467 -0.023106957 -0.012164995 0.20648706 0.08481207 -0.03670839 0.07361745 -0.14735965 -0.10106751 -0.021162154 0.03658067 0.06814384 0.1093686 -0.010649863 0.02977653 0.0059301313 0.014550292 0.039284028 -0.17266041 -0.043271404 -0.077035904 -0.08977668 0.025614446 0.02619801 -0.11749639 -0.05385077 0.0029530455 -0.11056388 0.08343697 0.009503388 0.007973624 0.04456538 -0.15320776 0.062850505 0.2075091 0.023479525 -0.09944788 0.22910713 0.010307687 0.018344749 -0.06101129 -0.02823856 -0.09207123 0.058662415 0.045063563 -0.005212007 -0.13653593 -0.20330808 -0.024220627 0.025376396 -0.13330944 -0.08421848 0.12757422 -0.06615274 -0.020283027 0.0008112074 -0.10121473 0.1588385 -0.0784453 -0.031443898 0.17879774 0.011231512 0.04979883 0.043215506 0.18128796 -0.16584261 0.21666308 -0.018703813 0.15113057 -0.016094705 0.008025801 -0.060329217 0.18171865 -0.002050294 -0.122157335 -0.12058532
40 -0.13823962 -0.23315564 0.028580124 -0.14461005 0.08123832 -0.015245905 0.049779013 0.06613775 0.0977105 -0.0384811 -0.006600748 0.19938742 0.09123871 -0.05209255 0.058570903 -0.15677074 -0.105332546 -0.02056884 0.037178565 0.062609315 0.11541625 -0.022218795 0.04671065 0.0072096246 0.012125181 0.04168315 -0.20374484 -0.059223194 -0.07900093 -0.09433765 0.014335516 0.03250503 -0.16758494 -0.059269648 0.016478924 -0.14248306 0.091713615 0.012535932 0.014412537 0.0429794 -0.17199235 0.07181819 0.21718894 0.031621877 -0.1207871 0.23383158 0.009919281 0.022100305 -0.04244229 -0.022977462 -0.09800995 0.050199788 0.03832601 -0.004671382 -0.121052966 -0.19964977 -0.0207248 0.016302248 -0.12928459 -0.08566156 0.1164861 -0.057312325 -0.026560122 -0.0025380254 -0.09360887 0.14949383 -0.073853835 -0.036230553 0.16993532 0.015195736 0.053867444 0.030770143 0.16554186 -0.16005632 0.19869111 -0.019881167 0.13401785 -0.02177084 0.0054932963 -0.05934146 0.15935881 -0.002530388 -0.119679384 -0.10527221
28 -0.1368154 -0.22292195 0.0345118 -0.14088474 0.09666749 -0.02727627 0.049526308 0.061236534 0.11083149 -0.00856783 0.0035982092 0.25410765 0.0693981 -0.055541508 0.061825946 -0.16039513 -0.110004425 -0.021652946 0.043501366 0.07162836 0.1285587 -0.012462941 0.056594454 0.008989456 0.018701393 0.058732484 -0.211875 -0.046010163 -0.07659922 -0.07884602 0.017170206 0.036593273 -0.14887384 -0.04370559 0.030459872 -0.112216674 0.07989391 0.0042381235 0.0045977924 0.03195121 -0.14065476 0.056260835 0.17621568 0.04428261 -0.11447298 0.21386181 0.005239864 0.026098704 -0.05173889 -0.032309104 -0.09233788 0.060848232 0.042978093 -0.0012006054 -0.104147136 -0.19072714 -0.012519188 0.027595676 -0.14359227 -0.08464403 0.10836066 -0.042728163 -0.030240394 0.008179276 -0.111996986 0.14702524 -0.0714231 -0.02893236 0.17476043 0.008737962 0.057511076 0.058118742 0.19137098 -0.17506857 0.22681683 -0.01761974 0.13770574 -0.001797109 0.002195573 -0.040454883 0.16626914 -0.01633949 -0.13600776 -0.10064255
74 -0.12722075 -0.20557526 0.017383719 -0.1507988 0.09461028 -0.023631727 0.05886833 0.079265736 0.13200074 -0.033570223 0.0018564882 0.25741157 0.08101031 -0.040962446 0.059718903 -0.19137283 -0.094274215 -0.012905817 0.059733503 0.07123188 0.11170088 -0.037499532 0.054428294 0.01336767 0.026665607 0.066525675 -0.23187496 -0.040836263 -0.0870216 -0.10262278 0.028860183 0.04203415 -0.1896989 -0.057707243 0.039848603 -0.13479221 0.06565476 -0.009935289 0.01701129 0.038660966 -0.167795 0.0817531 0.21149479 0.03175145 -0.112180576 0.2029375 0.027642276 0.021592274 -0.028640889 -0.024541382 -0.09613161 0.05573987 0.028556647 0.021285627 -0.11871123 -0.17171678 0.0017753436 0.03858105 -0.12854736 -0.073317215 0.07392335 -0.053904146 -0.031127501 -0.009625093 -0.11149991 0.14183412 -0.06341408 -0.047624554 0.15456016 -0.0044834334 0.04909168 0.033883616 0.17770797 -0.15801612 0.2068794 -0.026553255 0.13289204 -0.024560811 0.029664569 -0.048576478 0.1615317 -0.005258537 -0.13400722 -0.07812162
39 -0.17409551 -0.25688925 0.03894897 -0.16588637 0.1056915 -0.039442096 0.04680246 0.057006966 0.0994763 -0.0039291196 0.015604732 0.23274513 0.064829305 -0.060916718 0.06547212 -0.14591442 -0.1068953 -0.008267784 0.060308244 0.07819304 0.13847913 -0.017423678 0.060097575 -0.005847576 0.015720716 0.048548643 -0.20852044 -0.03514076 -0.06641742 -0.06517612 0.03140308 0.03220958 -0.114388786 -0.03471586 0.03476117 -0.07931114 0.08884009 0.002599585 -0.004870108 0.021441368 -0.13457575 0.068525046 0.16750272 0.024495166 -0.111909814 0.22816187 0.008299746 0.039600104 -0.054925047 -0.018791636 -0.08764354 0.059497897 0.033562936 0.0064619896 -0.12945102 -0.17086808 -0.0013312938 0.06152127 -0.13013114 -0.08257516 0.092782296 -0.040041972 -0.054392513 0.0056549516 -0.12451678 0.12823585 -0.06464334 -0.027582264 0.1718747 0.010532122 0.054928593 0.0494248 0.17950103 -0.15173334 0.22237967 -0.006898635 0.1332143 0.0010305681 0.015941266 -0.0655238 0.16342849 0.0043611275 -0.1457197 -0.10091487
27 -0.13072819 -0.24160825 0.0141327 -0.15997452 0.094704516 -0.03213274 0.05975786 0.07945867 0.10937462 -0.013504362 -0.004688279 0.22909513 0.081234194 -0.04679946 0.06685943 -0.17441244 -0.10937142 -0.022841245 0.05723908 0.08307999 0.15713386 -0.029374272 0.078501426 0.0047002234 0.022949977 0.049735587 -0.26383144 -0.04995658 -0.08901417 -0.072620556 0.04540943 0.036052044 -0.15322345 -0.06002684 0.020240476 -0.115664095 0.078614086 0.0062520285 -0.009612551 0.024032688 -0.17814064 0.06512844 0.18740897 0.029920498 -0.12725496 0.24877758 0.026457382 0.046421897 -0.04496612 -0.020530293 -0.099599876 0.066570826 0.02787858 0.006622623 -0.13736513 -0.20221916 -0.012182536 0.058660053 -0.1303966 -0.06875761 0.08631369 -0.03876752 -0.03419863 0.0068070614 -0.09965485 0.12922934 -0.056504667 -0.027919868 0.13578095 0.007981948 0.04207601 0.05497665 0.16361594 -0.1436892 0.18513037 -0.007989607 0.11933528 -0.012031558 0.013403462 -0.055600192 0.11967749 0.0032147707 -0.10645654 -0.06373692
5 -0.1371113 -0.27366942 0.022330245 -0.17048474 0.08937271 -0.030717809 0.038178146 0.056934167 0.11050644 -0.0134576345 -0.004094931 0.2081532 0.068901375 -0.05235887 0.09589619 -0.15703762 -0.11161682 -0.03906945 0.048689168 0.06750475 0.14168134 0.0031787595 0.038671046 0.013704695 0.0043805987 0.03709119 -0.16571316 -0.048283555 -0.07218941 -0.0646031 0.028959746 0.023229277 -0.124422714 -0.059505604 0.024651663 -0.11016913 0.0938445 0.025480743 -0.0022656466 0.036377054 -0.14833672 0.082885556 0.17667653 0.019764407 -0.10802814 0.24298474 0.0020676304 0.031805344 -0.06425521 -0.030929914 -0.09894521 0.07420075 0.04033501 0.0015404352 -0.14647676 -0.20864771 -0.0033215403 0.040602524 -0.15214835 -0.09421176 0.124255516 -0.07049204 -0.02118442 -0.0008148018 -0.11716271 0.14259101 -0.06682706 -0.030140042 0.14907607 0.0057137893 0.049487818 0.051288452 0.1576571 -0.15673597 0.20651235 -0.012723256 0.13045894 -0.010426206 0.0006288833 -0.07168795 0.11961592 0.008432599 -0.106024876 -0.0992284
83 -0.10715076 -0.17221552 0.016803283 -0.115214236 0.077616826 -0.02253411 0.040372424 0.058602534 0.12410355 -0.0072416756 0.018886803 0.23168957 0.061759084 -0.04532685 0.062365267 -0.1430168 -0.08631831 -0.026679529 0.043929894 0.04030084 0.10695324 -0.010243403 0.029730342 0.009087153 0.022326581 0.038470857 -0.1888469 -0.03764005 -0.07477742 -0.06511116 0.017400071 0.0326379 -0.14296669 -0.054393128 0.019507676 -0.10890669 0.070318505 0.0072421874 0.006207084 0.040601373 -0.13853455 0.0651641 0.16860218 0.029868564 -0.12184289 0.23017386 0.018713916 0.031504083 -0.052077446 -0.017354315 -0.08669973 0.057857413 0.03273991 0.0061580325 -0.13676663 -0.21854836 -0.0025427046 0.03706002 -0.14341077 -0.08400407 0.11032686 -0.046974797 -0.045315187 -0.0012233744 -0.13568586 0.18510278 -0.06885726 -0.03185664 0.1908081 0.020019634 0.0783095 0.058148783 0.20355795 -0.1848788 0.22609429 -0.023450993 0.14870237 -0.023326337 -0.0041929767 -0.057845972 0.17112918 -0.0064930124 -0.14357173 -0.1047884
34 -0.13037609 -0.18749571 0.035476673 -0.10872214 0.069792576 -0.026955554 0.044101946 0.027832892 0.09424894 -0.0025816802 0.008472884 0.22204478 0.070389405 -0.05508147 0.044648215 -0.16050793 -0.096241444 -0.010015583 0.068990365 0.075072356 0.12014105 -0.017738894 0.057605162 -0.012360032 0.016531253 0.041405737 -0.19670454 -0.029675033 -0.062901646 -0.060661312 0.027468747 0.038245343 -0.15440907 -0.043689467 0.041146446 -0.091629714 0.09647675 0.00422682 0.008881198 0.035293024 -0.13991618 0.07436783 0.19295451 0.026580442 -0.11109809 0.2084176 0.016329944 0.01855443 -0.045294818 -0.03322908 -0.10332715 0.06832615 0.041317873 0.010682777 -0.13704363 -0.19828579 0.0028847568 0.062299423 -0.15066077 -0.097163506 0.09598776 -0.04539179 -0.052274566 0.004359114 -0.13674586 0.16138776 -0.082066245 -0.053439837 0.18050948 0.0041570985 0.0677918 0.049878333 0.20120545 -0.1775412 0.24507886 -0.016627064 0.14108562 0.0029616626 0.011451235 -0.05583312 0.17504866 -0.0068614897 -0.15638858 -0.11652974
36 -0.14245276 -0.2559746 0.030491257 -0.18570668 0.10389687 -0.034942303 0.06394552 0.08529868 0.119750276 -0.020045383 -0.015384428 0.2235096 0.07592666 -0.04774016 0.07464881 -0.17622301 -0.122106574 -0.029832946 0.03962182 0.06659247 0.13929138 -0.012209603 0.055092666 0.019524164 0.0143545205 0.03693761 -0.21025415 -0.06701915 -0.10322269 -0.092475064 0.041456133 0.023650285 -0.16049644 -0.0718507 0.017947827 -0.12984459 0.08916495 0.005042806 0.009409342 0.034993004 -0.1507283 0.057664942 0.19653615 0.04639826 -0.10626762 0.22466375 0.012652804 0.038996704 -0.04587872 -0.016031798 -0.07381728 0.05797298 0.05205773 0.007841941 -0.11740709 -0.18149051 -0.021791248 0.021292057 -0.13881497 -0.06797789 0.10719816 -0.050708633 -0.021928936 0.006305519 -0.11625634 0.14555982 -0.066782735 -0.032014504 0.17983826 0.004109915 0.050211582 0.046666272 0.17350037 -0.15353583 0.18214792 -0.031651754 0.12443485 -0.009798718 0.014074671 -0.06096865 0.13015126 -0.008976318 -0.092705145 -0.09010048
59 -0.1335233 -0.24053557 0.034875676 -0.16833244 0.0810184 -0.03108155 0.045911778 0.07035355 0.106101826 -0.026855133 -0.0006560668 0.20464529 0.09517574 -0.07079676 0.055746563 -0.1535249 -0.098310605 -0.011911647 0.04470479 0.07825911 0.14028932 -0.03934998 0.057121217 -0.00956914 0.027927736 0.04928278 -0.24606797 -0.068621606 -0.0789543 -0.11115648 0.015434905 0.026941953 -0.20276582 -0.08534791 0.028551655 -0.1462233 0.10499517 -0.0077513917 0.017104773 0.037742384 -0.16803816 0.07309865 0.20650926 0.040246002 -0.11984706 0.23222642 0.00608048 0.040987026 -0.044163316 -0.0339011 -0.079386875 0.05725915 0.030995436 0.017453793 -0.124501534 -0.16448529 -0.010627919 0.05565141 -0.12585847 -0.06681794 0.0834394 -0.03150726 -0.022283886 0.006862524 -0.09198224 0.12436648 -0.06999595 -0.043817334 0.16747276 0.00038199386 0.04396984 0.028381372 0.16183572 -0.15410563 0.18483748 0.0048351497 0.12084131 -0.01357629 0.03283949 -0.061771102 0.16905056 0.003400037 -0.14332806 -0.07035832
29 -0.1716307 -0.28616524 0.034724556 -0.17233807 0.071370944 -0.04020729 0.017937794 0.030796295 0.091151506 -0.01269019 -0.0033132273 0.20100452 0.0694483 -0.073260464 0.06459859 -0.12372834 -0.12265745 -0.023092413 0.07495359 0.074085996 0.13390645 -0.017795311 0.047250096 -0.017225977 -0.00091160793 0.042604204 -0.20250502 -0.043988716 -0.057574354 -0.06584935 0.03404241 0.034297716 -0.107962124 -0.05258382 0.032828256 -0.08148141 0.1047289 -0.0038458963 0.015159079 0.02050087 -0.14163294 0.065676734 0.17236151 0.017154811 -0.11571135 0.27152115 -0.009678979 0.048775423 -0.08878929 -0.024576982 -0.101956576 0.052658457 0.024991388 0.00873401 -0.17568906 -0.1874405 -0.014534502 0.092373796 -0.14314982 -0.08426518 0.10848396 -0.06593855 -0.045122053 0.008306953 -0.12970436 0.13022566 -0.0652514 -0.029489037 0.17691927 0.0259291 0.037432324 0.050969705 0.1607738 -0.14403194 0.21234006 0.021380337 0.14754622 0.013829686 0.021094117 -0.078241415 0.14976236 0.018334795 -0.12008066 -0.108157724
30 -0.110978335 -0.2021811 0.0077392114 -0.13627225 0.065235324 -0.027720025 0.060127884 0.061025243 0.110239685 -0.022041092 -0.02190403 0.22926848 0.07816636 -0.05797263 0.05933862 -0.16693874 -0.10507299 -0.01944149 0.04105873 0.089592144 0.1435855 -0.023381287 0.06935424 0.003530774 0.014172988 0.054569032 -0.23042315 -0.055980302 -0.101769306 -0.075477645 0.036349293 0.032286778 -0.13908796 -0.056583494 0.008892299 -0.13126159 0.07901749 0.0013403844 0.0089597665 0.029299298 -0.16573475 0.059169844 0.18720222 0.054061234 -0.11116405 0.22183144 0.007627877 0.02797904 -0.050372407 -0.022016786 -0.090477996 0.049088042 0.052078605 -1.3015266e-05 -0.12378438 -0.18272497 -0.034107853 0.0268964 -0.12519428 -0.06913354 0.108561546 -0.05545211 -0.022275064 0.0058008065 -0.09629668 0.15303056 -0.057245094 -0.03259004 0.18458591 -0.0032611934 0.045908097 0.05043068 0.18710344 -0.16898577 0.22162005 -0.019695546 0.1394574 -0.010482183 0.0074240724 -0.057978146 0.15619011 -0.002504401 -0.13024998 -0.09701779
60 -0.0976522 -0.2135115 0.0039491733 -0.15300755 0.073857754 -0.023646329 0.051435605 0.08474842 0.124380544 -0.03880245 -0.03538066 0.2152615 0.09268415 -0.047287785 0.05554235 -0.14972903 -0.09377659 -0.03337124 0.034898054 0.06337218 0.103949465 -0.030427376 0.04647368 0.017237581 0.010681331 0.051425762 -0.1979612 -0.03952328 -0.08398299 -0.08525386 0.021791644 0.032895476 -0.1424796 -0.06618746 -0.0070089656 -0.12892252 0.07169073 0.010899445 0.029684763 0.041945517 -0.16338216 0.058023103 0.20946318 0.03212797 -0.10977496 0.23429154 0.010452318 0.01988132 -0.038888723 -0.016884908 -0.101563476 0.05590877 0.03396206 0.0032170836 -0.1447692 -0.22319932 -0.020886404 0.030596724 -0.131594 -0.06813901 0.12402833 -0.07451295 -0.025870642 0.0056282184 -0.09848485 0.16782318 -0.06777061 -0.025956122 0.16582756 0.010379479 0.03581541 0.044292245 0.18784653 -0.15676567 0.22173698 -0.023911083 0.14492932 -0.014440556 0.030221531 -0.038903058 0.18092069 0.008738953 -0.105777025 -0.11368565
73 -0.11980492 -0.2038526 0.018194284 -0.1629348 0.10841464 -0.03361615 0.0736659 0.0834081 0.119505554 -0.024782112 -0.0086150775 0.25279453 0.09232789 -0.045804605 0.06792585 -0.19216843 -0.12340385 -0.02863943 0.039761554 0.08141894 0.13778657 -0.034196142 0.05800959 0.0018944875 0.022762971 0.06447851 -0.22395687 -0.036755882 -0.082682975 -0.09406242 0.020535043 0.043706313 -0.15347667 -0.06209418 0.0052352375 -0.13115115 0.063165985 -0.0042833616 -0.011364802 0.019388668 -0.15864599 0.056981962 0.19583277 0.02712624 -0.11675787 0.2071716 0.032793127 0.020658761 -0.031146694 -0.023605397 -0.10312015 0.06724468 0.0415375 0.001222799 -0.1030976 -0.19125424 -0.0040208697 0.016888525 -0.116316475 -0.06797324 0.08994896 -0.055079572 -0.023273537 -0.009790949 -0.09643942 0.14325255 -0.06696144 -0.032384586 0.14486276 0.012082772 0.063681394 0.04254127 0.18633243 -0.1564807 0.20205055 -0.043396838 0.13321288 -0.02412831 0.021055048 -0.028309884 0.16962616 -0.020516826 -0.10795333 -0.0912905
35 -0.14334223 -0.2222352 0.01707196 -0.15060067 0.08260734 -0.037486773 0.045858465 0.05751463 0.10400732 -0.008279442 0.003463567 0.23933683 0.06994405 -0.054475453 0.066281766 -0.1754538 -0.08831538 -0.0107413 0.059436664 0.08078061 0.1437142 -0.017422173 0.04933902 0.015958285 0.024585137 0.05191135 -0.1985978 -0.03468475 -0.07403085 -0.07648124 0.027622871 0.025602715 -0.16271408 -0.057011113 0.031401463 -0.12287956 0.09021128 -0.0053650346 0.023522234 0.03434646 -0.17413118 0.070588216 0.19842863 0.037712235 -0.11572013 0.21270624 0.002422097 0.026806336 -0.062576555 -0.032795276 -0.089988664 0.05590662 0.035944656 0.012378024 -0.12874559 -0.19010654 -0.00781693 0.03722839 -0.13396946 -0.075847104 0.08970032 -0.055154525 -0.03607553 0.01003742 -0.12917937 0.1312933 -0.07360828 -0.029718924 0.17059155 0.0065147816 0.04143062 0.055009898 0.18202408 -0.1606261 0.21592295 -0.023900805 0.13092756 -0.003570299 0.012146333 -0.05829543 0.14254957 -0.022734784 -0.12907524 -0.10576889
79 -0.11121989 -0.27403495 0.042856127 -0.22265796 0.14332455 -0.064063914 0.08216648 0.1300126 0.054764543 0.0035093024 -0.036425482 0.1484504 0.13199307 -0.06282993 0.07878471 -0.12943251 -0.07634722 -0.042133916 0.05926967 0.09692644 0.13849658 -0.044161297 0.052544396 0.013226496 0.010615094 0.05905936 -0.13328916 -0.026820045 -0.06865744 -0.09317151 0.037105687 0.049295902 -0.119048305 -0.10192637 -0.055163454 -0.13024005 0.10225985 0.0427965 -0.0017393254 -0.0056187436 -0.1532726 0.091555044 0.22376564 0.009964821 -0.11280707 0.20245846 0.014175902 0.08600229 -0.03959591 -0.01986795 -0.10931517 0.073742434 0.020655239 -0.0016058092 -0.15360549 -0.21919928 0.0070223585 0.0042620734 -0.12912248 -0.062113196 0.11606819 -0.104490176 -0.011630236 -0.03256205 -0.11272958 0.15076117 -0.11113324 -0.027616212 0.17457281 0.02738552 0.061443042 0.06716148 0.17333037 -0.17012033 0.20082445 -0.009732623 0.15565403 -0.018827459 0.002445297 -0.056841522 0.16812474 -0.0038938506 -0.063229606 -0.09813941
78 -0.10652186 -0.24471807 0.03886122 -0.19038926 0.13490278 -0.054525867 0.08048036 0.10904018 0.0658744 -0.006292451 -0.035754934 0.1523552 0.11271228 -0.06272098 0.08720775 -0.13890782 -0.09175859 -0.047907617 0.042015668 0.07933624 0.13205858 -0.035734903 0.053904 0.026361998 0.020877963 0.056075584 -0.16323206 -0.035087384 -0.06454996 -0.10927924 0.04238158 0.045155574 -0.13093278 -0.09378575 -0.040147953 -0.13154957 0.089730866 0.034510035 0.019207923 0.020350227 -0.16741085 0.092656046 0.2325994 0.019487597 -0.114962995 0.2081992 0.011635135 0.07476331 -0.034108225 -0.009794636 -0.08963902 0.09121526 0.015234017 -0.0030281832 -0.15432602 -0.21720323 -0.0031086444 0.010062309 -0.14057219 -0.056053676 0.11689631 -0.09654575 0.0010249487 -0.010218014 -0.10306352 0.15896937 -0.11251231 -0.03635109 0.17784584 0.022165807 0.076435305 0.070173696 0.19597724 -0.18162593 0.21297252 -0.014957456 0.14840329 -0.030242467 0.011535664 -0.0512956 0.16485934 0.0021290192 -0.08831714 -0.08429701
