84 128
57 -0.05765601 -0.19663343 0.04377326 -0.17461297 0.12721106 0.038025167 0.10430864 0.04902134 0.01152483 0.0095603345 -0.06869373 0.23847589 0.07533996 -0.018875152 -0.0017774624 -0.0927526 -0.17587203 -0.103087805 0.012787117 0.07201963 0.15639904 0.026969943 0.063080594 0.058254275 -0.024727045 0.092285246 -0.14259012 0.010815592 -0.0336624 -0.04422483 0.00037637175 0.07107906 -0.12990564 -0.05160764 -0.00983068 -0.16330144 0.16280295 0.052658733 -0.01900322 0.001008906 -0.06102234 0.16260545 0.10030244 -0.078931734 -0.06295028 0.19823354 0.11992949 -0.0034414625 -0.040660117 -0.0025385644 -0.11851291 0.06195759 0.008442747 -0.054762173 -0.058603358 -0.09023489 0.010185598 0.0618443 -0.085845806 -0.061410554 0.07655416 -0.101058 -0.058210883 0.0833254 -0.0984788 0.13435107 -0.08059088 -0.071137086 0.08586642 -0.051458906 0.10458587 0.09402015 0.1838337 -0.1529768 0.20971432 -0.040493034 0.20936058 -0.065475315 -0.0057438966 -0.019443424 0.14127389 -0.08406065 -0.04518172 -0.08597804 -0.039669164 0.08712957 0.15658809 0.040597495 0.03215277 0.13772193 0.10603902 0.113840304 -0.0863738 0.09223636 -0.21514392 0.21290408 -0.008566967 -0.16174544 0.07359682 -0.011065101 -0.15039946 0.025749076 -0.13451223 0.00030151632 0.08520663 0.14933537 0.23896943 0.1909222 -0.24415773 0.008327212 -0.030348461 0.042696677 -0.003966028 -0.0084369695 -0.090186924 0.015199381 -0.07349393 0.05147726 -0.10308492 -0.024066586 -0.038951315 -0.08124684 -0.044659138 -0.023275374 0.0041381447 0.06749539 -0.052082792 0.032477196
1 -0.057029005 -0.1910249 0.047942515 -0.16495444 0.11989415 0.029622003 0.09979669 0.048289552 0.014138133 0.008589226 -0.071747854 0.23676677 0.074287824 -0.020843605 -0.0025586113 -0.089543976 -0.16818589 -0.101961255 0.018665092 0.06989758 0.15724559 0.024871025 0.05731696 0.0572205 -0.020709122 0.08876231 -0.13566747 0.010298171 -0.033493973 -0.04567979 -0.0023163524 0.06799925 -0.12882428 -0.05418124 -0.013016928 -0.16769806 0.16171746 0.04780516 -0.016178746 -0.008343521 -0.06243815 0.15483433 0.101680435 -0.074083105 -0.061206073 0.19060777 0.11545947 -0.003176323 -0.037130617 -0.0029206374 -0.11637901 0.062260587 0.010155283 -0.04940386 -0.061188217 -0.085918136 0.010218379 0.06261832 -0.08890504 -0.06340602 0.079224944 -0.10821891 -0.055107757 0.07995295 -0.104810245 0.14133371 -0.080921516 -0.07136294 0.083759084 -0.052608516 0.10244839 0.09135663 0.18889673 -0.15185362 0.2075977 -0.041923292 0.21216968 -0.06991153 -0.0065689064 -0.025068235 0.14153224 -0.0954852 -0.05019442 -0.090905584 -0.044355866 0.08462688 0.15791094 0.040302534 0.037497815 0.13771349 0.10483244 0.11505037 -0.08459706 0.090222634 -0.21495871 0.21250007 -0.01135698 -0.16786829 0.07458705 -0.008118356 -0.15588015 0.026543459 -0.12959942 0.0019310871 0.086574316 0.14920664 0.23828724 0.19107904 -0.24607015 0.009261142 -0.034251016 0.0400821 0.003302218 -0.007170723 -0.09171887 0.011869622 -0.07304797 0.057514332 -0.10587912 -0.023516515 -0.041172545 -0.07533049 -0.048043225 -0.023416694 0.0023413273 0.071869686 -0.054847427 0.036755063
22 -0.062122684 -0.21281114 0.04606683 -0.17941947 0.13102429 0.033504944 0.11355076 0.051340096 0.009002808 0.0071657565 -0.076137796 0.2505623 0.07873408 -0.020160686 0.0016125985 -0.09220897 -0.17934766 -0.10513874 0.015993228 0.07715234 0.16857357 0.02574021 0.06506466 0.057800513 -0.025199244 0.09114804 -0.14537613 0.0031138554 -0.03639357 -0.044581577 0.0051359967 0.068437696 -0.13335645 -0.056006406 -0.013197354 -0.17358293 0.1707031 0.05231374 -0.02501778 -0.007351312 -0.061610676 0.15827905 0.09997072 -0.07542908 -0.060252905 0.2024388 0.12024757 -0.0007507705 -0.039573774 -0.006922172 -0.11936273 0.060245607 0.011846105 -0.059462182 -0.05409125 -0.08984859 0.0101976795 0.06278434 -0.0830814 -0.07015346 0.08318874 -0.10790854 -0.05246016 0.0858555 -0.102999695 0.14116035 -0.08644023 -0.070439555 0.095000215 -0.048688244 0.1034258 0.09676955 0.18458086 -0.1512923 0.21428871 -0.038059533 0.20347957 -0.06436564 -0.0072589507 -0.02202477 0.13836984 -0.09228908 -0.046771146 -0.09411191 -0.040183984 0.08733339 0.16138929 0.03965991 0.03616538 0.13778652 0.10457462 0.111808054 -0.084347144 0.0858082 -0.2093785 0.21138199 -0.010633787 -0.16196242 0.07517889 -0.012413299 -0.1498062 0.023404252 -0.12466826 0.006120052 0.08475828 0.1425879 0.23010248 0.18531209 -0.2385712 0.0076081557 -0.031163938 0.03934388 0.00330439 -0.008038711 -0.087643296 0.0131613575 -0.07746723 0.054727193 -0.10191932 -0.024528142 -0.037497126 -0.07569616 -0.040201392 -0.025230983 0.004980642 0.07093961 -0.049876004 0.03657905
66 -0.053778112 -0.20258221 0.05089217 -0.17321202 0.12176197 0.032459922 0.10893433 0.050290328 0.011784413 0.009257203 -0.07077741 0.23592849 0.07531842 -0.016322603 0.0020585433 -0.088119976 -0.17127942 -0.09954101 0.01570818 0.07592924 0.15783177 0.02831977 0.058653772 0.060475674 -0.02146542 0.08562368 -0.1389428 0.00659039 -0.03346383 -0.046109907 0.0065813623 0.06342826 -0.1307696 -0.052643027 -0.016427713 -0.16649136 0.16870196 0.05455736 -0.019543096 -0.0016535155 -0.062512346 0.16176768 0.106468804 -0.07739143 -0.061158016 0.2055263 0.1201943 -0.0073954137 -0.046996135 -0.0027768677 -0.11811328 0.06604293 0.012552597 -0.05666795 -0.06075855 -0.09104739 0.008363937 0.062404674 -0.09097434 -0.06301006 0.08026814 -0.112227745 -0.05030067 0.08028204 -0.09981928 0.13446964 -0.08449487 -0.07055562 0.0924458 -0.051709674 0.10328498 0.09005269 0.17878555 -0.1496921 0.2049964 -0.04331434 0.2080814 -0.06775349 -0.010736789 -0.020810397 0.13862701 -0.08924579 -0.05230757 -0.08859871 -0.042059418 0.082138054 0.15288869 0.045097735 0.034997772 0.13634303 0.10531677 0.114210255 -0.08575173 0.09500054 -0.20737545 0.2111056 -0.0078118616 -0.15626863 0.07412022 -0.010223187 -0.14567952 0.025853649 -0.13099436 0.0018695646 0.085909806 0.14822593 0.23386477 0.1879506 -0.2428302 0.010088093 -0.033726647 0.04276047 0.0030299262 -0.014800691 -0.084198594 0.01583839 -0.07261677 0.056957513 -0.10572118 -0.023242012 -0.04140739 -0.07872387 -0.040379938 -0.020900674 0.0009009859 0.07194073 -0.05076308 0.032592803
25 -0.06652449 -0.20937726 0.047383074 -0.17854847 0.12732042 0.036374763 0.1106398 0.045481727 0.015124299 0.0066193785 -0.074413516 0.23972979 0.07323521 -0.014781679 0.000558985 -0.0941803 -0.16884527 -0.10652023 0.018309182 0.07446185 0.16183168 0.02541006 0.061425522 0.061172027 -0.023272472 0.08179368 -0.13995902 0.005710097 -0.039203305 -0.043788902 0.007508149 0.06683472 -0.13123514 -0.059059933 -0.014390326 -0.16788004 0.16559273 0.058101244 -0.02008337 -0.0074041816 -0.068429224 0.16681585 0.101774365 -0.083081335 -0.05927498 0.21059278 0.12836844 0.0018740813 -0.040773727 -0.0018662851 -0.12668529 0.06644773 0.013623389 -0.055278108 -0.0657011 -0.093570136 0.010317971 0.058758687 -0.08684441 -0.061745334 0.07925882 -0.10847305 -0.053122114 0.08287347 -0.1081881 0.14026792 -0.08717746 -0.07208184 0.08778535 -0.05521467 0.10455504 0.093346104 0.18445279 -0.14860398 0.21218452 -0.041178893 0.20505087 -0.06482977 -0.009034454 -0.027364546 0.14076705 -0.09211048 -0.051260073 -0.09370043 -0.04316372 0.08714278 0.16068463 0.037594657 0.032241937 0.13413487 0.09983826 0.11259613 -0.08181972 0.088630095 -0.21297078 0.21753171 -0.009344562 -0.16009122 0.07214923 -0.009210803 -0.15311082 0.023819901 -0.13161829 0.003826185 0.08625123 0.13809742 0.23260972 0.18407 -0.23638768 0.0034226389 -0.03317114 0.041633777 0.0015201285 -0.011289691 -0.09100911 0.013226749 -0.07087369 0.053882167 -0.10186857 -0.023009956 -0.039991267 -0.07052574 -0.03933363 -0.024880717 0.00048603147 0.074919336 -0.053761423 0.035208967
18 -0.061882157 -0.21170887 0.04646069 -0.18287657 0.13384688 0.03649027 0.11052014 0.05593526 0.013932838 0.01298092 -0.07706389 0.2555992 0.08278667 -0.019577807 0.00013031314 -0.09816881 -0.18095766 -0.10442726 0.012319379 0.07876835 0.16783297 0.025687084 0.06829197 0.06043368 -0.020586846 0.095215164 -0.14731933 0.0045417952 -0.037297197 -0.043763824 0.0044608014 0.072991386 -0.1329744 -0.05441196 -0.009708399 -0.17472352 0.17147994 0.05396787 -0.019079939 0.00074331573 -0.066295065 0.16663119 0.10086692 -0.08117786 -0.062982485 0.20357968 0.11909636 -0.0037242363 -0.040190395 -0.005622187 -0.119246565 0.058183163 0.013063622 -0.05200111 -0.059113972 -0.087555096 0.008692954 0.059773374 -0.0882 -0.06628048 0.08347982 -0.1121863 -0.054040432 0.08313563 -0.10037313 0.14152735 -0.08383345 -0.0758821 0.09520626 -0.048070773 0.10009483 0.096072696 0.18839915 -0.15531005 0.21535061 -0.037358467 0.21474868 -0.06251381 -0.008100498 -0.02360083 0.13988376 -0.088335246 -0.045426708 -0.09440311 -0.04427894 0.091460235 0.16285905 0.042734146 0.031138118 0.1438277 0.105320305 0.110884115 -0.0828515 0.09060042 -0.2187972 0.21896867 -0.011111365 -0.16586499 0.078758135 -0.012509333 -0.15767539 0.026915723 -0.135126 0.0028941077 0.08785172 0.14933921 0.23914142 0.19090484 -0.24930401 0.0049416446 -0.03814546 0.040253412 -0.0012493426 -0.012027425 -0.09096041 0.010232653 -0.07790328 0.054061748 -0.10195926 -0.024985706 -0.0412783 -0.08074324 -0.044749483 -0.026003845 0.0037932044 0.06975987 -0.05630314 0.034474146
70 -0.05299494 -0.19818898 0.045811657 -0.16803242 0.12528917 0.032274835 0.10421294 0.04819128 0.0136412075 0.009411907 -0.069735296 0.23549196 0.06733712 -0.017138219 -0.00030087095 -0.087826736 -0.16637231 -0.103252806 0.016356686 0.073207974 0.15377948 0.026617577 0.05387224 0.05178101 -0.021162983 0.08762355 -0.13836874 0.0037778104 -0.032231588 -0.039994262 0.004917244 0.06602855 -0.13549116 -0.056223333 -0.011575537 -0.17295365 0.17367712 0.05762341 -0.02044946 -0.0015938337 -0.060242992 0.162129 0.09959742 -0.07945636 -0.06754601 0.20429337 0.12280005 -0.0014887375 -0.047948565 -0.008327185 -0.116887406 0.0652918 0.013860305 -0.054413565 -0.056635965 -0.08741678 0.013136797 0.065826416 -0.09148466 -0.06688374 0.081069924 -0.10609728 -0.05638819 0.08424102 -0.109398015 0.14547175 -0.083042145 -0.07388981 0.0925683 -0.0542235 0.10521996 0.09977679 0.18769912 -0.15509222 0.2118187 -0.03930676 0.21223481 -0.06872835 -0.009101351 -0.023009825 0.14625922 -0.09459019 -0.051981013 -0.08595357 -0.0387278 0.08433164 0.16403534 0.043587223 0.036916602 0.13786052 0.10616366 0.11522396 -0.08774064 0.094397746 -0.21191774 0.21596941 -0.009480958 -0.16768698 0.076411575 -0.013887608 -0.16035046 0.027211653 -0.13533354 0.0038857772 0.08808407 0.15014605 0.24160995 0.19303526 -0.25114405 0.006575702 -0.036006037 0.043733153 -0.00067141175 -0.010840835 -0.08786615 0.013731901 -0.079124995 0.055109654 -0.10601257 -0.019918123 -0.039131686 -0.08335641 -0.040654033 -0.02439438 -0.00092158956 0.073906824 -0.05356946 0.03285979
44 -0.055975955 -0.19825633 0.043263547 -0.17442359 0.12892805 0.03402455 0.1092057 0.049258474 0.014903131 0.009398921 -0.06817643 0.24410072 0.06879952 -0.019627495 0.00087161385 -0.08584497 -0.17388761 -0.10571756 0.013108807 0.07529385 0.15898633 0.02894488 0.056109153 0.058160674 -0.018492244 0.087576315 -0.13883542 0.007887965 -0.03176779 -0.041912574 0.006565734 0.06288902 -0.13142325 -0.0548418 -0.01036869 -0.16480725 0.16077739 0.0558449 -0.02113536 -0.009127885 -0.06647665 0.17120337 0.101831436 -0.081251964 -0.06374979 0.20216426 0.122905314 0.0012994508 -0.046318788 -0.0055784965 -0.121897526 0.06335628 0.013268287 -0.059902094 -0.056754068 -0.09095731 0.014251882 0.058904257 -0.08345033 -0.07050407 0.07903783 -0.10797647 -0.054429412 0.07951464 -0.1030153 0.14776896 -0.08656401 -0.06941171 0.09217246 -0.051347867 0.10968768 0.095573455 0.1874509 -0.1552897 0.2136936 -0.035774805 0.20925476 -0.072009176 -0.006051907 -0.019472431 0.14200737 -0.09428385 -0.05257653 -0.09253735 -0.043003112 0.08650295 0.1645433 0.042184267 0.031109028 0.13637762 0.10079215 0.11609191 -0.08696518 0.08827123 -0.21833529 0.21826987 -0.008459637 -0.15970716 0.06898968 -0.0063095577 -0.15210764 0.027651664 -0.13046026 0.0051304437 0.08746569 0.1499775 0.24291882 0.19134943 -0.24807824 0.008298543 -0.03154447 0.040756624 -0.0030034592 -0.007306775 -0.08763549 0.017868374 -0.07793889 0.053355996 -0.10318663 -0.025336402 -0.039082963 -0.08030116 -0.04424868 -0.022207048 0.0061725336 0.07067041 -0.055776972 0.031028247
65 -0.061065964 -0.1988853 0.04509991 -0.17029661 0.13002028 0.031488348 0.10900365 0.04980131 0.012622631 0.004498344 -0.06772022 0.23954363 0.07667983 -0.01847278 -0.0033913967 -0.08909355 -0.1696065 -0.09989611 0.017049057 0.07437782 0.15868334 0.025256388 0.061775696 0.05824155 -0.020331139 0.090517506 -0.14228052 0.0104579395 -0.03529903 -0.04189823 0.0074393214 0.06792204 -0.12854193 -0.054617662 -0.015626542 -0.16922866 0.16367118 0.053810935 -0.021689298 -0.0026705763 -0.060012076 0.16368185 0.104813315 -0.082024194 -0.06736398 0.1959075 0.12370542 -0.0014292214 -0.039528072 -0.0045184926 -0.12043196 0.060491048 0.0117973555 -0.05754269 -0.059216924 -0.09252437 0.009591924 0.058989692 -0.083187185 -0.06930817 0.07548944 -0.10691179 -0.056174565 0.08601172 -0.10532582 0.14563312 -0.08043222 -0.07102552 0.09187879 -0.05110161 0.10398698 0.09777873 0.18481606 -0.15117146 0.20638256 -0.042157542 0.21237253 -0.07178144 -0.008932308 -0.019206436 0.14621551 -0.08905156 -0.052929867 -0.088350885 -0.038105555 0.09106852 0.16369131 0.044216763 0.037193716 0.13583656 0.09831056 0.11417937 -0.084175095 0.087504804 -0.21030723 0.2086236 -0.009382072 -0.16738284 0.07540304 -0.01047376 -0.15373518 0.022328068 -0.12799428 0.005295147 0.090877436 0.14314273 0.23920324 0.18444976 -0.24737349 0.0070411214 -0.03623658 0.039172705 -0.0009105874 -0.008240987 -0.09071712 0.01335692 -0.07541486 0.05825213 -0.100878246 -0.021597752 -0.037118115 -0.07649704 -0.040367294 -0.02692135 0.0009968614 0.07733738 -0.05429791 0.030740697
69 -0.05674003 -0.18783718 0.045437176 -0.1582055 0.11687955 0.035514854 0.1027219 0.044088073 0.010042542 0.007888956 -0.06573784 0.2352318 0.06704163 -0.015273146 0.0015106976 -0.082977936 -0.16862269 -0.099113934 0.015768338 0.06793435 0.15374917 0.027976533 0.059264787 0.051066235 -0.025420843 0.08716776 -0.13783725 0.0025894272 -0.037267935 -0.042529747 0.0008602485 0.0671337 -0.1284203 -0.047704764 -0.0075347605 -0.16247398 0.16298656 0.05370298 -0.019827135 -0.0004720043 -0.05823908 0.1601334 0.10439685 -0.078592315 -0.061032142 0.19950718 0.121849775 -0.0049267537 -0.039281964 -0.0064377924 -0.11636051 0.058466636 0.0078048785 -0.05378352 -0.06145177 -0.082664154 0.01292951 0.05926267 -0.08829516 -0.065072194 0.08125153 -0.10412566 -0.05295826 0.07869972 -0.10253406 0.14147525 -0.086982444 -0.07282425 0.087834604 -0.057838652 0.10619846 0.093056686 0.18390724 -0.15356684 0.21531297 -0.035004884 0.21270114 -0.069681555 -0.007815075 -0.024882069 0.1443746 -0.08695958 -0.046236485 -0.08665457 -0.047572177 0.08514055 0.15629575 0.04540265 0.036609765 0.13506183 0.10092756 0.11186069 -0.08429316 0.090142645 -0.21237141 0.21638584 -0.0115422085 -0.15898712 0.06973692 -0.010986942 -0.14977838 0.026458994 -0.12984282 0.0046876627 0.087133884 0.14334202 0.23029956 0.18341935 -0.24045137 0.002778645 -0.03122375 0.044029865 -0.00024882148 -0.010208654 -0.08793908 0.014381719 -0.07497229 0.051812764 -0.10610989 -0.022323338 -0.040756546 -0.07676109 -0.03820252 -0.019854141 0.006634603 0.068590015 -0.050476953 0.03649214
63 -0.058743514 -0.20049499 0.05279926 -0.17607978 0.13013753 0.039081376 0.111135475 0.04715605 0.013892505 0.013133848 -0.06771676 0.24100912 0.07453785 -0.016241523 -1.1688026e-05 -0.092485465 -0.17118673 -0.10520877 0.014518533 0.07384178 0.1567374 0.029457124 0.054313593 0.060868062 -0.024062805 0.08951343 -0.14370255 0.006134224 -0.03442491 -0.044410486 0.008666996 0.06334012 -0.13133922 -0.055507474 -0.015184722 -0.17238122 0.17209639 0.058564506 -0.01791532 -0.0006830454 -0.0614675 0.17194198 0.10562143 -0.08450622 -0.059029736 0.2030918 0.12316947 -0.004908532 -0.040961277 -0.0041914196 -0.12000035 0.06358154 0.01312145 -0.05623758 -0.057423875 -0.08772088 0.0129140625 0.060004566 -0.086894654 -0.06392808 0.07906201 -0.11185649 -0.056951467 0.078860454 -0.103789456 0.14592089 -0.08606223 -0.07373993 0.088997655 -0.049677715 0.10380909 0.09659106 0.18583354 -0.15277317 0.2126612 -0.039835304 0.20975888 -0.064067915 -0.012282112 -0.021606123 0.1398121 -0.090652615 -0.049377743 -0.0927288 -0.04489006 0.08662548 0.16288143 0.039756197 0.037275236 0.13620053 0.106873676 0.116510294 -0.08477466 0.08961541 -0.21460137 0.21327908 -0.011147486 -0.16759293 0.07286247 -0.0061657247 -0.15779425 0.024615934 -0.13374755 0.0044477484 0.085582614 0.15085137 0.23986882 0.18929426 -0.24895476 0.009719137 -0.03513461 0.045412324 0.0023616364 -0.01147198 -0.09104523 0.0155653 -0.07794489 0.05609708 -0.10195938 -0.027389584 -0.0442775 -0.08319518 -0.040336747 -0.021337664 0.0015573747 0.0750828 -0.052078374 0.03361233
26 -0.0577004 -0.19776922 0.049710855 -0.17267533 0.12784415 0.03218525 0.110856704 0.04882011 0.0059377146 0.005554317 -0.07293944 0.23352873 0.07628358 -0.02173504 -0.0028491532 -0.08385817 -0.16604543 -0.09739912 0.012752364 0.07232659 0.15784627 0.027288776 0.06257316 0.05841473 -0.02418834 0.08586887 -0.14174442 0.0051632496 -0.03676859 -0.04041896 0.0067103445 0.06725606 -0.12805349 -0.057136804 -0.013264064 -0.16930819 0.16709358 0.051122494 -0.020425763 -0.003974254 -0.066076055 0.16510954 0.10457124 -0.0823543 -0.06738877 0.20973702 0.12454289 -0.0033252952 -0.04679521 -0.0016155497 -0.11821531 0.06539883 0.008159463 -0.05953265 -0.059919707 -0.0943493 0.0105140135 0.064213075 -0.09360121 -0.06792489 0.0829868 -0.11368925 -0.05512868 0.08968373 -0.104181424 0.14280522 -0.08215799 -0.076122604 0.093407355 -0.052002646 0.10515779 0.097480945 0.18287593 -0.15249892 0.21174556 -0.0422463 0.20767167 -0.06746693 -0.011558126 -0.023502301 0.14024906 -0.0879851 -0.049920905 -0.08841836 -0.039310776 0.090408385 0.15599833 0.04600676 0.033082962 0.13940534 0.104232684 0.11386722 -0.081492856 0.09642761 -0.20948957 0.2116265 -0.009531057 -0.15870269 0.07399699 -0.011223045 -0.14785483 0.022934243 -0.12860265 0.005469161 0.08786584 0.14710702 0.24006724 0.18764393 -0.24067543 0.01191583 -0.036465645 0.03975834 0.0029656105 -0.004969513 -0.08511148 0.0128805945 -0.07552801 0.05440794 -0.098003864 -0.025074886 -0.04041648 -0.08067273 -0.044483367 -0.02653568 0.004661323 0.073785715 -0.0552853 0.030436564
81 -0.06178133 -0.21177715 0.052065756 -0.18166123 0.13712442 0.03653537 0.11214448 0.055062905 0.011034162 0.008385428 -0.07187408 0.25340632 0.080617554 -0.021039195 0.0013303438 -0.09335727 -0.18319471 -0.10827509 0.015228996 0.07807193 0.17046905 0.027255783 0.06208251 0.05875873 -0.023181377 0.09802914 -0.14869948 0.004761005 -0.03735303 -0.04598952 0.0057449364 0.06833786 -0.13887762 -0.053647336 -0.010338467 -0.17378119 0.17444772 0.05378513 -0.015584312 -0.0025608079 -0.06575472 0.16801229 0.10118141 -0.08033839 -0.06378414 0.19359304 0.11619142 0.0017445753 -0.042121664 -0.0014261471 -0.1150467 0.062382575 0.011503559 -0.057406332 -0.057385236 -0.087085806 0.007367412 0.060082946 -0.08262606 -0.06713092 0.08107734 -0.1030893 -0.055776663 0.08632427 -0.10648401 0.1432679 -0.08526789 -0.070142 0.09022822 -0.0531272 0.10578793 0.09814121 0.18326859 -0.15510033 0.20984298 -0.038019642 0.21292782 -0.06586735 -0.006437156 -0.022833228 0.14483656 -0.09035063 -0.050357725 -0.0902699 -0.040434673 0.09063231 0.15869392 0.042466547 0.034782887 0.13932283 0.10597414 0.1135856 -0.08658784 0.088800214 -0.21238105 0.21461555 -0.009055823 -0.16509938 0.06837962 -0.008130535 -0.15537858 0.021164354 -0.12818569 0.0047317455 0.09173679 0.14985219 0.24539317 0.19218375 -0.25153026 0.005159238 -0.029839752 0.044473037 0.0019635598 -0.011553429 -0.095072605 0.014439066 -0.078615114 0.05356699 -0.10891639 -0.026633095 -0.042734586 -0.08132848 -0.045627832 -0.022179112 0.0032157155 0.074751325 -0.057062637 0.03250778
37 -0.059141032 -0.19444716 0.05080609 -0.16880354 0.123245284 0.03796058 0.10290124 0.045426436 0.015521861 0.009494993 -0.0673466 0.2399451 0.07309137 -0.020703802 -0.0044768667 -0.085580915 -0.17111304 -0.10090934 0.01696668 0.07005792 0.15189567 0.0265138 0.0588348 0.061086606 -0.021487324 0.088078596 -0.13506402 0.004884298 -0.03200111 -0.043612033 0.004675661 0.06396268 -0.1319499 -0.057213534 -0.008131288 -0.17049022 0.1701273 0.053716335 -0.017433088 -0.0026528402 -0.06204134 0.17272827 0.10764601 -0.08268017 -0.06651238 0.20632723 0.124546915 0.0005334296 -0.044117764 -0.008236445 -0.12281437 0.06464163 0.015604681 -0.053367447 -0.06398226 -0.08623041 0.014127226 0.060466424 -0.09252918 -0.06447963 0.07893891 -0.11378729 -0.05708216 0.086948015 -0.10605156 0.14571019 -0.08281224 -0.07099724 0.09019173 -0.053611442 0.1059958 0.09612672 0.18661872 -0.15174705 0.21492654 -0.03933259 0.21404254 -0.06778598 -0.012618684 -0.020952508 0.14180559 -0.09526485 -0.053012487 -0.092964806 -0.042055383 0.08549755 0.16368945 0.04562167 0.035048924 0.1395625 0.1038207 0.11333454 -0.08773749 0.09491416 -0.21412992 0.21597245 -0.012095692 -0.16017933 0.06482529 -0.00615022 -0.1468422 0.021707794 -0.13116038 0.0009548836 0.08736094 0.15026979 0.24314858 0.1938338 -0.25244585 0.0120954765 -0.029950356 0.044880137 0.0055826483 -0.014093085 -0.08814851 0.013146507 -0.072927736 0.052165583 -0.107909516 -0.023862606 -0.037983533 -0.08350368 -0.040361673 -0.027837735 0.0035328895 0.07212305 -0.05822083 0.032384925
46 -0.057342634 -0.19286288 0.04815126 -0.1625227 0.12121373 0.03737344 0.10664612 0.04716818 0.008844009 0.008570977 -0.064971216 0.2347806 0.06703452 -0.01380099 -0.0029784022 -0.08966193 -0.16278304 -0.09858166 0.012128859 0.0731941 0.14996102 0.022586927 0.058843214 0.05874879 -0.019814987 0.081840165 -0.13934538 0.0038079927 -0.03268733 -0.04461992 0.004011995 0.06603332 -0.12972228 -0.049734734 -0.011367548 -0.16541629 0.1603026 0.05170222 -0.014631505 -0.0019891483 -0.06549083 0.16350049 0.106405474 -0.077880606 -0.066162005 0.20525746 0.12538856 -0.0034135028 -0.046290778 -0.0079642255 -0.11650647 0.063801505 0.008908431 -0.055021107 -0.06258472 -0.08671581 0.013287098 0.06049636 -0.092709474 -0.0675196 0.08057436 -0.10957582 -0.05726468 0.08384499 -0.106452 0.14192837 -0.08400122 -0.07498762 0.0915313 -0.056539025 0.101095915 0.095176876 0.18608402 -0.15243325 0.21540007 -0.04011846 0.20718803 -0.069544174 -0.011602518 -0.025924452 0.146323 -0.093274355 -0.05437811 -0.09041073 -0.041699894 0.084947586 0.16174178 0.045678295 0.030067995 0.1426514 0.10827231 0.11646483 -0.08257635 0.09597778 -0.21401113 0.21701337 -0.009988233 -0.1571462 0.06994155 -0.009327547 -0.15189329 0.021535011 -0.13134871 0.0031761858 0.08530253 0.14494544 0.24016011 0.19062881 -0.24159591 0.010198089 -0.034721047 0.045275066 0.0037329046 -0.0071269404 -0.09140146 0.010960464 -0.072960004 0.052797318 -0.10726391 -0.022026794 -0.04447359 -0.08134056 -0.04040109 -0.019983253 0.004401109 0.069557495 -0.055415202 0.032362487
38 -0.05548244 -0.20416647 0.047092926 -0.17445315 0.12304126 0.034765497 0.10443173 0.046737175 0.014692536 0.006835406 -0.07017463 0.2459625 0.07513094 -0.019387247 -0.004425151 -0.0907286 -0.17556328 -0.10137498 0.014860858 0.07391853 0.15856369 0.028542157 0.063285165 0.055783927 -0.026027232 0.091934435 -0.14152694 0.0028948328 -0.036527302 -0.04440101 0.0018838855 0.066568285 -0.13498656 -0.057456635 -0.014233225 -0.17244747 0.16883372 0.050175454 -0.025331942 -0.0064107035 -0.06392158 0.16101646 0.1046438 -0.07544258 -0.0668848 0.20436001 0.124823414 -0.0041103563 -0.04012457 -0.008480318 -0.119508654 0.060443092 0.008124973 -0.059222147 -0.05991193 -0.09216809 0.013808978 0.062106267 -0.09231273 -0.06630212 0.07725592 -0.10908542 -0.052432064 0.080219604 -0.10379463 0.14496645 -0.0784093 -0.07009588 0.08677644 -0.05329639 0.102301404 0.09520084 0.18296322 -0.15318048 0.20804195 -0.039332308 0.2107979 -0.065503396 -0.0082698995 -0.022161728 0.14425497 -0.092352495 -0.049112756 -0.08827996 -0.04514932 0.08682875 0.1600532 0.04224815 0.032752506 0.13528594 0.103481725 0.11146831 -0.08592768 0.089620456 -0.21544087 0.21079034 -0.010034796 -0.16132465 0.0715306 -0.006839437 -0.1502736 0.024608439 -0.12597162 0.0011940536 0.08285132 0.14234145 0.2332958 0.18991987 -0.24522409 0.00792792 -0.036097523 0.045379713 0.0035696444 -0.013038457 -0.088663 0.011704185 -0.07776254 0.054035615 -0.10704 -0.022299081 -0.0383567 -0.08094785 -0.045741957 -0.025024187 0.0025098494 0.07635263 -0.057823233 0.034774486
64 -0.05836006 -0.20018831 0.05063522 -0.16963919 0.12474856 0.035419524 0.113543354 0.05110323 0.013286382 0.0047984314 -0.0705598 0.24461204 0.07580579 -0.020774554 0.0032398584 -0.08898863 -0.17575791 -0.10571714 0.0130644 0.074633226 0.16191024 0.027663892 0.058383733 0.056982365 -0.024047155 0.08920832 -0.14044034 0.0040820045 -0.03368909 -0.045557734 0.0015968116 0.0638523 -0.12962064 -0.05657128 -0.013261218 -0.1739242 0.16886154 0.055499244 -0.017051233 -0.0023426756 -0.059910912 0.1619537 0.10181968 -0.08177245 -0.06369673 0.20432837 0.12569784 -0.005948657 -0.046905495 -0.0035975545 -0.11869661 0.06342287 0.005950756 -0.054901663 -0.05598856 -0.09200169 0.0061766524 0.062154196 -0.08549896 -0.06480264 0.07822385 -0.10806078 -0.05590001 0.08538254 -0.10221506 0.14000526 -0.0856382 -0.074251175 0.09047564 -0.05356532 0.10329201 0.09587708 0.18383327 -0.15305011 0.21033241 -0.03937234 0.20769876 -0.0643036 -0.006739691 -0.027311584 0.13912167 -0.08892931 -0.04761521 -0.08988916 -0.042469416 0.08746935 0.15791653 0.041284792 0.036013294 0.13816136 0.101514064 0.11392272 -0.08206629 0.09601948 -0.20926894 0.2167474 -0.0077603674 -0.16059704 0.06968106 -0.009380152 -0.15176858 0.024729045 -0.1318566 -0.00039015486 0.08757594 0.15110673 0.24264908 0.1913368 -0.24457388 0.0058509493 -0.030806748 0.04187454 0.0058467207 -0.0074117975 -0.0891045 0.012830882 -0.07759456 0.05727753 -0.10258777 -0.020613508 -0.04287283 -0.075040966 -0.045344826 -0.019026697 0.0009842879 0.06870166 -0.05215508 0.037928864
56 -0.057850245 -0.18838325 0.040882584 -0.1672425 0.12353942 0.034297034 0.101241134 0.046607755 0.007666125 0.010128733 -0.0649018 0.2373959 0.06949269 -0.016895412 -0.003551458 -0.09018196 -0.16868065 -0.10108764 0.0155677125 0.07026958 0.1548554 0.024423514 0.057162467 0.058911648 -0.019358804 0.08955225 -0.14310782 0.0057771094 -0.039060503 -0.03978965 0.0039831046 0.0685795 -0.12807915 -0.05454348 -0.014969703 -0.16718581 0.16674784 0.056051172 -0.018424228 0.0016186651 -0.067447774 0.16540413 0.10455052 -0.07542304 -0.065953836 0.20442027 0.120747745 -0.0040549194 -0.04200852 -0.006739709 -0.120308645 0.06030005 0.010374094 -0.05402595 -0.057653423 -0.093722776 0.009423473 0.061669566 -0.090892375 -0.06520815 0.08298041 -0.103116974 -0.059169278 0.08614442 -0.09642185 0.13945681 -0.08091268 -0.06818504 0.08805499 -0.05515986 0.10068487 0.09029639 0.18120502 -0.14876424 0.19698526 -0.03721207 0.20241067 -0.06810536 -0.0065668277 -0.019561308 0.13933708 -0.083566345 -0.04816947 -0.080187134 -0.042812783 0.08126054 0.15644772 0.041166976 0.038354743 0.13475734 0.10140243 0.10746773 -0.07813821 0.0882646 -0.2072955 0.20053829 -0.006317853 -0.15966001 0.068418354 -0.0077677504 -0.14955066 0.025994869 -0.12662867 0.0080856625 0.08113746 0.14795758 0.2374199 0.18975699 -0.24682723 0.008958728 -0.033695426 0.04494677 0.0020855512 -0.0072172694 -0.08684205 0.016768655 -0.07369674 0.056916572 -0.0983321 -0.025538415 -0.039844573 -0.07697398 -0.04393891 -0.019971713 -0.00075197686 0.074373074 -0.049494088 0.036804557
76 -0.06514583 -0.20080115 0.044452086 -0.17184211 0.13243186 0.03216752 0.11158569 0.049574487 0.013799837 0.006950215 -0.07052387 0.23645067 0.07168053 -0.020739913 0.0041863318 -0.08957119 -0.1626939 -0.09940184 0.015871784 0.07223972 0.15152705 0.021757267 0.055766232 0.051239032 -0.022653589 0.084519394 -0.14074324 0.0068296283 -0.035226118 -0.04698755 0.009681842 0.06586245 -0.124303065 -0.051905327 -0.00825979 -0.16051841 0.16061668 0.048264816 -0.01603788 -0.003634424 -0.06567641 0.15804029 0.10236531 -0.07889599 -0.060733605 0.19623952 0.12257815 -0.002900179 -0.041559193 -0.0029888009 -0.11375482 0.0585233 0.011324179 -0.053992413 -0.059368964 -0.08664035 0.011216497 0.06437288 -0.08289672 -0.059959266 0.07359646 -0.10127018 -0.058191374 0.07852562 -0.1025581 0.14006722 -0.085327454 -0.075319245 0.08782122 -0.052429043 0.107297905 0.093807705 0.18517064 -0.15058325 0.21099055 -0.03462255 0.2048557 -0.06404896 -0.010669315 -0.024919089 0.14152268 -0.08604803 -0.05157924 -0.08773543 -0.038870696 0.09011087 0.16121762 0.040455937 0.034967955 0.1334701 0.09969735 0.11659919 -0.08425943 0.0915213 -0.21162854 0.20977291 -0.009888639 -0.15835984 0.071420796 -0.010110983 -0.14499691 0.021279352 -0.13069317 -0.00117134 0.08592886 0.1437884 0.23325333 0.18607745 -0.2338308 0.004390061 -0.030468246 0.045213554 0.001982801 -0.007544982 -0.08433463 0.0155192735 -0.07348061 0.05175068 -0.09809119 -0.021460414 -0.042400938 -0.077197276 -0.03887707 -0.018298842 0.0040151067 0.072208986 -0.050066676 0.036537685
16 -0.06143568 -0.20604941 0.048426274 -0.17640027 0.12954997 0.036108557 0.11513359 0.051729843 0.011547969 0.010390505 -0.07495173 0.24794632 0.07290704 -0.015663465 0.002259322 -0.09285561 -0.17893313 -0.108371176 0.010181385 0.07049411 0.16179031 0.029109675 0.06543315 0.057446312 -0.021997862 0.08931336 -0.14116767 0.0057772775 -0.03869088 -0.04688728 0.0029783929 0.069269456 -0.13029404 -0.057814732 -0.009280468 -0.16625968 0.17239867 0.052685447 -0.023798153 -0.0074617723 -0.064254686 0.16318883 0.10336341 -0.07682202 -0.059827447 0.19462343 0.12390716 0.0012121226 -0.04357101 -0.00015309497 -0.1125871 0.061204106 0.012510144 -0.05402862 -0.054671243 -0.08958878 0.009915218 0.05991748 -0.084150076 -0.06710485 0.08041216 -0.10919153 -0.055043463 0.07672334 -0.1007968 0.13920343 -0.083132036 -0.066818394 0.087444425 -0.0536759 0.1057786 0.09127268 0.18517692 -0.1510801 0.21284613 -0.041338217 0.21057804 -0.06720941 -0.0142545 -0.020023057 0.14320993 -0.09182927 -0.047954287 -0.092303686 -0.039293054 0.09176008 0.15853322 0.0451678 0.03501753 0.13635209 0.1003537 0.11284385 -0.08668611 0.09154218 -0.20996208 0.21422514 -0.0065263472 -0.16235013 0.0704863 -0.013377597 -0.14652492 0.024096189 -0.12589668 0.0005422861 0.08410616 0.1409013 0.23332882 0.1855638 -0.23944797 0.008972952 -0.03386685 0.045236267 -0.0027793527 -0.008529307 -0.08376915 0.015559068 -0.07681372 0.057491146 -0.100996554 -0.026301693 -0.04068588 -0.075554796 -0.04191417 -0.02709488 0.005745249 0.074229136 -0.05235929 0.038152233
67 -0.05795621 -0.19563264 0.05099615 -0.16934846 0.12921093 0.034261677 0.10888122 0.043626405 0.014878037 0.010043825 -0.06466113 0.23435716 0.067166135 -0.020560158 0.004021034 -0.09155131 -0.16876581 -0.104423344 0.011765005 0.06895353 0.1540795 0.023541622 0.058796898 0.05335215 -0.021643126 0.09025015 -0.13605568 0.0041380944 -0.031838942 -0.04604497 0.0010183463 0.060869288 -0.1286909 -0.055394273 -0.011562339 -0.16434415 0.16138436 0.053729642 -0.015835071 -0.0049878582 -0.06289555 0.1681778 0.10557318 -0.075817876 -0.06114913 0.19851792 0.12197473 0.0009369407 -0.040534634 -0.0052678757 -0.11755333 0.06227393 0.009058512 -0.055216286 -0.060104284 -0.08729875 0.013506287 0.06406147 -0.08777186 -0.062014133 0.08176739 -0.105878524 -0.055392005 0.08308299 -0.1064087 0.1395572 -0.07975865 -0.0721131 0.09094793 -0.05146556 0.103544556 0.09837305 0.18356335 -0.1474876 0.20929644 -0.037710033 0.20618245 -0.06384671 -0.0056155077 -0.022007244 0.13919914 -0.08899864 -0.052031714 -0.08525831 -0.04567881 0.087913 0.15493695 0.039247733 0.03698628 0.13367954 0.10375997 0.11516426 -0.08422879 0.087679215 -0.20720075 0.21213186 -0.008025331 -0.1597873 0.068701036 -0.013546852 -0.14835587 0.02414453 -0.12776613 0.004180979 0.085347034 0.14128014 0.23934741 0.19024272 -0.24252813 0.0038897246 -0.036483876 0.044930145 2.8852592e-06 -0.00560765 -0.08825893 0.016428618 -0.07888382 0.053315416 -0.099953994 -0.026491761 -0.043220054 -0.07875453 -0.042415183 -0.02121388 0.003274393 0.07430519 -0.050556693 0.037392743
19 -0.052414987 -0.19740997 0.0486276 -0.17166595 0.12208246 0.037324138 0.103897735 0.04466426 0.013428032 0.008024212 -0.07214844 0.23870555 0.070835434 -0.017057039 -0.002671268 -0.08691764 -0.16981083 -0.10181361 0.016753191 0.075347126 0.15562807 0.023182489 0.057662345 0.05827994 -0.02378227 0.090706326 -0.13896777 0.0060854913 -0.03667823 -0.043933522 0.0042722444 0.06639317 -0.12857193 -0.057230417 -0.012833639 -0.16689306 0.16275057 0.05532253 -0.016230876 -0.003765612 -0.06492007 0.1653856 0.10307539 -0.08019872 -0.05948054 0.20325094 0.12546474 -0.004550346 -0.043254912 -0.0046176743 -0.12250994 0.06371691 0.007487235 -0.05734799 -0.057652745 -0.089003816 0.0075355633 0.06355216 -0.08532071 -0.066863686 0.079987645 -0.11041865 -0.052591585 0.08805625 -0.10482992 0.13957223 -0.08010564 -0.07265156 0.085928276 -0.05782872 0.103758216 0.09737567 0.18611749 -0.15253283 0.21012981 -0.042452127 0.21426508 -0.06583888 -0.012628179 -0.02503438 0.14255835 -0.09153836 -0.050529275 -0.0907494 -0.04617414 0.08825348 0.16264708 0.045047116 0.0315129 0.13605697 0.10591714 0.11712393 -0.08077148 0.09337889 -0.2163505 0.21776329 -0.009885179 -0.1607518 0.071489185 -0.011196035 -0.14892119 0.024422012 -0.13254999 0.0005734806 0.08512799 0.14732516 0.23919776 0.19158931 -0.24947341 0.005917434 -0.034895185 0.04229232 0.0033949427 -0.012178184 -0.08616174 0.015427647 -0.072469 0.0581311 -0.106832474 -0.020403152 -0.042535078 -0.08039657 -0.045349553 -0.026584193 -0.0007175785 0.073769085 -0.056576964 0.031981066
17 -0.06204846 -0.21351388 0.052646194 -0.17889512 0.12726751 0.03351986 0.11887494 0.05050481 0.015129565 0.0125357155 -0.07276547 0.2508564 0.07644528 -0.018026536 -0.0011671135 -0.08694083 -0.17796214 -0.10837361 0.013017966 0.07659594 0.16302253 0.02265503 0.06382955 0.056122594 -0.020280251 0.09003059 -0.14375962 0.0049987608 -0.03433083 -0.043541323 0.0058553778 0.06893684 -0.1265419 -0.05640507 -0.013373124 -0.16833022 0.16979024 0.055890676 -0.020185584 -0.0033386103 -0.06237257 0.1606377 0.10046177 -0.075525 -0.060632143 0.199222 0.12368883 -0.0015506679 -0.04493008 -0.0013842458 -0.121138364 0.06057601 0.013269802 -0.061897248 -0.05802734 -0.091994405 0.0072768657 0.064260416 -0.08392263 -0.06802928 0.08203018 -0.10948823 -0.05126003 0.079754494 -0.099199146 0.14013156 -0.08387193 -0.07245351 0.09039735 -0.05000334 0.09878604 0.08995998 0.18147671 -0.14872289 0.20794028 -0.03431472 0.20103632 -0.066462286 -0.009300518 -0.025751429 0.13803357 -0.08695824 -0.046061806 -0.08641252 -0.045340944 0.084823504 0.15669565 0.038321424 0.036063887 0.13353091 0.101233125 0.1121501 -0.084970176 0.092976 -0.20781715 0.20815511 -0.006401401 -0.15557386 0.0708275 -0.0060885297 -0.14215389 0.022782017 -0.12727669 0.004606749 0.08242603 0.13917227 0.23392102 0.18296029 -0.24113445 0.010902211 -0.031689756 0.04394896 0.0040912856 -0.0066246283 -0.08514001 0.013695897 -0.0761212 0.05926931 -0.10169129 -0.025214657 -0.038368754 -0.07141251 -0.0392735 -0.020758558 -0.0011185745 0.068628445 -0.051225156 0.038541876
24 -0.054118317 -0.18942215 0.049505528 -0.16060905 0.12154421 0.033805836 0.10256272 0.045867577 0.013132025 0.009548575 -0.06400755 0.2327741 0.07202392 -0.021175047 -0.0005138848 -0.08611504 -0.16591279 -0.09905102 0.014446669 0.06658677 0.15216666 0.02641246 0.056105595 0.058448177 -0.021130662 0.086196974 -0.13313527 0.0022013537 -0.03323527 -0.03864286 -2.8324504e-05 0.064274654 -0.12857543 -0.053732812 -0.00924198 -0.16361429 0.16585876 0.04947212 -0.017807761 -0.0050174906 -0.060240496 0.16334605 0.09973024 -0.0743172 -0.061282452 0.19763356 0.11589223 2.9054805e-05 -0.04077143 -0.00771193 -0.10900517 0.061486777 0.0074585252 -0.04888631 -0.055610634 -0.08185673 0.012748419 0.05861411 -0.08586578 -0.06457268 0.078263864 -0.105182685 -0.050763775 0.080523424 -0.104193404 0.13713287 -0.081339024 -0.06961078 0.08617213 -0.051451027 0.10191213 0.09454108 0.17721577 -0.14901197 0.20808384 -0.03728514 0.20453952 -0.06968659 -0.010430946 -0.020824166 0.1428696 -0.08627599 -0.048444215 -0.08443751 -0.0458153 0.08215119 0.15476179 0.045155164 0.037085548 0.13628268 0.10205395 0.112595186 -0.08081028 0.08886731 -0.20694685 0.21483351 -0.007911402 -0.16323093 0.07186239 -0.01069925 -0.15668249 0.027953615 -0.12908779 0.006631663 0.08412937 0.15033849 0.24098371 0.1930241 -0.24921007 0.008211762 -0.028300319 0.040449068 0.002978468 -0.009350819 -0.093959466 0.013066854 -0.07929368 0.054657396 -0.103028975 -0.020193754 -0.040613033 -0.08389068 -0.042071138 -0.026371475 0.005551598 0.074556865 -0.05521248 0.040093217
47 -0.060090285 -0.20558009 0.045615725 -0.17556287 0.12933613 0.03481179 0.10833445 0.050868385 0.010925641 0.009935388 -0.07360281 0.24691747 0.07686352 -0.02224399 0.0040097632 -0.088751316 -0.17898262 -0.10889861 0.016350763 0.07788505 0.1652087 0.027623951 0.057920232 0.06069234 -0.019507146 0.08933618 -0.1397943 0.008695032 -0.038544558 -0.04820613 0.0017304111 0.06966001 -0.13044633 -0.058674023 -0.01245483 -0.17119597 0.17329536 0.05392697 -0.023874635 -0.0042678984 -0.059283808 0.16099101 0.10060763 -0.078729354 -0.060030185 0.19943056 0.12165547 -0.003950295 -0.0439745 -0.0026023583 -0.112022735 0.06492582 0.012704179 -0.059948415 -0.056425363 -0.08908568 0.009026731 0.061272454 -0.0862654 -0.0695533 0.07977631 -0.11093449 -0.05450962 0.08124494 -0.10451039 0.13666917 -0.08211009 -0.06807203 0.085786745 -0.051637497 0.10490681 0.088903174 0.18401319 -0.14842959 0.20481458 -0.042930886 0.20441973 -0.06505318 -0.009885618 -0.024839602 0.13907649 -0.09279009 -0.05005604 -0.09098989 -0.038464446 0.08524772 0.15611956 0.04296415 0.037964646 0.13037883 0.10113335 0.11315087 -0.08463264 0.090692796 -0.20757248 0.20993926 -0.014842744 -0.16273257 0.06829474 -0.008406071 -0.15133713 0.025777407 -0.12798238 0.0020464596 0.08317269 0.14872879 0.23388529 0.19346388 -0.25021428 0.008793306 -0.02962259 0.042833693 0.0013236193 -0.014120046 -0.089813955 0.014821264 -0.07893958 0.051400237 -0.10469658 -0.021745179 -0.041192114 -0.07849414 -0.04553923 -0.02410349 0.003037319 0.07416151 -0.055240456 0.03732365
42 -0.06055052 -0.20138851 0.04706561 -0.17939162 0.13281931 0.033431016 0.1109895 0.05402646 0.013888059 0.012927133 -0.07043582 0.24380201 0.07179607 -0.015716024 0.0019390453 -0.08974769 -0.17472668 -0.103794985 0.015715048 0.07253867 0.1618035 0.024471434 0.06269023 0.060905594 -0.018711284 0.08643976 -0.14318655 0.009696167 -0.037517317 -0.04075656 0.0049425033 0.06946812 -0.12787116 -0.05557316 -0.009925094 -0.16491787 0.16669767 0.048372533 -0.021041641 -0.006445081 -0.0644606 0.16582818 0.100507446 -0.077026606 -0.05747161 0.19973011 0.12239531 -0.001746229 -0.043210063 -0.0034659083 -0.11432023 0.05863167 0.013121499 -0.052943856 -0.06023768 -0.0901492 0.013956741 0.060377873 -0.08995627 -0.06892432 0.08164922 -0.10357691 -0.057111513 0.081230104 -0.09918534 0.14293984 -0.08545003 -0.0719612 0.08839004 -0.05316944 0.10539701 0.09419903 0.18980202 -0.15182595 0.21145204 -0.03992582 0.209386 -0.06471675 -0.013227011 -0.018968606 0.14074084 -0.08895113 -0.053194866 -0.086640835 -0.043146092 0.09048054 0.16273148 0.039543223 0.03222158 0.13988183 0.10614978 0.11621445 -0.08590933 0.08853666 -0.21824045 0.21397914 -0.009556798 -0.16400649 0.07291784 -0.01149275 -0.14758651 0.023875123 -0.13123865 -0.00016425445 0.08681937 0.13906594 0.23841076 0.1872825 -0.24063005 0.010110612 -0.029233176 0.04007536 0.0026046443 -0.008507919 -0.089968845 0.016189542 -0.07492382 0.05645395 -0.09954771 -0.0231947 -0.03947479 -0.0757216 -0.04495399 -0.023277536 0.0011656428 0.067454 -0.051192436 0.037278403
45 -0.05483727 -0.20054147 0.044054843 -0.17307949 0.12959707 0.037008185 0.11118845 0.053012975 0.016421793 0.010027446 -0.072846055 0.24159521 0.07609249 -0.018392317 0.0005307294 -0.09223393 -0.16762166 -0.10053544 0.012765878 0.07754321 0.1561226 0.025220076 0.059759952 0.057373445 -0.02347666 0.087832704 -0.14411572 0.0027251558 -0.035216197 -0.03957455 0.007331874 0.06637987 -0.13670906 -0.052959543 -0.011554978 -0.16770105 0.167135 0.056039296 -0.018909952 -0.007018315 -0.06623593 0.16440259 0.104032114 -0.08169583 -0.063858196 0.19788906 0.12393518 -0.00022082751 -0.040006213 -0.0004366497 -0.114820294 0.062357992 0.0073125325 -0.052234873 -0.05875301 -0.09018032 0.011609253 0.06104938 -0.08554408 -0.06251282 0.07587229 -0.1060829 -0.054068014 0.0828042 -0.10361931 0.13900162 -0.082240835 -0.07107407 0.08844674 -0.049937654 0.10335083 0.09812644 0.1769111 -0.15175763 0.2099807 -0.03436056 0.20799239 -0.06286606 -0.00717705 -0.020057568 0.13774963 -0.08994244 -0.051993426 -0.083853856 -0.04359542 0.08621376 0.15849458 0.042677492 0.03131453 0.13419838 0.10199928 0.11278381 -0.08371943 0.089847855 -0.20944989 0.21360245 -0.008257041 -0.164078 0.07748069 -0.006499268 -0.1603837 0.021648819 -0.13631739 0.0052493573 0.08845818 0.1468752 0.24482132 0.1943333 -0.24848442 0.011351246 -0.035125032 0.04754255 0.0008230313 -0.009008387 -0.092841476 0.011087193 -0.078274466 0.05251823 -0.10667624 -0.02078137 -0.041537847 -0.08367342 -0.04109125 -0.022988418 0.0030888782 0.07721316 -0.05028254 0.03343542
48 -0.058466453 -0.2058277 0.048017174 -0.17765452 0.1274665 0.036494035 0.11020953 0.04758645 0.011546837 0.0070093716 -0.07561778 0.24913186 0.07802615 -0.017738502 0.0027004634 -0.09472702 -0.17932029 -0.106226176 0.01480104 0.07937983 0.1639047 0.027716631 0.057805948 0.057250757 -0.02267692 0.091850296 -0.14551447 0.0038808666 -0.040176537 -0.04792336 0.005280324 0.06609277 -0.13236344 -0.056440048 -0.01648842 -0.17227468 0.17428288 0.051882844 -0.022680307 -0.004010106 -0.064785734 0.16141269 0.10293895 -0.07940479 -0.058718666 0.20132609 0.122119695 -0.0043042633 -0.046209604 -0.0063447226 -0.114081495 0.06597959 0.009769692 -0.054791745 -0.059832584 -0.08875964 0.0060102004 0.0643604 -0.0865074 -0.068905324 0.08088318 -0.10429555 -0.0529514 0.08468792 -0.10083488 0.13534123 -0.08255238 -0.068657115 0.089927174 -0.054178122 0.09719095 0.08871403 0.17503402 -0.14347911 0.2038845 -0.0363196 0.19972245 -0.06577181 -0.007087271 -0.0203687 0.14096558 -0.085970305 -0.04572165 -0.086918265 -0.039375 0.08180057 0.15548748 0.04617463 0.034348365 0.13430665 0.09788049 0.112202674 -0.08340644 0.08961004 -0.20086941 0.20160712 -0.007356325 -0.16121385 0.07154702 -0.0051747225 -0.1477905 0.021312065 -0.12632732 -0.00016006849 0.082045935 0.1459821 0.2321387 0.18962638 -0.24639551 0.003888442 -0.03557355 0.04034916 0.0010657457 -0.010467998 -0.09190652 0.014020117 -0.07571366 0.056326397 -0.10118702 -0.026557958 -0.03970037 -0.08049452 -0.04178845 -0.022258796 0.0016473606 0.07407498 -0.052695055 0.032276753
4 -0.056018505 -0.18883061 0.046395585 -0.16123432 0.12321854 0.031676564 0.10103819 0.04904609 0.011632223 0.0047984696 -0.065518506 0.23475255 0.072774366 -0.019707346 0.00018155793 -0.08662913 -0.16713972 -0.10193892 0.014416852 0.071748644 0.15720655 0.026931494 0.05499233 0.05478245 -0.02145415 0.08588921 -0.13919078 0.0076078605 -0.03228244 -0.04469621 0.0016775208 0.06312113 -0.12835255 -0.053442568 -0.013109354 -0.16592787 0.16678305 0.054927044 -0.018494569 -0.0026337497 -0.06331266 0.16315883 0.10761266 -0.076473296 -0.06204859 0.20208426 0.12540185 -0.0071581355 -0.04702455 -0.00536031 -0.11521218 0.061702207 0.009491626 -0.05554956 -0.062424906 -0.09113633 0.010699597 0.062357485 -0.087495565 -0.06886976 0.085229345 -0.11142169 -0.051862713 0.08507174 -0.104145296 0.14732389 -0.087974384 -0.07200296 0.091790244 -0.058585264 0.10826657 0.098251805 0.18788636 -0.15892537 0.21680662 -0.041648332 0.21852003 -0.0681552 -0.01240738 -0.021868095 0.14501476 -0.09420018 -0.05216307 -0.090025105 -0.0425572 0.08826315 0.16523084 0.042876773 0.037872236 0.14067695 0.10340174 0.11598189 -0.08767825 0.09250731 -0.21670355 0.21944952 -0.013250518 -0.16410586 0.073618546 -0.009494824 -0.15364946 0.024859495 -0.12752087 0.0057424386 0.08243144 0.1476326 0.23384699 0.18944906 -0.24610254 0.004688223 -0.029553154 0.040081408 0.0018344298 -0.008875203 -0.087601565 0.017493116 -0.075101025 0.05661136 -0.10364611 -0.022771405 -0.039854825 -0.078116514 -0.04515937 -0.027350217 -0.00092240254 0.07257612 -0.05092362 0.03771959
14 -0.06266426 -0.20781536 0.052951887 -0.1787005 0.12931347 0.03791525 0.110360846 0.04805391 0.010300698 0.010237724 -0.07588825 0.24992365 0.07495845 -0.019236062 -0.00032300098 -0.08918188 -0.17338629 -0.10559563 0.015938247 0.073379986 0.16342358 0.03109841 0.06047667 0.062734656 -0.024908636 0.09186423 -0.14297365 0.008471636 -0.04005806 -0.04099728 0.007054193 0.06884003 -0.13109653 -0.051003415 -0.009335276 -0.17203993 0.16736923 0.055711787 -0.019420514 -0.0027533758 -0.06913052 0.16579705 0.10790724 -0.07740095 -0.06271515 0.20404655 0.12544602 -0.0010561098 -0.046365336 -0.0009394542 -0.12160367 0.0629582 0.008349862 -0.056106128 -0.06046624 -0.09254929 0.005426989 0.066102006 -0.08973838 -0.06861197 0.081291564 -0.11391003 -0.052285742 0.08281458 -0.10771401 0.14688885 -0.08358941 -0.07553495 0.092351265 -0.056405626 0.10133717 0.09932325 0.18361671 -0.15250544 0.21629001 -0.03650954 0.21454425 -0.067478076 -0.012427128 -0.027919436 0.14260176 -0.08937422 -0.047962904 -0.08717986 -0.047389723 0.091591015 0.1606813 0.04222976 0.03660078 0.13951549 0.104859576 0.11486393 -0.08576614 0.0939778 -0.21735306 0.22190738 -0.011283154 -0.15614699 0.07379361 -0.007177917 -0.15265651 0.020905294 -0.12871426 0.0057305754 0.08042614 0.14557125 0.23855643 0.19006898 -0.24792215 0.0065653245 -0.03438128 0.040216245 0.000581294 -0.007079912 -0.08478449 0.012606132 -0.07755861 0.05598074 -0.10417923 -0.019744117 -0.040126838 -0.07780213 -0.040805195 -0.025479287 0.0028082465 0.07065772 -0.055020772 0.03696704
68 -0.056840997 -0.18621469 0.046584345 -0.16253914 0.12378756 0.035315447 0.10732414 0.046117563 0.010418412 0.0048209894 -0.07056172 0.23388208 0.074206024 -0.022955017 0.0013443965 -0.08496654 -0.16817497 -0.09641094 0.014234204 0.07306383 0.15015753 0.026245212 0.05588965 0.058983468 -0.022934198 0.08715812 -0.13739236 0.0073988284 -0.030072292 -0.041613493 0.0053788507 0.0638414 -0.12705542 -0.05061712 -0.008260587 -0.1629345 0.15891503 0.05210209 -0.016705053 -0.0041316547 -0.05539316 0.16314182 0.09709379 -0.08155982 -0.059444766 0.19300912 0.12405413 0.0009243817 -0.044607904 -0.0027530587 -0.11599767 0.058526613 0.008115368 -0.054621957 -0.060702514 -0.085061826 0.010196536 0.05635295 -0.084832355 -0.063102834 0.079130925 -0.10788282 -0.049287125 0.08447204 -0.100351185 0.14306901 -0.084547006 -0.071976714 0.09084043 -0.05066803 0.100051835 0.09208382 0.18295632 -0.15574567 0.20659968 -0.037483137 0.21203253 -0.0679348 -0.010716377 -0.022814145 0.14009055 -0.0865897 -0.052942824 -0.08576292 -0.03807078 0.08616918 0.15848182 0.041296408 0.036922 0.13979755 0.105837375 0.11493337 -0.08455332 0.09396834 -0.21450174 0.21260792 -0.010251856 -0.16362077 0.06939149 -0.007792452 -0.15375319 0.021777881 -0.1325493 0.004669575 0.086727686 0.14718033 0.24119478 0.18772668 -0.2506232 0.011784706 -0.03079793 0.04563152 -0.0014697969 -0.007884023 -0.09039918 0.014212517 -0.07471585 0.056163315 -0.10605574 -0.019111386 -0.044729605 -0.07559661 -0.039372724 -0.021327538 0.0051274365 0.07481416 -0.057659034 0.035972193
33 -0.06045935 -0.20611972 0.048865225 -0.17094225 0.13113388 0.030782104 0.1117531 0.05358548 0.01417108 0.009164817 -0.070762634 0.24704292 0.074436955 -0.022061389 0.00547503 -0.0878835 -0.17881447 -0.1039856 0.008415291 0.07156485 0.16781211 0.02776649 0.06301487 0.055380043 -0.02549999 0.0868862 -0.14289509 0.0073563945 -0.033519574 -0.043445043 0.0034411978 0.070068166 -0.13026169 -0.05216925 -0.013891885 -0.17062603 0.16995068 0.054911193 -0.024498066 -0.0013872646 -0.06270702 0.16267934 0.101649165 -0.08061209 -0.06207598 0.20128202 0.12177636 -0.0050931834 -0.04795284 -0.0018269366 -0.11466525 0.06627798 0.013845307 -0.05885987 -0.06097233 -0.088199794 0.0058855875 0.062386118 -0.081380635 -0.064070106 0.083406284 -0.11144095 -0.05677061 0.082031816 -0.10167813 0.13817815 -0.081205316 -0.07563257 0.094738275 -0.051460225 0.1106798 0.09440271 0.18539429 -0.15081733 0.21174988 -0.03627613 0.21117498 -0.06934141 -0.008244881 -0.025100775 0.14565066 -0.091297336 -0.05102017 -0.09431319 -0.043054856 0.091916725 0.15937898 0.043041833 0.03498744 0.13904007 0.10596429 0.118406676 -0.086709864 0.09208642 -0.20934248 0.22097996 -0.01161052 -0.16320294 0.07545735 -0.010717449 -0.15240237 0.022460468 -0.13023023 0.006934162 0.08565228 0.13893428 0.23343658 0.1837704 -0.2358622 0.004410474 -0.03150093 0.04123262 0.001988397 -0.011861957 -0.083474316 0.014873883 -0.077413596 0.05166448 -0.10250888 -0.027029302 -0.038481742 -0.076953925 -0.039416026 -0.022435201 0.005700861 0.06861813 -0.055671796 0.03325423
55 -0.055848204 -0.19349949 0.046956573 -0.16502732 0.12139993 0.0310311 0.10834995 0.045851648 0.0147153465 0.009650692 -0.06815112 0.24458231 0.070682935 -0.01847795 -0.0017234245 -0.08941753 -0.17580363 -0.10020425 0.0129202595 0.07336683 0.16358195 0.02704643 0.05986446 0.057157665 -0.020320013 0.089651726 -0.14467879 0.0034386138 -0.03697105 -0.04218611 0.00433139 0.06527635 -0.12801649 -0.055534646 -0.008215187 -0.16708733 0.1634211 0.05268427 -0.023290364 -0.009192014 -0.06052212 0.16791089 0.10773454 -0.081186496 -0.059272066 0.20297578 0.12537989 -0.0033545014 -0.042456582 -0.006818995 -0.121608205 0.063494965 0.014031227 -0.057487693 -0.062138304 -0.090454176 0.01302339 0.062002152 -0.087415434 -0.07032457 0.083947465 -0.11106497 -0.052397486 0.083508514 -0.10297119 0.14535807 -0.08357475 -0.07565554 0.09331806 -0.055051956 0.10607817 0.0987233 0.19299294 -0.15247995 0.21932605 -0.04081305 0.21683362 -0.07121404 -0.0118304435 -0.01859597 0.14580315 -0.09614614 -0.05000946 -0.0959011 -0.04571632 0.09082187 0.16238357 0.041277528 0.030784098 0.14185578 0.10918971 0.119665824 -0.083980955 0.08999929 -0.21961941 0.21785372 -0.0132529875 -0.16077644 0.07249425 -0.008696046 -0.14984071 0.025580445 -0.13150302 0.001310607 0.0875061 0.15031996 0.24157906 0.19469683 -0.24524531 0.008993128 -0.03582766 0.045815956 0.0046571544 -0.011103394 -0.08632599 0.012062197 -0.075648196 0.05428464 -0.101858705 -0.0272409 -0.0388784 -0.07596708 -0.048137594 -0.02809936 0.003510996 0.075695924 -0.05723779 0.038367953
27 -0.057307195 -0.2024414 0.04279512 -0.17479493 0.12834027 0.037740234 0.10984342 0.053331643 0.008646496 0.006903138 -0.06993547 0.233386 0.0702222 -0.017093578 -0.0012982137 -0.0888987 -0.16418773 -0.10120262 0.013172058 0.06702104 0.15664735 0.028864397 0.059158325 0.06038128 -0.022650804 0.08140921 -0.14085408 0.008817311 -0.03719882 -0.040067397 0.003704781 0.06407349 -0.13054715 -0.055801157 -0.008030463 -0.16701876 0.16235252 0.05133332 -0.021629438 -0.006583266 -0.06551211 0.15927666 0.10039071 -0.07650517 -0.061019126 0.1998713 0.12382128 -0.00412004 -0.04245759 -0.0027332637 -0.11281765 0.06448469 0.006628427 -0.05069147 -0.057646997 -0.09220789 0.008609584 0.06160629 -0.08172501 -0.06362811 0.07458116 -0.10127693 -0.056861073 0.08085647 -0.099229336 0.1371624 -0.08289693 -0.067949146 0.08634884 -0.054302953 0.100646175 0.095318064 0.18070154 -0.15160178 0.20105675 -0.04108216 0.20623025 -0.06856561 -0.011130871 -0.021392792 0.13785388 -0.088143274 -0.048565764 -0.08318358 -0.04507535 0.08451907 0.15903561 0.042399008 0.029071016 0.13305667 0.097294 0.107113674 -0.079507284 0.08984668 -0.20955089 0.20655644 -0.008589014 -0.15987019 0.072651185 -0.009565162 -0.15109055 0.02335899 -0.12248191 -0.0018252368 0.08273115 0.14052412 0.22924213 0.17774917 -0.23484458 0.00822697 -0.029528879 0.039827563 0.00078850664 -0.010555363 -0.08236723 0.011069579 -0.073909484 0.052135695 -0.099656045 -0.02271679 -0.04154601 -0.073310606 -0.039019104 -0.026039861 6.920137e-05 0.071138315 -0.049090337 0.03281148
41 -0.059547562 -0.20424367 0.046471275 -0.17400306 0.13134857 0.035830386 0.111610785 0.0510225 0.014864514 0.005808492 -0.068709195 0.24659242 0.07155964 -0.018668612 0.0017646748 -0.08875729 -0.17635667 -0.102458 0.013524857 0.07672946 0.15880547 0.022565171 0.05728129 0.055584725 -0.020753477 0.09196926 -0.14588271 0.0065923543 -0.035454642 -0.04419644 0.003076582 0.0698031 -0.13291106 -0.052430335 -0.011709237 -0.16471261 0.16984245 0.051073663 -0.025030002 -0.0037922917 -0.057214502 0.15535426 0.09761409 -0.079231985 -0.059787992 0.19480474 0.12120451 0.00066215696 -0.040923655 -0.0075251656 -0.1116758 0.058290202 0.00834254 -0.05833255 -0.051659144 -0.08788423 0.01212256 0.06342144 -0.08350806 -0.06945098 0.07819628 -0.100566305 -0.05172241 0.082492284 -0.10004178 0.14089501 -0.085131146 -0.07050824 0.089474924 -0.050425496 0.103826895 0.089945585 0.1840384 -0.14880118 0.20304145 -0.04048495 0.20763789 -0.06528429 -0.009140907 -0.01820696 0.14135338 -0.08878771 -0.048316993 -0.08756158 -0.03623525 0.081142806 0.15591045 0.044137403 0.032926746 0.13280831 0.0989158 0.11190694 -0.080645144 0.08736296 -0.21120219 0.20839308 -0.01018038 -0.15243456 0.069320425 -0.0039128787 -0.14774401 0.021623934 -0.123382226 -0.0010760301 0.08705749 0.1469454 0.23267783 0.18611455 -0.2445069 0.008723825 -0.03275219 0.041907817 -0.0022718708 -0.013749648 -0.09010589 0.011761323 -0.07944954 0.054378692 -0.10131378 -0.024044624 -0.042460695 -0.08131174 -0.043272763 -0.019865895 0.0010041513 0.069815315 -0.051113196 0.029631801
2 -0.054964453 -0.20155782 0.04532532 -0.17391281 0.12395057 0.03694768 0.11058042 0.050756443 0.009603382 0.007914424 -0.0705733 0.24360342 0.07454587 -0.02188983 -0.0006555769 -0.09281026 -0.1746694 -0.10005851 0.013469602 0.07359138 0.15898198 0.027857475 0.06070776 0.05585213 -0.026167769 0.08978852 -0.14344174 0.0043355133 -0.033200458 -0.042261347 0.006903355 0.06526016 -0.13474339 -0.05098682 -0.014731978 -0.1687587 0.17204228 0.05272825 -0.019606689 -0.005350079 -0.06413464 0.17056333 0.10519909 -0.08177459 -0.06693041 0.20424576 0.12256303 -0.0032971208 -0.041004676 -0.008578735 -0.12120426 0.061052084 0.01423142 -0.05390192 -0.063361965 -0.09054678 0.011779753 0.064038165 -0.09047258 -0.062291734 0.078243434 -0.10606255 -0.055384 0.08262728 -0.10591791 0.1464958 -0.08467945 -0.07502206 0.08719568 -0.05582006 0.1033663 0.096906185 0.19026276 -0.15416956 0.21297464 -0.03629548 0.21172868 -0.069746315 -0.00841916 -0.023498854 0.141366 -0.09502374 -0.054400098 -0.09001889 -0.0409587 0.090617426 0.16021597 0.043372817 0.03804409 0.13601263 0.10831947 0.11857676 -0.08442987 0.08865502 -0.21853393 0.21621959 -0.011311896 -0.1689316 0.07032964 -0.0054310057 -0.15479931 0.021526657 -0.13497168 0.0010053023 0.08857187 0.14895971 0.25106695 0.2012867 -0.2589242 0.007402681 -0.03749925 0.04760023 0.0042770384 -0.01191182 -0.095299944 0.013732988 -0.078404464 0.059030358 -0.11041775 -0.025295481 -0.044052903 -0.08359029 -0.042658 -0.028119965 0.004319977 0.07946928 -0.052050468 0.037087597
21 -0.057821754 -0.18878038 0.045720078 -0.1669721 0.11458012 0.0350427 0.10262154 0.04370332 0.012109947 0.011023272 -0.06902698 0.2366698 0.07221179 -0.019819861 -0.0007576696 -0.087987915 -0.1670956 -0.10075673 0.014684758 0.07224823 0.15925686 0.025105564 0.056591496 0.058060773 -0.023031048 0.08405658 -0.13955384 0.0062011974 -0.035210576 -0.04517469 0.00613713 0.06559895 -0.13085145 -0.052667543 -0.014424265 -0.16924669 0.16636825 0.05835089 -0.015048103 -0.002302021 -0.06785615 0.16731201 0.100767456 -0.081586495 -0.06594376 0.20523806 0.12447227 -0.0033584586 -0.040745422 -0.0050976127 -0.11459766 0.06574909 0.012181558 -0.057305407 -0.060761042 -0.08851394 0.009457246 0.058232907 -0.09102611 -0.060778502 0.07697072 -0.106983095 -0.05280239 0.085797 -0.09965989 0.1379534 -0.08301376 -0.07583191 0.08757468 -0.059024278 0.10532034 0.09066351 0.18206023 -0.14819404 0.21028969 -0.03788416 0.20356344 -0.069594145 -0.008601346 -0.021376207 0.13848528 -0.08728846 -0.05086195 -0.08955062 -0.04733797 0.082282454 0.1548583 0.04251018 0.03581837 0.13347763 0.10459676 0.1135705 -0.08468386 0.09478093 -0.20917529 0.21134748 -0.0110215265 -0.15798695 0.07312479 -0.009119393 -0.15102185 0.022492478 -0.12981738 0.0061599594 0.08872652 0.14714961 0.2383882 0.18519652 -0.24514599 0.003948521 -0.03032711 0.045241993 0.0014281532 -0.008369176 -0.08865386 0.01747371 -0.080246314 0.053860348 -0.103127554 -0.019265302 -0.042708643 -0.08002879 -0.04140885 -0.026696762 0.0039407797 0.07116772 -0.049169797 0.031430896
15 -0.056623586 -0.19209522 0.048163652 -0.16478086 0.11804842 0.0367941 0.10452101 0.041536614 0.012482265 0.0075668176 -0.06634177 0.23208728 0.07051327 -0.016689265 0.0017997591 -0.08718977 -0.1671879 -0.09908509 0.010635589 0.06715615 0.15584706 0.028058864 0.05847496 0.057829928 -0.025608527 0.08515184 -0.13846363 0.004683826 -0.035563137 -0.042650186 0.0022806053 0.06650023 -0.122462 -0.05330133 -0.010410256 -0.16248868 0.15939082 0.052960098 -0.014917824 -0.0015041577 -0.06793104 0.1678856 0.104557104 -0.07886888 -0.059277095 0.2070255 0.11822631 -0.0051012584 -0.045764036 -0.007092905 -0.121160105 0.06411675 0.01087697 -0.05191076 -0.064247325 -0.09351708 0.0057673007 0.057832286 -0.0853326 -0.062033582 0.08388958 -0.1063794 -0.054417055 0.07756841 -0.10167178 0.14341299 -0.080506735 -0.074924424 0.09457296 -0.051528558 0.103385106 0.09287437 0.18467368 -0.15454757 0.20922425 -0.03831067 0.21297017 -0.065769434 -0.013310733 -0.027758451 0.14140657 -0.08653977 -0.050437346 -0.09114441 -0.049174197 0.08524596 0.1589086 0.03835459 0.032626774 0.1419974 0.108780324 0.11628335 -0.08040757 0.089567676 -0.21735613 0.21943071 -0.008456503 -0.15929618 0.07469101 -0.0062323343 -0.14887439 0.023092724 -0.13369045 0.0039486284 0.08620587 0.14209715 0.24136712 0.19152357 -0.24708088 0.003601951 -0.033942167 0.04103549 0.0016732774 -0.012198496 -0.09208753 0.016661322 -0.074968025 0.059413668 -0.107363395 -0.019592684 -0.037915867 -0.081211105 -0.037431095 -0.020942183 -0.002355324 0.071552314 -0.05102749 0.038372554
74 -0.06177846 -0.19775404 0.042653453 -0.17467684 0.12576479 0.040351305 0.10657222 0.049698737 0.011688049 0.006319634 -0.06921543 0.24108271 0.066971935 -0.015580732 0.00017325809 -0.09309828 -0.16597398 -0.101618126 0.015122517 0.06743207 0.15308201 0.025537057 0.056278404 0.059731893 -0.026342124 0.08877317 -0.1372496 0.0067509445 -0.031392228 -0.041888617 0.0073429863 0.06858426 -0.13178234 -0.0533812 -0.007942493 -0.16886015 0.16607365 0.05105206 -0.019003807 -0.0025156583 -0.064952396 0.16378264 0.09698996 -0.077460386 -0.06065839 0.19828133 0.1220769 -0.0037811222 -0.04065501 -0.007374977 -0.11370629 0.061876897 0.0101048285 -0.05236685 -0.057704527 -0.08257447 0.010862577 0.060634114 -0.08840872 -0.06288664 0.07531543 -0.10967427 -0.0527286 0.08223535 -0.10632299 0.1378703 -0.0801557 -0.07420349 0.08480194 -0.05591352 0.10516456 0.09584682 0.18238823 -0.15182756 0.20997196 -0.03915947 0.20734322 -0.068127766 -0.0075013936 -0.02490908 0.13771962 -0.093440324 -0.049842883 -0.085780986 -0.04070502 0.08321855 0.15526533 0.04726596 0.03146143 0.13623905 0.10272539 0.110853784 -0.08074278 0.08866095 -0.21157447 0.21205826 -0.0065361974 -0.15950578 0.07306836 -0.012561615 -0.15301497 0.024327122 -0.13136692 -0.00016254622 0.09072595 0.14787382 0.23665237 0.1929015 -0.2488481 0.0055862945 -0.03531878 0.040438596 0.0039551267 -0.0136530185 -0.08980662 0.011447819 -0.07987475 0.051476948 -0.10103686 -0.025533501 -0.04385092 -0.080722556 -0.043219328 -0.021275768 0.0018486799 0.07148826 -0.05719813 0.033637315
54 -0.06268601 -0.19818756 0.051692106 -0.1638059 0.120507985 0.030973058 0.106931336 0.043362696 0.012397001 0.0051340964 -0.072669014 0.2353472 0.07686351 -0.019193556 -0.0009805418 -0.08450616 -0.17447093 -0.10398601 0.016409118 0.06913794 0.15687409 0.02924324 0.059992798 0.06247544 -0.022683792 0.08324163 -0.14098991 0.006192826 -0.03662735 -0.047147453 0.0031259304 0.06827807 -0.12769295 -0.054947574 -0.006886394 -0.16475937 0.16019692 0.054614272 -0.014022426 -0.004432097 -0.061746933 0.16101614 0.10346567 -0.0765208 -0.05994883 0.19451115 0.114003435 -0.0043238285 -0.042700402 -0.0026256938 -0.12011499 0.06184957 0.013823239 -0.05470844 -0.057770733 -0.08957584 0.008459805 0.061314963 -0.081254475 -0.06401658 0.077035934 -0.10709259 -0.05450308 0.07734412 -0.10211338 0.1360088 -0.082957186 -0.07506054 0.09256157 -0.047783934 0.106289715 0.09271838 0.18062493 -0.14654586 0.20878536 -0.03441217 0.20488676 -0.06596164 -0.009602903 -0.024308745 0.13777915 -0.08751979 -0.05055695 -0.09350146 -0.042096324 0.08301707 0.15504734 0.04004842 0.03286794 0.13967818 0.106923066 0.11286514 -0.08733486 0.089660875 -0.20755163 0.21823901 -0.013988616 -0.1648979 0.073984146 -0.011561769 -0.15097333 0.02032581 -0.12547767 0.0012411077 0.08127212 0.1415017 0.2357109 0.18645751 -0.24405447 0.010020298 -0.03338503 0.038308244 0.0018141664 -0.005883851 -0.091035 0.010958384 -0.07303095 0.052602842 -0.09765963 -0.022418382 -0.040181547 -0.071537085 -0.040807813 -0.023959836 0.0036670824 0.069431804 -0.047858063 0.037327584
82 -0.05159585 -0.19247045 0.046280533 -0.16519949 0.11520875 0.036163628 0.10454629 0.043904655 0.009944449 0.011191281 -0.07186938 0.23738152 0.073819056 -0.020191194 -0.0014495554 -0.085081756 -0.16979297 -0.09656949 0.0114153065 0.07275662 0.1570599 0.024891112 0.061087042 0.056939304 -0.025459604 0.08357294 -0.13495304 0.0025905035 -0.036539793 -0.04332357 0.0050676833 0.062051233 -0.12910764 -0.0554264 -0.011423242 -0.16402102 0.16298902 0.05760781 -0.014275041 -0.0040724524 -0.06134288 0.16279334 0.10297694 -0.07792127 -0.06088764 0.1977597 0.12297595 -0.0015382078 -0.04629098 -0.005657344 -0.11362167 0.06522559 0.0062824646 -0.055282965 -0.05641371 -0.08994687 0.011749251 0.061257675 -0.085913636 -0.060263608 0.07965982 -0.108142264 -0.049617995 0.082310736 -0.100848496 0.14078988 -0.08149648 -0.069215365 0.08837087 -0.056864988 0.097274184 0.09000396 0.18115403 -0.15047519 0.20400628 -0.036392294 0.20426188 -0.06362703 -0.009083592 -0.02442234 0.13791506 -0.08623787 -0.047605127 -0.086351655 -0.04662245 0.08250352 0.15376846 0.04213774 0.033796746 0.13397962 0.10531309 0.10946451 -0.0807854 0.09271181 -0.20699924 0.21274297 -0.007345088 -0.16139269 0.071786635 -0.007953742 -0.14844081 0.02413569 -0.12468389 0.003034354 0.079996735 0.14436524 0.23357977 0.18660305 -0.24307281 0.0057202238 -0.028468266 0.042545214 0.005595923 -0.0060735224 -0.08387104 0.010594104 -0.07696402 0.05107176 -0.10164057 -0.020404307 -0.04052184 -0.076339334 -0.039394308 -0.02238339 0.0025333203 0.066022016 -0.052055597 0.036637682
75 -0.05618096 -0.20388095 0.046912026 -0.17866372 0.13044083 0.038916633 0.11092772 0.046306796 0.010405708 0.0074752606 -0.0667089 0.24031675 0.07178086 -0.017870963 0.00022306557 -0.09331258 -0.17342487 -0.106466375 0.016889976 0.076775745 0.16308925 0.025830256 0.055284586 0.05643564 -0.02604064 0.08654077 -0.14347932 0.009694181 -0.036032476 -0.04591462 0.0030501746 0.07026149 -0.13241561 -0.052069232 -0.010243506 -0.1699148 0.17115147 0.055487026 -0.020232398 -0.0035618092 -0.059835263 0.1623514 0.1041813 -0.08333002 -0.06091611 0.20385648 0.12796856 -0.0023947796 -0.04075101 -0.0018225777 -0.11874102 0.064404376 0.0101255635 -0.058875702 -0.057141174 -0.087063454 0.009254357 0.064926736 -0.085093796 -0.06633101 0.078210995 -0.10863121 -0.051583275 0.07977855 -0.108382255 0.14458638 -0.08192945 -0.07810757 0.09050934 -0.057248745 0.109034665 0.09454928 0.18333574 -0.15536289 0.2156671 -0.039162133 0.21073896 -0.0660364 -0.0074169743 -0.02658307 0.14590546 -0.08855921 -0.051411115 -0.08976053 -0.042613257 0.08948865 0.1666034 0.04629409 0.03616697 0.13489093 0.09929219 0.11900078 -0.08645335 0.08996905 -0.21814005 0.21466073 -0.011488765 -0.16401546 0.075642936 -0.008922813 -0.15810965 0.02494797 -0.13561 0.0042332066 0.08306445 0.1481435 0.2414905 0.188952 -0.2513119 0.0023724288 -0.03439722 0.046854965 0.002520004 -0.0106060235 -0.08960031 0.011589218 -0.07728673 0.055177987 -0.10786624 -0.020836035 -0.044313543 -0.082761936 -0.039879557 -0.0236792 0.0051973793 0.07748124 -0.056697343 0.033932306
23 -0.058326006 -0.20154849 0.04271836 -0.17478807 0.12767479 0.03780166 0.10763728 0.053656925 0.013240585 0.008396537 -0.07346541 0.24580185 0.07828213 -0.02208142 -0.0019727724 -0.088977516 -0.17697881 -0.09962107 0.017429607 0.07936499 0.15893114 0.026516946 0.058739245 0.06134342 -0.022714244 0.089997016 -0.14708975 0.0030165669 -0.040599767 -0.040560458 0.0048775133 0.069697194 -0.13532174 -0.05416439 -0.013470144 -0.17209277 0.17355317 0.051338945 -0.023298861 -0.0020164803 -0.06277211 0.1582528 0.102011174 -0.0755349 -0.058815874 0.1934475 0.115969256 0.00060234766 -0.04442162 -0.0045036115 -0.11499858 0.05962614 0.014229802 -0.058172554 -0.058377672 -0.09112625 0.006404784 0.061062675 -0.08395726 -0.068029985 0.07752868 -0.105715334 -0.050726462 0.08075367 -0.09789243 0.13694325 -0.07934284 -0.06850869 0.09068984 -0.04823471 0.103015296 0.092907086 0.18218273 -0.14825104 0.2008688 -0.035561576 0.20687376 -0.063127175 -0.0056582512 -0.020002106 0.14300278 -0.08932231 -0.045804784 -0.08698335 -0.04235321 0.089537226 0.15411611 0.043707468 0.03129638 0.13190308 0.10207565 0.11263924 -0.08680374 0.0890382 -0.21144906 0.20547523 -0.009380923 -0.16239029 0.0697943 -0.005588979 -0.1512809 0.020697605 -0.1255904 -0.0004687523 0.080844276 0.13899735 0.2293985 0.18417804 -0.23930992 0.008621185 -0.03670274 0.04160381 -0.000629647 -0.011935946 -0.08986797 0.011745377 -0.07683586 0.053427212 -0.101951376 -0.022009967 -0.038012117 -0.0749665 -0.042616416 -0.02534769 0.0060705696 0.070283815 -0.052169543 0.033390082
9 -0.0650036 -0.21567412 0.046959426 -0.18627387 0.13629267 0.036931243 0.11772409 0.057090253 0.015780333 0.009204309 -0.07379518 0.25776 0.07732962 -0.024535289 -0.0017004843 -0.09555295 -0.18254599 -0.105724834 0.011595084 0.07642673 0.16388781 0.030889014 0.06723442 0.055243243 -0.023158893 0.09427767 -0.15039562 0.002554064 -0.037713163 -0.043214936 0.0049512465 0.07341427 -0.13759078 -0.05953405 -0.008456702 -0.17726038 0.1767154 0.05562788 -0.025958607 -0.0027716013 -0.06691637 0.1598006 0.10433711 -0.0758396 -0.06773495 0.19943514 0.123435274 -0.003941625 -0.044182874 -0.0082327 -0.11878306 0.063236 0.008096625 -0.05430144 -0.05472283 -0.09105053 0.008404841 0.061114553 -0.08846974 -0.06832215 0.079382785 -0.10813072 -0.05587151 0.08511842 -0.097127646 0.13381116 -0.078309 -0.068542704 0.087089516 -0.04962434 0.10093412 0.09546063 0.1823545 -0.14722735 0.20506842 -0.04043771 0.19758989 -0.062045854 -0.011435097 -0.017986817 0.14052592 -0.08825447 -0.051904846 -0.09072773 -0.041682195 0.08264034 0.1543444 0.042074382 0.03120577 0.13465036 0.10094284 0.10754986 -0.07796716 0.090542704 -0.20329292 0.20101695 -0.00556436 -0.1582395 0.071113594 -0.0075839357 -0.15154484 0.021197932 -0.13028476 0.0051343394 0.08889202 0.14601247 0.23608796 0.19136025 -0.24733244 0.0042881076 -0.030114224 0.04287652 0.0058780336 -0.010869182 -0.087965734 0.011302745 -0.08187718 0.05836449 -0.10358383 -0.020764451 -0.04143289 -0.08040601 -0.04424564 -0.023062183 0.0012394583 0.07658166 -0.053794302 0.037655577
62 -0.053585775 -0.1940666 0.040892355 -0.1705286 0.12143078 0.032781057 0.10030912 0.051348317 0.012637064 0.004150782 -0.06847743 0.24380003 0.07576753 -0.019927176 -0.0033538835 -0.087282784 -0.17442515 -0.09956223 0.01664761 0.07506101 0.1588873 0.027896995 0.057464246 0.06020575 -0.022462878 0.09045385 -0.14182402 0.0039042176 -0.04009124 -0.043389726 0.0028523952 0.064934686 -0.13286051 -0.054802585 -0.011195781 -0.16660206 0.16700241 0.051819984 -0.0200564 0.00097004155 -0.06591456 0.16065553 0.09840757 -0.07820949 -0.06357814 0.19976898 0.12113397 0.0011922867 -0.04385655 -0.008918438 -0.12100666 0.06354168 0.010532031 -0.054441974 -0.05464693 -0.09398955 0.0064127273 0.06577209 -0.086671956 -0.06749537 0.08276211 -0.10799138 -0.05522778 0.08441135 -0.108755775 0.14678438 -0.081912234 -0.07360681 0.093768515 -0.054499067 0.10083522 0.0949192 0.19042772 -0.15022108 0.20823345 -0.03707548 0.21096255 -0.07142984 -0.010861714 -0.023061812 0.14802483 -0.09064484 -0.04918854 -0.090549104 -0.04507662 0.08838292 0.16265601 0.04826617 0.03811969 0.1358462 0.10692504 0.11038673 -0.08864502 0.093958795 -0.21607374 0.21528986 -0.0074767717 -0.16586673 0.07392306 -0.005765135 -0.15531655 0.025999071 -0.13132893 0.003764889 0.08470837 0.14853984 0.23889595 0.18730235 -0.24487104 0.008984962 -0.037771177 0.041929152 0.0028832625 -0.008553186 -0.08469158 0.011960437 -0.08041912 0.05271644 -0.09918039 -0.026107017 -0.038907547 -0.07657435 -0.0439984 -0.028247459 0.00082855835 0.07257463 -0.053761594 0.0312511
0 -0.06072856 -0.20394039 0.04828723 -0.17679441 0.12437249 0.037648104 0.10768581 0.048880115 0.010729013 0.00974279 -0.06833262 0.24887131 0.077669755 -0.021431444 0.001649839 -0.0938209 -0.17599884 -0.10592939 0.013050583 0.07438023 0.16083793 0.025574964 0.061355937 0.06208843 -0.024825469 0.09174645 -0.14563183 0.0034704094 -0.040238146 -0.04731135 0.0062117125 0.072911374 -0.13545406 -0.0560683 -0.008291851 -0.17415835 0.17547858 0.057687946 -0.01753061 -0.0048248917 -0.0667726 0.16204202 0.10193114 -0.07595155 -0.064603396 0.20637815 0.12182341 -0.0058456333 -0.046427585 -0.0031021836 -0.121525556 0.06327486 0.009072436 -0.060466405 -0.05998977 -0.091472045 0.006799289 0.06473191 -0.09223563 -0.06540574 0.08149885 -0.11150596 -0.054496218 0.08639415 -0.10302819 0.13814214 -0.08497135 -0.075111926 0.08957966 -0.051851884 0.1027258 0.09723271 0.18804932 -0.15107878 0.21352464 -0.04171539 0.21053344 -0.06852059 -0.010536181 -0.021238457 0.14544597 -0.090976596 -0.04708474 -0.08639605 -0.04565087 0.08700133 0.15816836 0.04334661 0.035879135 0.13779707 0.10300717 0.1168551 -0.08358153 0.09086456 -0.21364915 0.21470521 -0.012154239 -0.15899603 0.07481537 -0.009512355 -0.15008517 0.022437908 -0.124780685 0.0059562335 0.08491491 0.14851683 0.24041054 0.19231956 -0.24168131 0.010004819 -0.035483375 0.043312978 0.00010127421 -0.012878879 -0.09149491 0.011294619 -0.077043094 0.051266134 -0.10449301 -0.021987047 -0.04352357 -0.07883314 -0.04471578 -0.025585309 -0.0008991056 0.07449138 -0.051092174 0.03566641
51 -0.056108557 -0.20224696 0.046424437 -0.17298254 0.124457575 0.036262613 0.10826341 0.045268666 0.0114011755 0.011233888 -0.07145274 0.24180833 0.07175095 -0.021751886 -0.00048818713 -0.08898647 -0.17436701 -0.09914391 0.01200362 0.07100595 0.15690792 0.025500325 0.061190132 0.054140177 -0.021859733 0.0896642 -0.13896008 0.003442595 -0.032646563 -0.041924667 0.0042304853 0.06856152 -0.13029654 -0.052519403 -0.010650471 -0.16609922 0.17225179 0.053059913 -0.023542967 -0.0028299803 -0.06123125 0.16294324 0.09855099 -0.08037831 -0.061637983 0.20085543 0.123568274 -0.0042633004 -0.040472943 -0.0041546123 -0.11686722 0.061654862 0.014420512 -0.06123623 -0.05839831 -0.089023106 0.012412221 0.057231218 -0.08511675 -0.06539626 0.081410736 -0.10674843 -0.054999426 0.0855988 -0.10123585 0.13951221 -0.08355283 -0.067633145 0.08515142 -0.053263042 0.10257329 0.08945365 0.17883182 -0.14880657 0.20629127 -0.038992476 0.20289549 -0.06501343 -0.012240703 -0.024444792 0.1387445 -0.088420734 -0.04800224 -0.09158802 -0.037811022 0.08296191 0.15080197 0.04511619 0.02882755 0.1305728 0.09746477 0.113974825 -0.07943826 0.08982332 -0.20662333 0.20024517 -0.012863566 -0.15555254 0.06572057 -0.0056380164 -0.14428419 0.025204984 -0.12474617 0.003488642 0.082495324 0.14084144 0.23600397 0.19179504 -0.24252224 0.006355447 -0.031503573 0.04579953 -0.0024112526 -0.0082295295 -0.08323684 0.016159128 -0.074549794 0.05529349 -0.10589855 -0.020648174 -0.039468452 -0.08047095 -0.04284538 -0.026737645 0.005192301 0.07617077 -0.053754263 0.031687923
3 -0.059412975 -0.19598973 0.050532017 -0.16752769 0.123611905 0.035253637 0.10883854 0.047300305 0.008926324 0.007953091 -0.06712281 0.23347619 0.06704561 -0.021952763 -0.00028725123 -0.090687506 -0.16660085 -0.104366094 0.012938923 0.069611646 0.15195419 0.027331378 0.057202835 0.058826458 -0.018222746 0.0856237 -0.13935265 0.0067890575 -0.030800607 -0.039375465 0.0008848097 0.06421729 -0.1330053 -0.05011805 -0.011765478 -0.16964744 0.16901632 0.05588485 -0.018788928 -0.0017542936 -0.06070994 0.15674114 0.1025056 -0.07474798 -0.06261081 0.19775754 0.12195507 -0.005797918 -0.046034582 -0.0012203675 -0.111358255 0.060350657 0.0065233186 -0.052505184 -0.059776142 -0.08796584 0.0078073274 0.060225658 -0.087188385 -0.06150276 0.07465365 -0.10523706 -0.05147155 0.08350261 -0.099900536 0.1327911 -0.07870689 -0.06790145 0.089178994 -0.055795282 0.10269693 0.09178769 0.17501181 -0.14503624 0.20815349 -0.038968656 0.20650008 -0.066207096 -0.006688882 -0.022974564 0.13751334 -0.08471968 -0.049032006 -0.08995951 -0.042321604 0.08454852 0.15376659 0.044018142 0.031029677 0.13071018 0.09889357 0.111834675 -0.08298872 0.090554245 -0.20864782 0.21009456 -0.013120068 -0.15638295 0.074990116 -0.008813957 -0.15283854 0.025783965 -0.13471873 0.0013241912 0.08679186 0.14915353 0.23379211 0.18683599 -0.23901299 0.0038716295 -0.03091976 0.04363059 0.0017230113 -0.010344093 -0.085936464 0.015723623 -0.07821257 0.055739596 -0.10009234 -0.02299298 -0.043323513 -0.08320639 -0.042372636 -0.024579192 0.0010261824 0.07250147 -0.051494144 0.036262874
32 -0.06177182 -0.20637812 0.04526354 -0.17335108 0.12880743 0.035230044 0.113278724 0.048215464 0.010473624 0.009442193 -0.07229794 0.2418154 0.07258907 -0.017421842 0.0007275873 -0.08711804 -0.17008029 -0.1042418 0.010475419 0.07246166 0.16121429 0.029253121 0.05561668 0.05638516 -0.025460046 0.084426 -0.14103848 0.01122845 -0.03501664 -0.04750574 0.0028945748 0.066971965 -0.12574415 -0.052505087 -0.01210622 -0.16548058 0.1692629 0.057020895 -0.019225083 -0.0069149476 -0.064007565 0.16297038 0.099449344 -0.079074286 -0.062127747 0.19437826 0.12356127 -0.0020052902 -0.04194855 -0.0058742166 -0.113252185 0.06333393 0.009878863 -0.052679777 -0.059814617 -0.08971058 0.0074463272 0.059407722 -0.08383901 -0.06531311 0.07882409 -0.10463571 -0.056389272 0.08213561 -0.10576097 0.13648564 -0.08530816 -0.07084081 0.09003721 -0.05661502 0.101104826 0.09571128 0.18115655 -0.1506787 0.20620246 -0.03598346 0.20796496 -0.06561826 -0.010737098 -0.02402083 0.13816208 -0.08947673 -0.04663374 -0.089061625 -0.04321345 0.09022948 0.16058363 0.04385886 0.034385793 0.13372962 0.10286872 0.11596823 -0.081856444 0.08867648 -0.20911174 0.2130245 -0.010141481 -0.1610159 0.06866135 -0.012508415 -0.14782397 0.022813054 -0.13218212 -0.00043893346 0.086205095 0.146222 0.23790808 0.18087648 -0.24378334 0.008445603 -0.03153938 0.03843733 0.002974606 -0.0071665323 -0.08402062 0.016074901 -0.07556 0.057466045 -0.09762433 -0.023657233 -0.04238981 -0.081835985 -0.04112573 -0.022615276 0.005649031 0.06735106 -0.05690824 0.03676291
11 -0.058816064 -0.19556724 0.049290877 -0.1640331 0.12278925 0.033792634 0.09914782 0.048429284 0.012726945 0.004572268 -0.06932682 0.23166385 0.069085106 -0.015469393 0.004385287 -0.0902521 -0.16800329 -0.099814676 0.016027818 0.068445995 0.15485805 0.025443897 0.057110894 0.057940505 -0.025152715 0.08350361 -0.1364215 0.007602043 -0.036970668 -0.04578853 0.0049149184 0.06440211 -0.12608038 -0.05551544 -0.009779602 -0.1620219 0.16793609 0.05413973 -0.017222034 -0.0004331585 -0.05860501 0.16208026 0.10302979 -0.07851147 -0.06103751 0.19794405 0.12058638 -0.0013849364 -0.04346764 -0.0015006225 -0.11324329 0.062241796 0.009054859 -0.055254553 -0.055732496 -0.08943417 0.008501543 0.063113004 -0.08963134 -0.06358331 0.07710956 -0.10904533 -0.048575345 0.0846949 -0.106406845 0.13858947 -0.08616543 -0.073 0.08980053 -0.05697821 0.1022937 0.09302487 0.17673245 -0.15026085 0.21084152 -0.0373736 0.20841348 -0.068472646 -0.011974486 -0.024901094 0.1411803 -0.086106114 -0.04849108 -0.08932995 -0.045078415 0.085608475 0.16001198 0.044356745 0.036045205 0.13549778 0.09970108 0.10940769 -0.08130453 0.09359787 -0.20693646 0.20943382 -0.009047935 -0.16210325 0.07137993 -0.0065748966 -0.1494266 0.027332943 -0.1326319 0.0010230256 0.08323337 0.14385207 0.23464565 0.1825438 -0.23963208 0.0036394037 -0.034722764 0.042795144 -0.0044152774 -0.013731448 -0.088177145 0.011645399 -0.07820491 0.05555911 -0.102938004 -0.024718098 -0.041041363 -0.082212694 -0.038832713 -0.026532419 0.0017916439 0.06642652 -0.056216583 0.032394238
43 -0.06010011 -0.19240203 0.04222341 -0.16725619 0.12515938 0.032361947 0.10891668 0.047660686 0.01388018 0.007564223 -0.067492865 0.23488124 0.067720436 -0.018720042 0.001975477 -0.08707375 -0.16993245 -0.0987367 0.0075369948 0.069519214 0.15414347 0.02521926 0.060803123 0.053233054 -0.023445318 0.089595884 -0.13731477 0.0069363224 -0.03667337 -0.043094136 0.0056083314 0.068871714 -0.12878023 -0.05101177 -0.00694489 -0.16421345 0.1653722 0.05350788 -0.017290715 -0.0030584852 -0.055981588 0.15940733 0.101992905 -0.07565263 -0.06285232 0.19550584 0.12397856 -0.0042420668 -0.04292313 -0.006999232 -0.11375538 0.06471182 0.01128901 -0.054899443 -0.060433753 -0.08860108 0.012994136 0.061162546 -0.087172724 -0.06826273 0.07893144 -0.10532936 -0.05540621 0.08459256 -0.102944896 0.13612588 -0.08046912 -0.07276096 0.09131743 -0.049913183 0.10551889 0.096774906 0.1845413 -0.15057643 0.2070397 -0.042057045 0.20711319 -0.06750905 -0.012754199 -0.019247383 0.14227545 -0.085268766 -0.04711807 -0.08650483 -0.04354328 0.0842969 0.1581979 0.046639174 0.032638304 0.13500012 0.10347551 0.11254971 -0.08082475 0.092904314 -0.20881288 0.21175332 -0.01033924 -0.15886512 0.07089618 -0.007907053 -0.14464667 0.026802074 -0.12659776 0.00088545604 0.085950725 0.14071608 0.23476842 0.18279772 -0.23813087 0.004893062 -0.031208292 0.040858403 -0.0017827838 -0.009370664 -0.08928618 0.009969752 -0.07812294 0.050778154 -0.09639807 -0.023768272 -0.037538644 -0.07992983 -0.04285754 -0.02231546 0.0046282965 0.07155108 -0.051338326 0.03370571
77 -0.058206428 -0.21339554 0.049416337 -0.1792198 0.12870295 0.037675567 0.111655466 0.05520708 0.010048456 0.009324257 -0.07188467 0.24500813 0.07230253 -0.01708796 0.0013370726 -0.09095067 -0.16994655 -0.10217968 0.018029403 0.07841705 0.1578193 0.029776085 0.06012481 0.059682574 -0.023119269 0.089871086 -0.14597224 0.0060134144 -0.037935983 -0.046305537 0.004108795 0.06562486 -0.13286714 -0.052480076 -0.014464562 -0.17419487 0.17379045 0.056530137 -0.02405993 -0.006847608 -0.06742971 0.16766492 0.108595565 -0.08027147 -0.06360798 0.2016796 0.12439703 -0.00079539453 -0.042342097 -0.0060860706 -0.123698555 0.06447769 0.008807576 -0.060772784 -0.06070302 -0.09537876 0.01299576 0.06356077 -0.090260714 -0.0644923 0.0794802 -0.10984632 -0.053452604 0.08681533 -0.10359251 0.14228477 -0.08359124 -0.06632177 0.08543704 -0.051827855 0.09762647 0.09535226 0.18682465 -0.14915712 0.21002227 -0.041241456 0.20437111 -0.06801897 -0.015336185 -0.020386659 0.1425315 -0.0893624 -0.051719658 -0.08681792 -0.0390774 0.082471624 0.15423752 0.04474861 0.03275529 0.1398667 0.102978535 0.11365909 -0.08343522 0.090179466 -0.20746666 0.21271574 -0.006396823 -0.1618367 0.07208256 -0.0112085 -0.1514544 0.018615304 -0.12847005 0.00642515 0.088868126 0.15010549 0.23610392 0.19267385 -0.25058565 0.008053093 -0.032606114 0.04463106 -0.00012888048 -0.006540993 -0.0871521 0.016822027 -0.07579221 0.056209136 -0.10599247 -0.023123302 -0.04344186 -0.07341928 -0.042220026 -0.020905929 0.00014188838 0.07618145 -0.052647613 0.037343614
12 -0.06321091 -0.20654826 0.046301514 -0.1759853 0.12516792 0.03319498 0.10758809 0.045667402 0.010125006 0.010649759 -0.06825304 0.24982911 0.07435651 -0.01734482 -0.00045638156 -0.087667905 -0.17895797 -0.10340104 0.017226322 0.07081044 0.1631665 0.03221904 0.063398786 0.059594374 -0.026056638 0.08509539 -0.13996376 0.0062683453 -0.037485857 -0.04389387 0.0059421607 0.069912486 -0.1371136 -0.054989558 -0.009597847 -0.16820723 0.16688277 0.058822837 -0.02103021 -0.002582909 -0.06653686 0.16781712 0.107402585 -0.08142781 -0.06326344 0.20722896 0.12462729 -0.0038350958 -0.046477314 -0.0064791725 -0.124243654 0.06597313 0.010650147 -0.05846497 -0.06370089 -0.097004384 0.010586731 0.060682666 -0.08392484 -0.06439036 0.08350695 -0.107539825 -0.058066078 0.08154998 -0.10385295 0.13769855 -0.07892858 -0.07065313 0.09351872 -0.04650213 0.10477087 0.09509718 0.18185638 -0.14659335 0.2078064 -0.038215816 0.20818102 -0.06266828 -0.009782238 -0.018691069 0.13844064 -0.08701369 -0.052566353 -0.093101494 -0.04552984 0.08868593 0.15622483 0.040571973 0.028443364 0.13193452 0.10222457 0.111716844 -0.08476026 0.08696564 -0.2072284 0.21030408 -0.0068146046 -0.16564818 0.07560381 -0.008523774 -0.15730648 0.019331984 -0.13013077 0.0038627004 0.084324054 0.13937898 0.23530778 0.18676151 -0.23965439 0.0037236996 -0.03613327 0.041079894 0.0015372979 -0.0075832806 -0.08680734 0.015458081 -0.0755474 0.058124945 -0.10480693 -0.026486171 -0.04110682 -0.076474644 -0.039279558 -0.022752715 -0.00013451515 0.07385241 -0.05611996 0.03564044
58 -0.058159206 -0.20078929 0.046864122 -0.1749719 0.124124736 0.03760768 0.110239916 0.049427293 0.012011239 0.011116401 -0.06860889 0.24243426 0.07610647 -0.015614495 0.00087853527 -0.091584645 -0.17656282 -0.10249311 0.013754072 0.06744588 0.15609586 0.023840578 0.058040563 0.055004552 -0.02134524 0.08668146 -0.14318343 0.0043881293 -0.034012 -0.040247288 0.003991236 0.066335455 -0.13051113 -0.054170635 -0.009352405 -0.16924839 0.1705166 0.058348328 -0.021158528 -0.0008808433 -0.06588898 0.1634212 0.10206318 -0.08227124 -0.06537995 0.20306155 0.12524167 -0.0012655541 -0.04311973 -0.00904333 -0.11934787 0.061373442 0.0146467155 -0.053898726 -0.061295174 -0.08738861 0.009375328 0.059425395 -0.08542227 -0.06391334 0.08564487 -0.11186403 -0.05682953 0.081694044 -0.104308896 0.14064628 -0.080222614 -0.07632003 0.09279402 -0.05027307 0.102188945 0.093804106 0.18678012 -0.15498035 0.21314609 -0.04197896 0.2077953 -0.06923432 -0.009428591 -0.025887236 0.1422566 -0.09269283 -0.05151602 -0.089474626 -0.041242436 0.09069111 0.16143388 0.039698657 0.03285845 0.13626106 0.104047924 0.11477696 -0.08660048 0.095295005 -0.21553805 0.21894842 -0.012925178 -0.16998 0.07540527 -0.012032666 -0.15480891 0.023644455 -0.13124017 0.006229832 0.08512984 0.15099707 0.24214898 0.19708484 -0.25141734 0.006378953 -0.034439113 0.040011473 0.0038155352 -0.012380084 -0.094491795 0.01316248 -0.08021913 0.056929443 -0.107855946 -0.022686804 -0.039386444 -0.07750531 -0.046145923 -0.02145539 0.002553245 0.07500655 -0.0540454 0.040829983
52 -0.0627739 -0.20338422 0.051598888 -0.17909907 0.12351402 0.03219625 0.11381333 0.047919933 0.013955531 0.00564979 -0.07075679 0.24342726 0.07410687 -0.017481571 -0.0048912293 -0.0900639 -0.1718062 -0.09881598 0.0124047045 0.07176743 0.16151233 0.026986934 0.058156203 0.05757478 -0.02574697 0.08925548 -0.13921078 0.009737593 -0.033355016 -0.045925755 0.008531547 0.06760954 -0.12458222 -0.052825928 -0.007862347 -0.16479759 0.16333374 0.055244338 -0.018393934 -0.0030079053 -0.060425114 0.165871 0.09980299 -0.077028714 -0.060748454 0.19698754 0.12389875 0.0010777434 -0.045544375 -0.006738719 -0.120601654 0.059544418 0.01583371 -0.06038026 -0.056010716 -0.08913138 0.011493987 0.05758319 -0.08727814 -0.06703896 0.079349205 -0.10518595 -0.05672703 0.081203364 -0.106536895 0.14331178 -0.079599686 -0.06772441 0.08615884 -0.050222937 0.10256806 0.09358752 0.18783066 -0.1492111 0.20940986 -0.0412961 0.20682243 -0.06984248 -0.010869388 -0.025331227 0.14389613 -0.091340214 -0.050313808 -0.09064074 -0.03917666 0.08578213 0.16209075 0.045769025 0.03241682 0.1409127 0.10486685 0.11498268 -0.08617837 0.090109885 -0.21351019 0.21083425 -0.009342596 -0.15380219 0.06426799 -0.0035689382 -0.14045498 0.025001267 -0.12279968 0.0064979065 0.08712602 0.14180253 0.23746295 0.18539599 -0.24453264 0.013264359 -0.031462163 0.040312402 0.004093037 -0.010887014 -0.085486956 0.015364964 -0.07508396 0.059339117 -0.10359788 -0.02145987 -0.038047563 -0.075511426 -0.043721534 -0.024384698 0.0028478068 0.069929555 -0.05441752 0.034138817
71 -0.05467343 -0.19983898 0.04789054 -0.17103235 0.12348867 0.03641519 0.10374527 0.043924697 0.015036446 0.009878736 -0.07379664 0.24576172 0.0778375 -0.019892093 0.0044290912 -0.09421025 -0.17459425 -0.10397984 0.014873366 0.072895035 0.15798342 0.028382013 0.058168054 0.059391554 -0.02858214 0.0853378 -0.13767602 0.005534682 -0.03554995 -0.043373138 0.0012124943 0.067696564 -0.13333032 -0.05681104 -0.011946723 -0.1693726 0.16820273 0.050710324 -0.014504059 -0.006059998 -0.062686644 0.16249841 0.10286873 -0.081596695 -0.06006985 0.2049277 0.1190806 -0.008083897 -0.04319038 -0.0015095866 -0.11926078 0.062392514 0.0070952415 -0.057199676 -0.062432043 -0.09051352 0.008131508 0.060755074 -0.086535715 -0.066566125 0.08312828 -0.10888264 -0.056680556 0.083420016 -0.10625128 0.14125358 -0.08245288 -0.07666615 0.08753893 -0.05574524 0.105289005 0.096784756 0.18035524 -0.15204096 0.21107927 -0.03782388 0.21003671 -0.067281425 -0.010530538 -0.029048612 0.1447225 -0.09168452 -0.04842443 -0.091145396 -0.04435196 0.09053355 0.16102082 0.04333586 0.032984402 0.13980787 0.10269147 0.112869956 -0.08609727 0.09453371 -0.21045348 0.22019225 -0.011388394 -0.16639069 0.075378045 -0.01047199 -0.15361416 0.021463497 -0.13547377 0.0027392134 0.08537284 0.14092538 0.23507304 0.19209927 -0.24128404 0.0038207346 -0.032101385 0.038100265 -0.001254827 -0.012856928 -0.09148615 0.013398043 -0.074378975 0.05758623 -0.10646751 -0.02069702 -0.043277856 -0.07912162 -0.043539986 -0.021953668 0.0043489304 0.07281031 -0.05523716 0.034334358
31 -0.055922173 -0.20127137 0.05342288 -0.17086692 0.124346614 0.032370888 0.10875212 0.044763178 0.008213817 0.00880355 -0.06930332 0.24992923 0.07727041 -0.021444455 -0.00063780375 -0.09474881 -0.18155815 -0.1037303 0.017258639 0.07533105 0.16335398 0.024657922 0.058952548 0.06055477 -0.021929659 0.09279936 -0.14125866 0.0075024595 -0.03555075 -0.045628782 0.0016606877 0.0703417 -0.13672033 -0.051094297 -0.00955575 -0.16633545 0.167926 0.053138845 -0.015620743 -0.008219657 -0.061919075 0.16537975 0.10164786 -0.08022431 -0.06452751 0.2009947 0.11883712 -0.004559269 -0.04289475 -0.00281964 -0.12120334 0.064426534 0.011714358 -0.057670556 -0.05614174 -0.08754914 0.012699314 0.058787588 -0.092064366 -0.068863995 0.081700936 -0.10741514 -0.055843815 0.07944071 -0.10636173 0.1368489 -0.084989145 -0.072556086 0.08574445 -0.052290343 0.10098474 0.09045379 0.18038541 -0.14859253 0.20995463 -0.03759348 0.20810278 -0.06754534 -0.0040488485 -0.020371785 0.1411998 -0.09062867 -0.05179195 -0.08898902 -0.039252963 0.08416084 0.15133214 0.041434705 0.03397549 0.13230096 0.09812107 0.114225134 -0.08047921 0.08871508 -0.20985687 0.21191473 -0.012229172 -0.16342609 0.07173777 -0.0079930965 -0.15735097 0.024378544 -0.13112496 0.00103499 0.0872789 0.1504999 0.24326546 0.19598657 -0.2482588 0.007539679 -0.038625505 0.04041848 -0.0009365209 -0.012006546 -0.08999284 0.016214972 -0.08205112 0.058294293 -0.110356845 -0.020403948 -0.045009382 -0.08178714 -0.04549235 -0.027308047 0.0038600205 0.07624873 -0.057086915 0.03351504
60 -0.051911946 -0.19409038 0.046593312 -0.16575868 0.118987486 0.038592648 0.10779003 0.04877534 0.012689349 0.009167369 -0.07306272 0.23845325 0.07297454 -0.018204901 -0.00040805203 -0.085444495 -0.17184125 -0.10365597 0.008575694 0.068838276 0.15651727 0.023702027 0.059375808 0.055421364 -0.024174461 0.08775541 -0.13801476 0.005798764 -0.0320704 -0.040888328 0.0012548006 0.06677495 -0.1286518 -0.05459937 -0.013839174 -0.16894059 0.16907698 0.05528967 -0.01710199 -0.0034420127 -0.06386735 0.16101295 0.10142085 -0.0792126 -0.063502274 0.20362334 0.12049857 -0.00675489 -0.040738378 -0.0028436226 -0.11270842 0.060895957 0.009688223 -0.054771055 -0.058922134 -0.08854768 0.01115617 0.056992993 -0.08822657 -0.06418114 0.08367043 -0.10977864 -0.053430244 0.08077781 -0.100767784 0.13850604 -0.078592606 -0.06871476 0.08556691 -0.051227205 0.09818526 0.09424319 0.17962463 -0.14473832 0.21117598 -0.038380634 0.20065372 -0.06474912 -0.009518498 -0.019819172 0.1409365 -0.08678735 -0.048155528 -0.09025032 -0.04306139 0.08604019 0.15040125 0.042222593 0.029591346 0.13244611 0.10503417 0.11209509 -0.083958864 0.08798964 -0.20677382 0.21231689 -0.006411029 -0.1617058 0.07505611 -0.007967215 -0.15119512 0.021601297 -0.12830059 0.006123283 0.08657887 0.14119919 0.23399112 0.19039522 -0.23842034 0.0032588318 -0.03215234 0.03752314 0.0013402369 -0.009797372 -0.08609143 0.014585955 -0.07820114 0.057117086 -0.1040183 -0.024923759 -0.044548288 -0.07669284 -0.041380066 -0.024268948 0.0031249856 0.0719184 -0.052613106 0.038024534
10 -0.05947712 -0.20631084 0.045784496 -0.17483574 0.1294607 0.039128657 0.11402787 0.048258107 0.01534871 0.004836668 -0.0705966 0.24475005 0.072254665 -0.015252506 -0.0013302981 -0.0858384 -0.17166327 -0.10006927 0.011417116 0.074317865 0.1639335 0.025821373 0.06135831 0.062184967 -0.025399633 0.08718758 -0.13934891 0.0035702025 -0.03708595 -0.048369683 0.0014796198 0.06568667 -0.12780006 -0.053227928 -0.014512537 -0.16819938 0.17087065 0.050776873 -0.021512823 -0.007348942 -0.06531029 0.16126385 0.102830574 -0.07607867 -0.05727127 0.20243488 0.12540884 -0.0026589858 -0.03898969 -0.0067474013 -0.115735345 0.06297801 0.014392457 -0.05778833 -0.059856214 -0.0868385 0.010786173 0.05401017 -0.08869084 -0.06276328 0.08026341 -0.10844083 -0.055858534 0.0835196 -0.10084 0.13747907 -0.08227472 -0.07197473 0.08358096 -0.055523664 0.10255883 0.088243686 0.18155335 -0.14838694 0.20727882 -0.037261408 0.20369199 -0.06693349 -0.014492732 -0.024845952 0.13388963 -0.09034182 -0.0490946 -0.08622561 -0.045236707 0.08699787 0.15197961 0.040193144 0.03237581 0.1315993 0.104687825 0.11056042 -0.07742909 0.09195047 -0.20586972 0.21143405 -0.009656955 -0.16186473 0.07069539 -0.007059964 -0.14970493 0.021633063 -0.12766446 0.0043972693 0.0843973 0.14143118 0.23950063 0.18906482 -0.24592906 0.008497774 -0.02905375 0.037547693 0.004018297 -0.011655161 -0.08604911 0.0139488885 -0.07418301 0.05791925 -0.103175364 -0.02475222 -0.042063333 -0.078254364 -0.04227008 -0.02343824 0.006340764 0.0703997 -0.057649907 0.036009558
8 -0.055319298 -0.2012982 0.05130374 -0.16604538 0.119073875 0.034738954 0.10947252 0.046973802 0.010863046 0.011242396 -0.07224049 0.23802018 0.07169455 -0.020417739 0.003943175 -0.089901164 -0.1717593 -0.10190873 0.01630565 0.07347173 0.1581689 0.026940878 0.0590236 0.05379943 -0.023101628 0.08926355 -0.13677008 0.008422874 -0.035759863 -0.041352186 0.0010636041 0.06672601 -0.12860869 -0.052143026 -0.012569802 -0.16676785 0.17139603 0.0535677 -0.015609336 -0.002164928 -0.06175647 0.16096203 0.09898704 -0.074839234 -0.059860233 0.2030673 0.11794198 -0.0051184753 -0.0457896 -0.0013000878 -0.1181402 0.061894406 0.013515447 -0.052758995 -0.06199982 -0.089071594 0.005312646 0.058737002 -0.0872982 -0.0665145 0.07832402 -0.11122887 -0.053217266 0.081653014 -0.10114345 0.13504027 -0.08121088 -0.07491546 0.09084843 -0.055911504 0.100639805 0.092253335 0.18062659 -0.15042263 0.2113782 -0.038315374 0.20811906 -0.06769795 -0.011236519 -0.023202406 0.14407177 -0.09422891 -0.053170104 -0.09116143 -0.04720971 0.09119745 0.16040584 0.043148767 0.03484115 0.13470645 0.10840722 0.11214343 -0.085598625 0.09271764 -0.2118422 0.21514572 -0.0120702665 -0.16641533 0.070343144 -0.013086219 -0.15000401 0.021138119 -0.13577591 0.0014440173 0.08760666 0.14133032 0.23756596 0.18427417 -0.24467355 0.0044064727 -0.035015736 0.043412365 0.0033519722 -0.01067937 -0.0913835 0.015529822 -0.08003078 0.05532652 -0.10610806 -0.023112953 -0.04487089 -0.08237774 -0.038338233 -0.023434702 0.0052415426 0.07065441 -0.051036227 0.034319405
28 -0.06363344 -0.20489338 0.053325135 -0.17335321 0.12560199 0.038280893 0.11106034 0.04595143 0.00895698 0.008189986 -0.06894646 0.24270673 0.07395934 -0.017045055 -0.0036611129 -0.08954848 -0.17026563 -0.10272607 0.016185397 0.07471684 0.15439525 0.024742205 0.059038546 0.056319006 -0.023709366 0.089580804 -0.14326513 0.00706125 -0.03217184 -0.046262853 0.0019094966 0.0708234 -0.1275018 -0.05016318 -0.01065649 -0.1694972 0.16619584 0.05298401 -0.016133692 -0.0032171642 -0.0638198 0.16139507 0.10655758 -0.07595316 -0.06551057 0.20054585 0.11916674 -0.0046857456 -0.04618682 -0.007148075 -0.122835875 0.063498236 0.014837202 -0.058491185 -0.05766251 -0.08892277 0.0073609385 0.058407426 -0.09219077 -0.06559861 0.07961669 -0.112330385 -0.051104702 0.08469914 -0.099751204 0.13496202 -0.08177112 -0.06913289 0.08649822 -0.055153 0.099746406 0.094365165 0.17763327 -0.15141864 0.20494732 -0.03712801 0.20253912 -0.062021516 -0.012124664 -0.020410415 0.1380185 -0.09183689 -0.047322437 -0.08652584 -0.04323243 0.08694891 0.15556122 0.044922043 0.034368545 0.1380427 0.10311304 0.11178058 -0.08619899 0.085697524 -0.20431617 0.2081077 -0.011513203 -0.15647516 0.07200872 -0.011854202 -0.1502243 0.02730811 -0.13035427 0.0016818533 0.087128855 0.14670222 0.23957996 0.19116744 -0.24163088 0.004641711 -0.031987 0.04286034 0.001149373 -0.010683092 -0.08678015 0.01141185 -0.0784738 0.053589426 -0.10383992 -0.023426402 -0.039820172 -0.07826175 -0.041658297 -0.021032844 0.00074738334 0.0682279 -0.0513562 0.03794276
5 -0.058533944 -0.20608127 0.04315756 -0.17257684 0.12849914 0.034808286 0.113810256 0.044368226 0.017578598 0.0050671953 -0.066906415 0.24486633 0.06784678 -0.017681 0.0031745292 -0.09230392 -0.17391552 -0.10769454 0.010502963 0.07357197 0.16126809 0.03181271 0.054089263 0.06112984 -0.02281239 0.08477193 -0.14119536 0.001897401 -0.035708264 -0.045079045 0.0016300643 0.06481706 -0.13170128 -0.05208843 -0.009321054 -0.17300604 0.1698415 0.057868157 -0.022074182 -0.003473532 -0.058878582 0.16296376 0.09899453 -0.079989195 -0.06416516 0.20179555 0.12425741 -0.0040931646 -0.0437093 -0.00693927 -0.11749164 0.0672152 0.014194075 -0.061364383 -0.05653446 -0.09162665 0.011237706 0.059834693 -0.081717834 -0.07017595 0.07831725 -0.112305984 -0.051114645 0.086540386 -0.10607419 0.14018661 -0.07835311 -0.07217587 0.091029234 -0.05694612 0.10140888 0.09618448 0.17919534 -0.15291153 0.21159908 -0.04243798 0.20488515 -0.071077086 -0.014639263 -0.027855782 0.13747638 -0.08948798 -0.049365412 -0.09158863 -0.045364298 0.08175545 0.16041256 0.047727086 0.03543316 0.13559704 0.10621436 0.11169828 -0.08243706 0.0921091 -0.21273328 0.21692652 -0.014328255 -0.15954566 0.075615644 -0.0056190314 -0.15352073 0.023494145 -0.12929755 -0.0002756292 0.08208468 0.14262587 0.23306963 0.1847899 -0.24505138 0.00424821 -0.033437643 0.041335847 0.0024261256 -0.013779678 -0.08864761 0.017496893 -0.07208888 0.053874325 -0.096726015 -0.021733694 -0.0404906 -0.07498811 -0.04140105 -0.028322343 -0.0013592077 0.07292275 -0.05403092 0.038069073
59 -0.058356766 -0.2004423 0.050475564 -0.17575285 0.12514043 0.04125998 0.10851234 0.047307204 0.009819853 0.009002146 -0.07425482 0.24601951 0.07638081 -0.01905472 -0.0042442456 -0.09076843 -0.17104033 -0.10219648 0.013590042 0.07592459 0.16406327 0.02331492 0.05948624 0.056454845 -0.021329364 0.08688114 -0.14537399 0.0049778805 -0.034784056 -0.048046686 0.0006524587 0.07187695 -0.13564272 -0.057111103 -0.012627021 -0.16892596 0.17044024 0.05123818 -0.0184735 -0.0076828822 -0.06764733 0.17384954 0.10370544 -0.08458358 -0.062374294 0.21328916 0.12716104 -0.00833361 -0.041694436 -0.004041874 -0.11874542 0.062893815 0.008667711 -0.058749758 -0.058482464 -0.08700975 0.013676831 0.061931908 -0.09424561 -0.066407524 0.078499936 -0.10997049 -0.052763373 0.085588545 -0.10142473 0.14187723 -0.08762322 -0.07738443 0.090358354 -0.058906518 0.10894883 0.09253745 0.19019145 -0.15763123 0.21437679 -0.040298477 0.21569906 -0.06815266 -0.0073202844 -0.02230263 0.14408693 -0.09486449 -0.05381234 -0.08742042 -0.047178455 0.085994884 0.16341817 0.047640916 0.03209431 0.14111724 0.1039945 0.11584997 -0.08580024 0.09587672 -0.21997736 0.21823913 -0.01316266 -0.16430496 0.0747844 -0.0076930346 -0.15378147 0.029974004 -0.1329901 0.004073486 0.08654772 0.14752977 0.24614376 0.1957605 -0.24950899 0.008164867 -0.03501079 0.042227603 0.0032341732 -0.010157188 -0.08753306 0.018019425 -0.08125709 0.0545476 -0.105329275 -0.022483395 -0.045861166 -0.08420028 -0.04570681 -0.024984378 0.004537432 0.069605075 -0.052311312 0.032869224
20 -0.062687114 -0.20873703 0.046379205 -0.1760104 0.12528116 0.03235176 0.11702265 0.05267378 0.0092172995 0.006362583 -0.07600298 0.24102487 0.0789476 -0.018093558 -0.0015500719 -0.09017196 -0.17659685 -0.10259269 0.012902021 0.07026665 0.1630256 0.026643906 0.063083306 0.059887245 -0.022105811 0.088877596 -0.13929427 0.0067853075 -0.03634523 -0.04709695 0.0019695766 0.06716892 -0.12786901 -0.05488872 -0.008114987 -0.16441858 0.17102763 0.05125686 -0.024396358 -0.008705513 -0.0651775 0.15354022 0.095707625 -0.076747395 -0.057198096 0.19654687 0.124694295 -0.0026119864 -0.040689733 -0.00506172 -0.116352834 0.0605695 0.01410263 -0.058771115 -0.058452874 -0.08775063 0.008221692 0.05500055 -0.0855 -0.060742266 0.0788852 -0.103206865 -0.05071643 0.079345085 -0.10073933 0.13504152 -0.08063177 -0.0675753 0.084887944 -0.048520174 0.10015501 0.09331178 0.17841922 -0.14894941 0.20545235 -0.036741175 0.20508952 -0.066159464 -0.009225994 -0.020123444 0.13900767 -0.091216505 -0.04859385 -0.091997266 -0.03870259 0.09004039 0.15270576 0.043475285 0.030248057 0.13452354 0.10323202 0.11128455 -0.083429605 0.08877635 -0.20719564 0.21130483 -0.008319438 -0.15910074 0.070299 -0.0057439986 -0.15220657 0.020044027 -0.13097905 0.0054604327 0.08270287 0.14158659 0.22605233 0.18109967 -0.23316509 0.010483093 -0.032689083 0.042729083 0.0024705064 -0.009523971 -0.08772084 0.01104151 -0.07100486 0.055837423 -0.09843202 -0.02012843 -0.04015476 -0.06913522 -0.040386025 -0.02648982 0.0044936263 0.0730157 -0.05420017 0.0371108
72 -0.055341423 -0.19871171 0.04809449 -0.17189342 0.12563244 0.040561043 0.1034637 0.04456771 0.011198209 0.0067347153 -0.06973304 0.2424868 0.07093839 -0.021035835 -0.0002571254 -0.08517771 -0.16741648 -0.09806905 0.013390551 0.07109641 0.15555006 0.026850365 0.056098826 0.055667855 -0.023875633 0.09002649 -0.13678373 0.007855902 -0.035903383 -0.046758443 0.0013946497 0.06541027 -0.12850453 -0.055098213 -0.012771985 -0.16754368 0.1656915 0.049925417 -0.018987551 -0.0057961736 -0.061338045 0.16766019 0.101734735 -0.08233582 -0.060200386 0.19802088 0.12047959 -0.004227324 -0.041468028 -0.007250076 -0.118188575 0.0650398 0.010171027 -0.05254229 -0.06329995 -0.0889129 0.007688515 0.061690208 -0.086308256 -0.062587805 0.076519504 -0.11077817 -0.05751701 0.082715884 -0.09731485 0.13654342 -0.07803508 -0.074338175 0.0816749 -0.05691059 0.097596936 0.09306098 0.18096393 -0.1475426 0.20642829 -0.038352896 0.20544186 -0.067148425 -0.006617837 -0.022864131 0.13901685 -0.0898598 -0.05143112 -0.087171 -0.04462133 0.087377965 0.15758286 0.038479492 0.03646239 0.1328278 0.102693245 0.11379389 -0.08393653 0.08848504 -0.20621717 0.20956478 -0.010694494 -0.16353126 0.0703852 -0.006394986 -0.15081398 0.024443006 -0.13189042 0.0038940297 0.08802024 0.14963901 0.23949593 0.19533248 -0.2525076 0.0061395927 -0.03021277 0.04210355 0.0044220435 -0.013319299 -0.086376406 0.012075389 -0.07450421 0.058247857 -0.105936304 -0.026453052 -0.04409363 -0.08367719 -0.043894295 -0.023113115 0.0039613117 0.07749227 -0.059821237 0.034860633
