84 84
3 -0.10788922 -0.19978599 -0.09951149 -0.08904464 0.06675762 0.0033498716 0.07548169 0.084023796 0.011264419 0.03261008 -0.06759219 0.25374866 0.0056436304 0.013079974 0.016720982 -0.17445712 -0.043861613 -0.07260146 0.079580165 0.103395194 0.068984225 -0.026803965 0.07616499 0.071542695 0.0624119 0.027174 -0.1241038 0.013097112 -0.010857449 -0.02884292 0.04927087 -0.0083143655 -0.1931085 -0.03857704 -0.046139542 -0.1048327 0.086769395 0.16276112 -0.027539343 0.026156707 -0.19148675 0.1261771 0.18201841 0.03484827 -0.110842556 0.23111323 0.12765175 -0.027179234 0.02129579 -0.068927795 -0.10614816 0.05197402 0.038889747 -0.104970574 -0.10005237 -0.19492319 0.07994238 0.013107473 -0.17125668 0.004625412 0.11937454 -0.12631515 0.028990772 0.07421488 -0.03761091 0.1072558 -0.108981475 -0.023442555 0.09580652 0.017440993 0.14545949 0.03885894 0.19050363 -0.07184944 0.22065541 -0.06865131 0.07367128 -0.09801503 0.036772527 0.11265481 0.07464992 -0.09933164 -0.16061532 -0.08014442
32 -0.106786124 -0.23262218 -0.13567644 -0.10440818 0.06822573 0.0021531153 0.10061281 0.077505626 -0.0063311434 0.037611444 -0.08494863 0.2232217 0.0014544586 -0.013459636 0.020660464 -0.15139748 -0.007586829 -0.04992118 0.07548686 0.14759351 0.07697974 -0.014994036 0.043044686 0.054569647 0.058967028 0.035138953 -0.089757346 0.03869108 -0.0039650607 -0.034210544 0.065152586 -0.022447804 -0.1564169 -0.03864579 -0.060740177 -0.084401384 0.07788397 0.14108716 -0.041276224 -0.00061456644 -0.18050173 0.14290857 0.14217162 -0.0041319155 -0.1050033 0.18812017 0.13699391 -0.008094781 0.021658594 -0.086579256 -0.104820274 0.08288952 0.04898656 -0.12393961 -0.05554001 -0.17468752 0.062459636 0.0048507117 -0.13906893 0.02575668 0.07698767 -0.12553951 0.038847245 0.078495726 -0.06185655 0.089261726 -0.12786007 -0.015691228 0.11059186 0.021325361 0.19659068 0.06271164 0.2048886 -0.06549781 0.21365537 -0.0818632 0.062926896 -0.090236686 0.05967829 0.13969669 0.06204687 -0.12505266 -0.17911999 -0.08881632
2 -0.0811907 -0.19354276 -0.096512556 -0.08831197 0.06845101 -0.01258542 0.08181951 0.0935201 -0.026119035 0.033210326 -0.06072846 0.15987961 0.009519512 -0.029688515 0.015584038 -0.13988799 -0.0038929263 -0.06052326 0.08825279 0.15755388 0.1067967 -0.030579567 0.065587066 0.07699921 0.082144156 0.058911376 -0.11189278 0.05725089 -0.0011983602 -0.033376146 0.077904016 -0.035596903 -0.21751307 -0.042659637 -0.09838364 -0.11710389 0.09481365 0.18186639 -0.043036938 0.0070959358 -0.20946728 0.18443954 0.18050519 0.004597876 -0.11176736 0.19931196 0.13237442 -0.023095991 0.03460555 -0.073358804 -0.101265885 0.07167694 0.038528446 -0.12592556 -0.04421784 -0.17353067 0.08260286 0.013335535 -0.14946619 0.029889936 0.08529486 -0.14731292 0.048855472 0.06721211 -0.05774392 0.06391249 -0.11148155 -0.015688771 0.08075813 0.029894339 0.16863294 0.047593985 0.18844101 -0.055089816 0.19754468 -0.087108076 0.059205603 -0.06799995 0.06022996 0.12747198 0.048006635 -0.11908431 -0.18601929 -0.09612476
19 -0.09332544 -0.23378299 -0.11415156 -0.10428626 0.07481844 0.017539011 0.09216992 0.07979492 -0.010418942 0.042860627 -0.07838704 0.22636552 0.0002476519 -0.012312848 0.015201945 -0.15444508 -0.0148245385 -0.07563666 0.11281287 0.16439357 0.08930158 -0.038448773 0.046351284 0.069224514 0.05600285 0.0352658 -0.08514103 0.0198457 -0.011302502 -0.018506248 0.043259703 -0.014875536 -0.13959762 -0.04052398 -0.054041322 -0.07443347 0.086563274 0.12605214 -0.040996127 0.0048037455 -0.17137848 0.13438986 0.13029452 0.00080015784 -0.07157679 0.19731265 0.12617691 -0.018579844 0.03345269 -0.071402706 -0.10193201 0.07020854 0.039836265 -0.11745167 -0.046060003 -0.1587351 0.06612777 0.017578574 -0.13339949 0.016915366 0.089652635 -0.13324614 0.049728725 0.07398842 -0.063361906 0.09259049 -0.13375437 -0.032060612 0.10564549 0.012438182 0.19702542 0.0410628 0.19725093 -0.063949816 0.2528977 -0.088233225 0.073249884 -0.08217761 0.053088006 0.13785937 0.06905539 -0.13679941 -0.21339858 -0.1092342
25 -0.07457101 -0.20296368 -0.09482464 -0.09336748 0.06422519 -0.0026463754 0.08411713 0.05828108 -0.032841884 0.018742938 -0.0480602 0.09951822 -0.0017924771 -0.026858984 0.0155757135 -0.1158566 0.017940711 -0.04909511 0.08807098 0.16759832 0.09974653 -0.020306868 0.039982352 0.07095084 0.064325005 0.042271726 -0.0736226 0.03962774 -0.012609823 -0.036016684 0.07173783 -0.041382916 -0.17600787 -0.042413365 -0.09064991 -0.09851207 0.09355036 0.14697394 -0.054683108 -0.022855781 -0.1891646 0.16913088 0.14733702 -0.007241989 -0.0891526 0.20083694 0.13098064 -0.011305025 0.042240173 -0.084482156 -0.119710505 0.10214363 0.043586265 -0.148986 -0.011512488 -0.16940244 0.08289209 0.0034796724 -0.1378514 0.037958354 0.054541156 -0.14219944 0.05546253 0.07306416 -0.08629904 0.07222809 -0.14792576 -0.012358534 0.104938254 0.030293666 0.20235111 0.057840277 0.21880974 -0.067936376 0.23174796 -0.12256364 0.06010196 -0.060000077 0.06930264 0.14423071 0.038038712 -0.13771091 -0.19118886 -0.114174604
22 -0.10930014 -0.22804727 -0.12532339 -0.103328966 0.06961198 -0.0038221239 0.07944618 0.08400422 -0.011873266 0.030589202 -0.06621952 0.21111315 0.015574503 -0.011589828 0.015048543 -0.15963861 -0.025005342 -0.055584453 0.09944582 0.15629894 0.09863122 -0.022535967 0.059790358 0.08265387 0.07128026 0.0609641 -0.112469405 0.026290912 -0.0061880993 -0.029050414 0.060805615 -0.021317359 -0.1864493 -0.033846457 -0.06334912 -0.110216364 0.07999132 0.14575651 -0.036322992 0.01404565 -0.18041103 0.14628099 0.13236642 0.012904668 -0.096274436 0.19331583 0.10080904 -0.017468989 0.03534652 -0.08614271 -0.10498713 0.05429124 0.041346237 -0.12586723 -0.036813386 -0.16286536 0.073895805 0.0030590415 -0.15183696 -0.00211967 0.10417054 -0.14175726 0.037591714 0.088991 -0.059616555 0.087639295 -0.115941525 -0.022522684 0.10502344 0.03598438 0.16579571 0.05522149 0.19648579 -0.06850183 0.21404356 -0.082130246 0.05925083 -0.09038958 0.0613002 0.12714992 0.06011438 -0.12774587 -0.17714703 -0.104818724
75 -0.081938766 -0.21442421 -0.1033159 -0.104501486 0.07554079 0.0028227214 0.08416749 0.094326675 0.001594787 0.038167935 -0.07438258 0.24139129 0.010912801 0.0009266827 0.023661908 -0.15748575 -0.021759775 -0.062379375 0.0921884 0.13888715 0.08757774 -0.028273137 0.04563358 0.06940979 0.060465816 0.035649244 -0.10129142 0.04566291 -0.0064412914 -0.045123152 0.05041979 -0.005501595 -0.16628753 -0.03954919 -0.049267296 -0.08338863 0.076847 0.1332875 -0.022689613 0.017415788 -0.16226426 0.13695948 0.1461608 -0.00066849304 -0.0834595 0.19261234 0.12385809 -0.011170711 0.026987672 -0.05774568 -0.099774316 0.06565124 0.04106697 -0.10874733 -0.05588173 -0.1698036 0.0753107 0.011684754 -0.14555179 0.008413299 0.08807468 -0.14646953 0.038864117 0.05156188 -0.0709298 0.116291314 -0.11519115 -0.035447728 0.10316951 0.033621065 0.18302017 0.046391208 0.21357079 -0.070086055 0.22669184 -0.08101536 0.06802525 -0.09098371 0.045604702 0.12193103 0.08501042 -0.10936871 -0.1966662 -0.0970338
1 -0.11695044 -0.21039815 -0.10587643 -0.10575732 0.06655085 -0.003612363 0.06970669 0.0831985 0.03350101 0.03097896 -0.06210221 0.253614 0.011898406 0.032094147 0.02160856 -0.15322317 -0.059980385 -0.059102908 0.07357185 0.06987431 0.06142991 -0.018346075 0.06314249 0.0557307 0.039570574 0.022510102 -0.10192938 0.018064257 -0.016809305 -0.03892665 0.03943315 0.013653386 -0.18590632 -0.04719654 -0.03459963 -0.09375626 0.060676895 0.14129598 -0.011829 0.03708524 -0.14435518 0.10805222 0.15326011 0.016204862 -0.108043104 0.21753892 0.12641233 -0.013071321 0.032885768 -0.0738146 -0.11845148 0.051187813 0.044125594 -0.101974495 -0.105907746 -0.20487751 0.08924134 0.01517939 -0.1697373 -0.0061371657 0.1308405 -0.13361943 0.016043225 0.0654204 -0.05055447 0.14055127 -0.09710224 -0.03931606 0.10249738 0.027665408 0.16424264 0.034255598 0.2229772 -0.07677403 0.22390641 -0.06686373 0.07615619 -0.1249235 0.030723829 0.10500094 0.10057055 -0.0962684 -0.16455802 -0.076119095
64 -0.11631861 -0.248602 -0.14126287 -0.11586771 0.0684309 0.010641548 0.0970131 0.08226843 0.016016493 0.029320952 -0.07708016 0.24641146 0.0054021585 0.0115606235 0.031858813 -0.15776454 -0.038291864 -0.05283125 0.0632481 0.12524748 0.084135376 -0.011920425 0.037647635 0.05312195 0.059329245 0.0233454 -0.080463186 0.020704154 -0.0064978474 -0.052391976 0.046577066 -0.024714662 -0.13683105 -0.046629064 -0.046437614 -0.0861635 0.069572255 0.13009307 -0.021891048 0.015215027 -0.15508656 0.13537577 0.13334423 -0.0118432185 -0.110465646 0.21553403 0.13931637 -0.0093142195 0.024606438 -0.08701267 -0.1056757 0.07232555 0.052211273 -0.1140503 -0.05134319 -0.18115371 0.07122449 -0.0059567676 -0.1512681 0.01091548 0.08446722 -0.14312923 0.0370781 0.06950265 -0.065508984 0.12321605 -0.113897465 -0.026229402 0.11683329 0.020247554 0.17792392 0.053787027 0.20014964 -0.069125645 0.2207433 -0.06973237 0.059828434 -0.09680211 0.05867867 0.11261841 0.07233706 -0.10784378 -0.17349677 -0.090823844
82 -0.10481444 -0.2477396 -0.1345803 -0.117765404 0.05847404 0.009361225 0.09651269 0.0779439 0.0029422322 0.032443877 -0.08978437 0.25086114 0.020178324 0.0066134864 0.012717926 -0.1653869 -0.045543544 -0.04116347 0.07441089 0.13686647 0.08049322 -0.016091414 0.044505585 0.06097347 0.0475794 0.017326688 -0.0813428 0.016308766 -0.008503632 -0.05803413 0.053411063 -0.014503553 -0.16002963 -0.053108625 -0.04695979 -0.08251118 0.06474906 0.12542965 -0.019211262 0.014080692 -0.1472668 0.1227142 0.11697135 -0.006688767 -0.08796881 0.1887009 0.11741521 -0.0018867576 0.021885984 -0.08905222 -0.10487469 0.06613882 0.051525168 -0.10927512 -0.04544174 -0.1696677 0.0690656 -0.009859092 -0.14780936 0.021948256 0.0869827 -0.14149179 0.05123391 0.060085047 -0.059505813 0.11875809 -0.12567995 -0.024633927 0.12089416 0.031164832 0.17619435 0.042336263 0.2272 -0.07548549 0.21149722 -0.083363 0.06507027 -0.11608548 0.053670563 0.1364582 0.08863441 -0.123837106 -0.20213176 -0.123556204
51 -0.094449006 -0.1942415 -0.10341301 -0.08137902 0.07235409 0.0062409947 0.0686269 0.06184992 -5.029935e-06 0.019233877 -0.038361475 0.18569086 0.00463241 0.008985073 0.022638705 -0.14414462 -0.03737704 -0.04502896 0.0479268 0.10161067 0.058041204 -0.009246323 0.038643006 0.048152436 0.053650003 0.041985027 -0.096745506 0.024945606 -0.0024258872 -0.04881808 0.04482284 -0.009126534 -0.17855026 -0.03655838 -0.034331545 -0.08778266 0.08105715 0.14298284 -0.02003263 0.029998276 -0.15488954 0.14875652 0.14910446 -0.0012301768 -0.11483634 0.21360949 0.12582785 -0.024986262 0.015029337 -0.08918081 -0.13067076 0.069040515 0.053763393 -0.14332189 -0.06786235 -0.2140197 0.089108884 -0.0068346397 -0.14779793 -0.022091499 0.11989205 -0.15455432 0.017228734 0.07358511 -0.06659082 0.13906826 -0.14952365 -0.02387773 0.12891191 0.04176991 0.19601257 0.062327668 0.21806541 -0.0982991 0.23933704 -0.0870218 0.081144206 -0.10808206 0.040955488 0.11721036 0.08972578 -0.116465 -0.1790684 -0.099355556
18 -0.071753785 -0.17023905 -0.088489 -0.08149768 0.06888599 -0.0038146866 0.07641348 0.06996361 -0.0019136163 0.029601825 -0.05470556 0.17313091 0.008852985 -0.005604825 0.014794261 -0.14063516 -0.0033350226 -0.041855406 0.066954985 0.14051647 0.088264845 -0.015198006 0.044401117 0.07191868 0.07779336 0.048362017 -0.104195654 0.034540564 -0.005905042 -0.045456707 0.067627005 -0.033929206 -0.16500795 -0.028465668 -0.06996353 -0.1040873 0.07830832 0.14323069 -0.034637865 0.0048739663 -0.1996023 0.17461634 0.1642485 -0.0027482626 -0.10934994 0.20694865 0.11948465 -0.021825563 0.04327999 -0.0878275 -0.115208335 0.073780596 0.057265315 -0.121226266 -0.04540448 -0.16693665 0.07837225 -0.011431659 -0.14460814 0.0101078935 0.07956424 -0.15549183 0.041865043 0.07164029 -0.06856302 0.10322957 -0.12304521 -0.022525247 0.10681281 0.03347349 0.17639674 0.05693697 0.20580663 -0.07412608 0.21780953 -0.08898664 0.07340047 -0.08265383 0.0559188 0.13724138 0.051927682 -0.109501414 -0.18632902 -0.10836571
67 -0.07369182 -0.17286704 -0.09326919 -0.08960367 0.06894099 0.015166163 0.06295477 0.06764974 0.010654153 0.04469427 -0.054256152 0.1895077 0.0006546999 -0.006607568 0.031131607 -0.11990304 0.0010248998 -0.058976702 0.07765198 0.121525414 0.061498262 -0.020228697 0.03743827 0.07028913 0.08234171 0.041536946 -0.09075587 0.025725499 -0.0059218016 -0.035151258 0.05739838 -0.024552854 -0.17396648 -0.057469368 -0.06767237 -0.10519292 0.09597307 0.14167425 -0.02539045 0.02186687 -0.18570833 0.16421388 0.16299513 0.013771114 -0.08808998 0.19749121 0.117172696 -0.023924774 0.035388254 -0.078182526 -0.09176279 0.076305024 0.043237343 -0.123134956 -0.048546456 -0.17529003 0.075722896 -0.003960741 -0.15131974 0.009144927 0.094842486 -0.15866682 0.038898215 0.0866788 -0.05367886 0.103567585 -0.12428276 -0.027521724 0.11352923 0.03314124 0.20503686 0.06827226 0.21743667 -0.07650998 0.24006404 -0.09395072 0.06716976 -0.06917085 0.04326609 0.14979962 0.061706554 -0.11724977 -0.18729968 -0.07936653
17 -0.13327388 -0.23314089 -0.13207318 -0.100731984 0.049217883 -0.000563691 0.06675887 0.072410956 0.018007014 0.038639568 -0.054460894 0.25081855 0.0037310561 0.030364946 0.011882901 -0.14003009 -0.053539746 -0.050251476 0.06438403 0.080464676 0.055494804 -0.0320212 0.07172237 0.05160554 0.04609811 0.023238229 -0.10796493 0.004803495 -0.019343918 -0.027241556 0.048370082 0.027564337 -0.16505446 -0.04402074 -0.0352842 -0.09192754 0.0659871 0.14906092 -0.031949617 0.047218483 -0.1699486 0.12622422 0.1438734 0.011769156 -0.11767196 0.214765 0.12227545 -0.0048147724 0.027256185 -0.089875475 -0.124682575 0.041779995 0.06098614 -0.12959383 -0.09670599 -0.20670125 0.086244 0.00835955 -0.17701413 -0.0074701263 0.13682328 -0.13956551 0.030465538 0.07034283 -0.049208153 0.117196254 -0.085317984 -0.034792688 0.09838319 0.035057116 0.14694956 0.029441083 0.21638308 -0.0710657 0.21127841 -0.058725398 0.053402293 -0.13201228 0.040345144 0.10211372 0.10036025 -0.10171444 -0.16642304 -0.07867602
38 -0.076614305 -0.1815871 -0.09702453 -0.08412766 0.05575453 -0.0006749233 0.08778697 0.060388476 0.0012868918 0.028368898 -0.06732775 0.15433924 0.012754051 -0.00869442 0.008197106 -0.12647182 -0.0049339053 -0.049458057 0.078887776 0.14656864 0.08163033 -0.0142751355 0.04267374 0.073311575 0.07798031 0.035816982 -0.09889635 0.026214128 -0.0077897934 -0.040873643 0.07206103 -0.037239105 -0.16536264 -0.045165803 -0.09393063 -0.11920463 0.08803613 0.1563531 -0.04704932 0.008995322 -0.21267377 0.17077775 0.16423404 -0.003135659 -0.11789664 0.22444992 0.14368007 -0.025407989 0.043705426 -0.09549576 -0.11817808 0.09010379 0.062092874 -0.13684687 -0.048727833 -0.18740112 0.0762814 -0.021392742 -0.16407458 0.027146569 0.07552169 -0.15082568 0.043628737 0.07723268 -0.05283875 0.10053154 -0.12663741 -0.019047882 0.10603779 0.02894819 0.17416194 0.04539347 0.20129612 -0.0677711 0.20135538 -0.09300878 0.060009312 -0.08646924 0.06280005 0.14722046 0.057769474 -0.12773333 -0.1961108 -0.10939142
41 -0.08963668 -0.21213038 -0.08753216 -0.095700875 0.061814938 0.0077872933 0.08331385 0.066303685 0.00676687 0.02545886 -0.061523855 0.22785953 0.004075092 0.015355736 0.017781653 -0.14188714 -0.03246476 -0.0480066 0.08842663 0.12576877 0.08258789 -0.03409364 0.046980716 0.06496555 0.05033573 0.0393055 -0.100802965 0.02921008 -0.0044969423 -0.037058927 0.04681202 -0.0019472226 -0.16511366 -0.028625153 -0.049929928 -0.08206019 0.07785018 0.12537202 -0.022052206 0.02135008 -0.16172354 0.119716346 0.14175195 -0.0055637746 -0.10582207 0.2341321 0.13771832 -0.011970708 0.0356111 -0.09445791 -0.117796086 0.07439471 0.047334425 -0.124995604 -0.06254508 -0.20119354 0.08281204 0.013686076 -0.17479095 0.0063880202 0.10855428 -0.14658901 0.035328068 0.076421626 -0.060099557 0.11798478 -0.11358056 -0.04619452 0.11308141 0.023372093 0.17921352 0.038476877 0.2043714 -0.063648224 0.22862533 -0.077544086 0.075718954 -0.09381846 0.041382723 0.12548772 0.076171696 -0.11095184 -0.1746013 -0.09223351
45 -0.09107059 -0.18400909 -0.112746805 -0.095939286 0.05964214 0.005139977 0.0623471 0.0706785 0.043245476 0.04574355 -0.07487895 0.26108223 0.019606622 0.023633474 0.02886578 -0.15305689 -0.042407736 -0.043985017 0.048310455 0.07297386 0.056396745 -0.016716402 0.060282264 0.03888723 0.038472403 0.023555877 -0.11092779 0.02070775 -0.013015148 -0.036973882 0.051867172 0.007755843 -0.18361184 -0.056673292 -0.033609398 -0.0859972 0.04599537 0.13196604 -0.008973976 0.03223043 -0.14651182 0.10870664 0.14541736 0.008282964 -0.10497071 0.2242029 0.13935882 -0.024933357 0.02737664 -0.07993554 -0.11441127 0.05258241 0.046894874 -0.10508402 -0.11583411 -0.21533683 0.099699974 0.011514036 -0.16331455 -0.00031064608 0.13120349 -0.14941905 0.019020906 0.062631 -0.043464508 0.15537596 -0.10706458 -0.041885227 0.10642307 0.03511821 0.18113543 0.05672045 0.22135751 -0.092906065 0.22652844 -0.064786926 0.076398335 -0.107277066 0.024850605 0.10880586 0.09322837 -0.099950984 -0.17300157 -0.062677294
44 -0.08606501 -0.165169 -0.08416195 -0.080639854 0.06256293 -0.0054898183 0.05725571 0.07757186 0.031077156 0.0381574 -0.05095152 0.23901835 0.009091879 0.019758407 0.037208617 -0.130087 -0.046320938 -0.058710482 0.04829685 0.07402263 0.051783532 -0.01860746 0.054723572 0.050393358 0.05601338 0.036297042 -0.10622593 0.049032543 -0.0044881203 -0.051627375 0.050629362 0.006656884 -0.19032368 -0.049141753 -0.029958965 -0.08547541 0.052319184 0.1453786 0.0013514421 0.024450326 -0.16044685 0.13934025 0.16224055 0.004304587 -0.117773175 0.21827112 0.13548413 -0.017939866 0.023907455 -0.07339003 -0.12669618 0.053518765 0.047995497 -0.13050799 -0.10473188 -0.2265003 0.10484916 0.012701386 -0.17220065 -0.018075604 0.1326857 -0.1722928 0.017239414 0.05721786 -0.05878124 0.15951318 -0.11517732 -0.03829177 0.101257384 0.036088992 0.1875207 0.050174214 0.23575118 -0.086611316 0.22894679 -0.065595716 0.06371174 -0.11744444 0.02663829 0.10174042 0.098142974 -0.094434015 -0.1787073 -0.07276176
69 -0.11505172 -0.21029405 -0.107687674 -0.08825037 0.07239431 0.0059949174 0.08473605 0.076422475 0.008464877 0.025413284 -0.075599454 0.21773823 0.012843937 0.009719442 0.0021293843 -0.13894257 -0.042432074 -0.064912185 0.10527177 0.11976227 0.07855643 -0.025966149 0.06527918 0.057688337 0.067513615 0.031703945 -0.12861028 0.004656025 -0.025806133 -0.03527348 0.051727824 -0.0055399057 -0.20494822 -0.046489485 -0.0711058 -0.121234484 0.08523032 0.15919216 -0.03800187 0.03973098 -0.19093913 0.15013236 0.1771935 0.013500415 -0.104507945 0.21748981 0.12853752 -0.017818432 0.047158636 -0.06641917 -0.09992229 0.04028637 0.033210877 -0.080845654 -0.07980334 -0.16807762 0.07225795 0.00057839986 -0.15181726 0.006402148 0.092101984 -0.10039102 0.031574756 0.05716612 -0.021670293 0.096560284 -0.1285402 -0.032991342 0.103666715 0.020296128 0.15650041 0.025603574 0.20341228 -0.06508306 0.2181993 -0.074211255 0.06909934 -0.116774224 0.051870733 0.1371707 0.09434183 -0.11894173 -0.19008318 -0.10226959
37 -0.13624184 -0.24757722 -0.14648217 -0.12163591 0.05737035 0.011814947 0.07750741 0.0817358 0.023824796 0.04163135 -0.07638803 0.24257176 0.01228783 0.0069394675 0.024990955 -0.15141034 -0.04256442 -0.051719066 0.062057894 0.090264015 0.0511875 -0.008069915 0.06133437 0.049144983 0.03551173 0.022729853 -0.08067434 0.021436179 -0.013792649 -0.033452418 0.055972796 0.0020444992 -0.17748499 -0.05816573 -0.03963949 -0.096986055 0.060937986 0.1333017 -0.018736351 0.035089497 -0.15251453 0.11995957 0.14301547 0.008107605 -0.10331845 0.19686171 0.12709484 -0.019185632 0.018272402 -0.07347492 -0.09779098 0.055668756 0.045846514 -0.10148406 -0.09295319 -0.1825355 0.068980195 0.0068835528 -0.15271671 0.014946236 0.09538925 -0.12784877 0.022415541 0.06677917 -0.03858412 0.11222375 -0.105341546 -0.023536365 0.105403624 0.026605193 0.18627377 0.05553906 0.23690784 -0.0834591 0.22173667 -0.08548066 0.06704669 -0.10551436 0.03719706 0.118421726 0.08420853 -0.114846975 -0.16089411 -0.07728618
63 -0.07472167 -0.16559862 -0.08854104 -0.08166312 0.07847666 0.008061082 0.0855741 0.07533826 -0.007194778 0.038940076 -0.053560346 0.18713982 0.010705559 0.00879605 0.010051876 -0.1421995 -0.018787988 -0.06166963 0.07603838 0.12682758 0.06818079 -0.021406211 0.031767532 0.07315964 0.07291463 0.03672213 -0.111816265 0.04673779 -0.00035928952 -0.04865108 0.060174305 -0.015973907 -0.17652811 -0.04884551 -0.07018508 -0.09915177 0.07965769 0.15519029 -0.027173169 0.021732675 -0.17941897 0.15456137 0.14378849 -0.011084841 -0.09817607 0.18777189 0.119457886 -0.018078225 0.033322867 -0.07391002 -0.112211496 0.072600365 0.050208177 -0.12002537 -0.045516193 -0.18315072 0.073123746 -0.016763007 -0.13586478 0.0023580678 0.09700599 -0.15675665 0.026239665 0.058639597 -0.058403555 0.123061754 -0.14857405 -0.03080219 0.11818192 0.0400136 0.19316739 0.04840268 0.21286514 -0.081089735 0.2252519 -0.087984435 0.06961253 -0.1058948 0.042853106 0.15192945 0.07676282 -0.12501533 -0.20867585 -0.114593774
77 -0.07522887 -0.20991494 -0.08305796 -0.084211186 0.07571971 -0.006878699 0.08552808 0.080159046 -0.027901936 0.037808407 -0.057104617 0.19766694 0.005200258 -0.0125401495 0.021251844 -0.13820778 0.00083425135 -0.036513064 0.09882449 0.16469592 0.10288387 -0.031472877 0.042856075 0.06877691 0.07780417 0.06728664 -0.10590363 0.04159365 -0.011048582 -0.049765565 0.075223364 -0.033464245 -0.18473275 -0.027129248 -0.08118412 -0.101229034 0.09928704 0.15029946 -0.04523105 -6.565433e-05 -0.19371577 0.18134333 0.16395323 -0.0107830195 -0.09691859 0.19004928 0.117593475 -0.01329757 0.041148815 -0.088290654 -0.116586015 0.084375925 0.046734132 -0.13722041 -0.023518112 -0.16684724 0.084774606 0.003896612 -0.14015348 0.012815386 0.085209884 -0.13930182 0.032991968 0.06685454 -0.07402482 0.08440696 -0.12906887 -0.019636529 0.093184575 0.030817889 0.16884069 0.04562218 0.19060105 -0.051454414 0.21678004 -0.09014984 0.06004362 -0.072193764 0.0513479 0.13539454 0.05357979 -0.121928915 -0.1943635 -0.1074709
65 -0.09835113 -0.18813106 -0.10167199 -0.09538928 0.0687865 -0.0019793091 0.08658466 0.062213667 0.0035819046 0.024031663 -0.063070945 0.18307962 0.019779058 -0.0026801398 0.0086652115 -0.11852035 -0.010340998 -0.038019035 0.0855823 0.15139782 0.06659121 -0.021915367 0.031408273 0.064381056 0.06612694 0.045029365 -0.08413344 0.047016684 -0.0019218563 -0.053206384 0.06830589 -0.015726902 -0.14438757 -0.044086356 -0.071239084 -0.08854323 0.0640614 0.13590823 -0.030545598 0.016618257 -0.16773658 0.16945231 0.14934781 -0.031989135 -0.10512675 0.18287235 0.13286163 0.005739891 0.043263014 -0.09378984 -0.123377755 0.069763355 0.05748028 -0.13141845 -0.041526165 -0.17180376 0.07702118 -0.013402461 -0.13639869 0.014669295 0.06081164 -0.15485668 0.03992424 0.06309684 -0.068786815 0.11455213 -0.11830591 -0.022269623 0.11546201 0.045886017 0.20075108 0.0493273 0.23729676 -0.062035076 0.22167766 -0.08946834 0.06560721 -0.11972196 0.070576884 0.15734902 0.091161095 -0.12200654 -0.2161363 -0.11528853
81 -0.081505254 -0.19069365 -0.0985484 -0.087228775 0.067148544 0.008646987 0.081660785 0.067623556 -0.011629283 0.023300448 -0.07450616 0.180389 0.013948126 0.003730149 0.022624489 -0.14868273 -0.01337988 -0.04445717 0.08446804 0.14898963 0.079796314 -0.019944962 0.04057627 0.06291456 0.07162362 0.037201397 -0.099491455 0.022290489 -0.014307098 -0.042779434 0.07078473 -0.03217505 -0.20259534 -0.04796823 -0.06667788 -0.100970045 0.0840801 0.1369731 -0.028992504 0.022237573 -0.1950526 0.14973228 0.14620665 -0.0044251936 -0.096084155 0.19905296 0.12464072 -0.017019032 0.028786903 -0.07761451 -0.10063526 0.07693219 0.043563828 -0.12427633 -0.04151398 -0.17846937 0.060138404 0.003081062 -0.13543035 0.0009155303 0.086272016 -0.13688378 0.04251157 0.08076946 -0.060320683 0.103512496 -0.1429311 -0.02857088 0.12664616 0.023092117 0.18752044 0.049467605 0.19958419 -0.07599391 0.2186184 -0.08804735 0.060032208 -0.09340863 0.06430558 0.12911665 0.075920574 -0.13015993 -0.19862539 -0.10701232
66 -0.067485526 -0.18484429 -0.10097929 -0.093377225 0.054812603 0.012037329 0.07490738 0.07439681 0.007497065 0.027248953 -0.084475175 0.1999226 0.020409249 0.00080935913 0.03376413 -0.13875204 -0.017367339 -0.03841361 0.07378669 0.1465512 0.07968287 -0.013934594 0.044995286 0.068455085 0.056692384 0.033868317 -0.09447414 0.019682787 -0.01349878 -0.042208537 0.06794261 -0.033247046 -0.19101699 -0.044484448 -0.07425461 -0.09697702 0.08069146 0.13070813 -0.025635775 0.016383786 -0.18281244 0.121945344 0.14827088 0.014198198 -0.090994045 0.21812436 0.12188843 -0.03167875 0.024603834 -0.083217 -0.096989594 0.08350162 0.035145417 -0.12294468 -0.045983646 -0.18664132 0.064641945 0.008307249 -0.14589055 0.013507603 0.094614044 -0.14082026 0.046147894 0.08173084 -0.041880596 0.10596311 -0.1374502 -0.017820945 0.120174676 0.03316032 0.18752599 0.058215015 0.21020451 -0.079515636 0.2214536 -0.09437939 0.06781467 -0.080367446 0.049488667 0.14276111 0.071185745 -0.12329404 -0.19080204 -0.087285265
9 -0.08406576 -0.21406968 -0.11644577 -0.10150805 0.08336338 0.005833121 0.09579904 0.08430401 -0.019385504 0.034189742 -0.05428102 0.19157699 -0.0023331386 -0.023801295 0.025964718 -0.14517447 0.0047736 -0.033756398 0.07024617 0.16488476 0.08926264 -0.013155637 0.04212343 0.055641904 0.06516585 0.055520155 -0.09793281 0.040361278 -0.010068268 -0.037186533 0.080230325 -0.040883925 -0.19211274 -0.0404777 -0.079404905 -0.101709984 0.09549235 0.1477934 -0.054037407 -0.0035632055 -0.19237052 0.16338784 0.16877772 -0.005405529 -0.09654577 0.18263933 0.12660567 -0.018060192 0.024129052 -0.09067202 -0.11689131 0.09239362 0.035151083 -0.1347459 -0.017471408 -0.16503319 0.06948942 0.00077131414 -0.11851347 0.01655535 0.07220399 -0.14720747 0.03830827 0.07213208 -0.07049634 0.08421759 -0.13738523 -0.016245622 0.10963936 0.031632043 0.19791059 0.07255386 0.19774394 -0.073967196 0.2246292 -0.09597284 0.06998407 -0.05148288 0.05136511 0.13597786 0.047186162 -0.11736797 -0.170107 -0.097343214
24 -0.0999583 -0.18537635 -0.0924805 -0.09582364 0.063634224 -0.0059693796 0.0455828 0.07806729 0.023879498 0.030582113 -0.054287914 0.20812507 0.022790015 0.0089394245 0.028230028 -0.13723947 -0.055963043 -0.06786051 0.06372903 0.067550555 0.0745487 -0.018141672 0.07243422 0.066322446 0.054201845 0.040979132 -0.113736376 0.03616492 -0.01402078 -0.03907897 0.05261541 0.0054313643 -0.21392803 -0.060925066 -0.048701126 -0.11599564 0.07196092 0.16268004 -0.0075871004 0.035551373 -0.17694968 0.15158077 0.1707654 0.01597552 -0.12382679 0.23429371 0.12936006 -0.021938821 0.030102417 -0.05990277 -0.101919204 0.052208744 0.028333776 -0.10326499 -0.09796153 -0.20661986 0.091609895 0.014918144 -0.16333929 -0.0076421695 0.12436319 -0.1487635 0.023207137 0.067289606 -0.056547966 0.1293941 -0.09536562 -0.02930856 0.0969716 0.036804356 0.1740367 0.050488267 0.21180935 -0.07755228 0.22318895 -0.07551323 0.07011624 -0.10911097 0.03438156 0.10924923 0.097965606 -0.08620744 -0.17297035 -0.07671882
70 -0.08393268 -0.21297252 -0.11046031 -0.10265882 0.06526389 0.005162451 0.082441114 0.06739501 -0.021389863 0.02685178 -0.066429794 0.15421218 0.002024369 -0.011944412 0.017472045 -0.13648003 0.0044243806 -0.04954355 0.078114204 0.15769416 0.09339717 -0.020282594 0.03841607 0.07253203 0.07756361 0.04691048 -0.0971488 0.05024627 9.288751e-05 -0.046123978 0.074176736 -0.031978864 -0.17579825 -0.050118037 -0.062276065 -0.10234726 0.086031586 0.14816903 -0.03826219 0.0034422071 -0.18602513 0.1591665 0.13339728 -0.010514072 -0.10208349 0.19680876 0.13458604 -0.008486025 0.019409517 -0.089994915 -0.106091104 0.08759233 0.053725217 -0.1364983 -0.025125101 -0.1727926 0.08022342 -0.00082024245 -0.14667362 0.023363255 0.06786317 -0.15534663 0.0464846 0.070419796 -0.07921013 0.10155818 -0.12528424 -0.017847236 0.10857659 0.033043176 0.18930605 0.061560348 0.20148747 -0.074460424 0.21552116 -0.0955936 0.064156696 -0.0818472 0.065778635 0.13349807 0.05955252 -0.13810314 -0.207423 -0.10507173
5 -0.11048412 -0.21274824 -0.119665995 -0.09499138 0.059627082 0.00043766914 0.055009883 0.07113633 0.030394964 0.023548994 -0.046950527 0.22190975 0.0007580783 0.031514477 0.02590319 -0.13989015 -0.052197862 -0.061144583 0.04730464 0.074673116 0.066109195 -0.014440491 0.060344703 0.05720512 0.04852548 0.028626174 -0.11953561 0.018970285 -0.014694645 -0.04252466 0.038241193 0.016475601 -0.17451994 -0.037051644 -0.022350624 -0.09477484 0.056014296 0.15178883 -0.012031705 0.048844825 -0.15926746 0.1291695 0.13985713 0.0119522 -0.12568979 0.23815317 0.13206989 -0.028277326 0.024137538 -0.08308269 -0.1180112 0.050330307 0.05985161 -0.12334368 -0.10626891 -0.22194257 0.09630393 0.009101407 -0.17578599 -0.01933373 0.13523345 -0.15024614 0.028048249 0.070415534 -0.05394084 0.14093016 -0.08970595 -0.04470372 0.099723205 0.027092861 0.16323063 0.04542164 0.21422708 -0.08742879 0.22795919 -0.06606133 0.067642234 -0.13119088 0.03406638 0.10052493 0.09594639 -0.09686859 -0.18111905 -0.06974331
54 -0.112615965 -0.22242366 -0.12309972 -0.09159305 0.05859994 0.011585132 0.0746563 0.07050409 0.01347281 0.03426712 -0.074689046 0.25108454 0.013036749 0.016160745 0.01702392 -0.15110964 -0.050733984 -0.059358288 0.07832914 0.10106084 0.058612127 -0.019368768 0.05768781 0.07021191 0.07016045 0.030334195 -0.11434603 0.009095506 -0.009858208 -0.036320865 0.044623364 0.0016057467 -0.17676622 -0.054153863 -0.038043704 -0.0984564 0.073098116 0.14049065 -0.017419279 0.03749238 -0.16147794 0.12254129 0.13366961 0.014088103 -0.10270921 0.21104464 0.11634603 -0.01778282 0.027183495 -0.087976106 -0.11446804 0.055565692 0.047945663 -0.119316615 -0.077154934 -0.19914322 0.07304158 -0.008467966 -0.15732415 -0.005015012 0.12346589 -0.14249012 0.029142853 0.07977953 -0.03984755 0.11899235 -0.116023004 -0.03518081 0.1191345 0.03944534 0.17288627 0.04884003 0.19332843 -0.07360905 0.21955614 -0.059528798 0.0663984 -0.1100203 0.037926134 0.12420887 0.08441601 -0.10803608 -0.17335354 -0.091326386
26 -0.09044573 -0.2138211 -0.11271972 -0.09012291 0.05270414 -0.007127098 0.09346525 0.073190406 -0.013634781 0.038575105 -0.085756354 0.2237161 0.012114928 -0.011581853 0.011465897 -0.17004612 -0.027374184 -0.046345517 0.078318074 0.13442558 0.09262903 -0.018801577 0.06726602 0.059336644 0.044777438 0.023971774 -0.08829424 0.010979638 -0.010598673 -0.016591372 0.058877863 -0.01716101 -0.17049493 -0.039520476 -0.0699974 -0.0953691 0.08019483 0.14054295 -0.050853297 0.0011256926 -0.17808893 0.121042676 0.13839976 0.0090341065 -0.10870206 0.22484504 0.12671246 -0.02707472 0.026189279 -0.088334545 -0.10921711 0.080815025 0.05556592 -0.13341492 -0.06964215 -0.18045177 0.07185003 0.008498739 -0.16559006 0.023196448 0.10087667 -0.12552108 0.0393745 0.08419592 -0.056031436 0.0874316 -0.11620048 -0.023941223 0.104884245 0.010348011 0.17195222 0.04647736 0.20522615 -0.06849852 0.22547218 -0.088484004 0.06005875 -0.092503704 0.05835982 0.11897285 0.053952478 -0.12917262 -0.16741258 -0.102423295
4 -0.10880613 -0.16991778 -0.089364946 -0.08582707 0.055865366 0.0016279222 0.04787689 0.07691699 0.045736488 0.033030566 -0.05513319 0.27675682 0.0067063007 0.03690571 0.028129285 -0.16331393 -0.053838264 -0.06672818 0.06681683 0.072936475 0.060716633 -0.019641737 0.066445224 0.06408448 0.057162303 0.027232843 -0.12737007 0.014275662 -0.022743188 -0.040000618 0.039927334 0.004263476 -0.16318929 -0.037859254 -0.021779422 -0.092437655 0.06280756 0.14012437 -0.012939008 0.04332475 -0.16811986 0.11729548 0.17863193 0.028932663 -0.11418567 0.2347784 0.13314039 -0.029733673 0.02593581 -0.08087188 -0.111779496 0.041645013 0.0569416 -0.09577098 -0.12397262 -0.21151435 0.08943903 0.016756313 -0.18243574 -0.014093679 0.13238654 -0.13815294 0.017553996 0.06541271 -0.032236814 0.14780137 -0.10025133 -0.0408445 0.09409083 0.010044287 0.15358154 0.038122017 0.2254814 -0.08247051 0.22060329 -0.06325691 0.07799189 -0.10668772 0.016707571 0.09765577 0.086181864 -0.08557682 -0.140481 -0.051660605
6 -0.14560796 -0.27780363 -0.14993538 -0.12107741 0.08717837 0.005415912 0.11229531 0.09972406 -0.0055648885 0.041050564 -0.05707059 0.21830328 0.00024944308 -0.009184591 0.02380499 -0.15646961 -0.030500729 -0.07612572 0.073811814 0.11274928 0.07531466 -0.032627072 0.059427693 0.07244564 0.081520565 0.03478389 -0.10679839 0.029954996 -0.010169164 -0.02861162 0.061144326 -0.014301071 -0.16083044 -0.0475537 -0.057999786 -0.10321179 0.09077381 0.1649788 -0.03701843 0.0064580995 -0.18824014 0.1626545 0.16324027 0.0033192541 -0.119949356 0.1997089 0.13362414 -0.02099854 0.034534574 -0.06977995 -0.110609196 0.07246477 0.043791316 -0.13034056 -0.055156752 -0.18818185 0.06811985 -0.013459439 -0.13135098 0.0011679002 0.09972823 -0.123689905 0.024403453 0.076399945 -0.046185438 0.08003518 -0.1098577 -0.01133622 0.09890843 0.025189964 0.16262583 0.03940347 0.1612014 -0.05754249 0.17904636 -0.07188965 0.05968777 -0.06549019 0.03312284 0.11467833 0.050652727 -0.08418994 -0.14300308 -0.07819181
21 -0.10388035 -0.18915193 -0.10175473 -0.10068974 0.044586543 0.005462899 0.068871625 0.053507254 0.01175567 0.033964787 -0.06764919 0.19941092 0.0069968225 0.00178009 0.008699149 -0.111258216 -0.020202773 -0.039581433 0.08723345 0.13958596 0.076407515 -0.020022828 0.04036377 0.06802994 0.05220664 0.028191065 -0.072808266 0.012015908 -0.020846045 -0.044167858 0.06609881 -0.013509673 -0.1360123 -0.04778408 -0.065832816 -0.092827216 0.0620028 0.13122825 -0.03705364 0.007740697 -0.17821577 0.15722062 0.14012377 -0.011888367 -0.10952598 0.21271923 0.12870409 0.0030226356 0.05538318 -0.113241225 -0.12600149 0.075011425 0.070579365 -0.1338625 -0.043425653 -0.16873795 0.08243809 -0.013661312 -0.16550636 0.02751631 0.07779872 -0.15086253 0.056691747 0.081269294 -0.05861888 0.10591564 -0.11255731 -0.027105981 0.10933684 0.018696118 0.20263572 0.040216874 0.24535397 -0.05871472 0.24452813 -0.09383161 0.065531805 -0.12226714 0.066936925 0.16082068 0.07005802 -0.12581389 -0.19425333 -0.11227001
76 -0.09443012 -0.21159108 -0.108855955 -0.103306234 0.08162694 0.0030123736 0.09948755 0.06672987 -0.016648822 0.015025094 -0.056648154 0.14940065 -0.0020913845 -0.018458523 0.027931243 -0.1338783 0.005699037 -0.03704149 0.07799799 0.14397301 0.08099289 -0.023015946 0.03143609 0.063820176 0.069531724 0.048764393 -0.09780108 0.036318354 -0.01105602 -0.04615084 0.076716244 -0.045022536 -0.17736591 -0.04138556 -0.072085075 -0.098987065 0.08373534 0.12405968 -0.048477322 -0.011531199 -0.18400508 0.15469705 0.15905213 -0.0071612475 -0.08207298 0.18198478 0.12229757 -0.008308189 0.035472844 -0.09077412 -0.11412049 0.08509774 0.038581666 -0.12673579 -0.021147704 -0.15653613 0.073024176 0.0042322683 -0.11343328 0.021438519 0.05002504 -0.12909053 0.047015965 0.06729154 -0.06838458 0.09767934 -0.14970207 -0.019123312 0.116493255 0.025733247 0.20245352 0.056111008 0.21238711 -0.07430097 0.2443738 -0.10384331 0.07230769 -0.0810994 0.06763991 0.15658104 0.062832296 -0.13033302 -0.21637867 -0.11540782
50 -0.121928304 -0.2241206 -0.13180542 -0.09399134 0.06589984 0.002238851 0.07745194 0.0852335 0.03712348 0.05506451 -0.05384299 0.2806807 0.005186951 0.023642726 0.020791912 -0.14856851 -0.047195572 -0.06508479 0.055343766 0.05722313 0.03165289 -0.027885707 0.04428384 0.03121278 0.044581678 0.014421605 -0.08839026 0.028276391 0.0012317068 -0.037537657 0.023847986 0.029858138 -0.16501264 -0.050079845 -0.01568528 -0.06210171 0.052374966 0.14122722 -0.0026935758 0.045022063 -0.1323075 0.122978374 0.13876592 -0.0019004601 -0.107256085 0.2109631 0.13957582 -0.023069516 0.023880683 -0.08481873 -0.1180114 0.049731653 0.06295556 -0.12214179 -0.1304275 -0.22778879 0.10481969 0.012258438 -0.17620507 -0.003668035 0.14874436 -0.1590257 0.016678926 0.05860303 -0.053188633 0.13946654 -0.105874665 -0.048187826 0.10336008 0.03664532 0.1860232 0.04206507 0.22576453 -0.07881384 0.21601981 -0.06107745 0.07314323 -0.11313978 0.016165398 0.10773713 0.09794488 -0.088550046 -0.17736696 -0.07123097
48 -0.09928915 -0.20906235 -0.116870515 -0.09878027 0.059003834 0.018902924 0.08601417 0.06523496 0.00646329 0.025441708 -0.07054757 0.19737218 0.008143253 0.016856067 0.027721308 -0.14643216 -0.021260973 -0.05168044 0.06414148 0.12860659 0.058752563 -0.010938999 0.02946289 0.059341203 0.058433264 0.025705593 -0.07608482 0.016155962 -0.014999911 -0.045588825 0.055969514 -0.021445038 -0.14758897 -0.049469925 -0.05344784 -0.08970011 0.07658757 0.13025591 -0.027657924 0.022705574 -0.18259674 0.14068092 0.16415335 -0.002107612 -0.10995185 0.22102907 0.14187303 -0.024995552 0.01605868 -0.10154152 -0.10716567 0.092664406 0.05106045 -0.13399799 -0.058872405 -0.2039543 0.06824875 -0.0023869635 -0.15174396 0.007595474 0.083179675 -0.14588155 0.040569562 0.07859692 -0.05460519 0.10119489 -0.12733597 -0.013305521 0.111243255 0.024523858 0.18382584 0.05620625 0.20982994 -0.06938732 0.23107441 -0.0952365 0.061505057 -0.09595244 0.056144945 0.14086768 0.07642404 -0.12023489 -0.17197438 -0.090335384
71 -0.121464185 -0.2616167 -0.15581276 -0.11572966 0.06649902 0.005274161 0.10037849 0.08919229 0.013407619 0.040733896 -0.08869406 0.27138865 0.010462355 0.009655822 0.03554351 -0.16830415 -0.030031173 -0.0436562 0.070890576 0.13116145 0.062411208 -0.0086580375 0.040861968 0.05493183 0.051682893 0.02798682 -0.08038268 0.029990515 -0.0062219324 -0.028065426 0.05479842 -0.011979394 -0.15739033 -0.037252177 -0.040496994 -0.07556171 0.056546126 0.11692253 -0.020561825 0.02336658 -0.15494035 0.11292785 0.13322935 -0.0017654685 -0.0968281 0.19468372 0.12825659 -0.03173509 0.011856367 -0.08399946 -0.10710025 0.07066393 0.044508126 -0.12824908 -0.06340272 -0.19161852 0.060590576 -0.0024249896 -0.14207828 -0.0038507155 0.09909564 -0.12888658 0.022766136 0.077641755 -0.05968214 0.11357734 -0.1229558 -0.027327336 0.11634825 0.02645028 0.18990894 0.064478554 0.2019525 -0.07854062 0.20862466 -0.08345396 0.06720015 -0.08926069 0.046932373 0.11183617 0.07411662 -0.112094425 -0.16547403 -0.083047085
61 -0.09615466 -0.16450065 -0.0955472 -0.08417005 0.04671791 0.011462249 0.051849082 0.0704539 0.0383383 0.028667634 -0.0782184 0.24637884 0.010182406 0.034445062 0.020883387 -0.1471685 -0.03950234 -0.052762035 0.06421816 0.082432985 0.047555327 -0.019246964 0.063958906 0.06230199 0.05206788 0.01491752 -0.107846 0.017057285 -0.017910209 -0.04564083 0.047459275 0.004103035 -0.18515375 -0.055236008 -0.03439247 -0.09362617 0.062438056 0.1224543 -0.0038049507 0.047017157 -0.16602874 0.11961657 0.16431916 0.020882454 -0.100419015 0.22312137 0.123881094 -0.026325515 0.03182269 -0.069988824 -0.09896862 0.045103367 0.05258386 -0.10269952 -0.11789829 -0.20047234 0.078956805 0.012848482 -0.17848973 -0.009383506 0.11055631 -0.15080646 0.032875467 0.07484648 -0.041052125 0.14241058 -0.099335305 -0.040380377 0.10961214 0.031885967 0.16805892 0.048573595 0.24342741 -0.08475076 0.2372849 -0.07235735 0.070675544 -0.12476358 0.039209414 0.12252544 0.11408292 -0.10640563 -0.19291021 -0.07718305
12 -0.117490344 -0.23089197 -0.12035818 -0.10126939 0.075313695 -0.004000452 0.08001258 0.0782229 0.011725459 0.053256292 -0.04845408 0.24806653 0.015139011 0.010452128 0.029348098 -0.14796954 -0.047295637 -0.049594756 0.065694116 0.08385122 0.061512 -0.018991275 0.056911886 0.051126093 0.054378156 0.045312274 -0.0990521 0.039715983 0.0019321403 -0.039409306 0.0558394 0.00065104006 -0.17309768 -0.03689991 -0.049838115 -0.080894 0.053890623 0.14517073 -0.017462993 0.020755053 -0.14558825 0.13906817 0.14711152 -0.0028043427 -0.11189427 0.20997751 0.1271417 -0.025624812 0.031158464 -0.083764076 -0.124453 0.060188033 0.039880946 -0.12752174 -0.089288965 -0.2013083 0.08679796 0.0023796225 -0.14020589 -0.0043039313 0.124441154 -0.14315571 0.005064379 0.06474566 -0.053842466 0.1252266 -0.10947673 -0.031488493 0.11030557 0.044334196 0.18096341 0.057521973 0.19983235 -0.071310475 0.21607436 -0.07012288 0.08242161 -0.096507795 0.03413048 0.12688889 0.063156046 -0.08620377 -0.15885918 -0.079691
10 -0.08091377 -0.20003867 -0.10977622 -0.08424484 0.08151183 0.008961842 0.10635207 0.091295525 -0.0063324915 0.033144422 -0.0639905 0.21678004 0.0034037835 -0.007063463 0.023856359 -0.121977605 -0.0023937619 -0.039980114 0.0863044 0.18026318 0.08725507 -0.016859172 0.03565546 0.07551404 0.08407346 0.055196375 -0.09626437 0.026310954 -0.014197298 -0.04422188 0.062916346 -0.049913317 -0.16340114 -0.028983144 -0.07866825 -0.097860865 0.08560651 0.12635055 -0.049214788 -0.0050772526 -0.19007774 0.15089513 0.16555533 0.005245616 -0.089455225 0.18484253 0.121714264 -0.020328451 0.035840776 -0.097484365 -0.10493968 0.080992125 0.043538082 -0.13992013 -0.012858317 -0.15996447 0.0693599 -0.016227366 -0.13365573 0.004741251 0.077761956 -0.13892414 0.033258855 0.079613455 -0.058364008 0.10053654 -0.15412766 -0.016429262 0.11219293 0.033427786 0.20405582 0.06514329 0.21645564 -0.07241832 0.2282999 -0.09599611 0.06485146 -0.073192 0.054824997 0.15226313 0.048054308 -0.123405896 -0.17034152 -0.08799164
52 -0.118787676 -0.23540609 -0.121890225 -0.116673805 0.076918244 0.0024333925 0.08604355 0.07347945 -0.0031596294 0.030706676 -0.0543801 0.19584797 0.010408976 -0.0014684342 0.015535938 -0.14324965 -0.008689357 -0.046514705 0.09474639 0.14778845 0.07837426 -0.02624493 0.031821117 0.06888635 0.074993715 0.057828788 -0.1094693 0.0339666 -0.0073768133 -0.047776688 0.072618306 -0.017027004 -0.17270786 -0.045242626 -0.058510482 -0.10359985 0.07595594 0.1456036 -0.037247963 0.015044807 -0.1756668 0.16965066 0.1397551 -0.010095918 -0.08637477 0.16592763 0.10703647 -0.0009443742 0.0324819 -0.08682776 -0.10878823 0.062791504 0.045258902 -0.12537768 -0.026397783 -0.14829598 0.07635382 -0.013574453 -0.12376594 -0.0016575468 0.07342302 -0.12964226 0.027864385 0.06566705 -0.06990543 0.09297717 -0.122739546 -0.017201003 0.10275706 0.044991523 0.182322 0.05292941 0.21141668 -0.06502113 0.22462344 -0.094237015 0.0605302 -0.10403542 0.066041775 0.1482802 0.080114566 -0.1337996 -0.20584819 -0.109960645
39 -0.124034286 -0.24544106 -0.14356022 -0.10951585 0.08239088 0.014453897 0.10803663 0.09617248 -0.008360183 0.035659056 -0.07259563 0.21437049 0.0015890563 -0.0059468416 0.028774003 -0.1495976 -0.019127453 -0.052807022 0.043706477 0.11479226 0.06701783 -0.013982761 0.046488483 0.048323553 0.052789968 0.036348667 -0.089527234 0.050835326 -0.0036363732 -0.038047094 0.058649436 -0.02165409 -0.16730148 -0.051060826 -0.05815677 -0.089679636 0.07509266 0.14341265 -0.017445715 0.0071219415 -0.14905094 0.13592553 0.1429076 0.0016483495 -0.10541154 0.19919734 0.13490802 -0.033884216 0.026707778 -0.07722906 -0.1122087 0.076134115 0.04655781 -0.14675798 -0.062038608 -0.20116048 0.07419846 0.0055898014 -0.13850218 0.0055886013 0.09553906 -0.1468418 0.023941891 0.07222571 -0.0615625 0.11231174 -0.11364982 -0.010658961 0.102831155 0.025398178 0.18827645 0.06779762 0.2015403 -0.0755734 0.20962334 -0.07964383 0.05592782 -0.073566794 0.049278453 0.10597153 0.06777021 -0.10439498 -0.15648448 -0.07002583
53 -0.10371388 -0.24682932 -0.13050343 -0.10159559 0.08232319 0.011813779 0.09504976 0.08519283 -0.009325314 0.030376261 -0.0685477 0.24360155 -0.005471514 0.0054838476 0.008708472 -0.16026248 -0.0185325 -0.04800942 0.091384545 0.15635298 0.08350907 -0.03668435 0.040108386 0.049827233 0.066506535 0.035445806 -0.10654812 0.019521179 -0.009287041 -0.0420393 0.051495593 -0.010745484 -0.17042261 -0.041034315 -0.05291443 -0.07894794 0.07663645 0.13837358 -0.039871816 0.009809379 -0.17108223 0.14356974 0.13201281 -0.012726262 -0.10053083 0.19372538 0.13218108 0.0006621802 0.033007026 -0.10133409 -0.115589306 0.07147877 0.0594364 -0.12253447 -0.044519704 -0.18200469 0.090823166 -0.0020721206 -0.16013582 0.01774074 0.09612235 -0.13677627 0.049293797 0.06800138 -0.063034296 0.08951173 -0.11082158 -0.0320598 0.089102566 0.019189402 0.17039663 0.038151015 0.17643598 -0.057503395 0.21360901 -0.06469393 0.056776688 -0.10345156 0.0519803 0.13005081 0.07069691 -0.12307736 -0.19075379 -0.094157726
8 -0.10070238 -0.20232299 -0.09972505 -0.09170703 0.053974025 0.0027259346 0.09045883 0.076349564 -0.0020653731 0.03907714 -0.0760587 0.20537138 0.008772965 0.0015740395 0.012770049 -0.14366975 -0.024024006 -0.04994424 0.08033364 0.11399673 0.07190672 -0.024824988 0.06174823 0.054105643 0.051691424 0.038519233 -0.09560181 0.032378543 -0.012316853 -0.022626953 0.055653427 -0.007403596 -0.16823992 -0.03766894 -0.06775005 -0.095815 0.08103043 0.14147106 -0.016563015 0.02933946 -0.1778741 0.13826813 0.15160419 0.008679306 -0.09880082 0.2160218 0.12874077 -0.02425398 0.036459878 -0.07405923 -0.11037423 0.061381888 0.053545073 -0.11341414 -0.07727798 -0.18089917 0.06411942 -0.0028880178 -0.1598211 0.014226818 0.10018068 -0.13903657 0.03274178 0.07661122 -0.04457358 0.105686165 -0.11267264 -0.041102987 0.11304389 0.025903488 0.18701778 0.04529808 0.21783105 -0.06754793 0.23752853 -0.076138265 0.06661137 -0.1015441 0.048604734 0.1370936 0.07911729 -0.10952968 -0.17500466 -0.09025094
33 -0.08828777 -0.22042586 -0.11244626 -0.092086054 0.07099042 -0.010326391 0.08073328 0.071918696 -0.026611542 0.029990938 -0.05761787 0.16597734 0.0023970918 -0.026741542 0.018171785 -0.14422418 -0.014094 -0.04277076 0.07617238 0.14259577 0.09034003 -0.017395549 0.04665062 0.05377551 0.04550635 0.04065973 -0.07544125 0.029307708 0.0010791491 -0.026240459 0.058265544 -0.020288927 -0.1784532 -0.03165062 -0.06783505 -0.090335 0.07774538 0.1471308 -0.03913568 0.003922057 -0.18606396 0.16514269 0.13373262 -0.008607591 -0.108032 0.20921384 0.11803018 -0.026324416 0.030430349 -0.0885883 -0.11771486 0.089211375 0.04941053 -0.13486408 -0.044161767 -0.17823431 0.07418504 0.0003725112 -0.14682806 0.019944832 0.09576056 -0.13529111 0.035899874 0.077854946 -0.06864517 0.07304706 -0.12576193 -0.027483175 0.11322248 0.02594692 0.18899076 0.051985003 0.19253013 -0.06779719 0.21817842 -0.08549396 0.06929563 -0.08021817 0.06563532 0.13186374 0.055877086 -0.12918992 -0.19323178 -0.12068057
46 -0.100555606 -0.20222747 -0.09907425 -0.08758429 0.060868956 0.015505473 0.057737038 0.073220685 0.026932683 0.034657698 -0.05823487 0.2737808 0.0049009495 0.040732518 0.03570782 -0.17640391 -0.05439268 -0.06258281 0.05846807 0.07700873 0.05712032 -0.025774958 0.0701548 0.0618131 0.052981343 0.029499795 -0.12697795 0.016723974 -0.014177995 -0.043251015 0.03926807 0.008765527 -0.20426019 -0.04216736 -0.01003946 -0.08867375 0.06344548 0.13724972 0.005596725 0.047697693 -0.16226627 0.11424727 0.16608025 0.029502247 -0.10705728 0.23314917 0.12130979 -0.039539006 0.0061135623 -0.07234577 -0.10177397 0.04456888 0.040096175 -0.0991475 -0.122866414 -0.2137154 0.09407585 0.024021251 -0.17722301 -0.031046065 0.14277114 -0.1490743 0.008476584 0.06061462 -0.04575548 0.14581825 -0.10716821 -0.046474293 0.10086121 0.021080958 0.14271888 0.048924632 0.19440953 -0.09211657 0.22358386 -0.05835245 0.07081663 -0.104383975 0.019315468 0.07930217 0.094157696 -0.0944419 -0.15519696 -0.056147773
11 -0.1147342 -0.22697902 -0.113768645 -0.10988294 0.062229015 -0.0008786653 0.07842487 0.0814398 0.023663292 0.024270575 -0.07360455 0.24038066 0.008637744 0.021189936 0.039240997 -0.14703232 -0.04985199 -0.040898528 0.05592987 0.08748154 0.0692357 -0.013016261 0.06069017 0.04849892 0.051922947 0.03715298 -0.10151299 0.0329391 -0.021853939 -0.057189792 0.059239563 -0.005248744 -0.1653278 -0.05087066 -0.03463323 -0.08317667 0.04804387 0.13475135 -0.015010713 0.032237113 -0.16058493 0.13912015 0.1543072 -0.0030497094 -0.10071546 0.199232 0.12804374 -0.005632901 0.020395275 -0.0709399 -0.11477314 0.058117907 0.041805584 -0.09991982 -0.06847928 -0.18409862 0.06935727 0.0008929471 -0.14917661 0.010156976 0.0936491 -0.13570437 0.035679225 0.05241703 -0.05404051 0.13158584 -0.11406076 -0.039473042 0.1117849 0.023883574 0.18352453 0.046992537 0.22958292 -0.07747088 0.22299397 -0.07934475 0.0702581 -0.124313205 0.050488044 0.11913787 0.09682651 -0.09860615 -0.18608837 -0.09408102
62 -0.07164894 -0.16928469 -0.09148189 -0.09598457 0.061027817 -0.0020189576 0.07719572 0.07605774 -0.001859047 0.036217738 -0.073318586 0.18116133 0.018431967 -0.008239867 0.014626678 -0.1330151 -0.008209337 -0.04828035 0.08256295 0.13879752 0.07889286 -0.015604248 0.050179783 0.08091822 0.06312096 0.03684841 -0.09123525 0.046704154 -0.0067677856 -0.043968346 0.08146506 -0.028513895 -0.18661664 -0.05652405 -0.0819428 -0.10080495 0.06828677 0.13316432 -0.017144656 0.0060167005 -0.1906016 0.14197238 0.15509789 -0.0021152769 -0.101896785 0.19487822 0.12942022 -0.013273852 0.037856866 -0.076079845 -0.10165943 0.08704858 0.03429745 -0.12559304 -0.045267776 -0.1929286 0.073075905 -0.0013424723 -0.14937863 0.031944223 0.07963163 -0.15915869 0.04236124 0.07813715 -0.07506364 0.109544374 -0.12148223 -0.01648426 0.11909248 0.045604147 0.20906606 0.06690781 0.22341548 -0.06650654 0.21428089 -0.09664053 0.074170716 -0.08356396 0.045983866 0.15343295 0.06652008 -0.1136514 -0.18938638 -0.104889035
31 -0.0903925 -0.21713893 -0.09417794 -0.08199827 0.064288564 -0.0122503145 0.081658505 0.06749532 -0.029505182 0.020055922 -0.05470041 0.16603564 0.012250997 -0.016893664 0.015476518 -0.13698284 -0.020597035 -0.040610645 0.080579825 0.15264164 0.08377366 -0.034180604 0.046604708 0.052985076 0.060359 0.060373098 -0.08840506 0.053195845 -0.002139073 -0.03900193 0.061107524 -0.014995674 -0.19377865 -0.036130767 -0.059046093 -0.08012549 0.07624984 0.16237427 -0.03031275 0.0047722245 -0.18151051 0.17114843 0.15738639 -0.017644903 -0.11472417 0.20128034 0.1327276 -0.014207787 0.025649063 -0.08762344 -0.1386766 0.08187097 0.045072097 -0.13563259 -0.040513117 -0.18669102 0.081305996 0.008071429 -0.1434658 0.005461636 0.091688156 -0.14591709 0.038436063 0.050903406 -0.079333715 0.08807194 -0.13654248 -0.028324757 0.10331322 0.029438982 0.18172117 0.04557299 0.19277443 -0.0609643 0.21066473 -0.08227578 0.06834148 -0.087735526 0.06947736 0.11315296 0.06710559 -0.1203421 -0.18507484 -0.109862514
23 -0.10697478 -0.21145682 -0.12449045 -0.09702393 0.064872175 0.010614844 0.083462544 0.07444729 0.0012880398 0.029430592 -0.068535335 0.22214428 0.0045699957 0.009803055 0.020636477 -0.14548986 -0.029167634 -0.035479303 0.08053075 0.13607055 0.068629116 -0.013816625 0.04592967 0.07294037 0.07107914 0.042719476 -0.11276987 0.011571981 -0.024874184 -0.031620488 0.0630956 -0.014462347 -0.16912481 -0.0456854 -0.055688642 -0.10084848 0.07174417 0.12191279 -0.04570863 0.025178714 -0.15692155 0.12073036 0.14098069 0.012973533 -0.08247479 0.18614027 0.10755723 -0.01220921 0.01807428 -0.094720095 -0.11295096 0.06993386 0.04544218 -0.1312361 -0.044154126 -0.18729855 0.06422326 -0.008711724 -0.13919903 -0.0077970913 0.096741654 -0.13133103 0.038471058 0.08450127 -0.040142108 0.10684859 -0.13149059 -0.014705798 0.1284116 0.04526703 0.18467365 0.06109662 0.22362424 -0.07845793 0.21659611 -0.09770488 0.074670486 -0.09475625 0.050758492 0.14703204 0.07531065 -0.122286975 -0.1693189 -0.09164363
47 -0.12292994 -0.22036313 -0.12421316 -0.10261087 0.046004415 0.0074199517 0.063249454 0.08001162 0.004483911 0.036420822 -0.07139795 0.22716828 0.009222177 0.01629949 0.027937675 -0.14112537 -0.037533082 -0.057790674 0.06034344 0.09440089 0.056641374 -0.017377324 0.05791739 0.0698792 0.058388297 0.024440331 -0.094457656 0.035544444 -0.015134554 -0.043196704 0.054797072 0.01218207 -0.1664517 -0.057417687 -0.036830265 -0.09153336 0.06960107 0.15140982 -0.019000884 0.0390527 -0.17447309 0.1374882 0.1510608 0.011303423 -0.11004617 0.21087416 0.13065517 -0.022829933 0.015751826 -0.07748729 -0.10237189 0.06508856 0.052597664 -0.1367531 -0.08009921 -0.2121721 0.07449322 0.0043990323 -0.16917458 0.0040447325 0.10561524 -0.14536814 0.029527105 0.06754029 -0.05086535 0.10471407 -0.09086031 -0.015142786 0.0916547 0.0374855 0.17019717 0.04654409 0.23031974 -0.06415255 0.20185408 -0.08542894 0.04847247 -0.104084924 0.04269769 0.114956066 0.08925965 -0.11317225 -0.16862777 -0.0788389
20 -0.1365299 -0.26005495 -0.13303436 -0.102101475 0.061516814 -0.009174622 0.10181362 0.08931922 -0.015113351 0.03055474 -0.0657915 0.22350444 0.0072440575 0.005631382 0.027135279 -0.15380758 -0.04421107 -0.05175035 0.07076517 0.09816302 0.0763762 -0.02360089 0.0551608 0.060374893 0.0639161 0.04238884 -0.08781312 0.027677333 -0.017518021 -0.026271738 0.043745115 -0.0040343395 -0.16191205 -0.037959702 -0.028177729 -0.08373908 0.08571805 0.14746654 -0.040642194 0.012154755 -0.17152674 0.13781703 0.1380453 0.004024521 -0.10082102 0.19310321 0.13276105 -0.01149745 0.016335728 -0.087878704 -0.12780619 0.071093336 0.05680946 -0.1452142 -0.062326863 -0.2048999 0.077523984 -0.0058842264 -0.1607712 -0.008650733 0.13040654 -0.124059625 0.019672042 0.06964866 -0.0542932 0.093229696 -0.11970225 -0.01761857 0.09521056 0.029357294 0.14859341 0.03417304 0.18367219 -0.06389676 0.20346327 -0.07479615 0.052940007 -0.1016384 0.043670245 0.105590746 0.07914382 -0.12338413 -0.16835837 -0.09390277
49 -0.07414857 -0.17795025 -0.08186289 -0.08247459 0.07034136 0.0003676344 0.083357126 0.057365052 0.009355437 0.023898883 -0.06043921 0.1851112 0.0014906412 0.002413616 0.016216924 -0.13714032 -0.017543195 -0.05579597 0.09061699 0.15289997 0.08504492 -0.029352326 0.04035677 0.059300624 0.07622813 0.036420938 -0.11215573 0.010145659 -0.019148417 -0.048843388 0.062108688 -0.0374762 -0.1590899 -0.03781596 -0.073188886 -0.09893512 0.084462605 0.13947922 -0.05271783 0.0055684806 -0.19352373 0.1577123 0.16434442 0.00040085852 -0.09429725 0.20291068 0.12447973 -0.0028625054 0.038770825 -0.07804673 -0.11238357 0.06881598 0.057847902 -0.103637196 -0.047664862 -0.15264842 0.07351291 0.005210165 -0.13558823 0.010171206 0.07345037 -0.13482735 0.051086105 0.06629324 -0.059505105 0.110079676 -0.14288479 -0.02958274 0.11642549 0.0155276535 0.17442851 0.03217562 0.22335038 -0.07463184 0.23993137 -0.09131927 0.069717966 -0.118681416 0.06743104 0.14892186 0.07345314 -0.13457465 -0.21315761 -0.11337652
40 -0.093617596 -0.19444004 -0.0943555 -0.08132782 0.07081281 -0.0063459408 0.069686584 0.07846038 -0.015608879 0.029231552 -0.045431595 0.16360281 0.008188324 -0.024372239 0.017157858 -0.121144146 -0.007729515 -0.058048777 0.08546351 0.15094906 0.096333005 -0.028492695 0.05788555 0.082183205 0.07476397 0.06308846 -0.09940286 0.04062137 -0.016305994 -0.034658223 0.060471546 -0.017417502 -0.177754 -0.026130905 -0.057062715 -0.097437225 0.07532457 0.1477208 -0.029454492 0.001540448 -0.19287425 0.17269036 0.14670251 0.0035797297 -0.107886985 0.19988528 0.11480385 -0.030076014 0.0353765 -0.0753877 -0.11984512 0.070112474 0.04690398 -0.1498814 -0.03254261 -0.19016455 0.08280981 -0.0028083597 -0.14923878 -0.010560419 0.10503904 -0.14407495 0.023985 0.074511625 -0.06713036 0.08913224 -0.14301693 -0.020841524 0.10369519 0.043431938 0.17861758 0.052337892 0.20666048 -0.07504711 0.22107506 -0.098283276 0.06630952 -0.073238544 0.05073405 0.13323864 0.0562199 -0.1272958 -0.19506328 -0.10423522
80 -0.07529012 -0.20202422 -0.099457964 -0.07581586 0.06391217 -0.0028461625 0.08348751 0.07435624 -0.015667127 0.030711884 -0.078866236 0.20537224 0.020075213 -0.0012380016 0.017823074 -0.16788112 -0.019906221 -0.035655167 0.08213312 0.15760395 0.09806234 -0.02736282 0.048322216 0.056152523 0.07824482 0.05233428 -0.12419169 0.035584588 -0.003763756 -0.048006177 0.06946832 -0.024665125 -0.20899092 -0.036007363 -0.07576024 -0.09878246 0.08033282 0.15475875 -0.037195366 0.017714065 -0.18965924 0.15154839 0.14546585 -0.0015777143 -0.1044172 0.21054211 0.12994967 -0.029712686 0.035431303 -0.08477297 -0.10882458 0.06364345 0.049272224 -0.124413215 -0.051478203 -0.18110597 0.076980315 0.004877345 -0.16145891 0.0016422136 0.10348428 -0.1400848 0.031227322 0.065381035 -0.057421606 0.09855145 -0.12045999 -0.032382477 0.09795328 0.022601899 0.15129724 0.043201122 0.1853145 -0.06307733 0.1751734 -0.08170778 0.04640179 -0.09197268 0.06307441 0.099724375 0.071684875 -0.12950937 -0.19198455 -0.1029009
68 -0.12010808 -0.22826517 -0.14520912 -0.09968556 0.082606494 0.0059209927 0.081512235 0.08877036 0.008426775 0.03205285 -0.062848814 0.2500939 0.01296834 0.011711208 0.024233928 -0.15793051 -0.048178874 -0.05582477 0.065217085 0.105222 0.056529064 -0.021153763 0.04879888 0.050944913 0.051480714 0.037023664 -0.11177682 0.037911512 0.0022597152 -0.034776777 0.039254375 0.011507845 -0.17929806 -0.03995858 -0.03181799 -0.08311104 0.057480153 0.14375743 -0.015925368 0.036791213 -0.1465548 0.12917522 0.135798 -0.00324258 -0.097184494 0.19960885 0.12809138 -0.01322092 0.014581312 -0.076327205 -0.11011374 0.050436594 0.03622811 -0.12483208 -0.09018961 -0.20564048 0.090777405 0.003255369 -0.14522953 -0.012823879 0.13158143 -0.14548123 0.021551887 0.068488106 -0.048914757 0.13570759 -0.12275985 -0.030282428 0.11571447 0.06001214 0.18312472 0.054015417 0.20402455 -0.08158738 0.20533378 -0.06572108 0.073057085 -0.104435354 0.028276227 0.11801878 0.09341438 -0.09271987 -0.17743173 -0.07709463
74 -0.113423645 -0.24443167 -0.13682796 -0.1197294 0.07979929 0.0142848445 0.0903457 0.08170483 -0.02915601 0.023259684 -0.07180997 0.20638338 -0.003572652 -0.0009133588 0.038731128 -0.1818793 -0.0039336067 -0.043910313 0.08271493 0.14212431 0.07960899 -0.015981926 0.04935583 0.07836332 0.060610183 0.053972173 -0.09633396 0.050973423 -0.006978313 -0.037655976 0.07900265 -0.021811778 -0.18716231 -0.045817208 -0.050587893 -0.09660293 0.08323225 0.13267271 -0.0439414 0.008378775 -0.1876744 0.15814036 0.14504558 -0.0020586217 -0.088081785 0.1845179 0.12192752 -0.018599754 0.016759405 -0.08492209 -0.10611213 0.08604871 0.0373202 -0.12731458 -0.040653773 -0.17843892 0.06696828 0.016286563 -0.1335596 0.018435623 0.057239812 -0.12816083 0.03519949 0.06442575 -0.07852481 0.07961089 -0.111998506 -0.017842079 0.09266623 0.020642964 0.18408453 0.060668826 0.194065 -0.065443724 0.23171137 -0.09332805 0.057406384 -0.08693323 0.07626909 0.1296118 0.055207398 -0.12731871 -0.18737648 -0.08660721
7 -0.124941 -0.24834755 -0.14747655 -0.10926502 0.0664511 0.0136918705 0.069625586 0.08863686 -0.0020859686 0.028614337 -0.05252011 0.22394536 0.00037723017 -0.00270063 0.033763085 -0.1348387 -0.031110877 -0.048284706 0.06874861 0.121923186 0.08053508 -0.023278207 0.06027546 0.06777848 0.06641288 0.06032221 -0.11058876 0.029862609 -0.018799419 -0.026902266 0.058065817 0.00029366676 -0.18153995 -0.035359707 -0.047039665 -0.10070912 0.07812334 0.14721663 -0.03995484 0.029053742 -0.18017738 0.15326752 0.15710118 0.014333058 -0.114503175 0.2111859 0.12529758 -0.021094956 0.023477113 -0.092978984 -0.11808284 0.05959417 0.03817424 -0.1342052 -0.05480647 -0.18850705 0.07570394 0.011263309 -0.14687933 -0.008317515 0.11075251 -0.13565367 0.029436214 0.081646495 -0.04921565 0.0873177 -0.10109305 -0.014998203 0.094284154 0.029181879 0.16401479 0.061075106 0.1958789 -0.06920046 0.21860427 -0.07723746 0.06365257 -0.08711066 0.053856645 0.11650744 0.06881845 -0.10788302 -0.15603623 -0.06571497
15 -0.11221432 -0.1795205 -0.11312229 -0.09436861 0.05949765 0.009155079 0.04823527 0.064012125 0.052359737 0.034823097 -0.03790893 0.24229327 0.0043674107 0.04151587 0.038833506 -0.13299133 -0.06655697 -0.05746435 0.021994647 0.027830934 0.04035987 -0.009545095 0.06348036 0.028748909 0.024226155 0.023765955 -0.108422585 0.026234671 -0.012190386 -0.04130876 0.03470699 0.0369728 -0.16388191 -0.05025555 -0.009201316 -0.078171514 0.030364126 0.13589 0.012025149 0.055215828 -0.13052157 0.115031965 0.14518055 0.010117733 -0.118077934 0.22803761 0.13063829 -0.030736446 0.016798172 -0.073101096 -0.12423483 0.037553538 0.04496193 -0.11746666 -0.13378572 -0.23855709 0.09752677 0.0038844047 -0.16522089 -0.022207862 0.16151828 -0.15737425 0.010029419 0.06471437 -0.05271055 0.18547206 -0.10332665 -0.049399015 0.12359188 0.04801982 0.20627058 0.06736839 0.24715617 -0.112439476 0.24295904 -0.06842336 0.09228473 -0.13274407 0.015839664 0.101915814 0.116190776 -0.08160506 -0.1771439 -0.05457796
57 -0.120007604 -0.23324278 -0.14062326 -0.106247656 0.0699007 0.009379463 0.07513655 0.0792094 -0.004569239 0.027227053 -0.05612372 0.2314026 0.003302589 0.02504079 0.03302513 -0.17979215 -0.042414457 -0.044051122 0.055244584 0.09610306 0.059176084 -0.01558641 0.054553844 0.05363533 0.053567387 0.039898925 -0.11310376 0.035628896 -0.009729735 -0.04221683 0.05306125 -0.00094801444 -0.19028626 -0.04589395 -0.033871613 -0.09048698 0.057209753 0.13626817 -0.03345835 0.0305371 -0.15735783 0.13107947 0.13830936 0.003308617 -0.094580375 0.1934692 0.1159974 -0.017898025 0.011308287 -0.08267543 -0.12549832 0.05622883 0.042776685 -0.13154495 -0.071164645 -0.20247838 0.07828655 0.008587054 -0.13663007 -0.008957119 0.10509651 -0.12274755 0.01812644 0.057064205 -0.062110417 0.12632135 -0.120692655 -0.027554538 0.107291676 0.037011396 0.17282112 0.054959208 0.21481678 -0.084956095 0.22649577 -0.08048963 0.060893442 -0.11618572 0.056741696 0.11377097 0.0898254 -0.10848537 -0.17768838 -0.08249345
14 -0.115434445 -0.18425329 -0.10136515 -0.098222174 0.053343613 -0.0026726162 0.054110516 0.07986456 0.047655124 0.04502272 -0.06089268 0.27792868 0.016398914 0.033994403 0.045418262 -0.13548048 -0.07420874 -0.05363834 0.038722273 0.026959604 0.039928973 -0.0030846484 0.065275006 0.037827164 0.022649415 0.028045986 -0.09378181 0.03953067 -0.017787647 -0.029851345 0.041662186 0.030243503 -0.17956214 -0.042830784 -0.0048077246 -0.07741535 0.037102927 0.13666931 0.0076657436 0.055648025 -0.139269 0.102191366 0.15858543 0.017281083 -0.10970046 0.21795467 0.13271633 -0.025487304 0.004064779 -0.058478445 -0.12103497 0.036394645 0.034861736 -0.102999985 -0.12862578 -0.23224157 0.081165574 0.02122894 -0.16692966 -0.0266627 0.1578067 -0.15886213 0.0045752763 0.05146684 -0.051800463 0.17647983 -0.10704 -0.054641787 0.12659729 0.0427219 0.19673349 0.059180256 0.25332332 -0.10024249 0.25261074 -0.06750596 0.089928634 -0.12206911 0.018090012 0.09472387 0.110100076 -0.075792186 -0.15678117 -0.054381102
58 -0.14498818 -0.23952979 -0.14261054 -0.10459563 0.05252708 0.013952658 0.06812827 0.077735566 0.050513882 0.04631866 -0.056659017 0.32931533 0.008494538 0.063998885 0.029640138 -0.17050746 -0.08540624 -0.047316052 0.06128912 0.030789051 0.036936983 -0.030380763 0.06423314 0.041385412 0.057575602 0.018740943 -0.13472615 -0.00571449 -0.023767877 -0.031262122 0.030678742 0.03731451 -0.1733036 -0.046485238 -0.009170233 -0.08781492 0.050391674 0.14163522 -0.019122003 0.06671912 -0.14179896 0.09132661 0.13858756 0.02110352 -0.103239715 0.21431935 0.11820775 -0.005908236 0.022019368 -0.09751519 -0.12546004 0.023685606 0.056083836 -0.09624314 -0.13123815 -0.213093 0.08847436 -0.0027397166 -0.17769891 -0.023680814 0.17382789 -0.13351749 0.010268848 0.06887181 -0.026604133 0.15016258 -0.08736595 -0.05371193 0.108550385 0.038157813 0.13404515 0.0280251 0.21450748 -0.084534094 0.21456775 -0.054780737 0.06270326 -0.15344201 0.015111408 0.09956045 0.11466058 -0.09135406 -0.1558074 -0.058878984
55 -0.11836466 -0.21074104 -0.11378874 -0.095816694 0.060073838 0.014310054 0.06009055 0.08109678 0.049096137 0.052192748 -0.06407522 0.35655457 -0.006298193 0.041959684 0.017751709 -0.19182344 -0.06443641 -0.06207285 0.0897946 0.07116195 0.060837634 -0.030509956 0.07058477 0.08012549 0.06684833 0.018015277 -0.13227479 -0.009319348 -0.021478543 -0.02587149 0.03773604 0.010634922 -0.1752487 -0.043037668 -0.007735767 -0.08603418 0.06551588 0.118924834 -0.021262674 0.030604668 -0.15727739 0.099694856 0.15829705 0.030898923 -0.096503794 0.22009091 0.111558095 -0.011428758 0.033177864 -0.08967351 -0.111740015 0.035133217 0.06487595 -0.09585703 -0.12199409 -0.20095731 0.09202668 0.011831651 -0.18704529 -0.017714994 0.15251549 -0.12632856 0.015817419 0.07569692 -0.030018957 0.14425378 -0.08328545 -0.03926563 0.08505692 0.0053051435 0.1366711 0.029767677 0.19348432 -0.060011003 0.22129531 -0.040040463 0.06832954 -0.12252526 -0.0028283228 0.106338255 0.089721546 -0.09976101 -0.1519148 -0.07097979
43 -0.11997649 -0.1961517 -0.12880899 -0.11092498 0.058958147 0.004135965 0.07330955 0.08036117 0.03691658 0.037325837 -0.06199846 0.23405881 0.0041285777 0.029505525 0.050469454 -0.13338391 -0.055569403 -0.043563902 0.015484173 0.05255343 0.032935776 -0.00082671054 0.053485483 0.029729305 0.038825262 0.032577068 -0.09652754 0.052911263 -0.009085516 -0.05247653 0.06318716 0.013114079 -0.17868441 -0.053106558 -0.025387434 -0.086332306 0.04114712 0.1488707 0.0105160745 0.05330125 -0.1566044 0.1304185 0.16424923 0.0021428757 -0.13085082 0.22250108 0.15595712 -0.029030139 0.009868799 -0.08712674 -0.119488336 0.06864005 0.04873057 -0.12011609 -0.11247932 -0.23405118 0.08180311 0.0044328924 -0.16187201 -0.0032248732 0.11921696 -0.16374066 0.016459944 0.072197765 -0.04687278 0.14905532 -0.09601594 -0.04003889 0.12089176 0.042679425 0.20708443 0.07381068 0.2441265 -0.094625175 0.2174592 -0.078348964 0.07212688 -0.11669344 0.030428933 0.11425427 0.09980103 -0.06940664 -0.1489329 -0.049013723
60 -0.11684698 -0.21578117 -0.111331366 -0.09611985 0.060287844 0.0016355743 0.06544291 0.08023791 0.022690497 0.039141346 -0.060224086 0.24100494 0.012038576 0.015819587 0.007879045 -0.13404419 -0.05443319 -0.069600515 0.0716715 0.08183053 0.069768935 -0.0377286 0.06371349 0.06159661 0.057997655 0.032061 -0.10628793 0.027057445 -0.0075120777 -0.040423505 0.03976846 0.017786372 -0.17157187 -0.04337319 -0.047695916 -0.10254741 0.07416895 0.16063604 -0.007870018 0.044076044 -0.17040247 0.14675203 0.1533355 0.0054614847 -0.12781133 0.23346545 0.13202304 -0.01589298 0.04251754 -0.07031587 -0.11156769 0.037381202 0.058443915 -0.12087797 -0.10290353 -0.214655 0.09868834 0.0023992092 -0.18342942 -0.008380363 0.13733095 -0.15450118 0.023099363 0.066014834 -0.04695958 0.12653029 -0.08275669 -0.032728918 0.08330619 0.03792015 0.13773933 0.027924264 0.20356926 -0.056524374 0.20541069 -0.060792252 0.055288263 -0.11901081 0.0273704 0.10558934 0.10249165 -0.0914461 -0.17123745 -0.09181334
36 -0.10918553 -0.23700768 -0.12057094 -0.10216566 0.06373453 -0.0010853128 0.101571515 0.07236919 -0.017652858 0.037703052 -0.06376469 0.18456095 -0.0040371297 -0.016862098 0.0219635 -0.11828811 -0.004331544 -0.042949658 0.076170966 0.1491007 0.06672331 -0.01365327 0.031881522 0.059156913 0.061508395 0.033449546 -0.060032435 0.027637465 -0.009757327 -0.03925613 0.065419115 -0.030268224 -0.12851228 -0.040527858 -0.056869816 -0.06804045 0.07349714 0.1264948 -0.049115274 -0.015482793 -0.15419276 0.15192199 0.14021063 -0.01571461 -0.095916584 0.17725728 0.13618656 -0.0029029385 0.037844118 -0.10053429 -0.12003414 0.0895241 0.051195435 -0.14898777 -0.020348916 -0.16231035 0.0727647 0.0039339648 -0.13734701 0.024559582 0.069455996 -0.15414591 0.048846334 0.078062005 -0.08426566 0.0911461 -0.14375578 -0.015153611 0.123549305 0.02266154 0.21398874 0.05537968 0.23432621 -0.059092388 0.23983976 -0.10207506 0.062283587 -0.086945504 0.074656814 0.14740556 0.05759935 -0.13360487 -0.19338174 -0.11650527
42 -0.11594808 -0.20008624 -0.109628186 -0.088827774 0.060926642 0.0084401425 0.06584305 0.06864804 0.024390854 0.03819151 -0.053937744 0.24019228 0.0012092193 0.029421179 0.026371045 -0.14508806 -0.050723586 -0.060923982 0.07647396 0.0768852 0.057459112 -0.03382534 0.06137179 0.061587453 0.065036856 0.023458669 -0.118314065 0.019367212 -0.0180624 -0.0336195 0.0451682 0.013349514 -0.17120731 -0.039216504 -0.034352608 -0.089309394 0.07619091 0.13990784 -0.020050362 0.041204296 -0.1696827 0.13294983 0.15373124 0.013993049 -0.103437625 0.22643967 0.13065132 -0.016710242 0.028912308 -0.077570975 -0.112495594 0.044478144 0.05422029 -0.104777634 -0.10425628 -0.20032306 0.08491785 0.010133591 -0.16574761 -0.010205005 0.12936155 -0.12604357 0.015804391 0.06710401 -0.040424094 0.1241663 -0.1114998 -0.0404728 0.10023536 0.02748918 0.15514192 0.030576952 0.20977221 -0.066452384 0.23150714 -0.06665382 0.055873126 -0.11789602 0.032158304 0.12039215 0.09156908 -0.09921003 -0.1883136 -0.079094626
79 -0.10681428 -0.2525185 -0.12899715 -0.113638714 0.07634721 0.001581047 0.08478439 0.07387804 -0.027257621 0.020837383 -0.057254717 0.16233669 0.0087071005 -0.018171296 0.01762083 -0.14397177 -0.0069292462 -0.047720693 0.0947493 0.16561416 0.086337894 -0.029564224 0.038547244 0.06728235 0.062298685 0.05362051 -0.08540295 0.037303176 -0.00463267 -0.040495362 0.0574654 -0.020911636 -0.17273664 -0.037371743 -0.06860933 -0.09081396 0.08136715 0.13798757 -0.042244405 0.004905843 -0.17404364 0.1669084 0.1424498 -0.013849887 -0.09425404 0.18636814 0.11932093 -0.0048200176 0.034079988 -0.08802342 -0.11322238 0.07236082 0.035385657 -0.12514049 -0.02562472 -0.16424248 0.07266498 0.007968008 -0.12564206 0.008693798 0.06509661 -0.13659912 0.043701954 0.06411739 -0.072588414 0.07888205 -0.134742 -0.022430252 0.11359228 0.03127197 0.18778788 0.05061863 0.20513001 -0.06702062 0.2235878 -0.09184031 0.06851311 -0.0860647 0.07009997 0.13539101 0.06739882 -0.12256865 -0.186961 -0.114656135
73 -0.09143693 -0.21279679 -0.09626915 -0.10655581 0.08218528 0.014565293 0.108793564 0.09036173 -0.021157471 0.027668756 -0.086693674 0.20126304 0.0042273235 -0.003401924 0.008680556 -0.15509135 -0.0034202894 -0.06926974 0.095179565 0.17109245 0.090532705 -0.03525588 0.040804114 0.07936248 0.080672994 0.031264544 -0.10049001 0.04889021 -0.0029896211 -0.052801147 0.062341765 -0.03276748 -0.1497142 -0.053757768 -0.07863144 -0.096585065 0.0795494 0.13272402 -0.035756372 -0.0036181682 -0.18770544 0.14702313 0.1539946 -0.008346324 -0.092756785 0.1933962 0.13434182 -0.0091322595 0.04287466 -0.07060385 -0.09744305 0.08225359 0.04687167 -0.112750955 -0.029391306 -0.16842808 0.070106514 -0.0026983693 -0.14148766 0.031365056 0.05339613 -0.14876547 0.06291683 0.061430834 -0.06985235 0.10347307 -0.13226719 -0.019558288 0.11116956 0.023426905 0.19734508 0.042502254 0.20789024 -0.051618043 0.21435367 -0.10434658 0.058628127 -0.085015066 0.061593466 0.14558747 0.06905175 -0.128426 -0.20400907 -0.11709561
30 -0.11792923 -0.27532658 -0.1605212 -0.11750731 0.08065724 0.016221087 0.1353478 0.085042335 -0.042918578 0.041737057 -0.08272947 0.16264287 -0.00710763 -0.040328074 0.018849252 -0.15332733 0.029462285 -0.052255616 0.076926336 0.19272684 0.080186814 -0.016249157 0.024210926 0.054178577 0.080165744 0.038605236 -0.05756046 0.051121633 0.003627745 -0.03542382 0.08195454 -0.06436238 -0.1566917 -0.055123035 -0.09333524 -0.087241225 0.10060999 0.15727766 -0.054996673 -0.027075358 -0.17451666 0.17220078 0.14168914 -0.010892017 -0.08804608 0.159916 0.13845713 -0.022716036 0.02561945 -0.09086144 -0.09693456 0.106768414 0.04454289 -0.14689253 0.0043404964 -0.13601543 0.04670826 -0.0051723425 -0.098758124 0.045501705 0.029695693 -0.13768966 0.058321033 0.07823903 -0.06943267 0.05022599 -0.15254293 0.0035366341 0.11066223 0.013143893 0.21345104 0.07535512 0.18769793 -0.058557738 0.21623375 -0.11505912 0.05384296 -0.04841419 0.08171057 0.15578969 0.02188644 -0.14705299 -0.19268806 -0.10738338
72 -0.1093327 -0.26406488 -0.14996323 -0.123838834 0.07942135 0.007740535 0.118586704 0.077292874 -0.03674911 0.020512225 -0.07530356 0.16231449 0.00119912 -0.036607683 0.029945105 -0.13777421 0.016485238 -0.029329153 0.07622586 0.18160695 0.07314501 -0.008083942 0.01362096 0.06442721 0.080185026 0.052409682 -0.06862174 0.05288395 0.001151719 -0.054380894 0.07579558 -0.051918272 -0.16179049 -0.04466314 -0.07654661 -0.089352466 0.0795712 0.12004262 -0.04858008 -0.013967165 -0.17293699 0.17089759 0.11996166 -0.031441864 -0.080927916 0.14866956 0.11926759 0.0012012022 0.021781808 -0.10093597 -0.11169108 0.106380165 0.042757604 -0.14401798 0.0124776745 -0.14930189 0.051213607 -0.0122615 -0.107392915 0.0351169 0.025244366 -0.13752311 0.05136979 0.07591793 -0.07837709 0.07337472 -0.1531284 -0.012157322 0.12411382 0.036286324 0.21645527 0.07135126 0.21601008 -0.066108175 0.2243636 -0.10924705 0.05010961 -0.08124159 0.09165145 0.16539855 0.05911063 -0.13815776 -0.21591224 -0.12753409
34 -0.10784271 -0.26234886 -0.12703383 -0.103631124 0.101463206 0.0028661035 0.13441895 0.09580855 -0.049557235 0.036682945 -0.076726034 0.15919037 0.0033862935 -0.030105196 0.018116081 -0.1384185 0.0248118 -0.050005216 0.10391711 0.19263704 0.09527875 -0.024314215 0.028738445 0.08223172 0.105199106 0.051342987 -0.091024496 0.04336222 -0.01316431 -0.038010783 0.09773593 -0.055685405 -0.19238968 -0.047584936 -0.10504415 -0.11798968 0.12051673 0.16473605 -0.06353337 -0.011729762 -0.21462142 0.19367653 0.16776711 -0.0030929542 -0.09456608 0.16886742 0.13183293 -0.015632503 0.039384104 -0.078955434 -0.10025897 0.103958316 0.04440416 -0.13787895 0.008270552 -0.16561984 0.054091394 -0.015004216 -0.11037977 0.020396952 0.04704547 -0.123269476 0.03732959 0.07370954 -0.062822744 0.03939475 -0.1513241 0.00033988993 0.10595483 0.030040307 0.16665646 0.049232088 0.17142713 -0.043367624 0.18924929 -0.1185238 0.043194275 -0.051895384 0.06712661 0.15575707 0.022733647 -0.13747022 -0.17658244 -0.11464832
56 -0.102751315 -0.14477958 -0.08907974 -0.078554705 0.043156818 0.015460328 0.030001966 0.05302893 0.047967315 0.03864047 -0.057919964 0.29488888 -0.0037845583 0.05746422 0.03043852 -0.1552583 -0.08612142 -0.05123118 0.038141318 0.031459928 0.041422095 -0.024316434 0.08211243 0.03992963 0.03235345 0.019599447 -0.12573984 0.0046792706 -0.029531498 -0.03415594 0.039887745 0.046974275 -0.17380238 -0.047495205 -0.016372794 -0.08573048 0.05174571 0.14390884 0.0054944386 0.07731197 -0.15385874 0.11424682 0.16599882 0.027447153 -0.13035212 0.26254612 0.12672679 -0.03535187 0.033148017 -0.0805121 -0.12078126 0.026972372 0.05468109 -0.10470672 -0.1521547 -0.244495 0.09351465 0.020764045 -0.20433556 -0.02884994 0.16468148 -0.14377384 0.017797885 0.07661433 -0.02624373 0.17068541 -0.071723044 -0.05849715 0.11385929 0.017534781 0.16815999 0.036081146 0.23601778 -0.08669822 0.2280844 -0.05164998 0.075249955 -0.14693126 0.023227304 0.09446074 0.1304041 -0.07186601 -0.16595076 -0.04992791
16 -0.11308939 -0.16266166 -0.081351236 -0.07475029 0.04794651 -0.00013133555 0.037166145 0.07206353 0.067760445 0.046197962 -0.055593736 0.34162265 0.010189047 0.06847316 0.04636085 -0.17427073 -0.11364434 -0.079113945 0.05541541 0.013126348 0.03782074 -0.02863666 0.08774709 0.059666563 0.05785562 0.024887664 -0.14287543 0.013470632 -0.020466698 -0.04565315 0.020756718 0.0486434 -0.18302085 -0.04839235 0.015855074 -0.080479555 0.053287745 0.14494102 0.013938033 0.072766505 -0.15720673 0.107618734 0.17884783 0.033625618 -0.120568626 0.24937764 0.13235924 -0.019643785 0.012940074 -0.06346881 -0.124247134 0.019966945 0.05108037 -0.09967626 -0.1688318 -0.2594861 0.104520686 0.01878499 -0.21246415 -0.051658295 0.20781887 -0.16652331 -0.009633113 0.059524257 -0.014678946 0.188171 -0.08178992 -0.0572455 0.097313285 0.030230587 0.13281018 0.01917839 0.2158015 -0.084124856 0.20956594 -0.033854675 0.07890208 -0.15098448 -0.011149078 0.07330223 0.1330984 -0.06554727 -0.14149942 -0.044791028
27 -0.08911978 -0.23127918 -0.12606785 -0.106761344 0.07746392 0.016360734 0.08142485 0.092269525 -0.008185386 0.03543419 -0.05576845 0.17806475 0.0014696511 0.006764075 0.026493313 -0.13580889 0.0032746275 -0.06147828 0.08523145 0.12488767 0.08408198 -0.028021364 0.03753485 0.08086211 0.07763892 0.03250764 -0.10200506 0.032490246 -0.018601878 -0.034534313 0.061852895 -0.027245164 -0.19694355 -0.058604877 -0.05475129 -0.110858634 0.093278 0.14256227 -0.03765102 0.004236246 -0.19765073 0.1451228 0.14684622 0.00479982 -0.09040308 0.20467445 0.1363325 -0.019659808 0.022171242 -0.076366685 -0.09440747 0.08951798 0.043063153 -0.13374816 -0.04082367 -0.19732091 0.085880175 0.0011408175 -0.14291784 0.011322545 0.09650626 -0.13821462 0.028870255 0.07687394 -0.05828714 0.091208756 -0.13748765 -0.008701477 0.08477085 0.030583067 0.16867031 0.054588042 0.19347224 -0.08088138 0.21810432 -0.09921111 0.064346686 -0.07514106 0.03171341 0.13885239 0.054669864 -0.13663884 -0.18852913 -0.07984339
78 -0.095495515 -0.22737782 -0.11110865 -0.101440914 0.09104848 -0.0026628557 0.12729555 0.08406949 -0.04777804 0.035945434 -0.078945905 0.15105675 0.0068410304 -0.041450266 0.035777286 -0.12052362 0.022244282 -0.038373332 0.082889654 0.18561916 0.07640823 -0.016548404 0.01737018 0.06709081 0.09908508 0.06779674 -0.086128816 0.07419334 0.0018823927 -0.06193331 0.09145559 -0.051578425 -0.17584023 -0.04705349 -0.104020774 -0.098875 0.09600744 0.14962557 -0.043131553 -0.0035104488 -0.18300198 0.1965585 0.16134912 -0.027782245 -0.07970776 0.1403784 0.12523024 0.0019895604 0.03634012 -0.073690645 -0.105399534 0.10158512 0.023187986 -0.1420791 0.014781305 -0.1436817 0.04488265 -0.010608815 -0.09116899 0.024958491 0.031649414 -0.1528346 0.05012811 0.06465534 -0.062864795 0.064922154 -0.1706211 -0.013166863 0.13348033 0.047731813 0.21976484 0.06839246 0.21663252 -0.05628255 0.2098165 -0.113059215 0.050435234 -0.07015023 0.08192536 0.16469416 0.05980391 -0.12712215 -0.2033442 -0.120720245
0 -0.1419126 -0.19728015 -0.11620849 -0.10054457 0.05168336 0.01410956 0.023471128 0.07902587 0.074598216 0.04295315 -0.03636481 0.3271498 0.005112594 0.064836994 0.050654404 -0.15269868 -0.093708254 -0.07556032 0.031739783 -0.008928993 0.022333028 -0.024166156 0.07889664 0.03864033 0.016344398 0.019049697 -0.1074909 0.014924391 -0.031234948 -0.035618167 0.019833958 0.06728201 -0.17544027 -0.049929537 0.034082364 -0.07981115 0.045955516 0.14456739 0.026302647 0.07255184 -0.13690104 0.10528332 0.17592125 0.037417363 -0.13260786 0.253361 0.13863242 -0.034579825 0.0015460482 -0.06065459 -0.12082335 0.00857783 0.048154645 -0.10518405 -0.18734449 -0.2656827 0.108742885 0.038572997 -0.20560656 -0.05041948 0.18841635 -0.15384857 -0.0153316185 0.059569564 -0.03035487 0.18023126 -0.0719591 -0.05369323 0.07864152 0.03229754 0.14209755 0.048206113 0.24528043 -0.09593881 0.22902688 -0.05159231 0.08156573 -0.14830156 -0.007358712 0.0692675 0.13519007 -0.07129609 -0.11885123 -0.007969728
13 -0.10268023 -0.15129432 -0.097483166 -0.089739755 0.036874656 0.0040952247 0.026766742 0.085989155 0.06572799 0.04237886 -0.073049374 0.30951512 0.024513014 0.0592231 0.038867805 -0.17449898 -0.11699765 -0.06916187 0.04224785 0.0061660036 0.04432645 -0.006255735 0.08561819 0.06301184 0.01912341 0.013223217 -0.11258339 0.01084653 -0.025738707 -0.032496464 0.029279383 0.041471258 -0.21383677 -0.0695839 0.015568867 -0.10066277 0.057889782 0.13810776 0.025228757 0.08071975 -0.14514564 0.07802845 0.15829857 0.056885503 -0.112979405 0.25059336 0.11583995 -0.037432093 -0.011261309 -0.051002115 -0.10705744 0.014642343 0.05181482 -0.10332967 -0.17142689 -0.27309766 0.084584504 0.017231256 -0.20963849 -0.056913674 0.2050389 -0.1537558 -0.006300835 0.06604397 -0.017125254 0.18655491 -0.0885703 -0.0386996 0.10742872 0.032339476 0.13553774 0.043154538 0.25481412 -0.113322295 0.22862367 -0.059997097 0.08376973 -0.15357706 -0.007860871 0.07476074 0.14477625 -0.09696579 -0.14529729 -0.05198092
28 -0.10241042 -0.21904533 -0.1084745 -0.09294838 0.07151266 0.008315073 0.102384515 0.07747738 -0.023963962 0.020808632 -0.060171813 0.17735115 0.0062408596 -0.016777966 9.026303e-05 -0.15654346 0.0017382286 -0.060333036 0.1113039 0.19797057 0.08009467 -0.024887493 0.042917218 0.104263335 0.08750121 0.049425203 -0.11192855 0.032521084 -0.0021743274 -0.044026263 0.076155014 -0.03215227 -0.18622635 -0.03196831 -0.08212175 -0.11335246 0.10341466 0.15621357 -0.054924432 -0.018319203 -0.21961176 0.17276365 0.1647495 0.0085189715 -0.100655995 0.17677696 0.1016805 -0.007576092 0.036154874 -0.09767034 -0.11756215 0.08419961 0.05837866 -0.14120443 0.00074437127 -0.14396282 0.059412625 -0.024674388 -0.14098847 0.025387213 0.047204938 -0.12298931 0.049069766 0.069676004 -0.059040673 0.05321077 -0.13730207 0.0063962787 0.08471155 0.019996192 0.17025335 0.04772326 0.19203404 -0.058462765 0.19874018 -0.09034364 0.050319202 -0.07208037 0.058142345 0.16948418 0.039012264 -0.14003159 -0.18302964 -0.12094318
83 -0.07455554 -0.1817594 -0.10287331 -0.083111264 0.09282318 0.01581918 0.09968531 0.058640957 -0.030311598 0.030055162 -0.04182656 0.11911234 -0.00312161 -0.034075942 0.014254999 -0.11563552 0.011858506 -0.04511202 0.078026816 0.16892889 0.079363994 -0.012715798 0.007903197 0.057541046 0.089987285 0.058062952 -0.082857415 0.054450963 5.6274966e-06 -0.04706816 0.06630258 -0.051693775 -0.17553842 -0.040317267 -0.10647042 -0.11613488 0.09542182 0.13860352 -0.049921546 -0.011130547 -0.1849413 0.18177229 0.15582146 -0.015545703 -0.10387553 0.18343702 0.13619599 -0.01098953 0.04297576 -0.09199147 -0.11192342 0.096052215 0.039888527 -0.14473659 -0.00731491 -0.17268738 0.07159736 -0.012184297 -0.1277947 0.0149429655 0.04649576 -0.15162079 0.036960408 0.08540663 -0.057650182 0.08296346 -0.15283893 -0.010793582 0.12422806 0.04148064 0.21663594 0.076941505 0.21480347 -0.07645694 0.22981612 -0.11601132 0.06521298 -0.07718199 0.064984135 0.17432447 0.04324216 -0.13456811 -0.17827588 -0.10848361
59 -0.08638528 -0.20235717 -0.12414684 -0.10752951 0.051374387 0.016100515 0.08434944 0.08050251 0.0067269388 0.035916865 -0.098001994 0.22376928 0.025033029 0.0004146333 0.025812415 -0.16918576 -0.012303884 -0.046960797 0.06368031 0.15366852 0.061088126 -0.005315274 0.038240198 0.056473173 0.048964843 0.020537164 -0.079529196 0.03260039 0.0035381534 -0.057890065 0.053514797 -0.017892025 -0.17261255 -0.06374434 -0.055030316 -0.0781309 0.059138793 0.10517871 -0.015302876 0.008115306 -0.1460936 0.11481383 0.11228007 0.0041833473 -0.07148057 0.17785577 0.1162635 -0.023908857 0.013388923 -0.08181989 -0.08557956 0.07177735 0.03554587 -0.12550904 -0.04084783 -0.15840775 0.07131938 0.0058853785 -0.14699814 0.023043593 0.067980565 -0.16042958 0.053190313 0.074995264 -0.058240406 0.11233636 -0.13140228 -0.01731517 0.121019036 0.038440872 0.21276881 0.07202792 0.24937117 -0.09182037 0.22791137 -0.09198064 0.05864193 -0.09338655 0.065879144 0.14495604 0.08812676 -0.13853548 -0.20821542 -0.094830066
35 -0.11990561 -0.25336385 -0.13740945 -0.11495046 0.0967009 0.005574971 0.12131292 0.07819101 -0.072398745 0.026146108 -0.050271634 0.12780415 -0.0083946595 -0.0504779 0.038365405 -0.13027921 0.048912972 -0.03645639 0.09844706 0.22183065 0.09567339 -0.013078414 0.0041026655 0.09054025 0.106181905 0.09334325 -0.06886405 0.08483314 -0.0051435293 -0.047828138 0.099005274 -0.07119434 -0.16591759 -0.033150144 -0.08188653 -0.101435885 0.10816604 0.12847026 -0.05334355 -0.029512797 -0.21125561 0.21406165 0.175373 -0.018519104 -0.08068415 0.115636334 0.108729646 -0.0115036415 0.0077250116 -0.0862614 -0.10627081 0.10195363 0.024343194 -0.16689096 0.053070012 -0.15046513 0.046070162 -0.006271042 -0.073795855 0.0062919892 0.005102811 -0.12342685 0.03866623 0.069038905 -0.100633934 0.02997631 -0.18295151 0.028099114 0.11759576 0.047178008 0.21697794 0.091689624 0.20022309 -0.06213423 0.2242545 -0.1468599 0.058247924 -0.04064226 0.09089013 0.17537266 0.025645183 -0.157483 -0.19403294 -0.119936705
29 -0.108272254 -0.26722494 -0.13159212 -0.11301883 0.095928885 -0.007971628 0.10964272 0.078841336 -0.055753425 0.029338421 -0.056354206 0.157999 0.0071045635 -0.035980154 0.008820797 -0.16220838 0.011996541 -0.04921126 0.11885862 0.18939799 0.10468943 -0.03716666 0.030865563 0.07174564 0.07575672 0.059251353 -0.09774897 0.028658992 -0.002364607 -0.024707792 0.08245968 -0.050951548 -0.19243944 -0.034627035 -0.10186286 -0.104096055 0.1140772 0.15209223 -0.05711348 -0.028626183 -0.18315898 0.17230055 0.1345765 -0.012299074 -0.07066321 0.16163589 0.09433991 -0.008847872 0.03568209 -0.08210408 -0.110773295 0.08710653 0.025079595 -0.12943022 -0.0012274821 -0.12615108 0.069519885 0.003600425 -0.09851224 0.023001794 0.05932878 -0.119871736 0.038884915 0.07564637 -0.084487796 0.039619498 -0.16450436 -0.0070867343 0.11347349 0.04260686 0.16608588 0.053222615 0.16886155 -0.053804483 0.22332996 -0.09935076 0.066244565 -0.06388208 0.07898745 0.15793137 0.038267605 -0.1497837 -0.20213786 -0.14054458
