84 84
19 -0.08408109 -0.11260709 -0.06061083 -0.13649242 -0.034293067 -0.020838354 0.057678245 0.0011820823 0.054997973 0.0048596095 -0.12518115 0.19840245 0.07389526 -0.13810727 -0.009189669 -0.071210116 -0.07423264 0.023450054 -0.017241273 0.07121445 0.06298232 -0.08636976 0.0022236167 0.104950264 0.019434176 -0.057079237 -0.052838504 -0.009348568 -0.008597443 -0.15843444 -0.014366107 -0.005474399 -0.18982144 -0.15369554 -0.10896575 -0.07841347 0.14204702 0.055560216 0.030050078 -0.044503562 -0.067478955 0.14645682 0.10229094 -0.07886393 -0.046155263 0.18146023 0.1457924 0.07445539 -0.039422505 -0.08890893 -0.038396228 0.09774598 0.047657553 -0.16316187 -0.12677665 -0.15206647 0.108441 -0.029631715 -0.18913917 -0.033853803 0.11710577 -0.19990559 -0.017318582 0.1655303 -0.06477059 0.092000835 -0.119173445 -0.002004925 0.027655086 -0.049662475 0.056227174 -0.013987097 0.2576941 -0.07072036 0.1554749 -0.03468576 0.019639282 -0.07344913 0.050341662 -0.026994223 0.16925709 -0.17907898 -0.15004727 -0.1726949
54 -0.10028694 -0.13402984 -0.05512422 -0.13861857 -0.038332116 -0.024028433 0.054942347 0.001667621 0.04933014 -0.004175941 -0.103038006 0.19895007 0.07087102 -0.14422059 -0.015620383 -0.07456544 -0.06579341 0.018590748 -0.01135292 0.052182328 0.034242123 -0.08148078 -0.005159045 0.09371447 0.015271366 -0.06518068 -0.05920069 -0.010949063 -0.0026530868 -0.1656648 -0.014455244 0.0007470024 -0.19662963 -0.14039229 -0.10276596 -0.08084995 0.12864237 0.04451539 0.046569757 -0.036912866 -0.062403914 0.12822455 0.10858477 -0.064243145 -0.066208534 0.15389718 0.12665583 0.05978403 -0.038890958 -0.083909795 -0.050780684 0.11091533 0.045170724 -0.16344018 -0.14223698 -0.15861653 0.10006069 -0.023896826 -0.17365928 -0.015055261 0.09561945 -0.18092485 -0.026377678 0.14745098 -0.06820697 0.09017088 -0.106022716 -0.0015765787 0.015608511 -0.041416552 0.047275227 0.009728493 0.24597232 -0.067060694 0.16710661 -0.031292517 0.027564434 -0.07744109 0.052958045 -0.0064700674 0.21544261 -0.20005421 -0.19256741 -0.18922162
81 -0.0760177 -0.1204468 -0.057053987 -0.1294258 -0.039579175 -0.009323164 0.04336967 0.019218627 0.044083152 -0.005851885 -0.10556923 0.18005681 0.09030428 -0.17826189 -0.022813888 -0.08428711 -0.07742263 0.03858944 -0.03533563 0.06835777 0.06435085 -0.07672389 0.004649532 0.09732214 0.009960279 -0.04616648 -0.04456797 -0.026326017 -0.011230332 -0.14294887 -0.007733106 -0.01734188 -0.1661177 -0.12948002 -0.0893176 -0.083697625 0.1226819 0.03591277 0.024862362 -0.033692732 -0.08814079 0.12501328 0.10708996 -0.058671393 -0.06883687 0.16670838 0.12817997 0.057564806 -0.031796936 -0.09259802 -0.047383007 0.107023545 0.046420924 -0.15268897 -0.11394661 -0.14870745 0.082332306 -0.02983512 -0.17389236 -0.019296525 0.10754032 -0.17628576 -0.018368477 0.14272535 -0.08560088 0.11162934 -0.106087305 0.0078705605 0.02897216 -0.05071244 0.049867086 0.0142655615 0.25404742 -0.05830547 0.18212222 -0.036631573 0.01805442 -0.07316282 0.065981165 -0.01801363 0.21334787 -0.212465 -0.17701283 -0.2095103
43 -0.09963426 -0.10693095 -0.06723137 -0.13585919 -0.028487198 -0.036850985 0.070750594 0.00512185 0.064046845 0.0028563398 -0.15216245 0.25372452 0.08100285 -0.17965756 -0.004903136 -0.08910361 -0.08373767 0.024032796 -0.020313097 0.07266762 0.046849355 -0.09404462 -7.331196e-05 0.099222794 0.025149368 -0.056032643 -0.05530147 -0.020958923 0.004635858 -0.1622604 -0.0083679035 -0.0045112493 -0.19090128 -0.13854201 -0.10472968 -0.07803251 0.12970822 0.04219118 0.030201117 -0.04050459 -0.058117572 0.1358059 0.1117899 -0.067384236 -0.056030523 0.13273238 0.1274345 0.069727555 -0.02825187 -0.095341615 -0.027311223 0.09742652 0.03775822 -0.16055642 -0.119892925 -0.14895926 0.12749559 -0.034107737 -0.19233559 -0.030090306 0.10598542 -0.16949616 -0.017836856 0.17739832 -0.07317092 0.0874601 -0.11265049 0.01859121 0.027463665 -0.037800733 0.05643267 0.008791067 0.24410552 -0.058294147 0.15020546 -0.034164507 0.011939123 -0.061781187 0.04931149 0.0026627418 0.17690574 -0.16802609 -0.1461973 -0.15629011
26 -0.08712562 -0.11934688 -0.04977843 -0.11556004 -0.039499767 -0.017745515 0.05600195 -0.00601494 0.055022854 -0.0032694037 -0.11340097 0.19952592 0.10026588 -0.2105783 -0.025852 -0.08375329 -0.081304364 0.03545272 -0.02827898 0.06602499 0.074929796 -0.086116314 0.026316574 0.09986329 0.004073144 -0.04712485 -0.038245518 -0.015063195 -0.012947745 -0.1344697 -0.0048755035 -0.025577923 -0.13322768 -0.12985304 -0.09440868 -0.07301566 0.1108953 0.0460491 0.017671634 -0.023750085 -0.05199309 0.115881965 0.09318309 -0.055342592 -0.06452897 0.15830085 0.12842225 0.05341272 -0.02678658 -0.07034483 -0.04776624 0.1064635 0.04532975 -0.15547688 -0.12353436 -0.15991065 0.089284815 -0.035710122 -0.16432498 -0.013831679 0.108352736 -0.18158497 -0.034414366 0.17432359 -0.072268635 0.10430717 -0.10677918 0.023132276 0.023420209 -0.0611679 0.056073103 0.015897814 0.2674889 -0.056738444 0.2035142 -0.04590617 0.015620038 -0.07842694 0.05519793 -0.008355133 0.2040498 -0.2086541 -0.18326923 -0.2203483
38 -0.08277965 -0.13382 -0.059302554 -0.15227439 -0.04261774 -0.026669312 0.041797813 0.00026213014 0.054383133 0.001465049 -0.11533931 0.20268226 0.07231601 -0.18255632 -0.015196887 -0.09175207 -0.0505295 0.028443677 -0.019200604 0.055072263 0.055375926 -0.07114915 -0.004466915 0.08972028 -0.0021645846 -0.053538155 -0.033365216 -0.0053916476 -0.006195322 -0.15281336 -0.008201012 -0.02769867 -0.1859015 -0.13944645 -0.111214355 -0.089121915 0.1271118 0.04332727 0.0374014 -0.049370434 -0.077157214 0.1434325 0.12040567 -0.05360308 -0.06494361 0.14860252 0.12591809 0.046913575 -0.025633048 -0.073553495 -0.04105351 0.098768495 0.038690384 -0.15174565 -0.12403222 -0.15130708 0.09684154 -0.024795506 -0.1816162 -0.0029667092 0.07942662 -0.16644634 -0.021644175 0.14059708 -0.07537574 0.0971021 -0.09716863 0.012670277 0.013825406 -0.065146 0.041350346 0.012180515 0.22812171 -0.056137245 0.16123964 -0.03587254 0.018874612 -0.07020152 0.065843806 -0.0047039934 0.20491286 -0.19707279 -0.18562081 -0.18709897
66 -0.039593272 -0.08932331 -0.03938571 -0.099515654 -0.033672422 -0.006329316 0.044447463 0.0089970855 0.057006776 0.0096923 -0.10055799 0.180033 0.07230133 -0.15032926 0.0053090863 -0.08952058 -0.06414297 0.03213463 -0.025504457 0.07426353 0.056535587 -0.09023286 -0.01242677 0.10058628 0.019587062 -0.07635429 -0.055378884 -0.014555783 -0.0045678155 -0.17321631 -0.0069995383 -0.02591105 -0.18343145 -0.15156145 -0.115951404 -0.07525951 0.13276924 0.043149132 0.03767873 -0.038115848 -0.07625101 0.1453669 0.11839101 -0.06678994 -0.05301293 0.17679062 0.12364881 0.048212793 -0.040193312 -0.088697895 -0.048664603 0.10419473 0.06160199 -0.15043505 -0.12153988 -0.1579877 0.09835405 -0.02915081 -0.18958731 -0.013178935 0.11443752 -0.18507484 -0.015574487 0.1422881 -0.057795715 0.0930439 -0.1108025 -0.0049233804 0.020019185 -0.05814413 0.049349964 0.002847409 0.26325092 -0.06259973 0.17319113 -0.04630533 0.0052833185 -0.07217233 0.039294828 -0.013023925 0.19762158 -0.20584053 -0.19215326 -0.17752562
70 -0.089980684 -0.13174926 -0.07337092 -0.14399101 -0.036755964 -0.0267286 0.045276128 0.0107805785 0.063069046 0.004185083 -0.11701787 0.22507286 0.07087648 -0.17884699 -0.0053922427 -0.085900605 -0.06220487 0.0186829 -0.031550776 0.051359586 0.042038906 -0.081122495 -0.0060017714 0.084168255 0.020868009 -0.055892974 -0.044081107 -0.017101185 0.003330985 -0.15135086 -0.020956492 -0.0102670435 -0.1867301 -0.13678983 -0.08311686 -0.0811368 0.12943375 0.03417518 0.02941134 -0.04044024 -0.071664296 0.11541749 0.101159975 -0.044615332 -0.068801716 0.13428238 0.10851457 0.05343134 -0.04520991 -0.080989294 -0.024530081 0.09302869 0.0368189 -0.14415188 -0.110096194 -0.13594143 0.102374256 -0.014338379 -0.17204188 -0.028164325 0.11016003 -0.17993775 -0.042265467 0.15587386 -0.07755425 0.092253506 -0.10769867 0.015450406 0.018290957 -0.04194443 0.04752749 0.020877697 0.27287093 -0.073177755 0.1748609 -0.03579542 0.030653067 -0.06740687 0.063746415 -0.008787705 0.21645175 -0.21427323 -0.18658024 -0.17284766
11 -0.08735212 -0.121783376 -0.04090054 -0.12887947 -0.040407144 -0.02790845 0.053387225 0.011788909 0.059589885 -0.0004409171 -0.12120284 0.1921366 0.08282101 -0.16716534 -0.016155867 -0.078499034 -0.07400915 0.018455941 -0.029941818 0.056545544 0.069322415 -0.071516916 0.017693175 0.10043878 0.0063131186 -0.06251381 -0.042025324 -0.016933147 -0.014368412 -0.15897596 -0.007018392 -0.032453097 -0.1544077 -0.14163966 -0.09772667 -0.069703996 0.13861448 0.058984786 0.031523187 -0.032359 -0.06401159 0.12805712 0.10842133 -0.0591856 -0.06122306 0.16691214 0.14591171 0.06886999 -0.040288452 -0.060584392 -0.03746765 0.09907154 0.04908945 -0.15858497 -0.12751041 -0.16596715 0.09164778 -0.022895252 -0.19244336 -0.017159492 0.10630498 -0.19327518 -0.018481996 0.15893011 -0.07885615 0.09840428 -0.11153937 0.007534054 0.032219235 -0.05346324 0.03706457 8.476268e-05 0.24034126 -0.06914902 0.17125349 -0.037456505 0.026047356 -0.07884476 0.04896674 -0.031418692 0.18584724 -0.19632103 -0.16316625 -0.20327404
42 -0.091600284 -0.103450835 -0.06376573 -0.14296152 -0.040708672 -0.028986061 0.05663282 0.013678485 0.058399778 0.016892808 -0.13332082 0.23591498 0.08564261 -0.17967802 -0.0063264593 -0.099303655 -0.08566983 0.027904974 -0.015763583 0.08863563 0.06759925 -0.101821646 0.005780704 0.11717786 0.026296409 -0.06307993 -0.055396907 -0.013836862 -0.0034929516 -0.14833176 -0.00504131 -0.01989305 -0.19315873 -0.1503052 -0.1051394 -0.092179954 0.12979802 0.037576098 0.04010502 -0.04920881 -0.08182379 0.14226536 0.10861724 -0.060168426 -0.046349354 0.16107494 0.119376644 0.05671326 -0.045980047 -0.09374224 -0.02786355 0.08467171 0.037470024 -0.13969792 -0.11114127 -0.13685931 0.11804154 -0.030811822 -0.19221613 -0.033583242 0.123302504 -0.17723739 -0.033522177 0.15685341 -0.05420122 0.0857087 -0.11524261 0.009322721 0.022311607 -0.031431314 0.03883027 0.0013542721 0.24147473 -0.05081513 0.15902114 -0.028141981 -0.0013061487 -0.037494443 0.043017387 0.0040551187 0.16560285 -0.17911014 -0.1566203 -0.16314952
63 -0.0830383 -0.12417885 -0.04827877 -0.14133601 -0.043233316 -0.0070382697 0.059517294 0.004591973 0.061935883 0.009976012 -0.12019552 0.21487537 0.09720297 -0.18656687 -0.021969872 -0.1001563 -0.081655614 0.018568765 -0.029700503 0.064057775 0.06850039 -0.081002414 -0.002972895 0.11712637 0.010536088 -0.067062974 -0.047359183 -0.010698406 -0.007254172 -0.15949307 -0.0037561986 -0.040005688 -0.16128615 -0.15257615 -0.11056573 -0.07984017 0.11822951 0.055353593 0.0435713 -0.029316526 -0.07502763 0.1387995 0.115638256 -0.07237197 -0.059770398 0.17983167 0.13361667 0.03474116 -0.03290275 -0.07426205 -0.054302856 0.10677101 0.051024303 -0.15518697 -0.119147204 -0.16595818 0.09440366 -0.041042615 -0.18671805 -0.010252717 0.11220138 -0.19367447 -0.029957779 0.14250432 -0.058391776 0.09433767 -0.10681061 0.007560127 0.013530133 -0.04793626 0.039393164 0.0068151085 0.22009207 -0.05607966 0.15445606 -0.045064546 0.012164396 -0.06486282 0.03132276 -0.013677887 0.1820463 -0.19741267 -0.16483918 -0.2001374
44 -0.07475796 -0.119389296 -0.06271857 -0.12109397 -0.04618353 -0.021238731 0.047001895 0.0056815087 0.06663964 0.008823133 -0.10678338 0.19910139 0.06735046 -0.14527991 -0.017196696 -0.06334846 -0.055576038 0.014566254 -0.022297611 0.061340347 0.05494279 -0.04802191 -0.0070595113 0.07247325 0.01849198 -0.049258098 -0.016675847 -0.017457927 -0.007460565 -0.121198036 -0.016407864 -0.038166955 -0.15615293 -0.1207774 -0.05789109 -0.07365444 0.10862102 0.049990714 0.028426582 -0.05289012 -0.0817758 0.109694146 0.10735153 -0.045262996 -0.07151754 0.15655437 0.12487564 0.047606703 -0.042488 -0.088575475 -0.034820896 0.094876096 0.027381508 -0.14786324 -0.097337976 -0.14465456 0.10683898 -0.02008695 -0.18815854 -0.039265938 0.107162885 -0.18884665 -0.03181494 0.14205882 -0.08220326 0.101403594 -0.13169174 0.008748207 0.034904968 -0.05101446 0.05696865 0.011708909 0.2657518 -0.07625854 0.18076316 -0.037878472 0.0074268137 -0.07485707 0.07485918 -0.01804503 0.22810747 -0.2590239 -0.20047526 -0.23114744
45 -0.072261795 -0.10953555 -0.054283503 -0.13518776 -0.023276059 -0.02092861 0.056313783 0.011807818 0.044746745 0.0033430879 -0.10821871 0.1614755 0.085866556 -0.15787405 -0.007661919 -0.09113795 -0.054518126 0.020625662 -0.021296125 0.056790717 0.054825947 -0.08497722 0.005217092 0.09910432 0.015897 -0.05974992 -0.051401928 -0.0169875 -0.0072512208 -0.14959143 -0.005721258 -0.015805328 -0.17698917 -0.1503431 -0.119044244 -0.07649665 0.12897639 0.0482686 0.029886581 -0.04733283 -0.07439899 0.14063363 0.11528454 -0.06219563 -0.058423392 0.16820182 0.14200051 0.06399372 -0.025348298 -0.081144035 -0.036916416 0.10833479 0.041211754 -0.14824004 -0.13185361 -0.16491324 0.11364211 -0.03547615 -0.20255782 -0.007756635 0.10803438 -0.18585978 -0.019838333 0.1691783 -0.07195104 0.10800643 -0.12614661 0.006508808 0.024939274 -0.059389982 0.053699974 0.0071624974 0.2527594 -0.06460705 0.17095765 -0.03831229 0.018592145 -0.07428372 0.047585934 -0.004855648 0.18360783 -0.18789713 -0.17154357 -0.17248546
64 -0.0650427 -0.110992774 -0.045803767 -0.10691565 -0.050203357 -0.019736273 0.055783495 0.00991129 0.06195674 0.006183802 -0.103940435 0.19781898 0.07648358 -0.16394357 -0.010386371 -0.0763796 -0.060293645 0.02548154 -0.028778475 0.0686373 0.07599574 -0.08332459 0.0018801634 0.08131753 0.008515492 -0.05757259 -0.027280081 -0.017764585 -0.0090254955 -0.15202723 -0.018315565 -0.04551607 -0.16309954 -0.1385539 -0.09629 -0.07967423 0.12916385 0.046417493 0.040003207 -0.047533087 -0.08376981 0.12340421 0.1174214 -0.05735468 -0.071349435 0.1759963 0.13968126 0.054438192 -0.047737703 -0.088744946 -0.047584735 0.10183253 0.0401846 -0.15192163 -0.11433551 -0.16454625 0.09683731 -0.018188287 -0.19414479 -0.02028327 0.11871926 -0.18526395 -0.03923124 0.16068628 -0.090072274 0.102565974 -0.115654595 0.0040739407 0.02975693 -0.054641813 0.043725163 0.013272266 0.24492688 -0.06038232 0.17315745 -0.02928612 0.0069084936 -0.058718875 0.059574153 -0.028236039 0.1911903 -0.20828237 -0.17242987 -0.19657183
18 -0.07362329 -0.12680459 -0.07515557 -0.15624413 -0.053094428 -0.015929976 0.044734012 0.01441935 0.066875316 0.007929157 -0.13335332 0.22175126 0.10137279 -0.20102371 -0.013328846 -0.11393553 -0.068770714 0.039701868 -0.04534385 0.07950047 0.054652117 -0.094696686 0.00843776 0.10444674 0.009780523 -0.041826133 -0.05335541 -0.017230218 0.0012155124 -0.14749087 -0.0061118407 -0.017253298 -0.17932041 -0.14278428 -0.10550582 -0.092183396 0.12869395 0.031183084 0.04326252 -0.03930293 -0.08192763 0.14003034 0.1053345 -0.060290594 -0.05650595 0.16902506 0.105430946 0.047113147 -0.022170765 -0.10247236 -0.05272073 0.10005445 0.054824416 -0.15199031 -0.115381725 -0.13892491 0.10018711 -0.03191276 -0.18176825 -0.0136697935 0.1050407 -0.19108786 -0.017985923 0.1500263 -0.063092776 0.10342155 -0.096699335 0.0043604905 0.016079687 -0.031210667 0.02458277 0.015432556 0.2397345 -0.05146594 0.17042036 -0.02905396 0.0135445725 -0.047321174 0.05165533 0.0027009877 0.1848533 -0.17972262 -0.15555434 -0.18562417
1 -0.072429724 -0.12057744 -0.046033815 -0.1299512 -0.057606503 -0.027856164 0.05511447 -0.0005047953 0.057714272 0.016449448 -0.10147627 0.17934419 0.07340057 -0.14556852 -0.0185044 -0.061721243 -0.051405173 0.01577966 -0.008931415 0.058127165 0.062594965 -0.08463388 0.0069156415 0.08329568 0.011658408 -0.052399196 -0.02712038 -0.0051003885 -0.0018790258 -0.13525985 -0.026882365 -0.01434114 -0.1933697 -0.15435033 -0.11820526 -0.09257502 0.13762446 0.05569773 0.035949077 -0.06041079 -0.074966006 0.121878766 0.097997844 -0.053374138 -0.0650703 0.17819217 0.14080898 0.060265157 -0.038551874 -0.08747545 -0.051270764 0.104297675 0.036866657 -0.16304147 -0.1382878 -0.16134602 0.10762068 -0.019682705 -0.1912614 -0.018367352 0.1176256 -0.18800953 -0.03732973 0.15719748 -0.07041853 0.092630506 -0.10943725 0.010827167 0.0071645835 -0.057689384 0.047867294 -0.008785536 0.2521184 -0.06568596 0.15796855 -0.035765346 0.017838137 -0.06902364 0.057270214 -0.025253288 0.18372995 -0.20640762 -0.17424168 -0.18694603
57 -0.08141535 -0.118023686 -0.0517482 -0.12535363 -0.029343093 -0.00769309 0.048469875 0.008008929 0.042729907 -0.0030235122 -0.08659027 0.16490135 0.06873556 -0.14078705 -0.017256577 -0.0783693 -0.054564945 0.019811729 -0.024767905 0.048443973 0.041579414 -0.071904406 -0.0008691008 0.091450624 0.006670033 -0.056190073 -0.055951588 -0.0065945103 -0.0050805504 -0.16109055 -0.012113308 -0.016741317 -0.17637809 -0.13639283 -0.10315131 -0.075135134 0.13748746 0.046934117 0.03428395 -0.032433756 -0.07823655 0.13848981 0.119393714 -0.06336671 -0.06355576 0.16225135 0.13539207 0.05240885 -0.040762547 -0.0751154 -0.051879074 0.10816601 0.04666786 -0.16003627 -0.13657205 -0.15968218 0.096729316 -0.02189559 -0.19205105 -0.009704537 0.104014724 -0.18622707 -0.037784725 0.16008456 -0.06939913 0.09390102 -0.116737805 0.005510783 0.016786443 -0.058821544 0.048229232 0.012186615 0.2621268 -0.06892494 0.18100888 -0.03802797 0.03111031 -0.079433404 0.051535785 -0.0046940404 0.21318467 -0.20541142 -0.18501513 -0.18502158
71 -0.06465383 -0.100826964 -0.05161974 -0.11474179 -0.020575993 -0.021909859 0.03553744 0.0059694285 0.059539817 0.002631091 -0.10391999 0.19926952 0.090250194 -0.19674045 -0.003247107 -0.10734326 -0.073989436 0.025921796 -0.025463153 0.060857832 0.050948903 -0.08599252 -0.007853052 0.09757681 0.01239317 -0.068849556 -0.04744599 -0.011338253 0.0020201744 -0.16472344 -0.00986696 -0.028022546 -0.18085656 -0.15129358 -0.11470449 -0.08238262 0.12565398 0.03602141 0.041028455 -0.03507652 -0.063459374 0.13457139 0.11314639 -0.069774486 -0.06754687 0.15967168 0.11937169 0.053160734 -0.032396898 -0.082551554 -0.04579038 0.10421027 0.053955205 -0.16527838 -0.12970582 -0.15994354 0.09691023 -0.03161806 -0.16973847 -0.009460292 0.10972121 -0.1929101 -0.032486625 0.17091644 -0.060824234 0.094370075 -0.089843184 0.0027167774 0.008988273 -0.04824371 0.043744262 0.019255143 0.21865202 -0.05492113 0.1499663 -0.034305256 0.016375136 -0.072530635 0.043829605 -0.0086759925 0.19567196 -0.18654563 -0.1750054 -0.17857417
12 -0.10008705 -0.13610724 -0.051309537 -0.14003387 -0.047928993 -0.03032428 0.058277365 -0.0014915514 0.056889504 0.0013125187 -0.116247356 0.23034088 0.073712446 -0.18717839 -0.0068518473 -0.087163225 -0.084847435 0.025073564 -0.028910292 0.05795579 0.062453598 -0.08299719 0.0032677415 0.09642128 0.009514935 -0.07283142 -0.04716887 -0.01900635 -0.0037538386 -0.18255635 -0.013150369 -0.019079808 -0.1840274 -0.14292961 -0.10575987 -0.07118906 0.12952076 0.04575275 0.03289251 -0.03992998 -0.06594533 0.12132081 0.107453875 -0.053783465 -0.055526543 0.15844674 0.1354088 0.061410602 -0.046615057 -0.07928571 -0.04554086 0.10981818 0.03949241 -0.16283251 -0.13871293 -0.16361175 0.095445596 -0.015348609 -0.1778599 -0.0064135785 0.105736144 -0.16905957 -0.018930877 0.15618718 -0.07273549 0.085786045 -0.0979761 0.011670112 0.025318673 -0.048745837 0.050580442 0.007348444 0.23340383 -0.054175872 0.15811089 -0.032624096 0.027657116 -0.07448578 0.045281544 -0.014300283 0.17657995 -0.17213492 -0.1619384 -0.16921213
10 -0.07013227 -0.101695545 -0.054912217 -0.116630115 -0.052221492 -0.01565207 0.06162662 0.00021990237 0.055422965 0.010617891 -0.13928218 0.22968832 0.06734085 -0.15459378 -0.007022868 -0.08903734 -0.067534685 0.043102328 -0.0359512 0.08042041 0.07396834 -0.08693973 0.008424638 0.101226896 0.0084437085 -0.059397195 -0.048025854 -0.020580104 -0.015234257 -0.13922274 0.004572842 -0.031072995 -0.16564745 -0.119618654 -0.09550304 -0.06832376 0.1166792 0.032788508 0.03414232 -0.04375686 -0.09562522 0.12872379 0.112830095 -0.04918101 -0.037674475 0.17258584 0.12853463 0.04279052 -0.0400308 -0.08577953 -0.03940626 0.08661744 0.05385855 -0.14309135 -0.109398134 -0.12562078 0.08507207 -0.03007177 -0.172091 -0.015086486 0.11295657 -0.17505023 -0.025310257 0.14352083 -0.058550004 0.09010275 -0.1272798 -0.0056172367 0.036355365 -0.051977884 0.043037716 -0.0038616243 0.26606417 -0.053819556 0.18428366 -0.028583238 0.010527257 -0.06173034 0.05361212 -0.0047252397 0.20188074 -0.22612785 -0.18551245 -0.20702302
52 -0.09441839 -0.11920044 -0.04110444 -0.106747136 -0.044047818 -0.025770491 0.050575152 0.004902571 0.06468008 -0.01403009 -0.10314869 0.19419764 0.083074056 -0.19211473 -0.022290254 -0.08580592 -0.077992044 0.03403969 -0.041022897 0.058821168 0.068034776 -0.096841834 0.0042974288 0.096150234 0.002906922 -0.054405265 -0.04762081 -0.0066301697 0.00030647704 -0.17461523 -0.015101265 -0.0190484 -0.14739633 -0.12398816 -0.07920838 -0.056095056 0.12412652 0.045368936 0.029172795 -0.022812529 -0.06286239 0.12194299 0.10471936 -0.058123417 -0.06670901 0.15373121 0.1348708 0.062030897 -0.04493916 -0.06701978 -0.050990332 0.10538457 0.05220326 -0.17297113 -0.12292615 -0.16043195 0.08865638 -0.018719753 -0.17923608 -0.02360029 0.1133731 -0.18842112 -0.036099978 0.16548434 -0.08951247 0.08331037 -0.09467517 0.016109196 0.015692195 -0.045476116 0.04922321 0.016302591 0.23231886 -0.050320186 0.17787206 -0.02875888 0.024858965 -0.073312595 0.050371245 -0.020355465 0.20805797 -0.19412462 -0.1760954 -0.19640416
4 -0.0803269 -0.10106565 -0.042552143 -0.10641878 -0.03411031 -0.016390443 0.053099554 0.0184248 0.027787328 -0.0065336055 -0.08375266 0.15019093 0.069917366 -0.13065208 -0.024165763 -0.06845689 -0.048941687 0.022391552 -0.011982154 0.05165148 0.053644955 -0.07515905 0.011620223 0.08740947 0.0071378467 -0.03713658 -0.05291879 -0.009555088 -0.005087236 -0.12675291 0.0014999879 -0.01359122 -0.16244271 -0.1276563 -0.1065288 -0.07983833 0.11412652 0.048296466 0.02946207 -0.03134807 -0.08377953 0.12929535 0.11832929 -0.0487446 -0.054203592 0.15372273 0.13687938 0.04312403 -0.035141997 -0.08557894 -0.04871586 0.10186226 0.03952754 -0.14343826 -0.13812889 -0.15658773 0.09556011 -0.035344597 -0.1751127 -0.0042993724 0.12074211 -0.18606716 -0.029986685 0.17429581 -0.08153813 0.11682031 -0.14248177 0.022668904 0.030245796 -0.06530531 0.048362017 0.015393487 0.29274186 -0.07024932 0.20327075 -0.04808771 0.03118332 -0.074410744 0.04663228 0.003081382 0.21200012 -0.21738268 -0.19616954 -0.21798065
22 -0.08770288 -0.13859956 -0.06568298 -0.14005522 -0.06786826 -0.03345475 0.051223412 0.00063089863 0.064447366 0.014544325 -0.1347318 0.23848608 0.09292996 -0.20488296 -0.021873226 -0.08178178 -0.071691625 0.028986784 -0.016060533 0.071073115 0.07923159 -0.08879214 0.017326094 0.074278265 0.008746337 -0.04657881 -0.020256292 -0.032343246 -0.0059344615 -0.12528852 -0.0072768205 -0.03122721 -0.16928792 -0.13319074 -0.08996673 -0.0781812 0.11285569 0.059217494 0.030007007 -0.04489267 -0.06630527 0.10039476 0.08216661 -0.039398257 -0.07125283 0.15119562 0.12204123 0.057603914 -0.024814324 -0.08421334 -0.045259036 0.080747135 0.03404518 -0.13276981 -0.09801814 -0.14390655 0.09915631 -0.025408637 -0.15798002 -0.025841387 0.1120205 -0.14165099 -0.024625655 0.13665123 -0.07263111 0.09456845 -0.10060665 0.022252904 0.02693463 -0.044977862 0.042516593 0.013886868 0.24066208 -0.04768009 0.18800297 -0.032306746 0.006047473 -0.0659173 0.06630639 -0.01544326 0.20761137 -0.2370677 -0.18295838 -0.2213877
3 -0.11036287 -0.13018158 -0.050431583 -0.15152882 -0.03868524 -0.028427847 0.06280857 0.0073401085 0.044116445 0.004629366 -0.12020721 0.21123368 0.061693035 -0.16815577 -0.016112119 -0.09480832 -0.050968416 0.003927403 -0.02332482 0.044612724 0.053277418 -0.07029392 0.0027080004 0.085159354 0.020021768 -0.054242346 -0.030779064 -0.01396912 0.0029932037 -0.14409915 -0.0145148225 -0.029915541 -0.17266628 -0.12987883 -0.09244513 -0.084595114 0.1232893 0.042653244 0.04050581 -0.04420691 -0.07698043 0.107917264 0.106041424 -0.03734244 -0.0565827 0.13617939 0.11232117 0.048263848 -0.0418823 -0.07162014 -0.029171852 0.08808035 0.034559507 -0.14005953 -0.1146827 -0.13998163 0.10511012 -0.022353983 -0.18857187 -0.008264704 0.102513894 -0.1733293 -0.034197267 0.16215725 -0.08529038 0.098532446 -0.1203373 0.023833819 0.027722895 -0.05282358 0.050831165 0.008410585 0.25741467 -0.060074735 0.17893788 -0.041632917 0.024999153 -0.0729895 0.07028852 -0.015629912 0.19894035 -0.20887592 -0.17202899 -0.20060602
53 -0.089007564 -0.12832338 -0.0573779 -0.124535576 -0.029687472 -0.011642674 0.039397404 0.005612676 0.061289307 -0.0020784778 -0.12065872 0.22354634 0.08656261 -0.20473796 -0.018781953 -0.09026909 -0.077622995 0.03932222 -0.021306515 0.07347405 0.0637328 -0.085798204 -0.0045420127 0.10299449 0.008653895 -0.061887447 -0.03503275 -0.02309475 -0.0077783642 -0.17661354 -0.009031841 -0.023862831 -0.17171195 -0.14507802 -0.09236748 -0.06945925 0.13455863 0.05160595 0.023673523 -0.0323 -0.07015004 0.13147761 0.09474713 -0.05893894 -0.058073007 0.1515718 0.12584183 0.0520525 -0.031793457 -0.082567 -0.055493202 0.095111564 0.053023875 -0.1553269 -0.11784998 -0.16177051 0.08969782 -0.02615185 -0.17664213 -0.016660398 0.10509593 -0.17423792 -0.015316318 0.14064246 -0.071432225 0.08537412 -0.093067154 0.006704368 0.013469473 -0.05803075 0.05641351 0.011625047 0.22486342 -0.045307413 0.16232242 -0.033439506 0.01545987 -0.07974932 0.0401962 -0.02167893 0.19369052 -0.20365082 -0.17694682 -0.18941802
0 -0.07966928 -0.12667628 -0.041906923 -0.109343015 -0.050923556 -0.018067623 0.056685843 -0.0029751095 0.058861755 0.0028631915 -0.079969615 0.19319409 0.057818063 -0.15404527 -0.011436793 -0.06970105 -0.056808382 0.025698008 -0.024715243 0.053511877 0.053894553 -0.09578615 -0.010559462 0.08810033 0.0073939105 -0.06328179 -0.03950467 -0.005925226 -0.004494697 -0.16605091 -0.020077145 -0.0193673 -0.20102368 -0.1437499 -0.09860251 -0.076895125 0.13916935 0.056650262 0.05254952 -0.049804203 -0.07758933 0.13067175 0.11941985 -0.060719952 -0.071187176 0.1639794 0.13622722 0.040777538 -0.04193389 -0.07745151 -0.06292546 0.10186841 0.04258175 -0.16349548 -0.13119799 -0.16147386 0.09639803 -0.014666788 -0.18740189 -0.012033078 0.12136085 -0.19749145 -0.04096588 0.17055012 -0.07346102 0.08832518 -0.10964228 0.0032760648 -2.781584e-06 -0.059277225 0.03796639 0.011839637 0.22926578 -0.050691456 0.15603553 -0.0308387 0.024546208 -0.06662563 0.035428483 -0.008121434 0.19368501 -0.1944063 -0.1811155 -0.17574118
15 -0.094607346 -0.116973564 -0.042050637 -0.13388906 -0.034785677 -0.012050938 0.048662607 -0.0025864774 0.047009587 -0.00025975078 -0.11295195 0.19516039 0.0750788 -0.16372456 -0.007082507 -0.08965748 -0.0706874 0.019243183 -0.024126342 0.059497856 0.061652347 -0.0856407 0.011879129 0.108476736 0.0037817322 -0.04508181 -0.058635022 -0.00951295 -0.0071385107 -0.1585697 0.0016136869 -0.008196917 -0.17659102 -0.14278498 -0.115844965 -0.08169164 0.12989509 0.05039631 0.04848162 -0.031861234 -0.08744259 0.13997959 0.11616412 -0.052538153 -0.03930113 0.1632522 0.11464986 0.048977114 -0.0388578 -0.07729862 -0.051187932 0.101058826 0.04620934 -0.14987491 -0.13067183 -0.15098195 0.08870434 -0.039832577 -0.17726645 -0.0039247456 0.12263696 -0.1867439 -0.02650048 0.16478398 -0.060445987 0.10381169 -0.12528671 0.01215823 0.027374791 -0.041409284 0.049894415 0.0016023774 0.25346377 -0.060248677 0.17450626 -0.03509044 0.028338261 -0.06278314 0.03270503 0.00050128764 0.20213734 -0.19442016 -0.17686331 -0.20371279
2 -0.09199271 -0.12030999 -0.052161198 -0.1419331 -0.046444096 -0.037079852 0.055086188 0.0061572674 0.04965344 0.0065376693 -0.12490938 0.2141146 0.07824857 -0.18121254 -0.012515812 -0.08522129 -0.061256837 0.015051993 -0.023024105 0.051462535 0.06055113 -0.07868791 0.00077976764 0.09563493 0.0011536649 -0.057255704 -0.03154815 -0.005984582 0.0041253013 -0.1543176 -0.009277288 -0.019986242 -0.17919816 -0.13456547 -0.105190694 -0.07159766 0.13903499 0.04106693 0.046002064 -0.054058503 -0.07537404 0.13759501 0.1080735 -0.048980284 -0.06694985 0.15305586 0.12779444 0.07048478 -0.050895516 -0.074160375 -0.035178408 0.096689954 0.041630697 -0.16013877 -0.13835248 -0.15705784 0.111353405 -0.017853657 -0.19761877 -0.010533079 0.10480992 -0.18392858 -0.0381043 0.1552578 -0.0904721 0.08728335 -0.11787727 0.01870302 0.010858508 -0.04865317 0.04592228 0.0035502817 0.23681207 -0.060414393 0.15869406 -0.023682 0.018755652 -0.070862375 0.05628969 -0.020677054 0.18402182 -0.19375299 -0.16656396 -0.1744126
25 -0.07663292 -0.108213946 -0.05608526 -0.122314654 -0.051341776 -0.018687164 0.05454212 -0.002917284 0.056017056 0.0004111066 -0.13474861 0.20849767 0.08710185 -0.15770434 -0.01650815 -0.08444933 -0.07346653 0.03457749 -0.03176537 0.08407627 0.069908015 -0.07823944 0.0057244543 0.102499545 0.0020332828 -0.05973088 -0.043191697 -0.01426423 -0.011230726 -0.14886247 -0.00048982294 -0.027181381 -0.15636393 -0.1353391 -0.09755416 -0.06977909 0.12840626 0.052313883 0.027406959 -0.04149127 -0.07992294 0.1316739 0.11230941 -0.07755662 -0.046980124 0.17465886 0.13903834 0.057387974 -0.03845044 -0.09077076 -0.050959203 0.10949841 0.049742516 -0.15916458 -0.11902551 -0.14848548 0.095928475 -0.03153358 -0.17719105 -0.01682996 0.11134715 -0.18398197 -0.020985365 0.15336964 -0.07431427 0.08864453 -0.11685372 0.0033378082 0.022364052 -0.045173783 0.04395844 0.008400105 0.2459261 -0.046424005 0.18110952 -0.038893487 -0.001728102 -0.05925161 0.04733683 -0.01009046 0.18621787 -0.19459555 -0.1555545 -0.19814034
75 -0.05301315 -0.0996193 -0.05993958 -0.104396746 -0.03329203 -0.0034972832 0.045269895 -0.00030135675 0.046975583 -0.0017997365 -0.08778764 0.17858699 0.07496568 -0.1542292 -0.011710902 -0.083259106 -0.061849367 0.03178882 -0.024784844 0.064502686 0.048683554 -0.089062616 -0.011341762 0.086476594 0.009315537 -0.06823608 -0.055376306 -0.009088632 -0.0020268261 -0.16097058 -0.018771987 -0.0062640053 -0.2064854 -0.15301694 -0.12140234 -0.09767039 0.13756397 0.050082207 0.0380299 -0.046720497 -0.06808717 0.13462298 0.120081946 -0.08225266 -0.0746381 0.1625382 0.13886316 0.05126062 -0.01609501 -0.093961954 -0.050326563 0.111213 0.035505675 -0.15292592 -0.12354903 -0.15496902 0.100726195 -0.035969757 -0.1711657 -0.015119753 0.10079582 -0.18817003 -0.019087553 0.15779343 -0.063814566 0.10681561 -0.10148562 -0.0062744585 0.008534185 -0.057566263 0.04817163 0.020406941 0.2393143 -0.07098435 0.17599732 -0.039356958 0.0064181653 -0.075775236 0.050798442 -0.003657777 0.21911642 -0.19871771 -0.19213544 -0.19185282
21 -0.092577465 -0.1029161 -0.05309589 -0.15893061 -0.046860702 -0.028295545 0.05705302 0.0067333155 0.062249128 0.012005529 -0.1296045 0.22482269 0.10344654 -0.21201771 -0.019282227 -0.104597285 -0.08648597 0.028097078 -0.022649363 0.07639035 0.06760126 -0.09387439 -0.0031398549 0.1293406 0.012751878 -0.06660432 -0.044307217 -0.009103736 -0.0027462032 -0.17077991 -0.001496832 -0.02508551 -0.20223542 -0.17971109 -0.14370155 -0.10855981 0.15130413 0.05303435 0.04355358 -0.053018477 -0.08060158 0.16643453 0.11653527 -0.08542271 -0.06477322 0.18612641 0.1521166 0.071421415 -0.0319668 -0.091475494 -0.047541656 0.11554937 0.05104999 -0.16677834 -0.13224494 -0.15442921 0.094861396 -0.038504243 -0.18129604 0.00051790423 0.08832289 -0.17817041 -0.020229276 0.14788677 -0.056195945 0.08610301 -0.09196087 0.0023191853 0.0070559504 -0.045655742 0.039952975 -0.0059235124 0.18226397 -0.036581185 0.12159715 -0.031974606 0.004960765 -0.06047601 0.026893573 -0.00187124 0.13934375 -0.13976169 -0.13176523 -0.15896189
76 -0.07543491 -0.1057117 -0.051390167 -0.1082434 -0.019909682 -0.016694963 0.050622337 0.014831142 0.054150313 -0.007772904 -0.109789565 0.20639381 0.08075755 -0.17643183 -0.006994665 -0.095594645 -0.061151344 0.029211659 -0.020557666 0.06630669 0.048237875 -0.08251537 -0.0032351061 0.078510575 0.010670493 -0.04743618 -0.04217774 -0.02545466 -0.0007553302 -0.15625435 -0.0087960875 -0.032672767 -0.15944067 -0.11972144 -0.08198873 -0.06943236 0.11955947 0.037799474 0.034075003 -0.031837557 -0.07698413 0.123978466 0.113371365 -0.062990524 -0.065142535 0.15804005 0.1256067 0.050515026 -0.024190607 -0.079805784 -0.04484354 0.09001908 0.039442483 -0.15577415 -0.10899719 -0.1468651 0.10670556 -0.025879942 -0.18768114 -0.013478213 0.115394965 -0.18129332 -0.036591586 0.17260902 -0.08186605 0.10816325 -0.12493751 0.004372225 0.019378515 -0.056538444 0.06146382 0.0167834 0.26370856 -0.062092204 0.19802687 -0.03385733 0.011476943 -0.078369945 0.06341134 -0.011754347 0.21011002 -0.2001319 -0.1829392 -0.1972703
67 -0.12036672 -0.1600072 -0.06629496 -0.17153594 -0.055195455 -0.042103272 0.053924482 0.0046064593 0.071445286 0.021289451 -0.14816122 0.2733623 0.08306344 -0.22478582 -0.018779898 -0.09625042 -0.055665124 0.02364449 -0.022803023 0.060870394 0.058513597 -0.0725529 0.012518857 0.0664514 0.025583975 -0.038666077 0.005255277 -0.029619638 -0.0034725282 -0.12549017 -0.015179959 -0.047192745 -0.15256907 -0.124129064 -0.0606013 -0.082621045 0.11115352 0.03819473 0.031540725 -0.043189574 -0.06848378 0.09715818 0.08801722 -0.026370404 -0.07658074 0.12445601 0.10153869 0.060370907 -0.032140613 -0.076435216 -0.029862639 0.084919766 0.035970062 -0.14668897 -0.090569526 -0.1330862 0.08727336 -0.006770157 -0.15215647 -0.017940762 0.086727664 -0.14718609 -0.04002866 0.13016741 -0.088478155 0.08516012 -0.08712257 0.024725838 0.029664293 -0.036627695 0.044138085 0.024258645 0.26030982 -0.041337725 0.1854816 -0.048709128 0.0045300163 -0.0637346 0.09952795 -0.015556033 0.2122307 -0.24306375 -0.18811548 -0.22697738
32 -0.108319364 -0.1409375 -0.08772077 -0.16312535 -0.039803382 -0.029099328 0.06786941 0.008110742 0.05645991 0.0029657732 -0.14916706 0.24240725 0.092262894 -0.18113689 -0.019968204 -0.07961377 -0.06889184 0.02643198 -0.028106509 0.07177511 0.057638533 -0.07679482 0.0028873791 0.09079895 0.0061963783 -0.051509015 -0.051523652 -0.008722671 -0.0039557717 -0.14437288 -0.0111829 -0.023977788 -0.16849266 -0.13497289 -0.1040663 -0.08212184 0.13820633 0.051201925 0.026060544 -0.04278869 -0.06542393 0.12933756 0.097419865 -0.067212984 -0.05857898 0.14720327 0.13177598 0.06311542 -0.034796976 -0.080444045 -0.029667817 0.095836006 0.044839688 -0.16414812 -0.1252328 -0.14981657 0.09204768 -0.029966794 -0.160924 -0.03452519 0.09580663 -0.16416952 -0.036904383 0.15430406 -0.060935132 0.07932642 -0.1063102 0.0102667585 0.021318886 -0.045348834 0.040562943 0.013972878 0.23424321 -0.06358498 0.15798779 -0.024399705 0.015157688 -0.063100345 0.05939542 -0.0011871882 0.18607903 -0.19202097 -0.15465583 -0.17954391
41 -0.09231185 -0.1403362 -0.053451367 -0.13605036 -0.035451174 -0.028104374 0.054697458 -0.006542502 0.07707782 0.007311715 -0.11885557 0.22932968 0.07535044 -0.18767044 -0.008044625 -0.09125337 -0.062210273 0.03322342 -0.02662282 0.06537979 0.06642582 -0.10034863 -0.0043482687 0.09588774 0.016532442 -0.06552485 -0.032671664 -0.015278846 -0.001781245 -0.17102404 -0.021268534 -0.02617011 -0.19854753 -0.15084323 -0.09698191 -0.07536199 0.15253101 0.053130496 0.03813915 -0.043790486 -0.06377003 0.13678262 0.10844488 -0.06877378 -0.07142868 0.16418181 0.13336281 0.070877805 -0.032980647 -0.08455235 -0.04360577 0.09482372 0.045529123 -0.16438904 -0.10891328 -0.16072102 0.11327714 -0.014802608 -0.1978201 -0.022831617 0.105046734 -0.18256783 -0.02983308 0.15762028 -0.07239072 0.08832211 -0.094170146 -0.0023381028 0.017805373 -0.04126912 0.041923955 0.00027152704 0.20151971 -0.051958725 0.13418512 -0.027804462 0.015935075 -0.05939388 0.049783338 -0.022894464 0.17054307 -0.1805073 -0.1597977 -0.16463982
69 -0.077992484 -0.11326195 -0.05533651 -0.10590226 -0.017578324 -0.0055966894 0.043811902 0.002725745 0.04326183 -0.0019165266 -0.0818467 0.18033214 0.06896584 -0.14896868 -0.0064471657 -0.077412754 -0.06510532 0.017172504 -0.009431861 0.042500388 0.040472575 -0.0733556 -0.0007389697 0.08284017 0.019436529 -0.06760298 -0.049933836 -0.025056742 -0.00081768376 -0.1602516 -0.0288809 -0.007421947 -0.20377544 -0.1462489 -0.105968036 -0.0920996 0.13117644 0.050374117 0.02980234 -0.034801804 -0.064848825 0.13018394 0.11165064 -0.06775208 -0.07325175 0.16599254 0.13460214 0.049806327 -0.018779447 -0.095623456 -0.049105495 0.10076173 0.03172222 -0.17049557 -0.14560558 -0.16888674 0.118960895 -0.038079683 -0.19908349 -0.017060008 0.11767321 -0.18970788 -0.028310249 0.16127448 -0.054585766 0.10398221 -0.11257893 -0.0016507715 0.011490306 -0.055413313 0.06539845 0.008752411 0.24981181 -0.07726093 0.16386011 -0.031687003 0.031314824 -0.08250377 0.061728097 -0.015188977 0.20321043 -0.19534847 -0.17762105 -0.17002198
23 -0.104319304 -0.1421943 -0.08483642 -0.15669785 -0.04596724 -0.013748051 0.05622629 0.01306377 0.056239173 -0.0068578376 -0.13063148 0.23274188 0.09376558 -0.18372719 -0.028664488 -0.09387304 -0.074964434 0.048599597 -0.023577701 0.07447122 0.053110883 -0.085258484 0.0006359873 0.101449184 0.00021361768 -0.051167507 -0.06621801 -0.01893361 -0.007522148 -0.14622904 -0.011887804 -0.007996921 -0.17017074 -0.118462704 -0.08848146 -0.078267105 0.13744529 0.03610325 0.016941635 -0.028427638 -0.07702203 0.12721506 0.09725924 -0.06168185 -0.05739344 0.16787328 0.12736502 0.056710176 -0.038760595 -0.09311252 -0.0483483 0.08751705 0.044080146 -0.15885606 -0.13269204 -0.15309381 0.092693195 -0.018063392 -0.18008015 -0.027376287 0.10479296 -0.18220954 -0.027373971 0.15560134 -0.06373734 0.08611708 -0.10106233 0.00082962454 0.032367468 -0.04521293 0.037635036 0.0041302987 0.23565096 -0.06336762 0.16001348 -0.019086016 0.026734788 -0.07482123 0.06260253 -0.017292826 0.1980986 -0.18315312 -0.15620379 -0.17377707
82 -0.07870621 -0.107494414 -0.04709779 -0.10106178 -0.015339692 -0.023049645 0.048901964 -0.002124075 0.043512803 0.004682954 -0.09055632 0.18026632 0.0711164 -0.16944118 -0.006823142 -0.064756066 -0.066668585 0.022411022 -0.005235222 0.044594456 0.043082718 -0.084739424 -0.001840934 0.0832215 0.023920411 -0.06940549 -0.024235897 -0.021053629 -0.0027139615 -0.17076635 -0.022679359 -0.01632086 -0.19892529 -0.16137461 -0.09744034 -0.075853094 0.12792154 0.043992214 0.03286167 -0.055163402 -0.03941029 0.12503476 0.09474122 -0.061163474 -0.0616724 0.12920146 0.1321773 0.065290056 -0.02867581 -0.08427802 -0.03260844 0.10165008 0.03151323 -0.16991659 -0.12309757 -0.16641389 0.1307275 -0.026942661 -0.20597908 -0.017320147 0.11471622 -0.20365125 -0.02187058 0.18999057 -0.07412851 0.10465515 -0.116401896 0.017444722 0.0029924195 -0.061206352 0.063798524 0.012680989 0.2542454 -0.061419576 0.15664348 -0.031043718 0.018220678 -0.07864942 0.06254474 -0.005973097 0.19334716 -0.20421952 -0.18670627 -0.17780446
46 -0.08190157 -0.09921229 -0.05077187 -0.11844318 -0.04713638 -0.020124093 0.056991853 0.011417362 0.040762216 0.012310168 -0.118556894 0.19811302 0.06494332 -0.143429 -0.0096908035 -0.08785371 -0.05436382 0.025864592 -0.032947313 0.07224863 0.051189147 -0.08351137 -0.0075789276 0.10407905 0.03159498 -0.06267205 -0.052343603 -0.018135983 -0.0013271368 -0.15085603 -0.0034078085 -0.014805626 -0.20968221 -0.1490288 -0.11507421 -0.0967414 0.13282053 0.04191662 0.05355218 -0.051168308 -0.096455924 0.13653682 0.11852846 -0.061484233 -0.056439403 0.15870443 0.1213958 0.051965598 -0.043190565 -0.09282419 -0.020460308 0.09191833 0.035983674 -0.13409105 -0.113138154 -0.12545356 0.0947955 -0.033086415 -0.17863171 -0.024815563 0.10706326 -0.17664261 -0.020997439 0.14577466 -0.073279224 0.09929112 -0.12792532 0.004294231 0.03607885 -0.03429277 0.027015422 0.007432066 0.26174057 -0.056117643 0.17384468 -0.03553289 0.009455733 -0.06153426 0.053165276 -0.0069889906 0.20465867 -0.2143085 -0.17760107 -0.20612378
14 -0.10333705 -0.13854307 -0.06904097 -0.1558839 -0.049208533 -0.026834996 0.056333255 -0.0022509508 0.061598223 0.016234132 -0.16720079 0.24451807 0.1004703 -0.21174842 -0.0143506555 -0.08899571 -0.07499861 0.043928795 -0.039491 0.083223574 0.09210397 -0.082193874 0.021745171 0.1231358 0.0042052087 -0.045338765 -0.02261447 -0.016394624 -0.018891754 -0.13344221 0.003803155 -0.02642614 -0.16884482 -0.14707114 -0.087341 -0.08889355 0.13089445 0.05008842 0.019292014 -0.05173717 -0.08214462 0.12844588 0.101404965 -0.0606118 -0.04953704 0.15407291 0.12512529 0.054671325 -0.031151203 -0.071857095 -0.03519453 0.08411193 0.032760717 -0.1325984 -0.08710727 -0.12947306 0.07507015 -0.023341695 -0.14790668 -0.029011639 0.09424817 -0.16408399 -0.021407383 0.12826513 -0.07334969 0.09374122 -0.110424615 0.012637889 0.031780355 -0.038760614 0.03703408 0.021748522 0.25101104 -0.041680362 0.18338856 -0.045144558 0.009324984 -0.053167168 0.05571464 -0.017067922 0.19332439 -0.22550833 -0.16214976 -0.22732721
16 -0.10693305 -0.12448454 -0.04773178 -0.11763662 -0.05962428 -0.03094179 0.0660427 -8.6224045e-06 0.05496761 0.0018305249 -0.11106399 0.19778693 0.07788253 -0.17002763 -0.022989487 -0.06386475 -0.07168295 0.017864382 -0.03533269 0.04426503 0.061248098 -0.07019001 0.021965262 0.07291616 0.009995104 -0.055161666 -0.024731046 -0.021394111 -0.011635401 -0.14827734 -0.019836608 -0.020283796 -0.15680541 -0.1398138 -0.07887992 -0.06422072 0.12730044 0.049472768 0.021679373 -0.04877875 -0.057572942 0.111782044 0.08879382 -0.051081486 -0.06309198 0.15173122 0.1533947 0.06599562 -0.046922315 -0.06690702 -0.03657087 0.1036145 0.035618696 -0.15459757 -0.1293799 -0.15559505 0.090318136 -0.021220353 -0.17013745 -0.028700627 0.10891701 -0.185217 -0.035613712 0.15065297 -0.07861498 0.088148795 -0.119197346 0.018887943 0.025333766 -0.054689754 0.04906497 0.0025007466 0.24681365 -0.06605153 0.18086854 -0.03337427 0.028270826 -0.07634153 0.05431455 -0.022943728 0.20524934 -0.22199802 -0.17778336 -0.21859013
17 -0.10582826 -0.15760383 -0.06161031 -0.15438148 -0.07455011 -0.03465778 0.05710575 -0.0007848252 0.077387504 0.013460764 -0.13524228 0.2502144 0.099465445 -0.20636836 -0.024895346 -0.084397994 -0.06716013 0.027200392 -0.02594661 0.065929346 0.06942092 -0.10140628 0.013833423 0.0998504 0.0071140015 -0.047489885 -0.027982693 -0.016979959 -0.0027602953 -0.15287922 -0.019178532 -0.023287944 -0.1848566 -0.14576821 -0.09807464 -0.087073356 0.14128841 0.052812934 0.04318379 -0.04269746 -0.07596955 0.11603344 0.09305486 -0.048896052 -0.07212824 0.15757091 0.12785703 0.06585036 -0.039170984 -0.08234301 -0.055585522 0.09519337 0.03327202 -0.15983284 -0.11822958 -0.15258616 0.08997725 -0.0114778895 -0.16792203 -0.019279972 0.10328577 -0.17293605 -0.03832549 0.13641891 -0.072496764 0.0764273 -0.08736644 0.010811237 0.006652842 -0.03395892 0.023330951 0.0050145406 0.19978037 -0.049111098 0.15371266 -0.01577691 0.01218799 -0.06283452 0.05463844 -0.027356602 0.18966964 -0.19336058 -0.15547808 -0.1817819
24 -0.112370074 -0.12220968 -0.061957866 -0.13481802 -0.037934233 -0.023404537 0.06450285 0.007596678 0.047225997 -0.0072648996 -0.13304538 0.23927498 0.096566275 -0.19310546 -0.027287139 -0.0931412 -0.07718744 0.038116667 -0.031779055 0.053848557 0.062052805 -0.07248859 0.019152047 0.0983778 -0.0017209335 -0.033783548 -0.0469787 -0.017999906 -0.0041167648 -0.12335543 -0.010332241 -0.009680189 -0.14286453 -0.11497567 -0.08153251 -0.07595661 0.1229389 0.027230086 0.017689547 -0.032985907 -0.06259076 0.12006014 0.09571578 -0.055635147 -0.060190964 0.1589369 0.13021913 0.0582809 -0.033800647 -0.087713376 -0.035603218 0.101032846 0.027726118 -0.15146382 -0.12743556 -0.14397451 0.09169589 -0.033135574 -0.16333999 -0.014965983 0.093546234 -0.17186227 -0.04079372 0.16545099 -0.07955267 0.09077191 -0.11980524 0.020769993 0.030664211 -0.044448514 0.04902776 0.021193637 0.24058741 -0.060516052 0.18213584 -0.032475747 0.0250491 -0.073856845 0.057506446 -0.0033811757 0.20002769 -0.18420543 -0.15482469 -0.2034541
47 -0.11186944 -0.14696793 -0.07009326 -0.16525988 -0.05411808 -0.026921647 0.05979633 0.009728467 0.07966941 0.014925265 -0.14329366 0.26168242 0.1027082 -0.22707304 -0.016778033 -0.09330421 -0.077645555 0.0345474 -0.03123854 0.08509422 0.07240332 -0.09829247 0.008416887 0.117246404 0.025786787 -0.05743363 -0.033801075 -0.01232869 -0.010924237 -0.16158864 -0.022803778 -0.027985804 -0.1859444 -0.16335905 -0.09926834 -0.09437009 0.13853735 0.045950174 0.02070418 -0.04176967 -0.067778185 0.13580766 0.09382207 -0.06052975 -0.055542666 0.1532781 0.12477634 0.054141685 -0.035205837 -0.07330453 -0.03045275 0.08247037 0.040139537 -0.13884357 -0.09929117 -0.13388497 0.0843466 -0.015191186 -0.15707478 -0.031321347 0.08242421 -0.16243716 -0.033383902 0.114409074 -0.061147843 0.0778157 -0.0927799 0.0058689076 0.014122488 -0.0373201 0.0352737 -0.008464319 0.23130721 -0.054915827 0.14520474 -0.037387975 0.0092448825 -0.05691815 0.05510926 -0.026808023 0.16547388 -0.19515891 -0.15474084 -0.18128993
9 -0.076429926 -0.14002629 -0.059527997 -0.1265796 -0.06767286 -0.014481706 0.049664833 0.011026337 0.07680947 0.001395096 -0.12287615 0.2242147 0.08390266 -0.1791346 -0.029017357 -0.080862656 -0.0590145 0.032502808 -0.033908714 0.06522269 0.055072013 -0.07051322 0.004374859 0.084409505 0.0005987968 -0.05046184 -0.04158406 -0.01841331 -0.0058393367 -0.13949996 -0.015967105 -0.020815076 -0.18004614 -0.13305795 -0.08284132 -0.08403838 0.13475698 0.05837872 0.025375696 -0.036095913 -0.103755884 0.10500927 0.113869675 -0.036810588 -0.069662124 0.1657094 0.12898242 0.029942691 -0.042328544 -0.08230439 -0.0586199 0.095722705 0.029080778 -0.13133755 -0.114583574 -0.14655128 0.06869719 -0.0062279333 -0.15527947 -0.01960046 0.10993111 -0.16905826 -0.03345614 0.12822317 -0.07057148 0.0743764 -0.09595387 0.0052202 0.026443282 -0.04857215 0.028661698 0.017362375 0.24075916 -0.05252269 0.17475304 -0.0379697 0.019083967 -0.0618278 0.044266805 -0.019525887 0.21208294 -0.22305684 -0.18443097 -0.20894898
51 -0.10212207 -0.115167946 -0.07093918 -0.14576632 -0.024346331 -0.017028853 0.06036698 0.010266242 0.05107672 0.011653812 -0.122418806 0.22024609 0.0892741 -0.18972358 -0.01315942 -0.09192879 -0.07440493 0.031851493 -0.021639064 0.055423565 0.055302624 -0.098528326 0.011138829 0.108414 0.029048204 -0.049190573 -0.04809198 -0.015993085 0.00040961956 -0.13779984 -0.0144354785 -0.0014752306 -0.18705055 -0.14977491 -0.11578541 -0.088655755 0.14036825 0.041740242 0.02058583 -0.035232753 -0.061293334 0.15448073 0.09347619 -0.0704739 -0.061684337 0.16258265 0.13590488 0.06961299 -0.022425849 -0.088821314 -0.031126624 0.08979108 0.05188983 -0.15360442 -0.13058436 -0.15617786 0.11763236 -0.043774933 -0.19154215 -0.023457373 0.11420396 -0.18111771 -0.03102762 0.16609089 -0.06125727 0.102685764 -0.112181365 0.011688471 0.019557318 -0.047689505 0.05277612 -0.0050829053 0.23917252 -0.067704245 0.14852564 -0.033608727 0.027915489 -0.06012741 0.044985242 -0.013330856 0.15282418 -0.16499016 -0.1453797 -0.15868454
65 -0.074033454 -0.113945805 -0.07523848 -0.118519716 -0.008751703 -0.0018157903 0.035055235 0.020072555 0.04294797 -0.008659483 -0.084993385 0.19132183 0.096003495 -0.19350347 -0.024874661 -0.09712517 -0.06536421 0.051950343 -0.012902724 0.06781054 0.044185717 -0.08120021 -0.0063671526 0.09578146 0.00955215 -0.048635766 -0.054825455 -0.012634567 -0.0049626394 -0.14960445 -0.011300397 -0.013346813 -0.17793559 -0.13727935 -0.107969284 -0.092819504 0.13766068 0.038627643 0.012459453 -0.024152001 -0.06612362 0.13939016 0.10091142 -0.07054106 -0.07319213 0.15249893 0.12905504 0.05003647 -0.0252726 -0.10022149 -0.0605051 0.09512557 0.04934837 -0.16278039 -0.13416535 -0.1665171 0.088358425 -0.034125865 -0.17258622 -0.013129703 0.090849444 -0.17339967 -0.037747767 0.15701725 -0.06733114 0.10319074 -0.095408075 0.007487127 0.018213773 -0.0630722 0.05322832 0.018420462 0.2490825 -0.06949567 0.15156332 -0.039138313 0.027811334 -0.09630746 0.055895686 -0.009343528 0.20823352 -0.18788578 -0.18700762 -0.17523754
33 -0.09422573 -0.13584167 -0.073614374 -0.12592064 -0.047504023 -0.025049694 0.05521396 0.013833828 0.050615095 -0.011702129 -0.12410999 0.21339099 0.102674626 -0.20190035 -0.02352302 -0.08611629 -0.08757298 0.054639153 -0.032081407 0.07901206 0.07788919 -0.0900718 0.016589118 0.0904435 -0.015491426 -0.046862263 -0.054194104 -0.016121626 -0.0150333615 -0.14266923 -0.00012175898 -0.013284796 -0.15998995 -0.12880167 -0.08724089 -0.07587322 0.12465654 0.0467002 0.011942583 -0.031604562 -0.082075 0.12216078 0.099729076 -0.069359004 -0.07085533 0.17960559 0.14685799 0.054861415 -0.04048795 -0.09168744 -0.06826314 0.112136975 0.047701515 -0.16186775 -0.13030536 -0.16230789 0.07727277 -0.018756934 -0.15614198 -0.017415093 0.117160074 -0.18786669 -0.033861533 0.16191915 -0.06873347 0.07719316 -0.09387185 0.003752468 0.029983744 -0.044554733 0.03946838 0.017886322 0.21628879 -0.040818688 0.15989411 -0.02017797 0.017706549 -0.07139023 0.05446215 -0.012517339 0.20617272 -0.19471334 -0.16677114 -0.19507349
58 -0.07440294 -0.12281678 -0.06895187 -0.14502515 -0.055666815 -0.0148460325 0.061629776 0.009838035 0.06466998 0.010975918 -0.1383007 0.22716309 0.09155903 -0.16941498 -0.014072174 -0.10541698 -0.0738209 0.034808718 -0.048311137 0.074889086 0.07017359 -0.09380865 0.003927628 0.09335505 0.0176288 -0.05947947 -0.044242173 -0.016846322 -0.003213465 -0.14282526 -0.010948305 -0.038348865 -0.15404163 -0.13060084 -0.08535931 -0.07563034 0.13288802 0.044947695 0.026983617 -0.037407655 -0.08216723 0.1268318 0.10434799 -0.060819943 -0.07045886 0.17374542 0.1267016 0.06143208 -0.036684614 -0.09730706 -0.037277367 0.092930764 0.062261302 -0.14111 -0.10697311 -0.12979965 0.09525809 -0.030991979 -0.17275797 -0.026064886 0.10441735 -0.18262008 -0.03093211 0.13072701 -0.06433405 0.08951831 -0.10368924 -0.0040762997 0.030362908 -0.04463803 0.035154425 0.0036282542 0.23997849 -0.0658304 0.17487577 -0.03644746 -0.004007226 -0.06572735 0.06780808 -0.01859413 0.19532846 -0.21853259 -0.16839023 -0.184202
8 -0.07084509 -0.1024683 -0.036830828 -0.1083682 -0.041553322 -0.01914507 0.054858148 0.004148313 0.03275437 0.0045772125 -0.09592788 0.14471456 0.065648496 -0.14081414 -0.009572629 -0.070146285 -0.05834211 0.023992464 -0.009684726 0.0645764 0.048079945 -0.08929679 0.0016082735 0.09781774 0.0062168753 -0.05431003 -0.05556466 -0.0022304696 -0.010823102 -0.16626498 -0.00032811708 -0.006930549 -0.19561356 -0.1492605 -0.12535363 -0.0776709 0.1377737 0.048335217 0.050667107 -0.040297993 -0.08329632 0.13910191 0.11565255 -0.053641412 -0.04518107 0.16202427 0.13144813 0.054529596 -0.046805553 -0.072364025 -0.052361317 0.11131708 0.048405785 -0.16909535 -0.14085405 -0.1622324 0.09541103 -0.031158922 -0.2043162 -0.007365772 0.11746508 -0.20281129 -0.018193627 0.18196653 -0.07072163 0.092985265 -0.12565793 0.01251939 0.020906705 -0.060838476 0.046461996 0.0019883981 0.24576838 -0.056122277 0.16041964 -0.025409456 0.018185172 -0.06441316 0.041787412 0.0038423599 0.20595104 -0.1981964 -0.18899763 -0.18780045
55 -0.07658785 -0.11852921 -0.058717463 -0.13471115 -0.046662826 -0.021802137 0.057922248 0.013573563 0.044482343 0.008506359 -0.11990368 0.19070762 0.08574063 -0.17034261 -0.012033537 -0.08694929 -0.06276902 0.038306504 -0.025197005 0.07315356 0.06456961 -0.07554816 0.0032461036 0.10144709 0.01769267 -0.06209979 -0.044192594 -0.023352444 -0.012228678 -0.14128016 0.00019970952 -0.027128862 -0.1777814 -0.15163036 -0.11017611 -0.08671229 0.12505963 0.043882955 0.028647294 -0.056698486 -0.0846387 0.13498619 0.112177566 -0.06845898 -0.054352574 0.17349826 0.14241087 0.06072357 -0.027898412 -0.093221016 -0.046042856 0.1078752 0.039929267 -0.14816259 -0.1251112 -0.15299736 0.089547366 -0.032538425 -0.17112799 -0.0065092384 0.09554487 -0.15914759 -0.010063143 0.12783273 -0.06585396 0.10128619 -0.11087625 0.003973447 0.022716003 -0.047874648 0.04359581 0.014244579 0.2496591 -0.0445025 0.17050275 -0.034035884 0.005534609 -0.07235085 0.05180656 -0.0045756274 0.19119272 -0.19562711 -0.16524914 -0.1829186
13 -0.091624156 -0.13256997 -0.064542174 -0.15698752 -0.04939894 -0.025535977 0.058147617 0.0057380665 0.05479801 0.009362683 -0.12825045 0.22032833 0.07227972 -0.16491811 -0.021863677 -0.08705656 -0.05625261 0.020056976 -0.026934626 0.04435955 0.054831274 -0.062232483 0.008184605 0.07425614 0.0014116453 -0.036044255 -0.027911492 -0.010367849 0.0023277628 -0.11565844 -0.013875648 -0.01633437 -0.1699332 -0.12495007 -0.08642539 -0.094139196 0.13343911 0.05378677 0.027917013 -0.04089432 -0.0712276 0.11505468 0.102340184 -0.038887475 -0.07024432 0.15870225 0.119280316 0.047176268 -0.030701336 -0.08464049 -0.04190794 0.092088014 0.03990205 -0.14117412 -0.11756811 -0.13686667 0.09874892 -0.030666964 -0.17603633 -0.020498501 0.10249519 -0.17505409 -0.03913525 0.14770852 -0.07171827 0.09533132 -0.11281445 0.012460944 0.03128204 -0.05707364 0.043626137 0.010323471 0.25508517 -0.07200027 0.18000384 -0.04595814 0.01765277 -0.07051902 0.067560315 -0.013664271 0.20494959 -0.21614762 -0.17884423 -0.2057967
60 -0.0739701 -0.12027861 -0.061755635 -0.14752766 -0.04971038 -0.020217799 0.04165666 0.016928209 0.05924018 0.003723845 -0.11921836 0.19287464 0.076380946 -0.15920115 -0.011255742 -0.077107385 -0.050039984 0.0053080292 -0.028577248 0.04126203 0.042644467 -0.09271824 -1.1539505e-05 0.094061196 0.012625316 -0.044254698 -0.039602496 -0.009742912 0.009473414 -0.15209065 -0.018701127 -0.010803556 -0.2032825 -0.16453458 -0.11810992 -0.102880344 0.14205962 0.047574125 0.04751003 -0.050060313 -0.09400897 0.12926938 0.11468002 -0.05046665 -0.06931803 0.15543418 0.114608556 0.05035468 -0.029987419 -0.08096432 -0.039615955 0.10458564 0.035323124 -0.15609983 -0.11707043 -0.14644186 0.10554242 -0.024368951 -0.17655185 -0.010082426 0.12342346 -0.19440481 -0.038650807 0.17151387 -0.080148675 0.09275002 -0.09625982 0.03168439 -0.0019055897 -0.034817774 0.03412906 0.018621841 0.24235219 -0.048416086 0.1650437 -0.044268414 0.019768698 -0.057390243 0.049463317 0.0021566304 0.2025996 -0.19386539 -0.16916424 -0.18132676
61 -0.0820198 -0.12053399 -0.058916625 -0.10744128 -0.018296484 -0.014564792 0.054279722 0.0050926674 0.05293135 -0.016444422 -0.09079211 0.18796228 0.06477039 -0.15074135 -0.015258476 -0.07392783 -0.06242828 0.043747827 -0.02355964 0.054186802 0.039044008 -0.08737938 -0.01701648 0.08998722 0.018028127 -0.07658054 -0.061301824 -0.01788988 -0.0046762633 -0.1868038 -0.020024076 -0.01285651 -0.19308726 -0.13652915 -0.099566266 -0.06456564 0.13644767 0.036280725 0.032455105 -0.038696006 -0.060022727 0.13913226 0.115986824 -0.08094942 -0.06503721 0.15728922 0.14377505 0.06287292 -0.018983234 -0.08407634 -0.046581965 0.10555928 0.04396686 -0.16452028 -0.13567217 -0.16697378 0.10206724 -0.029333517 -0.19432719 -0.02046292 0.100278415 -0.19397761 -0.016628899 0.17390038 -0.07398776 0.10666082 -0.11454548 -0.0086046755 0.01833667 -0.057674937 0.048571333 0.016289152 0.23432894 -0.06646356 0.15154855 -0.0216343 0.026865538 -0.08599564 0.04476244 -0.010027433 0.20509197 -0.18024257 -0.18775596 -0.17134719
77 -0.04492401 -0.076715104 -0.04363943 -0.098943874 -0.025287097 -0.017006345 0.035308454 0.0032890837 0.04989891 0.004843343 -0.10321584 0.18794483 0.076855645 -0.16415657 0.00570256 -0.09208388 -0.07255087 0.040311385 -0.016936397 0.0763949 0.058325354 -0.089784116 0.0011363212 0.101228274 0.011924531 -0.05916882 -0.052126937 -0.015166223 -0.005329688 -0.15782484 -0.0125300875 -0.020060891 -0.19213931 -0.14988056 -0.12986603 -0.100320294 0.13737929 0.039023325 0.020540588 -0.04885786 -0.06971184 0.14563307 0.10953922 -0.07958985 -0.049980927 0.17313766 0.13742842 0.070022486 -0.024510548 -0.103571914 -0.04861873 0.110537715 0.047349114 -0.16711734 -0.13496932 -0.15589382 0.11274617 -0.034448747 -0.18596815 -0.007585915 0.11073698 -0.19191813 -0.020427259 0.17801952 -0.060283802 0.10744004 -0.105723105 -0.002807904 0.015300397 -0.052323807 0.049072232 0.0050082854 0.25446415 -0.055498842 0.17095184 -0.035117112 0.004785736 -0.073112614 0.04220194 -0.002531727 0.17559385 -0.16844292 -0.1638409 -0.16695938
62 -0.089625925 -0.14272761 -0.08995919 -0.15273511 -0.03750524 -0.0075582955 0.05481085 0.033920914 0.06640234 -0.024648061 -0.13015458 0.24933067 0.11676837 -0.23245348 -0.024192892 -0.1132555 -0.09622481 0.07006153 -0.021142898 0.103067584 0.047408912 -0.10953856 -0.015976358 0.1229302 0.003034262 -0.057001587 -0.076685056 -0.016173696 -0.013107203 -0.18715297 -0.005375828 -0.014942943 -0.17534213 -0.13634185 -0.10476629 -0.07432005 0.13143665 0.02759682 0.020099556 -0.016275829 -0.079996854 0.14251187 0.10913875 -0.08273941 -0.05835525 0.15944865 0.13730474 0.05516343 -0.02340691 -0.09726584 -0.067014776 0.107147545 0.049281258 -0.150795 -0.12741946 -0.16398956 0.0755737 -0.023878744 -0.16603056 -0.010083323 0.094471134 -0.16795786 -0.01820527 0.15167524 -0.0720065 0.08808072 -0.08429357 0.0014340144 0.01030629 -0.060529612 0.036158275 0.017657632 0.21847674 -0.043215066 0.1448594 -0.02417038 0.011478645 -0.08201637 0.023992905 -0.0063957577 0.1881838 -0.14343427 -0.15602744 -0.14530902
31 -0.08170331 -0.10323106 -0.048444413 -0.10616949 -0.030541567 -0.018313957 0.054729022 0.0010754811 0.04235195 0.007926756 -0.08703224 0.1785199 0.079263024 -0.15362386 -0.01437623 -0.06327023 -0.06613837 0.022649327 -0.0108296545 0.060256615 0.044327695 -0.09060135 -0.0048113223 0.10120801 0.028513854 -0.06082875 -0.048959438 -0.007932284 -0.0036360812 -0.15968566 -0.024881897 0.0009686149 -0.19666003 -0.14653182 -0.10826988 -0.0728475 0.1359801 0.048995797 0.029878214 -0.04729125 -0.05960586 0.14272209 0.09538905 -0.07167897 -0.055531893 0.16342682 0.14251086 0.059836816 -0.038087986 -0.081924215 -0.043790523 0.10335209 0.045003753 -0.16782932 -0.14170481 -0.1608944 0.11129906 -0.03148016 -0.1954811 -0.028916989 0.11956853 -0.19813898 -0.031156166 0.15982468 -0.0593214 0.08826127 -0.12317021 -0.0008967904 0.011043367 -0.04603254 0.054175027 -0.007931924 0.24368846 -0.06403616 0.14927347 -0.023571184 0.030848708 -0.06740956 0.04879728 -0.0048051164 0.17549571 -0.18885669 -0.17154552 -0.16624011
50 -0.08473661 -0.124781884 -0.066420466 -0.12569685 -0.047823153 -0.012379246 0.060468063 0.015565825 0.06526657 -9.4219526e-05 -0.11487096 0.21967675 0.08590337 -0.17947961 -0.013768251 -0.08521528 -0.07643915 0.04304521 -0.027342973 0.081781 0.051297404 -0.09145612 -0.010116923 0.10245008 0.014293784 -0.06290274 -0.055025436 -0.006600164 -0.00645602 -0.1754213 -0.017591383 -0.027599707 -0.18340726 -0.14321212 -0.09159533 -0.07331844 0.13490146 0.04991363 0.030891202 -0.03389697 -0.06407209 0.14040399 0.105307266 -0.08059083 -0.054481305 0.16476423 0.13754442 0.051827118 -0.040231947 -0.089228265 -0.05217451 0.10426023 0.051459752 -0.16189697 -0.12747394 -0.15602863 0.096654296 -0.018188976 -0.18747683 -0.023777671 0.11159722 -0.19087121 -0.030566065 0.15701666 -0.06618597 0.07688575 -0.10039763 -0.0021766447 0.01355433 -0.04878097 0.04107332 0.008958953 0.23493637 -0.04864331 0.15611264 -0.029094625 0.0036996873 -0.07053904 0.040891055 -0.011264553 0.17283948 -0.16427164 -0.15853715 -0.15849331
80 -0.066609666 -0.08102039 -0.04046453 -0.083694175 -0.017926332 -0.010538779 0.04636019 -0.006000931 0.028268268 0.010686754 -0.09455608 0.15892085 0.082831696 -0.1641038 -0.013082269 -0.06917002 -0.07563936 0.024887439 -0.014385588 0.051957987 0.06495477 -0.062926486 0.008177481 0.08849103 0.02053666 -0.057779323 -0.024173366 -0.020858282 -0.009212846 -0.1290892 -0.0050910404 -0.011167117 -0.16824292 -0.1522753 -0.11016477 -0.082110204 0.12380774 0.050848812 0.020094765 -0.04959294 -0.059693646 0.13591483 0.093108065 -0.071788915 -0.052629746 0.17386302 0.15260606 0.060696207 -0.027750384 -0.0871768 -0.03537515 0.10298188 0.037560683 -0.16726814 -0.12734437 -0.16599788 0.10480138 -0.051720306 -0.19897391 -0.01639684 0.12480203 -0.2065852 -0.019330872 0.18065564 -0.054755516 0.1109593 -0.13138193 0.0078098043 0.02806108 -0.05708571 0.068977214 0.0040403875 0.2588312 -0.06116872 0.16103947 -0.045046203 0.011727852 -0.0789332 0.052908935 -0.007075955 0.18161292 -0.21222271 -0.17834176 -0.21546902
7 -0.06843277 -0.12045838 -0.05406959 -0.1190772 -0.060013946 -0.016595034 0.040202536 0.004365589 0.05345682 0.0056958515 -0.08808254 0.17242262 0.054629907 -0.16898084 -0.010600769 -0.069411084 -0.044269245 0.023029547 -0.0355914 0.043063853 0.063233994 -0.07765634 0.0014691373 0.09131933 0.013627598 -0.06413554 -0.036410287 -0.018198377 -0.019811327 -0.15945345 -0.0053043985 -0.027584663 -0.18875341 -0.1450291 -0.11085842 -0.08937369 0.120991945 0.04693257 0.037932888 -0.047285452 -0.0895916 0.119493954 0.10741264 -0.029314034 -0.06713375 0.14340901 0.13147621 0.04823073 -0.0350262 -0.06556564 -0.042795297 0.10067265 0.03448096 -0.116623074 -0.119331904 -0.14095397 0.07297365 -0.017721461 -0.14780207 0.0038249912 0.09852815 -0.16856189 -0.022075303 0.14746127 -0.08933729 0.11128709 -0.10940891 0.02537357 0.030698746 -0.07226667 0.024243752 0.0170115 0.25359726 -0.05741241 0.18770316 -0.040718663 0.024319462 -0.085208654 0.056598496 -0.020349199 0.23334569 -0.22926554 -0.21435031 -0.22170901
68 -0.07862826 -0.09548735 -0.047044463 -0.11003121 -0.034043167 -0.011155578 0.050415438 0.0022270093 0.04106547 -0.0050012884 -0.10848553 0.19485523 0.090060525 -0.17599317 -0.016142672 -0.08108419 -0.07816397 0.03503426 -0.020517366 0.06954536 0.06038226 -0.0920806 0.009139702 0.109005325 0.0007662092 -0.054958947 -0.05746095 -0.013684716 -0.0060734306 -0.15617147 -0.0094725415 -0.010689102 -0.17339757 -0.13516082 -0.10273767 -0.078232266 0.12127322 0.03794548 0.028475575 -0.03824376 -0.068344064 0.13341641 0.09842072 -0.065744616 -0.049851563 0.16226947 0.13885774 0.059001576 -0.039646287 -0.081935026 -0.048302073 0.10141223 0.034093995 -0.16035599 -0.13667037 -0.15354356 0.10317332 -0.034328 -0.17999347 -0.009692813 0.11503025 -0.18077867 -0.032090984 0.16884209 -0.065359265 0.099230185 -0.12128847 0.014758353 0.016018748 -0.049038555 0.046439163 0.0062878984 0.24761617 -0.06262056 0.17388126 -0.030931689 0.021638488 -0.0665907 0.042640403 0.00013816614 0.2023749 -0.19303988 -0.18022272 -0.18537025
27 -0.095923275 -0.14316218 -0.06593005 -0.1455098 -0.05781651 -0.026227225 0.064094774 0.01247005 0.039977238 0.0060737915 -0.116947256 0.19243076 0.073030576 -0.15137397 -0.01751871 -0.07486641 -0.051835146 0.027532715 -0.018841265 0.057776973 0.06349577 -0.07696562 0.012658381 0.07213316 -0.0010224808 -0.044646617 -0.031026186 -0.008486587 -0.01974286 -0.12338305 -0.0019240677 -0.03921013 -0.15187544 -0.12639247 -0.073267154 -0.06835023 0.1211275 0.04983011 0.028032364 -0.048120227 -0.07647231 0.11457341 0.09840148 -0.05695884 -0.057308245 0.15471508 0.13982356 0.05054044 -0.036672957 -0.06766705 -0.045021042 0.09587328 0.041151013 -0.14753911 -0.11122502 -0.14875619 0.09054729 -0.021729901 -0.16165006 -0.013453901 0.11091925 -0.18110704 -0.043779634 0.17199187 -0.07855113 0.090598896 -0.12333676 0.019487139 0.019848535 -0.051464085 0.03386298 0.025616761 0.25379682 -0.054009955 0.19126426 -0.038751144 0.016384978 -0.0716353 0.058989465 0.0035884369 0.22369528 -0.2361499 -0.19888672 -0.21969667
5 -0.078630716 -0.13949765 -0.06642249 -0.13237166 -0.029356195 -0.011072636 0.05051948 0.00083111617 0.07224363 -0.0032414624 -0.08452493 0.2039523 0.056715794 -0.14475556 -0.009060675 -0.08085222 -0.061638128 0.023844983 -0.035304178 0.04770961 0.0477193 -0.080562845 -0.01892782 0.09438693 0.020389717 -0.069218606 -0.04673572 -0.01990457 0.0049684965 -0.17721759 -0.027580619 -0.015177755 -0.2036373 -0.15110557 -0.0962122 -0.08481586 0.14087078 0.041747622 0.03958722 -0.039686155 -0.07319131 0.13209252 0.11456083 -0.06001692 -0.07821842 0.16446665 0.12056815 0.045154367 -0.034065563 -0.09713757 -0.060542963 0.10544359 0.05616573 -0.15145975 -0.12602116 -0.15745474 0.097968064 -0.012624877 -0.17422411 -0.019900957 0.106124066 -0.19468796 -0.023717605 0.14183106 -0.08062262 0.10073582 -0.093535155 -0.005948813 0.01728989 -0.056136824 0.03744077 0.007229065 0.24340004 -0.06976185 0.14784935 -0.04098757 0.029542185 -0.07890746 0.039557774 -0.033956684 0.18483447 -0.19229397 -0.1750713 -0.17100006
56 -0.06963902 -0.114524215 -0.06326372 -0.13084768 -0.023104165 -0.007218944 0.046815485 0.014052942 0.04482464 -0.010803872 -0.101921394 0.19149838 0.0819009 -0.1757362 -0.013426832 -0.10968657 -0.08247221 0.04423978 -0.02311783 0.07408332 0.060877874 -0.096648514 0.0017718365 0.101110324 -0.0017717701 -0.051953472 -0.068302274 -0.008841029 -0.0058085243 -0.1607923 -0.0008622563 -0.020188903 -0.1597075 -0.13457534 -0.10758123 -0.073869154 0.119035535 0.042797867 0.033939406 -0.018234387 -0.06614023 0.14581066 0.11478892 -0.066925436 -0.058307257 0.17410581 0.12223318 0.0466045 -0.021080459 -0.09918405 -0.06856277 0.107444584 0.06350667 -0.16149682 -0.12523788 -0.16828923 0.10914191 -0.03951471 -0.20115726 -0.001309491 0.11916497 -0.1900676 -0.022482855 0.1787415 -0.062275883 0.10189766 -0.09627703 0.007762526 0.013236554 -0.06486939 0.052303407 0.01370127 0.2329095 -0.055727523 0.15912355 -0.03276841 0.013973402 -0.07285687 0.045627058 0.0026788283 0.18695505 -0.16013718 -0.16771334 -0.15851314
37 -0.08708273 -0.10988831 -0.03841368 -0.118765645 -0.036416013 -0.014356806 0.04849386 0.008215486 0.05814431 0.0011888875 -0.098375514 0.1856409 0.07614077 -0.16149595 -0.01906438 -0.07176784 -0.07450952 0.017714303 -0.0143726375 0.05582559 0.055423245 -0.060381986 0.0061179823 0.10024367 0.00909591 -0.051770255 -0.025590356 -0.016610544 -0.0008523053 -0.15206471 -0.010535929 -0.031493135 -0.15767913 -0.14223696 -0.08616393 -0.0770777 0.121157646 0.049561422 0.03270576 -0.044381503 -0.067627676 0.13178413 0.117874846 -0.06320606 -0.060970377 0.15768506 0.1369769 0.055682953 -0.036298282 -0.09016024 -0.05600571 0.10417511 0.038182937 -0.14907628 -0.121308565 -0.16375214 0.11182551 -0.030170118 -0.20019855 -0.008184729 0.10612389 -0.18448876 -0.022639478 0.15745324 -0.08672761 0.10616674 -0.11765161 0.022510797 0.015216334 -0.05295142 0.057399362 0.013411016 0.25138775 -0.05113442 0.17428032 -0.045953456 0.013501094 -0.06838297 0.035811167 -0.01410289 0.18287559 -0.20503162 -0.17253678 -0.20912413
20 -0.11357526 -0.15147056 -0.07465498 -0.14538856 -0.052016642 -0.03074273 0.06649842 0.016171506 0.051906813 -0.012860821 -0.13754027 0.21729709 0.10242328 -0.19881473 -0.024912026 -0.0784549 -0.09148907 0.041185245 -0.041706912 0.07214392 0.073215455 -0.08906463 0.020028198 0.10442918 0.006829431 -0.039702587 -0.041608773 -0.027622709 -0.009364236 -0.15684484 -0.011259491 -0.012888631 -0.16403523 -0.13753235 -0.076995686 -0.07583426 0.12370628 0.041188046 0.018677717 -0.038288813 -0.08192133 0.10125569 0.09895857 -0.055719037 -0.058993064 0.15294513 0.12915623 0.054144748 -0.03647529 -0.09674611 -0.05849719 0.10354198 0.03695543 -0.15625384 -0.11125573 -0.14698099 0.08457859 -0.025968516 -0.15869868 -0.018103044 0.121720895 -0.17658094 -0.025766363 0.15981717 -0.08764564 0.09506933 -0.10836607 0.025072327 0.034187097 -0.028062234 0.041162997 0.022808928 0.23801889 -0.046315484 0.16350213 -0.03067448 0.02648984 -0.058735766 0.052840948 -0.0140582025 0.20182028 -0.19734351 -0.15590718 -0.20692767
83 -0.07037181 -0.09734623 -0.04595789 -0.0776985 -0.012049942 -0.007827025 0.045274183 -0.0022525655 0.05620123 0.0030801303 -0.059996493 0.18962859 0.05056591 -0.13860856 -0.0057077035 -0.061594248 -0.053952165 0.021908559 0.006124384 0.050675157 0.028260674 -0.10393374 -0.033901077 0.079341725 0.039064884 -0.07248543 -0.048017874 -0.0045602135 0.0022603367 -0.17231922 -0.033975452 0.011310851 -0.23103054 -0.15064882 -0.11399715 -0.0781291 0.1274442 0.04665266 0.050333757 -0.04394588 -0.053616934 0.14239012 0.11291993 -0.077160895 -0.065668285 0.13733587 0.13229865 0.048517484 -0.019830327 -0.08968183 -0.0368322 0.095126405 0.025048573 -0.15707918 -0.13458697 -0.16070405 0.13581167 -0.031535204 -0.20964001 -0.024018832 0.12421895 -0.20409924 -0.035584632 0.18608396 -0.060252793 0.10869006 -0.12888494 -0.0018665924 -0.0071426714 -0.05433166 0.06417197 0.0061997706 0.261491 -0.07853782 0.14762913 -0.029717945 0.022389362 -0.075427376 0.029969936 0.005520634 0.20041198 -0.192347 -0.20207526 -0.16197209
72 -0.113059856 -0.14772911 -0.074032106 -0.15553372 -0.052046422 -0.012906815 0.061371397 0.00565507 0.067083925 -0.0044291387 -0.1361724 0.28310567 0.082843155 -0.2242834 -0.013181136 -0.11481095 -0.07641356 0.051074028 -0.052899603 0.06387094 0.0620211 -0.08437623 0.00913252 0.09383238 0.0050662765 -0.04703519 -0.04818245 -0.021160245 -0.0061712847 -0.16537125 -0.01063822 -0.03185329 -0.16330384 -0.12186046 -0.0812842 -0.088814236 0.104392566 0.019404903 0.024170466 -0.029507073 -0.05704005 0.1207389 0.086504586 -0.05500609 -0.051627744 0.12164108 0.09929703 0.02749247 -0.02236966 -0.07434085 -0.040268786 0.07984889 0.037196316 -0.10784483 -0.098991364 -0.111201085 0.056680787 -0.021701355 -0.1186245 -0.012298702 0.070632145 -0.15227 -0.037378635 0.1238935 -0.05946532 0.09800435 -0.10345288 -0.00044585447 0.020510659 -0.053290844 0.030753434 0.027309319 0.25345492 -0.0617816 0.20129713 -0.03771783 0.020625401 -0.08107167 0.06688754 -0.0035515418 0.22394645 -0.21576 -0.19312836 -0.22624478
39 -0.109755725 -0.13498552 -0.074264236 -0.1504538 -0.05415598 -0.024613297 0.06381053 0.017688753 0.046692953 0.0038952206 -0.15400104 0.22863251 0.101659276 -0.20753445 -0.02002446 -0.11127047 -0.072737195 0.05016607 -0.042493306 0.07800789 0.06578033 -0.07541963 0.027267538 0.09192535 0.0019561024 -0.035697736 -0.041784972 -0.017923048 -0.012610965 -0.121585794 0.009709057 -0.03187269 -0.15756759 -0.12949938 -0.077362314 -0.0883426 0.1170988 0.039384276 0.023667272 -0.03184056 -0.080220416 0.12216627 0.10362463 -0.060669072 -0.060237844 0.14975987 0.11175619 0.04593119 -0.024654664 -0.08293879 -0.04269876 0.09829134 0.047072686 -0.14225538 -0.10089233 -0.12836336 0.070576124 -0.0295465 -0.1455227 -0.013083917 0.09472307 -0.1654403 -0.03755661 0.14509116 -0.06739773 0.08101234 -0.10136062 0.01435476 0.038269103 -0.033331692 0.034675237 0.0318517 0.23481801 -0.035204593 0.19286421 -0.035206597 0.0019941782 -0.052098002 0.07939722 0.00324112 0.2170869 -0.21414752 -0.17383797 -0.22550663
48 -0.09460565 -0.12592752 -0.059394334 -0.1422882 -0.0430006 -0.014780345 0.04709484 0.008254724 0.04412998 0.0013287705 -0.117660224 0.2021979 0.08288435 -0.16648485 -0.02581023 -0.08871265 -0.056070555 0.011380904 -0.0219802 0.05284141 0.066525616 -0.04284768 -0.00080442167 0.07978351 0.0099495845 -0.047983706 -0.028742174 -0.03101316 -0.015378495 -0.12834463 -0.007201261 -0.041447613 -0.1539196 -0.13236004 -0.08933429 -0.09953139 0.12574674 0.045681402 0.008809396 -0.046650227 -0.09951561 0.11009118 0.111215845 -0.048484053 -0.06186706 0.17157416 0.13344738 0.035969477 -0.040390186 -0.08389956 -0.03214153 0.08904532 0.027899005 -0.12705114 -0.10888584 -0.13367766 0.06909097 -0.0134269 -0.1542052 -0.019309344 0.09284059 -0.15912627 -0.027316699 0.12709725 -0.08141063 0.103982046 -0.1308541 0.008512309 0.051008187 -0.06337981 0.049680952 0.0069271703 0.27278742 -0.06440819 0.20017986 -0.04840889 0.018458132 -0.08994208 0.0801017 -0.024393896 0.21981385 -0.23924966 -0.17119056 -0.23380087
28 -0.10760834 -0.123664185 -0.0531688 -0.13316616 -0.040419504 -0.021664625 0.07041161 0.0034580887 0.045437627 -0.0042483266 -0.14120212 0.24495345 0.079440884 -0.16168031 -0.022449179 -0.08634857 -0.080003 0.043967262 -0.016028184 0.08497964 0.05561951 -0.09312621 0.0038314986 0.10311394 0.0048457296 -0.045772135 -0.059285052 -0.01423169 6.878603e-05 -0.14277019 0.004561872 -0.00957252 -0.16039616 -0.11145773 -0.08436207 -0.064653754 0.11943973 0.0350799 0.040002428 -0.038009763 -0.06827346 0.12220219 0.109841555 -0.06536028 -0.04834219 0.13983074 0.11304332 0.0511469 -0.032430287 -0.09539775 -0.050560072 0.09205479 0.044171438 -0.1573964 -0.10943837 -0.13768843 0.09950604 -0.038354147 -0.17995395 -0.016701045 0.10236157 -0.17284484 -0.01955081 0.16827533 -0.07231611 0.094738364 -0.12802361 0.015389718 0.019468343 -0.047080424 0.047403216 0.017040446 0.2528292 -0.053470757 0.17580992 -0.028935134 0.013301715 -0.05824183 0.04230602 0.013879518 0.19927885 -0.19782354 -0.17416912 -0.19784856
34 -0.110991806 -0.15009414 -0.05587773 -0.15623273 -0.06364062 -0.038515292 0.07903374 0.0038823048 0.059767764 0.01854576 -0.15436181 0.23059152 0.07644587 -0.15051916 -0.01846046 -0.073101945 -0.050436486 0.017950017 -0.028376 0.056650583 0.06296922 -0.05756466 0.018988758 0.07651233 0.017306894 -0.048788384 -0.012599698 -0.0254421 -0.008585496 -0.10891966 -0.001955255 -0.031068746 -0.15259975 -0.12632686 -0.06737804 -0.06553479 0.1295553 0.047867883 0.033909347 -0.05153511 -0.0854752 0.11686088 0.10799452 -0.046240326 -0.058397733 0.15552755 0.1324385 0.059011713 -0.043540105 -0.07884419 -0.030078858 0.091218926 0.036039572 -0.13774848 -0.10716914 -0.13971898 0.09028839 -0.014074777 -0.1673638 -0.0266007 0.101400524 -0.1662461 -0.027732719 0.13384311 -0.087358885 0.09171963 -0.13165112 0.00886536 0.044114023 -0.04013341 0.032665934 0.004625512 0.2600826 -0.05564511 0.18544212 -0.039837282 0.00967078 -0.05637029 0.06237411 -0.027543241 0.19130836 -0.23294616 -0.16177134 -0.22840339
59 -0.09697368 -0.12222288 -0.055698924 -0.15484117 -0.03884993 -0.021392547 0.04955029 -0.0014513514 0.071485735 0.013264057 -0.13872378 0.2600541 0.08478481 -0.18922022 -0.016684966 -0.08654432 -0.0694665 0.02212581 -0.027715186 0.06636338 0.05745722 -0.08491272 -5.8728547e-06 0.10857264 0.016591812 -0.055558342 -0.0391993 -0.01969788 0.0034070571 -0.16085722 -0.020359104 -0.017960142 -0.19293621 -0.14582658 -0.09419038 -0.09694624 0.13956645 0.036899425 0.03571139 -0.056954853 -0.06680073 0.121411815 0.09679582 -0.054997407 -0.05403349 0.14294748 0.10999406 0.04822026 -0.03259966 -0.08690882 -0.028287673 0.08510073 0.02343291 -0.15130429 -0.10128449 -0.12264225 0.108663134 -0.020175528 -0.17786285 -0.024067221 0.08774007 -0.16217236 -0.039352667 0.14867172 -0.06649506 0.09205662 -0.109475 0.014942965 0.014428231 -0.0363168 0.046497487 0.010695864 0.24812613 -0.057930615 0.1577281 -0.03984058 0.016403116 -0.05306529 0.05431317 0.003930858 0.18929814 -0.19842966 -0.16402051 -0.18457203
40 -0.11173344 -0.13514692 -0.06903439 -0.1308676 -0.038692024 -0.023884011 0.04758134 0.018282237 0.04748715 -0.01441367 -0.123266615 0.23354636 0.07856185 -0.19563648 -0.027874162 -0.09682897 -0.064032175 0.034097884 -0.029886538 0.05366714 0.056053746 -0.07204616 0.013720541 0.08130531 0.004193708 -0.03972377 -0.039538294 -0.038734186 -0.0066201123 -0.14306746 -0.0041368105 -0.021915466 -0.1597783 -0.10721311 -0.065804414 -0.07994578 0.106454685 0.03482711 0.017861567 -0.03780318 -0.089618474 0.11747251 0.1075563 -0.042512223 -0.07325274 0.13327444 0.12573722 0.051863696 -0.022506317 -0.09597337 -0.049863607 0.08869217 0.03207528 -0.14534433 -0.11159181 -0.15264034 0.100791655 -0.024491876 -0.1705743 -0.01936501 0.106338404 -0.16643159 -0.026759733 0.1532945 -0.09886636 0.10813464 -0.118913956 0.017257564 0.03413323 -0.042488676 0.03565397 0.028820613 0.26223448 -0.05875538 0.20095026 -0.034844287 0.022624785 -0.068206176 0.06572596 -0.01084041 0.21091151 -0.21490195 -0.1733469 -0.21495861
49 -0.07833649 -0.12143385 -0.04225146 -0.12295137 -0.039979085 -0.0077973334 0.058041047 0.0038270543 0.06771864 -0.0054521193 -0.09250522 0.21877892 0.07435389 -0.18403585 -0.022207187 -0.10094402 -0.07582495 0.038732838 -0.034376353 0.061217096 0.057897285 -0.07813404 0.004644938 0.09405064 0.007192069 -0.053165928 -0.049683567 -0.020283222 0.0010479 -0.15863286 -0.020808766 -0.032939285 -0.15907945 -0.12434094 -0.09605862 -0.073846236 0.12623453 0.033238478 0.023458945 -0.029661553 -0.063842446 0.13144094 0.10775097 -0.057329055 -0.06233201 0.17386144 0.1306832 0.04644859 -0.029217271 -0.09212204 -0.062400848 0.10238036 0.0576498 -0.14676759 -0.13554507 -0.15801953 0.104854345 -0.024880312 -0.19615889 -0.0073060053 0.10558033 -0.17854121 -0.032461375 0.16718298 -0.08109745 0.1061999 -0.09876861 0.008537896 0.018747974 -0.070372 0.03976768 0.0053467653 0.25504383 -0.060216058 0.17372264 -0.042172763 0.021906406 -0.080504574 0.037432157 -0.018858407 0.1672911 -0.16694792 -0.16101903 -0.18037324
30 -0.04781914 -0.094973825 -0.053357884 -0.09309808 -0.043781605 -0.010018135 0.03617266 -0.008207853 0.03566243 0.016389826 -0.07730036 0.116891 0.061812285 -0.12250319 -0.0193289 -0.044555414 -0.04519657 0.019749438 -0.020342734 0.05795776 0.06030136 -0.07649292 0.006371558 0.08196757 0.016770888 -0.051641993 -0.027060961 -0.00811949 -0.01825498 -0.118148275 -0.009208822 -0.019993244 -0.18939196 -0.15340906 -0.1167036 -0.08092331 0.14048544 0.06298947 0.03629724 -0.055866946 -0.08442533 0.15005861 0.11303612 -0.058917627 -0.063459426 0.18248837 0.15077323 0.056584124 -0.04233195 -0.08192061 -0.04387306 0.11177816 0.05395605 -0.18548098 -0.12887864 -0.16152483 0.10093544 -0.034573995 -0.19725592 -0.026050529 0.13224827 -0.21384408 -0.024568878 0.17277962 -0.06138759 0.105190136 -0.12501046 0.0060153217 0.025185978 -0.05636994 0.053074565 -0.0002592469 0.25764078 -0.061084986 0.16743642 -0.03316135 0.026150987 -0.064439535 0.065138794 0.002097594 0.20834522 -0.23832427 -0.20319983 -0.20993446
29 -0.15436703 -0.14590949 -0.08072147 -0.17650482 -0.030970857 -0.02899994 0.06343295 -0.008515401 0.065654725 0.0010196423 -0.14113177 0.28923634 0.08339129 -0.20696202 -0.028459005 -0.07677817 -0.09235309 0.011965352 -0.014936519 0.057294656 0.06689179 -0.07396289 -0.0007669606 0.10182917 0.011774901 -0.056326177 -0.042611588 -0.0169613 -0.0040742178 -0.1469573 -0.014753204 -0.02093372 -0.17661132 -0.13992012 -0.0943238 -0.08855195 0.12990285 0.052965995 0.02425934 -0.041707586 -0.052565828 0.13014726 0.080933385 -0.08072251 -0.05017716 0.1589322 0.1436647 0.058202647 -0.041818194 -0.06150977 -0.019707326 0.083024755 0.017224414 -0.16384049 -0.122905165 -0.13347322 0.09213719 -0.026517628 -0.15199374 -0.039463777 0.08902496 -0.15989865 -0.04671485 0.14678703 -0.060662616 0.08028055 -0.11841317 0.0069412375 0.032131527 -0.034392387 0.059621695 -0.0036658447 0.22603069 -0.061388507 0.15747753 -0.025201166 0.037910286 -0.077504374 0.06275981 -0.008103009 0.18400954 -0.18513498 -0.15296134 -0.21186161
36 -0.07578943 -0.110901386 -0.030507995 -0.13858365 -0.046949364 -0.02277727 0.057593495 0.007873753 0.050775137 0.016368406 -0.13038057 0.1755935 0.060776666 -0.14422265 -0.0107407905 -0.07116452 -0.06795455 0.014873568 -0.04656796 0.060887694 0.062606156 -0.05811655 0.0068406654 0.115171686 0.017270466 -0.06424159 -0.027788876 -0.021845955 -0.010728698 -0.1630337 0.008484601 -0.042797588 -0.15961535 -0.14861317 -0.10188052 -0.07345464 0.13681805 0.04259065 0.038266957 -0.061075933 -0.08929274 0.13095722 0.123178326 -0.05005408 -0.039709803 0.1589076 0.13708211 0.067217164 -0.052276347 -0.07646409 -0.037771456 0.10919276 0.059818804 -0.16164787 -0.105016984 -0.136618 0.08158278 -0.026459863 -0.19915496 -0.0064435704 0.111435466 -0.20713905 -0.0032846588 0.16090725 -0.0940481 0.105766684 -0.12013236 0.019327605 0.031449467 -0.053569354 0.035424862 0.0010999449 0.25741607 -0.041619956 0.16222855 -0.046829388 0.01538728 -0.055960875 0.047247317 -0.01588724 0.17356868 -0.21040945 -0.15629 -0.2109904
78 -0.048072748 -0.060372952 -0.031777065 -0.090837315 -0.008733137 -0.025280105 0.046895206 0.015295463 0.023103168 0.012798469 -0.11512025 0.13902746 0.09740108 -0.19428882 0.014442602 -0.116161615 -0.07233959 0.01954261 -0.028835556 0.07441475 0.05450924 -0.09814849 -0.0005803688 0.13017048 0.03291341 -0.07501037 -0.04767882 -0.008518869 0.0022743612 -0.17699835 0.0125205945 -0.013083604 -0.19253904 -0.18334837 -0.14593384 -0.09545736 0.13572875 0.04820688 0.05111305 -0.044853125 -0.0765506 0.15886606 0.117242314 -0.06740652 -0.05502706 0.16146329 0.12911382 0.07747523 -0.03490902 -0.091275714 -0.04083102 0.13097656 0.05712533 -0.16839443 -0.13739568 -0.16476746 0.11542056 -0.061791696 -0.2090403 0.01012963 0.1139024 -0.21972406 -0.0029473752 0.17232132 -0.051813904 0.09195181 -0.12652816 0.011872171 0.010574471 -0.041774053 0.05065211 0.012118933 0.23491596 -0.05147486 0.14341408 -0.045465034 -0.015148764 -0.066527285 0.026894396 -0.00054941437 0.17085157 -0.17680368 -0.1692705 -0.15860565
35 -0.10618062 -0.12605603 -0.07923428 -0.15159188 -0.06457001 -0.037847675 0.05610199 -0.013379557 0.05743685 0.023279035 -0.1553955 0.2522041 0.07215737 -0.15734842 -0.015183795 -0.07307967 -0.061922774 0.032560848 -0.018118327 0.0775519 0.08162518 -0.087878145 0.0020425483 0.0938908 0.019631097 -0.050265267 -0.020159336 -0.015035404 -0.012210833 -0.11983864 -0.00055697706 -0.02413889 -0.18370341 -0.1429577 -0.07526182 -0.073736764 0.12944166 0.046863347 0.05025334 -0.062406555 -0.093155764 0.1345128 0.11001115 -0.06343733 -0.057873297 0.15363318 0.11776574 0.064069875 -0.046917204 -0.095197596 -0.027387809 0.07804022 0.03838835 -0.15629244 -0.0883726 -0.13542514 0.11969877 -0.029318303 -0.18321003 -0.045233846 0.11411534 -0.17497914 -0.026060505 0.13809381 -0.077699535 0.0769081 -0.118917115 0.010403982 0.03155138 -0.020124339 0.03802058 0.0017727743 0.23409297 -0.042312413 0.161058 -0.02704337 0.001396269 -0.036560588 0.06591915 -0.005605848 0.18682618 -0.2287459 -0.16349965 -0.21008408
74 -0.10320146 -0.12645547 -0.04664076 -0.14244162 -0.03190756 -0.005791988 0.043122772 0.027136002 0.048836652 -0.023692429 -0.092804775 0.19084385 0.07944036 -0.16390094 -0.018063031 -0.09833104 -0.0582333 0.025202775 -0.018623428 0.040970568 0.029956395 -0.09194196 0.004154131 0.11653298 -0.005906835 -0.029061345 -0.06641857 -0.0036205386 0.0073598293 -0.18111953 -0.010938647 0.017195478 -0.17439699 -0.14253856 -0.098614454 -0.08004515 0.12592188 0.014249458 0.03153108 -0.026684964 -0.0819526 0.14051302 0.099611275 -0.04508083 -0.04079357 0.1400875 0.116673395 0.046878774 -0.032832038 -0.07958146 -0.06303878 0.09875629 0.04018512 -0.14453304 -0.14340277 -0.15599458 0.09049052 -0.009794115 -0.18503304 -0.005433269 0.1031597 -0.2040056 -0.015227716 0.1555972 -0.093514435 0.104476266 -0.108217455 0.007861723 -0.011044437 -0.057209413 0.039340444 0.014464994 0.26035115 -0.07647423 0.17908348 -0.031984005 0.048725087 -0.079529345 0.024509527 -0.020764058 0.1946766 -0.18322337 -0.16898173 -0.17428122
73 -0.10639818 -0.11534088 -0.059472542 -0.1478235 -0.019366974 -0.008766485 0.05818669 0.01674225 0.037710194 -0.016523514 -0.14093293 0.22166465 0.09520906 -0.17468895 -0.021166408 -0.09672928 -0.08839242 0.016080342 -0.03858155 0.059170417 0.06972161 -0.0704 0.009112079 0.088673204 0.004097317 -0.042182274 -0.04027579 -0.023787212 -0.0024922206 -0.15407175 -0.013155534 -0.022634033 -0.1314851 -0.13989142 -0.08495785 -0.083902106 0.10502838 0.029243903 0.0016765973 -0.045029305 -0.08634176 0.10561369 0.10503065 -0.062659904 -0.048618343 0.16912839 0.13051341 0.04607485 -0.026048785 -0.089031145 -0.056448434 0.104596205 0.04455319 -0.15040867 -0.10965642 -0.14759831 0.08399249 -0.026925512 -0.15294471 -0.0072605168 0.10286254 -0.17417784 -0.007974658 0.13814461 -0.08219074 0.114351064 -0.12273217 0.01359716 0.032280568 -0.044066027 0.07276823 0.022298839 0.27911028 -0.04863904 0.19842148 -0.058346376 0.022824302 -0.08463246 0.07139349 -0.0066573108 0.20899956 -0.2177927 -0.15671767 -0.21962878
6 -0.05576674 -0.109126024 -0.06072267 -0.1066421 -0.025014684 -0.0016334313 0.048756167 0.0108412495 0.059164762 0.004084509 -0.09263659 0.18650298 0.06302403 -0.14612417 -0.0009575111 -0.0821129 -0.06125512 0.019166702 -0.014314019 0.055127315 0.04266247 -0.09551029 -0.013886164 0.073892176 0.024336448 -0.06643749 -0.05311564 -0.018760566 0.0017641417 -0.15444995 -0.018466666 -0.029437326 -0.19105867 -0.14998832 -0.10694853 -0.08333432 0.13490444 0.053922128 0.03186678 -0.0418604 -0.06897473 0.14069977 0.116192125 -0.07442841 -0.07010652 0.16507408 0.124393 0.037864145 -0.01798648 -0.085466765 -0.048772767 0.09863515 0.051357094 -0.16272745 -0.11708304 -0.15944512 0.11170189 -0.029868666 -0.19040656 -0.032595422 0.12756796 -0.18381166 -0.029562272 0.16952592 -0.05700949 0.09218749 -0.10609133 -0.002219361 0.006300133 -0.067875646 0.059698675 0.008910704 0.25398895 -0.058334876 0.17220773 -0.036278628 0.016508067 -0.07030941 0.054162588 -0.004501432 0.19321641 -0.19190712 -0.17999868 -0.16435152
79 -0.07408039 -0.1111906 -0.055361398 -0.14290148 -0.016950414 -0.023110457 0.05138384 0.021077009 0.038712423 0.011213007 -0.09067004 0.1588745 0.091316395 -0.16503796 -0.0106164655 -0.08556622 -0.054054495 0.020123256 0.003173211 0.070814796 0.042849343 -0.101624765 -0.00924162 0.10725369 0.020271277 -0.06776134 -0.052072983 -0.0019288489 -0.0024181525 -0.16764316 -0.011839233 0.011525504 -0.21671654 -0.18560764 -0.14473632 -0.09253384 0.15346625 0.05392611 0.031064954 -0.056763306 -0.06757558 0.15402378 0.11647513 -0.0684049 -0.06456706 0.16145447 0.14005876 0.07637192 -0.032418292 -0.09941984 -0.053333417 0.1039282 0.037638135 -0.14314647 -0.14601491 -0.1774107 0.12340561 -0.030550672 -0.19677092 -0.009039773 0.10718357 -0.19969854 -0.017896242 0.15666157 -0.07089324 0.10487274 -0.12449879 0.0035816845 0.016424304 -0.058904923 0.053688925 0.004347774 0.2289912 -0.07567971 0.1331424 -0.036266737 0.021293158 -0.06422366 0.011847237 -0.016146798 0.17529482 -0.17312124 -0.16616392 -0.14987871
