84 84
22 -0.0933546 -0.15696137 0.035939056 -0.23615491 0.017403886 0.03631052 0.025370222 0.062080625 0.049483396 0.0090709 -0.0070545543 0.17861389 0.08829885 -0.049304835 0.011207561 -0.22815664 -0.14239168 -0.09673302 0.07213409 0.14041711 0.09809091 -0.023737425 0.07403587 0.17927015 -0.017987771 0.059240837 -0.16366594 0.024670696 -0.08428502 -0.065111026 0.017444192 -0.03423165 -0.13737877 -0.05541771 -0.027816772 -0.15471888 0.060756348 0.114704795 0.07661643 0.071531236 -0.17034759 0.06412548 0.07228105 -0.0005497598 -0.057767827 0.27212143 0.09448075 -0.02067351 -0.034158725 -0.0043583517 -0.11250606 0.12148727 -0.015525286 -0.039634548 0.017987316 -0.14630596 0.012023501 0.02517287 -0.096436545 -0.040805202 0.068181865 -0.073684 -0.11653679 0.112782806 -0.12646152 0.07419059 -0.07611148 -0.0058638193 0.07670227 -0.030576173 0.060331944 -0.011448615 0.21246554 -0.11044232 0.20443544 -0.12413694 0.052416492 -0.001804887 -0.0136509985 -0.01435349 0.1392537 -0.09641329 -0.08611748 -0.1887263
66 -0.061857257 -0.10387345 0.035037722 -0.19680442 -0.0047590984 0.0038810098 0.020742605 0.06897999 0.07998736 0.032634325 -0.007448705 0.15454046 0.10282865 -0.026196755 0.013628321 -0.17175727 -0.113281146 -0.07435046 0.06902837 0.12608254 0.080844544 -0.0314754 0.07082897 0.18475462 -0.0013772778 0.057070382 -0.16949107 0.022998067 -0.09072076 -0.06220282 0.04952038 -0.025192233 -0.13560167 -0.06332991 -0.0348545 -0.14597112 0.06501819 0.13377218 0.08921375 0.105195835 -0.16759491 0.07157399 0.072707385 -0.020176165 -0.06844856 0.28682107 0.11272399 -0.005134118 -0.028598858 0.000546457 -0.10448486 0.13113262 -0.0013303228 -0.06320937 0.01891818 -0.15223248 0.029053409 0.017797187 -0.12986904 -0.02004973 0.087246515 -0.086789735 -0.13849148 0.12335505 -0.12988478 0.076653115 -0.061259635 -0.007428784 0.065686084 0.0031158777 0.073717676 -0.0174898 0.22974655 -0.106191 0.21616344 -0.13629727 0.054001246 -0.0012382752 -0.02841726 -0.008975633 0.16656502 -0.0776953 -0.10502758 -0.17732048
42 -0.085868 -0.12481872 0.027575556 -0.21914655 0.020627769 0.02764162 0.028804533 0.06884273 0.05553083 0.022966368 0.00043070194 0.1797204 0.08620491 -0.044902865 0.015090791 -0.22512583 -0.1390384 -0.08371803 0.05387741 0.10727986 0.08363987 -0.026094547 0.08069009 0.15808176 -0.01302217 0.047604993 -0.15587886 0.025498861 -0.07879334 -0.06277021 0.02536956 -0.02971037 -0.12354905 -0.055701606 -0.019042281 -0.13678546 0.057173725 0.10724177 0.082842134 0.083092295 -0.15581179 0.083811454 0.08106093 -0.021767693 -0.06304312 0.26231515 0.10958799 -0.012621851 -0.027799442 -0.00079165114 -0.10255086 0.12964453 -0.006315796 -0.035315346 0.0021861154 -0.14652248 0.027364671 0.026475657 -0.10418148 -0.023574235 0.07219897 -0.08332052 -0.14413708 0.11305475 -0.12172369 0.079872616 -0.071031086 -0.016633835 0.06737196 -0.017889164 0.067687325 -0.01156216 0.24590422 -0.11528058 0.23692341 -0.13368541 0.06388661 -0.005005956 -0.023647688 -0.008782357 0.16137727 -0.0825727 -0.11218783 -0.19341466
32 -0.064467385 -0.118852325 0.016242288 -0.18364458 0.01949549 0.02969196 0.018200293 0.069869176 0.053583592 0.027135877 -0.021673681 0.17680466 0.070903726 -0.026018184 0.017987646 -0.20450073 -0.13974567 -0.08438694 0.0435792 0.11742579 0.102708146 -0.0099532055 0.08199932 0.17149273 -0.018070465 0.052375223 -0.17559278 0.022762896 -0.08535821 -0.049623888 0.05237789 -0.03799549 -0.12279126 -0.06314544 -0.03564889 -0.15384643 0.08026119 0.119796984 0.07092888 0.08742124 -0.16419159 0.0883434 0.05988602 -0.012989636 -0.07012724 0.25042748 0.08096291 -0.008640508 -0.045380812 -0.0038001747 -0.0825352 0.11763304 0.008379045 -0.033424426 0.021615807 -0.14355126 0.01770828 0.031480186 -0.110989995 -0.023238454 0.07090714 -0.09104707 -0.12857898 0.127201 -0.119814105 0.087035574 -0.061784923 0.0026549397 0.08238339 -0.019536693 0.05227175 -0.005370312 0.25152418 -0.11757821 0.23806785 -0.13763168 0.06391901 -0.014828957 -0.01694376 0.0054300446 0.15960504 -0.10928695 -0.11157778 -0.19841805
55 -0.07616629 -0.13079424 0.019688698 -0.20155339 0.008972547 0.02049312 0.035653956 0.06175319 0.08387527 0.029592406 -0.006306348 0.20371184 0.09407365 -0.04969536 0.0050564744 -0.24310581 -0.14096458 -0.09315345 0.06901669 0.13930702 0.10130778 -0.027497256 0.081789404 0.17137988 -0.008231027 0.050413646 -0.17842263 0.011171704 -0.09948945 -0.055339243 0.04253345 -0.02549454 -0.12848109 -0.0609203 -0.026357267 -0.14955613 0.056094576 0.122958064 0.07421318 0.08271509 -0.16226457 0.081427805 0.07549468 -0.017528942 -0.065278426 0.2591133 0.10703287 -0.016631534 -0.024936294 -0.01068813 -0.11169672 0.120030396 0.006984589 -0.03662395 -0.010947759 -0.15133631 0.032753255 0.019602744 -0.09491027 -0.02570681 0.06098328 -0.076921545 -0.12265695 0.10266949 -0.115534835 0.07002703 -0.04986501 -0.020945698 0.0674299 -0.010214922 0.044548728 -0.007461282 0.22248027 -0.0974537 0.20766366 -0.12781088 0.055188354 -0.0050324053 -0.021693822 -0.013353948 0.1513942 -0.096744835 -0.09226042 -0.18712561
38 -0.04828782 -0.102891915 0.017549952 -0.15558219 -0.0017508656 0.015621466 0.019890377 0.051379066 0.045444556 0.017873125 -0.006853886 0.124518864 0.05563797 -0.03347252 0.0033840532 -0.14885992 -0.12188905 -0.060070753 0.0581259 0.09969374 0.07280529 -0.024756206 0.08144006 0.13243468 -0.011646219 0.05027053 -0.14533506 0.0047208806 -0.095004745 -0.06961668 0.042066094 -0.04515629 -0.138555 -0.05894775 -0.030019585 -0.13734369 0.07395072 0.12851202 0.078391396 0.08915094 -0.17213245 0.100854866 0.0957891 -0.015866982 -0.08670042 0.29358265 0.1332438 -0.021338407 -0.019341217 -0.010869018 -0.12510467 0.13614534 -0.0037038228 -0.046672296 0.008182717 -0.15848218 0.04459382 0.028589306 -0.1270132 -0.006695948 0.062388502 -0.0797205 -0.14810409 0.11495943 -0.14767037 0.08374529 -0.07064882 -0.0011483976 0.07545385 -0.02099132 0.06162378 -0.024071902 0.26549274 -0.123892255 0.23818435 -0.1462132 0.08742878 0.015790032 -0.002888037 -0.0035453031 0.17046711 -0.10599915 -0.11632519 -0.2193903
25 -0.11647266 -0.17801271 0.047877066 -0.26191086 0.0036667623 0.037017886 0.029232804 0.06600764 0.071575545 0.0038802503 -0.000628593 0.19278303 0.095035344 -0.04782032 -0.015372434 -0.24965924 -0.12571289 -0.09295662 0.068078704 0.1349177 0.0863146 -0.038073152 0.085193746 0.15617025 -0.016726933 0.060166515 -0.16600025 0.023993846 -0.08989448 -0.08232533 0.009070177 -0.037943907 -0.13166031 -0.06981611 -0.036108352 -0.14042209 0.04781134 0.10923772 0.07894089 0.059223946 -0.15955923 0.07248814 0.08042526 -0.01035321 -0.06351976 0.22200356 0.09389724 -0.0122228805 -0.010004525 -0.014788453 -0.13112271 0.12526874 0.0013717593 -0.033534482 -0.010542134 -0.14229089 0.02347074 0.019222954 -0.09894154 -0.006984284 0.041556574 -0.0696729 -0.11486811 0.09044259 -0.14665118 0.061987337 -0.06153266 -0.012078193 0.046711005 -0.02009372 0.049488313 -0.0077495067 0.22170116 -0.09289063 0.19574167 -0.1301651 0.0612969 0.002379092 -0.0043118903 -0.01473587 0.17046992 -0.11984536 -0.104725696 -0.20479715
54 -0.08258715 -0.12887718 0.032105934 -0.21017687 0.018089177 0.03926384 0.028490355 0.057909817 0.058620226 0.0036067625 0.008721402 0.14798719 0.0661573 -0.047671802 0.0024089138 -0.20346682 -0.13811557 -0.10109373 0.058468 0.10841074 0.08029117 -0.03398049 0.07237944 0.18456846 -0.0021514127 0.04497804 -0.15182309 0.0218467 -0.08493229 -0.08181493 0.017921876 -0.03360668 -0.14774047 -0.070719466 -0.022056682 -0.15219551 0.04766814 0.113684036 0.082707085 0.080580845 -0.16121715 0.08274004 0.06538068 -0.016622826 -0.06791988 0.25567052 0.10613878 -0.02261677 -0.013306836 0.009035471 -0.11411205 0.13453041 -0.005783268 -0.05379307 0.020179579 -0.16070454 0.021402765 0.017390596 -0.09680778 -0.02388802 0.04966272 -0.06632098 -0.14399517 0.109988034 -0.13493589 0.060327653 -0.05188626 -0.018707009 0.06450715 -0.014625088 0.08321525 -0.012110306 0.22736216 -0.097109996 0.21608298 -0.14507884 0.05420919 -0.014484289 -0.014398527 -0.018959858 0.17062135 -0.08544975 -0.11885896 -0.20737112
19 -0.06908976 -0.11817464 0.028559055 -0.18506731 -0.010593979 0.035730205 0.03964071 0.048742644 0.07015696 0.009809257 0.0039301394 0.1507885 0.07787625 -0.037172128 -0.014389718 -0.18492365 -0.11128172 -0.07543778 0.04711513 0.111061536 0.071848154 -0.044596676 0.073163226 0.1602746 -0.00687655 0.057758156 -0.15980424 0.012379517 -0.09163852 -0.084868796 0.020513173 -0.021945814 -0.12832394 -0.063021235 -0.03049422 -0.13447958 0.042032138 0.12157468 0.08651207 0.085145645 -0.15865591 0.07299061 0.07504355 -0.022911005 -0.07249164 0.25636962 0.13924132 -0.02401614 -0.0036711826 -0.017851941 -0.12218726 0.12007611 -0.010426177 -0.0519216 -0.007989525 -0.15488486 0.025377158 0.006456465 -0.11830968 -0.008169547 0.0636854 -0.08365835 -0.14133851 0.11938253 -0.14481512 0.06935385 -0.045046117 -0.02178676 0.04419017 -0.027302977 0.05478147 -0.007047877 0.24300732 -0.100733735 0.21716113 -0.1491611 0.078441076 -0.0019972501 -0.017325146 -0.032171328 0.19235706 -0.102542624 -0.11343937 -0.21178913
81 -0.089427575 -0.16543874 0.04233377 -0.2616153 0.034818448 0.042999424 0.023032224 0.096706 0.07419982 0.020191321 -0.0063868226 0.19066733 0.07959408 -0.03648073 0.02084896 -0.22625212 -0.13022369 -0.09101295 0.07306459 0.12601846 0.075275294 -0.0278386 0.06117966 0.16260746 0.010035368 0.04512316 -0.12611707 0.032191526 -0.086256 -0.06161879 0.031461626 -0.032543465 -0.14649336 -0.0767853 -0.024229107 -0.14467618 0.0603814 0.11127492 0.08291582 0.09308317 -0.16314775 0.09021665 0.07638175 -0.017576395 -0.06611968 0.23845576 0.0970175 -0.010463299 -0.033209346 0.01577868 -0.091343716 0.13105085 0.001958213 -0.054790214 0.03060503 -0.15822949 0.01744908 0.018619401 -0.10468633 -0.030984094 0.045348123 -0.08290764 -0.12431192 0.10673112 -0.1237017 0.076012425 -0.05598163 -0.015176021 0.050777033 -0.025518373 0.08473909 -0.008981758 0.20561965 -0.09870868 0.20066312 -0.13894859 0.04421801 -0.013321113 -0.013225684 -0.009004383 0.1589081 -0.10091001 -0.12756956 -0.18228333
67 -0.048463322 -0.1092726 0.012021922 -0.210488 0.012280692 0.022734687 0.03546407 0.073510915 0.08939382 0.03348553 0.0048552384 0.1742116 0.05811819 -0.025511289 0.035580922 -0.16008821 -0.12075123 -0.061612517 0.059891943 0.1061968 0.07343037 -0.030760055 0.060969688 0.15583418 0.0020867083 0.04567787 -0.15270706 0.0069699665 -0.09157282 -0.05401191 0.053006068 -0.020739213 -0.15126118 -0.05744802 -0.015867475 -0.13563041 0.062057573 0.13589384 0.08310312 0.10355467 -0.17045702 0.09394368 0.082146734 -0.026356049 -0.07925419 0.3113965 0.13592358 -0.017412966 -0.026098872 0.0038594888 -0.10606121 0.14902642 -0.0043419097 -0.07609906 0.047873076 -0.16672418 0.0447563 0.019371642 -0.1293345 -0.026079085 0.078731835 -0.07943217 -0.14395458 0.12135386 -0.12453171 0.070103735 -0.056486472 -0.019902911 0.072332144 -0.009810371 0.096881896 -0.018527413 0.23199233 -0.09909556 0.21080886 -0.14214142 0.045927987 0.008741925 -0.009973065 0.0033419747 0.13798854 -0.07704355 -0.108872525 -0.15978296
43 -0.084035605 -0.13325045 0.030398307 -0.21907401 0.014843016 0.027562672 0.03661203 0.066023104 0.08409023 0.019272145 0.0054568998 0.18632714 0.06942903 -0.0498529 0.01554157 -0.19319017 -0.13272743 -0.07776139 0.06252032 0.116720915 0.06819672 -0.029462025 0.06907428 0.14094985 -0.010844649 0.054393675 -0.13406605 0.014700668 -0.08310066 -0.072026595 0.025510462 -0.023424603 -0.13026486 -0.05252516 -0.0114129605 -0.1231092 0.056620397 0.11550434 0.082061246 0.079919234 -0.14132868 0.08305345 0.07999685 -0.022848872 -0.075495824 0.23964989 0.121248886 -0.020361682 -0.019395404 -0.006913411 -0.11283768 0.12925336 -0.0040699444 -0.053572252 0.011264107 -0.15748478 0.030591112 0.017672135 -0.12381436 -0.024103114 0.05163741 -0.07493373 -0.13076654 0.10968542 -0.13453606 0.06369381 -0.06379667 -0.027457131 0.05760982 -0.028334606 0.0864622 -0.013076171 0.24793844 -0.11789488 0.23064677 -0.15227255 0.06595094 0.0013133662 -0.022768354 -0.010467249 0.16402185 -0.0956516 -0.115630366 -0.1963556
18 -0.062247977 -0.110514656 0.03994294 -0.17706294 0.009794272 0.019802593 0.010590236 0.050387368 0.052441597 0.015522565 -0.01176886 0.16618624 0.08905523 -0.04418899 0.0052261464 -0.19927324 -0.12931554 -0.07849884 0.06830618 0.14250329 0.10634773 -0.026225954 0.08764323 0.15729569 -0.01259768 0.06968651 -0.17753647 0.022180412 -0.0785801 -0.048729297 0.02533334 -0.035873868 -0.110994436 -0.043032788 -0.030488487 -0.13952333 0.072210625 0.100744955 0.076964445 0.0813361 -0.17380618 0.08585163 0.06867822 -0.0097098285 -0.051498145 0.2621356 0.07512508 -0.018506052 -0.03985183 0.00013452048 -0.10221697 0.117777616 0.0012881138 -0.0314431 0.008500289 -0.13231613 0.025048485 0.036848493 -0.11359533 -0.03109186 0.06994973 -0.081573136 -0.12466325 0.11724642 -0.12798011 0.08108997 -0.07187115 -0.0022640002 0.07686595 -0.021603053 0.05047023 -0.028743377 0.2586063 -0.13179679 0.25378606 -0.13789637 0.07187033 0.0066683576 -0.020301463 0.0021069208 0.15702887 -0.1033936 -0.109530374 -0.20974033
4 -0.06468499 -0.113420874 0.023055403 -0.17721884 0.020058695 0.027704604 0.016858121 0.07044084 0.057663523 0.020147225 -0.008205847 0.15370227 0.056333464 -0.022333143 0.010075865 -0.17537364 -0.11301549 -0.066529766 0.055308525 0.11699959 0.08782977 -0.023306305 0.06113763 0.14973864 0.0011309126 0.035866708 -0.15498982 0.005842929 -0.07411965 -0.03965831 0.043749668 -0.03108036 -0.12147624 -0.034417816 -0.03269902 -0.13297865 0.07729246 0.117817566 0.06581814 0.09361237 -0.16974045 0.081622 0.0797572 -0.007253939 -0.065219626 0.28278536 0.10645308 -0.025328519 -0.038056344 -0.004629359 -0.08641466 0.12064492 0.015297461 -0.057610754 0.023520034 -0.16507225 0.03882733 0.023876665 -0.13591388 -0.03069678 0.091628276 -0.08684647 -0.14855656 0.13609286 -0.12548478 0.08868507 -0.08425848 -0.00282612 0.08638173 -0.029861437 0.061671685 -0.029215356 0.27155444 -0.13490939 0.2560893 -0.15831614 0.07960411 0.008214966 -0.035296857 -0.0060279355 0.15085877 -0.113294095 -0.117281206 -0.19607963
37 -0.07811744 -0.15024443 0.029867455 -0.22670136 0.015992168 0.03877055 0.014766257 0.08141061 0.08353964 0.024420215 -0.009167379 0.20956385 0.08026999 -0.04388834 0.0076654674 -0.2201107 -0.1170299 -0.07659053 0.074372895 0.116080485 0.06778122 -0.027468834 0.06668082 0.13065282 -0.017189505 0.051642988 -0.12869367 0.018966712 -0.07906804 -0.058479816 0.03703728 -0.02546248 -0.12804715 -0.066511944 -0.019959506 -0.12500408 0.07029395 0.10433842 0.07257983 0.067255266 -0.1646393 0.09994335 0.08334912 -0.018989097 -0.07993398 0.22736733 0.091396764 -0.013438973 -0.024001192 -0.009474905 -0.1189013 0.12692946 0.02018658 -0.0398493 0.016968329 -0.14438619 0.03357276 0.025114395 -0.11741868 -0.012649894 0.0391089 -0.095621064 -0.120980605 0.09694889 -0.13697961 0.06788968 -0.057980426 -0.0155788725 0.04229374 -0.014666898 0.067493804 -0.0026043656 0.23242912 -0.10476377 0.2229288 -0.14517249 0.0605153 0.0063451068 -0.013292065 0.011282356 0.16132769 -0.14017531 -0.123024724 -0.19553405
64 -0.07071025 -0.12032464 0.012434562 -0.19480453 0.014500257 0.035153728 0.030481197 0.058483995 0.049455576 0.017041488 -0.017736482 0.17282924 0.06123473 -0.049064755 0.023188127 -0.18925169 -0.13477461 -0.07087247 0.043577768 0.10390363 0.081071414 -0.0076090614 0.08303603 0.13999218 -0.034889247 0.054143157 -0.15364528 0.025776615 -0.08409225 -0.06203553 0.03436642 -0.03481758 -0.12556008 -0.0652752 -0.021015018 -0.15055253 0.07178913 0.1106131 0.083807595 0.075003855 -0.17355826 0.101606905 0.08467546 -0.017928708 -0.08886195 0.28463134 0.11126414 -0.013786989 -0.049043056 -0.007358844 -0.10755458 0.14220206 -0.005001529 -0.040510096 0.026618026 -0.17662583 0.021703506 0.034148645 -0.12565397 -0.0068354285 0.055177733 -0.09924058 -0.1505263 0.12890686 -0.11141219 0.07663972 -0.06268677 -0.003867624 0.05856527 -0.024522522 0.072714135 -0.0015461775 0.23657362 -0.11492791 0.21910436 -0.12792706 0.052079808 0.008360648 -0.004202629 0.011841499 0.14748338 -0.11836866 -0.11469015 -0.1967196
1 -0.09041334 -0.13358714 0.047352068 -0.19559412 -0.0022921292 0.03025892 0.02635477 0.042011444 0.05834024 0.0037355581 -0.0043522525 0.14725079 0.075695015 -0.035374276 -0.014237468 -0.18392542 -0.11881994 -0.08582872 0.060721546 0.12106757 0.08787281 -0.031699277 0.09131528 0.15670578 -0.015633924 0.0721288 -0.1744955 0.029043447 -0.083523005 -0.079294935 0.0048999256 -0.035872713 -0.11052558 -0.05475667 -0.038043313 -0.1460752 0.053289052 0.102461345 0.078447916 0.07360847 -0.16079111 0.062018853 0.08169958 -0.0016014319 -0.065692924 0.25660825 0.10003771 -0.020563602 -0.013190985 -0.017113917 -0.12468574 0.12308869 -0.006325648 -0.028513653 -0.013057384 -0.13657844 0.014817186 0.031844124 -0.10538591 -0.00763098 0.059664577 -0.079263575 -0.12672305 0.11620308 -0.13767332 0.080257565 -0.054866806 -0.0043894034 0.054953955 -0.034584895 0.052717913 -0.016993295 0.2570641 -0.114799745 0.23397407 -0.14440906 0.07186741 -0.003024809 -0.014674534 -0.013562928 0.17860875 -0.114524335 -0.113171816 -0.2162883
75 -0.084753305 -0.15888745 0.03156553 -0.245564 0.017065603 0.06510404 0.027640348 0.05385027 0.045415573 -0.0019186304 0.013271817 0.17910825 0.0703456 -0.043789204 0.0048336727 -0.23846258 -0.14342904 -0.09410238 0.07231602 0.13029692 0.083190165 -0.036023464 0.0720887 0.16798733 -0.025144052 0.046544366 -0.1554592 0.035224054 -0.0791396 -0.08485313 -4.7169706e-06 -0.024640428 -0.14063689 -0.05401188 -0.017938402 -0.14858688 0.058023624 0.09710308 0.07764622 0.07868992 -0.16534364 0.0728498 0.08742049 -0.01105385 -0.07211055 0.287702 0.11158151 -0.02961468 -0.024226297 -0.0077095507 -0.12204064 0.1412056 -0.008024969 -0.031800173 0.009883631 -0.13677819 0.008027307 0.032365076 -0.090138145 -0.023469402 0.04365744 -0.08296145 -0.12998062 0.10120976 -0.12778738 0.05912118 -0.047841992 -0.03380748 0.06008165 -0.042949934 0.08229995 -0.011939347 0.2001288 -0.08776845 0.20755632 -0.12240011 0.046153974 -0.0052957376 0.0019908634 -0.013516761 0.15497914 -0.10277061 -0.109418124 -0.19389427
26 -0.074046 -0.11757242 0.03428684 -0.19258107 0.011187751 0.017053438 0.028609263 0.053364456 0.058401752 0.011733838 -0.005937769 0.19071376 0.09165696 -0.06041893 -0.0011659083 -0.2175614 -0.13231802 -0.09475474 0.06981126 0.15331644 0.11165173 -0.029101912 0.08649516 0.18598749 -0.008938659 0.059563182 -0.18365061 0.013913972 -0.08588016 -0.056037128 0.016346568 -0.04569868 -0.1049226 -0.044699878 -0.039986994 -0.12924777 0.061672598 0.09928763 0.067161895 0.057592772 -0.16838372 0.07093226 0.06675549 -0.0059455973 -0.04681592 0.24286175 0.07937502 -0.018377794 -0.026713619 0.0028825994 -0.09059418 0.11644418 -0.017431587 -0.04180718 0.009505008 -0.1317861 0.034378495 0.027763136 -0.103233315 -0.028460355 0.06719231 -0.063877955 -0.12214714 0.11519415 -0.13934448 0.07543544 -0.08178582 0.0026778458 0.07559012 -0.02671768 0.05216875 -0.029648902 0.24288583 -0.11478129 0.22881645 -0.1366586 0.067051746 0.005330026 -0.018540313 -0.0088464655 0.15356418 -0.09368103 -0.09981906 -0.21118811
44 -0.07151348 -0.1212725 0.016814554 -0.21183354 0.025587827 0.027819272 0.025809254 0.070053674 0.07542859 0.024870379 0.0028577698 0.18516108 0.06980746 -0.038764495 0.025011491 -0.20090607 -0.14020906 -0.08940501 0.05959118 0.117343366 0.08426296 -0.014999738 0.060076743 0.15994686 -0.005116983 0.044798296 -0.14358076 0.026229458 -0.07602762 -0.05237362 0.04153314 -0.030048084 -0.15229657 -0.067189656 -0.018076507 -0.1488764 0.058652002 0.13963048 0.089839436 0.08323634 -0.16581745 0.10223462 0.06392857 -0.030547347 -0.07445123 0.26653492 0.10443548 -0.00943306 -0.039298676 -0.00064324937 -0.103893295 0.13165657 -0.0011482447 -0.06771538 0.027644513 -0.17388901 0.035563026 0.008586196 -0.0988395 -0.03724223 0.05793439 -0.07513814 -0.12760562 0.10158354 -0.1271437 0.085231885 -0.06729103 -0.012703302 0.0678361 -0.00010106078 0.07968535 -0.009596802 0.22357035 -0.105960645 0.20418878 -0.13600913 0.041765414 -0.010476851 -0.012067894 0.0039080987 0.15506922 -0.10905727 -0.10864664 -0.19191113
63 -0.07432483 -0.12103834 0.039591387 -0.22086176 0.02484139 0.019570913 0.021792237 0.0783847 0.06405057 0.039697006 0.0015583383 0.16526993 0.09130474 -0.03629213 0.022853525 -0.20976952 -0.12724195 -0.085715964 0.07372154 0.12496833 0.09404011 -0.020362217 0.066416286 0.1816857 0.0017354976 0.056893777 -0.1790416 0.024170104 -0.10393963 -0.06436515 0.05636051 -0.03534862 -0.1480435 -0.059544582 -0.03193824 -0.15765582 0.07097748 0.1335887 0.085187905 0.10701591 -0.1676772 0.09257441 0.07942853 -0.024742763 -0.06923249 0.2587609 0.09785107 -0.012713715 -0.025153125 0.0039317193 -0.08945987 0.12980875 0.0049593947 -0.04153152 0.022190362 -0.13912438 0.030149935 0.018993013 -0.10644675 -0.026618347 0.068351105 -0.07133429 -0.13509601 0.10458034 -0.11271705 0.068333454 -0.063690335 -0.017399402 0.06748706 -0.005194397 0.06396574 -0.019178974 0.21073237 -0.100210354 0.19572806 -0.12844388 0.050024103 -0.0007438835 -0.026470372 -0.005475744 0.13477717 -0.07547191 -0.09444276 -0.16729371
21 -0.07927168 -0.11462174 0.026246687 -0.1873745 0.0038116758 0.029386204 0.02433765 0.04169565 0.03542162 0.013629672 -0.011897306 0.1408153 0.059762213 -0.052610077 0.00194643 -0.16830188 -0.1350264 -0.07174637 0.06023273 0.12159061 0.08923838 -0.017900283 0.07175637 0.152311 -0.02203084 0.051898155 -0.15776171 0.023770865 -0.07158202 -0.05594151 0.022066502 -0.03067651 -0.12463395 -0.037962075 -0.029963547 -0.14673391 0.06853734 0.11625208 0.08312937 0.07856189 -0.1757179 0.08694495 0.067755885 -0.011937368 -0.09270201 0.28435266 0.10947255 -0.009935145 -0.028669031 -0.016635142 -0.11001608 0.13203327 0.008501053 -0.043629035 0.015446594 -0.16044733 0.018037818 0.017696485 -0.13173975 -0.009607331 0.061639447 -0.08246919 -0.14591253 0.13512647 -0.12895687 0.077339776 -0.06694476 -0.011139268 0.06964365 -0.03472329 0.065538764 -0.020890106 0.25929016 -0.114369415 0.2413462 -0.13862866 0.058550924 0.003587021 -0.0032079152 0.0007554085 0.16162744 -0.13033088 -0.11489788 -0.22326285
15 -0.060738668 -0.10066283 0.0153607465 -0.17366634 0.0048866714 0.047626447 0.043067444 0.062613815 0.0722562 0.022879945 -0.021655438 0.16210772 0.07151681 -0.029781207 0.010851173 -0.15880954 -0.12085746 -0.06683327 0.02976723 0.10717017 0.07441655 -0.025314331 0.0831322 0.17213653 -0.01756246 0.05128144 -0.14960739 0.008550938 -0.089346245 -0.0694582 0.04248695 -0.02300983 -0.12131517 -0.07509672 -0.035867587 -0.13476254 0.06054045 0.110895 0.07556257 0.08431709 -0.1427459 0.07125467 0.06264095 -0.01624851 -0.05958587 0.25777733 0.12821126 -0.00440379 -0.027401393 -0.011343251 -0.10476266 0.12027109 -0.0066423584 -0.06371892 0.011529797 -0.16848405 0.019248025 0.003685564 -0.122336045 0.003671882 0.076233156 -0.093322195 -0.12753478 0.13274302 -0.12387381 0.101979494 -0.055179033 -0.0029036014 0.064293295 -0.02159068 0.075724036 0.0019069161 0.26069582 -0.12500635 0.24491794 -0.1517116 0.065692864 -0.0007077281 -0.030332565 -0.0106868325 0.19125949 -0.09824397 -0.12336885 -0.19967741
69 -0.080705434 -0.1387457 0.02890173 -0.20903617 -0.0060881907 0.03135151 0.032491155 0.057270523 0.055558734 0.009975377 -0.011294357 0.15091747 0.082813 -0.03926584 -0.0031293046 -0.18831751 -0.12287734 -0.07554234 0.062427025 0.120274134 0.08244696 -0.025447233 0.08252864 0.15324065 -0.020792983 0.06558678 -0.17378606 0.016845621 -0.09971109 -0.07869758 0.027089793 -0.026790176 -0.14373396 -0.06472149 -0.028848266 -0.14324991 0.06290349 0.12678422 0.08504671 0.09080103 -0.1685597 0.080766864 0.08167008 -0.021094922 -0.07922864 0.28481507 0.118594326 -0.02122544 -0.013448268 -0.014505176 -0.1244733 0.13472542 -0.0071596447 -0.04410989 0.009747774 -0.15194955 0.021354193 0.020662567 -0.12275221 -0.010912791 0.063893035 -0.07949556 -0.13163978 0.11166075 -0.11984019 0.065142065 -0.06331266 -0.012352371 0.049956385 -0.023714697 0.064594746 -0.00911487 0.22391303 -0.10221663 0.20213597 -0.124815956 0.06211416 -0.0032114459 -0.009251377 -0.00846471 0.16106957 -0.096503854 -0.1036418 -0.1837513
0 -0.06392498 -0.10731941 0.015547279 -0.19356854 0.0054902537 0.04118131 0.0336836 0.058756866 0.080435 0.016949352 0.020368448 0.15874094 0.059959218 -0.035277236 0.018144172 -0.17712456 -0.12493256 -0.06947621 0.042009503 0.105920225 0.06744246 -0.035643566 0.05973725 0.15421069 -0.016027877 0.055126067 -0.14943682 0.009692205 -0.07661936 -0.072841965 0.031709455 -0.008075123 -0.15039717 -0.054506037 -0.010192674 -0.14321369 0.058627106 0.12582055 0.09169562 0.08741925 -0.16635433 0.08742807 0.06369059 -0.025414962 -0.08535926 0.2976617 0.13686132 -0.017628051 -0.02797723 -0.010957262 -0.12094034 0.13665716 -0.0026992992 -0.073507026 0.022419106 -0.16812655 0.026765035 0.005972373 -0.13126716 -0.023536975 0.070783965 -0.09027269 -0.14859833 0.12203469 -0.1292972 0.06856862 -0.053015675 -0.032610387 0.05913752 -0.0108047 0.087955505 -0.0054626823 0.24003907 -0.1111209 0.22498131 -0.14805758 0.054295667 -0.0021235698 -0.011574639 -0.010431259 0.16374727 -0.10870945 -0.102818936 -0.1725428
2 -0.0661611 -0.117508285 0.02155923 -0.18966445 0.0040642777 0.02900034 0.03175522 0.042484693 0.04604462 0.0078505045 -0.0028729432 0.15842417 0.077290125 -0.05128434 -0.007088052 -0.19260931 -0.14284438 -0.08710343 0.047882415 0.120960414 0.08931398 -0.02989689 0.08731167 0.15149736 -0.015005191 0.0573529 -0.16792728 0.014982634 -0.08712796 -0.06808865 0.027623255 -0.03429957 -0.1273736 -0.06322252 -0.042315017 -0.1511108 0.059685558 0.11234452 0.081130035 0.083122954 -0.16368628 0.0801378 0.07090753 -0.013597616 -0.07111488 0.24915193 0.10293352 -0.020626862 -0.022945218 -0.015043856 -0.11923969 0.11260108 -0.0006357311 -0.037096467 -0.015797548 -0.16278145 0.019823883 0.021938099 -0.09210087 -0.009522643 0.052343313 -0.06880855 -0.13176519 0.11749295 -0.13767366 0.09437088 -0.05211321 -0.008617391 0.06837124 -0.028139722 0.047046084 -0.005507837 0.25952914 -0.11618506 0.23934889 -0.14357346 0.0758698 -0.009683531 -0.010390121 -0.015929803 0.18301034 -0.101075165 -0.10763467 -0.2236016
12 -0.08862334 -0.12573262 0.040067524 -0.2132239 0.0047991653 0.032325137 0.029744435 0.05837732 0.08259056 0.015479797 0.037345838 0.1540246 0.0872855 -0.030437982 0.0018049215 -0.20457397 -0.12073428 -0.08993903 0.04467053 0.09101403 0.07658053 -0.040497325 0.07394573 0.16951843 -0.00094013725 0.054247018 -0.15897186 0.00899899 -0.07681185 -0.08916448 0.018488389 -0.03328893 -0.15112975 -0.072954796 -0.021860315 -0.13871942 0.042661622 0.13546276 0.087225094 0.09854663 -0.15383573 0.07613478 0.07437839 -0.0366809 -0.058943704 0.2680722 0.13431236 -0.028852383 -0.0031134177 -0.0049071885 -0.116736494 0.12879993 -0.025203547 -0.050487787 -0.010977457 -0.13866124 0.035012987 0.0057033924 -0.08077367 -0.018944567 0.069665216 -0.050337758 -0.13256711 0.09133528 -0.13821672 0.06598021 -0.061406076 -0.02455919 0.06496703 0.003517486 0.07931689 -0.011281817 0.2454113 -0.10791777 0.2320335 -0.16124006 0.06690572 -0.011055297 -0.032398835 -0.02620674 0.17123401 -0.052794598 -0.09813436 -0.1896172
3 -0.08793519 -0.11572721 0.042996325 -0.19503383 0.013692922 0.025172476 0.050372764 0.05963646 0.06686166 0.014431677 0.005544594 0.14364527 0.08239247 -0.054414995 0.0064448593 -0.21355624 -0.12700868 -0.09734198 0.049543828 0.12169883 0.08848943 -0.04365446 0.07274143 0.21623008 0.01650309 0.045941025 -0.14755931 0.017170614 -0.08526808 -0.08039169 0.022479996 -0.028232701 -0.15415145 -0.062239107 -0.028631235 -0.14554967 0.052523606 0.13751084 0.09054222 0.09239706 -0.15442346 0.07054913 0.06926549 -0.014954872 -0.05968457 0.25762567 0.14214583 -0.011053933 -0.01133401 0.012695226 -0.09705976 0.11496779 -0.025994845 -0.061963186 0.006248178 -0.15262002 0.030040821 -0.0036261687 -0.11212716 -0.021533662 0.06766856 -0.060923684 -0.124638446 0.11867845 -0.13909674 0.067653485 -0.0573982 -0.010278965 0.06469123 -0.017571172 0.07398912 -0.014647244 0.2169895 -0.097247206 0.20951132 -0.14295197 0.06814344 -0.015651586 -0.020307232 -0.042378604 0.18307564 -0.06879788 -0.111548334 -0.20382862
14 -0.10531509 -0.15397443 0.038254708 -0.23158623 0.015678175 0.03630741 0.022043832 0.06005282 0.07623988 0.01442715 -0.024608618 0.2152559 0.087389566 -0.058504503 0.002702803 -0.21836935 -0.15153249 -0.09302404 0.069988504 0.14985536 0.07651747 -0.015210971 0.077414304 0.12784885 -0.035169322 0.07464485 -0.14458522 0.035884302 -0.0764706 -0.04816039 0.016639173 -0.02206692 -0.1051692 -0.04577281 -0.027288515 -0.13708507 0.05574744 0.09501232 0.066688 0.05064735 -0.15511088 0.06701368 0.055967543 -0.005044586 -0.07368361 0.23338915 0.08716547 -0.00028747725 -0.03648404 -0.01235202 -0.13246237 0.11914663 0.007689442 -0.05772491 0.004952634 -0.17587127 0.0088226525 0.020197801 -0.11571924 -0.022493383 0.045303892 -0.08224331 -0.107032634 0.11266363 -0.12753871 0.08709047 -0.053060096 0.00033675984 0.03749554 -0.027739208 0.046018973 0.012426229 0.22936216 -0.11990532 0.21887772 -0.12184907 0.056400917 0.002407862 -0.01063884 -0.0007669893 0.17922886 -0.15448555 -0.10719159 -0.20477948
46 -0.08217702 -0.11210956 0.03895464 -0.18940635 0.013733934 0.03132488 0.04623206 0.055088326 0.070672326 0.033962548 0.018121101 0.16705535 0.080826916 -0.041854996 0.014054521 -0.21014313 -0.11821892 -0.079919785 0.04240612 0.09492789 0.07366358 -0.044017546 0.06258009 0.17792603 0.0139199365 0.034821726 -0.14678793 0.004488769 -0.07734189 -0.08795229 0.020734197 -0.017568221 -0.13909829 -0.054011125 -0.016529964 -0.13233037 0.049595747 0.11769779 0.09447792 0.101238586 -0.14804228 0.07866073 0.07825331 -0.02430945 -0.06338343 0.2704902 0.14068492 -0.017734013 -0.017140402 -0.0018595736 -0.0915215 0.13103746 -0.013074788 -0.04507766 -0.0087592425 -0.128008 0.035811253 0.0047373883 -0.11625306 -0.025030695 0.08282355 -0.07686119 -0.16201812 0.11794 -0.13037995 0.06000474 -0.061633874 -0.037802983 0.07302575 -0.02157915 0.0719618 -0.030677034 0.23565191 -0.104289435 0.23285562 -0.14677696 0.059446957 -0.008532801 -0.033133883 -0.046432376 0.15958178 -0.061568994 -0.11320682 -0.19017942
13 -0.079187885 -0.1338474 0.034843177 -0.1902691 0.021777662 0.031868648 0.020221582 0.04879157 0.04261434 0.024213238 -0.005604406 0.17468135 0.0658052 -0.046729486 0.0053724786 -0.19784991 -0.12930103 -0.074635126 0.05678806 0.11345451 0.099121794 -0.02229037 0.06759874 0.15157545 -0.017845742 0.046421427 -0.15457596 0.021907382 -0.07456891 -0.05478505 0.02265644 -0.028265797 -0.11625355 -0.04707491 -0.030572465 -0.15209857 0.081945404 0.10840978 0.07276289 0.08411671 -0.1703357 0.08499866 0.07942965 -0.0051249987 -0.07361789 0.26744908 0.09334304 -0.020126449 -0.04779822 -0.009380364 -0.10276416 0.12626962 0.019987559 -0.025211385 -0.0078036133 -0.14313622 0.012340378 0.026434626 -0.11055576 -0.021402294 0.07058352 -0.09588878 -0.14935993 0.123096384 -0.11553081 0.06582695 -0.061876927 -0.018180983 0.0833196 -0.04409803 0.05351078 -0.027136229 0.23790888 -0.113588914 0.24031931 -0.13726415 0.06689147 -0.0025732443 -0.026569305 -0.017699819 0.13595659 -0.11935302 -0.1102653 -0.2086704
70 -0.06827342 -0.12929626 0.006451442 -0.21161808 0.0058746487 0.023254048 0.031173216 0.06922056 0.06298959 0.026527785 -0.013078382 0.15597743 0.08064703 -0.025707586 0.00036109972 -0.19523065 -0.13403006 -0.0816718 0.065174565 0.12814756 0.0869542 -0.023815444 0.068898566 0.1556372 -0.00086275337 0.04111857 -0.17191787 0.009474647 -0.10020354 -0.042617608 0.053850714 -0.023464935 -0.1408048 -0.051622983 -0.032819778 -0.14876749 0.05954973 0.13973823 0.07425725 0.10341152 -0.17496146 0.06962797 0.06560099 -0.02638704 -0.08363281 0.28946486 0.118384935 -0.025646765 -0.017243082 -0.007621624 -0.10825236 0.13294618 0.007458052 -0.052922197 0.018206231 -0.16366206 0.029814761 0.01454929 -0.10919402 -0.02798681 0.08156604 -0.07335659 -0.15336214 0.1213662 -0.13241287 0.080709025 -0.054120038 -0.014341203 0.07443871 -0.009761022 0.058456376 -0.010707407 0.2289541 -0.095423356 0.19583695 -0.1310036 0.060847726 -0.0023061165 -0.010950114 -0.017798299 0.15187816 -0.08275467 -0.08373638 -0.17477207
57 -0.066299595 -0.10920065 0.025255594 -0.19944653 0.012930828 0.04317616 0.027922327 0.07325438 0.07844274 0.014661464 0.0027260229 0.1550071 0.07689164 -0.02743892 0.018577226 -0.18196294 -0.122528255 -0.07490461 0.0443397 0.106898434 0.063539 -0.028778713 0.08075932 0.16384353 -0.007545202 0.06278438 -0.1528319 0.022148242 -0.0807836 -0.07882021 0.029092515 -0.023878248 -0.1459462 -0.07845973 -0.028260227 -0.14642552 0.058325257 0.10456896 0.079100624 0.1005556 -0.16031398 0.08465299 0.07302173 -0.0265812 -0.05771797 0.28512082 0.1235405 -0.01285849 -0.027341913 0.0010392297 -0.116596684 0.13759361 -0.012642338 -0.06388686 0.016196929 -0.15899776 0.024861172 0.019458925 -0.10553425 -0.016254306 0.057704184 -0.07700286 -0.13365422 0.11670209 -0.11873401 0.08016866 -0.050906815 -0.010661502 0.052559864 -0.0069930023 0.08826465 -0.0003157252 0.24331382 -0.11702852 0.23798308 -0.15132755 0.04835743 -0.012806495 -0.022498066 -0.005445037 0.17654629 -0.0728763 -0.11733381 -0.1720596
56 -0.07119965 -0.13130216 0.019161055 -0.2251933 0.017101038 0.02048684 0.026443582 0.07099487 0.06569526 0.02903671 -0.009560206 0.17572847 0.07829928 -0.034128144 0.02470272 -0.20629495 -0.14785117 -0.08546308 0.07280305 0.12788428 0.095252395 -0.024006486 0.075155795 0.18594064 0.008103212 0.038787935 -0.1644298 0.013442868 -0.10748474 -0.06079379 0.05031426 -0.033068527 -0.14306474 -0.07011346 -0.02761203 -0.14408143 0.06957241 0.12318854 0.07255225 0.10077724 -0.15853673 0.08298603 0.07849129 -0.014060815 -0.06156543 0.27257887 0.10226485 -0.018310921 -0.035696283 0.0083028115 -0.084866114 0.12891354 0.0036050023 -0.056959294 0.02806793 -0.15591715 0.032282107 0.025166582 -0.109170824 -0.028783174 0.07313316 -0.07295606 -0.13771036 0.123844795 -0.11487655 0.07434829 -0.06445833 -0.006848696 0.07660542 -0.018785687 0.0774484 -0.02501547 0.2193422 -0.09956248 0.19274512 -0.13383134 0.046160962 -0.005976272 -0.019293448 -0.002473217 0.12165849 -0.060487572 -0.09660017 -0.14891727
45 -0.06671735 -0.12091643 0.014913247 -0.22530621 0.019259114 0.020800995 0.030849729 0.08132478 0.09348521 0.04002135 -0.009673552 0.1976614 0.095785104 -0.04770635 0.017928477 -0.2103747 -0.11695091 -0.064542115 0.05418925 0.11014016 0.06628594 -0.030592471 0.0653914 0.13764355 -0.0094685145 0.049579795 -0.14048147 0.008823488 -0.08111046 -0.046129122 0.042552635 -0.016161637 -0.13000314 -0.046144847 -0.01808783 -0.12273877 0.059160426 0.12798607 0.084964074 0.09198823 -0.15648448 0.08386923 0.07501568 -0.030210927 -0.0802722 0.2717827 0.12911987 -0.010863831 -0.022830572 0.00389059 -0.10714077 0.13694616 -0.0031994155 -0.054197416 0.017846456 -0.1544185 0.04350857 0.020430528 -0.12535663 -0.024104206 0.075581275 -0.089211844 -0.15910049 0.12843694 -0.12195961 0.069271654 -0.05189762 -0.016408544 0.056796875 -0.0074936966 0.07624911 -0.010351979 0.23962484 -0.12498306 0.22674313 -0.13454898 0.07008752 0.0069467365 -0.01760526 -0.012913535 0.1581931 -0.08765142 -0.10869378 -0.1737628
11 -0.07343173 -0.1484892 0.038829427 -0.20969684 0.02716914 0.027311474 0.007044185 0.071599 0.06063114 0.022678573 -0.0143698715 0.16855094 0.055897944 -0.030518811 0.023843 -0.19478577 -0.11840541 -0.08033392 0.096526176 0.13392332 0.09805445 -0.016011417 0.07971093 0.18331607 -0.0057126116 0.04169469 -0.16490161 0.03337998 -0.1040315 -0.06450863 0.056358498 -0.036063083 -0.15517391 -0.06455463 -0.02573732 -0.15259969 0.073748074 0.13149354 0.081206724 0.101268545 -0.16575311 0.10475779 0.08986531 -0.01151025 -0.07538825 0.26579288 0.09274634 -0.006981367 -0.039706547 0.009131711 -0.091093935 0.124519914 0.011050974 -0.039291464 0.02335744 -0.15426235 0.029574174 0.041223425 -0.1247628 -0.004575421 0.042501356 -0.085083835 -0.11068079 0.10972258 -0.13693088 0.071310274 -0.06631583 -0.011399818 0.07218566 -0.025742223 0.0758149 -0.022137998 0.21205279 -0.0948342 0.20068754 -0.13094036 0.044700492 0.0010686461 -0.020309158 0.009211417 0.1320818 -0.11014481 -0.13314226 -0.18535677
62 -0.061848115 -0.102996096 0.018611006 -0.19418749 0.0037881683 0.022145353 0.025877327 0.06515716 0.077159785 0.015989168 0.010963443 0.14980105 0.0797252 -0.040327154 0.0016970591 -0.19055705 -0.13543995 -0.07605231 0.05404232 0.118710145 0.08867852 -0.026011638 0.07572605 0.1565369 -0.006493008 0.059475873 -0.1778868 0.007705835 -0.081530556 -0.05136132 0.03178909 -0.042245675 -0.11933582 -0.043849017 -0.026959931 -0.1346138 0.052677814 0.11215135 0.073438235 0.09514299 -0.1635329 0.07764865 0.062965654 -0.025728282 -0.07101708 0.2844559 0.11898173 -0.019556908 -0.020680327 -0.0081356885 -0.10972662 0.13503787 -0.004038342 -0.046094026 0.022105835 -0.15446529 0.030458275 0.02647902 -0.10204463 -0.01564288 0.07158929 -0.06470382 -0.15153381 0.11791428 -0.12338548 0.07425588 -0.05546768 -0.008866522 0.06887581 -0.009021053 0.060088485 -0.028546123 0.2625815 -0.11262432 0.23201862 -0.15069753 0.063153915 0.0046666856 -0.023212362 -0.0076977257 0.15679969 -0.08339892 -0.10483894 -0.19750787
82 -0.046957817 -0.109388314 0.010515065 -0.20164317 0.006400072 0.040880024 0.04350629 0.0848884 0.071604975 0.030202795 -0.014282174 0.17559427 0.08124176 -0.03948635 0.026397722 -0.1796719 -0.13537322 -0.075547054 0.044858363 0.12232228 0.06676742 -0.032163106 0.06893004 0.15595314 -0.009124191 0.04283827 -0.12796974 0.012167028 -0.0972032 -0.07397066 0.044016924 -0.018817518 -0.15081456 -0.084242806 -0.02183762 -0.14367943 0.05902914 0.12382413 0.09349791 0.09312712 -0.16506742 0.08089715 0.0753313 -0.028035756 -0.07148486 0.28278166 0.14429353 -0.006176501 -0.037420426 0.0033678974 -0.11168299 0.15549414 -0.019536605 -0.07518037 0.034561463 -0.17536546 0.022142194 0.009680677 -0.11667136 -0.023947913 0.069569804 -0.09828352 -0.12167718 0.11949193 -0.11342681 0.08205517 -0.05150741 -0.020858122 0.049541492 -0.02467812 0.07554467 0.004072948 0.22465952 -0.10891777 0.21514884 -0.13504232 0.0433293 -0.004230452 -0.021309393 -0.015721597 0.18417759 -0.073053084 -0.11217672 -0.17351459
58 -0.055665985 -0.10875605 0.01023106 -0.18357363 0.0035258422 0.02752685 0.027212104 0.06885928 0.061225746 0.029015824 -0.00038608527 0.15207434 0.07720843 -0.015533807 0.026203671 -0.19438612 -0.11802796 -0.061651655 0.04872248 0.08405818 0.06662999 -0.03304 0.051076155 0.1367412 0.0077624926 0.025561966 -0.14019324 0.008651116 -0.08611524 -0.0424416 0.05564919 -0.014543288 -0.13573226 -0.05734033 -0.021680467 -0.13916132 0.057912335 0.12953569 0.073240995 0.1091208 -0.1842157 0.083248146 0.07931893 -0.027014349 -0.07228937 0.296765 0.12217749 -0.018554278 -0.030594423 -0.0035243924 -0.1056474 0.1242236 0.010809557 -0.059910614 0.016652318 -0.16725497 0.031730834 0.011777554 -0.1041613 -0.030805778 0.08899051 -0.09126615 -0.1447453 0.11466711 -0.12458827 0.086878695 -0.052726094 -0.021776883 0.08185605 0.0020040513 0.070561 -0.015285841 0.24815832 -0.10170957 0.23038962 -0.15177594 0.045608588 -0.011493882 -0.017399037 -0.01999709 0.16587281 -0.090545 -0.10858925 -0.18957593
20 -0.058890983 -0.090189345 0.020890158 -0.15457997 0.007852652 0.012122558 0.025642062 0.054098416 0.0561746 0.012502337 0.0018326156 0.14041889 0.08008717 -0.030975357 0.0116195325 -0.17144339 -0.12847026 -0.0740719 0.04546501 0.10214746 0.083526485 -0.027266266 0.07174698 0.16347957 0.0025175672 0.057619356 -0.1530196 0.0101442635 -0.08020176 -0.062117003 0.02963105 -0.034919623 -0.13774061 -0.057467915 -0.02254507 -0.13786975 0.069965914 0.1250965 0.07854489 0.09145795 -0.17622368 0.09100581 0.07396629 -0.019720973 -0.053527392 0.27194226 0.108386815 -0.0155873755 -0.023156025 -0.002581489 -0.11082333 0.12942119 0.00059604394 -0.06401045 0.01133683 -0.15643303 0.038676135 0.013574069 -0.10792145 -0.03711679 0.08656089 -0.066740155 -0.14450867 0.11760666 -0.14735815 0.09101243 -0.078187495 -0.0008385245 0.07718298 0.005318883 0.061957486 -0.015662404 0.25670594 -0.118495 0.23349953 -0.14211775 0.07169604 -0.009403578 -0.017701 -0.0025962188 0.17910895 -0.08758329 -0.107668534 -0.20027079
76 -0.08906384 -0.15039587 0.027499951 -0.2243965 0.008292385 0.029150175 0.024766417 0.04764481 0.055303454 0.013832895 0.0015224029 0.19899344 0.0964339 -0.05607282 0.008241642 -0.22768167 -0.14183946 -0.09070807 0.0728306 0.14265993 0.09140954 -0.03168141 0.07589334 0.17910457 -0.018589655 0.050284248 -0.17465338 0.026347544 -0.09388641 -0.07234513 0.02007064 -0.03143185 -0.12744538 -0.05562575 -0.022004174 -0.14961341 0.053779244 0.109514706 0.07928847 0.07896942 -0.17088951 0.06425817 0.07556486 -0.015007362 -0.06194574 0.27183607 0.09545191 -0.023319298 -0.038120188 -0.0033576153 -0.11408973 0.12925047 -0.006767735 -0.041566655 -0.0030840295 -0.14009824 0.009631717 0.03246212 -0.08373243 -0.03123499 0.065432034 -0.08401202 -0.13776319 0.11113145 -0.1168875 0.06200071 -0.05641016 -0.022753146 0.06693728 -0.027879918 0.055721633 -0.012978421 0.20482725 -0.088844985 0.19914834 -0.108652934 0.044648428 -0.009340328 -0.016937792 -0.021246059 0.14170027 -0.074347824 -0.090626195 -0.17925358
47 -0.07551775 -0.12158172 0.016697692 -0.22115733 -0.0007767849 0.02097295 0.03827354 0.087430686 0.09045162 0.032161333 -0.014629494 0.20595445 0.1322606 -0.053200345 0.009983282 -0.24705556 -0.15562646 -0.10229005 0.07708711 0.1570166 0.10699603 -0.03752446 0.08024609 0.21333848 0.00068915833 0.053232543 -0.16174167 0.012033828 -0.1058659 -0.06606549 0.035780173 -0.028885344 -0.12801343 -0.063695185 -0.03242545 -0.13639052 0.05613584 0.119503126 0.06960841 0.07959436 -0.16250981 0.069095336 0.060157903 -0.021632636 -0.050598208 0.2639692 0.11726734 -0.01793315 -0.013349799 0.0093914205 -0.09292642 0.1215955 -0.004669875 -0.07220705 0.020737123 -0.14369701 0.035268202 0.002117559 -0.11454809 -0.034949955 0.08635514 -0.06845644 -0.13631752 0.10994357 -0.11577952 0.059009474 -0.057678614 0.0059228553 0.039420754 0.0017932431 0.05713203 -0.0208813 0.2057807 -0.093182676 0.18083513 -0.12557055 0.048422843 0.0023109312 -0.028473675 -0.020341946 0.13577476 -0.06916329 -0.07719559 -0.14803821
53 -0.084739074 -0.13592507 0.03200741 -0.23581892 0.012192777 0.0369633 0.033727765 0.0898756 0.080677435 0.0242038 -0.01660859 0.19212925 0.10125005 -0.054201715 0.0046183537 -0.22230116 -0.10660686 -0.07826389 0.057916075 0.13502872 0.0709749 -0.049858853 0.067050956 0.17698069 -0.00085340365 0.051580146 -0.14139253 0.021248449 -0.09756142 -0.09174712 0.027714992 -0.015533609 -0.15362106 -0.084594145 -0.027332015 -0.13478509 0.052252013 0.11348749 0.08634122 0.082051136 -0.1592664 0.07095014 0.065154634 -0.016927075 -0.06312354 0.22960013 0.12869358 0.008417887 -0.01793628 0.0066351476 -0.109703 0.12553452 -0.010573029 -0.06057864 0.021372156 -0.15414411 0.017619405 0.002407534 -0.12968108 -0.018693542 0.059885785 -0.07947839 -0.109401815 0.10449694 -0.12855588 0.06452947 -0.057657372 -0.019901441 0.039252862 -0.023586735 0.07707767 0.0020131965 0.20491472 -0.10034982 0.20721449 -0.127571 0.05099141 -0.008148914 -0.020457605 -0.029399244 0.19120319 -0.08860653 -0.118951924 -0.17752793
9 -0.07972305 -0.13276862 0.030310996 -0.21810001 0.011422342 0.01883651 0.023834879 0.066479996 0.0753204 0.022074759 -0.014603168 0.1820978 0.08904665 -0.04747242 0.009690885 -0.20300929 -0.12858655 -0.08443063 0.066779524 0.1304803 0.07215155 -0.025458036 0.08370467 0.15905531 -0.004074934 0.050377246 -0.15708303 0.012911511 -0.093397595 -0.05650677 0.03861342 -0.034493607 -0.116187416 -0.06608004 -0.03169895 -0.13746253 0.062394667 0.116321295 0.067235954 0.08272929 -0.16262978 0.07012921 0.08067264 -0.009299726 -0.073170796 0.24472012 0.10587443 -0.014395897 -0.025867555 -0.0022267117 -0.10466056 0.11954048 -0.0056742793 -0.049245745 0.015441886 -0.16003463 0.025309805 0.019677272 -0.113846146 -0.018127028 0.062385943 -0.08338923 -0.12803623 0.1253634 -0.12731814 0.0824464 -0.063741975 -0.0027299174 0.061705276 -0.021086536 0.05804458 -0.009172018 0.23403701 -0.11310504 0.21869124 -0.13886794 0.06002165 0.009287075 -0.02364388 -0.0054578334 0.1631211 -0.09556799 -0.1133726 -0.19833013
41 -0.113019235 -0.1310682 0.04612543 -0.22145255 0.009275504 0.019155106 0.048648138 0.068710096 0.085477255 0.016968459 -0.00965464 0.18334362 0.11797956 -0.058242116 0.0004678536 -0.22574769 -0.121156834 -0.10215833 0.053714305 0.14533252 0.08298352 -0.049300287 0.085361384 0.19276464 0.0037096196 0.06548644 -0.17881745 0.023180682 -0.10510642 -0.092738114 0.018157253 -0.021443406 -0.1214352 -0.08010575 -0.034889355 -0.13384156 0.046185046 0.109222315 0.076747514 0.07287369 -0.14061444 0.052363068 0.06682872 -0.018755672 -0.051825944 0.20156838 0.12107788 0.0072644656 -0.0068878545 -0.010215238 -0.1120712 0.119602345 -0.027334025 -0.0475709 -0.014691653 -0.15515326 0.020429011 0.0012073892 -0.105663955 -0.022482967 0.0668777 -0.070338115 -0.11183901 0.11784448 -0.12205142 0.08310969 -0.078231454 -0.02309835 0.049737073 -0.016516812 0.046372652 0.00042633025 0.22677724 -0.11126279 0.20820306 -0.1339196 0.063557126 -0.01220151 -0.036325242 -0.027517512 0.21155402 -0.077465616 -0.10867414 -0.19217487
51 -0.062013384 -0.099453144 0.021557704 -0.16007441 0.01126621 0.02818656 0.024182653 0.042545967 0.048385553 0.01231358 -0.0047205384 0.14107288 0.053304743 -0.041082535 0.009169725 -0.17639482 -0.13054809 -0.07052208 0.043952588 0.09394328 0.07310617 -0.016412256 0.07752368 0.14041166 -0.009403007 0.057526674 -0.15782233 0.015946424 -0.08004147 -0.04939197 0.034258634 -0.036013994 -0.11848536 -0.04719909 -0.028996719 -0.14461404 0.069729224 0.114077054 0.06804913 0.09691041 -0.1627074 0.09000496 0.06952574 -0.014575143 -0.07676657 0.282293 0.11212125 -0.019169498 -0.03140789 -0.0036093767 -0.11615679 0.13511932 0.00537391 -0.05203434 0.013980552 -0.1823725 0.024860442 0.023997104 -0.11153328 -0.018491909 0.06534308 -0.07760379 -0.16090034 0.14345327 -0.13540304 0.0873963 -0.056306485 0.0054251533 0.07296422 -0.023321997 0.06244857 -0.018098975 0.25555202 -0.12420365 0.23703872 -0.15431054 0.072294354 -0.007926937 -0.015385192 -0.01042724 0.17459713 -0.1006214 -0.122079454 -0.22006583
24 -0.0671733 -0.107105866 0.02791786 -0.18355091 0.010112053 0.022925476 0.035893027 0.07176437 0.078996606 0.02661639 -0.0098728025 0.17217685 0.09180041 -0.051158004 0.008000695 -0.20527045 -0.12933958 -0.0814141 0.054710403 0.11930961 0.08523689 -0.027310302 0.07519883 0.16909711 -0.0071209697 0.062368784 -0.16397497 0.0066811107 -0.09412009 -0.05812879 0.032964405 -0.02695944 -0.13528469 -0.05786023 -0.029803932 -0.14594598 0.06726528 0.12290949 0.07688212 0.079889685 -0.16948245 0.08417495 0.07639078 -0.009839453 -0.0710873 0.2766391 0.12201863 -0.007825161 -0.020636575 -0.0041231844 -0.10618845 0.1324403 -0.00984916 -0.054894157 0.021220185 -0.15857676 0.037281543 0.015841154 -0.12845013 -0.028312186 0.077957414 -0.07964811 -0.14772409 0.12932289 -0.13029146 0.06943496 -0.060543086 0.0025921466 0.0577903 -0.0083398 0.063542165 -0.01205669 0.22718336 -0.11188222 0.20827624 -0.13321984 0.063716345 0.0022306468 -0.015824897 -0.012135103 0.15660383 -0.09201248 -0.092680074 -0.17026927
48 -0.06510053 -0.113568634 0.029379886 -0.19595365 0.008452629 0.03358709 0.030957159 0.06743935 0.05398547 0.020056937 -0.005101593 0.15697494 0.08485186 -0.033246487 0.006218809 -0.20620881 -0.1275517 -0.091670014 0.055423927 0.12086196 0.097107135 -0.030559989 0.07308684 0.1947317 -0.008454046 0.06093484 -0.17172986 0.012106189 -0.089025065 -0.07577686 0.03331489 -0.041042957 -0.13156107 -0.060562193 -0.043260526 -0.14665513 0.076506086 0.11843209 0.07905439 0.09108121 -0.1609615 0.07335488 0.07522024 -0.0055390117 -0.046876006 0.24320415 0.10240223 -0.020429516 -0.024623573 -0.0008559779 -0.08082161 0.11198398 -0.011904516 -0.033414703 0.008734955 -0.122332126 0.022627924 0.023942256 -0.11258456 -0.017112857 0.07296036 -0.07150545 -0.1281356 0.11028674 -0.13142641 0.07474933 -0.07415952 -0.0022567792 0.0770649 -0.02378374 0.06936884 -0.02003246 0.2435581 -0.1163832 0.24269119 -0.14578836 0.073629394 -0.008333059 -0.02042877 -0.009989481 0.16122149 -0.08070035 -0.09658608 -0.1871486
71 -0.055104375 -0.1291923 0.023206979 -0.22911152 0.01368365 0.038828183 0.02859916 0.086700566 0.09935523 0.028009156 -0.01244664 0.22714609 0.09865863 -0.029257547 0.025897607 -0.2308053 -0.16057631 -0.099256285 0.080138646 0.15737894 0.101041116 -0.02265252 0.076134786 0.19307591 -0.010373926 0.039213616 -0.16583441 0.017488766 -0.08888119 -0.047415327 0.04644739 -0.030349983 -0.12533863 -0.06415039 -0.031225959 -0.140688 0.051406465 0.1096378 0.07795746 0.08329549 -0.15490468 0.06642706 0.06398091 -0.025343087 -0.045494556 0.2650694 0.09317885 -0.02504536 -0.034960717 0.010960632 -0.09167419 0.12123829 -0.0007594551 -0.06672193 0.029165542 -0.14230017 0.024751103 0.018800644 -0.08994703 -0.03254373 0.06929256 -0.07774894 -0.1080518 0.10486949 -0.113760866 0.08215599 -0.046127908 -0.012425288 0.057844218 -0.015664596 0.07533256 -0.011113438 0.21365958 -0.09641347 0.20376354 -0.1355091 0.03357763 -0.005653545 -0.028809724 -0.009262035 0.13252532 -0.07850643 -0.08644967 -0.15482596
31 -0.062202796 -0.12290925 0.023389166 -0.17700979 0.0034759939 0.030138267 0.022469297 0.037756104 0.035598353 0.0038908813 0.003880476 0.13459726 0.048077747 -0.026915317 0.00898001 -0.16188636 -0.12179221 -0.060134634 0.04784457 0.098149695 0.06943567 -0.033146054 0.0537598 0.14226532 -0.010480841 0.047271606 -0.13530204 0.023107145 -0.082319826 -0.06781405 0.017443055 -0.015545605 -0.14064299 -0.048280478 -0.016648158 -0.13665894 0.070142135 0.10860911 0.080699734 0.081296064 -0.17992772 0.08536835 0.08214521 -0.014218699 -0.084360726 0.2878054 0.1136482 -0.02288205 -0.029556328 -0.009893003 -0.124761306 0.13995609 0.010199828 -0.05270117 0.020544253 -0.16712585 0.012905258 0.01968349 -0.119756654 -0.03440103 0.06559163 -0.0946058 -0.14596981 0.12237416 -0.13955624 0.075364 -0.06285781 -0.029202584 0.071792446 -0.03851526 0.0674579 -0.0126383165 0.25477564 -0.113843575 0.24599728 -0.14164893 0.07327177 -0.010401351 -0.0012335781 -0.008848267 0.19016021 -0.12775393 -0.12684947 -0.22554076
65 -0.05694051 -0.106508516 0.022124907 -0.18427446 0.002586979 0.02424598 0.028385824 0.07361787 0.08355119 0.019277038 0.0010445495 0.16440684 0.10013413 -0.017738052 0.003848794 -0.19905989 -0.118096195 -0.08556543 0.059641056 0.12585054 0.081673294 -0.04464438 0.08695189 0.19883235 0.005747188 0.05974642 -0.17704964 0.014496648 -0.111428365 -0.08422302 0.04956704 -0.024196172 -0.15001929 -0.087443694 -0.040132303 -0.15112345 0.054584365 0.13098529 0.08185297 0.10433065 -0.16777241 0.08028966 0.079095796 -0.027967546 -0.058741864 0.25740558 0.11747429 -0.01607534 -0.00956491 0.0010768363 -0.1084573 0.119110264 -0.009055689 -0.060585562 0.008956915 -0.14226632 0.02678684 0.012018686 -0.096558146 -0.023701701 0.068588406 -0.08534272 -0.12058684 0.10992097 -0.12959811 0.08136459 -0.045809884 -0.014211052 0.058506276 -0.0015273327 0.059956897 -0.0008989621 0.23105012 -0.10172228 0.20417291 -0.14463502 0.067399435 -0.01924202 -0.02502964 -0.012827082 0.17705843 -0.0581417 -0.10502099 -0.15621759
10 -0.06062874 -0.10131942 0.019455584 -0.17286268 0.008776434 0.046253704 0.041140076 0.07264936 0.082512304 0.021905364 -0.005079065 0.19436131 0.098535724 -0.025244055 -0.0009208379 -0.20749757 -0.1282951 -0.08478564 0.05598524 0.13731952 0.09939244 -0.043342844 0.07967625 0.20833045 -0.006916668 0.046480924 -0.18125984 0.009334369 -0.09038784 -0.064445175 0.03233994 -0.028945282 -0.13643606 -0.057641763 -0.03972474 -0.14996776 0.05908895 0.12651563 0.0772731 0.089859106 -0.16576149 0.058514047 0.07435622 -0.019219099 -0.050066832 0.26431927 0.12357413 -0.013052642 -0.013525367 -0.0036221573 -0.095953465 0.116406426 -0.006014512 -0.056308772 0.0077368743 -0.1315048 0.02982989 0.0033325807 -0.10649932 -0.01675367 0.086039014 -0.0809873 -0.12726875 0.11376616 -0.1305019 0.08163498 -0.06168464 -0.01801393 0.06584283 -0.016347805 0.0664147 -0.012678439 0.2273833 -0.09722413 0.2287916 -0.1320758 0.05457778 -0.0029351905 -0.027855387 -0.023510767 0.15966442 -0.081824206 -0.09474277 -0.17184852
49 -0.05321219 -0.08742377 0.03062337 -0.16921991 -0.0044934563 0.024381638 0.022841265 0.054525442 0.07938851 0.0080799125 0.01090517 0.15704922 0.07439965 -0.030473918 0.015137269 -0.18624738 -0.13001437 -0.07286362 0.058248904 0.12061994 0.08872975 -0.037995122 0.07488078 0.18915026 -0.002074514 0.06321789 -0.17500554 0.012115311 -0.08135552 -0.07796947 0.024053559 -0.041014086 -0.14044513 -0.047643628 -0.025538731 -0.13400483 0.060137562 0.113869265 0.07595755 0.09136063 -0.1724322 0.08065776 0.07713564 -0.01642692 -0.054548286 0.28911096 0.11778563 -0.015693862 -0.02206778 0.0057485057 -0.10290572 0.12474346 -0.0057053547 -0.06411631 0.025070723 -0.13530664 0.040219534 0.019514667 -0.11712805 -0.024873523 0.068929926 -0.059316415 -0.13274227 0.10966807 -0.13728392 0.07350687 -0.06474201 -0.0042419205 0.064962916 -0.006356241 0.087886035 -0.037533574 0.2600624 -0.114396565 0.24023165 -0.15798052 0.055324692 -0.005137877 -0.013115384 -0.010923742 0.15412971 -0.0733379 -0.108883105 -0.17699066
17 -0.07524252 -0.12014339 0.04017045 -0.19748908 0.014800642 0.024536947 0.03488242 0.07093074 0.070584804 0.022058997 0.006570143 0.16182749 0.0939302 -0.028679276 0.009870163 -0.19569446 -0.11889936 -0.08471918 0.046408482 0.11197611 0.08098431 -0.033980604 0.06883364 0.14868255 -0.007055238 0.05767124 -0.1632756 0.016064502 -0.075613566 -0.047861017 0.04073639 -0.018896258 -0.11887809 -0.0540337 -0.024507534 -0.14541207 0.06328398 0.12299101 0.07867837 0.10510798 -0.16758707 0.07184042 0.08001483 -0.017477741 -0.059890494 0.25221947 0.11517255 -0.015380956 -0.032472037 0.0013737747 -0.10676652 0.1163652 -0.004076606 -0.04461893 0.005863425 -0.15268292 0.017904274 0.019028572 -0.10164129 -0.031281933 0.08328159 -0.08534651 -0.12504555 0.10837261 -0.12551734 0.08840813 -0.061353855 -0.021229437 0.07631185 -0.010106037 0.059462648 -0.0013664712 0.24678516 -0.12680131 0.26206344 -0.14539419 0.06484644 -0.0035600818 -0.03828116 -0.021584567 0.18125322 -0.093194626 -0.10626357 -0.1973146
6 -0.06632398 -0.11566028 0.024090715 -0.19681439 0.016839255 0.03146039 0.038427927 0.066462 0.05684224 0.025513109 -0.0009663979 0.15570721 0.0717686 -0.044419147 0.011061062 -0.19588244 -0.14531589 -0.0945969 0.064632796 0.11767588 0.099955566 -0.03364006 0.06276603 0.18882437 0.006659911 0.035178978 -0.15713418 0.012829387 -0.08094422 -0.050283745 0.027995154 -0.031105101 -0.13227142 -0.047090128 -0.024721377 -0.14861512 0.060099203 0.13554266 0.07914985 0.08462517 -0.18097779 0.086840324 0.07770291 -0.021486456 -0.076096624 0.29261008 0.122116685 -0.015804807 -0.013198275 0.003977542 -0.09466207 0.13106588 -0.0040169493 -0.04757593 0.027523182 -0.14419016 0.028448582 0.009175199 -0.101336695 -0.037856117 0.08326933 -0.073807105 -0.14399785 0.11842235 -0.11958168 0.064177126 -0.061831824 -0.0146213295 0.07301161 -0.023085402 0.06506784 -0.028947651 0.22036496 -0.08530819 0.2103159 -0.12874585 0.05281999 -0.0053953775 -0.01732789 -0.01914225 0.1441197 -0.08474431 -0.0935681 -0.19466482
16 -0.083760455 -0.13440648 0.026738297 -0.22144265 0.0069249365 0.028591413 0.033561256 0.07658321 0.06360352 0.018350286 -0.013253712 0.16451871 0.06885958 -0.030571109 0.019544858 -0.19726254 -0.12931901 -0.081519224 0.044692274 0.093441404 0.07296485 -0.02368546 0.07684236 0.1558111 -0.0021411644 0.048627626 -0.14707926 0.01551599 -0.09618653 -0.08095658 0.021438576 -0.036543492 -0.12731737 -0.079893045 -0.023469452 -0.13098387 0.06686728 0.10211327 0.06562146 0.06953944 -0.1635821 0.08714198 0.087531164 -0.01631416 -0.061730392 0.25605983 0.11255846 -0.0042849807 -0.026647022 0.0009210496 -0.101152435 0.13787895 -0.0060392567 -0.05014644 0.02777323 -0.14963664 0.02938237 0.024094848 -0.10541497 -0.025131892 0.06215469 -0.08017006 -0.12812719 0.10568392 -0.12663794 0.07635511 -0.07276078 0.00408963 0.06045686 -0.022557465 0.07293325 -0.019324258 0.2539796 -0.117306374 0.22977507 -0.14671202 0.063979864 -0.008445871 -0.01987297 -0.00087071164 0.17340916 -0.09539941 -0.11589806 -0.19928236
52 -0.06804011 -0.107587785 0.02271567 -0.20996083 -0.002924201 0.028467944 0.026739284 0.058360532 0.086202204 0.020738903 -0.00070447964 0.18500386 0.078877315 -0.031070903 0.008370552 -0.19457999 -0.14643598 -0.07870689 0.07351948 0.13588816 0.090777695 -0.03146448 0.06699134 0.17154169 -0.010589033 0.05055567 -0.17571393 0.022673987 -0.08776997 -0.048966765 0.048857633 -0.024385395 -0.13571948 -0.040879067 -0.01942428 -0.1439699 0.051578853 0.12459499 0.08159937 0.10425655 -0.17872319 0.07732699 0.06334021 -0.019157201 -0.079212174 0.30483544 0.124414824 -0.010793748 -0.03031718 -0.0001385346 -0.10308404 0.124883555 0.009492583 -0.06294659 0.029731158 -0.16107878 0.03666278 0.011711066 -0.12424182 -0.020276044 0.06913162 -0.06350655 -0.15315631 0.118171014 -0.12940305 0.07530834 -0.034127325 -0.006528234 0.0542667 -0.00013798277 0.07656516 -0.019802904 0.2211792 -0.083136395 0.20572674 -0.13558191 0.028718099 0.0033608836 -0.008640114 -0.0112383645 0.15181805 -0.09290485 -0.09938341 -0.17259873
8 -0.06963478 -0.13719182 0.031086365 -0.1968357 0.0072198864 0.042072568 0.031966057 0.068599485 0.07092208 0.01725927 -0.007126593 0.16196176 0.079023734 -0.045223016 0.004595635 -0.21147573 -0.11744818 -0.08459564 0.08247036 0.14651115 0.08153423 -0.027000591 0.067746006 0.15503067 -0.011977873 0.05644546 -0.15702912 0.0077201426 -0.08598488 -0.05128271 0.029000975 -0.02833912 -0.12793884 -0.04681731 -0.033607785 -0.1370593 0.07545229 0.11642889 0.07413053 0.08740421 -0.16430157 0.066305235 0.06598096 -0.0012122968 -0.06641756 0.26208746 0.11312815 -0.027073853 -0.027430754 -0.0051311227 -0.11638312 0.117251985 0.0012898784 -0.041635823 0.006994665 -0.16208623 0.018065095 0.021401256 -0.13062252 -0.008822686 0.06180408 -0.08138241 -0.12630318 0.12553428 -0.13289464 0.066917524 -0.058696765 -0.012240974 0.060774058 -0.036450125 0.06296536 -0.012574544 0.23001938 -0.11530703 0.22494292 -0.15011871 0.06378187 0.011489021 -0.02501406 -0.008484598 0.15998551 -0.12076086 -0.11056766 -0.18527777
60 -0.051609356 -0.0969489 0.012823273 -0.17465389 0.0021748166 0.017583776 0.035240408 0.06765367 0.07371273 0.030464724 -0.0038083314 0.17514451 0.09631469 -0.037317187 0.00794872 -0.21174513 -0.13386585 -0.094549015 0.049699303 0.112682715 0.08254632 -0.03974951 0.076026656 0.17142405 0.00078246807 0.053644687 -0.16402844 0.0022845105 -0.09215651 -0.053584922 0.04047814 -0.030176062 -0.11661524 -0.059065554 -0.03425942 -0.13366464 0.067482024 0.1266363 0.07732502 0.088036336 -0.16301587 0.073002376 0.07350963 -0.019069502 -0.066099666 0.25766903 0.114470884 -0.021550937 -0.011265735 -0.00077939057 -0.0925532 0.11313123 -0.013347704 -0.049231376 0.013378161 -0.13508874 0.040458646 0.009362031 -0.105722666 -0.025154723 0.08478331 -0.07599366 -0.13472152 0.11462992 -0.13945536 0.088642456 -0.06734497 -0.0014295251 0.06902772 -0.010974257 0.054833695 -0.014071999 0.2585352 -0.114734605 0.24355085 -0.15168296 0.07660749 -0.0032484413 -0.026174456 -0.008243436 0.19122085 -0.07464451 -0.099753544 -0.2077159
68 -0.089862555 -0.13041976 0.05006298 -0.2294242 0.017293012 0.03382188 0.0367652 0.06625241 0.059511516 0.015033039 -0.000874386 0.17168449 0.1036483 -0.048938774 0.0024853728 -0.22381392 -0.13722801 -0.09991055 0.060502928 0.13058926 0.09508041 -0.042559195 0.06976432 0.19401951 0.0014376143 0.05849519 -0.18000613 0.026014522 -0.08957805 -0.083012685 0.014076 -0.026419532 -0.1342255 -0.066319786 -0.024906628 -0.14863716 0.049101837 0.12048864 0.09022812 0.0799658 -0.15671365 0.0730335 0.06817167 -0.025564522 -0.05094958 0.2361427 0.108691394 -0.005736761 -0.02003277 0.0059001814 -0.10463118 0.12672873 -0.017678177 -0.04131609 0.0018882954 -0.12651527 0.020457601 0.011290143 -0.09358332 -0.041434284 0.07794002 -0.08297059 -0.12536588 0.11127618 -0.12980488 0.06690168 -0.05543791 -0.022769902 0.063106626 -0.01532708 0.052121084 -0.020589527 0.2154268 -0.10391847 0.20880184 -0.12887947 0.064351715 -0.017961703 -0.02432265 -0.03365709 0.1701953 -0.070718616 -0.10020375 -0.1804506
23 -0.08190719 -0.13395396 0.021161314 -0.23342949 0.0064852145 0.039457146 0.028783217 0.08056647 0.06887896 0.021407835 -0.023130432 0.19752106 0.09704828 -0.04166105 0.007159034 -0.20603347 -0.13434298 -0.076656125 0.058732033 0.13431846 0.09617499 -0.02320706 0.066439174 0.18511203 -0.014623933 0.05776925 -0.18500079 0.025182815 -0.10092317 -0.05759395 0.03535195 -0.021772666 -0.14066666 -0.057226434 -0.04091085 -0.15633695 0.06288581 0.121569954 0.07759376 0.09345726 -0.17571887 0.06813116 0.0735756 -0.013226642 -0.05377373 0.2640754 0.09854596 -0.0021168415 -0.038234368 -0.0015259262 -0.09683439 0.11584215 -0.0012143577 -0.067317754 0.023151616 -0.15950744 0.017107153 0.009657248 -0.10577978 -0.03051784 0.07573887 -0.07123303 -0.110224456 0.11166253 -0.120772816 0.08514114 -0.06339399 0.011535337 0.06599852 -0.012568032 0.06409571 -0.0053814463 0.2258966 -0.107038066 0.20324983 -0.1218754 0.048061587 -0.0025379003 -0.018200975 -0.0076846667 0.1575551 -0.08925535 -0.08314253 -0.16374613
27 -0.06965359 -0.13717687 0.024042267 -0.21406981 0.013562344 0.0383715 0.014233876 0.06491029 0.06298527 0.017534299 0.0046456573 0.16696678 0.07249476 -0.03499219 -0.0078051663 -0.19709006 -0.11159264 -0.084860444 0.05775837 0.11208296 0.07804653 -0.025898652 0.07929562 0.15414214 -0.011697289 0.054848816 -0.1662422 0.017585913 -0.086890735 -0.060265277 0.028270373 -0.041434724 -0.13482833 -0.066695 -0.033057876 -0.15088238 0.05702536 0.12396502 0.07855487 0.086580485 -0.19319388 0.08846848 0.083170235 -0.014786025 -0.0713469 0.25933236 0.10666737 -0.027077971 -0.024012657 -0.007874071 -0.116821066 0.12957786 -0.004995077 -0.031433847 -0.0054055727 -0.15173484 0.02247349 0.02349018 -0.095025755 -0.005316148 0.054288886 -0.06802367 -0.14178818 0.10292259 -0.13263759 0.07595169 -0.057037953 -0.004647316 0.056793105 -0.021118216 0.053540427 -0.005714821 0.25201562 -0.11634513 0.22218648 -0.15177621 0.0795704 -0.0040323003 -0.019534357 -0.008624339 0.15990083 -0.10149956 -0.10559008 -0.18944053
5 -0.05639322 -0.099361174 0.005379474 -0.1790121 0.0044633667 0.033615205 0.04529103 0.053203713 0.0670449 0.01131477 -0.0012180659 0.16611254 0.0637133 -0.03711233 -0.004460685 -0.17298098 -0.13529801 -0.08003765 0.047195364 0.11561377 0.08040641 -0.035826996 0.059444144 0.15912747 -0.0023418162 0.03499576 -0.13977925 0.005021215 -0.08244379 -0.06173357 0.0280931 -0.020936375 -0.13052143 -0.04947151 -0.028362148 -0.13988231 0.048261907 0.12195695 0.07804946 0.08547229 -0.158748 0.07216971 0.058696516 -0.029537782 -0.087135226 0.28000733 0.13415006 -0.026310973 -0.003927213 -0.010711363 -0.11202972 0.12995733 0.003940692 -0.066437446 0.02562458 -0.15702115 0.030540982 -3.0495274e-05 -0.10993577 -0.02038496 0.067314394 -0.081538446 -0.15455446 0.13336217 -0.14476362 0.07900834 -0.043663308 -0.02295206 0.0682606 -0.028797545 0.077179946 -0.015795263 0.25769088 -0.10662662 0.23851295 -0.16261087 0.06605507 -0.008290916 -0.010757835 -0.02915207 0.18159577 -0.09381609 -0.1136319 -0.217868
7 -0.06632041 -0.11450924 0.022789508 -0.19844425 -0.008214245 0.032724287 0.037297122 0.075245395 0.083405115 0.017957982 -0.009085108 0.16914909 0.09793066 -0.037815556 -0.0005016705 -0.1887031 -0.120552465 -0.07717526 0.059263866 0.13652013 0.08432047 -0.04772426 0.07970822 0.17300221 -0.004382703 0.06184339 -0.18615109 0.013345503 -0.10480507 -0.068372495 0.041134 -0.018367803 -0.14138715 -0.057917472 -0.03740961 -0.1535102 0.053383876 0.12578237 0.08229223 0.09809144 -0.18612872 0.06531409 0.084180966 -0.012394574 -0.069777176 0.27144533 0.12966731 -0.014040198 -0.011901259 -0.007687564 -0.13030304 0.12635465 -0.00050831726 -0.050647818 -0.0054423125 -0.15790497 0.027214328 0.007665312 -0.122123055 -0.017737377 0.07771666 -0.079279654 -0.13032459 0.11343662 -0.12757242 0.07776691 -0.04953477 -0.013631689 0.05494633 -0.014137991 0.046900626 -0.0031992397 0.22105108 -0.10314961 0.2126024 -0.12593962 0.058893308 0.005990071 -0.016910655 -0.032175243 0.17177293 -0.08660227 -0.09053305 -0.16407694
59 -0.07199384 -0.1213993 0.01990799 -0.23060869 -0.004113177 0.037680056 0.04863529 0.0813314 0.09543396 0.01713823 -0.0022179682 0.17424381 0.09326466 -0.030720575 -0.0027206927 -0.1940997 -0.104927175 -0.07976318 0.04464501 0.115299284 0.07255224 -0.056941792 0.06508968 0.1718664 0.012741052 0.05071094 -0.15549241 0.0027682367 -0.09155386 -0.08116736 0.021929799 -0.01570035 -0.14610657 -0.07605027 -0.0265384 -0.12797102 0.04623407 0.114132114 0.07443382 0.074414775 -0.16377825 0.06454992 0.066993125 -0.022941148 -0.062092535 0.26996595 0.14268549 -0.0134228 0.0074703344 0.00018140337 -0.106589966 0.12047524 -0.023174526 -0.07277235 0.033350296 -0.14467072 0.04022135 0.00037341556 -0.11085584 -0.031486295 0.064327806 -0.061390635 -0.11745864 0.10643045 -0.12921868 0.067729056 -0.05543161 -0.015852 0.05004734 -0.0064178295 0.079999276 -0.010439149 0.23795599 -0.10401039 0.21646027 -0.14744158 0.05764498 -0.008183515 -0.013275652 -0.017541716 0.1926307 -0.070528835 -0.104703315 -0.16824666
39 -0.06178833 -0.12330107 0.012678729 -0.1941505 0.02379386 0.035064675 0.023990156 0.083052106 0.06260456 0.027241329 -0.012767697 0.15407246 0.047424234 -0.034125727 0.009266318 -0.15978622 -0.11611443 -0.04817471 0.04835282 0.09507364 0.0735383 -0.0077199354 0.06954541 0.11846991 -0.013961069 0.047321867 -0.14302301 0.01105571 -0.08059662 -0.037659064 0.05930715 -0.03663955 -0.14986363 -0.051912714 -0.028300699 -0.14321724 0.07149909 0.14849637 0.07567704 0.10451443 -0.18304124 0.116068475 0.07988017 -0.029918734 -0.093087114 0.31054038 0.13351107 -0.01619275 -0.034424525 -0.0073626265 -0.12102811 0.1442544 0.014616854 -0.05873546 0.02900213 -0.17894591 0.039529692 0.020242423 -0.12400026 -0.0013270135 0.05375871 -0.061501577 -0.15406178 0.115096115 -0.12967108 0.07787328 -0.055507705 0.014442134 0.0682869 -0.015496692 0.07341313 -0.015851516 0.23751841 -0.111681744 0.20636897 -0.13855337 0.067531824 0.013965122 -0.0046589486 0.0006304944 0.13414004 -0.116229825 -0.11422465 -0.19409017
50 -0.09738385 -0.14374377 0.054030117 -0.23430948 -0.0011610395 0.03164071 0.039380483 0.08437283 0.08222101 0.018768227 -0.00341891 0.18729469 0.13197888 -0.049743876 -0.0105497595 -0.2561165 -0.13582279 -0.10947093 0.074040726 0.14973474 0.096604005 -0.052439597 0.08587435 0.21182615 0.0018348595 0.0701763 -0.196971 0.02887481 -0.09969104 -0.08545906 0.024673399 -0.04621507 -0.14572756 -0.0850865 -0.031649534 -0.14291973 0.049949657 0.1256587 0.0891059 0.09228381 -0.15478481 0.06486972 0.07581729 -0.022591786 -0.047546253 0.21925668 0.10899365 -0.010817266 -0.012326253 0.0052357977 -0.109040074 0.11538596 -0.014292371 -0.036221437 -0.008287538 -0.1363259 0.020384079 0.010347248 -0.095887065 -0.016363239 0.06869215 -0.074885756 -0.10423276 0.07422162 -0.12540284 0.06310001 -0.07040092 -0.01854687 0.048734423 -0.0060218656 0.05212624 -0.01031503 0.20050481 -0.09026253 0.2007669 -0.12270606 0.05471175 0.0017600495 -0.025916472 -0.029709859 0.16694978 -0.06704376 -0.09594781 -0.18012154
77 -0.08898405 -0.15343247 0.03180049 -0.22993672 -0.00087897974 0.05053673 0.032625042 0.06776878 0.043421682 0.0057840487 -0.020998938 0.18284106 0.08692884 -0.03966552 0.002906603 -0.21684422 -0.12826167 -0.09041027 0.06418849 0.14196797 0.07460092 -0.026035998 0.08866414 0.17104538 -0.025845649 0.060471565 -0.15348712 0.040051073 -0.09757221 -0.09204061 0.015221526 -0.022997951 -0.12866664 -0.080306865 -0.03236828 -0.14966235 0.050865103 0.08572322 0.07895668 0.06268627 -0.15536225 0.066468656 0.06908314 -0.008861739 -0.06580324 0.23386727 0.08843708 -0.008388567 -0.026067914 -0.01106662 -0.11660593 0.12565492 -0.017440958 -0.04138998 0.0072238105 -0.15643257 0.0028039417 0.027668016 -0.10400019 -0.010289245 0.039205093 -0.10206383 -0.12156107 0.11264382 -0.13805436 0.08149571 -0.0540421 -0.016427955 0.046020508 -0.028058887 0.06471169 0.013823019 0.21866643 -0.09252051 0.2068721 -0.124225765 0.0331757 -0.018102787 -0.008978694 -0.0067289453 0.19759981 -0.11109888 -0.12082532 -0.2043008
80 -0.062269513 -0.13528836 0.02755707 -0.18889935 0.016705466 0.03382893 0.031199481 0.08125278 0.0609036 0.028673233 -0.023087407 0.18778118 0.10482424 -0.04339077 0.016861232 -0.22712678 -0.13088416 -0.081974335 0.08565813 0.15030535 0.088346526 -0.027219482 0.066861026 0.18476182 -0.0081966305 0.05592299 -0.14964378 0.02123607 -0.09353899 -0.06836392 0.044893436 -0.019990291 -0.1513921 -0.06735106 -0.021204505 -0.13987628 0.08146972 0.11831545 0.087098554 0.089382 -0.16260593 0.07770976 0.064839065 -0.0160444 -0.0627479 0.25400078 0.11128997 -0.013433194 -0.039669268 0.010929523 -0.08913401 0.112730816 -0.0054205027 -0.045494404 0.024830597 -0.14810146 0.008452013 0.017819587 -0.13121563 -0.025366835 0.065957956 -0.106214084 -0.116644904 0.11405454 -0.12348867 0.06951897 -0.07812809 -0.02303552 0.05859391 -0.035768457 0.072815314 -0.007772483 0.2054634 -0.11148692 0.21306847 -0.12922029 0.055462327 -0.004793763 -0.032213908 -0.009901311 0.15790671 -0.101869345 -0.11969377 -0.19180709
74 -0.076959774 -0.15203726 0.02872585 -0.21582004 0.009707305 0.053875588 0.013667326 0.06357345 0.034754574 -0.021238029 0.0011620435 0.15106702 0.054461654 -0.035106666 0.0040713004 -0.21854767 -0.12374911 -0.09351873 0.05468861 0.11152582 0.06389824 -0.029541295 0.082344286 0.14625858 -0.02794304 0.07404219 -0.1338597 0.03209113 -0.08302438 -0.10008406 0.00028037396 -0.036298536 -0.12589157 -0.07881455 -0.022308627 -0.13983235 0.062143225 0.062328037 0.0699739 0.056267284 -0.1634092 0.09005941 0.07421825 0.0015133087 -0.059376728 0.23289664 0.06969547 -0.038382646 -0.027424138 -0.013670476 -0.122190446 0.13921244 -0.0115717035 -0.01791225 0.01672048 -0.14143947 0.0023941826 0.051448796 -0.10606006 -0.030955134 0.026335511 -0.10129544 -0.12552096 0.09764016 -0.12561536 0.06127971 -0.060520485 -0.022433445 0.04469039 -0.042786743 0.06525874 0.0025216872 0.25804618 -0.13271311 0.23994331 -0.1458516 0.0814945 -0.02099724 -0.001597547 0.007519266 0.20419022 -0.1298765 -0.14677091 -0.2240433
33 -0.08047743 -0.17216294 0.032275286 -0.23033696 0.026584808 0.046281654 0.010174123 0.054721303 0.03730147 0.005279538 0.0097731305 0.17038701 0.05380886 -0.038937856 0.011134952 -0.21112414 -0.12461147 -0.064150475 0.056120686 0.10605487 0.10111525 -0.011054264 0.07115871 0.13798909 -0.026973888 0.052244145 -0.16538453 0.0314512 -0.06556595 -0.05570435 0.021172887 -0.02470193 -0.1468313 -0.04174192 -0.026878864 -0.1611553 0.0633687 0.11046924 0.07283433 0.10240348 -0.20328851 0.10972986 0.08511294 -0.028677786 -0.069281094 0.32331508 0.09013545 -0.04977572 -0.055431988 -0.007140731 -0.11912905 0.13884711 0.01189582 -0.031718265 0.00556209 -0.1343987 0.0106082605 0.04058461 -0.06901727 -0.026096916 0.05093644 -0.08366978 -0.14080882 0.09800112 -0.113466926 0.05380385 -0.04419239 -0.015857121 0.0820246 -0.024680194 0.07365561 -0.023142327 0.23772053 -0.10293634 0.21874179 -0.13962834 0.05907084 -0.0058866246 -0.010379409 -0.009904607 0.116606794 -0.10504989 -0.10633573 -0.20005463
40 -0.082131326 -0.1320726 0.021687541 -0.231219 0.02520226 0.03704245 0.035137523 0.09238905 0.07366803 0.016966565 0.005282951 0.179571 0.07992713 -0.041649338 0.0019225258 -0.2172914 -0.12816703 -0.077663064 0.050269023 0.10795606 0.07753418 -0.030666046 0.06613027 0.13806258 -0.00927069 0.047505267 -0.1348448 0.012153822 -0.07363768 -0.06193656 0.029104022 -0.026773792 -0.13478267 -0.043274485 -0.01905458 -0.12767641 0.039280474 0.12072579 0.076061085 0.085413106 -0.15498799 0.079926424 0.074578434 -0.026887413 -0.06619663 0.24637248 0.1220258 -0.025895042 -0.007211905 0.00026599257 -0.11443889 0.12754752 -0.008996857 -0.046697814 0.019519227 -0.14567395 0.034604322 0.0127755925 -0.10151368 -0.030150756 0.062277097 -0.054269396 -0.13905539 0.08995677 -0.1319121 0.067893974 -0.062829204 -0.017464496 0.06534987 -0.015610303 0.07018655 -0.014552748 0.238706 -0.1159045 0.21928635 -0.14950262 0.074500404 -0.0013098213 -0.014836896 -0.029413296 0.16189313 -0.085140444 -0.103008196 -0.19931714
61 -0.09529344 -0.14003594 0.034449868 -0.19962144 0.013106519 0.03029294 0.02370939 0.059503533 0.04718073 0.003989356 -0.009909498 0.15095331 0.08307809 -0.04325836 -0.006392043 -0.2105753 -0.12867124 -0.08567881 0.048374727 0.114096075 0.08049045 -0.043542493 0.08416273 0.1595738 -0.00858124 0.05549196 -0.15154956 0.025031663 -0.087751724 -0.08690767 0.008697481 -0.033238262 -0.1360496 -0.077746816 -0.028646275 -0.1478547 0.06556815 0.098841146 0.08422559 0.074585184 -0.16410144 0.069747865 0.08034447 -0.009683131 -0.07307507 0.23494013 0.091903135 -0.007683908 -0.012663418 -0.0070791203 -0.1135838 0.12903085 0.0038974409 -0.026175398 -0.004336384 -0.1414155 0.0044468464 0.025544578 -0.11111106 -0.026222298 0.05800972 -0.08774471 -0.1268331 0.11810462 -0.118685685 0.07002122 -0.06257153 -0.02241051 0.06142385 -0.030796563 0.03912333 0.0038313323 0.24444012 -0.11208326 0.23209429 -0.12685685 0.07433667 -0.013782588 -0.01807638 -0.013636332 0.20055741 -0.106871486 -0.12977271 -0.2207748
73 -0.09394548 -0.16399701 0.03294713 -0.25783396 7.763131e-05 0.053761568 0.026084049 0.06787779 0.054676723 -0.022338744 -0.0016167744 0.16921872 0.07341517 -0.023740644 -0.008428615 -0.21863762 -0.14374804 -0.09906354 0.04843487 0.12782584 0.06515471 -0.040039226 0.09555769 0.13621359 -0.027405914 0.06985875 -0.1532244 0.03782517 -0.089123756 -0.11145289 -0.0021774417 -0.036352273 -0.110663 -0.09377981 -0.038400512 -0.13868706 0.038511604 0.061049975 0.065268725 0.057784203 -0.14533241 0.059558224 0.07728868 -0.012455078 -0.07277378 0.20872137 0.08354533 -0.028932855 -0.007821924 -0.023361187 -0.13993461 0.12876062 0.0020876224 -0.02218105 -0.00889054 -0.1460563 -0.001637321 0.030588645 -0.08421268 -0.0046411767 0.016833829 -0.09746966 -0.101039864 0.083652675 -0.13548006 0.084628984 -0.03882593 -0.03205263 0.04261879 -0.036940347 0.06646405 0.017181758 0.2623034 -0.11083761 0.2468923 -0.15876214 0.06853346 -0.024273569 0.005618517 -0.0019906182 0.23061562 -0.13256487 -0.1341959 -0.23071903
36 -0.046325445 -0.11437347 0.03546765 -0.19995311 0.016198324 -0.0056749843 0.029215876 0.09282422 0.08899676 0.049867705 -0.009738127 0.14886546 0.061258152 -0.029730607 0.027154982 -0.16314256 -0.09908453 -0.07345993 0.0648745 0.0967408 0.070499636 -0.027523506 0.06669652 0.15139712 0.016634492 0.03784117 -0.12230589 0.0035223146 -0.09390155 -0.0541959 0.07159249 -0.025937421 -0.1364979 -0.061232787 -0.019722167 -0.13571358 0.06501675 0.14286444 0.080824114 0.09414764 -0.1646063 0.102079466 0.09748098 -0.014550636 -0.08715375 0.25735903 0.13494626 -0.010317873 -0.022377571 0.013727435 -0.09975645 0.13059717 0.011432678 -0.06413409 0.033276554 -0.15685311 0.04690862 0.019691205 -0.14446011 -0.023007708 0.06597545 -0.09573093 -0.13675058 0.11760782 -0.13647437 0.0681012 -0.05398348 -0.01527171 0.06351737 -0.013448902 0.06972475 -0.02898401 0.25050247 -0.123966165 0.22001688 -0.16732751 0.07927697 0.009773382 -0.02005425 -0.021239214 0.14896642 -0.10430757 -0.113815635 -0.18680155
78 -0.090662956 -0.14370406 0.036468778 -0.23877808 0.009214158 0.017097052 0.04349949 0.070156544 0.06631296 0.023796842 -0.017068753 0.18252367 0.11149442 -0.06967562 0.01852392 -0.25668183 -0.15421669 -0.12198937 0.070480704 0.15042645 0.09378903 -0.027693372 0.08202039 0.21220535 -0.001381947 0.06239122 -0.17943892 0.027020548 -0.1027064 -0.08971963 0.02978246 -0.036461696 -0.1345284 -0.08103546 -0.03642824 -0.1447498 0.04933977 0.1153242 0.083708815 0.074199095 -0.15119159 0.076352395 0.06375178 -0.01603709 -0.048292648 0.23395708 0.0942466 -0.008605167 -0.021307848 0.008587255 -0.09383189 0.12601015 -0.02694887 -0.05377197 0.008477079 -0.14859094 0.0266425 0.012921083 -0.09473868 -0.030663896 0.057806503 -0.07690749 -0.11162898 0.09839546 -0.12577082 0.06663836 -0.07596086 -0.004832561 0.05519437 -0.009067006 0.06489744 -0.0076969042 0.20884173 -0.09745145 0.18468694 -0.121503636 0.036395922 -0.017245447 -0.023594195 -0.017345443 0.15604843 -0.061603103 -0.08620186 -0.16576737
28 -0.09722314 -0.19812703 0.049380634 -0.2672814 0.031155495 0.05955335 0.011711002 0.06753128 0.0402785 0.007936117 -0.025992362 0.21937123 0.07906964 -0.058673184 -0.0015529179 -0.24729219 -0.15118773 -0.0933508 0.08924172 0.16366395 0.100960225 -0.004016424 0.088096604 0.13586095 -0.04223948 0.06953729 -0.17184815 0.03811566 -0.07630988 -0.048177425 0.01576663 -0.032928795 -0.107229166 -0.04333386 -0.040636316 -0.15250704 0.076025315 0.0909085 0.070898674 0.061392106 -0.1777334 0.08364676 0.08090799 0.0078123724 -0.07264053 0.23688996 0.046186525 -0.030129248 -0.058222454 -0.010503889 -0.12385114 0.11804792 0.016615175 -0.022142854 0.010819613 -0.15665302 -0.004853234 0.041912936 -0.103055194 -0.015904212 0.028972983 -0.08439893 -0.106126994 0.10852661 -0.11790553 0.07243131 -0.058277395 0.008760372 0.059394687 -0.06260173 0.045170117 -0.0036034235 0.20576343 -0.11783858 0.1989229 -0.11602807 0.058682844 0.013246191 -0.009610818 0.01405369 0.12874511 -0.15626927 -0.10402275 -0.20414965
34 -0.07274806 -0.12387248 0.027049843 -0.1724824 0.019297076 0.03524074 0.029571602 0.022720352 0.032389544 0.0028367152 -0.0004229244 0.18127109 0.07347295 -0.057988707 -0.006875571 -0.2429978 -0.13684109 -0.09522455 0.083402686 0.15231562 0.10650373 -0.021942543 0.084745936 0.16399075 -0.01088275 0.04586072 -0.19159341 0.017815316 -0.080110535 -0.03531402 0.026802821 -0.033801574 -0.12889205 -0.029151956 -0.027889246 -0.14723276 0.07070333 0.10815291 0.07290904 0.081694074 -0.18540587 0.08790126 0.06619068 -0.00023397664 -0.06425788 0.2590678 0.08448936 -0.041384473 -0.036575638 0.0017441394 -0.09769193 0.11249876 0.0025146285 -0.021645194 -0.0088066915 -0.16115303 0.02032506 0.03231935 -0.090280145 -0.019985272 0.04896122 -0.0672908 -0.1602587 0.12312006 -0.14666559 0.07179337 -0.06465575 -0.017860884 0.09119937 -0.027903927 0.053889416 -0.031584214 0.21867184 -0.08917236 0.21057697 -0.1321565 0.052545622 0.008252949 0.0083964225 -0.0030292582 0.14722304 -0.12606256 -0.10078131 -0.2256722
30 -0.074842975 -0.16904669 0.019079262 -0.22088833 0.003024148 0.06011224 0.024791282 0.06527877 0.04072539 -0.0031038197 -0.032303296 0.18438064 0.07060635 -0.04755494 0.0005555708 -0.2245558 -0.15233395 -0.08097689 0.066659056 0.14278723 0.091817886 -0.013565566 0.096271574 0.1335387 -0.045129817 0.0627855 -0.1425045 0.038736645 -0.087540396 -0.067646384 0.011439288 -0.038149532 -0.122261904 -0.068073675 -0.03646466 -0.14009242 0.070334256 0.085639164 0.07134277 0.052617192 -0.17217901 0.09220764 0.081605405 -0.0024070067 -0.07426195 0.2736932 0.07702156 -0.031326234 -0.03602695 -0.0136422515 -0.13447808 0.13884701 0.021071402 -0.04099386 0.019594897 -0.15868147 -0.00048634852 0.03863897 -0.103341155 -0.010631068 0.031494126 -0.09544365 -0.1149761 0.10398369 -0.113821216 0.07317587 -0.058226362 -0.0048276917 0.03983349 -0.045272548 0.06279198 0.0009945432 0.22185324 -0.100894675 0.20434913 -0.12669836 0.044245757 0.002062927 0.0036840138 0.02209918 0.15405063 -0.15860684 -0.12570092 -0.21163449
29 -0.047171574 -0.1031768 -0.003504104 -0.15248547 0.030400572 0.04516339 0.02132985 0.025336633 0.03954905 0.011422111 0.011641617 0.18160295 0.024624629 -0.041827362 0.0034084073 -0.16537447 -0.13816538 -0.08586001 0.04493572 0.099415004 0.077996634 -0.007565107 0.063464396 0.08968121 -0.02573765 0.04171086 -0.1510903 0.0028190773 -0.05593999 -0.011004399 0.03357855 -0.034088537 -0.09591655 -0.0334895 -0.02483626 -0.14128979 0.082292065 0.10059736 0.06775222 0.06860674 -0.17852336 0.10323745 0.05249601 -0.02054441 -0.075090036 0.26731148 0.07899031 -0.04437077 -0.047576766 -0.0028369115 -0.11643388 0.12865448 0.0038415736 -0.030459404 0.0016773482 -0.17213295 0.027742043 0.04056238 -0.08504164 -0.01444638 0.05229823 -0.09887103 -0.16827683 0.13340063 -0.15202917 0.0956979 -0.06829319 -0.017708775 0.10036991 -0.026953185 0.058815297 -0.0049276752 0.29532337 -0.13769613 0.3049949 -0.16326948 0.08423453 0.0045537786 -0.008301936 0.015158127 0.1595569 -0.12804289 -0.11643624 -0.24806121
79 -0.08866077 -0.11286045 0.04193283 -0.22340642 0.004027178 0.0053269304 0.04416469 0.06478201 0.068593435 0.029359987 0.008090496 0.1764858 0.1318195 -0.06585334 -0.01564653 -0.23400839 -0.13284382 -0.121772 0.07010229 0.14619765 0.095897466 -0.07034759 0.08041083 0.22530837 0.007490531 0.064053886 -0.17240997 0.020926982 -0.11076542 -0.1116228 0.0075128158 -0.029907724 -0.13600682 -0.08894268 -0.04766022 -0.15339376 0.049099635 0.13538888 0.09151216 0.06904589 -0.14755014 0.06363391 0.07795623 -0.0135612255 -0.053857252 0.1992999 0.11963484 0.0024336046 0.01398114 -0.009657666 -0.110166684 0.112349615 -0.03063102 -0.0333894 -0.023336867 -0.11538995 0.03821302 -0.005795539 -0.0988001 -0.032237068 0.06871511 -0.065046936 -0.12767537 0.08733214 -0.14435597 0.06371408 -0.0764228 -0.024602314 0.058996778 -0.01657409 0.048591536 -0.017179256 0.20990324 -0.09859571 0.19141243 -0.11956929 0.07798295 -0.014738929 -0.022178523 -0.051046167 0.19507167 -0.05866248 -0.07469988 -0.20022407
72 -0.10060153 -0.20298783 0.041491866 -0.27991727 0.024852842 0.054085687 0.009391582 0.063005395 0.057458155 -0.008541443 0.0036887573 0.19929178 0.054915056 -0.06323403 0.009575138 -0.21891168 -0.12516567 -0.07876843 0.06904 0.13333191 0.060782187 -0.023696102 0.08423205 0.107909046 -0.02560261 0.0741916 -0.1392844 0.04212035 -0.096623704 -0.11074509 -0.0013989422 -0.028539639 -0.13166077 -0.081382215 -0.017801179 -0.14616479 0.057885487 0.07404653 0.078386046 0.06743647 -0.15029891 0.11182404 0.08360959 -0.01989277 -0.08024559 0.21628863 0.06836149 -0.030169392 -0.037542272 -0.026710808 -0.1553485 0.15514374 0.015490871 -0.009531756 -0.023469705 -0.1518458 -0.003994314 0.054228015 -0.08931743 -0.017322868 -0.00097201613 -0.108067356 -0.12800322 0.09753937 -0.10764908 0.052491296 -0.038491987 -0.04924398 0.03791882 -0.0584309 0.04465127 0.0071050576 0.238879 -0.120789714 0.21166936 -0.131474 0.068100035 -0.016845819 0.0040037557 0.0035261018 0.18405938 -0.13791837 -0.1537606 -0.20864479
35 -0.08328268 -0.14799777 0.030217828 -0.21326107 0.009224293 0.039713193 0.02879081 0.0553744 0.04698499 0.02017347 -0.011218832 0.18622953 0.07021234 -0.038189482 0.00777427 -0.23312421 -0.12245166 -0.077715576 0.07589629 0.13230646 0.103143275 -0.019368647 0.0679108 0.16322437 -0.006261781 0.05557178 -0.16590151 0.026033869 -0.09175208 -0.05970159 0.0339983 -0.034143582 -0.13050164 -0.056952458 -0.022069955 -0.14550078 0.06989656 0.105312824 0.07809037 0.07645106 -0.18641485 0.0922959 0.09194013 -0.008667515 -0.06287601 0.25411463 0.091583356 -0.026502935 -0.045375563 -0.0047674677 -0.10513721 0.113815136 0.007763611 -0.03737909 0.017079636 -0.15160859 0.024421394 0.028195543 -0.09587826 -0.023348825 0.050558258 -0.08687765 -0.12283727 0.100579455 -0.14573672 0.06218435 -0.06450806 -0.002250199 0.07466197 -0.0296746 0.062934056 -0.024170661 0.23937115 -0.10930945 0.22261418 -0.15284978 0.06305574 0.008693664 -0.018779451 -0.009610105 0.14330807 -0.12804294 -0.11317826 -0.20979834
83 -0.07771163 -0.1209543 0.029974015 -0.19708064 0.019155072 0.04429012 0.031109836 0.068432756 0.0706906 0.023782613 0.0075339745 0.17550418 0.08008944 -0.043426543 0.0048826444 -0.2100962 -0.13554333 -0.091485545 0.05730837 0.11380011 0.08646045 -0.03496583 0.06857681 0.1749907 -0.0006037392 0.048485618 -0.1557002 0.017245257 -0.09525104 -0.08477812 0.023170164 -0.02402345 -0.1424199 -0.062008422 -0.029358976 -0.14213733 0.05454034 0.11646667 0.07838122 0.08894829 -0.15101704 0.07534248 0.07459055 -0.017649727 -0.06860129 0.24577843 0.12581752 -0.015505454 -0.014982194 0.0026557355 -0.09693183 0.1217879 -0.010417583 -0.0396537 0.002224148 -0.14657553 0.02596344 0.01631968 -0.12070443 -0.020089839 0.065263845 -0.07446026 -0.14084978 0.11279041 -0.12917489 0.06805236 -0.0546574 -0.016517505 0.06185009 -0.019809723 0.07246042 -0.009167159 0.23864348 -0.118667305 0.22609676 -0.149432 0.07260179 -0.006737004 -0.025488693 -0.023601264 0.16838229 -0.096438274 -0.1113421 -0.19528955
