84 84
43 -0.018657273 -0.22287089 -0.102690384 -0.20690826 0.0685225 -0.022954023 0.08580893 0.12070716 0.110711575 0.12096285 -0.11056101 0.1876479 0.07120374 -0.006700751 0.024131766 -0.1336317 -0.19069903 -0.047750127 -0.06024926 0.092405304 0.20576085 -0.07421761 0.16793875 0.101782225 0.12233547 0.07029438 -0.066731125 -0.054308537 -0.04751692 -0.018532362 -0.02400009 0.062145583 -0.06816088 -0.029519433 -0.010781127 -0.05610585 0.09159965 0.013961423 0.0065385466 0.036415618 -0.14405067 0.08427012 0.06515462 -0.0061767073 -0.015550241 0.24106495 0.09256587 0.013770439 0.0035795749 -0.056657735 -0.032974903 0.078828625 0.10049118 -0.09611134 -0.030505056 -0.13712816 0.06265599 -0.1118786 -0.18923761 -0.0348004 0.19449836 -0.11209964 -0.025536403 0.119881 -0.079208694 0.11334501 -0.06620623 0.044816144 0.04685411 0.105423726 0.07839951 0.016415466 0.22035152 -0.10822837 0.10069703 -0.1117081 0.106509686 0.00972892 -0.019309783 0.039858356 0.11651471 -0.107043184 -0.079361126 -0.20248993
18 -0.014713625 -0.16505845 -0.0793025 -0.14102104 0.0607613 -0.018531661 0.059336472 0.11259128 0.107720144 0.09666011 -0.08640515 0.13622095 0.0900374 -0.020227367 0.015578095 -0.11266466 -0.14712189 -0.031315327 -0.047951106 0.08333632 0.16146289 -0.06508667 0.1439418 0.08215313 0.1287731 0.07502635 -0.07158195 -0.04466221 -0.039618626 -0.014645733 -0.025683708 0.061634917 -0.084293224 -0.032831438 -0.030908214 -0.07089822 0.0987152 0.015973058 -0.011677133 0.038728602 -0.15439172 0.08273507 0.06704553 0.0041197473 -0.016735172 0.22313112 0.068826824 0.017340971 0.016951542 -0.060483314 -0.04370435 0.068727665 0.109238364 -0.083696924 -0.03739705 -0.13825792 0.05939911 -0.12314097 -0.17347227 -0.034171395 0.19698504 -0.116386116 -0.025119174 0.1145522 -0.05717342 0.13225085 -0.087262824 0.074111596 0.067190595 0.14062868 0.091422215 0.020108545 0.2741917 -0.14756177 0.1259452 -0.13364099 0.14215483 0.020979863 -0.025116768 0.07431024 0.13228843 -0.13524625 -0.10505556 -0.24088846
19 -0.013567815 -0.18996243 -0.06877614 -0.16568497 0.055650916 -0.0044056475 0.06503496 0.112446986 0.086538896 0.09372276 -0.07982937 0.14108083 0.070683874 -0.007443048 0.029794976 -0.11967028 -0.14973052 -0.03251575 -0.049083948 0.06375042 0.16746254 -0.060411204 0.14611822 0.09911003 0.10838528 0.049955424 -0.06317002 -0.055809747 -0.048506062 -0.027116776 -0.023118552 0.047774743 -0.07764693 -0.025158338 -0.011172584 -0.06630941 0.08654441 0.013656702 0.001025243 0.03263469 -0.17158903 0.08212347 0.06838442 0.0019193367 -0.0089984685 0.2393327 0.085504666 0.010290051 -0.005072756 -0.050224777 -0.03878139 0.08167756 0.09192648 -0.08750034 -0.035802785 -0.13367324 0.044164166 -0.1185915 -0.17350185 -0.024580905 0.21678682 -0.13197333 -0.029720552 0.116604045 -0.064526506 0.1344143 -0.090414405 0.057592757 0.06206684 0.13246314 0.08116226 0.008271869 0.26516852 -0.14878549 0.121683024 -0.13699488 0.14404875 0.015985178 -0.03588135 0.04517955 0.12488799 -0.12388051 -0.099877834 -0.21858074
8 -0.029922487 -0.13785924 -0.040705066 -0.13898557 0.046846744 -0.02514299 0.085011676 0.072764575 0.042688377 0.08591606 -0.058549322 0.107251555 0.05750052 -0.016892228 0.022066379 -0.10396699 -0.11091536 -0.04017834 -0.014885898 0.07865484 0.14102304 -0.049551994 0.10212181 0.04190694 0.085601225 0.053848945 -0.06729411 0.0068667494 -0.037947677 0.016419588 -0.015886543 0.05865055 -0.055763822 -0.01006021 -0.020058112 -0.076348454 0.10985132 0.01084583 0.005023523 0.020873766 -0.16510282 0.09029824 0.06472382 0.003544894 -0.009341944 0.24463083 0.06833162 0.01883723 -0.0006074944 -0.036841635 -0.06025268 0.08873665 0.13419245 -0.09336356 -0.053084604 -0.15048239 0.04497568 -0.12980035 -0.1770136 -0.060412306 0.20864093 -0.11759674 -0.030767348 0.12329375 -0.05995323 0.13545294 -0.106733054 0.062424157 0.06771796 0.1415745 0.10408027 0.0065217693 0.31717396 -0.1842692 0.17142276 -0.15817033 0.13519405 0.017268121 -0.026845943 0.078343645 0.15410823 -0.15819655 -0.12751162 -0.26443458
57 -0.0005170889 -0.27332655 -0.12928522 -0.25147027 0.06922563 -0.020226983 0.07001738 0.1462818 0.11383123 0.10711953 -0.10954615 0.17666689 0.08630392 -0.0009177266 0.021700365 -0.12816536 -0.1813567 -0.038502946 -0.055235416 0.07414548 0.19096673 -0.060206085 0.16647631 0.097214006 0.097823694 0.056343395 -0.0616232 -0.05797704 -0.03616225 -0.02577672 -0.025315985 0.04735357 -0.058811374 -0.034366395 -0.01933717 -0.049810447 0.080627054 0.011446938 -0.0039249044 0.03817397 -0.1291482 0.06482058 0.06706867 -0.0053724796 -0.0105928425 0.22709328 0.08352817 0.014456992 -0.0011614199 -0.047320675 -0.04218735 0.052352022 0.08674394 -0.09618561 -0.028355563 -0.13693208 0.055180978 -0.10667926 -0.18255776 -0.015496568 0.21129918 -0.11345057 -0.0198377 0.1130463 -0.06637407 0.13515538 -0.06551799 0.053119063 0.055194773 0.1061007 0.077711396 0.013272852 0.21802174 -0.12022026 0.10720194 -0.09495698 0.12757745 0.020335745 -0.019639377 0.03335741 0.11321817 -0.09221741 -0.07778463 -0.19035894
63 -0.0063771284 -0.19810095 -0.078900285 -0.16511594 0.05462498 -0.016555298 0.061934773 0.11496218 0.08975453 0.091959015 -0.0850443 0.13023151 0.085983716 -0.0031937337 0.025622385 -0.1247384 -0.15286317 -0.029536817 -0.05501954 0.074626535 0.16556273 -0.05344017 0.15100381 0.10649159 0.12026835 0.04838479 -0.0680638 -0.06600758 -0.050915156 -0.040895443 -0.010907901 0.05038782 -0.088056 -0.03669622 -0.02949167 -0.049558498 0.097540885 0.02005194 0.0019194749 0.036827445 -0.15518013 0.09168081 0.0926244 -0.004002443 -0.014241319 0.22370411 0.07326073 0.019414907 0.011909741 -0.05378687 -0.040005144 0.07012479 0.097969115 -0.09397132 -0.02730289 -0.13095878 0.07344186 -0.117927976 -0.18532673 -0.014598997 0.20187338 -0.12877755 -0.026430994 0.095797814 -0.07595344 0.14659737 -0.08812997 0.06524602 0.055353757 0.13423906 0.083173774 0.017021887 0.25358263 -0.1288699 0.12626603 -0.11766969 0.12086981 0.015004322 -0.03131239 0.04938435 0.13748714 -0.12795755 -0.09864017 -0.22270235
11 -0.006855721 -0.18011472 -0.081475385 -0.1569386 0.04365416 -0.030094583 0.045974232 0.10797095 0.092264734 0.06735517 -0.082959995 0.14738978 0.08338569 -0.011680991 0.026754389 -0.109936066 -0.1740258 -0.03354391 -0.034258544 0.08277615 0.18865286 -0.058175854 0.15577868 0.08229494 0.10278958 0.051886313 -0.06639238 -0.060098715 -0.044011943 -0.03364911 -0.020554619 0.04745539 -0.07474753 -0.042477015 -0.01974819 -0.049863126 0.10162303 0.0023126586 -0.0061346744 0.039667167 -0.13208899 0.07562673 0.0734646 0.0058747167 -0.01985016 0.23401266 0.07366138 0.015057996 -0.0076068225 -0.057531107 -0.0290423 0.05641403 0.10897074 -0.09749313 -0.03198465 -0.13537902 0.062985845 -0.1059994 -0.19153407 -0.030848637 0.22479834 -0.123418316 -0.014067674 0.1275211 -0.074776396 0.1455604 -0.08186097 0.062065326 0.07156508 0.117029965 0.09991022 0.008941919 0.24891812 -0.15139183 0.12714878 -0.10646432 0.14713353 0.020560551 -0.016083667 0.047538504 0.13034709 -0.11862756 -0.11265805 -0.22255939
42 -0.0007532568 -0.19795613 -0.085242644 -0.1882751 0.051871102 -0.03392063 0.072324716 0.13117371 0.095561355 0.09102967 -0.08407316 0.14138508 0.077580824 0.001126304 0.018043771 -0.0880657 -0.1461861 -0.027814643 -0.029181432 0.06371028 0.18018125 -0.05805023 0.14197254 0.08268052 0.12214304 0.047810417 -0.07519198 -0.04906067 -0.05151188 -0.01534566 -0.0241173 0.035830148 -0.072626084 -0.05047077 -0.030592619 -0.063942455 0.111104086 0.009704206 -0.019274129 0.010872414 -0.14774549 0.075508974 0.072281815 0.002144834 -0.0046557398 0.24181616 0.08056459 0.027644992 0.004420031 -0.056582656 -0.037584316 0.05188861 0.110919036 -0.09824177 -0.02657889 -0.13877147 0.06482122 -0.11735852 -0.18075895 -0.03773707 0.20680386 -0.1109696 -0.005058672 0.10991262 -0.06206767 0.14884949 -0.08978586 0.06793935 0.05924329 0.117713615 0.08514421 0.008971192 0.26796427 -0.14845979 0.13006395 -0.116487175 0.13679624 0.025944436 -0.029980449 0.067133404 0.11284637 -0.11382021 -0.10535773 -0.19709957
1 -0.020230966 -0.19502951 -0.09004775 -0.1858305 0.061315194 -0.025180858 0.06635934 0.10747608 0.08737243 0.08728635 -0.07768436 0.12830451 0.059060615 -0.019765737 0.0066920347 -0.11085942 -0.13654035 -0.041299723 -0.04526377 0.07933042 0.17037223 -0.05133411 0.13674577 0.079983726 0.11805759 0.05106493 -0.07434318 -0.039629404 -0.035522193 -0.011868681 -0.028094972 0.053554777 -0.06197254 -0.025390022 -0.030531295 -0.06551715 0.09142976 0.010119831 0.0038244026 0.031419326 -0.14629933 0.06981138 0.075239286 0.009337575 -0.0076775206 0.22203831 0.06861293 0.010519133 0.004057306 -0.044855487 -0.042228688 0.06636252 0.10176756 -0.0787223 -0.038367417 -0.13220026 0.052213605 -0.10925032 -0.17550214 -0.030658431 0.22443332 -0.12530749 -0.027645396 0.11718647 -0.06715191 0.15867521 -0.09078151 0.070007734 0.071820445 0.13181035 0.09578073 0.0059448006 0.2753852 -0.15126194 0.1263882 -0.1292894 0.14232513 0.018668132 -0.033787854 0.04233653 0.1339407 -0.13428795 -0.102288276 -0.25816542
81 -0.00892836 -0.22723638 -0.09297475 -0.19749233 0.06269969 -0.038734335 0.08840546 0.15704197 0.11188427 0.103133895 -0.09361 0.16068043 0.096265204 -0.0041725435 0.033263303 -0.115777396 -0.16151494 -0.032429073 -0.051435146 0.06889376 0.17161112 -0.0655448 0.13863353 0.079072274 0.11885403 0.04618458 -0.058589727 -0.07585699 -0.04730919 -0.03767525 -0.024946945 0.04580174 -0.07666521 -0.02681471 -0.01470486 -0.051002897 0.077562995 0.0060176277 0.0051900563 0.027465586 -0.15473172 0.07417156 0.06489231 -0.0019197381 -0.03018739 0.19311966 0.060334206 0.033554003 0.014901271 -0.047190852 -0.030318005 0.060605448 0.104408115 -0.08799059 -0.03341345 -0.11514905 0.056772567 -0.1233977 -0.17336006 -0.031140577 0.20885266 -0.11785869 -0.014423056 0.11069004 -0.07512773 0.12591673 -0.081178136 0.040122796 0.06004598 0.119641565 0.08533978 0.009146388 0.2702921 -0.15330026 0.1410052 -0.11782913 0.13150746 0.002785203 -0.013019145 0.04430148 0.14258109 -0.12924398 -0.101327725 -0.21700464
76 -0.02445018 -0.22311597 -0.109106526 -0.19852926 0.07036744 -0.030053383 0.07034992 0.13307862 0.106660716 0.107153416 -0.096680015 0.18892239 0.07870582 -0.001371329 0.024125077 -0.12586567 -0.18226567 -0.03845648 -0.040352147 0.08764699 0.18021785 -0.066634305 0.1596334 0.08887392 0.11691593 0.060063653 -0.082450196 -0.06577039 -0.043747723 -0.025226993 -0.0056046434 0.053279784 -0.06379271 -0.017001035 -0.010280776 -0.040321957 0.07188341 0.007349072 0.002333032 0.042980794 -0.14272754 0.07510069 0.06998615 -0.001907007 -0.023365999 0.2113622 0.07168591 0.02367494 0.011536552 -0.066975564 -0.030053081 0.041467756 0.10457742 -0.092322744 -0.031960107 -0.12650487 0.07680941 -0.10507669 -0.1822003 -0.019617563 0.20121323 -0.100510485 -0.029720813 0.10434508 -0.07034921 0.13828354 -0.07271988 0.047757562 0.054893762 0.11329522 0.089956574 0.012181192 0.24976076 -0.13504174 0.13086951 -0.093316466 0.12618166 0.0067392867 -0.018245228 0.0469357 0.12510297 -0.10793561 -0.0967663 -0.20422101
15 -0.019894093 -0.17145635 -0.066746496 -0.16346635 0.04431186 -0.020904832 0.06303203 0.0991308 0.08305115 0.08082264 -0.059328336 0.1185368 0.07613091 -0.024716208 0.01934934 -0.1025155 -0.16421644 -0.046311717 -0.044206344 0.07198614 0.18225725 -0.05909819 0.15103646 0.097649954 0.10894192 0.046644542 -0.06617218 -0.049186364 -0.039627545 -0.014610287 -0.04431788 0.056447774 -0.06079705 -0.039420392 -0.021942424 -0.07962909 0.10554006 0.001899985 -0.006598717 0.023449216 -0.15308143 0.07430633 0.05033804 0.009720323 0.00070821535 0.24636927 0.063054934 0.018942825 -0.0076158363 -0.048056867 -0.043056138 0.07147459 0.10910655 -0.09434349 -0.04447493 -0.1449356 0.042590495 -0.1328979 -0.18082638 -0.03428004 0.23762585 -0.12539351 -0.024337675 0.12212866 -0.05583996 0.1347778 -0.089616336 0.0672139 0.06874476 0.13947703 0.08323848 -0.011997452 0.28277922 -0.16541822 0.108898886 -0.14191477 0.14669816 0.025956018 -0.039749734 0.035477832 0.11402956 -0.118631475 -0.09305429 -0.2254345
82 0.0020150673 -0.20711991 -0.08983318 -0.17063516 0.056993842 -0.020231856 0.074233286 0.12258755 0.09614316 0.095465 -0.09309857 0.14863256 0.07809853 0.00653282 0.02352853 -0.110389836 -0.15810436 -0.014314713 -0.05043691 0.073867045 0.1791185 -0.06707361 0.15664084 0.097983725 0.11745163 0.04508332 -0.06906712 -0.067388535 -0.04742071 -0.046933573 -0.010011488 0.045238048 -0.09851417 -0.034586508 -0.035994638 -0.037205976 0.09522703 0.018578574 -0.009319713 0.023947189 -0.14994667 0.09712755 0.09538504 -0.012945533 -0.017917523 0.22267398 0.08561293 0.032146353 0.026093954 -0.065139234 -0.024019925 0.07008978 0.09673826 -0.10898177 -0.02645557 -0.13976052 0.10208666 -0.12374715 -0.20581122 -0.015284155 0.20168355 -0.11933218 -0.016763138 0.108143665 -0.06764605 0.1346983 -0.080318056 0.059788805 0.04544403 0.10759574 0.08939019 0.00789638 0.259565 -0.12966788 0.11636173 -0.10895528 0.12445249 0.005599934 -0.010810754 0.06732293 0.14072092 -0.12395104 -0.110976584 -0.20962788
54 -0.017991483 -0.21407087 -0.07974817 -0.15020183 0.04890724 -0.03459261 0.06543159 0.10879299 0.09971121 0.08558749 -0.0998851 0.14406726 0.07411396 -0.008897027 0.009558822 -0.10541211 -0.1767492 -0.04113616 -0.044538833 0.06381187 0.17200428 -0.060745213 0.15903969 0.09664808 0.1063999 0.05229426 -0.05709539 -0.068473265 -0.037783448 -0.03692068 -0.03947684 0.049644515 -0.08237059 -0.0446639 -0.027047362 -0.058467682 0.10042621 0.012009677 -0.0034080318 0.02084548 -0.14546095 0.07645668 0.08103415 0.015891071 -0.008708117 0.25143564 0.07947841 0.014444799 0.00548456 -0.060490612 -0.04227305 0.054991197 0.09735702 -0.093888275 -0.040759314 -0.1341297 0.06209754 -0.10253708 -0.18806125 -0.013245199 0.1967256 -0.12519054 -0.012528496 0.10524057 -0.08052124 0.11812266 -0.093457475 0.06447386 0.07283768 0.12841547 0.09183745 0.014844731 0.26230124 -0.13688375 0.11759869 -0.10926466 0.16091889 0.017407794 -0.019750888 0.052063346 0.12151625 -0.1271141 -0.088775516 -0.2372092
12 -0.0062938705 -0.2099237 -0.07690859 -0.19755165 0.057005346 -0.030374888 0.061679836 0.10890979 0.08631237 0.1048723 -0.091008574 0.1763064 0.06657319 0.003665908 0.024204213 -0.11490156 -0.18027306 -0.041992217 -0.033783097 0.0774271 0.16832837 -0.043430757 0.1340002 0.07380493 0.09006084 0.051191714 -0.05935762 -0.043215454 -0.036199357 -0.02414644 -0.018569479 0.047911927 -0.07192846 -0.02616659 -0.020305596 -0.04633722 0.09710375 0.0056184875 0.0065217465 0.04338684 -0.15351307 0.08224582 0.081555404 0.007678732 -0.009138186 0.24254566 0.06868503 0.009300772 -0.014382159 -0.05652211 -0.041982733 0.06589081 0.10635892 -0.09585436 -0.020716265 -0.14313795 0.058615826 -0.11178745 -0.19685262 -0.030842034 0.23477954 -0.11886206 -0.022867342 0.11830441 -0.07773902 0.14549768 -0.08202303 0.05778882 0.07700664 0.1296434 0.10145174 0.0054453667 0.24932946 -0.14097336 0.112197176 -0.11223901 0.14142853 0.026282242 -0.018973578 0.053394157 0.122345105 -0.10644182 -0.105018325 -0.21024726
52 -0.018951967 -0.22330873 -0.091520324 -0.20331112 0.048148047 -0.033877667 0.064127624 0.123632096 0.103900254 0.087929636 -0.0949687 0.1705935 0.09578701 0.009691655 0.0056949505 -0.14088103 -0.21388018 -0.041707132 -0.048872318 0.10551509 0.20299241 -0.06451386 0.15151964 0.09592674 0.104101844 0.0584703 -0.070441894 -0.064377956 -0.04443202 -0.037851017 -0.019974796 0.054008998 -0.05976088 -0.030013772 -0.025633682 -0.042286865 0.08707919 0.01252702 -0.003022036 0.02918258 -0.14794886 0.08222458 0.07659222 0.009427059 -0.008302317 0.22116335 0.06897685 0.029693635 -0.007277872 -0.070298985 -0.030442074 0.046377808 0.103452705 -0.1010466 -0.013319646 -0.13838607 0.07970439 -0.11220865 -0.19496375 -0.031986065 0.20923434 -0.09638372 -0.027170109 0.09106231 -0.08300577 0.14930667 -0.07657465 0.07626282 0.047447 0.11475857 0.07067396 -0.006323534 0.2278119 -0.1160742 0.09776796 -0.09743633 0.108659685 0.01671964 -0.012717224 0.03827183 0.13099897 -0.13391027 -0.083830275 -0.21789937
0 0.0017441809 -0.18058057 -0.085314624 -0.16344817 0.021819338 -0.017820666 0.0486268 0.10733903 0.10389969 0.0819798 -0.07934397 0.12601039 0.08303505 -0.012720161 0.018211573 -0.11064938 -0.16484374 -0.03810396 -0.06495092 0.06739932 0.17137273 -0.07459043 0.1561776 0.0910247 0.121303126 0.04419319 -0.057798386 -0.06822738 -0.041117907 -0.027836733 -0.037330646 0.050768282 -0.084729806 -0.057255715 -0.008587565 -0.066062085 0.108347 0.0021027583 -0.0031693282 0.020673748 -0.16820437 0.076262884 0.075055666 0.01345241 -0.0077954098 0.24817337 0.062626034 0.01864639 0.0066128494 -0.05233836 -0.04124181 0.055058625 0.110827036 -0.10173008 -0.043102358 -0.120989725 0.060111996 -0.11372677 -0.18022433 -0.021326005 0.21883798 -0.122238934 -0.018219888 0.103876404 -0.07230831 0.13492085 -0.06958246 0.05950605 0.047755748 0.13670118 0.068537675 0.012374611 0.27695304 -0.130786 0.1137089 -0.13033864 0.13780752 0.030016849 -0.01945663 0.036742322 0.13283221 -0.13632877 -0.09369351 -0.22237562
44 -0.014267389 -0.19763014 -0.09433475 -0.17416736 0.062838785 -0.036325864 0.061792087 0.13132882 0.10993771 0.101941675 -0.08650313 0.1591617 0.081877016 -0.015478511 0.0129256025 -0.10711584 -0.16468759 -0.04436672 -0.041341837 0.089691766 0.16640925 -0.05327941 0.1343011 0.092509955 0.11481149 0.057851285 -0.055176087 -0.05302757 -0.039542295 -0.024793502 -0.021497037 0.043655545 -0.07525907 -0.04264676 -0.030429952 -0.064272195 0.10421145 0.019624123 -0.004450896 0.025272334 -0.15945844 0.090929165 0.07015146 0.012707572 -0.012848338 0.21735819 0.06260957 0.027224004 -0.0026009176 -0.06580644 -0.03779616 0.060223795 0.10698699 -0.09630898 -0.018983794 -0.14315885 0.07522092 -0.12581849 -0.19366942 -0.031895474 0.2091658 -0.13019246 -0.026457183 0.103065826 -0.0648365 0.13538608 -0.09580568 0.07554447 0.05718578 0.13516863 0.08028403 0.0043402 0.25700125 -0.14675735 0.109591804 -0.11020128 0.12861104 0.01982309 -0.029141864 0.059351727 0.113820724 -0.13108705 -0.091030166 -0.21652353
38 -0.009650301 -0.23164275 -0.09572061 -0.185516 0.05398607 -0.02441042 0.06440468 0.12711732 0.10251158 0.08563811 -0.09556287 0.15611881 0.08604483 -0.0051240567 0.012366707 -0.10393275 -0.15647002 -0.022164222 -0.038491268 0.07682869 0.17600131 -0.05870124 0.15498494 0.08770029 0.104629256 0.057701565 -0.05629716 -0.062084854 -0.055856857 -0.031213224 -0.02382783 0.039077546 -0.077851765 -0.04960782 -0.02192628 -0.0546974 0.09658573 0.009690501 -0.014982822 0.019535454 -0.14391305 0.07118746 0.075192474 0.004135324 -0.01658636 0.21758689 0.089654155 0.020744953 0.0015869976 -0.06450671 -0.03520228 0.059506018 0.09761345 -0.10355734 -0.02784851 -0.15266731 0.07132478 -0.11087167 -0.1993489 -0.024461184 0.20494406 -0.12835748 -0.014810315 0.11374484 -0.07665927 0.1403227 -0.07342391 0.071470656 0.047445793 0.11914085 0.078118734 0.015545136 0.24089187 -0.13075037 0.1098976 -0.11007856 0.13679007 0.022634603 -0.02113132 0.058838267 0.1264635 -0.1314487 -0.09475541 -0.20734245
32 -0.01756189 -0.18561621 -0.06766541 -0.1543602 0.05779143 -0.027826771 0.08693495 0.11642148 0.07444393 0.09513323 -0.08040974 0.1296035 0.068860866 -0.003897358 0.022164112 -0.10547214 -0.1298108 -0.02585545 -0.046801023 0.07623778 0.17397702 -0.058911536 0.14457251 0.10008296 0.11949007 0.039926197 -0.074755415 -0.04686226 -0.051060546 -0.031083005 -0.014541317 0.05127677 -0.07895244 -0.02495597 -0.03710344 -0.056831867 0.10658345 0.021525402 -0.0029715896 0.013516571 -0.16096114 0.10394408 0.08429406 -0.006364599 -0.017112229 0.24046907 0.08330964 0.031135287 0.014566725 -0.058622472 -0.037164472 0.08176099 0.111100145 -0.10271517 -0.04903665 -0.14181243 0.07471669 -0.12080252 -0.19133762 -0.022556525 0.19958006 -0.11868145 -0.027352152 0.112734325 -0.07140445 0.13274243 -0.101854675 0.0656725 0.05237258 0.12404862 0.08320568 0.011693023 0.27527636 -0.14391233 0.13381647 -0.120943144 0.13335955 0.0075039123 -0.028604839 0.063184634 0.12760243 -0.13198194 -0.10401855 -0.21374273
64 -0.017805403 -0.23662712 -0.107173234 -0.21209364 0.0629606 -0.027153078 0.08528801 0.13798395 0.10469084 0.08992507 -0.097793564 0.17466803 0.08667551 -0.01608344 0.021077994 -0.11314884 -0.17134014 -0.031023389 -0.031047732 0.08406101 0.19574253 -0.059410468 0.1588774 0.07922678 0.09049417 0.046926863 -0.061560687 -0.05126823 -0.046380732 -0.017829759 -0.01516688 0.044051915 -0.056828607 -0.035012532 -0.019165553 -0.05061351 0.079659864 -0.00017964936 -0.012765837 0.024545904 -0.1261111 0.06935599 0.055458784 -0.006580203 -0.013857841 0.22196732 0.080276914 0.012130392 -0.009466267 -0.048070513 -0.03940282 0.054559633 0.111151084 -0.09869669 -0.029298294 -0.14884286 0.05193004 -0.116751194 -0.18134078 -0.038712617 0.21852072 -0.117600314 -0.025345208 0.11769963 -0.0553878 0.13196453 -0.070768826 0.05022952 0.06492187 0.11374729 0.09463818 0.009776005 0.2403775 -0.14460745 0.120616004 -0.109903604 0.1223157 0.023450283 -0.008830626 0.0456038 0.10941342 -0.10222156 -0.09623922 -0.18843648
9 -0.031652067 -0.16399382 -0.08192261 -0.14599642 0.06275736 -0.014150632 0.07500993 0.106864996 0.08208389 0.09688145 -0.08549833 0.1320892 0.052872397 -0.0149813825 0.008394502 -0.107160784 -0.12348376 -0.038955916 -0.046997756 0.08079052 0.15231511 -0.043869857 0.13501996 0.063364126 0.103963695 0.06383428 -0.08217557 -0.026790226 -0.042465802 0.0034532081 -0.017510723 0.066648155 -0.06303118 -0.016637519 -0.031779286 -0.06775128 0.103336975 0.030757947 -0.006742659 0.03886517 -0.16444623 0.076575235 0.07645822 0.014027633 -0.01367065 0.2154967 0.06866631 0.013026079 -0.0043515223 -0.046661455 -0.05312815 0.079107784 0.09945939 -0.08070704 -0.040056612 -0.14764303 0.031394638 -0.11255809 -0.1596684 -0.038542017 0.21408129 -0.12032406 -0.028256433 0.1214435 -0.05696827 0.13434681 -0.10102805 0.08365224 0.07490035 0.13216752 0.09622118 0.022261592 0.27965176 -0.16089521 0.13554437 -0.13550083 0.15905148 0.02959922 -0.041472264 0.07200478 0.14632903 -0.14440411 -0.106219664 -0.26838383
37 -0.020825164 -0.18785216 -0.073785536 -0.15382566 0.060242906 -0.027264474 0.07230589 0.12565985 0.10308987 0.10291425 -0.09143812 0.16471969 0.09231995 -0.01330548 0.026498832 -0.12366496 -0.18326734 -0.0364407 -0.049524195 0.09512223 0.17031935 -0.07015374 0.16235411 0.09729526 0.11592 0.05926708 -0.0716294 -0.05566586 -0.04505187 -0.022383278 -0.009348574 0.06675183 -0.082667336 -0.033331957 -0.016743258 -0.060324892 0.11157548 0.013985613 -0.009609627 0.035290584 -0.16441436 0.10044102 0.08460384 0.0021250471 -0.025281688 0.22414365 0.06635923 0.034058925 0.0084743695 -0.06347424 -0.041793447 0.07400263 0.10939206 -0.0941634 -0.031174779 -0.13277401 0.07304455 -0.11301001 -0.1826807 -0.024605334 0.1858916 -0.11306396 -0.026488494 0.10839703 -0.070437826 0.117014155 -0.078072965 0.06328138 0.054617815 0.13324238 0.08274482 0.008640936 0.26010314 -0.1281784 0.116323754 -0.11807869 0.117028154 0.01918281 -0.027449956 0.059975527 0.11922318 -0.113546364 -0.09499285 -0.18822074
3 -0.019232903 -0.23420395 -0.06976278 -0.18696068 0.036680754 -0.034685597 0.0652873 0.09802174 0.09131832 0.08446452 -0.08320191 0.13277715 0.07966449 -0.020944705 0.0076104864 -0.11268157 -0.16038197 -0.0428158 -0.04167689 0.07357567 0.17922048 -0.06275111 0.14462793 0.09117492 0.12031612 0.047130898 -0.062366154 -0.059839595 -0.037171345 -0.026142381 -0.039241474 0.05335351 -0.09849723 -0.04899236 -0.038175702 -0.0739993 0.11420351 0.013190689 0.004988444 0.030967489 -0.15542232 0.07622051 0.091206916 0.022020092 -0.020152505 0.24732058 0.06828399 0.0012781462 -0.011472908 -0.05302448 -0.029114092 0.06546064 0.098431565 -0.08447289 -0.04242228 -0.13977301 0.053242676 -0.106297694 -0.19572233 -0.033920657 0.21268387 -0.11803642 -0.013340184 0.12396835 -0.06983 0.110734135 -0.08128474 0.05946388 0.07097012 0.11529367 0.09066268 0.014086954 0.24999253 -0.123527884 0.10967954 -0.12826194 0.13838792 0.01756936 -0.013879701 0.051765807 0.121196255 -0.1213468 -0.0901256 -0.22229764
22 0.0023318902 -0.18845063 -0.08206974 -0.18303752 0.03972495 -0.03463843 0.056372702 0.09313443 0.0916519 0.0881981 -0.08786479 0.15013573 0.06355681 -0.0010576479 0.0106369015 -0.09668206 -0.18308012 -0.044180583 -0.046720836 0.085669994 0.18855725 -0.059998393 0.13878955 0.08184755 0.108184256 0.064637035 -0.06380874 -0.054515067 -0.034057435 -0.017219843 -0.033548452 0.03934157 -0.062281493 -0.032573707 -0.03791401 -0.060098022 0.088964224 0.0038195855 -0.0064160847 0.023309657 -0.1511473 0.07552498 0.07677189 0.012825354 -0.004195406 0.25006402 0.07244346 0.019978438 -0.00038819 -0.06772053 -0.034784853 0.061257478 0.103840925 -0.08612699 -0.024612572 -0.12461377 0.05852474 -0.10214426 -0.18441689 -0.03731943 0.20591077 -0.10575647 -0.012259878 0.1129631 -0.07577176 0.1419519 -0.0912237 0.06258134 0.07236436 0.116413906 0.08709524 0.0012931897 0.26621675 -0.13037136 0.110895835 -0.11594517 0.13749658 0.012772907 -0.010368422 0.05284681 0.12694931 -0.12781258 -0.08759469 -0.24069148
46 -0.015165596 -0.17275773 -0.0799775 -0.15498607 0.062477518 -0.006344855 0.07972826 0.11057209 0.0704654 0.09167997 -0.06842852 0.12434873 0.059165765 0.0008552288 0.025397118 -0.112541735 -0.16322103 -0.03169905 -0.06681844 0.079782404 0.19070436 -0.06625969 0.18450361 0.121533826 0.12727056 0.045931365 -0.07785342 -0.05953364 -0.045308325 -0.024856051 -0.029560488 0.051599745 -0.062604524 -0.013628285 -0.02224572 -0.0656996 0.09892498 0.004286002 -0.0063247345 0.030147778 -0.1593214 0.089808114 0.080265015 -0.009351699 -0.004519503 0.2548555 0.08433395 0.0249275 0.008447729 -0.05263756 -0.045475427 0.07881867 0.112228714 -0.101561636 -0.05481287 -0.12328798 0.061193615 -0.13252719 -0.19537997 -0.02025608 0.21572256 -0.1407192 -0.030476889 0.10674085 -0.05144187 0.12885159 -0.09201514 0.04224517 0.06567218 0.12468727 0.06866303 -0.008088124 0.2594872 -0.14479022 0.12552454 -0.11411754 0.12607543 0.0051514814 -0.0406232 0.032089293 0.12459256 -0.111238725 -0.09466064 -0.21604933
31 -0.003752387 -0.15840824 -0.06953429 -0.1400707 0.03750807 -0.014535505 0.066832446 0.08713907 0.06605366 0.074909404 -0.06825121 0.10862781 0.06790265 -0.008481792 0.022731712 -0.09556494 -0.12585504 -0.019742718 -0.049433008 0.061535634 0.15485829 -0.057526983 0.14577278 0.093960255 0.10791132 0.043548692 -0.06785739 -0.043853097 -0.04255341 -0.02976566 -0.030684952 0.05499485 -0.086622424 -0.021641156 -0.02746221 -0.059877377 0.09679853 0.0025387239 -0.016215112 0.0057196966 -0.16303395 0.084587775 0.08895714 -0.0070507242 -0.0076478356 0.24132495 0.078674406 0.018765833 0.026911756 -0.044619024 -0.05013932 0.08908833 0.10180357 -0.11098959 -0.04534065 -0.13553123 0.06915339 -0.11969393 -0.18913175 -0.027583843 0.21048367 -0.13320659 -0.029541519 0.104039535 -0.06156794 0.13673443 -0.10892866 0.0502263 0.04875855 0.13041374 0.0891729 -0.0010762053 0.29729912 -0.15639825 0.14609468 -0.1366512 0.13520087 0.005551081 -0.022825677 0.05629156 0.14278163 -0.13044648 -0.11011075 -0.22357005
2 -0.010917282 -0.16334717 -0.055699896 -0.1377715 0.045021333 -0.02460227 0.07395175 0.10279109 0.085335866 0.09329414 -0.079310276 0.13393007 0.07416703 -0.012643498 0.02450183 -0.12290261 -0.14981829 -0.03777065 -0.04960429 0.07555896 0.18942025 -0.064552926 0.16593258 0.11527991 0.1244377 0.039960425 -0.07771653 -0.0507665 -0.05166471 -0.02092265 -0.020366121 0.04466842 -0.090159185 -0.029346282 -0.03439617 -0.06772445 0.10790527 0.016327592 -0.0022246544 0.009197752 -0.16499549 0.11165629 0.09872047 0.0017414336 -0.0067103547 0.2541 0.08110254 0.023249082 0.0167736 -0.052031122 -0.03806503 0.07705311 0.104991056 -0.09046075 -0.054150067 -0.12529181 0.07339262 -0.1071988 -0.1797142 -0.020331746 0.20041323 -0.11243942 -0.023916218 0.10850092 -0.068465576 0.13705476 -0.103112474 0.06126657 0.05171355 0.12849498 0.080447555 0.005588002 0.28432128 -0.13867405 0.12985876 -0.12423024 0.13420795 0.010114871 -0.032700006 0.058272704 0.12415992 -0.13436055 -0.11102039 -0.22558264
69 -0.0016445649 -0.23962606 -0.09111224 -0.18612804 0.056116782 -0.032460436 0.07205515 0.12368557 0.09587068 0.09638639 -0.09564474 0.16081922 0.08389164 -0.0018667984 0.021805275 -0.10877011 -0.17347036 -0.027778735 -0.03829996 0.080316216 0.18175709 -0.05669789 0.16094351 0.09717047 0.105297156 0.05076159 -0.06561569 -0.072731346 -0.046650946 -0.031991843 -0.014329058 0.051888764 -0.096564725 -0.03437137 -0.022170927 -0.05139096 0.09516535 0.0205377 -0.006860408 0.039779384 -0.13706398 0.093883246 0.08455372 -0.0050263098 -0.025568634 0.23912293 0.080831446 0.022361808 0.014351855 -0.072964385 -0.033528786 0.066386566 0.10261101 -0.10028637 -0.03476843 -0.13746664 0.08726076 -0.11985809 -0.20829023 -0.02306352 0.21196473 -0.11571978 -0.01972048 0.11571924 -0.07572429 0.12832527 -0.08645526 0.052867997 0.066314116 0.117798075 0.094432876 0.017794505 0.24461913 -0.131838 0.11993852 -0.10469044 0.12942415 0.000982852 -0.013906927 0.05447337 0.12261603 -0.1016348 -0.09380097 -0.18656684
75 -0.009587636 -0.16345479 -0.098372065 -0.1552733 0.049623184 -0.02239581 0.058591623 0.10869885 0.0955729 0.08173769 -0.08372648 0.14863648 0.08341544 -0.013725878 0.015385126 -0.1231054 -0.1557781 -0.040822405 -0.036714043 0.10389156 0.17936805 -0.05128903 0.12935108 0.059034023 0.094030894 0.052332126 -0.07142313 -0.038657952 -0.043013178 -0.008994854 -0.009878474 0.052397028 -0.056143716 -0.03027597 -0.012443175 -0.050617203 0.10418594 0.017054955 -0.013353043 0.025877977 -0.13676646 0.06795005 0.066071056 -0.0028376654 -0.00440948 0.20348464 0.0710121 0.019722398 -0.0027878173 -0.050446127 -0.053613916 0.057398383 0.115926035 -0.107139714 -0.021129884 -0.14363062 0.0662565 -0.121059425 -0.16635026 -0.05158012 0.23649912 -0.13442257 -0.02066866 0.10606647 -0.08303113 0.16479571 -0.0802474 0.07753373 0.053011544 0.13269673 0.08076951 0.0112071335 0.2594646 -0.15950468 0.13639478 -0.12075171 0.124050446 0.040054727 -0.030556422 0.04456957 0.15868509 -0.15932173 -0.11469557 -0.26505715
51 -0.0031167907 -0.22556956 -0.10423841 -0.20428722 0.06536327 -0.025796825 0.062486973 0.13497214 0.11455613 0.109523274 -0.09619118 0.16716845 0.08464582 -0.007208633 0.03027326 -0.12366637 -0.20244184 -0.042150926 -0.06707902 0.076355316 0.18763313 -0.06337001 0.17121306 0.107832626 0.13764201 0.06677099 -0.06893987 -0.07652124 -0.03418692 -0.028436646 -0.024466228 0.052218996 -0.07184426 -0.029737543 -0.027300412 -0.05433031 0.09334999 0.006406595 -0.00076854165 0.05386054 -0.15561676 0.08153218 0.06906145 0.0020490836 -0.016026553 0.2309955 0.06521277 0.01643949 6.925006e-05 -0.05840319 -0.030237177 0.051736496 0.0987746 -0.08383693 -0.028811889 -0.12176558 0.054989345 -0.11671821 -0.17958012 -0.014665572 0.20493081 -0.11490131 -0.026437806 0.10908273 -0.061292 0.13740778 -0.07578029 0.05576214 0.06501419 0.11421247 0.07593898 0.0069645136 0.23058462 -0.12976079 0.10019744 -0.10281585 0.1320573 0.012349362 -0.024864657 0.033500582 0.11442291 -0.09399404 -0.08386803 -0.20040606
4 -0.018939575 -0.16264234 -0.07087263 -0.15291677 0.04637668 -0.020984344 0.057325207 0.09873801 0.074685834 0.06980146 -0.05837681 0.11218973 0.07099377 -0.008833814 0.017018367 -0.10706268 -0.13839987 -0.037136715 -0.04348658 0.06795968 0.17170705 -0.050738998 0.13174261 0.08612289 0.10134346 0.038665336 -0.062127404 -0.0430518 -0.037013445 -0.025096059 -0.03307134 0.036706157 -0.07049442 -0.024899608 -0.025719345 -0.055670284 0.090181716 0.015187737 2.4032372e-05 0.022766797 -0.13976991 0.07473256 0.07708221 0.004314909 -0.0038823672 0.22170435 0.064292274 0.011545927 -0.004960766 -0.048489813 -0.034319796 0.057732366 0.10618451 -0.08878186 -0.044125292 -0.13598411 0.062549226 -0.12593475 -0.17829964 -0.038768843 0.2405655 -0.114279695 -0.031316683 0.11170828 -0.06140145 0.15990464 -0.1081765 0.075661466 0.067943014 0.13557133 0.08800417 0.0076346043 0.28727272 -0.15490396 0.1385999 -0.13582875 0.14695327 0.02607429 -0.024639651 0.06559317 0.14813758 -0.15018128 -0.112044774 -0.25235656
45 -0.022930728 -0.2386141 -0.11126736 -0.20300937 0.073625885 -0.027342744 0.07982012 0.14737305 0.11939134 0.10710357 -0.11371528 0.18239503 0.084829465 -0.0075217737 0.007055885 -0.11294569 -0.17408104 -0.036770873 -0.04798238 0.08749129 0.1850906 -0.06296721 0.16440564 0.08397476 0.11281553 0.07230916 -0.07835193 -0.06064367 -0.04268578 -0.022621261 -0.030875305 0.06344077 -0.081681676 -0.0375001 -0.026223874 -0.05909494 0.09458076 0.019986458 -0.011895749 0.030190015 -0.14988717 0.065989986 0.06254182 0.013358832 -0.018440617 0.20487317 0.06964625 0.026728066 -0.003599654 -0.05635462 -0.038675524 0.0526449 0.08843422 -0.08278109 -0.023234732 -0.14590454 0.050792273 -0.10494035 -0.17297257 -0.02946243 0.18938024 -0.11054845 -0.016276563 0.10694061 -0.062347684 0.11806174 -0.08003618 0.0702637 0.06498304 0.115741596 0.08739847 0.018592548 0.23145854 -0.13925806 0.1049879 -0.098882034 0.14265285 0.019550005 -0.019630305 0.05871476 0.11893261 -0.11919154 -0.08914991 -0.20576732
70 0.0030857709 -0.20466205 -0.09291344 -0.1765684 0.046190422 -0.021511598 0.04725014 0.1302551 0.1010427 0.0950129 -0.09085561 0.15922906 0.07383401 0.0040161754 0.008775389 -0.105752945 -0.16299935 -0.031463906 -0.0407218 0.08383817 0.18125533 -0.05900582 0.15493365 0.089406006 0.11855133 0.054492462 -0.0840416 -0.059272822 -0.04481041 -0.012819444 -0.021108488 0.056913916 -0.07909205 -0.031540647 -0.014089695 -0.061942734 0.10580689 0.016939688 -0.004972018 0.040741365 -0.16067834 0.07478241 0.07714331 0.012207239 -0.01839198 0.22156274 0.06357884 0.025726536 -0.0072804764 -0.0673131 -0.03142039 0.05044571 0.10475783 -0.08833644 -0.02696196 -0.13795647 0.06680646 -0.09927128 -0.18498538 -0.021687802 0.22717626 -0.11006015 -0.029754644 0.105674 -0.07029575 0.16202153 -0.08000754 0.076400295 0.055365156 0.12785418 0.069483116 0.010095554 0.26632062 -0.14894933 0.11078981 -0.10551128 0.14509599 0.027874306 -0.030222116 0.044767406 0.12834275 -0.12871988 -0.09789062 -0.20505738
62 -0.0011602739 -0.23722133 -0.13523206 -0.233709 0.075944945 -0.015723825 0.061268337 0.15499538 0.1215417 0.12369063 -0.12500721 0.19918056 0.08363946 0.0023783548 0.01745842 -0.12321483 -0.22477293 -0.042782 -0.06631431 0.09820864 0.22751027 -0.068898216 0.19319189 0.12039736 0.1420102 0.07806317 -0.088002816 -0.07114763 -0.048465263 -0.018461652 -0.026574727 0.049244594 -0.06325276 -0.030354131 -0.016811825 -0.049772777 0.08171167 0.014377211 -0.0027398265 0.050572436 -0.13709424 0.059325036 0.046103906 -0.0036878646 -0.008620242 0.21302226 0.079136215 0.03830541 -0.0050780983 -0.064113595 -0.030869659 0.041230164 0.08823328 -0.07396456 -0.016411854 -0.12720399 0.044175364 -0.10784267 -0.1774475 -0.0125002945 0.19417962 -0.10970847 -0.012970147 0.10010112 -0.062208198 0.13373007 -0.06236288 0.05015459 0.069645755 0.09932355 0.066003144 0.0043230443 0.21008196 -0.12119827 0.08631104 -0.071255006 0.13622098 0.013548215 -0.029463677 0.028105883 0.10880833 -0.08495037 -0.07478133 -0.18554565
14 -0.016700033 -0.19046247 -0.08858907 -0.17793022 0.059351243 -0.0255129 0.076729044 0.11891831 0.09173717 0.09550224 -0.0965494 0.14518584 0.07971067 -0.017069634 0.015088329 -0.11434384 -0.13959827 -0.03426967 -0.0450015 0.08701923 0.18151979 -0.052999903 0.14669839 0.085307986 0.12193637 0.05339283 -0.07841115 -0.033055063 -0.05040006 -0.0034054639 -0.017965427 0.05458049 -0.08328081 -0.033465553 -0.021577887 -0.06957352 0.10113411 0.016980572 -0.017461076 0.012882033 -0.16324303 0.08960462 0.08460546 0.002960038 -0.0128023075 0.22683723 0.0752789 0.030194428 0.012504902 -0.047007702 -0.04972038 0.07831384 0.11294998 -0.0926908 -0.03858666 -0.14810315 0.064151645 -0.11643875 -0.17830054 -0.045714688 0.21005572 -0.124210775 -0.013298201 0.11043563 -0.06309039 0.1440263 -0.084047675 0.066635676 0.053486776 0.12431481 0.08177839 0.017778631 0.2673167 -0.14395495 0.13422543 -0.120148376 0.12023096 0.017779399 -0.02075441 0.06211681 0.13242218 -0.12861334 -0.10437403 -0.21047768
17 -0.010568979 -0.194812 -0.068002045 -0.15183955 0.03990513 -0.035288922 0.06491278 0.11229751 0.09191232 0.093405284 -0.08959543 0.13384356 0.08801403 -0.022557057 0.019708857 -0.10010216 -0.14684977 -0.04895933 -0.03850552 0.082593024 0.16467021 -0.054889705 0.15405627 0.09380016 0.10493834 0.04105922 -0.055765364 -0.053679653 -0.048372034 -0.023496324 -0.024137726 0.052487563 -0.08124586 -0.05118416 -0.033933006 -0.07251719 0.117633596 0.022258503 -0.0045594024 0.015996944 -0.1502433 0.07454921 0.07235515 0.014361882 -0.013192213 0.23752087 0.0764729 0.023141032 0.0035964225 -0.036251232 -0.05476327 0.075766675 0.1019336 -0.10688293 -0.036180954 -0.14197429 0.052470654 -0.109380014 -0.18363357 -0.018790571 0.21250184 -0.1417461 -0.012107115 0.11075894 -0.074961826 0.13086884 -0.106312364 0.06568546 0.05734451 0.12811287 0.08385213 0.0027593032 0.27185255 -0.16162756 0.13435814 -0.123115405 0.14864807 0.022449572 -0.03545156 0.039550815 0.11660464 -0.13093828 -0.09728492 -0.21599744
25 -0.017861612 -0.1896771 -0.08246758 -0.1670009 0.040915277 -0.02026193 0.053181376 0.09353268 0.08041396 0.077202015 -0.07278999 0.114636526 0.060873516 -0.00010728379 0.0118093565 -0.11108719 -0.14267378 -0.038178496 -0.044995964 0.06869362 0.16655815 -0.046997745 0.14564751 0.101113506 0.09903676 0.027676286 -0.05181258 -0.050799917 -0.050987363 -0.02075601 -0.019703876 0.030906726 -0.06619407 -0.043078527 -0.028881993 -0.046344824 0.09169221 0.021919154 -0.0045292643 0.0144025525 -0.14232044 0.09000027 0.08347063 -0.0037925066 0.0012302214 0.24356279 0.075526826 0.019670896 0.0043458664 -0.05094463 -0.048855755 0.06877161 0.10969697 -0.09657047 -0.04945602 -0.13887809 0.07426617 -0.12886038 -0.19940369 -0.021595879 0.23562683 -0.12713857 -0.026067244 0.10908093 -0.07277051 0.15160808 -0.09732877 0.07526294 0.055422593 0.13157855 0.076036535 0.0079857875 0.27104083 -0.13257739 0.12523195 -0.12769789 0.14295739 0.022513347 -0.027307758 0.05861918 0.1437132 -0.14758578 -0.10681932 -0.25447544
53 -0.0070807943 -0.17811821 -0.06788518 -0.14708723 0.044695962 -0.018844897 0.058691304 0.10738913 0.077823296 0.08051501 -0.08938679 0.14217012 0.07770655 -0.0031643824 0.016371287 -0.11774406 -0.13968495 -0.022891944 -0.03376964 0.083029844 0.16610824 -0.054076336 0.13540018 0.08214956 0.09986358 0.042026304 -0.053072084 -0.044401217 -0.054953218 -0.03313112 -0.014899455 0.05029315 -0.085896045 -0.05071375 -0.025842916 -0.05240844 0.11538212 0.010978897 -0.009660332 0.022456273 -0.15239248 0.0923814 0.08156836 -0.0032970118 -0.017559253 0.23187226 0.07493964 0.018132946 0.0049126474 -0.06223619 -0.044122964 0.07639845 0.121842384 -0.11594388 -0.02349007 -0.16120595 0.077305056 -0.12168572 -0.20379703 -0.029957108 0.21414849 -0.12750384 -0.018577162 0.108926 -0.08679747 0.14553992 -0.07035558 0.07606217 0.04100298 0.12745175 0.08564069 0.012361226 0.2633077 -0.13144217 0.12743038 -0.1340562 0.12605287 0.023772191 -0.015567411 0.058018737 0.13725165 -0.14459537 -0.113889016 -0.22568607
65 0.0012348079 -0.2185232 -0.09725942 -0.17975077 0.0596765 -0.03161162 0.07377575 0.12923227 0.10727206 0.09896825 -0.09686496 0.1593012 0.08866654 0.0026101628 0.0126858 -0.10432047 -0.14870846 -0.030622717 -0.035520475 0.089629516 0.15892623 -0.048432447 0.1430859 0.07777934 0.09987399 0.052006632 -0.05875316 -0.047423735 -0.04634005 -0.026459973 -0.017996011 0.04505897 -0.077069774 -0.048253834 -0.03974591 -0.051761355 0.102380894 0.026781451 -0.014716979 0.023133168 -0.12242524 0.075553484 0.081965685 -0.006787479 -0.01932136 0.21015428 0.0650703 0.013901368 0.011631253 -0.058300983 -0.050572984 0.059827473 0.1068848 -0.11994967 -0.026007349 -0.1531198 0.07433747 -0.11901152 -0.18687563 -0.034375995 0.21502574 -0.12592974 -0.018177638 0.11827912 -0.07332483 0.13926597 -0.07687833 0.07051044 0.054026958 0.1215204 0.08866774 0.02410514 0.2531532 -0.1381279 0.12176075 -0.11936377 0.13369602 0.025076613 -0.019109508 0.072159626 0.13183519 -0.12586388 -0.10516716 -0.209818
33 -0.020528885 -0.12627895 -0.048158348 -0.09232379 0.03715576 -0.017856125 0.057235204 0.0672065 0.070541926 0.08670937 -0.0701462 0.11784861 0.06425461 -0.021322804 0.022523597 -0.11609416 -0.14285544 -0.043956872 -0.049896777 0.079893254 0.15948887 -0.06110441 0.14434135 0.082055464 0.09132113 0.040724304 -0.05844069 -0.03832376 -0.039205313 -0.009102773 -0.018729763 0.050884854 -0.07357885 -0.02502845 -0.024682542 -0.061745875 0.10399485 0.020415448 -0.0037062713 0.011462968 -0.16885032 0.10423423 0.089288816 0.0027120376 -0.0069556134 0.25457442 0.08016928 0.012153674 0.0036540136 -0.046512928 -0.05195958 0.08796307 0.10815644 -0.10339234 -0.057180095 -0.13300146 0.064158484 -0.11535782 -0.17951667 -0.024423098 0.21766417 -0.13907768 -0.030020744 0.11491147 -0.07555565 0.12713756 -0.11140128 0.067317374 0.060431324 0.14714633 0.08907462 0.013218706 0.29339516 -0.14956352 0.13848606 -0.13768539 0.15006718 0.024087217 -0.030840842 0.06583406 0.14443433 -0.15702339 -0.10816017 -0.2598281
55 -0.022986444 -0.19761209 -0.06656974 -0.15034163 0.06308419 -0.015957719 0.08386613 0.093348235 0.058566798 0.08144575 -0.06807554 0.10509525 0.05629512 -0.006866779 0.02078551 -0.11930071 -0.11639602 -0.023167124 -0.03938503 0.06696096 0.16270432 -0.03837988 0.13099134 0.08877577 0.09822199 0.0311467 -0.06953087 -0.035916287 -0.048456665 -0.01534473 -0.004536655 0.041174218 -0.0784742 -0.025068782 -0.01953709 -0.044952586 0.09277122 0.036420427 -0.0015739527 0.021803576 -0.12194811 0.09916923 0.09143402 -0.012423029 -0.006176636 0.21869397 0.07834219 0.005010822 0.004669982 -0.044259552 -0.04204842 0.08263379 0.104346104 -0.096833944 -0.051153045 -0.15213837 0.06856551 -0.11707732 -0.17589426 -0.034451965 0.22664304 -0.12488479 -0.02454868 0.11564403 -0.070674665 0.14956333 -0.10309804 0.07432599 0.071187094 0.12723859 0.093320616 0.03062162 0.26738223 -0.14090432 0.15119046 -0.13645706 0.14767039 0.017273203 -0.039524056 0.072676 0.14861253 -0.14360294 -0.115941904 -0.26156563
56 0.008803871 -0.22520758 -0.09847975 -0.21337219 0.06464944 -0.015453691 0.06236126 0.10115047 0.08049627 0.09980529 -0.0749798 0.15343584 0.047651418 0.0062608463 0.021402718 -0.10622406 -0.16779567 -0.038584366 -0.047609773 0.08081465 0.17735775 -0.044315234 0.13976671 0.10473195 0.10866916 0.049635846 -0.072554976 -0.06578566 -0.043374833 -0.020091778 -0.030249186 0.0472535 -0.071891285 -0.029436922 -0.038337864 -0.065025926 0.10679121 0.020571364 0.0055841515 0.05415356 -0.13164352 0.08480974 0.071725495 -0.0025772399 -0.007992802 0.24837935 0.06718179 0.0042510657 -0.004007388 -0.06380321 -0.02988782 0.0714139 0.09271391 -0.09477236 -0.026230987 -0.13814484 0.060869582 -0.12229772 -0.20631965 -0.028535563 0.22157045 -0.12008521 -0.018848313 0.12737307 -0.055230055 0.12847894 -0.07552586 0.03913822 0.07388171 0.10045232 0.085836016 -0.0013600052 0.24196076 -0.14155021 0.09671459 -0.11422697 0.13759482 0.0005229955 -0.035480823 0.040944245 0.12901744 -0.09219565 -0.09189545 -0.21112986
20 -0.020406103 -0.18922184 -0.0945403 -0.18708085 0.04346699 -0.03644576 0.0701569 0.11543676 0.09029331 0.07838377 -0.07331687 0.12242232 0.08945816 -0.015560674 0.0066042542 -0.09470955 -0.17904413 -0.043773897 -0.0488502 0.07683118 0.18799834 -0.0605598 0.15554123 0.098280475 0.12803791 0.051210362 -0.07529949 -0.06424559 -0.042767562 -0.022299854 -0.03968589 0.045880713 -0.052303206 -0.02131919 -0.028876051 -0.05881523 0.09043252 0.0033185845 -0.017667241 0.014485955 -0.14592412 0.06445317 0.056813665 0.009652614 -0.002552648 0.22514877 0.0708986 0.036164045 0.0055532986 -0.052902788 -0.037378665 0.050375044 0.10553964 -0.08563545 -0.040473282 -0.120349646 0.053531136 -0.12178388 -0.17124876 -0.03315428 0.2301303 -0.10698615 -0.024884988 0.11085449 -0.047650434 0.14494152 -0.10873091 0.0670988 0.07364988 0.12966134 0.079596795 -0.011194054 0.27721402 -0.16057806 0.12978621 -0.10841143 0.13726941 0.01129439 -0.021670813 0.053830687 0.1265818 -0.12290945 -0.089050256 -0.22839294
41 -0.02251279 -0.18966125 -0.06847483 -0.17032625 0.05505305 -0.015801003 0.084893934 0.09549593 0.08460582 0.092261486 -0.076557994 0.13890366 0.07004706 -0.011955931 0.018230457 -0.123694435 -0.15761735 -0.05005448 -0.047683302 0.09230509 0.17436905 -0.062685326 0.13270988 0.08216172 0.10364194 0.054916754 -0.07607968 -0.038097363 -0.039600343 -0.016844397 -0.024526145 0.06892735 -0.06320145 -0.016113417 -0.03373839 -0.060113218 0.1006231 0.015009407 -0.006980441 0.030088376 -0.14205316 0.06679137 0.061746515 0.0021969099 -0.009422282 0.22552043 0.07676159 0.014671245 0.0005096596 -0.04687952 -0.039111666 0.08041128 0.0946396 -0.09617565 -0.017663265 -0.14346753 0.04967905 -0.117269196 -0.17359321 -0.04428481 0.21789563 -0.114108555 -0.029295377 0.12576362 -0.068630345 0.12913068 -0.099619806 0.06664937 0.06518037 0.1295047 0.09706047 -0.00030346954 0.27074537 -0.14963298 0.12023986 -0.1482077 0.124874145 0.021184161 -0.03452056 0.051891103 0.1296887 -0.12568751 -0.09424054 -0.22975582
13 -0.005197433 -0.17466323 -0.069156304 -0.1458751 0.037154302 -0.0138912825 0.05336248 0.089558 0.06955571 0.07180782 -0.07191146 0.100550644 0.06610911 -0.0223935 0.018901205 -0.09989081 -0.110558316 -0.021913383 -0.045307502 0.053304628 0.15860438 -0.0509948 0.1384077 0.091938585 0.08666443 0.020499852 -0.04674149 -0.042762145 -0.04397642 -0.020862795 -0.025269428 0.04122766 -0.0929298 -0.04599757 -0.016437192 -0.066000275 0.10145585 0.02111827 -0.0033352415 0.009692163 -0.15528883 0.09088393 0.09381325 0.0013919054 -0.014093882 0.24340074 0.08271053 0.009028213 0.0033516677 -0.040790766 -0.04789598 0.078743726 0.10229076 -0.09552261 -0.05587371 -0.14340188 0.06488729 -0.123987876 -0.1875078 -0.026746247 0.22591417 -0.1319921 -0.02815639 0.11298624 -0.07125757 0.14242794 -0.095860116 0.061923184 0.057501044 0.12834704 0.08264058 0.017826302 0.28904757 -0.14974049 0.14539921 -0.14439645 0.15315403 0.021954658 -0.03695788 0.052298475 0.14611505 -0.1492005 -0.1201103 -0.24749091
66 -0.006928254 -0.22685054 -0.093487054 -0.20386884 0.048711915 -0.044460893 0.05974198 0.12562914 0.09323436 0.102529205 -0.0947127 0.15660983 0.081308745 -0.011884142 0.020761162 -0.09253843 -0.17520228 -0.04132117 -0.03210003 0.07667117 0.16970389 -0.040332872 0.14606364 0.09083654 0.0947115 0.048806846 -0.05513936 -0.054768816 -0.0383879 -0.024021732 -0.026206272 0.056197137 -0.06385903 -0.021409804 -0.027745206 -0.049513485 0.097269684 0.013224109 -0.0010700808 0.038776346 -0.14524525 0.06318879 0.07051013 0.015335614 -0.01630488 0.21855305 0.05580274 0.019425698 -0.015034496 -0.046765737 -0.04324489 0.057859194 0.09217485 -0.081482984 -0.02784723 -0.1361465 0.041561376 -0.10841712 -0.1784133 -0.018742561 0.21951042 -0.11645032 -0.025439762 0.10377811 -0.05984595 0.12989564 -0.10112069 0.06506061 0.08009933 0.1292667 0.094266355 -0.0015389707 0.25498188 -0.15915443 0.115571514 -0.11383905 0.16084981 0.018946452 -0.030078437 0.049346402 0.12951587 -0.11540337 -0.09368482 -0.22420569
10 0.0039712987 -0.18027058 -0.08621555 -0.15909044 0.03766239 -0.005511356 0.05357153 0.106636584 0.10245614 0.07058681 -0.07818722 0.13184495 0.07380992 -0.0026686247 0.009257251 -0.09160478 -0.14230967 -0.023256872 -0.044109423 0.07617898 0.18644463 -0.05817653 0.14772345 0.0956056 0.1113616 0.047650207 -0.06987892 -0.06679729 -0.057425115 -0.033940002 -0.041075155 0.032032948 -0.08016278 -0.05031393 -0.0345505 -0.06834798 0.103701696 0.013645399 -0.018047957 0.012745539 -0.13221356 0.06917899 0.07262254 0.003780406 0.0011411456 0.23856966 0.08888544 0.012554471 0.0076671005 -0.060507216 -0.030534958 0.05941452 0.099266134 -0.10772916 -0.033837993 -0.13115561 0.06450245 -0.11318865 -0.17957558 -0.0276495 0.2290608 -0.12331697 -0.016989075 0.119665794 -0.07006338 0.1603757 -0.09820559 0.070992514 0.056194615 0.123701975 0.08787289 0.0028217698 0.26810762 -0.15115134 0.12293146 -0.12135949 0.15348509 0.02687806 -0.038713615 0.049607724 0.118995085 -0.14116882 -0.10457054 -0.22351828
67 -0.0050839707 -0.19001247 -0.09350389 -0.16238604 0.05823846 -0.022990486 0.06427256 0.118816435 0.0974743 0.086896084 -0.080632 0.13265039 0.069113776 -0.008135294 0.017801085 -0.09914593 -0.1400316 -0.03442221 -0.045678165 0.07710624 0.16443561 -0.057839446 0.15248564 0.08657485 0.122295946 0.05412184 -0.068005696 -0.065692805 -0.04857379 -0.029101072 -0.030131422 0.04334662 -0.08839694 -0.04873956 -0.02687662 -0.06264516 0.099321745 0.018710596 -0.011391543 0.02173317 -0.14551426 0.08215214 0.08054376 0.00780202 -0.015290263 0.21878648 0.07121259 0.023949472 0.014689978 -0.05899785 -0.041485555 0.06677099 0.10129387 -0.106194705 -0.036590505 -0.13722102 0.07258687 -0.11319902 -0.18707208 -0.02951853 0.21747825 -0.13411935 -0.014988968 0.12135808 -0.07308283 0.13648117 -0.08694165 0.06257935 0.06410762 0.12802751 0.08964373 0.02560451 0.26491162 -0.14828217 0.12604603 -0.11734433 0.1378706 0.019163763 -0.022756834 0.06153368 0.13054235 -0.1309709 -0.10511307 -0.21041639
77 0.0053427583 -0.23562627 -0.09879513 -0.19722942 0.053918898 -0.014383907 0.06372747 0.13002104 0.086283244 0.0965201 -0.09626232 0.16167405 0.056426547 0.019901907 0.02204588 -0.10001283 -0.12522507 -0.02039694 -0.027027765 0.073146634 0.15268123 -0.04486301 0.12824565 0.07819006 0.08251702 0.04739092 -0.054660015 -0.052060444 -0.053841785 -0.035662767 -0.026098156 0.038398802 -0.08573865 -0.030050604 -0.02305975 -0.05328474 0.09498283 0.019196196 -0.007765342 0.021247935 -0.15421851 0.080912225 0.08777865 -0.0037092688 -0.0077698515 0.23518567 0.07998724 0.0203369 0.011016576 -0.06654079 -0.052497152 0.07580378 0.09687748 -0.11991087 -0.021764494 -0.15504503 0.08320529 -0.11442192 -0.21238714 -0.024095768 0.22873057 -0.13129857 -0.021074513 0.11371248 -0.0832971 0.14716089 -0.08607374 0.061271984 0.04838457 0.12212729 0.08298621 0.011647551 0.25531065 -0.13143134 0.12345361 -0.11391778 0.122826956 0.017413793 -0.023703527 0.054262508 0.13409838 -0.12577257 -0.10230161 -0.20102759
58 -0.0037644343 -0.21622053 -0.10209062 -0.18320465 0.038134247 -0.01387488 0.05751205 0.117691144 0.112841114 0.08213284 -0.08038192 0.14206111 0.0942377 0.0026965684 0.010016067 -0.10436314 -0.17893066 -0.028505307 -0.04928199 0.07934818 0.17875393 -0.07695891 0.15210539 0.08596822 0.12260251 0.062257282 -0.07301121 -0.07772233 -0.04835627 -0.026731113 -0.033401947 0.052608337 -0.07805504 -0.04664015 -0.033436824 -0.064198256 0.09632871 0.019039556 -0.019477557 0.03107493 -0.15208808 0.06897602 0.05930367 0.0026696578 -0.018678395 0.22689898 0.07410482 0.02579509 0.009015556 -0.076447405 -0.03489264 0.050848763 0.10390699 -0.09906143 -0.028503377 -0.13619567 0.065113686 -0.1259809 -0.18787262 -0.031452443 0.2089591 -0.11110557 -0.022130582 0.11339109 -0.063889146 0.13173953 -0.07641311 0.06043169 0.059331328 0.12205171 0.075422935 0.0055376715 0.2639443 -0.13960215 0.10629614 -0.12299915 0.12665913 0.010352323 -0.021660455 0.054363262 0.12695925 -0.13023494 -0.092708424 -0.2136231
16 -0.018477645 -0.16290475 -0.07592664 -0.15216832 0.049764767 -0.01551217 0.07569071 0.11083471 0.087172344 0.08752288 -0.09005238 0.13354635 0.07737596 -0.006853578 0.029939758 -0.12265781 -0.15583985 -0.041152228 -0.05490918 0.07355515 0.17869872 -0.055731643 0.16492835 0.08974912 0.10830996 0.04524364 -0.06572466 -0.037767954 -0.05061755 -0.022067223 -0.018825524 0.047705323 -0.05954605 -0.03587819 -0.018901907 -0.053116214 0.09181013 0.00998463 -0.011305479 0.016618114 -0.14826426 0.087280296 0.07669843 -0.005688895 -0.008413146 0.22715598 0.08269238 0.025541043 0.0035448351 -0.042229168 -0.039720554 0.07778871 0.11243657 -0.09480207 -0.043562986 -0.13715814 0.060087323 -0.11928117 -0.17286256 -0.027820343 0.21988176 -0.12876932 -0.03175803 0.10845842 -0.06410115 0.1519736 -0.09129547 0.07705311 0.05478357 0.12947462 0.092310846 0.006834018 0.2765541 -0.1522874 0.14541218 -0.12923254 0.13744178 0.020566653 -0.027999686 0.05803793 0.13926114 -0.13025264 -0.10932387 -0.22765121
47 -0.018727863 -0.21594252 -0.11130464 -0.18937217 0.045677304 -0.01809832 0.062615976 0.115671776 0.10493942 0.08633305 -0.0958205 0.14805394 0.08510694 -0.01484969 0.0075019905 -0.09936277 -0.14043124 -0.029641362 -0.035779193 0.085538805 0.1826913 -0.05763946 0.13825697 0.07283959 0.112321734 0.056357797 -0.07050914 -0.04828411 -0.057655938 -0.0146413 -0.033996996 0.053699605 -0.06587596 -0.04285164 -0.013644475 -0.059535623 0.09154916 0.019683484 -0.01994427 0.018556427 -0.13210477 0.063302785 0.06063437 0.0019753254 -0.00593314 0.20389001 0.078606576 0.013072141 -0.0031239684 -0.04990246 -0.030203855 0.05769521 0.097763345 -0.09323359 -0.0348198 -0.14398253 0.056049854 -0.11446179 -0.16197693 -0.053710025 0.21961874 -0.1143581 -0.022723468 0.11840698 -0.06767603 0.140583 -0.08504689 0.08205234 0.048652656 0.12124771 0.07800157 0.016088936 0.25018653 -0.13872482 0.12166062 -0.12704748 0.12953664 0.031190356 -0.02778146 0.059193466 0.14217906 -0.15548721 -0.10091172 -0.24807858
71 7.649496e-05 -0.18390296 -0.07878868 -0.17143488 0.04706027 -0.022199089 0.06189473 0.09939655 0.07897905 0.079956554 -0.077548265 0.14011608 0.07470363 -0.0028774291 0.024869995 -0.109189235 -0.1409626 -0.026451644 -0.027935727 0.0848273 0.17247957 -0.05144176 0.1255653 0.07388529 0.097147696 0.045760278 -0.062020846 -0.04496381 -0.050099727 -0.020907396 -0.01755083 0.04030921 -0.08092622 -0.038885854 -0.023306593 -0.05662786 0.095660105 0.00698425 -0.0038129303 0.017299332 -0.13662225 0.08432248 0.067612536 -0.008648324 -0.008363182 0.23505636 0.07704285 0.012301633 0.0033945169 -0.058094993 -0.038988747 0.07019402 0.11197837 -0.10990716 -0.03347753 -0.14462847 0.07426455 -0.11997207 -0.19485253 -0.05115413 0.2272155 -0.12278863 -0.026978375 0.124410056 -0.0777862 0.15699752 -0.09056171 0.05665651 0.052539315 0.11154059 0.08939209 0.01558733 0.25730482 -0.14552543 0.13612744 -0.11956372 0.1193579 0.014240269 -0.019527802 0.05456795 0.13732198 -0.13749608 -0.11279211 -0.22332606
24 -0.013164998 -0.12900679 -0.031160602 -0.103537194 0.022363957 -0.027358182 0.062104076 0.05703049 0.06419902 0.078284115 -0.07744752 0.10650128 0.07896339 -0.029485058 0.008584441 -0.10423751 -0.12627964 -0.041959412 -0.02826963 0.091076985 0.1579898 -0.053897947 0.117520206 0.07058123 0.08910009 0.038690843 -0.057237796 -0.03186353 -0.047629874 -0.0070651905 -0.022415932 0.050183944 -0.092878945 -0.05282866 -0.03748623 -0.08116146 0.13243076 0.026125077 -0.010986598 0.0010313268 -0.16588743 0.10121337 0.09164421 0.017485742 -0.011978546 0.26668867 0.08039148 0.02062034 0.006032454 -0.04964412 -0.04725813 0.09632348 0.1130582 -0.09551183 -0.04081073 -0.13358186 0.06648393 -0.11927512 -0.1918229 -0.044965502 0.20626585 -0.13009852 -0.0075950646 0.11893283 -0.076389596 0.11221468 -0.11509892 0.06510932 0.065005995 0.13415694 0.103929415 0.009795323 0.2909564 -0.15817241 0.14988168 -0.15030894 0.13327792 0.014553367 -0.027182583 0.07377003 0.14451638 -0.15973145 -0.1147697 -0.24766278
26 -0.00432005 -0.19954729 -0.09426112 -0.17725332 0.05414954 -0.024347773 0.068817355 0.10601453 0.0911949 0.086484775 -0.07474715 0.1299742 0.08528353 -0.017227855 0.025977045 -0.11610747 -0.15354034 -0.037343383 -0.048635315 0.08843748 0.17558055 -0.061635856 0.15814407 0.088802315 0.11931527 0.04732788 -0.08172987 -0.061914984 -0.04709336 -0.010498049 -0.01645269 0.059017196 -0.071138225 -0.036830604 -0.02294369 -0.071192995 0.10095949 0.014324271 -0.011566641 0.033977285 -0.1435433 0.07890902 0.06958728 -0.009241304 -0.017855398 0.24198714 0.07280018 0.011199425 0.014240745 -0.04802357 -0.04302193 0.0716252 0.111736536 -0.10971602 -0.047710717 -0.13539737 0.0694449 -0.11735749 -0.17394118 -0.030527541 0.2175665 -0.12444218 -0.024526374 0.123043045 -0.064266905 0.14077957 -0.07708463 0.047190715 0.052566648 0.121900834 0.07932653 0.012633248 0.2593573 -0.14681323 0.13791764 -0.12597138 0.1123033 0.015191964 -0.03729802 0.038822524 0.12704153 -0.115202375 -0.09834835 -0.21405973
6 -0.0159331 -0.15739626 -0.074447796 -0.1315871 0.04039402 -0.008049793 0.07315759 0.11337612 0.09305772 0.08612941 -0.08714526 0.1264772 0.0800274 -0.012749621 0.031043693 -0.1255438 -0.14269777 -0.039522808 -0.059529386 0.06681214 0.19299807 -0.07355148 0.16703591 0.10646233 0.13463898 0.038013026 -0.06869403 -0.06292988 -0.058724012 -0.03135061 -0.029483752 0.049562156 -0.08552696 -0.043529876 -0.019604871 -0.06310456 0.10830782 0.019494569 -0.0066681076 0.01578498 -0.15693395 0.0856699 0.08746154 -0.010375629 -0.019890962 0.23287821 0.08770894 0.010144759 0.01591166 -0.038357098 -0.034198053 0.07828244 0.09602982 -0.09268731 -0.04712787 -0.12740685 0.058936425 -0.119940855 -0.166106 -0.033102855 0.20884432 -0.12694588 -0.027254554 0.10760223 -0.070931174 0.12816979 -0.09078428 0.059008647 0.039089657 0.11348556 0.07599008 0.014157182 0.25668368 -0.12943089 0.13831009 -0.13093072 0.12609546 0.022536932 -0.030397076 0.044470884 0.14072527 -0.14068599 -0.103678726 -0.23137546
39 -0.029172627 -0.15912995 -0.08915354 -0.12721692 0.07025454 0.0033404727 0.07363108 0.1376685 0.097519234 0.09214101 -0.097563796 0.15570675 0.07623105 0.0004838187 0.014613076 -0.12287394 -0.17013478 -0.029183611 -0.054542236 0.09891766 0.19377548 -0.06806114 0.18333699 0.102711156 0.10989504 0.06603037 -0.084302396 -0.045846377 -0.06323232 -0.021868275 -0.01861795 0.05930907 -0.0685512 -0.029414639 -0.010844392 -0.050098 0.102116585 0.023345964 -0.021066397 0.029579127 -0.13487849 0.08083253 0.06423598 -0.0113793025 -0.0072486275 0.21587199 0.08209798 0.03202988 0.009755726 -0.059725355 -0.045944065 0.06492748 0.11087038 -0.11922639 -0.031524114 -0.15877941 0.06663671 -0.11769874 -0.18161854 -0.029065382 0.21642855 -0.121591136 -0.034866177 0.10926447 -0.065986075 0.13494945 -0.075230055 0.08623043 0.04965455 0.12902711 0.077292755 0.014661905 0.24308962 -0.13285157 0.11331902 -0.11008398 0.13818406 0.036252633 -0.024602512 0.05818405 0.13268267 -0.1309291 -0.09979342 -0.21763708
23 -0.029624466 -0.18854493 -0.08713369 -0.15480687 0.04095702 -0.013635265 0.052635044 0.10126869 0.082519874 0.061596952 -0.060877703 0.114593014 0.068867266 -0.016718931 0.0053010993 -0.10164848 -0.14660463 -0.02970376 -0.031377643 0.07843968 0.16803196 -0.053435035 0.1456727 0.097730696 0.10226538 0.039179932 -0.07517914 -0.06048008 -0.057159416 -0.014267853 -0.033581864 0.051777188 -0.072462186 -0.02831937 -0.011653623 -0.0625742 0.09540988 0.016043156 -0.019738626 0.01834779 -0.13889003 0.07352889 0.06821692 0.015572949 0.0016254095 0.21896859 0.07671925 0.029699517 -0.012059866 -0.053759653 -0.034646563 0.059625376 0.099765725 -0.09489645 -0.048459895 -0.15620053 0.06119058 -0.11404264 -0.18174943 -0.040823918 0.23167226 -0.11993354 -0.030992635 0.12172936 -0.062058184 0.14528047 -0.10598281 0.08668894 0.06888577 0.14355893 0.0841106 0.004612403 0.28269276 -0.15657794 0.11955403 -0.12883377 0.16005138 0.024350964 -0.036437407 0.05832495 0.1389894 -0.14740284 -0.09695798 -0.24403019
40 -0.01280312 -0.2141908 -0.0917247 -0.17845134 0.052769758 -0.003762169 0.058513742 0.1344835 0.10121967 0.08952434 -0.076579995 0.1528852 0.073783934 -0.00246772 0.017257666 -0.120673835 -0.18047205 -0.037629034 -0.0589357 0.07547853 0.18576556 -0.056700516 0.16416149 0.11503977 0.098968305 0.04542658 -0.06412098 -0.082011536 -0.064430036 -0.03057314 -0.039066344 0.039980147 -0.073524594 -0.024584029 -0.0021641925 -0.057788525 0.06196609 0.018882576 0.00015116304 0.023441682 -0.14483665 0.06826251 0.062246114 0.009506618 -0.0057506426 0.19753076 0.068635136 0.0077962065 -0.00642216 -0.05300795 -0.029148728 0.059527095 0.06937607 -0.081845224 -0.025928117 -0.12924433 0.04666131 -0.11313935 -0.16598357 -0.030996017 0.23254156 -0.11713076 -0.03278538 0.109417334 -0.06764078 0.13796094 -0.090725094 0.06354112 0.06452242 0.13107696 0.0636774 -0.0016284477 0.2611452 -0.14543588 0.10629143 -0.13473481 0.15136664 0.020219743 -0.042437285 0.043782312 0.14489771 -0.14177309 -0.09251831 -0.24032477
21 -0.03525255 -0.1949663 -0.10712466 -0.18667978 0.06531059 -0.023834268 0.065524094 0.11588331 0.097977236 0.08826075 -0.083362564 0.1446653 0.07454605 -0.02340717 0.0008140483 -0.112227894 -0.16291761 -0.04271164 -0.0428821 0.091556564 0.18450066 -0.0534313 0.15057431 0.09319277 0.1111829 0.05743542 -0.07877764 -0.045610167 -0.036410283 -0.010898335 -0.019261638 0.05463937 -0.06085943 -0.02275953 -0.02954181 -0.05258826 0.08223973 0.023593752 -0.0134572955 0.029666027 -0.12656686 0.07443045 0.06023957 0.008003827 -0.018066304 0.19415945 0.0651591 0.026872702 0.0049629607 -0.054999102 -0.027675929 0.054921016 0.09625674 -0.077981025 -0.03064763 -0.1369417 0.058835275 -0.11090943 -0.1723999 -0.03678275 0.21247081 -0.10920967 -0.026869074 0.11928812 -0.052866038 0.14054461 -0.0951478 0.07451338 0.069526255 0.11695659 0.09910674 0.013584208 0.25637117 -0.1448521 0.12124664 -0.11138375 0.14455579 0.01695821 -0.024652818 0.068791494 0.12542403 -0.1285657 -0.09989095 -0.2388361
80 -0.0077983583 -0.24148938 -0.09546522 -0.19535081 0.07194075 -0.029213613 0.07156217 0.12040359 0.09701526 0.106584616 -0.09547769 0.16031079 0.07443025 -0.0053483164 0.021540277 -0.10501755 -0.17071174 -0.03888514 -0.04273387 0.0736155 0.16266356 -0.046792477 0.13855436 0.10593701 0.10407094 0.056291454 -0.060460616 -0.064130545 -0.03553269 -0.03957662 -0.016090075 0.05629824 -0.086883545 -0.028738594 -0.0485279 -0.055178486 0.09574503 0.025866142 -0.0018505558 0.039699115 -0.14816725 0.089973584 0.074650414 0.0012638834 -0.015433436 0.24111892 0.08251432 0.018980842 0.012026122 -0.06581272 -0.0351299 0.07973487 0.08248655 -0.09948836 -0.01914073 -0.14926974 0.07176157 -0.12402076 -0.20608038 -0.01516631 0.20695294 -0.12929063 -0.021809237 0.12064939 -0.06537579 0.12144097 -0.09509701 0.05782872 0.06561684 0.11447865 0.096170165 0.007874588 0.25016108 -0.13874322 0.099023186 -0.115054876 0.13230968 -0.0011664589 -0.030208265 0.05425305 0.11434171 -0.101459056 -0.08861367 -0.21234272
74 -0.024972323 -0.2082228 -0.096782684 -0.17463316 0.067131706 -0.01901204 0.0656831 0.13715787 0.109020755 0.097216964 -0.09649273 0.18198065 0.07199704 0.0038969982 0.024128016 -0.12400753 -0.19230732 -0.03543766 -0.050240107 0.0800274 0.19200116 -0.07458463 0.17461866 0.10771322 0.12221432 0.07076696 -0.083354615 -0.07489849 -0.0449461 -0.033753812 -0.019357719 0.05403744 -0.08641954 -0.029674465 -0.0151378615 -0.053281132 0.07388209 0.0036374729 -0.012537524 0.032106068 -0.16346316 0.089534916 0.07679432 0.004420262 -0.018859368 0.23265894 0.076406024 0.020339759 0.013929738 -0.076731846 -0.027507424 0.06549153 0.09388048 -0.08972427 -0.036082104 -0.12379183 0.07132818 -0.101848036 -0.19241665 -0.02281709 0.18573111 -0.114016786 -0.013080588 0.11004907 -0.071046084 0.11302352 -0.077524155 0.045537226 0.057330497 0.10728151 0.09218948 0.013378176 0.25564167 -0.13198161 0.115654334 -0.10614216 0.13859122 -0.0034620063 -0.0068426244 0.05668583 0.11912981 -0.10996736 -0.09339236 -0.1936355
30 -0.018981338 -0.17604256 -0.085583776 -0.16185705 0.0429359 -0.020952517 0.06718309 0.09579495 0.07780141 0.088728525 -0.09274767 0.12877823 0.061226856 -0.0119345235 0.0023989868 -0.10822007 -0.12977101 -0.05434665 -0.035879057 0.0768577 0.1615848 -0.040982686 0.12163408 0.06184913 0.09143209 0.05154703 -0.05516368 -0.031456057 -0.046134282 -0.009636736 -0.032746706 0.04136399 -0.0482483 -0.027602153 -0.03351431 -0.05846273 0.09593696 0.019810434 0.0021580907 0.009409935 -0.16129772 0.0644431 0.06698554 0.023654323 -0.002966673 0.22176713 0.071346015 0.014850918 -0.018295906 -0.038521584 -0.052416343 0.069215976 0.10552018 -0.09357549 -0.033212155 -0.14725603 0.026693309 -0.10890014 -0.16902088 -0.036408987 0.22470976 -0.13307762 -0.019264907 0.10863831 -0.06936376 0.15128893 -0.11103324 0.08468208 0.07259435 0.12783292 0.088005796 0.013150493 0.26265344 -0.16602723 0.12591435 -0.12429917 0.16344166 0.04043712 -0.031074835 0.06003706 0.13304615 -0.16195498 -0.09713991 -0.26554167
59 0.001562063 -0.17584918 -0.07949843 -0.16653939 0.052674226 -0.026215795 0.060747266 0.1147546 0.0916415 0.08332083 -0.09058853 0.13649523 0.07652678 0.0071852137 0.00568276 -0.093992874 -0.15832716 -0.028458204 -0.044778295 0.08576249 0.17147887 -0.060145225 0.14069745 0.081823684 0.11377814 0.05393792 -0.072472066 -0.053526126 -0.037804488 -0.033482812 -0.03188152 0.04510902 -0.08249124 -0.04068527 -0.04018581 -0.06087564 0.10728541 0.0015247811 -0.018735424 0.017748618 -0.15227684 0.08672022 0.08025318 0.0017728448 0.00011192643 0.2590965 0.06887267 0.0288688 0.01775491 -0.06547377 -0.04994594 0.05724918 0.12511602 -0.1134091 -0.030040052 -0.13056314 0.08070505 -0.122483164 -0.20833437 -0.030507473 0.2036392 -0.11929265 -0.006592157 0.10010091 -0.056902174 0.13257793 -0.088824324 0.05368047 0.07094415 0.12780014 0.08749217 0.0019959018 0.26666912 -0.14509745 0.11794547 -0.10427762 0.1352529 0.012237731 -0.007691569 0.06357209 0.13295457 -0.12855582 -0.10722561 -0.21689144
48 -0.019230623 -0.2307178 -0.10377431 -0.22621801 0.06384694 -0.035084512 0.074024424 0.12463302 0.101424314 0.107927196 -0.11305281 0.18563075 0.096642286 0.0029507293 0.024338564 -0.12792282 -0.19932288 -0.044137955 -0.029487882 0.10065422 0.18569197 -0.04903678 0.123624645 0.07040398 0.10760135 0.06945887 -0.07533333 -0.0507663 -0.043509666 -0.025040824 -0.006273554 0.048365 -0.054081462 -0.01599438 -0.035046674 -0.0412068 0.079155535 0.011059377 -0.0034562412 0.04515281 -0.13625664 0.06533924 0.061641216 -0.0066726864 -0.018424667 0.22692965 0.07609851 0.015517928 -0.020230345 -0.06344909 -0.03100389 0.063263014 0.106974356 -0.0817039 -0.022761507 -0.14245872 0.05141151 -0.11286042 -0.19111313 -0.047890805 0.22224608 -0.10206056 -0.027192814 0.11432435 -0.07207068 0.15048532 -0.0966417 0.06720228 0.078297615 0.10899 0.08803886 0.009021631 0.21870439 -0.12769979 0.12428395 -0.097533055 0.11583118 0.019103719 -0.011365986 0.06505601 0.12682097 -0.10345759 -0.08758492 -0.20166335
61 -0.016179666 -0.22614105 -0.0973156 -0.18956992 0.05223686 -0.02498108 0.06530514 0.13161007 0.09824138 0.08717194 -0.09377063 0.1392855 0.070687994 -0.0043607666 0.009565572 -0.11591843 -0.17173776 -0.0263869 -0.061750144 0.063969016 0.20011337 -0.05798545 0.19523807 0.11290802 0.12965035 0.04715389 -0.07758468 -0.06826835 -0.042501837 -0.032729063 -0.03184015 0.04530424 -0.090780504 -0.048750088 -0.019178124 -0.05798183 0.10139612 0.005075233 -0.0072986563 0.023513172 -0.14003143 0.0761739 0.09367184 0.004433834 -0.009101519 0.21779394 0.06075656 0.020419579 0.0030954294 -0.05185791 -0.039614256 0.05833119 0.099880554 -0.091049895 -0.048012692 -0.13470778 0.056568325 -0.10916986 -0.19169535 -0.021157445 0.22183111 -0.14134596 -0.014323574 0.10488146 -0.05916788 0.13963379 -0.08203129 0.05952398 0.071034566 0.12420563 0.06988156 0.018747052 0.23632805 -0.131886 0.09919173 -0.09664749 0.14502338 0.018962663 -0.026858594 0.034206435 0.111085005 -0.09322101 -0.082566775 -0.1849641
60 0.012021468 -0.19223577 -0.09434172 -0.17413758 0.043197744 -0.016514713 0.05103959 0.11638935 0.10616386 0.08794807 -0.08613511 0.13197038 0.077529795 0.002532009 0.015595067 -0.11092813 -0.18178059 -0.038730416 -0.06896956 0.067433275 0.18095416 -0.0683817 0.15995988 0.09959002 0.12160569 0.053026445 -0.061202213 -0.064683035 -0.033280395 -0.029414598 -0.04014957 0.0463469 -0.066553846 -0.043283038 -0.037253186 -0.057386942 0.09741786 0.0048687803 0.0012349983 0.030076783 -0.15510361 0.083927065 0.08189377 0.00049745303 -0.002291498 0.25844726 0.06862332 0.018654658 0.0037169994 -0.062099427 -0.03489228 0.045154896 0.10490889 -0.09869874 -0.040857337 -0.12950286 0.06687302 -0.12078689 -0.18674129 -0.01680532 0.22629823 -0.12125555 -0.026151672 0.108495265 -0.065417424 0.14358433 -0.063807204 0.069263496 0.05604127 0.12554045 0.06122968 0.012274082 0.2505096 -0.117800355 0.09883783 -0.10493627 0.13217528 0.03050575 -0.020850724 0.044904385 0.12737598 -0.11393325 -0.08445584 -0.22284518
50 -0.0011811832 -0.21175723 -0.093522385 -0.18008831 0.040676903 -0.023877582 0.07684995 0.13001394 0.098132044 0.09793316 -0.09933134 0.15116571 0.07784393 -0.001334716 0.019741183 -0.09924862 -0.1669328 -0.03726815 -0.05609042 0.07523944 0.1883592 -0.06758704 0.16975275 0.109927945 0.11866145 0.05357406 -0.058351304 -0.05933221 -0.052600447 -0.03320466 -0.044449057 0.04882533 -0.07952387 -0.04912672 -0.014973021 -0.062192623 0.099165976 0.00917372 -0.010437667 0.019484501 -0.14813203 0.08099652 0.07271529 -0.0026605062 -0.0010826471 0.23992015 0.07856338 0.02666749 0.010847148 -0.05837068 -0.047731806 0.07242635 0.10634211 -0.10791739 -0.034731098 -0.13421147 0.0638876 -0.11131888 -0.1887802 -0.021958794 0.20866026 -0.13493164 -0.011364348 0.09643319 -0.07298392 0.12392115 -0.08260792 0.050935607 0.053755965 0.12655182 0.07415639 -0.006204751 0.271816 -0.13438223 0.11060534 -0.11819659 0.13175292 0.014995403 -0.020719863 0.03472788 0.12102551 -0.113234036 -0.086501546 -0.20792356
36 -0.0111204665 -0.22106653 -0.11244819 -0.21159622 0.06896561 -0.02233683 0.07442549 0.12549427 0.095605746 0.10519769 -0.09626502 0.15864371 0.057047736 0.0023377752 0.017862635 -0.10848542 -0.16419229 -0.041018747 -0.056443617 0.06818424 0.18541698 -0.04793302 0.1602843 0.10224342 0.11820542 0.053914588 -0.06390504 -0.059660498 -0.049358256 -0.031124968 -0.024482913 0.040547766 -0.053579465 -0.026389604 -0.032002416 -0.03983407 0.07936842 0.008964389 -0.008565187 0.023050077 -0.13122524 0.06573359 0.07194445 -0.004374576 -0.0043588965 0.2103267 0.0853356 0.024311343 0.0052609136 -0.046081945 -0.033649076 0.05327163 0.09577625 -0.10354748 -0.025459122 -0.14186685 0.056875154 -0.117353775 -0.19186692 -0.018363923 0.21155633 -0.1271767 -0.021926649 0.108481735 -0.06655615 0.14825071 -0.08287736 0.060044315 0.058431428 0.107649535 0.08497596 0.0046847863 0.25211585 -0.14047715 0.11159665 -0.106034726 0.15105772 0.016807202 -0.022711692 0.043567106 0.12689856 -0.11932739 -0.08681369 -0.22888887
72 -0.016386127 -0.1882063 -0.079004206 -0.16658928 0.06386358 -0.011960263 0.06967079 0.112782046 0.08417033 0.09871435 -0.07604727 0.14682515 0.06537172 -0.01609978 0.03830334 -0.12071274 -0.16368538 -0.033211168 -0.05887464 0.05944198 0.17422283 -0.060252298 0.16728894 0.11677265 0.11639831 0.04913208 -0.067084946 -0.053198 -0.042038154 -0.027369386 -0.018484995 0.058684446 -0.0806091 -0.02593551 -0.013264218 -0.06656343 0.09872181 0.007604857 -0.0006718442 0.035982788 -0.16132589 0.11069312 0.07757449 -0.0070841457 -0.005295846 0.24723734 0.072235286 0.015293042 0.0064471713 -0.0570018 -0.04197114 0.08430475 0.105595455 -0.09788932 -0.049264137 -0.13458864 0.060927037 -0.11971934 -0.17486428 -0.012096542 0.19485627 -0.123750895 -0.039474055 0.1083206 -0.056583058 0.1265031 -0.08330802 0.0477689 0.05307896 0.13064237 0.08140395 0.009035503 0.27429146 -0.13976757 0.123744346 -0.12993108 0.122523606 0.0062366957 -0.030394891 0.042490304 0.12285978 -0.10059907 -0.09941906 -0.20778634
34 -0.029838154 -0.19902723 -0.07222186 -0.1587088 0.06187772 -0.027558036 0.07999729 0.10781061 0.07210105 0.09187473 -0.076794446 0.13510254 0.08115476 -0.028976686 0.024089912 -0.13589874 -0.13744058 -0.037648894 -0.032478865 0.103955 0.16309234 -0.051885914 0.14970757 0.09124397 0.09463933 0.037273277 -0.06621596 -0.043770947 -0.0548621 -0.0076152957 0.003150244 0.056322347 -0.08549852 -0.017203918 -0.016017059 -0.059853703 0.10281502 0.029828135 -0.00902102 0.019299569 -0.16218653 0.10564892 0.09346862 0.010472544 -0.016557977 0.20681626 0.07964802 0.011114486 0.0060540186 -0.03960182 -0.041381173 0.09114972 0.09318269 -0.09968426 -0.039062914 -0.14966533 0.06713192 -0.11220687 -0.17420161 -0.038627695 0.21257433 -0.120918766 -0.040160496 0.1259147 -0.07110691 0.12421196 -0.109560646 0.06995471 0.05970071 0.14134203 0.08921059 0.013070797 0.26102504 -0.14404708 0.13736135 -0.14070943 0.11088222 0.026084488 -0.031140663 0.067214 0.12568262 -0.1386125 -0.10403483 -0.22010183
49 0.00077448646 -0.18621418 -0.081406854 -0.17899042 0.04776927 -0.021841217 0.061802387 0.08461802 0.07604732 0.078164525 -0.059529457 0.12008018 0.053631317 -0.011556043 0.025871463 -0.10252848 -0.15646541 -0.037918963 -0.040642515 0.082114786 0.17514712 -0.053697914 0.14064217 0.08492005 0.11065834 0.041648205 -0.073839396 -0.05396801 -0.041682802 -0.01289308 -0.020587333 0.041836172 -0.055773024 -0.024655018 -0.026013255 -0.053824138 0.09735887 -0.0012039825 -0.007223984 0.03468128 -0.14865834 0.08940393 0.06734404 -0.004087654 0.00032191662 0.264022 0.07136413 0.010133708 -0.009535307 -0.04674373 -0.04486203 0.07189709 0.12498144 -0.100810274 -0.044576738 -0.13831568 0.055367913 -0.116465926 -0.18958443 -0.03830339 0.23111603 -0.1222346 -0.02091838 0.12361637 -0.060931653 0.1484646 -0.089450896 0.05119152 0.077488534 0.120365575 0.08690752 -0.0028072947 0.2758516 -0.15288346 0.11792948 -0.12749313 0.13720974 0.019784952 -0.027423963 0.042971723 0.11886625 -0.09779144 -0.10056416 -0.21969408
73 -0.024019321 -0.21377067 -0.103460066 -0.21472058 0.07291946 -0.027165506 0.07961394 0.13104786 0.09872548 0.103158124 -0.11726674 0.18137491 0.084629185 0.008686653 0.01969479 -0.13047042 -0.20087707 -0.043415163 -0.055115964 0.086683445 0.20251146 -0.066769935 0.15797979 0.07873114 0.11377306 0.07304451 -0.075715095 -0.044851042 -0.037593365 -0.02666589 -0.022082249 0.0523429 -0.05462049 -0.027289897 -0.02059481 -0.04513471 0.07029391 0.005428741 -0.0029530425 0.03458592 -0.14631398 0.06858646 0.06976974 -0.0059115198 -0.020328656 0.20320266 0.067574054 0.03033656 0.006655502 -0.058729142 -0.03415362 0.057006903 0.11056856 -0.07986701 -0.028909007 -0.13608009 0.060988326 -0.10945014 -0.17814124 -0.028784143 0.19166489 -0.104457356 -0.013266678 0.095966265 -0.074500516 0.14823325 -0.07299029 0.05469381 0.062495753 0.10804092 0.094014205 0.009645038 0.24565832 -0.12650374 0.12458628 -0.10432846 0.12234091 -0.0023378297 0.0014182506 0.051783618 0.14995968 -0.11958556 -0.09183259 -0.22316769
68 -0.014543423 -0.17818369 -0.07772949 -0.16882148 0.065105066 -0.014109463 0.057852253 0.11757031 0.0781297 0.09853908 -0.0993284 0.15882811 0.08096356 -0.030644463 0.026033968 -0.12393138 -0.2019859 -0.043497283 -0.049686406 0.08822388 0.2211127 -0.052075915 0.20057644 0.13886145 0.089944154 0.033975273 -0.06790016 -0.049821053 -0.038044624 -0.006082565 -0.024425492 0.04355993 -0.06334099 -0.023951115 0.00012628498 -0.06138207 0.09354029 0.017368248 0.0017673755 0.024843369 -0.13029064 0.09200685 0.065470845 0.0017566936 0.0044395137 0.2351772 0.07047262 0.02039436 -0.03215827 -0.037261683 -0.035675757 0.05764218 0.08707472 -0.075983375 -0.050134286 -0.12516472 0.04490063 -0.11563346 -0.17599604 -0.011130544 0.23020305 -0.12274421 -0.026085153 0.10967486 -0.04419367 0.13132107 -0.096884094 0.06322566 0.08549044 0.13506517 0.072012134 -0.006756991 0.23366168 -0.15263447 0.10177014 -0.09944124 0.16797453 0.031372216 -0.04572755 0.036488254 0.10981704 -0.095508814 -0.09656832 -0.20905696
27 -0.020715585 -0.11178413 -0.043269973 -0.07368386 0.052129593 -0.015259974 0.06009386 0.076543115 0.056810535 0.08443218 -0.07175482 0.10060093 0.05758748 -0.028028872 0.009184514 -0.09074337 -0.11485839 -0.041241363 -0.027786555 0.07470381 0.15651782 -0.053114563 0.14313893 0.09217887 0.10748235 0.050225064 -0.09172987 -0.024628969 -0.040247783 0.011081303 -0.011886046 0.058345977 -0.091773584 -0.040541552 -0.022889258 -0.09264428 0.13358231 0.036909137 -0.017623307 0.015557751 -0.17851372 0.11585694 0.072676316 0.006057942 0.0009467412 0.28595716 0.08489356 0.01480564 0.0036213794 -0.052899502 -0.056363493 0.10727458 0.11282992 -0.10515816 -0.06285976 -0.15548907 0.067436546 -0.12045444 -0.17963175 -0.024114087 0.2043841 -0.13454781 -0.031329982 0.1343775 -0.06727434 0.124926284 -0.13117017 0.09484069 0.07506647 0.15957516 0.08919766 0.032620233 0.29151407 -0.17366749 0.12752187 -0.14359245 0.17248021 0.025567178 -0.045604806 0.081478246 0.10220171 -0.13055639 -0.10820556 -0.23405848
7 -0.0058211097 -0.23866145 -0.09640324 -0.17939192 0.045684047 -0.020533333 0.07355721 0.12179393 0.115928635 0.10675775 -0.10302079 0.1657225 0.09179096 -0.021945743 0.03968722 -0.13352247 -0.15160534 -0.034641575 -0.045682155 0.07057248 0.1634374 -0.06277597 0.15161021 0.100650914 0.1170193 0.03883054 -0.07227729 -0.06650287 -0.05737298 -0.0292394 -0.012207847 0.0707888 -0.10592259 -0.046310484 -0.013529265 -0.05891534 0.096676484 0.016253974 -0.0044869636 0.037448186 -0.15749808 0.09833705 0.08508407 -0.0027469043 -0.0220607 0.24918512 0.08206916 0.0034413266 0.020897578 -0.04941344 -0.047211293 0.08842453 0.09338799 -0.09386949 -0.04752563 -0.13173701 0.0704103 -0.11530106 -0.16901788 -0.018294254 0.20686787 -0.117963485 -0.019209445 0.12436881 -0.08251258 0.11011094 -0.06627474 0.058895968 0.047162537 0.12323812 0.08286164 0.026786573 0.2441322 -0.117889516 0.11524503 -0.12952434 0.12013904 0.020461211 -0.031294424 0.043346073 0.12563421 -0.106225275 -0.10294504 -0.19953845
78 -0.008927819 -0.20144273 -0.06561073 -0.15895979 0.051918313 -0.046384517 0.10050434 0.09052108 0.060397957 0.08968833 -0.07468775 0.09344382 0.076848365 -0.022206241 0.025728205 -0.10332566 -0.11668521 -0.0337945 -0.044129334 0.0748926 0.15375555 -0.062454373 0.13002329 0.096913025 0.108056985 0.03237071 -0.061790045 -0.044326417 -0.039659265 -0.032665383 -0.0013857818 0.06048633 -0.09684958 -0.033114437 -0.06294327 -0.06593073 0.11020409 0.035733648 -0.008461527 0.0019685936 -0.16788973 0.12179189 0.09983213 -0.0055787703 -0.01862025 0.23075126 0.08228557 0.03827423 0.04040017 -0.04260343 -0.04320731 0.11002679 0.104943834 -0.122942984 -0.041281093 -0.14643784 0.098304525 -0.14427489 -0.1978137 -0.025505772 0.19055694 -0.13706157 -0.015189161 0.113792114 -0.063264504 0.10998363 -0.118723266 0.054091856 0.046647355 0.13305753 0.10209788 0.011562958 0.29144645 -0.15008003 0.14178418 -0.13844387 0.09740528 -0.0149493 -0.025976267 0.07595847 0.13623284 -0.13126473 -0.10698017 -0.20552683
5 -0.017505046 -0.21437845 -0.088256136 -0.15648058 0.05904401 -0.025786936 0.07853079 0.117329895 0.09428589 0.08672602 -0.07529397 0.13712052 0.07369149 -0.013696297 0.03162624 -0.12032944 -0.13367954 -0.03300594 -0.045122717 0.08076561 0.1615444 -0.049804933 0.15034159 0.11157479 0.110536106 0.030995822 -0.05574845 -0.06412235 -0.051703274 -0.037503876 -0.023069046 0.052581057 -0.09214239 -0.033750486 -0.014485587 -0.059143007 0.10426423 0.019693522 -0.01183069 0.029733427 -0.1368884 0.0877019 0.077861406 -0.005092622 -0.021329373 0.22144826 0.068707325 0.0050241556 0.0095152985 -0.052115742 -0.044193387 0.08985722 0.107550964 -0.119408056 -0.035137836 -0.15116844 0.078712806 -0.12172761 -0.18448044 -0.02787882 0.21815926 -0.14287436 -0.03363316 0.11734662 -0.068193875 0.119169846 -0.08341609 0.061934844 0.047155146 0.1269961 0.07408928 0.01325772 0.25090703 -0.14145458 0.1251634 -0.13913007 0.11762319 0.018256456 -0.033238325 0.046508104 0.12509649 -0.1244719 -0.104658544 -0.20912333
79 -0.02323846 -0.23094042 -0.0878193 -0.20515458 0.07303515 -0.04972662 0.08660481 0.11776285 0.07895353 0.112525836 -0.09279234 0.14435211 0.08275372 -0.02659957 0.0027983384 -0.10826759 -0.14814666 -0.04875921 -0.029155064 0.0904897 0.16560315 -0.05012945 0.13127206 0.07722702 0.094137795 0.053755593 -0.056515604 -0.03331193 -0.025518212 -0.021176223 -0.017678004 0.06452914 -0.06985963 -0.025309697 -0.056720603 -0.052574374 0.10168993 0.033689238 -0.0033546344 0.018534884 -0.12631486 0.0832601 0.077371426 0.010360954 -0.020088406 0.2093398 0.06966749 0.028004956 0.0030292496 -0.056083273 -0.04640723 0.06744409 0.09106105 -0.08179847 -0.031051507 -0.15182945 0.07226015 -0.120886795 -0.1901835 -0.033413906 0.19953065 -0.12378667 -0.031479396 0.104471244 -0.06470067 0.11947999 -0.11564672 0.06665585 0.084549814 0.12545924 0.108175844 0.013188223 0.26177678 -0.15676816 0.12822539 -0.11646327 0.13950999 0.011614101 -0.032359935 0.06550129 0.1303632 -0.123387605 -0.08825349 -0.23889004
29 -0.05520802 -0.15905692 -0.058995377 -0.108762205 0.072196186 -0.040340826 0.07899009 0.08387265 0.05057611 0.10328075 -0.08941494 0.14968681 0.0565528 -0.023443475 0.0028104116 -0.11867569 -0.14851393 -0.06817369 -0.011875074 0.08432842 0.1602019 -0.049233273 0.1278701 0.07102632 0.057892147 0.049958054 -0.07006369 -0.009570777 -0.014054551 0.007844685 0.002325258 0.05931308 -0.053344492 -0.009643119 -0.04005643 -0.0686274 0.13060042 0.04024143 -0.0018760121 -0.0052363304 -0.16312137 0.109182134 0.068318956 -0.0005520559 -0.00053165783 0.26240602 0.07466373 0.01792536 -0.015139016 -0.049002506 -0.07429434 0.09584249 0.10866075 -0.115051456 -0.068556726 -0.15484127 0.07545789 -0.11013933 -0.18912195 -0.008229525 0.19868083 -0.1529896 -0.04230923 0.10601397 -0.087359495 0.11149004 -0.14900663 0.093061835 0.06707043 0.16040687 0.08192465 0.024120687 0.26209736 -0.16535135 0.13581866 -0.106807545 0.17623939 0.030259576 -0.031639945 0.07794287 0.10359735 -0.14888348 -0.08977431 -0.25894344
28 -0.06546634 -0.12821741 -0.03090066 -0.088072054 0.058383413 -0.027819185 0.07222471 0.064424306 0.034815453 0.08989028 -0.079283714 0.11724232 0.06020668 -0.025532924 -0.010369911 -0.11026245 -0.12640126 -0.066893965 -0.01158593 0.09611727 0.1355037 -0.040465582 0.11852547 0.05006055 0.066224635 0.06958813 -0.07803865 0.018386202 -0.00892388 0.016039949 -0.008812359 0.07754625 -0.050168555 -0.0030601046 -0.035309143 -0.08638465 0.13825755 0.036190055 0.00052164955 0.009595659 -0.18126887 0.097633585 0.07680667 0.025434857 -0.010338609 0.25476164 0.052147895 0.020438083 -0.018934943 -0.049973037 -0.09186173 0.09672285 0.14913619 -0.12105904 -0.053237606 -0.16842559 0.047270093 -0.12994269 -0.19411473 -0.02846446 0.19784404 -0.15070139 -0.030615943 0.10626667 -0.07709752 0.13076484 -0.143852 0.11248631 0.06352906 0.15527146 0.09442234 0.03270693 0.2906093 -0.19784455 0.15157273 -0.1324906 0.1719475 0.047776595 -0.04319644 0.08933434 0.12715492 -0.19094038 -0.10827805 -0.29708943
35 -0.009768181 -0.19769563 -0.09089678 -0.16919842 0.038757104 -0.012922112 0.05633257 0.104843184 0.07963158 0.08768671 -0.0881879 0.14834689 0.06615827 0.0016369893 0.009422084 -0.11063892 -0.15098163 -0.030253736 -0.034261536 0.07584371 0.17969854 -0.05502743 0.14295886 0.093129665 0.10037679 0.053308584 -0.0568564 -0.05164442 -0.05710738 -0.021837274 -0.033921514 0.03936991 -0.07391785 -0.04330755 -0.0054511633 -0.054468412 0.08580751 0.011674135 0.0033605509 0.014881338 -0.14644802 0.071302086 0.073363826 0.009116721 -0.005467716 0.22170562 0.076145135 0.019152638 -0.010910838 -0.060448 -0.039253928 0.052796938 0.09377909 -0.1013605 -0.025531635 -0.15328273 0.06324519 -0.116389856 -0.19557297 -0.034879506 0.23137115 -0.13031818 -0.016483946 0.11461166 -0.0863798 0.13817337 -0.092953645 0.074505806 0.06476804 0.12709737 0.077964514 0.010448107 0.26797423 -0.15087093 0.12049651 -0.12756048 0.15669002 0.029875701 -0.02744424 0.05107895 0.12827179 -0.14287502 -0.09732528 -0.2342519
83 -0.023399185 -0.21246317 -0.095267296 -0.18298407 0.06812492 -0.02086636 0.07193256 0.11491758 0.093659356 0.10446749 -0.08614729 0.15119651 0.06956249 -0.01803778 0.017182834 -0.10802865 -0.16134733 -0.04292 -0.042801246 0.07666262 0.17797698 -0.053351652 0.14599495 0.092641056 0.11901334 0.048657164 -0.06631647 -0.050141793 -0.049630154 -0.024528544 -0.028685044 0.055966835 -0.075588755 -0.02927317 -0.028998306 -0.055394456 0.089196116 0.018275905 -0.010559867 0.022425193 -0.14027363 0.08042086 0.06870939 0.00028581166 -0.0123559935 0.2185885 0.07637825 0.023007179 0.008637293 -0.043935042 -0.036298685 0.06694588 0.09344601 -0.09078746 -0.04033262 -0.14436775 0.06482077 -0.11657462 -0.19136836 -0.031210182 0.21044375 -0.11999104 -0.02971114 0.11274737 -0.060345434 0.12393688 -0.08641151 0.06416079 0.06304925 0.12617658 0.08835405 0.013823154 0.25729376 -0.14390354 0.11939136 -0.11864114 0.13717408 0.015280115 -0.030865237 0.057486583 0.1264468 -0.12708831 -0.096913986 -0.22914293
