84 84
76 -0.084707536 -0.14577891 0.0039816033 -0.03117725 0.07886771 -0.01135571 0.14476213 0.062765986 0.0074534607 -0.026086235 -0.1059039 0.073047325 0.119494215 -0.09636659 -0.06878021 -0.10390405 -0.059555333 0.012423626 0.029386349 0.08587987 0.09543655 -0.1377764 0.08856491 0.027351346 0.12623277 -0.035958037 -0.12273147 -0.04590122 -0.07687749 -0.18890175 -0.008148343 0.013994782 -0.18418907 -0.13900796 -0.051918853 -0.00627944 0.1495441 -0.031666167 0.07935616 0.04324182 -0.11925301 0.05898771 0.18889046 -0.01851939 -0.023891404 0.122922964 0.19132735 -0.03358963 0.018389974 0.045099992 0.011185557 0.0075782854 0.07455412 -0.13005808 -0.11071647 -0.17229591 0.05868386 -0.019835485 -0.17983158 -0.018489582 0.08194581 -0.12006037 -0.0883103 0.13964525 -0.06228371 0.038767014 -0.11319231 -0.029509025 0.07381446 -0.012208275 0.13046733 0.023864392 0.25609118 -0.11377587 0.1051597 -0.09151138 0.115654774 0.06386301 0.017272782 -0.015959537 0.16615275 -0.114410475 -0.14822266 -0.25701895
22 -0.099982545 -0.20612904 0.027339447 -0.061413255 0.081669725 -0.020175308 0.17988375 0.06631948 0.004344734 -0.055629622 -0.18748634 0.09278063 0.16843612 -0.10643866 -0.107940234 -0.13658912 -0.09339071 0.01422443 0.045911904 0.12730357 0.13170147 -0.14812613 0.1026234 0.079352476 0.11270709 -0.028865496 -0.10834906 -0.04582108 -0.07643374 -0.1823583 -0.034792412 0.01079239 -0.16580795 -0.15823169 -0.053531162 -0.017746013 0.13828038 -0.0589815 0.07559841 0.024816742 -0.09684006 0.039012376 0.1484101 -0.008151129 0.007829416 0.13346878 0.14684495 -0.017443731 0.011076917 0.026880762 0.005102237 0.0073177977 0.071316585 -0.109186426 -0.07093937 -0.14744797 0.042303596 -0.025253301 -0.1552964 -0.041344382 0.069961466 -0.10577519 -0.041528296 0.11615546 -0.07681754 0.025652554 -0.09251422 -0.014963866 0.061341386 -0.0019120616 0.11492703 0.02052414 0.2335566 -0.08826968 0.08487961 -0.1024041 0.08942087 0.054150335 0.003733926 -0.025282888 0.15581413 -0.12779225 -0.12928848 -0.24999379
1 -0.10288583 -0.18388265 0.022425676 -0.04693381 0.088751204 -0.02760804 0.17841023 0.08420888 0.012661071 -0.043329224 -0.15013799 0.07523566 0.1570511 -0.11215203 -0.09439259 -0.122453086 -0.0688305 0.017839717 0.037594374 0.11139235 0.12383421 -0.1719599 0.119269215 0.05283113 0.13108796 -0.026603896 -0.11096423 -0.03447527 -0.073622905 -0.20463778 -0.024447832 0.029549127 -0.17187181 -0.12848428 -0.055166505 -0.014180309 0.13038602 -0.051655125 0.08028648 0.036565844 -0.12526555 0.04454738 0.19236186 -0.0015812145 -0.029997244 0.108675234 0.16297674 -0.031496596 0.026396627 0.037932854 0.010642311 0.012287371 0.06384831 -0.09798017 -0.104423694 -0.15643439 0.052083537 -0.012858317 -0.18137066 -0.023429826 0.07622708 -0.10021523 -0.0731289 0.12880546 -0.06599571 0.036695566 -0.07427199 -0.015922023 0.045217242 -0.0021857258 0.11913428 0.02045484 0.22472961 -0.07622382 0.08038117 -0.08015562 0.10573112 0.049147967 0.029111886 -0.019602068 0.17240167 -0.11322617 -0.13447475 -0.23181388
4 -0.12899895 -0.19221938 0.02099911 -0.047574833 0.09878067 -0.025551472 0.17375062 0.087326474 -0.013873621 -0.015874373 -0.118590645 0.056394443 0.13769348 -0.098261 -0.07383018 -0.10635838 -0.07155526 0.0028908574 0.044541497 0.09858028 0.10779897 -0.12795661 0.09931021 0.043957558 0.13850671 -0.03083266 -0.14014831 -0.032644406 -0.07639835 -0.17171545 -0.004814493 0.011457174 -0.16437133 -0.13970438 -0.05730665 -0.013518944 0.16491255 -0.0045781117 0.06550762 0.047453757 -0.10112673 0.042575758 0.158495 -0.014767052 -0.012092614 0.09793831 0.16935007 -0.010527065 0.003999313 0.030756343 0.017439682 0.00059825036 0.056426372 -0.082976796 -0.10184268 -0.1358845 0.045007695 -0.02371966 -0.14936255 -0.0058486117 0.07837653 -0.1096821 -0.06270077 0.13237207 -0.053418066 0.03483254 -0.13762648 -0.0023268077 0.08626609 -0.004322464 0.10578091 0.028371306 0.25110382 -0.1226377 0.08224959 -0.095320426 0.13357715 0.08690672 -0.006339856 -0.011373605 0.16713238 -0.13125588 -0.14855966 -0.28332642
66 -0.13140833 -0.21702327 0.028214574 -0.06351327 0.084781125 -0.017763948 0.18417615 0.08653554 0.009090251 -0.029377317 -0.17864813 0.079883575 0.1701075 -0.10833447 -0.08894944 -0.11224857 -0.06917592 0.019307528 0.03381152 0.104037635 0.08419751 -0.13440152 0.095637664 0.039176926 0.12701938 -0.020240216 -0.09255699 -0.037853632 -0.076653436 -0.19697362 -0.00939011 0.01259589 -0.18303034 -0.16545457 -0.055969484 -0.0052849213 0.14424223 -0.026565088 0.09133492 0.047774274 -0.11886111 0.032711074 0.16861549 -0.008556396 -0.024135029 0.09242423 0.13483691 -0.008358504 0.012150616 0.027421111 0.0051389346 0.014683877 0.0528349 -0.09027258 -0.09119999 -0.13439687 0.03332315 -0.016875375 -0.1552504 -0.0031113864 0.06555035 -0.10234804 -0.04520911 0.11062221 -0.068402424 0.026881287 -0.10150425 -0.006240661 0.068677664 0.009401022 0.11605415 0.032449912 0.23441005 -0.08450015 0.07760765 -0.08932382 0.10641765 0.073191054 0.024314528 -0.011643095 0.1703165 -0.124474265 -0.13373892 -0.2627889
82 -0.12839074 -0.20855962 0.0243991 -0.064127654 0.08642725 -0.0143102715 0.1739465 0.078756325 -0.0034918562 -0.02997646 -0.14841752 0.07018705 0.15910918 -0.11883303 -0.091445774 -0.12817848 -0.080548376 0.028823907 0.030587979 0.10783917 0.11089502 -0.15627192 0.10764052 0.04432258 0.13272138 -0.03405933 -0.09752929 -0.0389678 -0.09158852 -0.21564548 -0.016334452 0.01834561 -0.19060779 -0.17027788 -0.042314608 -0.0035499253 0.14076489 -0.03275825 0.077918135 0.034280922 -0.0934509 0.053300448 0.15130651 -0.022751087 -0.017157195 0.08477795 0.14795907 -0.006526256 0.009970986 0.036344685 0.019073576 0.017341284 0.060591403 -0.110649765 -0.08253259 -0.14672449 0.04675776 -0.019788463 -0.15617372 -0.016844338 0.060207307 -0.104997315 -0.056162804 0.12120946 -0.065300375 0.01458978 -0.07531522 -0.009888141 0.058467653 -0.002016526 0.12284667 0.022613391 0.2341723 -0.08510736 0.08604628 -0.09510635 0.10573879 0.07348125 0.030461445 -0.017082993 0.16585638 -0.12220886 -0.14709744 -0.2558
81 -0.11429111 -0.22427218 0.020603659 -0.06346119 0.094838664 -0.0056545674 0.19060168 0.09833052 -0.0016662645 -0.029789284 -0.1473456 0.07483277 0.15627234 -0.1096816 -0.09063207 -0.11813311 -0.08806957 0.018044284 0.03513953 0.11313076 0.12314445 -0.15525028 0.101901576 0.039425515 0.12901253 -0.02862179 -0.124215946 -0.05060766 -0.08881937 -0.19438036 -0.012467764 0.011146518 -0.17320777 -0.14823282 -0.0585971 -0.012608933 0.13853085 -0.031548884 0.075522795 0.040708344 -0.097091004 0.04352136 0.14239454 -0.027467404 -0.013687525 0.08299198 0.12428629 -0.0012849361 0.008117843 0.035702378 0.015745305 0.011994616 0.059277814 -0.11149993 -0.06931855 -0.12172396 0.026790183 -0.018944776 -0.13754408 -0.021756226 0.081836134 -0.10635317 -0.053129174 0.12477022 -0.06080416 0.034169 -0.084343545 -0.0038032369 0.05166817 -0.013051761 0.11624749 0.027467653 0.23283266 -0.09297829 0.08517114 -0.08562977 0.10810972 0.06134939 0.013957712 -0.023813346 0.19164824 -0.13931899 -0.15150441 -0.2861676
18 -0.10252328 -0.19156054 0.02250727 -0.05514397 0.096305154 -0.010361026 0.19380614 0.08180653 -0.0070901373 -0.03902204 -0.16513917 0.09105308 0.1563113 -0.0983264 -0.10633717 -0.11579038 -0.084724 0.018280398 0.025097001 0.10252761 0.121750414 -0.1360431 0.10831071 0.05493322 0.10567007 -0.024183717 -0.10169497 -0.035677508 -0.063437164 -0.1689836 -0.019551057 0.0177507 -0.16645 -0.13836889 -0.058293115 -0.017211672 0.14876023 -0.0362638 0.08113597 0.056975905 -0.12053895 0.061087985 0.1626958 -0.01934019 -0.012253642 0.13908394 0.17841585 -0.033400707 0.014440778 0.034784526 0.011656151 0.0010299288 0.08244443 -0.11261637 -0.091244504 -0.14622411 0.033206385 -0.04321622 -0.16833849 -0.024815375 0.0883021 -0.112725616 -0.06762094 0.13140734 -0.05288531 0.03395693 -0.08261497 -0.021639222 0.059545737 -0.00853733 0.11337959 0.016017891 0.22774442 -0.09191781 0.09170257 -0.08784987 0.1135421 0.056507803 0.010447767 -0.016072003 0.15480518 -0.10864749 -0.13360505 -0.25600004
54 -0.12965712 -0.19795445 0.031435598 -0.05988276 0.09310648 -0.0063793026 0.18503888 0.07846691 -0.0058803973 -0.040447816 -0.16426316 0.07711867 0.16587836 -0.098668076 -0.09440001 -0.12956981 -0.0867566 -0.00026565633 0.028289365 0.095855646 0.11015829 -0.13414572 0.08838109 0.05573162 0.12915912 -0.03384639 -0.13076624 -0.036518317 -0.089124255 -0.19749077 -0.018297974 0.005158214 -0.16857232 -0.15570985 -0.05096462 -0.011504998 0.14167954 -0.02885352 0.09365585 0.046578147 -0.10317581 0.034947436 0.13724066 -0.017722359 -0.0073539973 0.1073739 0.1395905 -0.004010945 0.0031520457 0.042362213 0.005445195 0.0016609519 0.07622579 -0.105615675 -0.09061566 -0.14259045 0.027639784 -0.023481354 -0.14174515 -0.024139388 0.07381881 -0.10582731 -0.05415329 0.10873032 -0.07320693 0.033936404 -0.101537466 -0.012419918 0.07807666 -0.003934282 0.11683686 0.021048745 0.2321637 -0.09646434 0.08976759 -0.088456765 0.10344352 0.055895995 0.00869975 -0.036550526 0.16972329 -0.12528762 -0.13671887 -0.27661043
19 -0.07994256 -0.16231465 0.022917686 -0.052194674 0.066920996 -0.0014683416 0.15629739 0.0497598 0.0009517385 -0.040630963 -0.14520444 0.091735095 0.1377823 -0.08663586 -0.11250314 -0.10507688 -0.062250413 0.016734662 0.04400057 0.11839989 0.10782489 -0.14360869 0.08830008 0.06471523 0.12790832 -0.033134483 -0.119782805 -0.021606773 -0.06423514 -0.16914827 -0.02607182 0.01773838 -0.20187233 -0.14433707 -0.06200689 -0.016358554 0.13279425 -0.03553252 0.08649574 0.05150862 -0.12159304 0.0539215 0.16407315 -0.017429274 0.005733751 0.13426588 0.1936827 -0.040540427 0.0056492365 0.031495634 0.010103997 -0.0018952942 0.07400708 -0.13521338 -0.09114337 -0.15935163 0.039721947 -0.023716941 -0.16100511 -0.034915686 0.08007245 -0.10094225 -0.0694884 0.12997963 -0.06483084 0.038518302 -0.070730835 -0.023075067 0.061631296 -0.00833923 0.131667 0.0085116755 0.25386465 -0.094670966 0.07697686 -0.10155605 0.119624145 0.065124646 0.017803261 -0.026505671 0.15867044 -0.11865448 -0.15621985 -0.25043726
70 -0.08336973 -0.19605178 0.003912489 -0.04595432 0.07766997 0.0060294843 0.18117936 0.082727954 0.022227237 -0.037544176 -0.17633884 0.09848102 0.16165924 -0.10646541 -0.11019861 -0.1350324 -0.07225037 0.027194256 0.039689545 0.15513746 0.1151802 -0.16365398 0.10641086 0.058683634 0.14332299 -0.039724655 -0.13277312 -0.044634625 -0.07413483 -0.17409164 -0.0147102 0.0067578065 -0.1775239 -0.13145655 -0.04681118 -0.015160312 0.14117646 -0.038339414 0.08000255 0.044449326 -0.11818601 0.047524568 0.14938484 -0.02119784 -0.008168593 0.108559705 0.13099435 -0.03256919 0.0054702167 0.033352308 -0.0020353703 0.00563144 0.07587563 -0.11653108 -0.07662445 -0.13922329 0.03948615 -0.014249562 -0.15662743 -0.018718882 0.07402515 -0.09935381 -0.059036996 0.097595796 -0.063232966 0.044821095 -0.086026214 -0.020919938 0.06302093 0.006113314 0.11445652 0.016666034 0.24324812 -0.09512902 0.08531659 -0.07862593 0.11881531 0.082842164 0.029168662 -0.02522773 0.16194686 -0.1254179 -0.15858285 -0.2437559
15 -0.10402023 -0.16449603 0.024105817 -0.0577103 0.064942144 0.0060265134 0.15609077 0.046650074 -0.0009766755 -0.026476223 -0.13429658 0.06882661 0.12590514 -0.07862886 -0.07827286 -0.110084236 -0.068991296 0.007755158 0.020684207 0.09357255 0.10312582 -0.13558002 0.08574737 0.06082391 0.13399786 -0.03342414 -0.107121944 -0.02161147 -0.08561874 -0.22485355 -0.02667829 0.021205222 -0.19694753 -0.16645825 -0.052666977 -0.0010108411 0.15763529 -0.041303053 0.11458719 0.048704877 -0.13303274 0.059507232 0.18163168 -0.0117546655 -0.009122773 0.13770823 0.1852767 -0.02342374 0.016825922 0.037482843 0.012878447 0.009321469 0.0709075 -0.10943734 -0.10871654 -0.17700373 0.03934195 -0.041884206 -0.17529602 -0.025988648 0.07495965 -0.09777812 -0.06180951 0.10886218 -0.0745523 0.038114004 -0.104383074 -0.01851985 0.07222616 -0.0049182223 0.12834172 0.02049094 0.24331298 -0.09717444 0.08641678 -0.09970538 0.0976782 0.057141483 0.020327587 -0.02530763 0.14719003 -0.10245199 -0.13344708 -0.23466699
67 -0.0989286 -0.19182569 0.021116646 -0.04842411 0.06999746 -0.0052844943 0.15002954 0.06288429 0.013267249 -0.025534831 -0.13745117 0.07616618 0.16995706 -0.11278244 -0.099253856 -0.12395441 -0.07014664 0.023630017 0.050107796 0.13728216 0.10793215 -0.16418627 0.10792198 0.045482308 0.13301218 -0.026578933 -0.1325405 -0.049274046 -0.079515845 -0.19595468 -0.009528987 0.0065668467 -0.19777079 -0.15054926 -0.053891376 -0.010734441 0.13726586 -0.026824944 0.09239965 0.046332356 -0.1176238 0.046927933 0.16378222 -0.011436983 -0.0032960346 0.1019514 0.14515093 -0.011319522 0.015225771 0.028877648 -0.0002995243 -0.00012253235 0.060635407 -0.12317358 -0.08981226 -0.12973784 0.046933033 -0.010831622 -0.14576407 -0.012219108 0.07447387 -0.100124255 -0.052446365 0.119020484 -0.07292207 0.04191115 -0.097690694 -0.018149782 0.07413941 0.007878046 0.10604488 0.029831639 0.23990919 -0.09800142 0.08002291 -0.07874086 0.100431815 0.07985107 0.019218022 -0.022188896 0.16754714 -0.13116509 -0.15716417 -0.25347102
63 -0.11772038 -0.2268142 0.042698614 -0.06774838 0.09047147 -0.009870102 0.18155062 0.06830817 0.0043463665 -0.036941767 -0.19015749 0.09362346 0.16326249 -0.11604754 -0.0848064 -0.12618029 -0.08593314 0.010961903 0.029497111 0.11134722 0.11868754 -0.14510478 0.09723961 0.053485464 0.12827253 -0.033819534 -0.10614645 -0.040780537 -0.080739886 -0.21529107 -0.017498525 -0.0001777575 -0.17594372 -0.15822709 -0.06781577 -0.011693349 0.14242616 -0.023798924 0.08921037 0.05505854 -0.09232086 0.056090362 0.15219073 -0.01858449 0.00015056395 0.1201707 0.13739328 -0.032926045 0.0044196853 0.045406476 -0.0031928301 0.019102078 0.086697705 -0.11310899 -0.092223205 -0.14127621 0.033952247 -0.02414678 -0.162718 -0.011524666 0.07869885 -0.119189605 -0.05782024 0.11969893 -0.057100087 0.02752275 -0.089600526 -0.01757603 0.06700333 0.0018018627 0.09839634 0.014121482 0.21519798 -0.08696347 0.081426986 -0.08286147 0.10461942 0.07386324 0.026256954 -0.029002773 0.13717578 -0.11047601 -0.12849155 -0.24547532
2 -0.11313223 -0.18093985 0.028623648 -0.046264365 0.09158076 -0.011832682 0.19761501 0.09001988 -0.012563651 -0.03978378 -0.16276553 0.08807988 0.16819878 -0.11100251 -0.10216688 -0.1360836 -0.09920394 0.01881094 0.03458881 0.10882856 0.12570468 -0.14058846 0.11162545 0.048931837 0.10598954 -0.028880958 -0.12988901 -0.041723814 -0.06565203 -0.15454976 -0.001058629 -0.006014977 -0.14624016 -0.1089697 -0.047411878 -0.0052256365 0.15565407 -0.023115689 0.07445016 0.04318625 -0.10340207 0.055822503 0.16132204 -0.015992802 -0.019857356 0.110822074 0.17518163 -0.019796912 0.0046874788 0.034321234 0.02105284 -0.0019369621 0.074140444 -0.07973344 -0.10121986 -0.13258475 0.03395293 -0.020780949 -0.16096464 -0.005600108 0.080588296 -0.11092308 -0.05187736 0.13940021 -0.05474879 0.03930838 -0.11878806 -0.012118123 0.06688915 -0.017299911 0.093978815 0.01442175 0.22824095 -0.10581636 0.08639232 -0.08375353 0.13375235 0.0632016 0.014208743 -0.008694447 0.15798153 -0.13585044 -0.14425331 -0.26883882
32 -0.107461534 -0.17795277 0.0045906655 -0.050883178 0.07810954 -0.0085658515 0.1709322 0.063561186 0.016033864 -0.03608597 -0.15160045 0.07792778 0.14137805 -0.09016678 -0.09281573 -0.1093287 -0.07592109 0.009908547 0.01744054 0.095659606 0.107083365 -0.12609273 0.100879736 0.052891105 0.11824803 -0.028776234 -0.107394844 -0.035605554 -0.08047133 -0.16545218 -0.029334309 0.02143724 -0.15850055 -0.15051344 -0.052512575 -0.0115976725 0.13529642 -0.037953667 0.07257948 0.043769233 -0.120009 0.04939288 0.15137833 -0.017223623 -0.019272657 0.12941799 0.1842387 -0.012318636 0.025154227 0.03206415 0.011037198 0.007107563 0.068873554 -0.113457575 -0.10003489 -0.1776507 0.043931607 -0.04559892 -0.17520934 -0.04423555 0.0854531 -0.1040289 -0.07556744 0.13552666 -0.07549283 0.048570666 -0.08935217 -0.00810481 0.055513274 -0.011857193 0.12561415 0.027176987 0.24681851 -0.095537096 0.0866866 -0.09836944 0.09760118 0.05364077 0.008126259 -0.032917764 0.17890224 -0.121941894 -0.13406621 -0.2649186
69 -0.11910797 -0.23116781 0.007943808 -0.045874722 0.09948738 -0.0014176165 0.21828857 0.10956028 0.025093876 -0.05146343 -0.17561136 0.10381758 0.15963985 -0.090396576 -0.10738987 -0.11818538 -0.08573471 0.028928088 0.04696703 0.12549803 0.13368535 -0.17072165 0.14221591 0.04799504 0.14244711 -0.038804833 -0.12713523 -0.06123983 -0.08624211 -0.20095576 -0.027207179 0.014399428 -0.16749509 -0.1328804 -0.035697073 -0.009431719 0.14337134 -0.043366935 0.061168212 0.05439613 -0.115034424 0.052569572 0.18435569 -0.026626589 -0.017257057 0.11755114 0.18922505 -0.033329714 0.039212197 0.022850603 0.011889694 -0.015306766 0.055216677 -0.10182701 -0.084841006 -0.12981819 0.050529227 -0.031475596 -0.15579405 -0.022982799 0.06544144 -0.08584302 -0.06132433 0.10649213 -0.048398096 0.04819345 -0.07074584 -0.017656805 0.024848778 -0.01924806 0.11114854 0.017451832 0.199447 -0.07855953 0.08207517 -0.062473718 0.09213903 0.039914414 0.018760873 -0.024424832 0.15808257 -0.10683205 -0.12745391 -0.214677
24 -0.10617348 -0.19265883 0.037122138 -0.04858343 0.09100175 -0.02422977 0.15700804 0.06995521 0.005690047 -0.041512657 -0.15653872 0.08194254 0.18666546 -0.13594267 -0.10559725 -0.13348766 -0.090418346 0.016899938 0.038219593 0.1073072 0.11641526 -0.1604874 0.11468834 0.07333948 0.13036284 -0.019789154 -0.09951002 -0.04302904 -0.08137825 -0.22124837 -0.027778395 0.016567545 -0.19918934 -0.17254208 -0.059828017 -0.010001471 0.1455442 -0.043897405 0.08703247 0.040566556 -0.1105399 0.0639163 0.1867802 -0.0030484735 -0.023017986 0.12510125 0.17016737 -0.009128695 0.024439216 0.03624995 0.018162686 0.022642046 0.06926733 -0.111067414 -0.09373337 -0.15660661 0.053115286 -0.017330363 -0.18623035 -0.024884604 0.07101758 -0.114978544 -0.06792335 0.13947843 -0.07418425 0.016774263 -0.06886241 -0.012731656 0.059839174 -0.0091538 0.118111715 0.026014982 0.19188878 -0.071931235 0.0694017 -0.071678825 0.0889352 0.03970804 0.031182492 -0.018980911 0.15074901 -0.094123304 -0.11764394 -0.21204782
38 -0.098292254 -0.20524122 0.023169639 -0.072412394 0.08754242 -0.008685468 0.17642374 0.074377045 0.017437596 -0.028894354 -0.14863634 0.07543718 0.16364788 -0.09626538 -0.09946233 -0.12802267 -0.07983106 0.01851221 0.036702387 0.11458523 0.11569341 -0.1558574 0.10888204 0.05946653 0.13424052 -0.01963082 -0.11680995 -0.048005357 -0.08820967 -0.20810203 -0.023236293 0.013809241 -0.17922483 -0.17419265 -0.050027356 -0.014122022 0.1426074 -0.054734856 0.085407875 0.027035592 -0.11740696 0.05996497 0.15797333 -0.020451678 -0.00051622465 0.12089083 0.15995549 -0.011793818 0.025550993 0.033684336 0.0013787121 0.0033720445 0.056193482 -0.12455066 -0.07030793 -0.1392459 0.053896658 -0.029194385 -0.14455807 -0.020842822 0.05829584 -0.11099199 -0.044381876 0.09309516 -0.06180821 0.042208303 -0.07519754 -0.01162254 0.041053776 0.00806753 0.10884046 0.024515016 0.22658725 -0.10080495 0.07329177 -0.094983324 0.09578733 0.054389242 0.009437389 -0.016039684 0.16337496 -0.12522826 -0.13526317 -0.24012882
62 -0.101520605 -0.18615164 0.012592331 -0.056188263 0.07731698 0.0019361792 0.17813139 0.08104834 0.015517048 -0.033816755 -0.1487445 0.078911245 0.1531766 -0.09039341 -0.10712539 -0.11597661 -0.07732042 0.008104925 0.029520877 0.088835455 0.09274693 -0.12659533 0.088802725 0.045168445 0.1402908 -0.03259114 -0.123862654 -0.04609167 -0.0828856 -0.17219658 -0.02508658 0.003210355 -0.1776536 -0.16136996 -0.055872977 -0.010242092 0.15677918 -0.02205357 0.0872258 0.051543538 -0.1225285 0.052437145 0.14639369 -0.02522897 -0.0061845435 0.1062632 0.15923375 -0.008558309 0.017407956 0.032705966 -0.0019935584 0.005169313 0.06575806 -0.11035294 -0.0871271 -0.14426959 0.025484255 -0.034139473 -0.13752706 -0.02301409 0.0909103 -0.11034912 -0.063411854 0.11374382 -0.06744137 0.054416418 -0.096352234 -0.009429759 0.06621382 -0.014560801 0.11532855 0.015388685 0.252356 -0.1069403 0.084638044 -0.09393638 0.117137834 0.05159343 0.003307423 -0.024663176 0.18058583 -0.12512259 -0.14450768 -0.27703628
68 -0.101497516 -0.19025661 0.021726258 -0.04446241 0.103676625 -0.0032401085 0.1784352 0.09133534 -0.011146932 -0.043725815 -0.15791248 0.09850196 0.16066654 -0.11469425 -0.084734954 -0.12940256 -0.09520373 0.015103968 0.037183113 0.11168529 0.1147658 -0.140192 0.0946693 0.051145863 0.118097216 -0.030752648 -0.11974249 -0.03687473 -0.08143355 -0.1975911 -0.01876699 0.009473729 -0.17304312 -0.1368521 -0.05029021 -0.01037251 0.15619504 -0.036219362 0.086913355 0.053439002 -0.09602032 0.07237333 0.1628441 -0.030698659 -0.012542967 0.11862312 0.16007282 -0.015614323 0.0027802119 0.049553465 0.010686506 -0.0024336935 0.07397374 -0.113594964 -0.09027004 -0.14839424 0.0372584 -0.022492936 -0.15489055 -0.032297134 0.08187723 -0.12315499 -0.04621662 0.12215388 -0.049906034 0.030220583 -0.101577796 -0.026413511 0.07044765 -0.008020356 0.10905572 0.008513448 0.20847082 -0.098475665 0.08532218 -0.07548661 0.105133474 0.03967031 0.015075551 -0.022097163 0.15732552 -0.11395152 -0.14187734 -0.2531483
21 -0.16286561 -0.23457408 0.02831679 -0.071375675 0.10246676 -0.014889923 0.22336955 0.09037364 0.0031881726 -0.040056594 -0.1684222 0.07801538 0.14549886 -0.10765514 -0.10037358 -0.11726327 -0.07209269 0.026675858 0.025267432 0.09622939 0.10183936 -0.11708418 0.095137335 0.02751597 0.1299837 -0.033930797 -0.12036453 -0.060131334 -0.08259566 -0.16757792 -0.010321509 -0.004777968 -0.15960881 -0.14815491 -0.058593385 -0.014281706 0.14165913 -0.02733741 0.0629128 0.034875333 -0.10583464 0.046528254 0.1431226 -0.015616294 -0.016681831 0.08278737 0.1510034 -0.0041814777 0.020435598 0.011055257 0.017968075 0.0024152726 0.060624156 -0.07864296 -0.078406855 -0.10777134 0.031145042 -0.038333386 -0.12970074 0.0029083393 0.06062244 -0.08156671 -0.038457666 0.12802728 -0.05238126 0.03977114 -0.098326564 -0.0030991603 0.062326424 -0.01691541 0.12085454 0.020581637 0.24720992 -0.09684019 0.08200831 -0.09804358 0.120486446 0.0731495 0.011963194 -0.0056184963 0.17916144 -0.14767914 -0.15258315 -0.29150856
52 -0.11207434 -0.19168548 0.013401419 -0.053212572 0.0943189 -0.013896377 0.22755358 0.0826057 0.002656892 -0.037928525 -0.15312158 0.095950246 0.14493705 -0.099811725 -0.10665546 -0.123472996 -0.07656092 0.03655358 0.027560605 0.09945877 0.12316607 -0.13167176 0.10023736 0.036164638 0.11388391 -0.030843724 -0.11892015 -0.042069566 -0.077650055 -0.15880607 -0.017190963 0.021102548 -0.1673557 -0.12280248 -0.039501205 -0.010537525 0.14226416 -0.024423733 0.06925377 0.0428737 -0.103488594 0.066640295 0.14449458 -0.026774323 -0.010796278 0.11685941 0.17229758 -0.016740829 0.0108502805 0.018669758 0.0052934717 -0.011171204 0.06896537 -0.1130088 -0.08386454 -0.14430478 0.048106845 -0.048667174 -0.15040481 -0.03515256 0.089241855 -0.09788103 -0.0710353 0.12201365 -0.053375207 0.040667083 -0.083044864 -0.017790964 0.052097872 0.005179573 0.113962434 0.019176029 0.24015956 -0.09845318 0.083766975 -0.0971818 0.10330177 0.054944556 -0.01086604 -0.023203472 0.16609687 -0.1307168 -0.15090884 -0.2785739
16 -0.1271796 -0.2258468 0.03431306 -0.06830597 0.10709329 -0.0067151724 0.16832148 0.08216993 0.0025922935 -0.036572814 -0.15496184 0.08253859 0.13152972 -0.08816859 -0.07560753 -0.112579666 -0.088475205 0.0036512816 0.02178748 0.07874514 0.10503789 -0.13847956 0.10012718 0.042513214 0.12134738 -0.023320897 -0.07277422 -0.040136103 -0.08149253 -0.21354559 -0.03331892 0.00858728 -0.17160738 -0.17998204 -0.05825573 -0.00048181246 0.13749297 -0.042471457 0.07443508 0.036679972 -0.093312725 0.07401499 0.16117357 -0.03706871 -0.008974914 0.11574925 0.16692337 -0.016033817 0.022399012 0.049473092 0.015233489 0.018046182 0.07755699 -0.123886086 -0.07457439 -0.15077342 0.05014233 -0.032419965 -0.172604 -0.022852682 0.07630293 -0.13129836 -0.06651528 0.12132439 -0.059542563 0.023085373 -0.07226394 -0.013300175 0.03495191 -0.01159244 0.13434057 0.013736436 0.21529873 -0.07846327 0.093283646 -0.09634066 0.10799799 0.047703896 0.024426874 -0.010797224 0.16202468 -0.11841778 -0.13031143 -0.25602788
44 -0.097459994 -0.17508154 0.021085434 -0.04773199 0.08373991 -0.00069889316 0.15325694 0.06706349 0.002005822 -0.040492196 -0.1554433 0.089150384 0.15608957 -0.09807983 -0.09147222 -0.13022113 -0.08913156 -0.0025893138 0.040140856 0.115008205 0.113152094 -0.14505479 0.09083128 0.06500088 0.13386327 -0.029522372 -0.11651002 -0.032095715 -0.08384039 -0.18828186 -0.019328814 0.012981435 -0.1727675 -0.13974334 -0.048243787 -0.013088473 0.1273385 -0.024272675 0.0855739 0.038304415 -0.11418759 0.04945118 0.13688648 -0.018779779 -0.0061818105 0.12330085 0.16348816 -0.00021373594 -0.0023771902 0.05019239 0.0087317275 0.009202468 0.07041575 -0.13175148 -0.09571783 -0.17190205 0.035944946 -0.024055025 -0.15618795 -0.04206949 0.08730649 -0.11590901 -0.057503838 0.13334405 -0.074105896 0.0459646 -0.10108092 -0.010481262 0.06807089 -0.001454719 0.11612246 0.013602027 0.22086479 -0.08877182 0.08524581 -0.08910986 0.09924989 0.04516726 0.014521027 -0.03149201 0.16650844 -0.12976241 -0.13992424 -0.2695538
75 -0.059873685 -0.1368764 0.0045989654 -0.056064144 0.07130423 -0.0029326358 0.14427237 0.068778366 -0.00024354507 -0.041719854 -0.1330577 0.06760255 0.119362906 -0.07970954 -0.090205595 -0.105115466 -0.059208766 0.017544908 0.031327076 0.10004588 0.10141568 -0.1328232 0.08666481 0.04467771 0.12062433 -0.03513125 -0.10841541 -0.024281144 -0.07557034 -0.18529633 -0.026849624 0.018046523 -0.18994878 -0.15710832 -0.055058874 -0.014278482 0.14575064 -0.051622715 0.074645154 0.04441151 -0.12221603 0.04880843 0.18269075 -0.02161334 -0.01031238 0.12566046 0.19798626 -0.03000116 0.024900518 0.0378046 0.012282964 0.013512931 0.074459046 -0.13003615 -0.088899456 -0.16034454 0.050472174 -0.022360198 -0.1778913 -0.02313152 0.07123016 -0.12530804 -0.05491664 0.13136598 -0.07583341 0.03982615 -0.07265706 -0.02378824 0.052771505 -0.012082939 0.14349982 0.021004336 0.26103657 -0.09807411 0.094259106 -0.11057048 0.11034769 0.0615809 0.025932292 -0.014396317 0.18279849 -0.1250784 -0.1582421 -0.2613726
20 -0.07381437 -0.14965865 -0.0003938685 -0.04783458 0.07041507 -0.0046247807 0.17105062 0.07021715 0.008335572 -0.037537318 -0.16097902 0.075398885 0.14093696 -0.090647876 -0.10804715 -0.11669057 -0.07000676 0.030441537 0.014749447 0.0969637 0.111529656 -0.13273193 0.10685564 0.05306674 0.11530085 -0.017502382 -0.09782 -0.041670524 -0.07500389 -0.15716496 -0.024967521 0.020354334 -0.16373986 -0.14843498 -0.03489284 -0.010739625 0.14425017 -0.044841148 0.064891405 0.0346615 -0.12016502 0.0519094 0.13846697 -0.01742974 -0.0049979906 0.11479407 0.16488491 -0.014199314 0.022369971 0.019092103 0.004251724 0.009517695 0.08101666 -0.11885005 -0.076589555 -0.14925486 0.044704795 -0.051268235 -0.17484365 -0.023328574 0.088164814 -0.11657967 -0.06267213 0.1282316 -0.07254268 0.040871292 -0.073517494 -0.011241135 0.051448543 -0.0012396217 0.123096496 0.036447003 0.26038924 -0.10471251 0.0932625 -0.101792894 0.1142646 0.06958615 0.0022299006 -0.012828912 0.18824607 -0.14024268 -0.15990116 -0.28807
57 -0.10119716 -0.18775803 0.013404807 -0.078016385 0.09498838 0.0031748416 0.19184907 0.087623194 -0.0032465002 -0.041808017 -0.17406704 0.0779665 0.1721892 -0.10520479 -0.11696784 -0.13706061 -0.074083626 0.019420078 0.027719585 0.10395471 0.102215864 -0.12032492 0.08726476 0.05380373 0.10195438 -0.0075919004 -0.10315677 -0.024574481 -0.07286151 -0.15880111 -0.019776652 0.02022236 -0.16914962 -0.1547433 -0.051988937 -0.017708216 0.13550536 -0.05557834 0.081426814 0.040818308 -0.13103603 0.049004104 0.15041909 -0.02153506 -0.008946158 0.12985028 0.16709293 -0.0143052265 0.022356907 0.04068492 0.0039543738 0.010162544 0.06357435 -0.12933512 -0.0761072 -0.15769888 0.027998595 -0.034031082 -0.16124146 -0.02740149 0.06789278 -0.11055099 -0.046541903 0.122236565 -0.0646239 0.034076385 -0.06782146 -0.0066265306 0.04084922 -0.005738072 0.119594894 0.034510795 0.22529864 -0.09099873 0.084862284 -0.10411845 0.10028952 0.047591604 0.017676167 -0.012678253 0.17182013 -0.12243083 -0.13247082 -0.25322342
3 -0.118469164 -0.17859124 0.032223977 -0.05854408 0.078745365 -0.0015181855 0.16919655 0.061796524 -0.01664873 -0.037888627 -0.116616815 0.05730659 0.12548709 -0.09191651 -0.088993244 -0.11461018 -0.077543624 0.011132367 0.018172625 0.096411556 0.113270804 -0.13602301 0.09833058 0.06894505 0.13867773 -0.028017845 -0.117881685 -0.028810322 -0.078947395 -0.19296068 -0.025329743 0.006258194 -0.2142104 -0.1665178 -0.06502962 -0.018578071 0.1556735 -0.03376722 0.09037085 0.04615689 -0.116146535 0.071920685 0.15498298 -0.0147801135 -0.0061803446 0.10346502 0.16475205 -0.01207375 0.0035300797 0.038116347 0.016557064 0.0003347435 0.07308278 -0.1057505 -0.08383593 -0.1441765 0.026632132 -0.03806305 -0.1411511 -0.02620686 0.069600046 -0.095498435 -0.061064836 0.12112841 -0.06249341 0.03270832 -0.08608567 -0.010458618 0.07050927 -0.016533118 0.13211155 0.0073971823 0.25213996 -0.098021045 0.09539196 -0.10679769 0.12199147 0.046347726 0.021081632 -0.022447163 0.16402611 -0.12236166 -0.15463996 -0.2666653
11 -0.09421606 -0.16432452 0.014022981 -0.044984825 0.079143524 -0.0060977875 0.13480069 0.06908328 0.0053619547 -0.0333867 -0.13181867 0.06323558 0.14015388 -0.08109043 -0.08901589 -0.12325375 -0.0714376 0.008101723 0.02832809 0.09015953 0.11003788 -0.1440297 0.110728376 0.053037934 0.09580761 -0.020079821 -0.10137847 -0.033307135 -0.074247 -0.16586986 -0.0080305245 0.018099338 -0.1624693 -0.15852377 -0.046898093 -0.01216847 0.15410168 -0.02797312 0.07673911 0.04588178 -0.12142356 0.053368866 0.16874759 -0.01681225 -0.01423237 0.14015 0.19109286 -0.012750516 0.019827627 0.042972766 0.008993707 0.008942393 0.07885971 -0.12782489 -0.09840217 -0.1683861 0.052424487 -0.034863837 -0.1927643 -0.020202614 0.08529238 -0.13292286 -0.06574863 0.14814153 -0.072999805 0.035062768 -0.10482827 -0.01622906 0.06687915 -0.0030295367 0.11121118 0.03537762 0.23396212 -0.10266857 0.09589137 -0.09837701 0.106695555 0.06228993 0.004529851 -0.014296415 0.1698626 -0.123546444 -0.13798603 -0.26661983
17 -0.116121955 -0.18552823 0.02431753 -0.04897235 0.102371916 -0.0062296577 0.18703422 0.08198926 0.001389935 -0.04585005 -0.14801091 0.09222053 0.17931917 -0.100601986 -0.11179987 -0.13174236 -0.09467735 0.005475116 0.033636265 0.11130663 0.14468457 -0.16463937 0.12649089 0.07785834 0.10502679 -0.0134098865 -0.117634945 -0.04124667 -0.07921735 -0.1703045 -0.01625089 0.0260192 -0.18276307 -0.148035 -0.050613727 -0.025561417 0.13711171 -0.043934047 0.08242408 0.052429136 -0.1179834 0.052822296 0.13820897 -0.01941068 -0.0061719264 0.12923308 0.17723747 -0.0011332732 0.008877782 0.044902503 0.017637817 -0.006239732 0.07175744 -0.13781682 -0.08172922 -0.15833941 0.034635082 -0.028361546 -0.14874396 -0.049289282 0.08010448 -0.09719615 -0.06478952 0.120701656 -0.06191872 0.04118452 -0.07357214 -0.021065222 0.05461038 -0.0050057815 0.11455211 0.013501702 0.21150824 -0.09175413 0.08683952 -0.08444949 0.08803674 0.022201423 0.0053119347 -0.03684985 0.16635178 -0.117005356 -0.12725732 -0.24506652
42 -0.1296753 -0.20056435 0.025760947 -0.07005106 0.085206665 -0.0036868565 0.18703385 0.07005264 0.0074518565 -0.022006303 -0.135992 0.0727165 0.14063725 -0.079856925 -0.09741226 -0.11820077 -0.06981081 0.006273661 0.029754 0.106253974 0.122420356 -0.14863116 0.096848324 0.051869772 0.12764297 -0.03409532 -0.10800961 -0.030619375 -0.07887149 -0.16768406 -0.02078189 0.01590463 -0.17111337 -0.15249094 -0.045482308 -0.00697642 0.12622845 -0.026972987 0.077346034 0.034448773 -0.10189001 0.048662122 0.12269051 -0.025011376 0.009457501 0.1104357 0.1654839 -0.0143097695 0.006675176 0.04000419 0.0122521315 -0.00337304 0.07406875 -0.12365494 -0.085268475 -0.15238492 0.044978946 -0.035512812 -0.15925169 -0.03488874 0.081279814 -0.099547066 -0.05769835 0.1124172 -0.0665069 0.039802693 -0.099536926 -0.015796565 0.06206068 0.0033098757 0.13108285 0.017152533 0.26698285 -0.10343803 0.095249385 -0.11535109 0.10903461 0.07311378 0.011424441 -0.020314045 0.16289376 -0.13055079 -0.14655864 -0.2646604
25 -0.13605775 -0.20422582 0.019900048 -0.074830286 0.08538748 -0.017477207 0.18517897 0.07398028 0.0190988 -0.03198122 -0.1437062 0.06600179 0.14025725 -0.07408954 -0.08916727 -0.11142721 -0.06445559 0.0038792742 0.03411869 0.09431365 0.10440186 -0.13607612 0.09877936 0.040981576 0.111227795 -0.02781626 -0.10374338 -0.031995814 -0.080074884 -0.16259827 -0.011956857 0.018792931 -0.14778215 -0.15205085 -0.0488146 -0.010872775 0.110347785 -0.019044712 0.06817112 0.036196858 -0.10220455 0.03668396 0.13373227 -0.025555385 -0.00023326969 0.108100034 0.16482753 -0.0012784072 0.0165422 0.031013789 -0.00067965226 0.006352478 0.06312288 -0.10999505 -0.096405074 -0.13842681 0.046920348 -0.032901548 -0.1464737 -0.021404702 0.075321235 -0.10478769 -0.05671033 0.12503786 -0.08551877 0.042110845 -0.10018651 -0.010879358 0.063637316 0.011021402 0.11943998 0.026780397 0.2750847 -0.10447425 0.088418856 -0.11993018 0.107223086 0.07323859 0.006854591 -0.027810628 0.19624268 -0.14270179 -0.14764301 -0.30206314
53 -0.07882316 -0.1604881 0.019780764 -0.049494185 0.084259346 -0.006286266 0.15257443 0.07873491 -0.028040495 -0.026392484 -0.1328855 0.07038075 0.11853659 -0.09070391 -0.084175795 -0.09869339 -0.05421145 0.013224932 0.02616829 0.086473495 0.0972168 -0.119754724 0.06700587 0.041697122 0.11154921 -0.038448688 -0.08761948 -0.021856414 -0.062043916 -0.1747425 -0.01796578 0.014710407 -0.1879943 -0.1565952 -0.06723933 -0.0066371667 0.17621914 -0.02891842 0.09142902 0.061487783 -0.11954569 0.068558924 0.16956358 -0.023599781 -0.012895488 0.121848546 0.17382148 -0.029301725 -0.0035283219 0.03647418 0.01978731 0.0023298291 0.08957081 -0.10454172 -0.09247707 -0.15857542 0.028080754 -0.03466336 -0.1685739 -0.020195788 0.087344125 -0.12574483 -0.061001055 0.127933 -0.064501844 0.025150051 -0.10262168 -0.023906432 0.080547094 -0.02160192 0.1347557 0.019955207 0.25013655 -0.09775955 0.10202249 -0.101749815 0.11804381 0.060849424 0.013459282 -0.019168152 0.17119575 -0.13169077 -0.16091004 -0.28659523
45 -0.08612747 -0.15656659 0.014735971 -0.044438664 0.072776176 0.010571639 0.16638769 0.055936307 0.022454083 -0.028536525 -0.1535748 0.07978085 0.16608062 -0.09528236 -0.10580272 -0.13209821 -0.06432838 0.009601138 0.019240713 0.10494372 0.10525475 -0.14866559 0.10330752 0.052374605 0.11123311 -0.01704153 -0.11410076 -0.045728073 -0.08051581 -0.17129098 -0.012717634 0.01365459 -0.18114607 -0.14937788 -0.044148628 -0.0056170514 0.1382409 -0.02859691 0.097188026 0.041470315 -0.12917154 0.050077453 0.15374452 -0.014483295 -0.0029617155 0.11885703 0.16585155 -0.011335137 0.02193908 0.043411557 0.00207013 0.007478023 0.07427181 -0.1229284 -0.10009804 -0.160368 0.047171563 -0.035993695 -0.1621381 -0.026852263 0.07872112 -0.106546775 -0.06594868 0.11847249 -0.07976437 0.052644983 -0.10451985 -0.018273856 0.062283356 -0.0016498195 0.10524773 0.03317311 0.23311922 -0.10378516 0.098090194 -0.08776086 0.09279379 0.061313033 0.0072014807 -0.025695639 0.1738589 -0.12980501 -0.13936187 -0.25993508
43 -0.11502616 -0.19133244 0.01679132 -0.06503513 0.1082526 -0.012951616 0.17857625 0.075135745 0.0014538874 -0.036117733 -0.1398616 0.080937505 0.121133685 -0.09251274 -0.08073576 -0.11589128 -0.07579075 0.023666019 0.019222561 0.08927621 0.10778845 -0.15077329 0.10577028 0.040407296 0.108278744 -0.020038545 -0.10342432 -0.03481279 -0.06895742 -0.1981477 -0.016936306 0.026469445 -0.16870326 -0.14343654 -0.049765088 -0.012391931 0.13216212 -0.04348562 0.07667284 0.03407454 -0.09566251 0.056676086 0.17596845 -0.015058171 -0.025988717 0.12304134 0.17480569 -0.023283608 0.025715714 0.021861251 0.010357944 0.0073371474 0.07258563 -0.1193073 -0.08857702 -0.15776643 0.07208878 -0.031111877 -0.19305499 -0.018916508 0.0706885 -0.116230786 -0.06686153 0.13591431 -0.061405163 0.03102355 -0.08266823 -0.028325941 0.058941413 0.012779512 0.13609518 0.038647916 0.2485683 -0.1004774 0.08029212 -0.101733886 0.10556696 0.053416774 0.010143726 -0.005797626 0.16691034 -0.11819772 -0.14182383 -0.24562739
55 -0.101983316 -0.18440259 0.013828572 -0.057851907 0.07130746 -0.000900115 0.16568083 0.053925645 0.010810352 -0.024520017 -0.12286542 0.064575404 0.13142946 -0.094371624 -0.09414379 -0.11106792 -0.06454711 0.01620677 0.027338028 0.11004147 0.1087839 -0.12924859 0.08610681 0.05545053 0.13229771 -0.029497009 -0.119007155 -0.037756912 -0.08395146 -0.16567935 -0.022004817 0.018729307 -0.18046889 -0.15980868 -0.06723645 -0.020312365 0.13738549 -0.03458273 0.071211524 0.027330011 -0.12117096 0.06582664 0.14975426 -0.019287677 0.0015492637 0.1297774 0.17232317 -0.015499676 0.017013144 0.03734266 0.003448762 0.012901436 0.07026494 -0.12321904 -0.09112015 -0.16486287 0.042074867 -0.035663966 -0.16443329 -0.03601593 0.08151213 -0.10561941 -0.05911467 0.1295329 -0.05943878 0.045557965 -0.09315117 -0.013491453 0.065610625 -0.006537842 0.13127616 0.023749672 0.26300517 -0.09537068 0.09592005 -0.109993175 0.107599534 0.057062186 0.010156788 -0.010471641 0.1667222 -0.1272666 -0.1420128 -0.25760248
64 -0.08237168 -0.16932763 0.007168816 -0.038314518 0.080047205 -0.00781938 0.1812836 0.08074339 0.012432411 -0.047240708 -0.16818164 0.09869863 0.16408116 -0.1095181 -0.10435714 -0.13193074 -0.080334134 0.020081507 0.03953559 0.13067594 0.12970035 -0.16093375 0.1129706 0.058119904 0.1438276 -0.042278882 -0.12081995 -0.038915187 -0.079209454 -0.19744137 -0.022778936 0.019008309 -0.18335064 -0.14499734 -0.05582384 -0.016169548 0.15223335 -0.03699368 0.08057089 0.060152866 -0.11833773 0.066835664 0.17387415 -0.019770747 -0.010735396 0.14019158 0.18547972 -0.047017004 0.011654014 0.040011134 0.011848395 0.0028715911 0.077351086 -0.115672186 -0.09472375 -0.16260366 0.045037728 -0.030100122 -0.1632795 -0.03263769 0.0695187 -0.095183626 -0.079585485 0.11149669 -0.051840752 0.03455184 -0.075266704 -0.023034165 0.057255007 -0.006269721 0.120732546 0.01104006 0.20954444 -0.082568936 0.085414484 -0.07523852 0.089389265 0.051476132 0.027287634 -0.027145252 0.13601115 -0.09482793 -0.13026276 -0.21062331
12 -0.1189192 -0.18440166 0.01975443 -0.056895386 0.09242569 -0.013621599 0.1873344 0.07808979 -0.008468565 -0.040513527 -0.1513521 0.08336128 0.13882434 -0.10733127 -0.079676695 -0.10478544 -0.077827066 0.018627232 0.026596239 0.09541816 0.11403994 -0.13892505 0.09794 0.05677453 0.12417035 -0.038215347 -0.11885909 -0.037818097 -0.080499105 -0.20210269 -0.014119911 0.014077211 -0.17942247 -0.14539304 -0.04677537 -0.0071838475 0.1381279 -0.038591016 0.082130276 0.04391816 -0.10022408 0.04230934 0.16036105 -0.0066262065 -0.0136156 0.11258579 0.16260733 -0.012627052 0.0025974272 0.03421284 0.01914026 0.0063963938 0.062433362 -0.10814037 -0.09772579 -0.1515652 0.034635723 -0.023685863 -0.16710767 -0.0208012 0.06787126 -0.09988411 -0.057885297 0.12958121 -0.06957682 0.025839884 -0.09304067 -0.017337658 0.08199173 -0.011595004 0.1247568 0.029989468 0.24838273 -0.09792421 0.089461826 -0.08982341 0.110578716 0.07146823 0.021898579 -0.02485783 0.16149645 -0.11450629 -0.14654781 -0.25512138
9 -0.11192805 -0.1703432 0.016941639 -0.07553737 0.080954924 -0.018970463 0.15612091 0.066485114 -0.019561857 -0.00793796 -0.1328083 0.05016474 0.12225416 -0.094086625 -0.08319271 -0.08864396 -0.058201365 0.024748173 0.024307037 0.06831777 0.080503665 -0.09318326 0.08140055 0.035120714 0.09705731 -0.008458434 -0.083362944 -0.02542707 -0.070361756 -0.14008054 -0.00809647 0.024824675 -0.1907675 -0.18532023 -0.060832307 -0.0163314 0.16939734 -0.03337335 0.07249019 0.029981382 -0.11955201 0.039912857 0.1564787 -0.012077147 -0.01703697 0.11032452 0.16316833 -0.004653814 0.016268887 0.01396642 0.004359391 0.01711864 0.053730212 -0.09917271 -0.075683065 -0.13925223 0.040504742 -0.044861406 -0.18132903 -0.010368276 0.07802147 -0.13219324 -0.06979141 0.14457993 -0.06962986 0.017101659 -0.113704175 -0.0020623207 0.07097472 0.0081953695 0.14043891 0.054384694 0.29097944 -0.116093114 0.08361155 -0.12768608 0.12980302 0.09159179 -0.009795319 0.004982154 0.18450116 -0.14556159 -0.15064259 -0.3110397
51 -0.107222855 -0.19332486 0.0111344615 -0.04087581 0.0811859 -0.011613253 0.18771431 0.07389886 0.017189777 -0.040417165 -0.17624916 0.08898082 0.17203471 -0.11312043 -0.11556954 -0.13807654 -0.083182186 0.024079578 0.020731786 0.09854679 0.11876483 -0.15166007 0.12322354 0.028592054 0.13566016 -0.020906208 -0.11113166 -0.060720872 -0.084949404 -0.17850477 -0.03088737 0.01891964 -0.1873512 -0.16441756 -0.057924733 -0.016212504 0.15214597 -0.021291202 0.062959746 0.054466438 -0.11100604 0.0625758 0.13415053 -0.025068535 -0.011385226 0.1005638 0.14615342 -0.015705401 0.0250672 0.023708388 9.7349446e-05 0.0055317655 0.08201842 -0.12141035 -0.08293898 -0.14567846 0.042938203 -0.04751366 -0.13759138 -0.030212853 0.09409768 -0.09740076 -0.060568232 0.12267856 -0.04431237 0.044291336 -0.07661606 -0.0047779917 0.039629623 0.0018481413 0.0950011 0.0098136645 0.20404646 -0.085671134 0.079763785 -0.08313618 0.09285021 0.049678642 0.0025993395 -0.018437954 0.17910884 -0.1249926 -0.13864912 -0.26888442
56 -0.102892734 -0.19574896 0.014649275 -0.06864176 0.087871134 0.0009352251 0.16104148 0.0771494 -0.0039570155 -0.0305733 -0.1472608 0.073346816 0.13981442 -0.08904193 -0.10006679 -0.11702985 -0.07309251 0.020399155 0.027045509 0.11053003 0.109966174 -0.14496323 0.09933728 0.06622428 0.1289826 -0.023598274 -0.10696834 -0.034220707 -0.08481536 -0.18719862 -0.020912057 0.01908307 -0.19228412 -0.18175074 -0.06350177 -0.015118272 0.15982802 -0.041179437 0.082974665 0.053967547 -0.121755615 0.06528641 0.15584232 -0.022475626 -0.004404141 0.114814214 0.14665833 -0.011333734 0.011032477 0.028394083 0.015323797 0.012169153 0.07973224 -0.11581738 -0.06500419 -0.14281185 0.041429676 -0.034822516 -0.1643672 -0.016907152 0.07728469 -0.10876926 -0.054724183 0.11831699 -0.061963372 0.03203656 -0.07431708 -0.0026954596 0.05680002 -0.005015761 0.12465731 0.01825964 0.2374504 -0.09229023 0.07019127 -0.09656636 0.1080172 0.06171118 0.018741036 -0.010423869 0.16250807 -0.11739761 -0.14295359 -0.24109918
39 -0.12216736 -0.22283652 0.026886517 -0.061092608 0.12148676 0.0028843076 0.2127296 0.10743133 -0.016913086 -0.043976244 -0.16549273 0.07974963 0.18022959 -0.12367542 -0.11688366 -0.15966061 -0.083856516 0.023947561 0.04797339 0.14660367 0.12538663 -0.14934959 0.10743967 0.07644305 0.11713912 -0.03532287 -0.12592967 -0.021999383 -0.07988106 -0.18942712 -0.004437277 0.0009859428 -0.17290476 -0.13038327 -0.048250526 -0.011556518 0.14663944 -0.035672307 0.08716322 0.040758975 -0.101875365 0.058063485 0.16611561 -0.02684394 -0.007560888 0.1115017 0.14829986 -0.021073734 0.011324568 0.048592396 0.0123821795 0.002164034 0.06068411 -0.10451055 -0.071557716 -0.12945227 0.03788253 -0.012640891 -0.14954092 -0.0124805095 0.041390542 -0.09670769 -0.05159261 0.09793283 -0.065648995 0.026147518 -0.09025248 -0.018038776 0.068796895 -0.008936997 0.121195465 0.020290285 0.20892271 -0.09208952 0.0794853 -0.08088433 0.108025186 0.056765832 0.024156239 -0.022754176 0.13690415 -0.114881776 -0.14508417 -0.22651085
7 -0.08997992 -0.1561724 0.00705015 -0.03483067 0.06143583 -0.010772798 0.15573625 0.052941117 0.0106000425 -0.03114381 -0.1322575 0.076342076 0.13983962 -0.11211598 -0.088633515 -0.1084519 -0.069226086 0.018914917 0.02685886 0.1083235 0.11224674 -0.14044337 0.093527175 0.05647007 0.16301052 -0.04699426 -0.14113796 -0.049944256 -0.08407618 -0.19537567 -0.021539953 0.018410174 -0.20525326 -0.15747131 -0.06739224 -0.010978077 0.15489644 -0.035988547 0.07190358 0.049401686 -0.12811808 0.05893186 0.17488874 -0.0055326 -0.0099334465 0.12055533 0.18101928 -0.030876698 0.012033134 0.028625838 0.017099706 0.009557851 0.07268428 -0.09965232 -0.10303652 -0.15490538 0.040529914 -0.031002885 -0.15796286 -0.022374805 0.086323544 -0.08835247 -0.06458594 0.12979771 -0.05194172 0.036929425 -0.093582295 -0.006196374 0.07516079 -0.019413982 0.11718535 0.018017827 0.23582628 -0.093589604 0.08549681 -0.08914806 0.11025539 0.07127229 0.014096414 -0.021928562 0.15433715 -0.11137226 -0.14826876 -0.24270266
61 -0.10357598 -0.16713104 0.020899143 -0.04270149 0.07518184 -0.027148224 0.18263112 0.067953505 0.0007426757 -0.031063577 -0.18190026 0.08223958 0.14350195 -0.120921955 -0.08550715 -0.11189272 -0.052374616 0.02426378 0.023037784 0.09280753 0.07749943 -0.1297841 0.07565675 0.031769954 0.12899664 -0.034957375 -0.10806889 -0.04545076 -0.072820134 -0.17525382 -0.007254845 0.009211316 -0.17165293 -0.14866398 -0.052115105 -0.004992967 0.16233547 -0.03010101 0.084879644 0.034376994 -0.113422506 0.028319731 0.16171725 0.00510421 -0.023286749 0.09825091 0.12826714 -0.010429857 0.0013390011 0.023248551 0.009856336 0.017351815 0.06639103 -0.077441655 -0.10606756 -0.13409898 0.026278054 -0.016610106 -0.16255935 -0.0113616055 0.07489632 -0.10865948 -0.04968328 0.13187769 -0.07472795 0.019469827 -0.12356472 -0.014225191 0.10445062 -0.0035571184 0.10621617 0.03777536 0.26254994 -0.1025297 0.08713719 -0.091320105 0.121854685 0.094238184 0.01490012 -0.019837098 0.18585561 -0.13684627 -0.15515313 -0.29797664
46 -0.111465044 -0.1841561 0.028346896 -0.049180903 0.08098 0.002572197 0.18215956 0.064808406 -0.0036441947 -0.034306202 -0.13583335 0.07064511 0.1476484 -0.09099807 -0.0999928 -0.123601995 -0.080382265 0.007902155 0.025170736 0.120862454 0.1116783 -0.14063208 0.09188944 0.06605781 0.14017716 -0.041906733 -0.12930419 -0.04451373 -0.089832254 -0.19351317 -0.027553847 0.0038751054 -0.184735 -0.1538267 -0.05328449 -0.005970961 0.14414485 -0.042484276 0.091967754 0.042002097 -0.12287915 0.0573936 0.15481575 -0.015195412 -0.00082815945 0.12260546 0.17622994 -0.019116145 0.0040253713 0.041448176 0.021867637 0.0066243485 0.07112625 -0.10500465 -0.08984543 -0.15155417 0.03232066 -0.029395634 -0.15388148 -0.039547287 0.07860077 -0.092048615 -0.062051147 0.11274009 -0.06605117 0.037655864 -0.09539505 -0.022584295 0.07246652 -0.018821891 0.11526107 0.0064828605 0.22972168 -0.087889865 0.096952125 -0.09252698 0.091886826 0.048378114 0.013027918 -0.020739822 0.16165766 -0.11577198 -0.13943441 -0.24100089
0 -0.14390156 -0.22019196 0.030824115 -0.066678815 0.10134644 -0.010264219 0.20835301 0.08244356 -0.0086378865 -0.04698548 -0.19026454 0.09223957 0.1915745 -0.13070258 -0.11050083 -0.14926621 -0.07728403 0.012982919 0.036847927 0.12446771 0.13098417 -0.15505362 0.11305971 0.06497277 0.118312195 -0.023001784 -0.1228577 -0.037990145 -0.089152105 -0.18512732 -0.011584592 0.017146723 -0.1652053 -0.13735816 -0.049387936 -0.026943602 0.12362468 -0.026321944 0.078153156 0.035743557 -0.10816247 0.037151527 0.11760401 -0.010261365 -0.0073273918 0.10435125 0.12788717 -0.00976419 0.0035296937 0.038511988 -0.0007091444 0.0005119171 0.0612584 -0.10784072 -0.08753429 -0.13587071 0.025023362 -0.020342357 -0.14555377 -0.024321947 0.07025633 -0.098537974 -0.037197717 0.117909074 -0.05752773 0.027710697 -0.08919279 -0.013126517 0.062957264 0.0061521893 0.09852365 0.022665888 0.2216585 -0.08401467 0.07462847 -0.09287477 0.10308489 0.06199487 0.010540526 -0.031535864 0.15673089 -0.12645802 -0.1306598 -0.25317904
33 -0.07306776 -0.16127123 0.012478698 -0.033984233 0.08411949 -0.019042416 0.15894416 0.08490546 -0.007451873 -0.045315363 -0.17708816 0.08959904 0.16117908 -0.12137344 -0.09153755 -0.12808588 -0.09390246 0.02889041 0.024947345 0.107438214 0.1082626 -0.13255712 0.098439336 0.036910273 0.10279047 -0.028651215 -0.11244128 -0.045638565 -0.072238624 -0.16860718 -0.016701482 0.019525442 -0.17584778 -0.15288953 -0.06244706 -0.01998139 0.15702878 -0.044173785 0.07393146 0.050322413 -0.11960249 0.048129965 0.17746615 -0.022833087 -0.029231757 0.13261677 0.14184058 -0.017507399 0.0029248504 0.029315686 0.0072793756 0.014657434 0.07158154 -0.11349201 -0.07586906 -0.14295529 0.031230118 -0.025286227 -0.16336815 -0.018522391 0.08710503 -0.12085482 -0.044548836 0.12780616 -0.05299361 0.019166075 -0.08577597 -0.017844673 0.068986386 0.0034134272 0.11726137 0.025039526 0.22514617 -0.08551374 0.083286755 -0.08449943 0.10899106 0.067903645 0.008795762 -0.01560218 0.17696817 -0.12523304 -0.14460385 -0.2750031
41 -0.11423283 -0.17229053 0.023864893 -0.047683794 0.08999495 -0.0150738545 0.18394242 0.06983377 -0.004074069 -0.034702238 -0.16196647 0.07172962 0.15114203 -0.10632724 -0.086106256 -0.11457342 -0.063780986 0.010857975 0.03000717 0.10770836 0.08820808 -0.12620921 0.086674996 0.044195317 0.11968197 -0.023261828 -0.11233201 -0.034699384 -0.07476055 -0.16267897 -0.011353979 0.012865753 -0.15383756 -0.13175851 -0.056361318 -0.010201342 0.13504785 -0.025275033 0.072348915 0.03600719 -0.11609013 0.038143452 0.14773893 -0.012631245 -0.011706755 0.1166808 0.15549596 -0.007561797 0.0077809547 0.031907957 0.0097818775 0.0089596 0.05909085 -0.10399276 -0.09397203 -0.1469547 0.034934174 -0.02542643 -0.16508776 -0.013951211 0.073439844 -0.104744464 -0.044577118 0.13566409 -0.06786167 0.03231095 -0.12442137 -0.009669322 0.08624005 0.003741729 0.11467884 0.021605624 0.2597091 -0.10295139 0.08188344 -0.105833866 0.12555309 0.08721919 0.017804345 -0.011803055 0.18465039 -0.1416106 -0.15420116 -0.29434344
58 -0.10479271 -0.15378347 0.01598 -0.074521214 0.0861729 0.011414589 0.17654985 0.081861965 -0.031997517 -0.017178014 -0.11385717 0.059362773 0.12963988 -0.054647293 -0.093710594 -0.113869324 -0.06856907 0.016694479 0.038692776 0.092232466 0.09341456 -0.123935476 0.074067704 0.044991102 0.12399531 -0.03590933 -0.14138192 -0.008660414 -0.06095711 -0.14899237 0.0007771026 0.011421827 -0.17944634 -0.14864607 -0.059867367 -0.014319763 0.15993194 -0.0121822525 0.08577654 0.06957795 -0.1114347 0.04860336 0.14800432 -0.037116256 -0.0030917784 0.12561344 0.19667925 -0.017758386 -0.0033201217 0.022925342 0.022259215 -0.01509304 0.08767753 -0.115683034 -0.09141224 -0.14085941 0.036983617 -0.05304557 -0.1458866 -0.011848916 0.07895398 -0.11747576 -0.058882914 0.12776345 -0.060112003 0.045200944 -0.10377421 -0.011307118 0.082874894 -0.00031444526 0.12783301 0.017569672 0.26720816 -0.13241701 0.08399486 -0.12481143 0.12373818 0.07616715 0.005336144 -0.015192389 0.16775803 -0.13881817 -0.16861042 -0.28953058
10 -0.11516582 -0.19196677 0.028346615 -0.04389275 0.1000371 -0.009550887 0.18257785 0.057483036 0.0032650097 -0.038415894 -0.14394225 0.09298701 0.15245496 -0.117617704 -0.096958436 -0.12573877 -0.07019546 0.020323588 0.04339209 0.12209455 0.12266661 -0.15062393 0.107274525 0.056226604 0.10613443 -0.03495044 -0.10268613 -0.04108448 -0.0673059 -0.17646909 -0.010708711 0.0039087413 -0.17034023 -0.111709274 -0.0545399 -0.010715576 0.12870865 -0.03237364 0.07956816 0.019403046 -0.116105534 0.06752087 0.1768151 -0.0065594064 -0.0065669953 0.12761968 0.1917648 -0.0346447 0.024641868 0.040556077 0.008131838 0.010250877 0.063109525 -0.11392399 -0.11136002 -0.14505063 0.062919825 -0.019000657 -0.1697812 -0.008784883 0.0694756 -0.1009426 -0.0901578 0.14233918 -0.063629635 0.03199027 -0.10433779 -0.036002617 0.060463216 -0.0013889496 0.11215412 0.014650609 0.22147413 -0.08927318 0.0859391 -0.07681905 0.10538064 0.062117923 0.017212488 -0.020153929 0.12995285 -0.12162975 -0.14067782 -0.23447004
14 -0.10307253 -0.1526659 0.006830935 -0.04895655 0.082070045 -0.00080411683 0.1511042 0.06989149 -0.006100904 -0.022356749 -0.11696961 0.051594075 0.15169369 -0.095565975 -0.09538896 -0.13147688 -0.06309046 0.008498808 0.039656118 0.108131975 0.11689979 -0.1343894 0.10868198 0.062081795 0.1414072 -0.012282983 -0.15506284 -0.022259297 -0.096549876 -0.15887845 -0.004336316 0.019351691 -0.19315124 -0.14476395 -0.052393507 -0.03220699 0.15730427 -0.017204568 0.07152724 0.04998251 -0.14394452 0.058796834 0.14545044 -0.020639718 -0.0077165305 0.1294593 0.17487173 0.009000225 0.013208063 0.048491817 -0.005615526 -0.009061594 0.074390985 -0.13936317 -0.09546039 -0.16902387 0.036798295 -0.036536638 -0.1512141 -0.03705768 0.077782236 -0.11451774 -0.05097921 0.122677654 -0.057286583 0.056159478 -0.10853373 -0.0008186688 0.070280254 0.010286331 0.09547892 0.026233193 0.23250173 -0.116847195 0.06952936 -0.097071856 0.11279788 0.053653184 -0.009304184 -0.032082677 0.1602923 -0.12265358 -0.14660615 -0.25318372
23 -0.15198262 -0.22439446 0.0067176707 -0.057563417 0.120987944 -0.016158529 0.22142072 0.09816873 0.013621952 -0.040819716 -0.16937697 0.09967608 0.16320218 -0.1228049 -0.105810575 -0.11955386 -0.07940357 0.031137424 0.02570636 0.103396796 0.102805555 -0.12869278 0.10029636 0.032884613 0.12925526 -0.01724975 -0.12595917 -0.056424476 -0.08638355 -0.16245031 -0.017656742 0.019792384 -0.15647425 -0.13687876 -0.057343807 -0.012647273 0.13213162 -0.035962045 0.050330773 0.042704333 -0.09117769 0.05532481 0.12690496 -0.018322721 -0.0161713 0.094720945 0.14768006 0.00018887078 0.017292447 0.019811815 0.018096998 0.004100991 0.075407006 -0.10662032 -0.09070289 -0.14903331 0.049053993 -0.03644475 -0.16124398 -0.023500342 0.081323765 -0.099230625 -0.06205071 0.13422586 -0.03624277 0.038988125 -0.08481132 -0.0026670117 0.05708785 0.001370945 0.123551756 0.02350252 0.23330237 -0.09731585 0.07246708 -0.08159911 0.1158919 0.05767628 0.008878535 0.00096205086 0.17401522 -0.119457126 -0.13454808 -0.2557664
50 -0.08373041 -0.15473238 0.004310821 -0.024138493 0.06429419 -0.013490575 0.18112844 0.06944476 0.009020353 -0.03181852 -0.15793842 0.0849238 0.16470738 -0.11328182 -0.10904194 -0.12949856 -0.07190236 0.024832087 0.03681345 0.13765678 0.123059995 -0.14681788 0.11646887 0.05555108 0.13946864 -0.031037278 -0.14806771 -0.043425623 -0.0807641 -0.17217286 -0.01210526 0.00024128481 -0.18026808 -0.11730426 -0.04279134 -0.0072104163 0.14747198 -0.014329626 0.077720806 0.050026495 -0.10985066 0.054891575 0.15285067 -0.0058782836 -0.009748007 0.11138532 0.16740002 -0.029812979 0.0066069304 0.022194436 0.004175318 7.8053505e-05 0.0772078 -0.09858156 -0.1023304 -0.15267009 0.04851705 -0.021890562 -0.16834489 -0.01647113 0.08218199 -0.0971276 -0.058523875 0.12045266 -0.056628704 0.041861214 -0.12342507 -0.017458439 0.078221485 0.006128094 0.09284862 0.020510871 0.2372401 -0.10418994 0.07877261 -0.07629568 0.114735685 0.0835594 0.014104765 -0.010749551 0.14381236 -0.1222267 -0.14546245 -0.24784227
40 -0.12274615 -0.22251564 0.02371049 -0.056793936 0.10142718 -0.008438822 0.19552575 0.088304356 -0.0032385674 -0.045408037 -0.16266806 0.08314304 0.17300764 -0.11021087 -0.119170226 -0.13999933 -0.083022095 0.014675566 0.047122054 0.14099419 0.12994072 -0.15990329 0.11008587 0.05641428 0.10815354 -0.02636045 -0.12702112 -0.047501236 -0.07862672 -0.16664223 -0.011768793 0.0058111805 -0.15871753 -0.12692136 -0.044555414 -0.014523159 0.12088165 -0.028807983 0.075658314 0.029750325 -0.10200898 0.03551672 0.13561758 -0.012656624 -0.0041710646 0.09954416 0.14195861 -0.022675067 0.01119644 0.034235142 0.008052503 -0.0044605015 0.053834736 -0.12007323 -0.06503966 -0.1425833 0.04330587 -0.013537229 -0.14770912 -0.028116593 0.067914456 -0.097925864 -0.04625783 0.11473485 -0.06876902 0.03607823 -0.108744256 -0.021284066 0.06710498 0.013403709 0.110204406 0.027537394 0.23151045 -0.09767792 0.07846107 -0.09765969 0.10857073 0.06858309 0.0068483083 -0.013945627 0.16433252 -0.13291611 -0.1398836 -0.25481936
31 -0.090652466 -0.182711 0.029828042 -0.048628706 0.06868801 -0.008999564 0.15522444 0.04264695 0.010950124 -0.033516534 -0.14529477 0.089950375 0.15668002 -0.11594286 -0.10479207 -0.12886652 -0.081471466 0.023603203 0.03287033 0.09888054 0.11808522 -0.1494061 0.09770817 0.060476914 0.12809686 -0.025521781 -0.082436815 -0.03981639 -0.07933061 -0.19722804 -0.037699636 0.015946474 -0.211254 -0.17007712 -0.056105904 -7.665308e-05 0.14694506 -0.045106523 0.09269564 0.025287408 -0.11181757 0.079384185 0.1734984 -0.023349103 -0.010021515 0.118227 0.17138776 -0.036819663 0.027232053 0.033213515 0.0001067009 0.026026558 0.067929626 -0.11590823 -0.08342001 -0.15463959 0.059210263 -0.03501806 -0.1762858 -0.02331094 0.08369053 -0.111237 -0.08377117 0.12139562 -0.0684075 0.023012333 -0.07486734 -0.016252913 0.030239346 -0.010747328 0.124493435 0.015311919 0.21749605 -0.07978778 0.08982925 -0.091906674 0.10783351 0.053206544 0.023359181 -0.009756498 0.15014729 -0.12315483 -0.13589504 -0.24719405
26 -0.08888456 -0.13106908 0.0042242217 -0.041175745 0.101821125 -0.0051566428 0.19197287 0.071083546 -0.0131840445 -0.05490419 -0.13329451 0.075745 0.1446827 -0.09710388 -0.10584547 -0.124270394 -0.07910465 0.022227677 0.031074606 0.116237685 0.13366409 -0.13842158 0.10951767 0.080781385 0.123472795 -0.030739475 -0.16381674 -0.03038412 -0.07385483 -0.14426021 -0.013533788 0.02502862 -0.16155635 -0.11312927 -0.055028647 -0.035028122 0.14082755 -0.035322875 0.054078236 0.05085259 -0.11463161 0.060121305 0.14281827 -0.02142604 -0.0081306035 0.14860138 0.19712804 -0.015166928 0.0077614747 0.033575393 0.02300017 -0.00902259 0.08565023 -0.12061123 -0.10170971 -0.17105047 0.04863798 -0.04337123 -0.16117199 -0.043130897 0.07443608 -0.093336225 -0.06102445 0.13957253 -0.05334819 0.05354909 -0.088112675 -0.02291838 0.079538226 -0.0042347466 0.122789256 0.012499706 0.25190604 -0.11477445 0.08572115 -0.10940047 0.10785361 0.036401935 -0.005898156 -0.021758286 0.1586369 -0.11383556 -0.1536915 -0.24242234
37 -0.08474333 -0.17653352 0.01677098 -0.04191521 0.07135656 -0.00054174865 0.15393966 0.06790359 0.021710483 -0.03349814 -0.18304096 0.09863909 0.18617116 -0.1259234 -0.12644877 -0.13356379 -0.08045124 0.029164676 0.022596959 0.09999913 0.09641728 -0.1445475 0.10862936 0.04616732 0.119483516 -0.026712 -0.07155711 -0.04985657 -0.06850596 -0.18983212 -0.022624522 0.015701275 -0.18749712 -0.18084337 -0.051565677 -0.007949357 0.1506139 -0.03906806 0.08379573 0.04953963 -0.12724042 0.06872482 0.17365292 -0.02370467 -0.028511243 0.1303382 0.166054 -0.035242986 0.026839279 0.02585478 0.004782054 0.021593189 0.08371859 -0.1087076 -0.086990155 -0.15061589 0.0491606 -0.041057598 -0.17211859 -0.009774438 0.0758315 -0.11358697 -0.07169509 0.111433476 -0.059891332 0.030746698 -0.06550069 -0.013203212 0.04265584 -0.0031214356 0.121504776 0.023847988 0.21125099 -0.06868344 0.087601446 -0.08159891 0.09934771 0.06407196 0.02075932 -0.008891379 0.15952553 -0.11720455 -0.13686138 -0.2531168
13 -0.084021 -0.15216109 0.020509928 -0.048546854 0.0693211 -0.0048155226 0.16066127 0.052736163 -0.0035795402 -0.03116711 -0.123786025 0.058862045 0.12026226 -0.0815111 -0.0756686 -0.109458245 -0.086355515 0.0016264996 0.020706533 0.09939002 0.12201952 -0.13501653 0.08500387 0.064783394 0.12602495 -0.031568952 -0.126636 -0.031110788 -0.080624126 -0.18379097 -0.028896173 0.012837127 -0.16783781 -0.14889443 -0.050623734 -0.0145798 0.15558013 -0.034708526 0.08390716 0.03631241 -0.1086106 0.06189984 0.15749568 -0.016594114 0.004154711 0.13509934 0.18350129 -0.017368319 0.0031198214 0.044709515 0.013379951 0.0066070333 0.0812918 -0.119495824 -0.09402592 -0.17150818 0.035214018 -0.038060155 -0.16032252 -0.044152 0.08417544 -0.112444706 -0.054767065 0.11911634 -0.06453425 0.03715144 -0.115678884 -0.021571074 0.08099006 -0.014294675 0.12168069 0.015377337 0.26268145 -0.11706559 0.095160745 -0.113993175 0.112986326 0.05525158 0.002511361 -0.02487712 0.16893195 -0.12878264 -0.14695512 -0.2658943
77 -0.08180777 -0.14964652 0.0106662 -0.057238657 0.07945173 -0.0073085297 0.1355984 0.06512083 -0.004070836 -0.014944466 -0.091918804 0.04574775 0.11327778 -0.06778869 -0.06698125 -0.094754554 -0.06610353 0.01099988 0.04655309 0.088714436 0.08653569 -0.12525836 0.087487176 0.04914431 0.11222974 -0.021576408 -0.1068717 -0.021661771 -0.06457428 -0.16399205 -0.017235449 0.033602588 -0.17553149 -0.15650775 -0.05946273 -0.024765745 0.14588532 -0.026585381 0.059452027 0.032397304 -0.11689525 0.060423274 0.1749426 -0.030110283 -0.009135213 0.14490488 0.21663757 -0.0062137772 0.027985191 0.03360808 0.007786822 0.0014586154 0.0588572 -0.1404439 -0.0954545 -0.17879766 0.06113587 -0.03951765 -0.1677801 -0.030063413 0.07022066 -0.122752264 -0.060769297 0.1448117 -0.065810606 0.0421476 -0.107248746 -0.014465588 0.06558574 0.0074858624 0.14088665 0.032521777 0.28228346 -0.1178249 0.09249239 -0.1307459 0.10170506 0.051844154 -0.0058649043 -0.0075550927 0.19450335 -0.13553932 -0.16201389 -0.2884844
71 -0.09998139 -0.21934588 0.016601538 -0.059286464 0.07111199 -0.012298889 0.16520613 0.06690501 0.023234596 -0.04810741 -0.15912555 0.099866286 0.15852289 -0.08684873 -0.10811056 -0.116784915 -0.06989568 0.01717221 0.054815233 0.12479365 0.12156962 -0.15753601 0.10143332 0.059752345 0.10747598 -0.044005156 -0.104418464 -0.03924819 -0.07474688 -0.17599714 -0.028102115 0.02184081 -0.18569417 -0.15378721 -0.058319096 -0.013210087 0.11763663 -0.048467543 0.07909246 0.03845069 -0.106086396 0.04217571 0.15949893 -0.021297779 0.0070153074 0.12743755 0.17316628 -0.03729706 0.013315825 0.0320201 0.0058393506 -0.005249104 0.059475716 -0.13620126 -0.08158526 -0.15379296 0.05033997 -0.013816185 -0.15460235 -0.045065604 0.078936405 -0.102798946 -0.06544774 0.12251071 -0.069555275 0.041843522 -0.077574104 -0.033961505 0.04480048 -0.002295382 0.12996644 0.012819415 0.23308514 -0.0778743 0.07701373 -0.09174193 0.08456889 0.045299567 0.010573678 -0.030138912 0.16924511 -0.12797523 -0.1373829 -0.24534692
34 -0.11002057 -0.18847913 0.029282412 -0.048504815 0.08212575 -0.021636834 0.15648954 0.062314328 -0.004776093 -0.03688702 -0.12859257 0.06580977 0.15282845 -0.10645389 -0.09689599 -0.11988422 -0.05508396 0.011466055 0.05440072 0.11525748 0.115908325 -0.14381886 0.10592167 0.05689361 0.087971516 -0.028057694 -0.0849169 -0.022331014 -0.06819509 -0.1547057 -0.011677303 0.014487549 -0.17820987 -0.1229737 -0.043492217 0.000291894 0.12816814 -0.028293949 0.08170461 0.03557145 -0.11247268 0.058535315 0.1604348 -0.0045450986 -0.00031386394 0.100849956 0.17823516 -0.032338943 0.011602653 0.04514413 0.011902853 0.008602549 0.059865195 -0.10258319 -0.105231166 -0.15826271 0.052756876 -0.0025524935 -0.17157702 -0.019655405 0.07615397 -0.09954287 -0.075739145 0.14822103 -0.0774868 0.020111738 -0.10936174 -0.028953308 0.071952 0.0029198823 0.11882164 0.016053373 0.2509663 -0.09295738 0.082459025 -0.10492805 0.12078581 0.076999806 0.024500381 -0.010181833 0.16736874 -0.14698361 -0.15800722 -0.2790744
8 -0.08542863 -0.15878958 0.009341798 -0.04402951 0.07424354 -0.0022821405 0.18779415 0.0800568 -0.0022343653 -0.037903544 -0.15363307 0.06676317 0.16622971 -0.11144281 -0.10402115 -0.15294407 -0.069717124 0.018491574 0.04340687 0.117929555 0.10715733 -0.13146828 0.09498195 0.056659266 0.119110204 -0.02912895 -0.12720332 -0.023103885 -0.0881585 -0.16318764 -0.011080958 0.016492454 -0.16012523 -0.12881844 -0.05010284 -0.007746096 0.16557515 -0.026982812 0.07958581 0.05365267 -0.118669264 0.05881254 0.15589291 -0.010255515 0.0017406681 0.12829784 0.17071721 -0.017976556 0.009759243 0.041742742 0.006110252 0.0059965164 0.07812534 -0.100363486 -0.09998958 -0.15779763 0.034884777 -0.035173435 -0.15980704 -0.02650653 0.07180195 -0.09954859 -0.051155582 0.12127809 -0.06393394 0.035141695 -0.107876725 -0.010014084 0.07401666 -0.008687629 0.100995615 0.013790481 0.22997609 -0.103242695 0.080788694 -0.095730014 0.09597312 0.06301718 0.0009820607 -0.014150827 0.17123981 -0.12873393 -0.16236742 -0.2604523
80 -0.10456269 -0.20305523 0.021372736 -0.044178735 0.10320504 -0.010880933 0.16324507 0.08778094 -0.01817261 -0.034312174 -0.15181683 0.0786653 0.16366017 -0.1233531 -0.082398966 -0.11807221 -0.08313864 0.0238302 0.04999289 0.10300667 0.115989 -0.14964521 0.10487531 0.045094665 0.07708665 -0.018894117 -0.08525065 -0.041993883 -0.061455887 -0.1818901 -0.0028459365 0.034589507 -0.17035626 -0.13413385 -0.058252696 -0.017804477 0.13263524 -0.037626598 0.07380167 0.038973685 -0.10436589 0.039936416 0.16177602 -0.018782184 -0.022733916 0.111885585 0.15214607 -0.018133381 0.016831778 0.038845025 0.019225644 0.005861914 0.044447873 -0.12428991 -0.08543267 -0.1554106 0.039181408 -0.012960758 -0.17698033 -0.016168592 0.087227374 -0.1258369 -0.052349556 0.15308373 -0.050772604 0.020729594 -0.09787588 -0.0254247 0.052629977 -0.005267792 0.12638934 0.034271043 0.22110276 -0.08094391 0.07869805 -0.08933718 0.09922127 0.0531704 0.002868707 -0.020913277 0.1783544 -0.1380559 -0.15040056 -0.28604448
47 -0.11293736 -0.19273947 0.008609052 -0.07195959 0.090043895 -0.005553307 0.16899599 0.07164595 0.020796554 -0.043632004 -0.11844405 0.07516988 0.14387181 -0.083191134 -0.1080653 -0.13213791 -0.08983688 0.021515675 0.042551782 0.14012007 0.15386859 -0.15711284 0.118184224 0.08559964 0.12948462 -0.027766405 -0.13190767 -0.039197683 -0.09874647 -0.17143866 -0.021776896 0.0184453 -0.16678618 -0.15268645 -0.042428035 -0.020788774 0.12495752 -0.05517265 0.056672733 0.034213383 -0.11078345 0.07915054 0.13285644 -0.03290216 0.02103413 0.14060172 0.19716777 -0.007021154 0.013473909 0.040351257 0.016740173 -0.0056150774 0.08672969 -0.151574 -0.064319216 -0.15935199 0.05164228 -0.040554915 -0.14004767 -0.05588558 0.06365992 -0.09778546 -0.056503024 0.11705792 -0.061560772 0.046031535 -0.05921897 -0.013410462 0.036297843 0.006181884 0.12655154 0.005017943 0.2353921 -0.090411 0.07455419 -0.111652456 0.085925534 0.032662228 -0.005754246 -0.021289833 0.15458271 -0.12590054 -0.14527929 -0.2332891
83 -0.09366786 -0.17665136 0.014342222 -0.042700972 0.07489044 0.0033841967 0.14637728 0.05302145 0.013847812 -0.02964097 -0.1480694 0.08300276 0.14202823 -0.10524777 -0.086997114 -0.11038688 -0.07641737 0.008995094 0.033343762 0.09631965 0.107402705 -0.13056812 0.09102719 0.046184152 0.111827336 -0.029648907 -0.09492753 -0.04177333 -0.084677525 -0.17536716 -0.031770978 0.019702928 -0.19092241 -0.16312715 -0.06036972 -0.011352229 0.13381113 -0.03989796 0.07722784 0.03207808 -0.117163904 0.04364277 0.15638761 -0.016971128 -0.008117583 0.12672684 0.166443 -0.022454882 0.022955447 0.042225767 0.004019745 0.017899483 0.05608575 -0.122050986 -0.09877305 -0.16579342 0.04200694 -0.02260213 -0.18125167 -0.026733512 0.09558851 -0.11924338 -0.06913526 0.14388685 -0.07148972 0.030221546 -0.09995209 -0.017891848 0.055796716 -0.00092739513 0.12306221 0.031926945 0.24213931 -0.09240778 0.08510016 -0.101293065 0.10504356 0.066654205 0.0052978457 -0.022686929 0.16459002 -0.13216491 -0.13841023 -0.26846176
65 -0.1340498 -0.22376123 0.029652013 -0.08313152 0.10400531 -0.0030965426 0.17608142 0.08761595 0.012684268 -0.037681356 -0.14324795 0.068117745 0.13622914 -0.07483026 -0.085896485 -0.09972509 -0.070644625 0.009245575 0.025172068 0.08761751 0.08265185 -0.14158185 0.102620915 0.055599216 0.12087929 -0.03076554 -0.07616764 -0.01877345 -0.060571108 -0.20773372 -0.016291117 0.022963118 -0.17560066 -0.18940671 -0.06741214 -0.011731659 0.1433008 -0.046558615 0.08444949 0.04956501 -0.109321855 0.05748704 0.19075313 -0.031903714 -0.018467648 0.12936428 0.19516608 -0.032001376 0.032427534 0.04211132 0.013987684 0.01067672 0.06386262 -0.11355 -0.08707857 -0.14320555 0.04890416 -0.037037145 -0.16070162 -0.014346757 0.03577563 -0.10374639 -0.07782064 0.10969889 -0.06760049 0.031581394 -0.06152304 -0.016614748 0.048328593 -0.010518226 0.15531245 0.025953928 0.24019621 -0.080962606 0.085017 -0.09993847 0.097876266 0.045626637 0.040876325 -0.01273434 0.1627425 -0.09542249 -0.13372257 -0.22547656
49 -0.09098168 -0.18314461 0.013452693 -0.025035663 0.073669575 -0.021411413 0.16415574 0.06796533 0.03235506 -0.041712828 -0.15093176 0.09490126 0.14086296 -0.11181033 -0.07876378 -0.11406743 -0.079348505 0.018989969 0.029967299 0.10897366 0.10981333 -0.1451566 0.11756452 0.036177505 0.15833712 -0.044048324 -0.11111481 -0.06783499 -0.088505626 -0.20217775 -0.033860702 0.0032950707 -0.17694461 -0.14400415 -0.044710334 0.0011896916 0.1560671 -0.032931056 0.059168044 0.050078925 -0.112656124 0.07451706 0.159824 -0.010734062 -0.013407305 0.11063561 0.1662307 -0.03986313 0.014818364 0.0361084 0.001738422 0.005669639 0.084749654 -0.09408093 -0.10825441 -0.15375121 0.052179106 -0.023585843 -0.16525677 -0.02157598 0.08366905 -0.094306804 -0.073881306 0.11682375 -0.04886444 0.034548808 -0.08817477 -0.019659644 0.060845647 -0.017109612 0.11000216 -0.0048124893 0.234642 -0.0939538 0.081962846 -0.07614977 0.12090185 0.06533623 0.027649982 -0.026020046 0.15433267 -0.115601 -0.15340084 -0.25008154
6 -0.10812815 -0.18923289 0.031524193 -0.03869905 0.078948 -0.023261495 0.18525398 0.06791149 -0.00070540607 -0.053170063 -0.16240998 0.08046912 0.14693087 -0.11754959 -0.07773506 -0.11949511 -0.078983285 0.013305039 0.03524902 0.112867646 0.116327144 -0.15184374 0.10188226 0.047614083 0.13162464 -0.044334613 -0.1243754 -0.049590252 -0.08262203 -0.20337984 -0.02138712 0.00090413616 -0.16942608 -0.133481 -0.054591697 -0.009978899 0.14069717 -0.03872779 0.07787888 0.029300049 -0.11005336 0.049197506 0.17855547 -0.0022866072 -0.016999492 0.11471509 0.16326039 -0.033144843 0.01112061 0.04022781 0.006890822 0.0091898 0.058768746 -0.09084442 -0.103034236 -0.14843594 0.035905868 -0.011240841 -0.15788986 -0.021555379 0.07843079 -0.09644436 -0.04625807 0.12806837 -0.056787673 0.023909826 -0.101999134 -0.024108673 0.07095497 -0.012709142 0.1099027 0.009303437 0.23035 -0.078651465 0.08978353 -0.08408278 0.11544745 0.06690846 0.020393206 -0.020327065 0.16317172 -0.11616702 -0.14211094 -0.25709957
74 -0.09356302 -0.17412253 0.02788103 -0.076084495 0.07322398 0.01207963 0.121444546 0.0648802 -0.011048115 -0.03762217 -0.12321882 0.05695637 0.13779663 -0.08715737 -0.084980205 -0.11891327 -0.06552977 0.0126199825 0.03831287 0.098188646 0.08220453 -0.13776468 0.08271733 0.07251711 0.120018855 -0.018445965 -0.08860784 -0.011881335 -0.061995372 -0.18662156 -0.015624577 0.017309962 -0.22002816 -0.18644537 -0.062555335 -0.01986448 0.14451489 -0.04503889 0.09302004 0.047001228 -0.13046035 0.059641283 0.16376817 -0.020157715 -0.0028854168 0.115144886 0.1566694 -0.02414915 0.009306801 0.044633195 0.006675291 0.019298788 0.06814121 -0.12902398 -0.0842421 -0.1528496 0.03672255 -0.019768938 -0.1693727 -0.013201837 0.06267671 -0.12665953 -0.05561932 0.12526922 -0.07781425 0.02491076 -0.069468305 -0.01647244 0.05966556 -0.007225895 0.1473517 0.021793477 0.2602387 -0.09346184 0.09244486 -0.115828514 0.124276206 0.062366415 0.04269422 -0.013957629 0.16477326 -0.13015719 -0.16458172 -0.25310284
73 -0.11393233 -0.20830354 0.021268522 -0.074913315 0.12849754 -0.0129681835 0.1545419 0.11855622 -0.022107717 -0.052868623 -0.14804155 0.08244179 0.15180828 -0.09085958 -0.087320514 -0.11870497 -0.0911599 0.008014417 0.04033946 0.09716131 0.11159742 -0.1452315 0.09419509 0.037641905 0.10105088 -0.0076881815 -0.08845884 -0.02219974 -0.06511721 -0.20316511 -0.027090464 0.019515809 -0.19089738 -0.18079288 -0.07304369 -0.021216456 0.11960368 -0.061595157 0.070974596 0.048253387 -0.09744081 0.04605294 0.17691785 -0.0356341 -0.033903476 0.12798119 0.18308005 -0.013308814 0.026116462 0.048864696 0.020374287 0.002876212 0.0668076 -0.13859908 -0.06938776 -0.16233802 0.06111848 -0.015017439 -0.18732391 -0.024651276 0.06514858 -0.14618663 -0.038597103 0.1357622 -0.0646298 0.026561933 -0.066454485 -0.021299545 0.031392593 0.009497069 0.15411374 0.039381895 0.2055663 -0.071569316 0.088380374 -0.10018803 0.09582434 0.016986033 0.038856514 0.00158215 0.16427527 -0.11040052 -0.110300235 -0.21812496
30 -0.099806994 -0.18941416 0.023377908 -0.05101559 0.0762909 -0.012222788 0.16940746 0.06982685 -0.013262035 -0.03435309 -0.15481628 0.07016366 0.1570734 -0.11745108 -0.102474734 -0.13018592 -0.07293895 0.017249387 0.027251419 0.11025246 0.105616756 -0.123422526 0.08960167 0.04268097 0.10640234 -0.016517501 -0.10890684 -0.035802174 -0.07911597 -0.15305075 -0.0026929243 -0.0034948625 -0.18351598 -0.15391493 -0.0659048 -0.011650205 0.14657393 -0.015399376 0.086679965 0.032349978 -0.11585799 0.059254263 0.15395896 -0.008125617 -0.010836754 0.10344329 0.13893187 -0.009822617 -0.0022430148 0.03716235 0.0016095481 0.026896065 0.070053264 -0.11386398 -0.07169235 -0.13130945 0.025350343 -0.022034204 -0.149576 -0.005868545 0.07872622 -0.12023932 -0.04412313 0.1406954 -0.066697076 0.02410356 -0.11166763 -0.005207608 0.08573433 -0.004705666 0.11477182 0.02716212 0.2443397 -0.10576678 0.089786716 -0.103054285 0.12902077 0.081797965 0.019990757 0.00194581 0.15677845 -0.1413182 -0.14836164 -0.27935803
35 -0.095259786 -0.1607705 0.0083506135 -0.05284684 0.0892183 0.0019554202 0.18547942 0.08346614 -0.0173598 -0.04668765 -0.1626371 0.087117165 0.15195134 -0.09635999 -0.10938672 -0.14233956 -0.06510256 0.033994768 0.028367411 0.12874138 0.12913604 -0.16420612 0.09396404 0.06278457 0.12326547 -0.023089042 -0.12626912 -0.027438758 -0.085030176 -0.1826653 -0.0071177403 0.016513152 -0.18784913 -0.13994583 -0.032803882 -0.005868993 0.14018215 -0.052618306 0.09787005 0.0439451 -0.1207392 0.04567433 0.15839978 -0.025532704 -0.0137578705 0.095689185 0.15451777 -0.0069400747 -0.006367425 0.031277027 0.025768712 -0.0062333625 0.07414832 -0.12468441 -0.07479179 -0.1633578 0.036484163 -0.026235657 -0.15674587 -0.042137213 0.064883485 -0.10580588 -0.040416367 0.110142015 -0.08085296 0.029075341 -0.08060254 -0.021394575 0.06284558 -0.002603995 0.1202458 0.03600145 0.23073217 -0.087482855 0.088846266 -0.10243716 0.101938 0.057980645 0.009414315 -0.020744868 0.16549665 -0.13456048 -0.14388563 -0.25585023
27 -0.0910805 -0.1688184 0.018838126 -0.06704571 0.099931754 -0.004275051 0.1750119 0.0774327 -0.03114862 -0.033141587 -0.13144433 0.06423561 0.14459796 -0.084780164 -0.10132575 -0.14098896 -0.06674868 0.008664854 0.042685222 0.104913995 0.14157008 -0.147805 0.10060189 0.079813235 0.10818744 -0.028288927 -0.14177234 -0.009369951 -0.072432004 -0.16027252 -0.008496172 0.008594902 -0.17066881 -0.13036017 -0.040402237 -0.019178221 0.15623768 -0.0405417 0.08295281 0.034911804 -0.11248188 0.0578978 0.15163681 -0.021263253 0.01167578 0.1357193 0.19043079 -0.019193416 0.0016506602 0.04678856 0.014867054 -0.004322302 0.074718766 -0.12846716 -0.090192676 -0.16239327 0.04328265 -0.024214393 -0.1585098 -0.029337838 0.068775706 -0.11998406 -0.05515314 0.12429213 -0.067658916 0.030940346 -0.11185584 -0.024591222 0.07575806 0.0030543231 0.101324484 0.027888985 0.24265239 -0.123876706 0.07859534 -0.11629428 0.11837603 0.052458875 -0.0062287445 -0.014268684 0.14199245 -0.12550336 -0.14606363 -0.24696589
48 -0.0939682 -0.15461259 0.030303422 -0.03040982 0.04426946 -0.007211841 0.15888989 0.034312468 0.0047506983 -0.035673518 -0.16841105 0.091770016 0.13515654 -0.097463466 -0.08296745 -0.09867064 -0.058061037 0.010753765 0.023827631 0.11755019 0.09629418 -0.12408037 0.069178484 0.047320485 0.15084995 -0.04837686 -0.13071997 -0.04970377 -0.082260884 -0.1867669 -0.01081418 -0.006409438 -0.1698954 -0.12319453 -0.061559875 6.109485e-05 0.15869372 -0.013432905 0.089100875 0.057083342 -0.11764715 0.04518619 0.15494898 0.0017230853 0.005952036 0.09771686 0.14802969 -0.039836112 -0.020673811 0.026546273 0.018090755 0.015100786 0.084659494 -0.07478851 -0.11770292 -0.14590986 0.009861438 -0.014016754 -0.14348108 -0.01958947 0.093910374 -0.082034595 -0.057979885 0.12315751 -0.06326584 0.03649247 -0.123621516 -0.011747845 0.11177794 -0.02918593 0.10638565 -0.001005942 0.2698562 -0.09270576 0.102649115 -0.091312386 0.1353533 0.09652329 0.022387981 -0.017827451 0.17736149 -0.13398516 -0.16183327 -0.29929563
60 -0.05646986 -0.15145005 -0.0026399358 -0.03165132 0.06278854 0.012579416 0.16297422 0.07000919 0.02379136 -0.022400025 -0.18400258 0.09290366 0.1457558 -0.09098846 -0.09150254 -0.102833204 -0.06086378 0.012658846 0.001643593 0.09153202 0.09241953 -0.15421103 0.10360977 0.022466797 0.11933142 -0.026796088 -0.08762648 -0.03959047 -0.07760848 -0.19800362 -0.018977366 0.031434357 -0.15858151 -0.14777987 -0.04480327 -0.0049283206 0.15341938 -0.01927682 0.092740715 0.06197434 -0.13482629 0.05149373 0.17055312 -0.025834711 -0.022051577 0.12996107 0.15985502 -0.035492763 0.025357496 0.043567166 -0.0053365696 0.016725898 0.088198215 -0.14139074 -0.10693938 -0.17556371 0.043086372 -0.044961035 -0.18297231 -0.021571115 0.09778706 -0.1257538 -0.08312485 0.106050946 -0.066602886 0.04711858 -0.08285542 -0.018192366 0.053215515 -0.00037862037 0.10661485 0.033539735 0.24713023 -0.08643744 0.10883783 -0.08002367 0.09092732 0.07666407 0.018992752 -0.0267677 0.19184418 -0.113076374 -0.13377964 -0.2834921
36 -0.0819728 -0.1642608 0.031081729 -0.06030307 0.064221896 -0.012509438 0.1382246 0.062391758 0.0004733866 -0.020588912 -0.1340251 0.053301524 0.107547164 -0.07643019 -0.07005468 -0.09227069 -0.061817087 0.0035230939 0.021635395 0.08473352 0.081352025 -0.13282791 0.0784439 0.039643224 0.14723954 -0.035913385 -0.091232136 -0.03404973 -0.07130719 -0.19963127 -0.020326464 0.008409966 -0.18833087 -0.18378094 -0.06392479 -0.008063516 0.15304795 -0.037941344 0.08457609 0.034508172 -0.116630584 0.043490943 0.17904778 -0.015545537 -0.012412932 0.10548756 0.17592333 -0.023451176 0.01184509 0.04330198 0.012716742 0.020040352 0.06871057 -0.11113041 -0.083023794 -0.13977256 0.031697936 -0.025279291 -0.16622455 -0.010730539 0.06864155 -0.12402747 -0.043817036 0.12630183 -0.07707494 0.029357873 -0.08791504 -0.009910868 0.06503611 -0.018992538 0.12927368 0.023236983 0.26346564 -0.09658617 0.09784253 -0.11843873 0.12954997 0.080169335 0.037135623 -0.015528484 0.18404968 -0.13846208 -0.15265985 -0.2861968
59 -0.11919883 -0.2157066 0.02922252 -0.08901018 0.069251016 -0.012444195 0.16737266 0.05353285 0.011838493 -0.011299488 -0.13262278 0.064247 0.14827938 -0.085838504 -0.11395526 -0.12019614 -0.036346927 0.012952963 0.043314595 0.11434858 0.10488135 -0.13648698 0.08527454 0.047880393 0.12608668 -0.031128261 -0.107779495 -0.031213587 -0.06929952 -0.15820938 -0.0135781765 0.013432711 -0.17871131 -0.16961615 -0.057140384 -0.0141614005 0.13580704 -0.028199917 0.065456115 0.013464076 -0.112789035 0.049980126 0.1313935 -0.0034831322 0.029914822 0.11109799 0.15607877 -0.039108794 0.01754041 0.025177645 -0.0013429503 0.015278004 0.06706725 -0.12345301 -0.06740822 -0.1148882 0.0654885 -0.014874779 -0.15053265 -0.003158289 0.051626403 -0.10452301 -0.057321813 0.106541395 -0.06691752 0.027613645 -0.108716644 -0.013365598 0.06782643 0.012852559 0.1242009 0.013315795 0.292505 -0.12143954 0.0755195 -0.118618235 0.11781704 0.09827612 0.02214956 0.0020894916 0.17001826 -0.15134227 -0.16554536 -0.26969144
5 -0.094482064 -0.17224632 0.008631756 -0.042920407 0.085442066 -0.013829757 0.20716222 0.05447986 0.018745188 -0.049392205 -0.15313675 0.092912436 0.15138963 -0.10381364 -0.107220404 -0.14822878 -0.09685462 0.010754741 0.0124394605 0.11333286 0.13986737 -0.13444424 0.09953155 0.07056973 0.15187728 -0.03744513 -0.15939587 -0.054444537 -0.09350334 -0.15902467 -0.030430373 0.0049447427 -0.14611527 -0.115899876 -0.028388847 -0.015826007 0.14883314 -0.0144507615 0.064566694 0.042095393 -0.0805852 0.0693075 0.103281185 -0.022364108 0.004461942 0.10516674 0.14234202 -0.0089459205 -0.0048823375 0.028497491 0.0019286707 0.0073560704 0.10524252 -0.12105553 -0.09018172 -0.17229468 0.039711185 -0.0499072 -0.1296175 -0.05463688 0.090214804 -0.09708567 -0.05718281 0.10901304 -0.06252919 0.048352458 -0.09089247 -0.014855495 0.088704534 -0.014328353 0.0998601 0.0040537366 0.26294997 -0.13172866 0.09483864 -0.11113491 0.12494653 0.06043882 -0.014113508 -0.03161349 0.16184755 -0.12517715 -0.15900643 -0.28248248
79 -0.1450578 -0.1956197 0.031173542 -0.07879953 0.12611055 -0.040017005 0.18132971 0.088693105 -0.025425863 0.013958909 -0.06184162 0.010643914 0.10825233 -0.097868495 -0.05816838 -0.07713583 -0.03557739 0.0007476845 0.025630128 0.029599885 0.050859116 -0.09581341 0.06932357 0.00933382 0.11453139 -0.0029757426 -0.06627662 -0.023904113 -0.06992962 -0.17558059 -0.027742242 0.04158946 -0.18491614 -0.19433248 -0.07708373 -0.012229512 0.17677526 -0.0099721365 0.057509966 0.008980257 -0.08987659 0.07084458 0.16227198 -0.022798032 -0.029516757 0.0939249 0.16630591 0.029899947 0.038456146 0.018303145 0.0002667151 0.011490898 0.055522643 -0.10650293 -0.107556924 -0.1637979 0.07872931 -0.057109885 -0.17365329 -0.017799657 0.06565198 -0.13343826 -0.09346379 0.13844168 -0.06977928 0.01025938 -0.12623224 -0.003215287 0.08680432 0.0077778054 0.1506859 0.050626922 0.28249216 -0.13124463 0.091684975 -0.11924323 0.12201633 0.066307575 -0.019645475 1.0684462e-05 0.20993796 -0.13598561 -0.14468166 -0.3304632
28 -0.12796342 -0.20058131 0.03732097 -0.0738029 0.0961971 0.012876409 0.20996019 0.0790652 -0.035587687 -0.02460542 -0.14340271 0.0581101 0.14949998 -0.07733556 -0.10158069 -0.14682342 -0.07259481 0.0022320522 0.024760619 0.10335636 0.10630835 -0.1341454 0.08349003 0.047997557 0.10477439 -0.0024034977 -0.16351052 -0.027348498 -0.06831065 -0.14828394 0.007668312 0.005180325 -0.14432514 -0.12939402 -0.057358313 -0.03523612 0.16613239 -0.009725971 0.09666041 0.038108576 -0.11974035 0.032921776 0.12808318 -0.011219884 -0.0033568472 0.112779416 0.11833868 0.0067436644 -0.0143890465 0.03349592 -0.008997723 0.001520188 0.08622068 -0.13511468 -0.06264055 -0.13195147 0.0067803035 -0.050962456 -0.14265746 -0.015119738 0.07881262 -0.13323058 -0.018543994 0.12565905 -0.059793103 0.043472964 -0.1349388 0.0068329815 0.08950887 -0.0067573455 0.088942096 0.04034646 0.23862831 -0.14637633 0.08224991 -0.11150693 0.12392613 0.08237751 -0.01574321 -0.012057781 0.17112163 -0.15315136 -0.14183006 -0.29506174
72 -0.10925831 -0.215649 0.03246267 -0.07184938 0.08875409 -0.0016028375 0.15051709 0.071963325 -0.002702314 -0.037042994 -0.17010842 0.08474872 0.16388103 -0.12942685 -0.09158082 -0.12641875 -0.07815447 0.022372195 0.018761402 0.09257612 0.08737548 -0.13184105 0.091305226 0.040469836 0.120254464 -0.010762685 -0.071788326 -0.032959547 -0.07984813 -0.2038443 -0.025451109 0.008257506 -0.19807225 -0.1955522 -0.067301586 -0.010974442 0.1502313 -0.050287597 0.088032454 0.041765105 -0.101441234 0.069695815 0.15613012 -0.02769549 -0.016953394 0.102187686 0.13328055 -0.015729241 0.013531053 0.03449576 7.53605e-05 0.031335462 0.07621398 -0.11060545 -0.08026872 -0.14195801 0.029987745 -0.023130242 -0.16065815 -0.009719592 0.06299168 -0.12678407 -0.055261265 0.1172517 -0.055969868 0.013738935 -0.064038284 -0.014119997 0.04683918 -0.01022016 0.12703787 0.028703898 0.22959994 -0.080072165 0.08734164 -0.09706638 0.112862006 0.060296144 0.037024584 -0.01063924 0.16918182 -0.12548654 -0.1469491 -0.26638246
29 -0.110893786 -0.18687525 0.02448194 -0.05815169 0.08805322 -0.010809451 0.16548455 0.065720975 -0.022952832 -0.008193965 -0.1379577 0.07299143 0.16026376 -0.10336878 -0.09362911 -0.16010728 -0.08392766 -0.011393501 0.03796184 0.101732515 0.1286998 -0.14251511 0.08077789 0.0434432 0.11238298 -0.025139717 -0.1372303 -0.034229312 -0.072368994 -0.14624001 0.011776493 -0.008269918 -0.14363413 -0.13255015 -0.05230686 -0.008804634 0.17051148 -0.004917257 0.09740699 0.021138702 -0.0924576 0.052186597 0.1171782 -0.027901717 0.006676535 0.11449826 0.11905856 -0.010207433 -0.015339329 0.057467088 -0.0047195423 0.011521312 0.07702778 -0.122686304 -0.09771576 -0.13015604 0.04069137 -0.016582055 -0.15204786 -0.00800361 0.09063846 -0.14573675 -0.05755476 0.12003013 -0.07936543 0.027751971 -0.16151817 -0.011957078 0.097167365 0.010151455 0.08191412 0.027183227 0.2386695 -0.12976125 0.104670905 -0.10108433 0.14053102 0.08411069 0.0058583883 -0.016102785 0.14815031 -0.13756329 -0.13826928 -0.30029497
78 -0.1427374 -0.20565926 0.026010286 -0.07391627 0.13116167 -0.038356278 0.18503222 0.10181141 -0.029902333 -0.0040386687 -0.10437418 0.028579567 0.13656658 -0.10623069 -0.055806 -0.098058775 -0.07166741 -0.013442078 0.033668134 0.05027811 0.0768634 -0.11138786 0.09480289 0.04077124 0.1171405 -0.00019306687 -0.09329829 -0.02467762 -0.06406957 -0.19597077 -0.011640176 0.048187703 -0.18256542 -0.19470891 -0.080795385 -0.021138202 0.15764552 -0.014921606 0.06675197 0.0480697 -0.09170452 0.05196385 0.1737309 -0.019532407 -0.029458035 0.11350518 0.19861157 0.009752784 0.03560199 0.037600514 0.030760689 0.018520521 0.036764458 -0.121308304 -0.09372207 -0.17608485 0.07049516 -0.04969438 -0.19153832 -0.010416865 0.06681976 -0.14376818 -0.06004014 0.15414178 -0.04543103 0.011178697 -0.1276201 0.0028888097 0.063853025 0.0075003966 0.15751827 0.057123695 0.2477914 -0.11964332 0.07775866 -0.11878738 0.09288149 0.044621028 -0.012781451 0.0061690575 0.18317121 -0.10587401 -0.12349579 -0.26300782
