84 84
44 -0.056621388 -0.22342192 -0.015402195 -0.0821575 0.010716336 -0.02806543 0.12582405 0.0434725 0.07613129 0.021372205 -0.0031626485 0.21349134 0.057090737 -0.026322175 -0.0033134168 -0.16524471 -0.16024597 -0.022890605 0.03261633 0.07458942 0.18639928 -0.029646974 0.09228963 0.06385697 0.13882682 -0.0920246 -0.13402133 -0.12896675 -0.115736164 -0.060121838 -0.016986553 0.03011352 -0.17481224 -0.029019263 -0.005258406 -0.05941188 0.076686844 0.046563547 0.009313303 -0.020625738 -0.10928643 0.101819605 0.06775401 0.003703916 -0.11162141 0.26456314 0.12618618 -0.08635325 0.026422722 -0.03215875 -0.006641518 0.061175298 0.060359232 -0.03915966 -0.09002021 -0.14358053 0.08878222 -0.093012854 -0.19464563 -0.11888277 0.10595437 -0.010345904 -0.063865185 0.084493116 -0.06570749 0.06387114 -0.04682206 -0.070674494 0.100769274 -0.07351894 0.08326604 -0.047681186 0.17420778 -0.15041609 0.1524196 -0.09904455 0.052706916 -0.14549096 -0.02943231 -0.032413453 0.16064017 -0.11580682 -0.19587263 -0.14174871
18 -0.06378501 -0.21086228 0.0037961649 -0.056383442 0.012734514 -0.019857757 0.12599945 0.059883412 0.091592304 0.01852191 -0.008099846 0.21923038 0.08188343 -0.029093705 -0.0070062275 -0.17139682 -0.14670782 -0.010441982 0.027887508 0.07055728 0.17403214 -0.036580283 0.100092314 0.03787073 0.1275443 -0.08512063 -0.14026465 -0.12794334 -0.10711563 -0.060958758 -0.011500186 0.03197393 -0.16348892 -0.024783516 0.0073186485 -0.05948271 0.07841867 0.044263016 0.010561825 -0.015815252 -0.08923384 0.09817453 0.07759176 -0.008913311 -0.12469793 0.25987658 0.11999959 -0.07344253 0.03822989 -0.018179245 -0.015056249 0.051996153 0.07135614 -0.034501445 -0.0853509 -0.14282086 0.07273552 -0.0778828 -0.19684845 -0.123012014 0.09590252 -0.032058936 -0.04731699 0.085203424 -0.07349442 0.06937457 -0.038775664 -0.09869736 0.12468676 -0.053672478 0.084879145 -0.031802513 0.17857805 -0.15246007 0.18175346 -0.0851782 0.050734427 -0.13894276 -0.028432792 -0.042571753 0.15590134 -0.11574224 -0.2035045 -0.14757381
63 -0.06919946 -0.26562223 0.0030391645 -0.076903336 0.018478082 -0.020012155 0.1391111 0.04560713 0.07826846 0.01099256 -0.007894123 0.22772281 0.054607764 -0.040859036 0.011339428 -0.17356321 -0.15444808 -0.01813517 0.03460724 0.07076007 0.1822716 -0.023430726 0.09490232 0.05690584 0.12536284 -0.085348554 -0.14389761 -0.14453287 -0.11886027 -0.068937905 -0.0077554598 0.017610226 -0.18627429 -0.033829954 0.0014934897 -0.069901 0.08908452 0.042885106 0.007631846 -0.020667495 -0.083902426 0.11102989 0.07435677 -0.0075126276 -0.10904466 0.26199323 0.12382479 -0.08780361 0.02627216 -0.028134972 -0.027093094 0.06301542 0.056737624 -0.030561911 -0.092659965 -0.14586383 0.08459902 -0.079494104 -0.19444513 -0.11655889 0.087581106 -0.026343811 -0.052025232 0.08439423 -0.069294326 0.06288099 -0.054698575 -0.08113743 0.09276413 -0.074743815 0.0607597 -0.031606507 0.15510902 -0.14088456 0.16473857 -0.08895679 0.058924522 -0.13413663 -0.037984714 -0.042858474 0.13446671 -0.10552698 -0.17473315 -0.1284459
76 -0.10108158 -0.30953878 -0.009471835 -0.077078454 0.017801162 -0.03304819 0.15532823 0.044154964 0.06983723 -0.00036849757 -0.016006103 0.24503018 0.04568983 -0.041049432 0.009861585 -0.17447916 -0.15541033 -0.012556706 0.04775936 0.08543837 0.18927589 -0.03076808 0.10764417 0.062342525 0.14844857 -0.10614582 -0.1627013 -0.15304537 -0.12060709 -0.074354514 -0.0150625575 0.018805958 -0.1769462 -0.023056984 0.015117617 -0.058291752 0.08883417 0.027342709 0.0070860614 -0.014370678 -0.085553184 0.09700872 0.07442736 0.0040980633 -0.116465814 0.2698578 0.13168618 -0.087903865 0.02448018 -0.03288957 -0.018482575 0.049853984 0.060099937 -0.042588755 -0.09802318 -0.15267353 0.08151028 -0.066474445 -0.19766359 -0.115566224 0.06622425 -0.006910278 -0.043007575 0.0756369 -0.060551476 0.044815116 -0.04392927 -0.06972471 0.07698991 -0.07446592 0.05388178 -0.030341392 0.13405629 -0.11863064 0.14089285 -0.059745304 0.038772084 -0.12708221 -0.028957156 -0.043096542 0.12533711 -0.07782236 -0.15780754 -0.091342896
17 -0.07117462 -0.21306923 -0.0069620353 -0.04818106 0.016017556 -0.022779254 0.119153306 0.058248654 0.08095641 0.015722394 -0.012330487 0.20966028 0.056025602 -0.01914951 -0.0026423836 -0.14780794 -0.14038168 -0.02364114 0.026513016 0.06671844 0.18094087 -0.040691014 0.10457615 0.041267183 0.15522769 -0.0939563 -0.15545633 -0.13983235 -0.12637886 -0.056239564 -0.0073273308 0.02719311 -0.1762018 -0.042771008 -0.0065895906 -0.068153724 0.09274823 0.057075825 -0.0035555144 -0.016773673 -0.10283121 0.106919385 0.08334385 -0.0016945134 -0.13006827 0.27446496 0.1382511 -0.082104124 0.044791583 -0.022645973 -0.014197915 0.05650946 0.07543551 -0.044412144 -0.09505861 -0.16860248 0.07983673 -0.08712731 -0.18392724 -0.1375204 0.10630805 -0.024803855 -0.054581452 0.086904645 -0.06036917 0.07322308 -0.04855291 -0.070467405 0.113430515 -0.06442141 0.0790263 -0.03316502 0.16764162 -0.14366294 0.16833086 -0.082228154 0.050319366 -0.14661255 -0.032368593 -0.039111607 0.15548156 -0.11133883 -0.18063788 -0.13010159
43 -0.064560175 -0.23141132 -0.00010380456 -0.059955817 -0.0008609417 -0.03696696 0.15969355 0.05876411 0.07393567 0.024943074 -0.0046013114 0.19348311 0.046470236 -0.027427733 0.0034822607 -0.14551638 -0.12270606 -0.017189698 0.021593727 0.05338622 0.15388766 -0.033629548 0.10201853 0.038625076 0.13174683 -0.081453525 -0.12079257 -0.13061409 -0.12655774 -0.053566106 -0.010510335 0.03887971 -0.17843139 -0.027439414 0.00093020726 -0.06248625 0.0885714 0.042930163 0.006418563 -0.021521237 -0.09397943 0.10134726 0.092795774 0.018374857 -0.123868495 0.26223707 0.14432254 -0.09028559 0.03705353 -0.02398592 -0.0074835555 0.056632012 0.047495957 -0.033063862 -0.08998703 -0.15834051 0.08722347 -0.06749225 -0.21343398 -0.12880881 0.09699289 -0.01227574 -0.05715661 0.089545816 -0.06030402 0.057936613 -0.052935965 -0.093540214 0.11097281 -0.08212608 0.0886681 -0.037472717 0.1695774 -0.13204665 0.17348841 -0.09060882 0.04596405 -0.14573778 -0.02773868 -0.030746264 0.16794112 -0.106315054 -0.19132042 -0.12034796
81 -0.051237907 -0.14866278 -0.0035104002 -0.059250474 0.027573138 -0.0012292943 0.08216991 0.060459536 0.049988516 0.0074453396 -0.00955654 0.1802739 0.06357746 -0.01040714 0.0045630336 -0.13400121 -0.14509574 -0.009062273 0.043724634 0.0684199 0.18504354 -0.039794195 0.09224199 0.04422931 0.13869521 -0.09482529 -0.15314248 -0.12595361 -0.12640244 -0.07112112 -0.006063231 0.04230482 -0.18121783 -0.026859218 0.0059942864 -0.060444534 0.08943375 0.03547435 0.0136827715 -0.0017810112 -0.12840126 0.10531743 0.08053759 -0.014509083 -0.14198859 0.28981832 0.12679753 -0.07940767 0.043766722 -0.02406668 -0.011283767 0.074581414 0.08237301 -0.028176326 -0.08718689 -0.1496662 0.07201923 -0.10466105 -0.21227658 -0.1443959 0.115174964 -0.028492514 -0.071321055 0.09223369 -0.06856944 0.068771 -0.051696777 -0.10159875 0.10844869 -0.06966472 0.08832595 -0.04126851 0.17385507 -0.15390563 0.17314017 -0.088963136 0.043732572 -0.13435191 -0.04005336 -0.03916138 0.15720741 -0.11864861 -0.19368434 -0.13376579
12 -0.056982372 -0.20914432 -0.0132199405 -0.07059022 -0.0005044977 -0.02627503 0.14777462 0.05353737 0.0727069 0.013593815 -0.0099947695 0.20464566 0.056209013 -0.027809639 -0.014531074 -0.1333174 -0.12416217 -0.013193253 0.016351642 0.03653384 0.14632836 -0.021364726 0.078805394 0.041559912 0.10668701 -0.08209267 -0.114578575 -0.10851145 -0.1165709 -0.039555423 -0.007696696 0.02868479 -0.1731744 -0.031845897 0.01558496 -0.057104867 0.07934096 0.045538332 -0.00087881234 -0.025311472 -0.11123787 0.0850462 0.06597444 -0.0030318878 -0.13078761 0.28223106 0.15323116 -0.09173702 0.035811216 -0.019031899 -0.011316252 0.07260081 0.06331961 -0.04487471 -0.08493439 -0.18061595 0.074790984 -0.084721334 -0.19638796 -0.13586614 0.111486554 -0.0013239633 -0.07134218 0.09131127 -0.07784419 0.066798545 -0.034698274 -0.09454011 0.11872703 -0.08133124 0.09345711 -0.039976884 0.18566595 -0.15036143 0.18361646 -0.109297484 0.05263509 -0.15120283 -0.026726587 -0.03941616 0.16765851 -0.115051754 -0.20402296 -0.14562078
57 -0.063604936 -0.23878105 -0.002179259 -0.069910005 0.0028375757 -0.02287819 0.14503433 0.06544141 0.09155178 0.022881709 -0.00876478 0.218927 0.07435462 -0.029359639 -0.007157738 -0.1646857 -0.14873362 -0.017856557 0.03617919 0.06108094 0.15492967 -0.032071892 0.10256276 0.033630874 0.109951906 -0.05710289 -0.118576095 -0.10483411 -0.108343564 -0.046801496 -0.019380743 0.045083877 -0.17417943 -0.022703094 0.007160137 -0.062852226 0.07022958 0.04518336 0.007848363 0.0073722545 -0.0996167 0.08750594 0.06411787 0.009865012 -0.12544541 0.27382758 0.12834278 -0.08726322 0.041231718 -0.02379042 -0.020086272 0.051880967 0.05599742 -0.03254405 -0.07913404 -0.15296178 0.07154996 -0.06786391 -0.19212866 -0.11797062 0.09806909 -0.005530557 -0.060455225 0.08291813 -0.067367844 0.0668654 -0.036619276 -0.09430568 0.10936654 -0.065681 0.093553476 -0.04258421 0.18739784 -0.15235245 0.16369711 -0.10021693 0.04558367 -0.14413673 -0.028987112 -0.037337147 0.18043363 -0.11703245 -0.20739649 -0.1371614
66 -0.06283976 -0.26670972 -0.00284981 -0.08296818 0.0014550094 -0.024083437 0.12690894 0.049676254 0.07546254 0.017357284 -0.020472134 0.21604598 0.06191305 -0.030348504 0.009340358 -0.16104177 -0.15044068 -0.0013929502 0.042585175 0.086414374 0.21385236 -0.03188723 0.10547305 0.06663662 0.14371815 -0.102999955 -0.14556713 -0.15163162 -0.119118735 -0.07015272 0.0006411841 0.031217583 -0.16778809 -0.033884536 0.0068947845 -0.04608212 0.084575534 0.031387433 0.00941226 -0.013683188 -0.10121232 0.11244018 0.06880967 -0.005647444 -0.11520801 0.28579295 0.12342622 -0.09799371 0.013429973 -0.033374317 -0.020103484 0.077355914 0.08362289 -0.025230378 -0.0883326 -0.14511517 0.07192664 -0.080543965 -0.19040693 -0.11062174 0.09073013 -0.033250533 -0.05612166 0.06379103 -0.072593056 0.041988183 -0.041952454 -0.080448665 0.08388191 -0.057969477 0.064234175 -0.036487296 0.1398636 -0.117962964 0.13873218 -0.08886876 0.04408619 -0.10738495 -0.03823633 -0.034738924 0.11187949 -0.11637423 -0.16344349 -0.120537706
22 -0.08535568 -0.25124717 -0.002321192 -0.066649556 0.006188186 -0.028703552 0.12301015 0.0399254 0.08037498 0.0007738512 -0.006349693 0.23625845 0.0476985 -0.038838502 0.00991206 -0.1499023 -0.15625434 -0.023924487 0.044306513 0.07559465 0.1853249 -0.02713454 0.098381154 0.055196483 0.11584047 -0.07247208 -0.14006239 -0.13253525 -0.10974877 -0.063400395 -0.0141149 0.023233395 -0.1757807 -0.030075235 0.005900423 -0.06357626 0.078115545 0.042105753 0.008403774 -0.010667609 -0.082644925 0.10624905 0.060205594 0.00075737556 -0.1149271 0.26738235 0.12279518 -0.074308 0.020459827 -0.03301929 -0.016782882 0.05230231 0.050321475 -0.039532714 -0.07550761 -0.14724766 0.07778736 -0.061338898 -0.17217828 -0.118394375 0.077118464 -0.009322873 -0.042381056 0.09131864 -0.0782786 0.055354957 -0.049445786 -0.07051539 0.10974604 -0.07301329 0.07983226 -0.04336115 0.16511242 -0.14916551 0.16815664 -0.081578605 0.051864963 -0.1582253 -0.035404276 -0.04863578 0.15794389 -0.11220435 -0.19784367 -0.13955402
0 -0.06933291 -0.2576181 -0.013373503 -0.07836388 -0.0029318416 -0.0290307 0.15224661 0.05187612 0.073521115 0.013301201 -0.007343424 0.22822112 0.04911493 -0.03354027 -0.0026942277 -0.14637516 -0.13858631 -0.014359857 0.028159631 0.06327667 0.17673524 -0.028982453 0.100654885 0.06128601 0.13219438 -0.107294016 -0.14187373 -0.14551575 -0.13858843 -0.068222724 -0.015717303 0.04091011 -0.1830133 -0.035139203 0.0022501994 -0.07093988 0.09006751 0.04973756 0.016538851 -0.020446386 -0.106442936 0.10283192 0.07571467 0.013765239 -0.1305081 0.2803115 0.13782227 -0.098770276 0.032057986 -0.030574095 -0.02523368 0.060389902 0.052983288 -0.037149213 -0.09007053 -0.15994504 0.07232704 -0.086009085 -0.21286635 -0.12243222 0.09113594 -0.017573642 -0.051569123 0.09953937 -0.055321615 0.042334776 -0.04126751 -0.082386196 0.083444916 -0.085840955 0.061840583 -0.028618466 0.13484329 -0.11406527 0.14280555 -0.078425564 0.041556206 -0.13367067 -0.03328654 -0.035311356 0.14692748 -0.09439638 -0.16662294 -0.1111571
24 -0.057812147 -0.2272475 0.009574585 -0.07196969 -0.003589785 -0.024330879 0.14056481 0.047998592 0.06900184 0.01637586 0.0006518022 0.16853565 0.052953873 -0.037123185 -0.00057487766 -0.13161288 -0.13720162 -0.023935702 0.024570532 0.046399962 0.15747677 -0.035983663 0.0782916 0.053475555 0.12547088 -0.06784275 -0.10867857 -0.12435122 -0.117770396 -0.05377539 -0.024627613 0.032822672 -0.18139629 -0.03772587 -0.0039261268 -0.066365235 0.095089205 0.04789804 0.015094009 -0.027193766 -0.09195014 0.118629135 0.062856376 0.010229809 -0.12764606 0.3007754 0.14213781 -0.08508466 0.032619175 -0.027115218 0.0004091338 0.064313926 0.048994504 -0.022150332 -0.07206063 -0.13569158 0.0818019 -0.084573135 -0.20042731 -0.1302683 0.10544771 -0.021002997 -0.052528303 0.097814806 -0.08091846 0.058599226 -0.054387137 -0.08429123 0.11348926 -0.07629206 0.08670196 -0.05662461 0.1772999 -0.14685616 0.16171525 -0.11368199 0.054786082 -0.15642537 -0.027507933 -0.038404856 0.16823833 -0.11626657 -0.20738952 -0.13725092
38 -0.05761968 -0.23108281 8.118553e-05 -0.07259221 0.0042777667 -0.02856345 0.12372132 0.033463746 0.073991746 0.016905297 -0.011853986 0.21015464 0.05065733 -0.035057463 -0.009249241 -0.15541671 -0.13088231 -0.017922772 0.03514024 0.05550056 0.14554936 -0.024878656 0.08532691 0.054259785 0.10347777 -0.07169208 -0.11304032 -0.12113835 -0.09661513 -0.048575737 -0.014786932 0.029151918 -0.17007999 -0.026462799 -0.0053499136 -0.058600716 0.08497584 0.032255262 0.007494139 -0.02414632 -0.10443385 0.106956966 0.07876163 0.011140537 -0.122687444 0.294566 0.14208701 -0.09469115 0.033324476 -0.034631997 -0.01451352 0.05121861 0.049905214 -0.03401999 -0.10002642 -0.15819283 0.10125517 -0.08367275 -0.23181444 -0.1258535 0.09089166 -0.012447435 -0.058651775 0.0884176 -0.07154971 0.06422972 -0.04774491 -0.085953675 0.102746546 -0.0824208 0.075050056 -0.042662494 0.16218509 -0.1487021 0.16198754 -0.085292436 0.06264775 -0.14393029 -0.032566816 -0.04369229 0.15587921 -0.10908365 -0.18689859 -0.13388132
41 -0.07445902 -0.23799881 0.00092883274 -0.07025738 0.009453093 -0.024626253 0.13052537 0.043120693 0.069734 0.012009374 -0.0092983665 0.22731689 0.05602188 -0.025507187 0.004279983 -0.17200623 -0.15162669 -0.021063106 0.04769846 0.06861847 0.18411703 -0.050651275 0.10224534 0.05674948 0.14585322 -0.09862288 -0.15605474 -0.1378948 -0.122028105 -0.059771843 -0.021766922 0.046519928 -0.18595512 -0.019758133 -0.011662258 -0.06521121 0.082618885 0.03958009 0.0031548045 -0.02180569 -0.098787345 0.08124837 0.082545586 0.006775856 -0.121410765 0.27288857 0.13380182 -0.08678483 0.047525242 -0.030398468 -0.016693499 0.049292546 0.040855937 -0.045834977 -0.08492538 -0.15627994 0.08929032 -0.07265889 -0.21306421 -0.12203398 0.100851685 -0.016677728 -0.043471865 0.09867513 -0.07155665 0.06522405 -0.05212433 -0.08625414 0.09316916 -0.072804675 0.08427926 -0.040610064 0.15412913 -0.11419836 0.14368334 -0.0920701 0.040735617 -0.13183627 -0.024297142 -0.026662841 0.1478648 -0.09361167 -0.15994231 -0.100547545
55 -0.050450496 -0.23988183 -0.009092786 -0.07073754 0.0012399585 -0.028855188 0.15051118 0.0555775 0.09240934 0.018043065 -0.015426071 0.21789819 0.063223444 -0.03689249 -0.01400262 -0.16995485 -0.14194226 -0.0049841837 0.022774769 0.06767807 0.17612974 -0.023552857 0.08981529 0.045403387 0.115094304 -0.08249803 -0.12553601 -0.124090455 -0.105610766 -0.04153352 -0.007642542 0.01611268 -0.14733452 -0.029897422 0.01377802 -0.046974774 0.072490506 0.03746141 -0.011262262 -0.0335266 -0.08898738 0.09438518 0.06583251 -0.013595231 -0.10655711 0.26053613 0.13655631 -0.082116544 0.023958236 -0.022704609 -0.005641434 0.065286525 0.07131374 -0.031806875 -0.08757711 -0.14244378 0.08247025 -0.068865106 -0.17423919 -0.11200617 0.09203126 -0.019165652 -0.054298155 0.076748244 -0.0844617 0.07257551 -0.038117297 -0.09520508 0.12469033 -0.082313776 0.09087204 -0.049226128 0.19734967 -0.15617043 0.18861094 -0.10690253 0.05854667 -0.15922773 -0.030265775 -0.04184212 0.14438221 -0.12669459 -0.1947832 -0.15597273
2 -0.07611346 -0.23984703 -0.004417896 -0.07042089 0.0026941889 -0.024685662 0.14237079 0.044873524 0.0691053 0.009243928 -0.012146241 0.2382394 0.049051438 -0.036892336 -0.010566483 -0.16124438 -0.13352577 -0.007899131 0.026966631 0.06385235 0.16059494 -0.034384117 0.092110425 0.041813154 0.1276531 -0.094759636 -0.14819747 -0.13845663 -0.10877538 -0.048481304 -0.0048871874 0.03287625 -0.17834187 -0.028248332 0.0015330538 -0.05726669 0.101267286 0.04349943 0.007354231 -0.031005329 -0.09152727 0.11418563 0.083841 -0.0029894372 -0.13313165 0.28286028 0.14088525 -0.100251965 0.03713158 -0.02716798 -0.020273434 0.039724547 0.061095424 -0.039227113 -0.100545354 -0.1659256 0.09245755 -0.08176805 -0.21994258 -0.1394725 0.08865227 -0.018501503 -0.04800654 0.07645502 -0.06715789 0.062290058 -0.042294458 -0.08711212 0.085222654 -0.08178251 0.06645987 -0.030701332 0.14686085 -0.12331772 0.15876308 -0.06994223 0.05402749 -0.13513686 -0.02024398 -0.044001237 0.14067835 -0.09256251 -0.16324897 -0.10906236
46 -0.08100114 -0.23997216 -0.0006942236 -0.06479403 0.020804932 -0.02310331 0.12498335 0.039999586 0.04211936 0.012946551 0.0042339326 0.17185648 0.045373555 -0.010870241 -0.0055599697 -0.1581378 -0.13250196 -0.011034005 0.036774885 0.06833344 0.18044615 -0.044991154 0.09465374 0.060120072 0.16941604 -0.11931614 -0.17458521 -0.15096706 -0.1205136 -0.06480605 -0.021347445 0.052075118 -0.18951859 -0.011454605 -0.001266683 -0.05621863 0.06968243 0.024193697 0.01702416 -0.012407723 -0.107220516 0.083408765 0.08056312 0.0063386983 -0.12958094 0.2815069 0.13027598 -0.099285536 0.029404586 -0.03667645 -0.00973738 0.052840807 0.05269259 -0.02792629 -0.09090015 -0.13569191 0.084311835 -0.0806022 -0.2075818 -0.12262822 0.10215049 -0.017085262 -0.07601717 0.07590259 -0.07334287 0.06126995 -0.04348046 -0.09402621 0.09899277 -0.06981478 0.08279308 -0.033956297 0.15977283 -0.12473077 0.15748173 -0.08559791 0.037420526 -0.14235586 -0.023767002 -0.035693154 0.15835117 -0.11036208 -0.18152618 -0.1179263
14 -0.091129385 -0.25665334 0.013927046 -0.07509318 0.023093425 -0.029073792 0.13220581 0.049144 0.060406893 0.008069496 -0.010134485 0.20974594 0.055383872 -0.023998147 -0.007746308 -0.17285718 -0.14713709 -0.025104443 0.045784555 0.06576853 0.18524909 -0.0344844 0.10438208 0.06822123 0.13787238 -0.090946786 -0.14544006 -0.118742086 -0.1188283 -0.047743186 -0.013594182 0.026669214 -0.17711088 -0.019380076 -0.0032276919 -0.072234504 0.08166694 0.03583805 0.0029546048 -0.019004915 -0.10923576 0.07786143 0.086820856 0.013365758 -0.13128771 0.28807867 0.13671851 -0.088592246 0.03523444 -0.019868456 -0.007888099 0.053256776 0.048848104 -0.042528946 -0.092800364 -0.15825513 0.07488182 -0.07416277 -0.21483245 -0.13418122 0.09036883 -8.172327e-05 -0.050976872 0.091270216 -0.06872659 0.0632011 -0.038794003 -0.07579827 0.10360041 -0.07240411 0.07754174 -0.025028797 0.15129428 -0.12159032 0.1499244 -0.08385934 0.04650768 -0.14240666 -0.018024154 -0.032488775 0.15720652 -0.09187582 -0.16727164 -0.10546177
3 -0.075050145 -0.2373502 -0.008287487 -0.068824165 0.007945359 -0.021565551 0.15361719 0.06584649 0.05920042 -0.0021037385 0.002059734 0.16741261 0.052629426 -0.036890768 0.0036527277 -0.16983606 -0.13228346 -0.014808 0.027627377 0.063163325 0.1693839 -0.03863436 0.100027464 0.057708398 0.13654283 -0.09114814 -0.14406224 -0.12620267 -0.12231621 -0.054015897 -0.02564083 0.026546322 -0.18408291 -0.00908134 0.0075815776 -0.07418087 0.08275532 0.032727428 0.0028531821 -0.009939465 -0.10702117 0.07866234 0.07131388 0.016980158 -0.11813841 0.2598427 0.12781987 -0.080606624 0.03748677 -0.025955368 -0.0119578205 0.05741284 0.06264549 -0.03787074 -0.08113013 -0.14740974 0.06819641 -0.07922537 -0.18586774 -0.1191576 0.0925238 0.0044377823 -0.06260424 0.088726535 -0.06907807 0.060150843 -0.03892152 -0.0909955 0.1151625 -0.079326 0.09353229 -0.05289897 0.1734827 -0.13935491 0.17220733 -0.101091824 0.03248304 -0.14832598 -0.021034777 -0.042322457 0.17632048 -0.10990817 -0.20957223 -0.12766838
25 -0.05699039 -0.17822914 0.00046154586 -0.051000405 -0.0007000046 -0.026918996 0.10868857 0.024101883 0.075306445 0.02146594 -0.004252741 0.18296479 0.051657956 -0.02588926 -0.0028599927 -0.14798504 -0.13480684 -0.018809019 0.03229695 0.06433147 0.17327897 -0.03367526 0.09793709 0.058451924 0.14567503 -0.09142523 -0.13749549 -0.14011742 -0.10779475 -0.05066678 -0.011760604 0.027975565 -0.18503901 -0.04641398 -0.0038683175 -0.058541033 0.08575179 0.048449837 0.014184469 -0.016467059 -0.10384697 0.13485329 0.07634849 0.0016110509 -0.13459697 0.31750563 0.1526722 -0.09672828 0.044863917 -0.033076435 -0.0140614165 0.058980316 0.06753696 -0.034110244 -0.095408365 -0.16426258 0.0974258 -0.09673852 -0.21528053 -0.12919593 0.08707039 -0.01498624 -0.05234521 0.08993406 -0.07384233 0.058228366 -0.045125842 -0.07564889 0.09492331 -0.06868227 0.07541229 -0.034426305 0.16359104 -0.13943861 0.14782627 -0.091428414 0.047343723 -0.13864711 -0.023330472 -0.03843212 0.15214866 -0.11253643 -0.19056144 -0.12966439
19 -0.040249635 -0.1898834 -0.0010033761 -0.055352673 0.0004424408 -0.02702419 0.10853233 0.039114155 0.078215085 0.017928133 -0.0139302295 0.20850685 0.045093983 -0.028974365 0.0013878905 -0.107446566 -0.15506777 -0.024023209 0.034081765 0.06755873 0.18738852 -0.029189691 0.081405334 0.05028154 0.12133164 -0.064278506 -0.112480745 -0.11720061 -0.12808092 -0.0584284 -0.013399322 0.031925634 -0.18401547 -0.04931685 0.0015227933 -0.06545396 0.093706496 0.07158346 0.017035099 -0.015335025 -0.104981005 0.12616116 0.06140275 -0.010302501 -0.13614322 0.29753065 0.14897732 -0.09661917 0.01795036 -0.027331416 -0.014818663 0.07661295 0.06171757 -0.038460523 -0.07963851 -0.16505383 0.06946574 -0.09459313 -0.19980684 -0.14292388 0.118085995 -0.030613545 -0.047958013 0.11679952 -0.079384424 0.04846599 -0.046706658 -0.07325684 0.1013758 -0.08551239 0.077321626 -0.03629031 0.16602102 -0.15063463 0.15014267 -0.10739815 0.07410045 -0.14404665 -0.039354097 -0.039220452 0.14879487 -0.11706907 -0.18739128 -0.14028841
42 -0.07480046 -0.29223073 -0.017111363 -0.09300355 0.013818771 -0.021379236 0.15094745 0.051335007 0.08200172 0.017256008 -0.016888242 0.24008466 0.054237876 -0.025071688 0.0017153309 -0.16675842 -0.14248091 -0.011815333 0.037099905 0.073286936 0.18361281 -0.03226858 0.103209555 0.06645739 0.13977619 -0.10452024 -0.15337767 -0.14054479 -0.13087122 -0.064950764 -0.01705753 0.043253034 -0.17349319 -0.016962817 -0.0027014308 -0.05494664 0.07483891 0.023405202 0.013814516 -0.009070447 -0.10042414 0.09757672 0.063754864 0.013837729 -0.10781017 0.27277532 0.12990557 -0.09611646 0.033589903 -0.031687643 -0.0182837 0.053590264 0.057267375 -0.020268895 -0.089847505 -0.13897943 0.0726662 -0.07333591 -0.20426767 -0.11129849 0.08709216 -0.013581118 -0.06285546 0.07399189 -0.05058542 0.05371483 -0.04123676 -0.092781454 0.082964264 -0.08211721 0.059577398 -0.037288897 0.14235695 -0.11930585 0.13761021 -0.069077164 0.035051133 -0.12407585 -0.038295005 -0.0368794 0.12747489 -0.084964804 -0.17129613 -0.0892751
82 -0.06668583 -0.2518894 0.013289964 -0.056210607 0.0038848324 -0.030678008 0.1310611 0.0401358 0.06299374 0.019095877 -0.024259552 0.20895451 0.049143337 -0.02639858 0.011753674 -0.1477606 -0.15314691 -0.029570306 0.04640756 0.07025854 0.1716123 -0.030752795 0.102636665 0.060324773 0.134591 -0.08608307 -0.12247464 -0.13636908 -0.12830651 -0.06531329 -0.011172543 0.025676563 -0.18542491 -0.04207222 -0.0027544957 -0.059760414 0.093546234 0.05081605 0.0070347856 -0.024968395 -0.091302425 0.10819916 0.08945694 0.0067290976 -0.119800635 0.28265473 0.15119615 -0.09364544 0.02340017 -0.023406357 -0.0111277485 0.06751657 0.040940948 -0.041430723 -0.08685104 -0.16533935 0.091528766 -0.064886004 -0.215333 -0.12622207 0.0958444 -0.03274156 -0.03654692 0.089808926 -0.07506414 0.051971167 -0.05810617 -0.06758414 0.09426029 -0.081060685 0.06616444 -0.03990795 0.13963176 -0.12472742 0.1506272 -0.083032444 0.052970942 -0.13037872 -0.035683446 -0.04062876 0.13969448 -0.10513779 -0.17196417 -0.116145104
1 -0.06472718 -0.22942448 0.0038174093 -0.06376572 0.006010065 -0.032054808 0.12737218 0.04340263 0.069334514 0.01218551 -0.0145690255 0.18827115 0.05860361 -0.027806416 -0.011095766 -0.14340046 -0.13267095 -0.021481719 0.031234808 0.057586443 0.17639104 -0.037054166 0.094962336 0.059859645 0.14517657 -0.099897824 -0.14750797 -0.13979965 -0.12412924 -0.056076713 -0.022699352 0.037944876 -0.18070918 -0.024897942 -0.005515978 -0.06209187 0.0765253 0.03732617 0.017196652 -0.03272414 -0.12194055 0.09328133 0.08006286 0.015032922 -0.13120155 0.313343 0.142808 -0.112158634 0.037954047 -0.023048704 -0.017314466 0.06363857 0.056666937 -0.025084559 -0.09869293 -0.1623307 0.076998144 -0.080542326 -0.21417722 -0.1337046 0.122684315 -0.01927352 -0.06656267 0.08382961 -0.065582335 0.059105147 -0.045590527 -0.0847336 0.10103785 -0.066414386 0.0673831 -0.043092016 0.15621033 -0.12838823 0.14628398 -0.08370644 0.052693628 -0.12790957 -0.027911684 -0.041830067 0.12597924 -0.09476573 -0.15774034 -0.11736192
54 -0.071440406 -0.21521631 -0.008121271 -0.06692156 0.019475685 -0.029932527 0.15398128 0.058914922 0.082476 0.0023041752 -0.015494888 0.19506335 0.072644085 -0.036665883 -0.014442004 -0.15325399 -0.12549067 -0.0033239892 0.019556507 0.065695986 0.18691288 -0.025220267 0.09448307 0.044562478 0.13161725 -0.09280856 -0.15147358 -0.13291687 -0.11676248 -0.07644318 -0.01017266 0.03413549 -0.16953017 -0.030737579 0.01933206 -0.05630546 0.070259176 0.041202843 0.01142529 -0.0055651767 -0.10994926 0.11327668 0.06810064 -0.0046854164 -0.12146662 0.2587221 0.13408773 -0.080759615 0.030318432 -0.032413967 -0.016241606 0.07044642 0.09393964 -0.029273124 -0.07825004 -0.14344285 0.074918985 -0.09039864 -0.1724853 -0.11040818 0.080483064 -0.004989334 -0.06919761 0.0643494 -0.06482841 0.05813563 -0.033519138 -0.0892441 0.11111503 -0.05107133 0.09489644 -0.039621506 0.18136503 -0.15715972 0.16587503 -0.09196806 0.040417664 -0.14494997 -0.031578347 -0.043348394 0.15602039 -0.1287583 -0.21466 -0.15249774
11 -0.074942194 -0.23537195 -0.002506552 -0.06094743 0.014765985 -0.031571392 0.14653046 0.05931574 0.07623 0.0023232698 -0.019367218 0.21498694 0.0558685 -0.027749848 0.006423736 -0.16847834 -0.15367478 -0.022661995 0.02863472 0.059223913 0.17798053 -0.027429117 0.103126995 0.051967602 0.12761311 -0.090737835 -0.14194569 -0.13298215 -0.12939303 -0.06630552 -0.009461701 0.026934227 -0.1751938 -0.036101386 0.012727613 -0.059913374 0.08755384 0.041756883 -0.0040112357 -0.017681332 -0.094500974 0.09349804 0.08042937 0.0035555859 -0.110818855 0.2493528 0.13808289 -0.08005095 0.026738923 -0.020406695 -0.0074128816 0.068516366 0.055589244 -0.042028658 -0.07450949 -0.15219896 0.07648514 -0.06395797 -0.18055776 -0.118438296 0.091298476 -0.012719405 -0.048119616 0.08230219 -0.072205715 0.061530367 -0.05267069 -0.07872814 0.10848266 -0.07683086 0.08736782 -0.03775784 0.16232571 -0.13743292 0.17939413 -0.0972455 0.04377014 -0.14979923 -0.036554087 -0.035496797 0.15459658 -0.10662386 -0.18611592 -0.1302634
64 -0.054940667 -0.18759419 -0.011092087 -0.04826019 0.0067009167 -0.027501596 0.11464448 0.047897976 0.08438045 0.007881368 -0.012589705 0.1963232 0.057962254 -0.029689262 -0.0012972584 -0.12768033 -0.12960657 -0.0101392 0.028168106 0.07026512 0.18323207 -0.023121865 0.09353204 0.046830207 0.14533313 -0.09145848 -0.15361798 -0.14093736 -0.13376638 -0.065987036 -0.009881899 0.03097919 -0.18866873 -0.05169811 0.00066258095 -0.066430956 0.08880028 0.049468264 0.009196766 0.003064626 -0.108422056 0.1258464 0.0670913 -0.0030976234 -0.12922575 0.30157402 0.14666663 -0.1021627 0.026495976 -0.02963339 -0.011540404 0.06395994 0.06833706 -0.031028517 -0.083601296 -0.16654176 0.0693342 -0.08095637 -0.19375885 -0.12853046 0.08681284 -0.010032541 -0.06136061 0.090208285 -0.057336234 0.063500464 -0.046035804 -0.085042045 0.10878744 -0.07220402 0.07934221 -0.034396477 0.17872734 -0.15206628 0.14612024 -0.085285686 0.04899003 -0.14236954 -0.028609637 -0.04593177 0.14591102 -0.10323642 -0.18670897 -0.12472176
70 -0.06637073 -0.28257817 -0.022620182 -0.088211365 0.03265059 -0.028023146 0.11741847 0.059288517 0.087747365 0.01852522 -0.03009892 0.21391007 0.048112508 -0.029141374 0.01127628 -0.14775617 -0.14629066 -0.02049579 0.048978295 0.09265837 0.21019928 -0.03338629 0.091864444 0.052748766 0.15950842 -0.09944334 -0.1454131 -0.14091569 -0.12976441 -0.069157764 -0.009051243 0.019598315 -0.19742192 -0.043193456 -0.0080741495 -0.06718825 0.082829356 0.046098594 -0.002590915 -0.0028254318 -0.10130018 0.10430916 0.055285353 -0.0029747118 -0.114466265 0.26493487 0.12719056 -0.076989464 0.030177731 -0.040485807 -0.006742345 0.07285353 0.08950721 -0.03069875 -0.083877966 -0.1365444 0.08186439 -0.07580131 -0.17859243 -0.10246928 0.10055256 -0.018403433 -0.058646027 0.089726515 -0.06932006 0.067738146 -0.041541427 -0.06657106 0.09290701 -0.062614 0.065349795 -0.036267687 0.16993107 -0.13131563 0.11251601 -0.08375145 0.048857197 -0.110763036 -0.033274002 -0.037297364 0.122823685 -0.11995031 -0.1770852 -0.10313444
15 -0.0754273 -0.25075734 -0.007302201 -0.08356189 0.010633674 -0.028390648 0.13218674 0.042387534 0.07482844 0.0047998666 -0.009102405 0.20724048 0.051619057 -0.027876487 -0.005379298 -0.14867762 -0.15615912 -0.018063415 0.033171028 0.06958073 0.20195639 -0.026476601 0.092714526 0.05579216 0.13168666 -0.090954065 -0.14844759 -0.13389169 -0.11322286 -0.060302276 -0.017633647 0.02614482 -0.17572482 -0.033027206 0.007477531 -0.064119056 0.085986726 0.04397628 0.013011022 -0.015795795 -0.11610872 0.10484095 0.068926655 0.003384333 -0.118106805 0.28979856 0.1280292 -0.100356296 0.026030216 -0.036606476 -0.017487647 0.058831576 0.0757851 -0.02611877 -0.08822132 -0.15253405 0.0705036 -0.0905336 -0.17849413 -0.11631389 0.098401785 -0.0018314266 -0.050385363 0.05810881 -0.06371768 0.06630126 -0.03724613 -0.07404369 0.09275482 -0.064887494 0.07469515 -0.041784044 0.16239473 -0.14433451 0.14500302 -0.08877744 0.05225624 -0.12881249 -0.034953568 -0.042054832 0.13302761 -0.09895819 -0.16489285 -0.12409452
51 -0.076252855 -0.28454128 -0.004563069 -0.0755544 0.014365932 -0.024668146 0.14966089 0.048713267 0.08089979 0.018229956 -0.010606446 0.21722974 0.067632414 -0.03605328 -0.012778471 -0.17653951 -0.14634341 -0.010076236 0.027057774 0.072904274 0.18026744 -0.033796996 0.10400486 0.049173128 0.13449551 -0.09008986 -0.12947764 -0.13129133 -0.09964221 -0.052690376 -0.014762706 0.022287091 -0.16709776 -0.029484292 -0.007677425 -0.061271954 0.07944045 0.04524323 0.00044587837 -0.012891329 -0.07980907 0.08864086 0.06874607 0.0015156562 -0.10899881 0.24654245 0.12000381 -0.09155243 0.03382734 -0.024177257 -0.01086641 0.05106821 0.066754706 -0.047558006 -0.09475902 -0.15242046 0.079885855 -0.08051394 -0.181866 -0.1148608 0.09183162 -0.023479007 -0.050428115 0.087592915 -0.06371051 0.06559082 -0.037723612 -0.0808158 0.1146589 -0.060354948 0.076248355 -0.034585346 0.16455764 -0.1403602 0.14728841 -0.10032403 0.047617905 -0.12430126 -0.024014207 -0.036514305 0.1454388 -0.11480164 -0.18850218 -0.14023198
45 -0.07820471 -0.27752474 -0.017336868 -0.084683314 0.02640084 -0.019447492 0.1591163 0.07178311 0.091669016 0.016644442 -0.016586734 0.2515704 0.07938252 -0.03730924 -0.010744434 -0.2052022 -0.15965593 -0.0052770744 0.03761594 0.08798739 0.20981246 -0.03609362 0.099392794 0.050664682 0.13962479 -0.1004231 -0.15025589 -0.13719742 -0.11433066 -0.06180377 -0.014906708 0.026293589 -0.16390638 -0.023240326 0.0031570937 -0.04945109 0.06845563 0.05093177 -0.003031281 -0.020106515 -0.09130827 0.08688246 0.06614213 -0.009331258 -0.10884914 0.22360085 0.12619874 -0.06368993 0.031197635 -0.022473086 0.0020752442 0.057070084 0.060072217 -0.03213334 -0.073103175 -0.13388379 0.07048774 -0.0701846 -0.15877257 -0.08399952 0.083973356 -0.017246444 -0.036649432 0.072427146 -0.07291293 0.06569228 -0.03690259 -0.07269414 0.11719661 -0.06622107 0.09519682 -0.040397637 0.16482554 -0.14730793 0.14510766 -0.091221415 0.050037492 -0.13083479 -0.022261748 -0.030567938 0.13231397 -0.11232612 -0.18379124 -0.118283466
62 -0.071348 -0.25173795 -0.018803786 -0.07225313 0.0023018892 -0.03488744 0.1458925 0.059512444 0.08278904 0.0008086679 -0.011413186 0.22090253 0.05142698 -0.031610623 -0.008801329 -0.1525873 -0.15001944 -0.014651718 0.036737263 0.08038305 0.19807233 -0.029636158 0.10429961 0.06749103 0.13793214 -0.09233312 -0.1435281 -0.13134205 -0.11972329 -0.056441065 -0.01760392 0.019939601 -0.16447717 -0.035596922 0.0056100567 -0.056804936 0.07134232 0.03871839 0.0010691122 -0.010060742 -0.10116163 0.09305676 0.06198378 0.005707829 -0.118207246 0.27049875 0.14111274 -0.08546512 0.028340999 -0.039820053 -0.012363637 0.06809356 0.05931004 -0.03518827 -0.08446325 -0.16096798 0.07370076 -0.07235824 -0.18484595 -0.12141387 0.08718449 -0.002720707 -0.053632636 0.08859882 -0.07373273 0.053097945 -0.034136295 -0.06702571 0.09964758 -0.07997832 0.07176121 -0.03904626 0.16974214 -0.12885927 0.14389291 -0.08820076 0.044852506 -0.15667553 -0.031925987 -0.043664206 0.15793398 -0.104156636 -0.18010011 -0.11980216
10 -0.06347603 -0.24681415 -0.01938102 -0.07986103 0.024506738 -0.002328578 0.13248304 0.05653459 0.063114166 0.0012810578 -0.014545139 0.2153123 0.04416391 -0.028291306 0.010165808 -0.16821656 -0.1571984 -0.011136408 0.031090174 0.07941168 0.20081845 -0.030210271 0.10572506 0.059278805 0.12639852 -0.10525059 -0.15557455 -0.13944265 -0.13890119 -0.07714674 -0.025555678 0.031254124 -0.18373758 -0.0102799265 0.005889198 -0.07727268 0.088483684 0.026225224 0.0032321813 -0.017755263 -0.10815626 0.083535604 0.074159555 0.008073425 -0.11216757 0.26843977 0.12452635 -0.07773697 0.03379663 -0.031419203 -0.023344515 0.06544886 0.07493843 -0.022190535 -0.091230735 -0.13223995 0.07160331 -0.087060206 -0.19372769 -0.10823172 0.09077635 -0.01398444 -0.06482515 0.08424322 -0.05758448 0.061521348 -0.052665178 -0.10091169 0.09751848 -0.07953819 0.06372989 -0.043347917 0.16738823 -0.14096566 0.17052363 -0.08072209 0.03508085 -0.12640697 -0.044790786 -0.03987912 0.12191604 -0.100643955 -0.16749309 -0.09812455
21 -0.067556694 -0.25551274 -0.011440362 -0.087361455 0.016425751 -0.0232167 0.123971246 0.04455596 0.06615559 0.021386398 -0.017277194 0.2009095 0.047069974 -0.028476682 -0.0022928494 -0.14260128 -0.14042617 -0.013462251 0.04435171 0.07717604 0.2027045 -0.037878297 0.09443108 0.057202883 0.15171029 -0.106423534 -0.14272892 -0.14094898 -0.12061265 -0.069209136 -0.012119031 0.026421921 -0.17405052 -0.03380244 -0.013975826 -0.062631115 0.0887319 0.046334706 0.010726836 -0.0145212365 -0.10761244 0.10058834 0.06901825 -0.00074082456 -0.12329069 0.26316705 0.12499537 -0.08489745 0.04133729 -0.035693415 -0.0032917717 0.06641888 0.076007605 -0.03497293 -0.09015143 -0.15039276 0.08700498 -0.09483134 -0.2177748 -0.115673244 0.105624035 -0.021723434 -0.059642643 0.09936462 -0.06382543 0.062734455 -0.042428833 -0.08732278 0.09332991 -0.08066684 0.082099654 -0.038510323 0.1682432 -0.13129659 0.13931014 -0.09094972 0.04532103 -0.12865025 -0.037149426 -0.02981384 0.13031232 -0.110898905 -0.17446 -0.11910202
32 -0.05803686 -0.24506631 -0.027113624 -0.074359514 0.010094126 -0.022511415 0.13163534 0.052320193 0.068162076 0.01499355 -0.014795506 0.22644149 0.049413513 -0.030274304 0.0018863948 -0.15659633 -0.14988668 -0.006334022 0.029794708 0.083318464 0.20545615 -0.02720014 0.09926542 0.052097116 0.13572834 -0.11164138 -0.15166412 -0.13828206 -0.13314128 -0.07262827 -0.014278548 0.034361795 -0.18749394 -0.028763175 -0.0008729768 -0.063137904 0.098967336 0.050639186 0.0022015779 -0.020047404 -0.10301394 0.10296289 0.07550964 -0.006013579 -0.123614565 0.24410665 0.12700905 -0.082231544 0.030151067 -0.032639615 -0.031065144 0.06732888 0.06836015 -0.03149305 -0.092260115 -0.1528069 0.06545431 -0.08609115 -0.17927907 -0.1088231 0.08604685 -0.02381729 -0.053871807 0.0897648 -0.0738875 0.047731947 -0.04740308 -0.082833365 0.09637962 -0.09496484 0.06891394 -0.023894193 0.15050241 -0.13918073 0.16234368 -0.08365358 0.0501256 -0.1355973 -0.026462415 -0.03915714 0.15137665 -0.11469041 -0.18229994 -0.12251969
58 -0.06574936 -0.249592 -0.03157003 -0.08442023 0.014434578 -0.018596597 0.160496 0.06439471 0.0745398 0.006505514 -0.0074717193 0.20617008 0.06209406 -0.029986896 -0.011358143 -0.16899969 -0.14394785 -0.0012133793 0.022531962 0.067863405 0.18146434 -0.03699563 0.08320136 0.04978952 0.14189197 -0.11589658 -0.15665862 -0.14001402 -0.12650998 -0.058538068 -0.021129768 0.033940166 -0.17678766 -0.024027146 0.013089263 -0.058585487 0.07341291 0.035026465 -0.002085789 -0.0199536 -0.10539836 0.083328664 0.06248838 -0.004731821 -0.11886826 0.27439207 0.14654812 -0.09022669 0.035039894 -0.03359199 -0.005371932 0.057317298 0.07153924 -0.030959755 -0.08219122 -0.13775532 0.07361346 -0.085568085 -0.17413206 -0.110362425 0.10049101 -0.009225164 -0.06591127 0.07112751 -0.06919496 0.06443599 -0.027705655 -0.09371167 0.10705949 -0.06740477 0.077694215 -0.04822369 0.18084234 -0.14256099 0.14882417 -0.09436102 0.035421465 -0.13485117 -0.025174497 -0.047342323 0.14245406 -0.10617488 -0.17980893 -0.11622759
56 -0.06960002 -0.235999 -0.023234576 -0.07783942 0.0005711465 -0.021727564 0.12431539 0.049733162 0.06707721 0.0051153773 -0.00705719 0.22184587 0.040060613 -0.02576105 -0.003361586 -0.14461759 -0.1552252 -0.011365055 0.043236855 0.07395607 0.18580829 -0.031106537 0.09250605 0.060887437 0.14686358 -0.0999257 -0.15896745 -0.13977386 -0.12954523 -0.06112015 -0.022418823 0.034925025 -0.1966728 -0.031536702 0.011508873 -0.07060385 0.10238979 0.04952134 0.018235113 -0.0055253278 -0.10929273 0.11334867 0.06947592 0.0021020193 -0.13250278 0.28948647 0.12898602 -0.101964734 0.03602606 -0.04151656 -0.027023522 0.056186892 0.07306808 -0.029902944 -0.089865044 -0.1571132 0.07367989 -0.09067604 -0.20504735 -0.12036753 0.09660221 -0.0054156203 -0.055475987 0.089085035 -0.058628652 0.054280575 -0.0343726 -0.07719196 0.073367864 -0.089228176 0.07076217 -0.036156658 0.1542736 -0.1325575 0.13538255 -0.06866881 0.05445212 -0.14012134 -0.023775434 -0.04126235 0.14699389 -0.08594065 -0.16982947 -0.09578857
69 -0.05481449 -0.2144685 -0.010910213 -0.059642445 0.01059924 -0.021702604 0.13185066 0.05543989 0.07677814 0.019502394 -0.02253426 0.21205649 0.04402347 -0.02098374 0.011678237 -0.14054742 -0.13874169 -0.009656743 0.038855333 0.0637098 0.18752752 -0.036359824 0.096957564 0.033969443 0.15225302 -0.09652069 -0.15387532 -0.14730673 -0.12995152 -0.059816256 -0.017997015 0.034827184 -0.19545275 -0.036135614 0.010571847 -0.06793564 0.092547774 0.042382397 -0.0065199784 -0.019917902 -0.10938407 0.108013615 0.08795273 -0.0067655635 -0.13250718 0.28339553 0.14750607 -0.08784922 0.043971676 -0.03604532 -0.018423196 0.06009838 0.07110589 -0.025640944 -0.0943571 -0.15068185 0.090367295 -0.086746275 -0.2100575 -0.12788196 0.11176828 -0.023922041 -0.04778756 0.089230776 -0.07394206 0.06992148 -0.04811379 -0.09027051 0.09309385 -0.07775666 0.08090194 -0.02993332 0.1642272 -0.13070533 0.14950964 -0.084135644 0.051305257 -0.121590555 -0.026690193 -0.030279173 0.13190898 -0.10364341 -0.15418608 -0.092389636
13 -0.048452124 -0.20607118 -0.008617964 -0.07338817 0.009290152 -0.017676672 0.13265029 0.042806488 0.070483476 0.013921046 -0.0223857 0.19957583 0.04983277 -0.031766325 0.0034704339 -0.1325281 -0.1333692 -0.016977174 0.026595501 0.06162701 0.1960934 -0.0399084 0.078785725 0.054802883 0.13914695 -0.10175898 -0.15079834 -0.14333194 -0.14467937 -0.06499758 -0.01528853 0.04018743 -0.19483578 -0.037128787 -0.0036340617 -0.074212655 0.1041135 0.052800935 0.015469058 -0.024623912 -0.10915397 0.11256927 0.05903421 -0.002923786 -0.12039819 0.28772 0.13621797 -0.08820134 0.028114464 -0.02448618 -0.017312327 0.072485395 0.07411112 -0.028463135 -0.07330471 -0.15347691 0.06576457 -0.096472844 -0.19495337 -0.13658988 0.11241869 -0.024201512 -0.06013917 0.0926779 -0.063830815 0.05265284 -0.04726576 -0.09221169 0.09635144 -0.073774114 0.061521124 -0.037306882 0.15161934 -0.12933712 0.1485346 -0.09723763 0.04072244 -0.12149567 -0.0423106 -0.035351995 0.1280593 -0.10993835 -0.17397 -0.11450721
67 -0.07706884 -0.26027244 -0.009720491 -0.0648431 0.024792068 -0.02773341 0.15043604 0.05693013 0.09284082 0.017916752 -0.00083422987 0.22185764 0.064425215 -0.03352606 0.011867033 -0.1862831 -0.14794302 -0.011533822 0.033575 0.07823397 0.17860474 -0.04974365 0.11993759 0.04370051 0.16084671 -0.09484791 -0.15446143 -0.1445048 -0.10802888 -0.07055796 -0.024512302 0.026639575 -0.17904548 -0.03239392 -0.007509657 -0.060470205 0.054352395 0.014090403 -0.0008895615 -0.004521191 -0.08625425 0.08691084 0.09004358 0.0158766 -0.10838714 0.24916717 0.115981676 -0.086510494 0.052785683 -0.03572014 -0.013206676 0.042875636 0.060224395 -0.040567916 -0.098661795 -0.13829921 0.09028151 -0.058260683 -0.18114774 -0.1079967 0.09014785 -0.018688742 -0.056965638 0.08330555 -0.063797705 0.07493288 -0.035614137 -0.09033748 0.10388421 -0.055284537 0.08521502 -0.028747354 0.18588062 -0.1284318 0.14611943 -0.08989567 0.0341919 -0.1276869 -0.020727841 -0.030975532 0.16623957 -0.12116184 -0.20299883 -0.11962716
61 -0.08359644 -0.24591409 -0.00874912 -0.0668173 0.018308956 -0.023729755 0.1261805 0.053309847 0.07987777 0.0030378029 -0.017854575 0.22805938 0.06560277 -0.029944055 -0.015200691 -0.18627302 -0.15613873 -0.010251429 0.042195566 0.08563053 0.19459526 -0.04285085 0.11074799 0.054909877 0.1585093 -0.11581795 -0.17065038 -0.14359397 -0.11443741 -0.06582093 -0.015078382 0.021694794 -0.17317449 -0.03296415 0.0009357272 -0.058014635 0.07409045 0.029257584 0.00890053 -0.0129367225 -0.09523209 0.0841279 0.08001179 0.0059092357 -0.11689999 0.25386098 0.11588195 -0.08250529 0.039654486 -0.025781913 -0.01155539 0.043405727 0.06885527 -0.035109058 -0.095459305 -0.14203212 0.069189265 -0.07349974 -0.19073823 -0.11568659 0.08091479 -0.013296485 -0.04389276 0.08656177 -0.05953704 0.065333314 -0.03437521 -0.08541845 0.10601351 -0.061262146 0.06549103 -0.018922461 0.15888236 -0.13071641 0.14526984 -0.06841073 0.04143742 -0.12611857 -0.015426043 -0.03682157 0.14072506 -0.09614634 -0.17763598 -0.10982113
8 -0.041201107 -0.1812797 -0.016532624 -0.041033335 0.0027185297 -0.0118891625 0.09477745 0.045274176 0.068470135 0.01620742 -0.022330368 0.20008902 0.04071884 -0.015927132 0.009436068 -0.118528895 -0.12444136 -0.012241726 0.03272496 0.06721477 0.17322867 -0.030834312 0.1010555 0.031675726 0.13513093 -0.090839505 -0.14619884 -0.1347063 -0.13263716 -0.059412196 -0.008540628 0.043952886 -0.19354427 -0.03456061 -0.001994565 -0.059993755 0.092221804 0.042590156 0.0049733357 -0.0025356647 -0.114222154 0.10533261 0.08379566 0.005614174 -0.13559628 0.2906806 0.14357059 -0.10531789 0.04411572 -0.031840567 -0.027785385 0.059919737 0.07028327 -0.036235612 -0.09634494 -0.18770683 0.0816633 -0.08391077 -0.22658992 -0.15074562 0.1181253 -0.032600988 -0.06416676 0.103630185 -0.07081155 0.06651313 -0.04703082 -0.10065141 0.10321341 -0.089737706 0.0789831 -0.032369398 0.1629116 -0.13998495 0.16693163 -0.08286348 0.043016396 -0.1337389 -0.042014107 -0.042446073 0.16113529 -0.11677724 -0.18749079 -0.12033586
50 -0.070250034 -0.23224103 -0.026666448 -0.06763838 0.01770346 -0.030326474 0.15414849 0.06850286 0.08178164 0.0037359388 -0.011497731 0.22333284 0.05322381 -0.048284154 -0.0019022756 -0.14876582 -0.14040217 -0.012656334 0.025789903 0.07546926 0.20032103 -0.030175084 0.09853819 0.057785 0.14524534 -0.10173689 -0.15594111 -0.13858497 -0.1397847 -0.06653091 -0.014802219 0.019188384 -0.18800345 -0.044695854 0.011573551 -0.07125119 0.0872224 0.045922354 -0.0014697241 -0.011947248 -0.08352021 0.10687622 0.060976222 -0.008497567 -0.1077574 0.23501486 0.12899664 -0.07568443 0.02597901 -0.030258862 -0.00932926 0.064216375 0.07385519 -0.036356602 -0.0847126 -0.14377972 0.07083194 -0.078196935 -0.16760467 -0.12716793 0.09168002 -0.012523974 -0.058422662 0.086140074 -0.061577648 0.05081627 -0.03755608 -0.08050061 0.107491836 -0.077695645 0.07161342 -0.037168063 0.16762161 -0.1375348 0.15066463 -0.086910345 0.046795625 -0.14492731 -0.030060241 -0.04477551 0.15229905 -0.101926506 -0.19082566 -0.12353546
16 -0.049520165 -0.22397728 -0.0113174785 -0.072421744 0.00073436555 -0.020204857 0.1369401 0.05188644 0.0720325 0.017647495 -0.016246077 0.1912176 0.047018774 -0.01861701 0.00718086 -0.13391852 -0.1375592 -0.02036811 0.021245405 0.05167722 0.1472533 -0.028581377 0.08707257 0.040247817 0.12821458 -0.07906446 -0.12279183 -0.123994425 -0.120882526 -0.055487197 -0.016082888 0.03895774 -0.18084374 -0.0346422 0.0036589021 -0.059013605 0.0905958 0.03331181 0.002403579 -0.020275919 -0.11610449 0.106189705 0.078370206 0.00075540703 -0.12393617 0.28480768 0.14033844 -0.09761643 0.036712736 -0.025019238 -0.012237635 0.07354137 0.06803425 -0.023890506 -0.092725545 -0.15962744 0.08491684 -0.0911214 -0.2036229 -0.13702781 0.11759775 -0.021631781 -0.07842572 0.087646574 -0.06285038 0.06268804 -0.050178435 -0.08833729 0.0997906 -0.083200455 0.08346549 -0.047769602 0.18330497 -0.15112326 0.18415503 -0.1066 0.05411022 -0.13712522 -0.03651925 -0.029013306 0.15702634 -0.12002134 -0.18792467 -0.13769384
9 -0.053471547 -0.18050575 -0.0059740813 -0.059591435 0.004158431 -0.023766896 0.118317895 0.045830738 0.06642397 -0.0008251178 -0.0047996733 0.17950165 0.046553522 -0.03690668 -0.008467431 -0.12727942 -0.12948975 -0.0025383742 0.025132937 0.067150235 0.18629694 -0.017026989 0.086277746 0.05150555 0.121051244 -0.08249592 -0.14606372 -0.1362016 -0.12157636 -0.066372775 -0.013491284 0.032305345 -0.19388412 -0.030701507 0.015868254 -0.07235422 0.100486405 0.04661419 0.0176705 -0.0018929174 -0.12191087 0.11814563 0.065076455 0.0046715066 -0.13987193 0.29984695 0.13900363 -0.10273055 0.016440893 -0.043180373 -0.01402469 0.07498683 0.07716791 -0.030275252 -0.070913956 -0.15956882 0.06998199 -0.093981676 -0.21053134 -0.12910004 0.09331283 3.7661266e-05 -0.065184385 0.0955461 -0.06664222 0.052935045 -0.04183398 -0.089424096 0.102343984 -0.07934761 0.09145861 -0.0368025 0.1815317 -0.15585656 0.1657659 -0.10158277 0.045857 -0.14898203 -0.039383188 -0.03630663 0.15156826 -0.11374571 -0.20031594 -0.1340618
75 -0.07062869 -0.22021323 -0.005204862 -0.07064434 0.012057436 -0.0318516 0.14346816 0.054280292 0.07954884 0.0046141515 -0.0030360345 0.22105052 0.07554132 -0.042333577 -0.01856918 -0.18259759 -0.141966 -0.020732459 0.030294795 0.075580195 0.19374125 -0.03519508 0.08779117 0.05199516 0.12942925 -0.09528546 -0.14444256 -0.11809562 -0.108182475 -0.058261182 -0.024435 0.028009757 -0.16741216 -0.025793822 0.004527801 -0.06718433 0.07854593 0.053536322 0.0028580884 -0.02037621 -0.09533062 0.08480381 0.07140361 -0.0041421573 -0.116427526 0.2531591 0.1293843 -0.081018634 0.030010536 -0.015229523 -0.010040043 0.05910243 0.059438203 -0.05106158 -0.071301036 -0.13848849 0.07023086 -0.07799801 -0.16019174 -0.11385832 0.083165385 -0.010640487 -0.03485696 0.07289361 -0.08179687 0.06200803 -0.03710457 -0.07684798 0.12073404 -0.069327176 0.102045774 -0.044932 0.17735547 -0.15828381 0.17001817 -0.10902385 0.048397243 -0.1480182 -0.013704929 -0.04614692 0.1760577 -0.11574912 -0.20643397 -0.15264708
20 -0.05561863 -0.21256703 -0.00539616 -0.06559304 0.010564932 -0.024228187 0.1495921 0.0556568 0.06347266 0.0066732657 -0.017935667 0.19096695 0.054368623 -0.03405792 0.0040157763 -0.1531262 -0.14096576 -0.018146398 0.022968208 0.062761486 0.18291566 -0.03283476 0.10501916 0.05307814 0.13590632 -0.09207806 -0.14368498 -0.1447295 -0.13624689 -0.06523801 -0.015617173 0.025428163 -0.20003323 -0.033971995 0.010449111 -0.079361126 0.10765819 0.03306791 0.0029166862 -0.025062554 -0.11826058 0.10502262 0.07336396 0.011003431 -0.1202784 0.28466144 0.14153677 -0.08558589 0.039655212 -0.030183127 -0.018953111 0.0684419 0.070634976 -0.033164103 -0.07516112 -0.14228532 0.07620475 -0.09282609 -0.20231177 -0.13241972 0.1013562 -0.0016841034 -0.059479795 0.08859004 -0.05861686 0.057941828 -0.04856053 -0.08548701 0.08910979 -0.06641231 0.06447693 -0.03135456 0.14603722 -0.124473356 0.15854119 -0.08643753 0.027973488 -0.11990163 -0.03167978 -0.029878251 0.1363873 -0.10358782 -0.17137332 -0.112169296
31 -0.07147494 -0.23806639 -0.0061738007 -0.07411368 0.015487142 -0.029912591 0.1346329 0.043414004 0.059825007 0.0043036365 -0.0010400777 0.20537572 0.051418453 -0.0352312 0.0048013944 -0.15971746 -0.15664078 -0.010432869 0.036610413 0.07374873 0.21456374 -0.0316131 0.09131027 0.06728649 0.15266839 -0.10128786 -0.16482227 -0.14144938 -0.1393391 -0.057163328 -0.021154368 0.0388929 -0.22245163 -0.028192291 0.015843092 -0.081234254 0.093592264 0.039663296 0.014870137 -0.013787292 -0.11023702 0.108341016 0.06379029 -0.0009938456 -0.12701425 0.28860852 0.13787173 -0.1096719 0.016027926 -0.02666503 -0.01693877 0.061280254 0.06279152 -0.024723541 -0.06702146 -0.13288908 0.061479267 -0.09052437 -0.17086382 -0.12361495 0.09282955 0.0026749172 -0.060013983 0.06821349 -0.05980091 0.04937192 -0.04054799 -0.07279278 0.07074061 -0.08110109 0.0718325 -0.036124043 0.14102349 -0.12606671 0.1299076 -0.08908153 0.047622774 -0.13042061 -0.022499783 -0.03387568 0.13874368 -0.09586892 -0.16415699 -0.089850545
53 -0.049094588 -0.2282582 -0.023989744 -0.07621219 0.030311313 -0.033262208 0.14270273 0.06970672 0.0729939 0.01728651 -0.027553663 0.19739962 0.052017227 -0.040400103 0.0012658706 -0.14378183 -0.13379183 -0.012753808 0.031824306 0.08154065 0.20771982 -0.03248315 0.0904377 0.03852514 0.14667262 -0.1049644 -0.14424011 -0.14409837 -0.14025779 -0.080864385 -0.016016802 0.03249594 -0.18642414 -0.042024665 -0.012871733 -0.061386645 0.08833009 0.05245545 0.001449923 -0.013338997 -0.12032662 0.11658899 0.07094442 0.0036025175 -0.12675932 0.25922707 0.14163995 -0.07800162 0.035875127 -0.035595722 -0.0093739955 0.071736336 0.0772537 -0.018978072 -0.0651036 -0.14951111 0.07227683 -0.0863999 -0.18383652 -0.109431006 0.107301034 -0.016751058 -0.051785856 0.08073749 -0.06421783 0.0610427 -0.04564258 -0.081528 0.10837563 -0.08103894 0.087294474 -0.04092815 0.15950845 -0.13545042 0.13759188 -0.0926787 0.042080373 -0.12382514 -0.04485514 -0.033512115 0.13705604 -0.11749913 -0.18971421 -0.12398303
33 -0.06505407 -0.2083988 -0.00932554 -0.06688704 0.021696988 -0.021477517 0.1420002 0.06645974 0.0749715 0.008647652 -0.0031151616 0.21164078 0.065521166 -0.04082022 -0.0090655275 -0.17639215 -0.13546632 -0.0035742158 0.018768521 0.06593696 0.17739832 -0.03312436 0.094165064 0.044660293 0.11901032 -0.09645133 -0.14760615 -0.122208335 -0.115653835 -0.057206675 -0.014556196 0.029806703 -0.16693527 -0.016081193 0.00633121 -0.07062453 0.0781237 0.036621694 -0.0022681984 -0.023650784 -0.09626796 0.089578085 0.075881995 -0.009990765 -0.115153775 0.24026372 0.12022124 -0.07060208 0.024745416 -0.021539384 -0.007541141 0.06261342 0.07204418 -0.03650879 -0.09523725 -0.121524215 0.07877414 -0.09004098 -0.18708625 -0.12087106 0.09253399 -0.021488046 -0.06482191 0.0880605 -0.07278564 0.065932535 -0.039475653 -0.10235954 0.1288118 -0.075507864 0.09368555 -0.041976918 0.19739105 -0.1647805 0.19387719 -0.10061677 0.054307677 -0.15941344 -0.02539858 -0.04024878 0.16780588 -0.122548066 -0.2101323 -0.15024939
37 -0.08511063 -0.266706 -0.0002758339 -0.08446865 0.00805016 -0.02183117 0.1396807 0.06203727 0.078433655 0.00993984 -0.0066928174 0.24304008 0.054892037 -0.028692283 -0.008624389 -0.16049302 -0.1540142 -0.026688421 0.04541129 0.06153518 0.18149886 -0.03437675 0.09539665 0.062977575 0.11763097 -0.08019013 -0.12727796 -0.11543647 -0.112735376 -0.050564773 -0.01710214 0.034986567 -0.1613833 -0.021684067 0.00870295 -0.06331905 0.0738967 0.0457317 0.010055261 -0.01926436 -0.098186046 0.0871252 0.061786044 0.0008452333 -0.12429042 0.26667264 0.13052075 -0.070227094 0.02579583 -0.026815241 -0.011567618 0.058108594 0.047496732 -0.031233381 -0.079272844 -0.13340294 0.07566764 -0.07898754 -0.19103529 -0.117854185 0.090622336 -0.014794729 -0.049026195 0.09134151 -0.079183854 0.0553968 -0.036996868 -0.06818643 0.10402261 -0.07649228 0.084717914 -0.045579158 0.15712455 -0.13488139 0.16073005 -0.09199471 0.055205576 -0.15561934 -0.032720152 -0.04357998 0.15443131 -0.10896647 -0.17972794 -0.13012072
4 -0.08542354 -0.2560076 0.0017896717 -0.074864216 0.01493775 -0.034361728 0.15663119 0.061023686 0.07438347 0.0064217118 -0.0036622018 0.23248507 0.06785276 -0.045267243 -0.010227332 -0.17166255 -0.14131103 -0.016448261 0.032440975 0.072911285 0.18655269 -0.031987242 0.092324324 0.05258734 0.13168271 -0.08725569 -0.14063397 -0.12761568 -0.10502747 -0.056291267 -0.011181097 0.009131348 -0.1666144 -0.037818458 -1.8448292e-05 -0.06669945 0.093539365 0.0513214 0.0072754454 -0.02543508 -0.09124236 0.10052321 0.072606735 0.0019219266 -0.11601272 0.25926226 0.12647663 -0.087471135 0.022806322 -0.02634289 -0.0042363144 0.05234642 0.054921728 -0.03215219 -0.0806906 -0.13320366 0.07359182 -0.081072636 -0.17404018 -0.118910715 0.080435745 -0.009030925 -0.042356975 0.07467657 -0.05589548 0.059585307 -0.056579426 -0.06979948 0.107046604 -0.08106624 0.07498041 -0.03911188 0.16396564 -0.14699404 0.1626154 -0.09320814 0.05502529 -0.13794672 -0.02120119 -0.034407295 0.14056827 -0.10821215 -0.18139546 -0.13202544
71 -0.08201995 -0.2513178 -0.0079037575 -0.0729937 0.01543708 -0.019243753 0.10727303 0.03494202 0.073242046 -0.01479782 -0.018935155 0.2202067 0.057914186 -0.025705304 -0.0056593143 -0.1786646 -0.15711796 -0.007850369 0.047137458 0.08402717 0.21663696 -0.025454765 0.10629595 0.07953222 0.14895745 -0.12790799 -0.18424362 -0.16209267 -0.13119505 -0.07843197 -0.007950702 0.02962946 -0.1927599 -0.032896854 0.0137707675 -0.0638865 0.08134901 0.026509678 0.012529263 -0.008711172 -0.10364459 0.09604449 0.07288407 0.0012671466 -0.11200857 0.26808256 0.12998118 -0.100866854 0.02330208 -0.030678362 -0.021040348 0.06253487 0.06705595 -0.04509089 -0.08200578 -0.15653014 0.066447094 -0.07874374 -0.19720314 -0.12172041 0.07373886 -0.0036241938 -0.047343176 0.087293096 -0.06322236 0.05198006 -0.029111763 -0.07475026 0.07302254 -0.073123164 0.066533 -0.019992165 0.12696491 -0.11917716 0.13238968 -0.068808995 0.03600891 -0.13605514 -0.031639963 -0.048872944 0.12659726 -0.08754283 -0.15569863 -0.09064181
7 -0.06208123 -0.25461835 -0.01795101 -0.098219424 0.017211525 -0.02281892 0.16020188 0.06049834 0.079041 0.011301988 -0.012717168 0.2368289 0.05213289 -0.04035571 -0.0039575696 -0.16072981 -0.14244175 -0.0140407635 0.0250421 0.06206504 0.19618301 -0.03436564 0.082715526 0.05871064 0.13398251 -0.100270286 -0.15434024 -0.14240712 -0.12924227 -0.057429112 -0.010254424 0.04422389 -0.17918721 -0.03030534 0.006706444 -0.06648964 0.080033235 0.040820993 0.0073952586 -0.025832733 -0.11096717 0.10095471 0.062272314 -0.0010229137 -0.117734104 0.2616 0.13560021 -0.081860915 0.022505684 -0.024445463 -0.01264349 0.06714851 0.05975146 -0.017267032 -0.07488824 -0.118732974 0.07224665 -0.097815834 -0.19172312 -0.12064066 0.10140182 -0.017115578 -0.0494752 0.079827055 -0.061898425 0.05036146 -0.03560499 -0.07737822 0.088113815 -0.081972376 0.06359758 -0.036000982 0.13992591 -0.13530986 0.14311817 -0.08358383 0.056622054 -0.123210885 -0.029049937 -0.040359735 0.13917828 -0.09623811 -0.16946222 -0.106622495
52 -0.081727274 -0.24142407 0.004646781 -0.08401384 0.0067544226 -0.032579888 0.15300792 0.05401258 0.06632284 -0.002541125 0.0034790582 0.17829129 0.0621628 -0.0463617 -0.020826371 -0.16026044 -0.1102392 -0.0009164968 0.014425676 0.055897307 0.18004727 -0.033369135 0.07207598 0.043672707 0.1271971 -0.08440312 -0.14437103 -0.12436379 -0.112016 -0.060284503 -0.012007964 0.028482141 -0.17652074 -0.028343895 0.007863393 -0.073465385 0.084250644 0.041713573 0.016845562 -0.020963993 -0.09894944 0.11106832 0.063783236 0.0029504988 -0.12228756 0.27260688 0.12950625 -0.0958048 0.020580776 -0.029456003 -0.006812991 0.056983672 0.07350965 -0.03343094 -0.07303698 -0.1307193 0.06920697 -0.09133088 -0.18191688 -0.13180368 0.086939976 7.0224945e-05 -0.06274034 0.07171564 -0.07426577 0.06321127 -0.036342055 -0.08601599 0.10715189 -0.07461402 0.0885426 -0.04200923 0.18486524 -0.14719473 0.16481891 -0.10834092 0.050838 -0.15746176 -0.015724808 -0.049637344 0.16959667 -0.11813548 -0.20449963 -0.14142574
49 -0.07235612 -0.28520277 -0.0044940826 -0.08166482 0.01403428 -0.029643929 0.1540624 0.058370072 0.08880953 0.0047161276 -0.013226571 0.23121329 0.061860997 -0.050244685 0.0013376018 -0.1604003 -0.14229004 -0.009350749 0.040797878 0.079960614 0.1818776 -0.029153164 0.0879375 0.04985506 0.12541345 -0.083409086 -0.13199098 -0.13373335 -0.11774201 -0.07316505 -0.017745566 0.019044204 -0.1773409 -0.039036855 0.0062155286 -0.064008676 0.082137145 0.041179515 0.0017159277 -0.018344233 -0.09361431 0.113292105 0.06431818 -0.0016620441 -0.113860205 0.2622397 0.13146666 -0.07844709 0.018408356 -0.02544771 -0.008477002 0.06657742 0.06785458 -0.0316821 -0.083788455 -0.13945591 0.074224785 -0.070176974 -0.18869464 -0.11162459 0.07460108 -0.01823337 -0.03516671 0.08146347 -0.06692498 0.048663203 -0.039894834 -0.078141645 0.095843494 -0.07898037 0.070947334 -0.04955638 0.16137093 -0.14037931 0.13393436 -0.08553696 0.050282292 -0.13463047 -0.029716978 -0.047559805 0.12401299 -0.10424941 -0.18569481 -0.11567855
80 -0.07035993 -0.24742952 -0.0028468187 -0.06526768 0.03195438 -0.026277632 0.13665341 0.060195524 0.066731 0.014488928 -0.018376838 0.19441627 0.07604319 -0.033668242 -0.011879875 -0.16639483 -0.14689538 -0.014560491 0.042426083 0.0777603 0.19058509 -0.041606173 0.09664955 0.053691782 0.1533201 -0.09914587 -0.14279568 -0.12890984 -0.11003024 -0.06722229 -0.013105513 0.027027173 -0.1739209 -0.037164945 -0.021503367 -0.06332619 0.0794534 0.046748288 0.0017630794 -0.01754838 -0.10557676 0.090418115 0.08446388 0.001160148 -0.12816298 0.26917255 0.12668674 -0.08219819 0.04567435 -0.022075152 -0.0076149553 0.061196003 0.064214125 -0.035677064 -0.090370044 -0.1479796 0.07364039 -0.08422314 -0.18664591 -0.10161287 0.09965947 -0.022064801 -0.04613747 0.086214066 -0.060208816 0.0657913 -0.043075632 -0.06475981 0.11379642 -0.059493717 0.08441248 -0.027367504 0.17114346 -0.1353492 0.13756335 -0.09620029 0.044948723 -0.121931694 -0.020248117 -0.027776644 0.14625663 -0.111691765 -0.1913383 -0.13663921
65 -0.080248386 -0.25695175 -0.004752113 -0.0736189 0.027561754 -0.031188404 0.15205927 0.060740795 0.08179125 0.0153496405 0.0008235276 0.22488408 0.07130841 -0.03477836 -0.004781387 -0.17958252 -0.15012738 -0.015036836 0.03383315 0.081208855 0.18882486 -0.03641251 0.110725336 0.053288136 0.14471424 -0.08554199 -0.15338145 -0.12927109 -0.11720717 -0.059027422 -0.01974995 0.027585918 -0.17369717 -0.023006337 -0.0102692945 -0.07538954 0.07667655 0.040932838 0.0031080302 -0.010208275 -0.07860437 0.09077166 0.079709426 -0.0025775027 -0.112117 0.22850433 0.10533427 -0.078115806 0.032710478 -0.026144098 -0.025292661 0.046595704 0.06261155 -0.031704053 -0.098173395 -0.13113967 0.072220474 -0.07830041 -0.16697595 -0.11887141 0.08339696 -0.022833636 -0.058069818 0.080187395 -0.0626837 0.064652435 -0.041410174 -0.086001344 0.117894076 -0.06260278 0.07010897 -0.029979315 0.16523094 -0.14582412 0.16038541 -0.091793224 0.05326786 -0.13360468 -0.020458393 -0.03046352 0.16355073 -0.110789336 -0.19540632 -0.13555181
26 -0.073280916 -0.2766977 -0.0055008116 -0.08815301 0.0107088 -0.026924822 0.16885091 0.056449957 0.075613245 -0.0008218441 -0.021194382 0.23338692 0.072547615 -0.0441919 -0.01571919 -0.17636876 -0.14791748 -0.019293994 0.03009309 0.07928505 0.19960812 -0.02481795 0.10977083 0.07794289 0.12484882 -0.10023228 -0.15148358 -0.14190546 -0.1124499 -0.05773762 -0.01649228 0.014726721 -0.15900153 -0.029043034 0.0020449639 -0.067237094 0.08496222 0.031214384 0.012914918 -0.020593213 -0.10198722 0.08859569 0.056027837 0.0047323657 -0.107089676 0.26854277 0.12139184 -0.090539485 0.026174242 -0.023367614 -0.0038661794 0.06283399 0.05905499 -0.036337133 -0.07861229 -0.14686656 0.07512951 -0.08385101 -0.19556925 -0.11735915 0.08172386 -0.0006534838 -0.05450336 0.07743263 -0.057136312 0.050400436 -0.033175867 -0.07373177 0.097814225 -0.069096856 0.06582542 -0.04299731 0.14097437 -0.13798457 0.14962675 -0.08343392 0.033792645 -0.1240549 -0.03379323 -0.048589423 0.12246457 -0.090703204 -0.16548097 -0.12447133
23 -0.064152785 -0.19885541 -0.014191334 -0.07524239 0.015611037 -0.023044363 0.12742485 0.052740864 0.06672368 1.8808498e-05 -0.0077231466 0.21184374 0.06061866 -0.03632034 -0.01640611 -0.15816496 -0.14770909 -0.010291934 0.030331172 0.072703816 0.19516475 -0.028844215 0.08050239 0.06761919 0.1303962 -0.10101752 -0.15556812 -0.1325825 -0.11762953 -0.060978554 -0.01785659 0.030610405 -0.17143004 -0.026805297 0.0029357686 -0.06915362 0.09340328 0.044081535 0.009589838 -0.017961333 -0.10961805 0.09531636 0.065436184 -0.003107026 -0.11678888 0.2715298 0.12743004 -0.08139889 0.018643757 -0.02788521 -0.00650232 0.06206481 0.073100396 -0.041633625 -0.08157739 -0.14573361 0.073879495 -0.100859836 -0.18628678 -0.11717557 0.097986065 -0.0068479152 -0.054972675 0.08850736 -0.06737838 0.056323487 -0.034005694 -0.06308272 0.10716524 -0.06403142 0.08436378 -0.036861375 0.17121968 -0.15521698 0.16128723 -0.0969896 0.056679185 -0.14192028 -0.026465125 -0.038290333 0.15716444 -0.1076926 -0.18016918 -0.14187974
60 -0.068267405 -0.25306383 -0.002545333 -0.070244834 0.0071423366 -0.018716756 0.12803353 0.04787375 0.0705164 0.0046630315 -0.016911618 0.2183944 0.06203845 -0.02812924 -0.0103856 -0.1799492 -0.17947401 -0.02217545 0.03936097 0.07849487 0.20226856 -0.04274483 0.11474864 0.07124003 0.13651434 -0.09671685 -0.14608236 -0.12424682 -0.101415835 -0.049783606 -0.024152173 0.02316033 -0.15992467 -0.023010936 -0.005744847 -0.058053166 0.06333244 0.03389458 0.0060227783 -0.025990412 -0.093769535 0.074774034 0.070770554 0.0020427534 -0.11454307 0.2781301 0.12475394 -0.10064736 0.03828568 -0.027702851 -0.019503025 0.052596908 0.055625588 -0.039319687 -0.103629634 -0.15744159 0.079378486 -0.07858671 -0.18560632 -0.11845671 0.10557873 -0.019785574 -0.057056215 0.07988341 -0.0739416 0.06625813 -0.03441507 -0.07064554 0.09500605 -0.069010064 0.06796678 -0.037806354 0.16806757 -0.1273595 0.15459721 -0.099823974 0.05038025 -0.14546865 -0.030114295 -0.03907644 0.14613308 -0.10452921 -0.17057064 -0.13430382
6 -0.087243505 -0.28096437 -0.0025996005 -0.08218076 0.025884677 -0.023595445 0.15529512 0.07200043 0.0712253 0.0018163252 -0.019268291 0.21270376 0.044291783 -0.036831997 0.0041681076 -0.15216959 -0.13385698 -0.01173842 0.03557179 0.06615811 0.18711126 -0.03345303 0.090387955 0.044528924 0.1392413 -0.10641137 -0.14657009 -0.14334889 -0.13647641 -0.06436888 -0.0011717562 0.016251316 -0.1754402 -0.038037125 0.01327882 -0.07001834 0.09232993 0.040068615 -0.0046192245 -0.03660994 -0.106262706 0.10043047 0.0891258 -0.004120195 -0.12940553 0.25841168 0.14438903 -0.08204009 0.02990155 -0.017396627 -0.005642197 0.07095821 0.06663591 -0.034098227 -0.07468431 -0.15526298 0.07031594 -0.08151791 -0.20206262 -0.13840489 0.09116511 -0.009124974 -0.048388828 0.09094903 -0.06389571 0.053230476 -0.041781828 -0.08074837 0.0907157 -0.0824317 0.07572664 -0.02467671 0.14832763 -0.1126673 0.15745823 -0.08211483 0.044900924 -0.118925005 -0.031503204 -0.031400733 0.11321533 -0.09350018 -0.14595778 -0.091973044
39 -0.09712569 -0.28406337 -0.010360964 -0.082244545 0.031138707 -0.017110076 0.17265616 0.08471733 0.07577945 0.017350897 -0.014740686 0.23900694 0.055470932 -0.030573793 0.006534242 -0.16753326 -0.15502341 -0.014379495 0.032665633 0.08373067 0.17781882 -0.03703518 0.102356374 0.04529734 0.1377875 -0.087810226 -0.13859197 -0.123013385 -0.116532125 -0.059081595 -0.009763706 0.020529138 -0.17670363 -0.030841816 0.00079190236 -0.06684436 0.084990665 0.03964619 -0.0042862133 -0.0119428625 -0.09164357 0.09495869 0.06898304 0.002219527 -0.120990746 0.25411242 0.12549262 -0.066900074 0.031173922 -0.02735066 -0.0043788166 0.056024935 0.06534967 -0.03406862 -0.07306813 -0.13246386 0.06942443 -0.07590442 -0.17470717 -0.124873035 0.08699217 -0.01196813 -0.061205465 0.086567424 -0.060484648 0.057995476 -0.04556201 -0.06931339 0.115228705 -0.06755904 0.07658473 -0.03846325 0.15699223 -0.1301155 0.1429596 -0.08047542 0.037269883 -0.121204704 -0.024771873 -0.029817797 0.1537539 -0.119973294 -0.1890011 -0.11981506
59 -0.09127639 -0.29625627 -0.0015524925 -0.08406668 0.0207614 -0.026185123 0.16277663 0.054851122 0.070801735 0.0062955273 -0.01348465 0.23583603 0.07208241 -0.042730883 -0.022708977 -0.18000434 -0.15154131 -0.012578797 0.03699025 0.08117058 0.19790937 -0.03032146 0.09689502 0.06012665 0.13013482 -0.10555465 -0.14213397 -0.12984836 -0.107784435 -0.05817805 -0.009623591 0.019407058 -0.1534652 -0.030328767 -0.0006948185 -0.05230987 0.0797071 0.040201925 0.0026530542 -0.02453633 -0.08716122 0.08816486 0.06832624 -0.0039830357 -0.113405 0.2425087 0.12612753 -0.090285376 0.022165254 -0.021875402 -0.0011900861 0.057869248 0.054559797 -0.045044906 -0.08293316 -0.15185544 0.07148947 -0.07812042 -0.18929635 -0.12049896 0.077774055 -0.005220581 -0.046589576 0.08311467 -0.05843393 0.045279846 -0.03421868 -0.06935319 0.1052025 -0.070678614 0.07199631 -0.02827764 0.14177956 -0.13029218 0.14258415 -0.090434365 0.045072187 -0.12606841 -0.020993471 -0.030216157 0.13391176 -0.10165551 -0.17800958 -0.12679578
68 -0.11824422 -0.31502405 -0.0036098182 -0.09204683 0.040578354 -0.019063018 0.16205063 0.06299991 0.06806305 2.273575e-05 -0.005807904 0.26235563 0.054671172 -0.04078499 -0.00021264442 -0.18897857 -0.1704627 -0.014894583 0.045275763 0.08284179 0.20004718 -0.035793837 0.094112195 0.05289398 0.14807853 -0.11822757 -0.16875458 -0.14055648 -0.11631289 -0.07484774 -0.019507276 0.035489477 -0.1744917 -0.019322077 0.0068248133 -0.068890736 0.08045745 0.05000149 0.0035807972 -0.018563481 -0.07778788 0.092060104 0.08483032 -0.0050327755 -0.124004975 0.22881804 0.12503672 -0.068908505 0.021858819 -0.019559525 -0.013354022 0.047097757 0.051164795 -0.036110558 -0.08265754 -0.1251208 0.066106066 -0.07859463 -0.17126785 -0.10927479 0.07479492 -0.024569934 -0.030886913 0.072597116 -0.05559742 0.051202863 -0.036568336 -0.07402896 0.0979593 -0.064269885 0.06970884 -0.02960871 0.13204387 -0.12734506 0.13193898 -0.06864366 0.05065892 -0.12568693 -0.026690472 -0.034858007 0.14102079 -0.09148598 -0.16953813 -0.097347826
27 -0.0540596 -0.23753776 -0.023368854 -0.07979369 0.012315204 -0.017958159 0.13285717 0.063530736 0.075536095 0.009803126 -0.012692309 0.2155572 0.05876223 -0.038977254 0.0010725228 -0.16837724 -0.1559228 -0.010892433 0.03793953 0.07394391 0.20349374 -0.03177239 0.10381743 0.07070738 0.13497524 -0.10291511 -0.1403185 -0.1334769 -0.13254063 -0.0677694 -0.019439096 0.014371815 -0.17196952 -0.037087437 0.0020574452 -0.063370064 0.07840055 0.035113517 0.004194007 -0.021585306 -0.10038664 0.10041539 0.05637649 0.0035296143 -0.11191331 0.270372 0.13074125 -0.073388726 0.03322522 -0.030971877 -0.0015151653 0.065762825 0.06727141 -0.015075567 -0.09533962 -0.1454265 0.068627626 -0.08261568 -0.17711826 -0.103513844 0.08927801 -0.0042758803 -0.058768023 0.09016753 -0.06365968 0.05669872 -0.047210217 -0.07568458 0.10908028 -0.0809058 0.06189865 -0.046127968 0.17797883 -0.14744072 0.14192556 -0.09707242 0.0498083 -0.14447205 -0.035853066 -0.040232304 0.1259675 -0.10213127 -0.18129607 -0.11437459
40 -0.068266414 -0.2567257 -0.0035719764 -0.07521453 0.012315005 -0.026385395 0.122295186 0.046844803 0.094498836 0.0051119267 -0.012617414 0.23665674 0.078938745 -0.048352823 -0.017519368 -0.19266352 -0.15811679 -0.017844668 0.035069883 0.07848581 0.20286828 -0.028729111 0.0973494 0.07051403 0.12472363 -0.086282 -0.14161012 -0.1386997 -0.107402235 -0.06480945 -0.013622502 0.016547354 -0.16298155 -0.02844729 -0.0087005915 -0.051901847 0.056984983 0.045891225 0.010865136 -0.017254326 -0.08989952 0.103977405 0.056657914 0.001522745 -0.101065844 0.2591909 0.12038896 -0.096806206 0.027073592 -0.026358904 -0.004932055 0.055683166 0.05812934 -0.038254883 -0.08521636 -0.15283027 0.077887505 -0.06988554 -0.17463757 -0.10832441 0.09294721 -0.013711763 -0.045774154 0.07337468 -0.07230813 0.05920108 -0.0364041 -0.06416532 0.112458475 -0.06393604 0.07229608 -0.052603476 0.1583276 -0.13996981 0.12750803 -0.09559548 0.056027915 -0.14184752 -0.03166145 -0.050615195 0.13578476 -0.10340629 -0.18756397 -0.14260122
74 -0.071006194 -0.24083482 -0.010007367 -0.06881708 0.023352366 -0.0044540656 0.13611251 0.07234275 0.08117327 0.0012065893 -0.021704553 0.23800416 0.054236475 -0.018738473 -0.00038513658 -0.16404136 -0.15555125 -0.0127735 0.045959607 0.07093625 0.1814262 -0.036219984 0.105845295 0.049337324 0.13868004 -0.0928431 -0.15490837 -0.13593133 -0.12761289 -0.06055207 -0.01375946 0.038360648 -0.19734819 -0.033428077 0.011079329 -0.078146614 0.08926637 0.034971423 -0.007343484 -0.009258121 -0.103302285 0.0924199 0.07427685 0.00055559323 -0.122040525 0.2660498 0.13460986 -0.08183803 0.04092223 -0.024588551 -0.013745886 0.05408561 0.06930954 -0.033895265 -0.08840527 -0.15285979 0.07228995 -0.07927285 -0.19849078 -0.13113281 0.09462785 -0.025488617 -0.043186497 0.09359527 -0.066036746 0.06838743 -0.02953642 -0.08809429 0.097506516 -0.06815051 0.07077026 -0.031410523 0.15655413 -0.13370429 0.143411 -0.08019076 0.04424594 -0.119818315 -0.028392484 -0.037690282 0.12960076 -0.10305882 -0.16544047 -0.09452351
47 -0.065282926 -0.19079943 -0.020683005 -0.06402789 0.014653634 -0.025171367 0.12047429 0.05859995 0.07167988 -0.00070705806 -0.012407577 0.21929778 0.061528478 -0.02615651 -0.008567415 -0.13244131 -0.14037797 -0.015013012 0.037488297 0.07128088 0.17629026 -0.024032392 0.08112463 0.05800413 0.1343757 -0.09586351 -0.14073548 -0.112782486 -0.121741734 -0.067952394 -0.02006405 0.03472199 -0.16062988 -0.044110477 0.016354552 -0.05968564 0.078265116 0.041969236 -0.006207071 -0.008556126 -0.09080425 0.09672322 0.059369355 -0.017049937 -0.11575435 0.2520011 0.13262688 -0.075139634 0.022733044 -0.026874064 -0.0068204347 0.074728414 0.0761232 -0.047160406 -0.081340864 -0.14574438 0.07290025 -0.09148118 -0.16967747 -0.13201939 0.084491216 -0.02163662 -0.05694758 0.08814686 -0.084325016 0.054868188 -0.030033842 -0.07105004 0.1094044 -0.07882651 0.092423 -0.04864218 0.19315301 -0.16250679 0.16915509 -0.10585365 0.050674483 -0.16445057 -0.031269412 -0.051996373 0.16880989 -0.12615591 -0.20573953 -0.15045151
30 -0.056734547 -0.2483775 -0.009971574 -0.0740245 0.008654896 -0.025383437 0.15054289 0.049314458 0.075168654 0.020311292 -0.018609954 0.20897181 0.066481195 -0.036722496 -0.014870439 -0.14888623 -0.13398327 -0.010185238 0.022416973 0.067306444 0.19644587 -0.037326764 0.09647831 0.049249724 0.1365296 -0.10644789 -0.1404367 -0.14097168 -0.12775958 -0.060999624 -0.008056618 0.03297656 -0.165633 -0.032335196 -0.003612057 -0.05375368 0.0743325 0.052770082 0.01978707 -0.029141713 -0.110432416 0.10356935 0.06948875 0.002151037 -0.12327501 0.27583393 0.12960798 -0.09890564 0.03514889 -0.022040144 -0.018407194 0.07148881 0.074402414 -0.035961423 -0.07651497 -0.14065908 0.06119169 -0.091849685 -0.18275423 -0.11608524 0.11356003 -0.033956952 -0.050073594 0.07986774 -0.061293837 0.053391065 -0.041499883 -0.092473194 0.09820216 -0.061938114 0.073025346 -0.031788338 0.15705408 -0.13262503 0.14766462 -0.10037099 0.04446286 -0.112814166 -0.036638763 -0.031108364 0.12107665 -0.110737965 -0.17640859 -0.13540512
77 -0.06723939 -0.23723947 0.00027162585 -0.05214482 0.0072334213 -0.028052256 0.11437097 0.050075274 0.06837994 0.011168606 -0.017728748 0.21287127 0.055246167 -0.023121757 0.0017960364 -0.16103157 -0.16040272 -0.020164084 0.04753108 0.08347829 0.1942079 -0.034932464 0.11670753 0.05428712 0.14844967 -0.09449074 -0.15387659 -0.13700369 -0.12530518 -0.06574222 -0.020874057 0.026684873 -0.18751705 -0.033375736 -0.0033715612 -0.07119039 0.08871441 0.052371822 0.004581893 -0.017844873 -0.10163096 0.09923273 0.08652297 0.004696068 -0.12309834 0.26277646 0.1298685 -0.08452963 0.03659914 -0.027659373 -0.026011454 0.05401582 0.057546314 -0.047100283 -0.090009905 -0.17006494 0.0790152 -0.07058588 -0.18722734 -0.11488493 0.08904204 -0.016296566 -0.045095038 0.09050286 -0.06133274 0.059692096 -0.048562795 -0.06707359 0.095472075 -0.06863696 0.074126504 -0.030265251 0.1653489 -0.13423552 0.1576422 -0.08394441 0.044341743 -0.14338781 -0.03765321 -0.03618486 0.14667986 -0.09908197 -0.17754954 -0.1203877
28 -0.08264875 -0.26083523 0.00013059529 -0.075138904 0.009686654 -0.021139016 0.159515 0.06446183 0.073418215 0.0019939009 -0.011740685 0.24463251 0.070407905 -0.03792235 -0.012794067 -0.16864873 -0.15186203 -0.011886647 0.04389985 0.07590026 0.17615952 -0.03471425 0.08844326 0.042327236 0.1260083 -0.09397468 -0.15046245 -0.13732389 -0.112381324 -0.065302804 -0.009783266 0.040629044 -0.16659741 -0.026593741 0.019283053 -0.058023214 0.08931352 0.047804393 0.009429021 -0.019280184 -0.0877422 0.100448295 0.06863995 -0.009666565 -0.12955478 0.25978643 0.13079111 -0.085006624 0.020345606 -0.025645416 -0.021278394 0.059626866 0.071895726 -0.037074264 -0.08095834 -0.14626922 0.070914604 -0.0849274 -0.20067382 -0.12828147 0.08714054 -0.032063514 -0.034775924 0.07618936 -0.07139946 0.044450834 -0.033667497 -0.08350999 0.09533374 -0.06833254 0.06820188 -0.034861546 0.14090036 -0.13826881 0.15420789 -0.07904113 0.049250714 -0.12915471 -0.031075362 -0.041569207 0.13981411 -0.10900419 -0.1801269 -0.12387795
83 -0.08859233 -0.24455741 0.00013191692 -0.071153626 0.033786677 -0.016715987 0.12651439 0.057599984 0.060669307 0.017468795 -0.0066388175 0.210991 0.05943925 -0.018796619 -0.0058013145 -0.1553733 -0.15175766 -0.02374837 0.0492818 0.06368993 0.18774733 -0.042692084 0.0829305 0.046955578 0.15218242 -0.1097851 -0.14734513 -0.11791858 -0.120062545 -0.061400294 -0.022230253 0.04794807 -0.1744435 -0.022173962 -0.011115759 -0.055651236 0.06810154 0.047019936 0.0024250862 -0.019897563 -0.09445103 0.06279555 0.076899275 -0.0036266523 -0.13067992 0.24814917 0.13193879 -0.07498996 0.037468545 -0.010486951 0.0024666088 0.0548517 0.041894067 -0.035689373 -0.07546384 -0.15090908 0.07305188 -0.078330815 -0.19799045 -0.12073896 0.1101602 -0.022849442 -0.055275656 0.10129591 -0.078310736 0.06410827 -0.037437752 -0.07366453 0.1160733 -0.06757402 0.10457838 -0.031281654 0.16695686 -0.13795668 0.14768472 -0.09944767 0.05176065 -0.13729863 -0.027777843 -0.027954848 0.1679178 -0.12297662 -0.19540502 -0.12964655
72 -0.066112034 -0.2511293 -0.015259381 -0.07276209 0.016184134 -0.010531474 0.11685487 0.04986904 0.06795955 0.0010497164 -0.0095229 0.22317748 0.03206725 -0.04185933 0.009331622 -0.12273741 -0.14424805 -0.0027768314 0.040550068 0.06994171 0.18626703 -0.024639182 0.08027587 0.045052316 0.14091021 -0.09946774 -0.14869423 -0.14996535 -0.14095555 -0.08598127 -0.01974965 0.03335959 -0.19833484 -0.0417111 0.016862178 -0.0699046 0.09648817 0.049882475 0.008272294 -0.0178627 -0.090034015 0.13738516 0.06534217 -0.009542274 -0.13252595 0.26663858 0.13870919 -0.07744811 0.019164922 -0.04051761 -0.026210917 0.06986619 0.068788126 -0.010580571 -0.09565547 -0.14161943 0.06763621 -0.08263697 -0.19482985 -0.11936411 0.07761494 -0.03380831 -0.048078496 0.088683136 -0.061998893 0.04385669 -0.048714 -0.092944436 0.090174526 -0.0967776 0.045785625 -0.034217376 0.15742189 -0.1495796 0.15469164 -0.07086724 0.06310979 -0.15145405 -0.034656502 -0.05596531 0.12993978 -0.105825305 -0.18808067 -0.101240546
48 -0.07073441 -0.27618024 0.00626179 -0.079007395 0.008581022 -0.032363713 0.13673463 0.05553496 0.07424825 0.0025833726 -0.021323707 0.20120071 0.062218938 -0.030238034 0.009429918 -0.1598607 -0.13709964 -0.01798359 0.03961438 0.065607056 0.18121149 -0.02858183 0.097498395 0.058776863 0.12678729 -0.07576745 -0.13550913 -0.13593538 -0.13726631 -0.073362656 -0.013570154 0.024515122 -0.18012135 -0.027047303 -0.006142424 -0.075265944 0.07930027 0.029578747 0.003533348 -0.012855558 -0.10869614 0.083691224 0.08224492 0.011493932 -0.10821065 0.26412502 0.12583797 -0.097003534 0.021325655 -0.031952836 -0.007959607 0.070626155 0.056135632 -0.035330754 -0.091280214 -0.15598714 0.0728361 -0.061523974 -0.210036 -0.12122245 0.10415571 -0.0139066875 -0.050817408 0.08940131 -0.06797851 0.063534625 -0.047236186 -0.083260015 0.09952401 -0.07949377 0.07653696 -0.045939866 0.16183536 -0.124742694 0.15849654 -0.094394304 0.045924075 -0.13785428 -0.033336066 -0.0398783 0.14394628 -0.09938708 -0.16888188 -0.11703439
34 -0.077363834 -0.22350837 -0.00682549 -0.051895604 0.012735797 -0.032421518 0.16105485 0.056050587 0.07439965 0.016700707 -0.018259915 0.21360242 0.06003525 -0.03136659 -0.012735549 -0.15741463 -0.14539716 -0.019509986 0.033803843 0.0816667 0.18847178 -0.041604456 0.1116656 0.050406683 0.15775463 -0.1042507 -0.14367351 -0.13292748 -0.12847738 -0.047129977 -0.013933152 0.029127358 -0.19179004 -0.031034334 0.0029137237 -0.06625506 0.10286292 0.05803846 5.108397e-05 -0.012977019 -0.094082795 0.1035671 0.080364905 0.005487832 -0.12246787 0.24826258 0.14246486 -0.08362003 0.043522418 -0.019293472 -0.0065909163 0.049043525 0.06660567 -0.044537574 -0.0754697 -0.15171786 0.073376864 -0.08027825 -0.16458865 -0.11895041 0.08771801 -0.0052306037 -0.057461143 0.09556981 -0.06370507 0.05900949 -0.04761159 -0.07622798 0.117150955 -0.06487422 0.08205831 -0.035219442 0.17334595 -0.13391082 0.16096674 -0.09898193 0.030725507 -0.12254372 -0.009830081 -0.02074613 0.13982797 -0.10300746 -0.172452 -0.11900054
36 -0.08109175 -0.2580214 0.0048290556 -0.09679415 0.023608042 -0.041010518 0.17974709 0.080063194 0.082297705 0.009053248 -0.007615563 0.23046508 0.0666774 -0.047042467 -0.021221498 -0.15154773 -0.12952177 -0.012527325 0.025943035 0.056739993 0.1812092 -0.021503584 0.07510949 0.061071396 0.112479635 -0.09056285 -0.108422406 -0.10331199 -0.10742266 -0.053718403 -0.010079695 0.010012554 -0.15029967 -0.024536708 0.012648849 -0.065707296 0.07347956 0.04505275 0.0071320063 -0.026992748 -0.08651593 0.0817055 0.06855244 -0.0029137018 -0.118505195 0.22963506 0.13290058 -0.06929291 0.019537179 -0.0030970755 0.0042429436 0.06953364 0.068876274 -0.047908176 -0.06601254 -0.1232337 0.052621935 -0.090903856 -0.17823505 -0.12433395 0.081398405 -0.010450891 -0.04132714 0.0908345 -0.08130217 0.048956312 -0.022778967 -0.07357566 0.12258015 -0.07983296 0.08974005 -0.043294128 0.17486455 -0.1533497 0.15933888 -0.11364456 0.06533798 -0.15115266 -0.010989345 -0.051425435 0.16868798 -0.1232797 -0.20947228 -0.1592242
5 -0.08380313 -0.30787814 -0.012229422 -0.0930649 0.030776368 -0.029484082 0.18935202 0.08018417 0.097904585 -0.008749569 -0.020219494 0.2518871 0.07526118 -0.051903915 -0.003684563 -0.1831074 -0.14589274 -0.014458395 0.027114918 0.07190484 0.19893304 -0.017221596 0.09394823 0.064058885 0.111383505 -0.094267815 -0.13474655 -0.12506878 -0.12148982 -0.07051938 -0.01621606 0.008469838 -0.14423886 -0.026787687 0.013285255 -0.06435891 0.062122602 0.03164305 -0.009753023 -0.022553729 -0.07334942 0.07430308 0.06306901 -0.0057155304 -0.0963437 0.20006563 0.11599095 -0.061764237 0.017288283 -0.015690064 -0.0052878098 0.08178752 0.067461714 -0.038705893 -0.071990654 -0.13617688 0.05647526 -0.06525722 -0.15106572 -0.11103927 0.071535185 -0.017260222 -0.035713613 0.0757325 -0.07585263 0.05562906 -0.030283678 -0.085297905 0.12545252 -0.082458936 0.07849948 -0.042749073 0.16982946 -0.15891731 0.1731812 -0.10972289 0.047570255 -0.15006687 -0.038183257 -0.052976307 0.14791644 -0.118014105 -0.21212515 -0.14305381
73 -0.09332825 -0.22718973 0.019923288 -0.06569936 0.03199891 -0.03219903 0.14994965 0.049982674 0.05739099 0.0041699563 -0.010008629 0.21354935 0.05734657 -0.018254474 -0.0036467852 -0.19066559 -0.14741108 -0.030534267 0.025466625 0.053935673 0.19449094 -0.046250902 0.11181804 0.0524718 0.14712861 -0.10517466 -0.17251404 -0.12815577 -0.10869421 -0.055143315 -0.027378356 0.03293286 -0.16613138 -0.017533243 0.0033010102 -0.07529464 0.048939444 0.025054822 -0.0038665032 -0.037384845 -0.10077713 0.059943408 0.1016496 0.007829057 -0.12057444 0.26321223 0.12739499 -0.08535693 0.0390803 -0.01665374 -0.032490287 0.05149592 0.043188274 -0.037982173 -0.08345147 -0.13393347 0.080147624 -0.065150574 -0.17419824 -0.12365351 0.091102034 -0.023774056 -0.042276893 0.06459983 -0.088775486 0.078967795 -0.041855864 -0.09589229 0.11385778 -0.055042233 0.09182749 -0.020558545 0.16578847 -0.12098965 0.18489093 -0.10480051 0.0433364 -0.15562707 -0.015193198 -0.036499653 0.17000921 -0.11420223 -0.169835 -0.12573235
29 -0.07815049 -0.24700199 -0.017140532 -0.081461325 0.0214863 -0.03315709 0.13024573 0.0450643 0.07623882 0.017867688 -0.0051264497 0.25186828 0.053978767 -0.028462902 -0.014818145 -0.16375488 -0.16288114 -0.026986463 0.04114296 0.07376966 0.18851306 -0.030486131 0.081067294 0.0457765 0.123836465 -0.091155484 -0.14391181 -0.1229084 -0.100380525 -0.040943403 -0.005957571 0.035013504 -0.15550299 -0.028433498 0.007270776 -0.04871395 0.08879033 0.059191283 0.00560979 -0.021762732 -0.082480736 0.102609314 0.052060273 -0.026552593 -0.11186298 0.24619745 0.1183176 -0.07944963 0.021353621 -0.02360967 -0.020768585 0.05591111 0.06188243 -0.03739533 -0.09091103 -0.13669749 0.09015622 -0.08801459 -0.1721242 -0.12350403 0.10294771 -0.020104188 -0.06904573 0.079911605 -0.07934205 0.054042332 -0.047621723 -0.07363413 0.111109026 -0.06384427 0.07383364 -0.03557103 0.16327365 -0.15701032 0.17440781 -0.0859299 0.07260126 -0.14469548 -0.02125295 -0.040500883 0.15253136 -0.107605025 -0.18075131 -0.15215258
79 -0.06831778 -0.2521369 -0.009994316 -0.091218665 0.052596997 -0.03582438 0.13395199 0.0856696 0.06089318 0.028787512 -0.024316747 0.23131597 0.07464245 -0.04580956 -0.009837037 -0.16785474 -0.13221483 -0.015648985 0.06093017 0.08810551 0.20154054 -0.0521276 0.09992344 0.05081725 0.14177285 -0.100990646 -0.1342522 -0.12597479 -0.123841815 -0.07825097 -0.013484393 0.040960744 -0.15407111 -0.043869283 -0.027845945 -0.05658677 0.08897582 0.05333817 -0.0069943257 -0.03238636 -0.09675271 0.103658214 0.0860591 -0.007847319 -0.12828398 0.24223575 0.12910873 -0.04744677 0.040888257 -0.033203065 -0.010540377 0.060879648 0.06666785 -0.029018512 -0.10012761 -0.15446784 0.09472112 -0.08547653 -0.20567614 -0.1144904 0.0927851 -0.0426652 -0.052918117 0.081571706 -0.07859031 0.055037476 -0.04760404 -0.07816939 0.11817726 -0.06571692 0.07929951 -0.025774414 0.16205272 -0.13941284 0.14443354 -0.07864204 0.06179829 -0.12029528 -0.048759244 -0.0408026 0.1396838 -0.114806555 -0.16569035 -0.13487892
78 -0.07474768 -0.2536329 0.001672639 -0.07702638 0.039513487 -0.04197184 0.1502643 0.064385585 0.07517138 0.021512324 -0.03101259 0.21557288 0.07549014 -0.047715124 0.0046395087 -0.17225277 -0.15032268 -0.033807475 0.05012284 0.07615658 0.20687255 -0.04268898 0.11351058 0.072375245 0.15941004 -0.10014496 -0.14927752 -0.13696377 -0.12551795 -0.08014273 -0.008975739 0.03862284 -0.17302866 -0.04210626 -0.019357262 -0.06907888 0.077004544 0.05461354 0.008799773 -0.013709289 -0.10603184 0.098639704 0.08531796 -0.0020234755 -0.118248954 0.24467161 0.12659866 -0.06406405 0.042798914 -0.013544335 -0.0026525212 0.08200268 0.060280934 -0.045127608 -0.09013216 -0.1544175 0.08699838 -0.08699973 -0.19995293 -0.10556223 0.09493572 -0.036059033 -0.041393492 0.0907271 -0.06348378 0.05506134 -0.050177176 -0.075638704 0.108788885 -0.050402183 0.09153262 -0.031117057 0.17062588 -0.14230584 0.14291698 -0.090568006 0.042733688 -0.12331868 -0.038407307 -0.032464657 0.13504949 -0.10420626 -0.17186154 -0.12100502
35 -0.06903485 -0.24904047 -0.013765869 -0.08431371 0.009841208 -0.02801276 0.1539268 0.05390978 0.07687364 0.02540722 -0.008686736 0.2331982 0.058540996 -0.036320686 -0.0022516912 -0.16278018 -0.14004962 -0.0026518197 0.027790982 0.07834776 0.20133129 -0.025038647 0.08595879 0.05710323 0.124540694 -0.079782195 -0.12030663 -0.11329877 -0.11465683 -0.05449154 -0.0101677105 0.022001026 -0.16743572 -0.028703684 0.01256714 -0.060720127 0.082838625 0.04019956 0.011746492 -0.021588292 -0.10257186 0.106668144 0.071066484 -0.009727904 -0.12035471 0.26003894 0.12705448 -0.082734816 0.01796494 -0.0295955 -0.010108927 0.06431817 0.0737773 -0.037134483 -0.072301805 -0.14291777 0.07961931 -0.09341863 -0.18351525 -0.12235577 0.09011308 -0.020962665 -0.05631628 0.080219105 -0.08380774 0.054602817 -0.050755087 -0.08177822 0.11315758 -0.075418994 0.086792305 -0.04012471 0.18416034 -0.1588902 0.17198679 -0.112680286 0.056397796 -0.13493857 -0.030728117 -0.038833603 0.14722924 -0.13202079 -0.19591472 -0.14945103
